{"learner":{"attributes":{"scikit_learn":"{\"_estimator_type\": \"classifier\"}"},"feature_names":["prob_buy","prob_sell","rsi","vol_brk","vol_imb","regime_strength"],"feature_types":["float","float","float","int","float","float"],"gradient_booster":{"model":{"cats":{"enc":[],"feature_segments":[],"sorted_idx":[]},"gbtree_model_param":{"num_parallel_tree":"1","num_trees":"100"},"iteration_indptr":[0,1,2,3,4,5,6,7,8,9,10,11,12,13,14,15,16,17,18,19,20,21,22,23,24,25,26,27,28,29,30,31,32,33,34,35,36,37,38,39,40,41,42,43,44,45,46,47,48,49,50,51,52,53,54,55,56,57,58,59,60,61,62,63,64,65,66,67,68,69,70,71,72,73,74,75,76,77,78,79,80,81,82,83,84,85,86,87,88,89,90,91,92,93,94,95,96,97,98,99,100],"tree_info":[0,0,0,0,0,0,0,0,0,0,0,0,0,0,0,0,0,0,0,0,0,0,0,0,0,0,0,0,0,0,0,0,0,0,0,0,0,0,0,0,0,0,0,0,0,0,0,0,0,0,0,0,0,0,0,0,0,0,0,0,0,0,0,0,0,0,0,0,0,0,0,0,0,0,0,0,0,0,0,0,0,0,0,0,0,0,0,0,0,0,0,0,0,0,0,0,0,0,0,0],"trees":[{"base_weights":[9.407706E-8,-3.8738498E-1,6.3776124E-1,-5.746341E-1,6.9748275E-2,1.960842E-1,1.1802922E0,1.7890139E-2,-4.4868317E-2,-7.1567926E-3,5.5456717E-2,8.263111E-2,-1.709513E-3],"categories":[],"categories_nodes":[],"categories_segments":[],"categories_sizes":[],"default_left":[0,0,0,0,0,0,0,0,0,0,0,0,0],"id":0,"left_children":[1,3,5,7,-1,9,11,-1,-1,-1,-1,-1,-1],"loss_changes":[1.3395571E1,1.2059179E1,4.67817E0,9.719852E0,0E0,4.028279E0,5.216607E0,0E0,0E0,0E0,0E0,0E0,0E0],"parents":[2147483647,0,0,1,1,2,2,3,3,5,5,6,6],"right_children":[2,4,6,8,-1,10,12,-1,-1,-1,-1,-1,-1],"split_conditions":[4.4E-1,6.623161E1,9.8533183E-1,4.042284E1,6.9748275E-2,7.3E-1,6.5E-1,1.7890139E-2,-4.4868317E-2,-7.1567926E-3,5.5456717E-2,8.263111E-2,-1.709513E-3],"split_indices":[5,2,1,2,0,5,5,0,0,0,0,0,0],"split_type":[0,0,0,0,0,0,0,0,0,0,0,0,0],"sum_hessian":[5.2220097E1,3.2731255E1,1.948884E1,3.0232687E1,2.4985693E0,1.1493419E1,7.9954214E0,7.7455645E0,2.2487123E1,8.994849E0,2.4985693E0,5.4968524E0,2.4985693E0],"tree_param":{"num_deleted":"0","num_feature":"6","num_nodes":"13","size_leaf_vector":"1"}},{"base_weights":[3.260605E-3,-3.6671084E-1,6.12936E-1,-5.465974E-1,6.739934E-2,1.0300227E0,9.5975764E-2,1.7105805E-2,-4.269631E-2,6.582811E-2,-3.495069E-2,-2.0537782E-2,6.577904E-2],"categories":[],"categories_nodes":[],"categories_segments":[],"categories_sizes":[],"default_left":[0,0,0,0,0,0,0,0,0,0,0,0,0],"id":1,"left_children":[1,3,5,7,-1,9,11,-1,-1,-1,-1,-1,-1],"loss_changes":[1.222422E1,1.1141775E1,4.313737E0,8.8250675E0,0E0,6.480995E0,6.8695116E0,0E0,0E0,0E0,0E0,0E0,0E0],"parents":[2147483647,0,0,1,1,2,2,3,3,5,5,6,6],"right_children":[2,4,6,8,-1,10,12,-1,-1,-1,-1,-1,-1],"split_conditions":[4.4E-1,6.623161E1,6.285673E-2,4.042284E1,6.739934E-2,7.1E-1,7.3E-1,1.7105805E-2,-4.269631E-2,6.582811E-2,-3.495069E-2,-2.0537782E-2,6.577904E-2],"split_indices":[5,2,0,2,0,5,5,0,0,0,0,0,0],"split_type":[0,0,0,0,0,0,0,0,0,0,0,0,0],"sum_hessian":[5.2197895E1,3.2732956E1,1.946494E1,3.0241581E1,2.4913757E0,1.022383E1,9.241109E0,7.741631E0,2.249995E1,8.975028E0,1.248802E0,6.997102E0,2.2440069E0],"tree_param":{"num_deleted":"0","num_feature":"6","num_nodes":"13","size_leaf_vector":"1"}},{"base_weights":[5.355671E-3,-4.1411874E-1,4.9713808E-1,3.3880424E-1,-1.2572831E0,-1.3032669E-1,8.588187E-1,4.9171685E-3,6.370526E-2,1.3238013E-3,-7.367238E-2,-3.4762144E-2,6.3217364E-2,5.1799484E-2,-3.3966642E-2],"categories":[],"categories_nodes":[],"categories_segments":[],"categories_sizes":[],"default_left":[0,0,0,0,0,0,0,0,0,0,0,0,0,0,0],"id":2,"left_children":[1,3,5,7,9,11,13,-1,-1,-1,-1,-1,-1,-1,-1],"loss_changes":[1.1165352E1,1.8973778E1,5.7650304E0,3.5230746E0,3.9225636E0,8.73929E0,5.0458784E0,0E0,0E0,0E0,0E0,0E0,0E0,0E0,0E0],"parents":[2147483647,0,0,1,1,2,2,3,3,4,4,5,5,6,6],"right_children":[2,4,6,8,10,12,14,-1,-1,-1,-1,-1,-1,-1,-1],"split_conditions":[9.4082254E-1,4.1287643E1,2.5E-1,7.3E-1,1.9E-1,6.623161E1,7.1E-1,4.9171685E-3,6.370526E-2,1.3238013E-3,-7.367238E-2,-3.4762144E-2,6.3217364E-2,5.1799484E-2,-3.3966642E-2],"split_indices":[1,2,5,5,5,2,5,0,0,0,0,0,0,0,0],"split_type":[0,0,0,0,0,0,0,0,0,0,0,0,0,0,0],"sum_hessian":[5.212653E1,2.8216604E1,2.3909924E1,1.52219715E1,1.2994633E1,8.976547E0,1.4933377E1,1.2987978E1,2.2339933E0,1.9992118E0,1.0995421E1,6.74569E0,2.2308571E0,1.3683701E1,1.2496768E0],"tree_param":{"num_deleted":"0","num_feature":"6","num_nodes":"15","size_leaf_vector":"1"}},{"base_weights":[5.9201475E-3,-3.3315778E-1,5.6612086E-1,-5.000214E-1,6.333254E-2,1.6921784E-1,1.0577036E0,1.6423488E-2,-3.936189E-2,-3.367077E-2,2.3850763E-2,7.514032E-2,-3.1855633E-3],"categories":[],"categories_nodes":[],"categories_segments":[],"categories_sizes":[],"default_left":[0,0,0,0,0,0,0,0,0,0,0,0,0],"id":3,"left_children":[1,3,5,7,-1,9,11,-1,-1,-1,-1,-1,-1],"loss_changes":[1.0260373E1,9.618824E0,3.794056E0,7.682237E0,0E0,3.5520623E0,4.5411644E0,0E0,0E0,0E0,0E0,0E0,0E0],"parents":[2147483647,0,0,1,1,2,2,3,3,5,5,6,6],"right_children":[2,4,6,8,-1,10,12,-1,-1,-1,-1,-1,-1],"split_conditions":[4.4E-1,6.623161E1,9.8533183E-1,4.042284E1,6.333254E-2,4.8E-1,6.5E-1,1.6423488E-2,-3.936189E-2,-3.367077E-2,2.3850763E-2,7.514032E-2,-3.1855633E-3],"split_indices":[5,2,1,2,0,5,5,0,0,0,0,0,0],"split_type":[0,0,0,0,0,0,0,0,0,0,0,0,0],"sum_hessian":[5.2022774E1,3.2659775E1,1.9362999E1,3.0197554E1,2.462223E0,1.1456928E1,7.9060717E0,7.7367754E0,2.2460777E1,2.7474885E0,8.709439E0,5.4162145E0,2.489857E0],"tree_param":{"num_deleted":"0","num_feature":"6","num_nodes":"13","size_leaf_vector":"1"}},{"base_weights":[7.6186E-3,-3.846779E-1,4.6894452E-1,3.155619E-1,-1.1704737E0,-2.4808946E-1,7.478929E-1,4.2347414E-3,6.1084058E-2,2.5928663E-3,-6.896035E-2,-5.2030373E-2,5.9516538E-2,4.4597026E-2,-3.3085644E-2],"categories":[],"categories_nodes":[],"categories_segments":[],"categories_sizes":[],"default_left":[0,0,0,0,0,0,0,0,0,0,0,0,0,0,0],"id":4,"left_children":[1,3,5,7,9,11,13,-1,-1,-1,-1,-1,-1,-1,-1],"loss_changes":[9.751874E0,1.6398983E1,5.1371665E0,3.283814E0,3.6280956E0,9.998757E0,4.259677E0,0E0,0E0,0E0,0E0,0E0,0E0,0E0,0E0],"parents":[2147483647,0,0,1,1,2,2,3,3,4,4,5,5,6,6],"right_children":[2,4,6,8,10,12,14,-1,-1,-1,-1,-1,-1,-1,-1],"split_conditions":[9.4082254E-1,4.1287643E1,1.9E-1,7.3E-1,1.9E-1,6.623161E1,7.1E-1,4.2347414E-3,6.1084058E-2,2.5928663E-3,-6.896035E-2,-5.2030373E-2,5.9516538E-2,4.4597026E-2,-3.3085644E-2],"split_indices":[1,2,5,5,5,2,5,0,0,0,0,0,0,0,0],"split_type":[0,0,0,0,0,0,0,0,0,0,0,0,0,0,0],"sum_hessian":[5.188797E1,2.8131775E1,2.3756195E1,1.51921425E1,1.2939632E1,6.6844664E0,1.7071728E1,1.297879E1,2.2133522E0,1.9969809E0,1.0942652E1,4.4881945E0,2.196272E0,1.5822109E1,1.2496197E0],"tree_param":{"num_deleted":"0","num_feature":"6","num_nodes":"15","size_leaf_vector":"1"}},{"base_weights":[7.60015E-3,-3.6661366E-1,4.4784275E-1,3.0424714E-1,-1.1220882E0,-2.35656E-1,7.1322685E-1,4.038678E-3,5.9343662E-2,2.5063108E-3,-6.6170685E-2,-5.0000727E-2,5.7879735E-2,4.263209E-2,-3.2174457E-2],"categories":[],"categories_nodes":[],"categories_segments":[],"categories_sizes":[],"default_left":[0,0,0,0,0,0,0,0,0,0,0,0,0,0,0],"id":5,"left_children":[1,3,5,7,9,11,13,-1,-1,-1,-1,-1,-1,-1,-1],"loss_changes":[8.84922E0,1.5062368E1,4.643365E0,3.093791E0,3.3407173E0,9.306547E0,3.9571304E0,0E0,0E0,0E0,0E0,0E0,0E0,0E0,0E0],"parents":[2147483647,0,0,1,1,2,2,3,3,4,4,5,5,6,6],"right_children":[2,4,6,8,10,12,14,-1,-1,-1,-1,-1,-1,-1,-1],"split_conditions":[9.4082254E-1,4.1287643E1,1.9E-1,7.3E-1,1.9E-1,6.623161E1,7.1E-1,4.038678E-3,5.9343662E-2,2.5063108E-3,-6.6170685E-2,-5.0000727E-2,5.7879735E-2,4.263209E-2,-3.2174457E-2],"split_indices":[1,2,5,5,5,2,5,0,0,0,0,0,0,0,0],"split_type":[0,0,0,0,0,0,0,0,0,0,0,0,0,0,0],"sum_hessian":[5.1718094E1,2.8045868E1,2.3672226E1,1.5171164E1,1.2874704E1,6.6519923E0,1.7020233E1,1.2977009E1,2.1941557E0,1.9971784E0,1.0877526E1,4.477701E0,2.1742911E0,1.5771145E1,1.2490895E0],"tree_param":{"num_deleted":"0","num_feature":"6","num_nodes":"15","size_leaf_vector":"1"}},{"base_weights":[7.5845844E-3,-2.94938E-1,5.0899714E-1,-4.4527343E-1,5.830718E-2,1.4128566E-1,9.708604E-1,1.6133683E-2,-3.5716217E-2,-3.120373E-2,2.1159012E-2,6.991215E-2,-4.0096687E-3],"categories":[],"categories_nodes":[],"categories_segments":[],"categories_sizes":[],"default_left":[0,0,0,0,0,0,0,0,0,0,0,0,0],"id":6,"left_children":[1,3,5,7,-1,9,11,-1,-1,-1,-1,-1,-1],"loss_changes":[8.114363E0,7.8511763E0,3.2805715E0,6.633393E0,0E0,2.9338832E0,4.042556E0,0E0,0E0,0E0,0E0,0E0,0E0],"parents":[2147483647,0,0,1,1,2,2,3,3,5,5,6,6],"right_children":[2,4,6,8,-1,10,12,-1,-1,-1,-1,-1,-1],"split_conditions":[4.4E-1,6.623161E1,9.8533183E-1,4.042284E1,5.830718E-2,4.8E-1,6.5E-1,1.6133683E-2,-3.5716217E-2,-3.120373E-2,2.1159012E-2,6.991215E-2,-4.0096687E-3],"split_indices":[5,2,1,2,0,5,5,0,0,0,0,0,0],"split_type":[0,0,0,0,0,0,0,0,0,0,0,0,0],"sum_hessian":[5.1503872E1,3.237968E1,1.9124193E1,2.9989235E1,2.3904457E0,1.1374395E1,7.7497973E0,7.7290497E0,2.2260185E1,2.7349603E0,8.639435E0,5.2746706E0,2.4751265E0],"tree_param":{"num_deleted":"0","num_feature":"6","num_nodes":"13","size_leaf_vector":"1"}},{"base_weights":[9.091987E-3,-3.4172663E-1,4.2293897E-1,2.834558E-1,-1.0510658E0,-2.2918607E-1,6.7551255E-1,3.4222684E-3,5.7153285E-2,3.615663E-3,-6.240356E-2,-4.7347672E-2,5.4858077E-2,4.0546555E-2,-3.132906E-2],"categories":[],"categories_nodes":[],"categories_segments":[],"categories_sizes":[],"default_left":[0,0,0,0,0,0,0,0,0,0,0,0,0,0,0],"id":7,"left_children":[1,3,5,7,9,11,13,-1,-1,-1,-1,-1,-1,-1,-1],"loss_changes":[7.7380595E0,1.3096292E1,4.180738E0,2.902524E0,3.1293802E0,8.246177E0,3.659441E0,0E0,0E0,0E0,0E0,0E0,0E0,0E0,0E0],"parents":[2147483647,0,0,1,1,2,2,3,3,4,4,5,5,6,6],"right_children":[2,4,6,8,10,12,14,-1,-1,-1,-1,-1,-1,-1,-1],"split_conditions":[9.4082254E-1,4.1287643E1,1.9E-1,7.3E-1,1.9E-1,6.623161E1,7.1E-1,3.4222684E-3,5.7153285E-2,3.615663E-3,-6.240356E-2,-4.7347672E-2,5.4858077E-2,4.0546555E-2,-3.132906E-2],"split_indices":[1,2,5,5,5,2,5,0,0,0,0,0,0,0,0],"split_type":[0,0,0,0,0,0,0,0,0,0,0,0,0,0,0],"sum_hessian":[5.1302353E1,2.7859818E1,2.3442535E1,1.5127477E1,1.2732342E1,6.5705333E0,1.6872002E1,1.2964377E1,2.1630988E0,1.9941401E0,1.0738202E1,4.44897E0,2.1215637E0,1.5624278E1,1.2477239E0],"tree_param":{"num_deleted":"0","num_feature":"6","num_nodes":"15","size_leaf_vector":"1"}},{"base_weights":[9.019242E-3,-3.2623932E-1,4.0464553E-1,2.735531E-1,-1.0112238E0,-1.1173148E-1,7.0309955E-1,-5.854127E-3,3.5845164E-2,3.4947952E-3,-6.0134925E-2,-2.8663186E-2,5.3505313E-2,4.9044393E-2,-1.1361426E-2],"categories":[],"categories_nodes":[],"categories_segments":[],"categories_sizes":[],"default_left":[0,0,0,0,0,0,0,0,0,0,0,0,0,0,0],"id":8,"left_children":[1,3,5,7,9,11,13,-1,-1,-1,-1,-1,-1,-1,-1],"loss_changes":[7.03402E0,1.2076616E1,3.8259752E0,2.8722396E0,2.9037495E0,5.942115E0,4.2406516E0,0E0,0E0,0E0,0E0,0E0,0E0,0E0,0E0],"parents":[2147483647,0,0,1,1,2,2,3,3,4,4,5,5,6,6],"right_children":[2,4,6,8,10,12,14,-1,-1,-1,-1,-1,-1,-1,-1],"split_conditions":[9.4082254E-1,4.1287643E1,2.5E-1,3.743822E-3,1.9E-1,6.623161E1,6.0701714E1,-5.854127E-3,3.5845164E-2,3.4947952E-3,-6.0134925E-2,-2.8663186E-2,5.3505313E-2,4.9044393E-2,-1.1361426E-2],"split_indices":[1,2,5,1,5,2,2,0,0,0,0,0,0,0,0],"split_type":[0,0,0,0,0,0,0,0,0,0,0,0,0,0,0],"sum_hessian":[5.1036785E1,2.7721031E1,2.3315754E1,1.5099826E1,1.2621205E1,8.769183E0,1.4546572E1,8.418343E0,6.6814837E0,1.9945238E0,1.0626681E1,6.676723E0,2.0924602E0,1.1159955E1,3.3866167E0],"tree_param":{"num_deleted":"0","num_feature":"6","num_nodes":"15","size_leaf_vector":"1"}},{"base_weights":[9.287665E-3,4.4754195E-1,-2.697438E-1,8.3598053E-1,-3.8231943E-2,-5.5875236E-1,5.29533E-1,5.3162497E-2,1.7139582E-2,-4.483715E-2,3.5318118E-2,1.0948827E-2,-4.4217676E-2,-5.8876746E-3,5.480578E-2],"categories":[],"categories_nodes":[],"categories_segments":[],"categories_sizes":[],"default_left":[0,0,0,0,0,0,0,0,0,0,0,0,0,0,0],"id":9,"left_children":[1,3,5,7,9,11,13,-1,-1,-1,-1,-1,-1,-1,-1],"loss_changes":[6.4522123E0,3.9034514E0,7.7475033E0,9.183178E-1,7.07235E0,6.3163185E0,3.4591088E0,0E0,0E0,0E0,0E0,0E0,0E0,0E0,0E0],"parents":[2147483647,0,0,1,1,2,2,3,3,4,4,5,5,6,6],"right_children":[2,4,6,8,10,12,14,-1,-1,-1,-1,-1,-1,-1,-1],"split_conditions":[2.053886E-2,9.964725E-1,4.8E-1,5.506888E1,4.2E-1,2E-1,3.513766E1,5.3162497E-2,1.7139582E-2,-4.483715E-2,3.5318118E-2,1.0948827E-2,-4.4217676E-2,-5.8876746E-3,5.480578E-2],"split_indices":[0,1,5,2,5,5,2,0,0,0,0,0,0,0,0],"split_type":[0,0,0,0,0,0,0,0,0,0,0,0,0,0,0],"sum_hessian":[5.077578E1,1.9517368E1,3.1258413E1,1.0444624E1,9.072743E0,2.317834E1,8.080072E0,6.358608E0,4.0860167E0,4.1191077E0,4.953635E0,6.936744E0,1.6241596E1,4.1411858E0,3.9388871E0],"tree_param":{"num_deleted":"0","num_feature":"6","num_nodes":"15","size_leaf_vector":"1"}},{"base_weights":[1.0338177E-2,4.2987177E-1,-2.5672272E-1,8.0320114E-1,-3.7344735E-2,-5.344444E-1,5.093542E-1,6.600097E-2,2.6645217E-2,-4.303833E-2,3.407828E-2,1.0472502E-2,-4.237825E-2,-5.647077E-3,5.2821435E-2],"categories":[],"categories_nodes":[],"categories_segments":[],"categories_sizes":[],"default_left":[0,0,0,0,0,0,0,0,0,0,0,0,0,0,0],"id":10,"left_children":[1,3,5,7,9,11,13,-1,-1,-1,-1,-1,-1,-1,-1],"loss_changes":[5.8897552E0,3.5948746E0,7.1112814E0,8.8973665E-1,6.5258985E0,5.786506E0,3.205354E0,0E0,0E0,0E0,0E0,0E0,0E0,0E0,0E0],"parents":[2147483647,0,0,1,1,2,2,3,3,4,4,5,5,6,6],"right_children":[2,4,6,8,10,12,14,-1,-1,-1,-1,-1,-1,-1,-1],"split_conditions":[2.053886E-2,9.964725E-1,4.8E-1,9.7896934E-1,4.2E-1,2E-1,3.513766E1,6.600097E-2,2.6645217E-2,-4.303833E-2,3.407828E-2,1.0472502E-2,-4.237825E-2,-5.647077E-3,5.2821435E-2],"split_indices":[0,1,5,1,5,5,2,0,0,0,0,0,0,0,0],"split_type":[0,0,0,0,0,0,0,0,0,0,0,0,0,0,0],"sum_hessian":[5.058288E1,1.9437817E1,3.1145061E1,1.0404767E1,9.03305E0,2.3080261E1,8.0648E0,2.2393837E0,8.165383E0,4.118501E0,4.9145484E0,6.9351664E0,1.6145094E1,4.144264E0,3.920536E0],"tree_param":{"num_deleted":"0","num_feature":"6","num_nodes":"15","size_leaf_vector":"1"}},{"base_weights":[1.1780696E-2,4.1418007E-1,-2.4443194E-1,7.7373356E-1,-3.6471374E-2,2.1007065E-1,-6.87102E-1,4.9657155E-2,1.5248008E-2,-4.1340876E-2,3.2891016E-2,5.8279256E-5,5.5327702E-2,-5.580544E-2,6.4436304E-3],"categories":[],"categories_nodes":[],"categories_segments":[],"categories_sizes":[],"default_left":[0,0,0,0,0,0,0,0,0,0,0,0,0,0,0],"id":11,"left_children":[1,3,5,7,9,11,13,-1,-1,-1,-1,-1,-1,-1,-1],"loss_changes":[5.3978877E0,3.3266656E0,6.586071E0,8.663416E-1,6.0250893E0,3.1007063E0,5.903694E0,0E0,0E0,0E0,0E0,0E0,0E0,0E0,0E0],"parents":[2147483647,0,0,1,1,2,2,3,3,4,4,5,5,6,6],"right_children":[2,4,6,8,10,12,14,-1,-1,-1,-1,-1,-1,-1,-1],"split_conditions":[2.053886E-2,9.964725E-1,4.1287643E1,5.506888E1,4.2E-1,7.3E-1,1.11985564E-1,4.9657155E-2,1.5248008E-2,-4.1340876E-2,3.2891016E-2,5.8279256E-5,5.5327702E-2,-5.580544E-2,6.4436304E-3],"split_indices":[0,1,2,2,5,5,1,0,0,0,0,0,0,0,0],"split_type":[0,0,0,0,0,0,0,0,0,0,0,0,0,0,0],"sum_hessian":[5.0374E1,1.9356598E1,3.1017403E1,1.03677435E1,8.988855E0,1.556342E1,1.5453982E1,6.300291E0,4.0674524E0,4.114378E0,4.874477E0,1.3434189E1,2.129232E0,9.887636E0,5.5663457E0],"tree_param":{"num_deleted":"0","num_feature":"6","num_nodes":"15","size_leaf_vector":"1"}},{"base_weights":[1.2446862E-2,-7.6424696E-2,5.7538796E-2,-3.150835E-1,4.726072E-1,-7.861041E-3,-5.8954984E-2,4.044565E-2,7.678884E-5],"categories":[],"categories_nodes":[],"categories_segments":[],"categories_sizes":[],"default_left":[0,0,0,0,0,0,0,0,0],"id":12,"left_children":[1,3,-1,5,7,-1,-1,-1,-1],"loss_changes":[5.2589645E0,6.4843698E0,0E0,4.4931583E0,2.3829727E0,0E0,0E0,0E0,0E0],"parents":[2147483647,0,0,1,1,3,3,4,4],"right_children":[2,4,-1,6,8,-1,-1,-1,-1],"split_conditions":[6.623161E1,4.8E-1,5.7538796E-2,5.9608284E1,6.5E-1,-7.861041E-3,-5.8954984E-2,4.044565E-2,7.678884E-5],"split_indices":[2,5,0,2,5,0,0,0,0],"split_type":[0,0,0,0,0,0,0,0,0],"sum_hessian":[5.0114635E1,4.7350735E1,2.7639012E0,3.330116E1,1.4049577E1,2.9156075E1,4.1450834E0,7.778908E0,6.2706695E0],"tree_param":{"num_deleted":"0","num_feature":"6","num_nodes":"9","size_leaf_vector":"1"}},{"base_weights":[1.2512483E-2,-7.328128E-2,5.6126554E-2,-3.4761015E-1,3.6687323E-1,-7.428055E-3,-7.037785E-2,3.950083E-3,3.8161393E-2],"categories":[],"categories_nodes":[],"categories_segments":[],"categories_sizes":[],"default_left":[0,0,0,0,0,0,0,0,0],"id":13,"left_children":[1,3,-1,5,7,-1,-1,-1,-1],"loss_changes":[4.936219E0,5.953742E0,0E0,6.170661E0,2.1090531E0,0E0,0E0,0E0,0E0],"parents":[2147483647,0,0,1,1,3,3,4,4],"right_children":[2,4,-1,6,8,-1,-1,-1,-1],"split_conditions":[6.623161E1,4.4E-1,5.6126554E-2,5.9608284E1,9.8533183E-1,-7.428055E-3,-7.037785E-2,3.950083E-3,3.8161393E-2],"split_indices":[2,5,0,2,1,0,0,0,0],"split_type":[0,0,0,0,0,0,0,0,0],"sum_hessian":[4.9969467E1,4.7251373E1,2.7180948E0,2.9238537E1,1.8012835E1,2.557578E1,3.6627562E0,1.1129107E1,6.8837285E0],"tree_param":{"num_deleted":"0","num_feature":"6","num_nodes":"9","size_leaf_vector":"1"}},{"base_weights":[1.23574855E-2,3.9526793E-1,-2.2915637E-1,7.4210614E-1,-4.3465972E-2,2.0211093E-1,-6.534646E-1,6.3094944E-2,2.3682684E-2,-3.814817E-2,2.9709274E-2,9.437213E-6,5.3849913E-2,-5.336407E-2,6.226975E-3],"categories":[],"categories_nodes":[],"categories_segments":[],"categories_sizes":[],"default_left":[0,0,0,0,0,0,0,0,0,0,0,0,0,0,0],"id":14,"left_children":[1,3,5,7,9,11,13,-1,-1,-1,-1,-1,-1,-1,-1],"loss_changes":[4.787938E0,3.077645E0,5.947712E0,9.696679E-1,4.9405985E0,2.9191055E0,5.3665724E0,0E0,0E0,0E0,0E0,0E0,0E0,0E0,0E0],"parents":[2147483647,0,0,1,1,2,2,3,3,4,4,5,5,6,6],"right_children":[2,4,6,8,10,12,14,-1,-1,-1,-1,-1,-1,-1,-1],"split_conditions":[2.053886E-2,9.964725E-1,4.1287643E1,9.7896934E-1,4.2E-1,7.3E-1,1.11985564E-1,6.3094944E-2,2.3682684E-2,-3.814817E-2,2.9709274E-2,9.437213E-6,5.3849913E-2,-5.336407E-2,6.226975E-3],"split_indices":[0,1,2,1,5,5,1,0,0,0,0,0,0,0,0],"split_type":[0,0,0,0,0,0,0,0,0,0,0,0,0,0,0],"sum_hessian":[4.979425E1,1.901311E1,3.0781143E1,1.0232445E1,8.780664E0,1.5525093E1,1.5256049E1,2.224535E0,8.00791E0,4.0332284E0,4.7474356E0,1.34265E1,2.098593E0,9.716219E0,5.5398307E0],"tree_param":{"num_deleted":"0","num_feature":"6","num_nodes":"15","size_leaf_vector":"1"}},{"base_weights":[1.3451714E-2,-6.9749355E-2,5.480202E-2,-2.8254497E-1,4.2234388E-1,-6.8446547E-3,-5.435599E-2,3.792317E-2,-1.9264363E-3],"categories":[],"categories_nodes":[],"categories_segments":[],"categories_sizes":[],"default_left":[0,0,0,0,0,0,0,0,0],"id":15,"left_children":[1,3,-1,5,7,-1,-1,-1,-1],"loss_changes":[4.6271734E0,5.130723E0,0E0,3.8366284E0,2.32934E0,0E0,0E0,0E0,0E0],"parents":[2147483647,0,0,1,1,3,3,4,4],"right_children":[2,4,-1,6,8,-1,-1,-1,-1],"split_conditions":[6.623161E1,4.8E-1,5.480202E-2,5.9608284E1,6.5E-1,-6.8446547E-3,-5.435599E-2,3.792317E-2,-1.9264363E-3],"split_indices":[2,5,0,2,5,0,0,0,0],"split_type":[0,0,0,0,0,0,0,0,0],"sum_hessian":[4.9522896E1,4.6857307E1,2.665591E0,3.300905E1,1.3848256E1,2.8940166E1,4.068884E0,7.6345696E0,6.213686E0],"tree_param":{"num_deleted":"0","num_feature":"6","num_nodes":"9","size_leaf_vector":"1"}},{"base_weights":[1.3444298E-2,3.82661E-1,-2.1861286E-1,7.168194E-1,-4.3077093E-2,1.9317819E-1,-6.272927E-1,6.1419833E-2,2.2643412E-2,-3.618906E-2,2.8100377E-2,-1.5388172E-4,5.2599877E-2,-5.138256E-2,5.8354675E-3],"categories":[],"categories_nodes":[],"categories_segments":[],"categories_sizes":[],"default_left":[0,0,0,0,0,0,0,0,0,0,0,0,0,0,0],"id":16,"left_children":[1,3,5,7,9,11,13,-1,-1,-1,-1,-1,-1,-1,-1],"loss_changes":[4.3985753E0,2.8477237E0,5.4326224E0,9.492812E-1,4.381555E0,2.7818027E0,4.9084086E0,0E0,0E0,0E0,0E0,0E0,0E0,0E0,0E0],"parents":[2147483647,0,0,1,1,2,2,3,3,4,4,5,5,6,6],"right_children":[2,4,6,8,10,12,14,-1,-1,-1,-1,-1,-1,-1,-1],"split_conditions":[2.053886E-2,9.964725E-1,4.1287643E1,9.7896934E-1,4.2E-1,7.3E-1,1.11985564E-1,6.1419833E-2,2.2643412E-2,-3.618906E-2,2.8100377E-2,-1.5388172E-4,5.2599877E-2,-5.138256E-2,5.8354675E-3],"split_indices":[0,1,2,1,5,5,1,0,0,0,0,0,0,0,0],"split_type":[0,0,0,0,0,0,0,0,0,0,0,0,0,0,0],"sum_hessian":[4.936125E1,1.8800133E1,3.0561121E1,1.0149871E1,8.650261E0,1.5485271E1,1.5075849E1,2.210912E0,7.9389586E0,3.978448E0,4.6718135E0,1.3415909E1,2.0693626E0,9.553644E0,5.522205E0],"tree_param":{"num_deleted":"0","num_feature":"6","num_nodes":"15","size_leaf_vector":"1"}},{"base_weights":[1.4464804E-2,-6.625447E-2,5.3572614E-2,-3.0379218E-1,3.1630954E-1,-5.9169605E-3,-6.524678E-2,7.4936883E-3,5.142094E-2],"categories":[],"categories_nodes":[],"categories_segments":[],"categories_sizes":[],"default_left":[0,0,0,0,0,0,0,0,0],"id":17,"left_children":[1,3,-1,5,7,-1,-1,-1,-1],"loss_changes":[4.3434854E0,4.4094396E0,0E0,5.3771515E0,2.058898E0,0E0,0E0,0E0,0E0],"parents":[2147483647,0,0,1,1,3,3,4,4],"right_children":[2,4,-1,6,8,-1,-1,-1,-1],"split_conditions":[6.623161E1,4.4E-1,5.3572614E-2,5.9608284E1,5.452672E1,-5.9169605E-3,-6.524678E-2,7.4936883E-3,5.142094E-2],"split_indices":[2,5,0,2,2,0,0,0,0],"split_type":[0,0,0,0,0,0,0,0,0],"sum_hessian":[4.9076584E1,4.646546E1,2.6111238E0,2.8793316E1,1.7672144E1,2.5236654E1,3.5566626E0,1.5305396E1,2.3667479E0],"tree_param":{"num_deleted":"0","num_feature":"6","num_nodes":"9","size_leaf_vector":"1"}},{"base_weights":[1.4637576E-2,-6.3380785E-2,5.2385695E-2,-2.5353414E-1,3.7831807E-1,-5.930412E-3,-5.0545335E-2,3.5522476E-2,-3.3851962E-3],"categories":[],"categories_nodes":[],"categories_segments":[],"categories_sizes":[],"default_left":[0,0,0,0,0,0,0,0,0],"id":18,"left_children":[1,3,-1,5,7,-1,-1,-1,-1],"loss_changes":[4.08807E0,4.0717373E0,0E0,3.3228052E0,2.217876E0,0E0,0E0,0E0,0E0],"parents":[2147483647,0,0,1,1,3,3,4,4],"right_children":[2,4,-1,6,8,-1,-1,-1,-1],"split_conditions":[6.623161E1,4.8E-1,5.2385695E-2,5.9608284E1,6.5E-1,-5.930412E-3,-5.0545335E-2,3.5522476E-2,-3.3851962E-3],"split_indices":[2,5,0,2,5,0,0,0,0],"split_type":[0,0,0,0,0,0,0,0,0],"sum_hessian":[4.8897255E1,4.6336548E1,2.560707E0,3.268955E1,1.3646997E1,2.8728222E1,3.961327E0,7.4823713E0,6.1646256E0],"tree_param":{"num_deleted":"0","num_feature":"6","num_nodes":"9","size_leaf_vector":"1"}},{"base_weights":[1.4550464E-2,3.7099695E-1,-2.0716806E-1,6.9361407E-1,-4.645088E-2,1.8417484E-1,-5.99659E-1,5.999441E-2,2.1583324E-2,-3.3737835E-2,2.5646124E-2,-2.9589963E-4,5.1277597E-2,-4.9352854E-2,5.5701737E-3],"categories":[],"categories_nodes":[],"categories_segments":[],"categories_sizes":[],"default_left":[0,0,0,0,0,0,0,0,0,0,0,0,0,0,0],"id":19,"left_children":[1,3,5,7,9,11,13,-1,-1,-1,-1,-1,-1,-1,-1],"loss_changes":[4.0067835E0,2.64867E0,4.917883E0,9.4367266E-1,3.6520464E0,2.635051E0,4.4792147E0,0E0,0E0,0E0,0E0,0E0,0E0,0E0,0E0],"parents":[2147483647,0,0,1,1,2,2,3,3,4,4,5,5,6,6],"right_children":[2,4,6,8,10,12,14,-1,-1,-1,-1,-1,-1,-1,-1],"split_conditions":[2.053886E-2,9.964725E-1,4.1287643E1,9.7896934E-1,4.2E-1,7.3E-1,1.11985564E-1,5.999441E-2,2.1583324E-2,-3.3737835E-2,2.5646124E-2,-2.9589963E-4,5.1277597E-2,-4.9352854E-2,5.5701737E-3],"split_indices":[0,1,2,1,5,5,1,0,0,0,0,0,0,0,0],"split_type":[0,0,0,0,0,0,0,0,0,0,0,0,0,0,0],"sum_hessian":[4.8726505E1,1.8427767E1,3.0298737E1,1.002137E1,8.406397E0,1.5437324E1,1.4861414E1,2.1961548E0,7.825216E0,3.8620963E0,4.544301E0,1.34023E1,2.0350232E0,9.368929E0,5.492484E0],"tree_param":{"num_deleted":"0","num_feature":"6","num_nodes":"15","size_leaf_vector":"1"}},{"base_weights":[1.55022275E-2,-6.028183E-2,5.1297706E-2,-2.7339047E-1,2.8364152E-1,-4.976032E-3,-6.1573166E-2,6.1519733E-3,4.947141E-2],"categories":[],"categories_nodes":[],"categories_segments":[],"categories_sizes":[],"default_left":[0,0,0,0,0,0,0,0,0],"id":20,"left_children":[1,3,-1,5,7,-1,-1,-1,-1],"loss_changes":[3.8471508E0,3.517016E0,0E0,4.7887774E0,1.9689404E0,0E0,0E0,0E0,0E0],"parents":[2147483647,0,0,1,1,3,3,4,4],"right_children":[2,4,-1,6,8,-1,-1,-1,-1],"split_conditions":[6.623161E1,4.4E-1,5.1297706E-2,5.9608284E1,5.452672E1,-4.976032E-3,-6.1573166E-2,6.1519733E-3,4.947141E-2],"split_indices":[2,5,0,2,2,0,0,0,0],"split_type":[0,0,0,0,0,0,0,0,0],"sum_hessian":[4.84319E1,4.592766E1,2.5042403E0,2.8483334E1,1.7444326E1,2.5042524E1,3.4408092E0,1.5167325E1,2.2770019E0],"tree_param":{"num_deleted":"0","num_feature":"6","num_nodes":"9","size_leaf_vector":"1"}},{"base_weights":[1.5616751E-2,3.586562E-1,-1.9640289E-1,6.703944E-1,-4.902756E-2,1.7800006E-1,-5.753778E-1,5.846547E-2,2.063415E-2,-3.1941988E-2,2.3874914E-2,-2.7012054E-4,4.9981523E-2,-4.7678784E-2,5.429884E-3],"categories":[],"categories_nodes":[],"categories_segments":[],"categories_sizes":[],"default_left":[0,0,0,0,0,0,0,0,0,0,0,0,0,0,0],"id":21,"left_children":[1,3,5,7,9,11,13,-1,-1,-1,-1,-1,-1,-1,-1],"loss_changes":[3.652143E0,2.4685073E0,4.51251E0,9.225745E-1,3.1733613E0,2.4764972E0,4.160292E0,0E0,0E0,0E0,0E0,0E0,0E0,0E0,0E0],"parents":[2147483647,0,0,1,1,2,2,3,3,4,4,5,5,6,6],"right_children":[2,4,6,8,10,12,14,-1,-1,-1,-1,-1,-1,-1,-1],"split_conditions":[2.053886E-2,9.964725E-1,4.1287643E1,9.7896934E-1,4.2E-1,7.3E-1,1.11985564E-1,5.846547E-2,2.063415E-2,-3.1941988E-2,2.3874914E-2,-2.7012054E-4,4.9981523E-2,-4.7678784E-2,5.429884E-3],"split_indices":[0,1,2,1,5,5,1,0,0,0,0,0,0,0,0],"split_type":[0,0,0,0,0,0,0,0,0,0,0,0,0,0,0],"sum_hessian":[4.8245804E1,1.816459E1,3.0081213E1,9.928385E0,8.236206E0,1.5398648E1,1.4682565E1,2.1768467E0,7.751538E0,3.7840343E0,4.4521713E0,1.3400781E1,1.9978673E0,9.200866E0,5.481699E0],"tree_param":{"num_deleted":"0","num_feature":"6","num_nodes":"15","size_leaf_vector":"1"}},{"base_weights":[1.6496323E-2,-5.718471E-2,5.0276127E-2,-2.553541E-1,2.627371E-1,-4.384029E-3,-5.9582587E-2,5.361225E-3,4.799245E-2],"categories":[],"categories_nodes":[],"categories_segments":[],"categories_sizes":[],"default_left":[0,0,0,0,0,0,0,0,0],"id":22,"left_children":[1,3,-1,5,7,-1,-1,-1,-1],"loss_changes":[3.6242573E0,3.0149946E0,0E0,4.4827657E0,1.8786205E0,0E0,0E0,0E0,0E0],"parents":[2147483647,0,0,1,1,3,3,4,4],"right_children":[2,4,-1,6,8,-1,-1,-1,-1],"split_conditions":[6.623161E1,4.4E-1,5.0276127E-2,5.9608284E1,5.452672E1,-4.384029E-3,-5.9582587E-2,5.361225E-3,4.799245E-2],"split_indices":[2,5,0,2,2,0,0,0,0],"split_type":[0,0,0,0,0,0,0,0,0],"sum_hessian":[4.794519E1,4.5497845E1,2.4473433E0,2.821959E1,1.7278255E1,2.4861078E1,3.3585112E0,1.5070191E1,2.2080653E0],"tree_param":{"num_deleted":"0","num_feature":"6","num_nodes":"9","size_leaf_vector":"1"}},{"base_weights":[1.6557341E-2,-5.4728292E-2,4.9252305E-2,-2.4546759E-1,2.5342277E-1,-4.1753845E-3,-5.813829E-2,5.1143547E-3,4.704452E-2],"categories":[],"categories_nodes":[],"categories_segments":[],"categories_sizes":[],"default_left":[0,0,0,0,0,0,0,0,0],"id":23,"left_children":[1,3,-1,5,7,-1,-1,-1,-1],"loss_changes":[3.420121E0,2.7872303E0,0E0,4.2328134E0,1.7965889E0,0E0,0E0,0E0,0E0],"parents":[2147483647,0,0,1,1,3,3,4,4],"right_children":[2,4,-1,6,8,-1,-1,-1,-1],"split_conditions":[6.623161E1,4.4E-1,4.9252305E-2,5.9608284E1,5.452672E1,-4.1753845E-3,-5.813829E-2,5.1143547E-3,4.704452E-2],"split_indices":[2,5,0,2,2,0,0,0,0],"split_type":[0,0,0,0,0,0,0,0,0],"sum_hessian":[4.7757866E1,4.536245E1,2.395413E0,2.8144804E1,1.7217648E1,2.4848536E1,3.2962677E0,1.505638E1,2.1612678E0],"tree_param":{"num_deleted":"0","num_feature":"6","num_nodes":"9","size_leaf_vector":"1"}},{"base_weights":[1.6606458E-2,3.474154E-1,-1.8501745E-1,5.7124615E-2,1.7511478E-1,1.7180192E-1,-5.501424E-1,-4.301366E-2,1.5386815E-2,-2.34643E-4,4.8660953E-2,-4.596826E-2,5.374991E-3],"categories":[],"categories_nodes":[],"categories_segments":[],"categories_sizes":[],"default_left":[0,0,0,0,0,0,0,0,0,0,0,0,0],"id":24,"left_children":[1,3,5,-1,7,9,11,-1,-1,-1,-1,-1,-1],"loss_changes":[3.3037915E0,2.3671484E0,4.111068E0,0E0,2.5418425E0,2.3177752E0,3.856484E0,0E0,0E0,0E0,0E0,0E0,0E0],"parents":[2147483647,0,0,1,1,2,2,4,4,5,5,6,6],"right_children":[2,4,6,-1,8,10,12,-1,-1,-1,-1,-1,-1],"split_conditions":[2.053886E-2,9.7896934E-1,4.1287643E1,5.7124615E-2,9.853725E-1,7.3E-1,1.11985564E-1,-4.301366E-2,1.5386815E-2,-2.34643E-4,4.8660953E-2,-4.596826E-2,5.374991E-3],"split_indices":[0,1,2,0,1,5,1,0,0,0,0,0,0],"split_type":[0,0,0,0,0,0,0,0,0,0,0,0,0],"sum_hessian":[4.7569153E1,1.7739866E1,2.9829287E1,2.1567569E0,1.558311E1,1.535401E1,1.4475278E1,1.1463985E0,1.4436711E1,1.3397618E1,1.9563912E0,9.015626E0,5.459652E0],"tree_param":{"num_deleted":"0","num_feature":"6","num_nodes":"13","size_leaf_vector":"1"}},{"base_weights":[1.6595956E-2,-5.200171E-2,4.7988426E-2,-2.3175931E-1,2.3836198E-1,-3.6498692E-3,-5.6934476E-2,4.593733E-3,4.584328E-2],"categories":[],"categories_nodes":[],"categories_segments":[],"categories_sizes":[],"default_left":[0,0,0,0,0,0,0,0,0],"id":25,"left_children":[1,3,-1,5,7,-1,-1,-1,-1],"loss_changes":[3.1764777E0,2.4560452E0,0E0,4.080413E0,1.7128215E0,0E0,0E0,0E0,0E0],"parents":[2147483647,0,0,1,1,3,3,4,4],"right_children":[2,4,-1,6,8,-1,-1,-1,-1],"split_conditions":[6.623161E1,4.4E-1,4.7988426E-2,5.9608284E1,5.452672E1,-3.6498692E-3,-5.6934476E-2,4.593733E-3,4.584328E-2],"split_indices":[2,5,0,2,2,0,0,0,0],"split_type":[0,0,0,0,0,0,0,0,0],"sum_hessian":[4.7324505E1,4.4996723E1,2.3277814E0,2.7916243E1,1.7080482E1,2.467693E1,3.2393112E0,1.4981435E1,2.0990486E0],"tree_param":{"num_deleted":"0","num_feature":"6","num_nodes":"9","size_leaf_vector":"1"}},{"base_weights":[1.6623069E-2,-4.978608E-2,4.7064062E-2,-1.9458225E-1,2.883797E-1,-3.354401E-2,-5.605444E-4,3.1473365E-2,-7.4478984E-3],"categories":[],"categories_nodes":[],"categories_segments":[],"categories_sizes":[],"default_left":[0,0,0,0,0,0,0,0,0],"id":26,"left_children":[1,3,-1,5,7,-1,-1,-1,-1],"loss_changes":[3.002754E0,2.301715E0,0E0,2.8492422E0,2.2048979E0,0E0,0E0,0E0,0E0],"parents":[2147483647,0,0,1,1,3,3,4,4],"right_children":[2,4,-1,6,8,-1,-1,-1,-1],"split_conditions":[6.623161E1,4.8E-1,4.7064062E-2,6.7214225E-3,6.5E-1,-3.354401E-2,-5.605444E-4,3.1473365E-2,-7.4478984E-3],"split_indices":[2,5,0,1,5,0,0,0,0],"split_type":[0,0,0,0,0,0,0,0,0],"sum_hessian":[4.713704E1,4.486125E1,2.2757874E0,3.1708757E1,1.31524935E1,8.075212E0,2.3633545E1,7.142563E0,6.0099306E0],"tree_param":{"num_deleted":"0","num_feature":"6","num_nodes":"9","size_leaf_vector":"1"}},{"base_weights":[1.6648028E-2,-4.762516E-2,4.6177115E-2,2.839189E-1,-1.886827E-1,3.0755184E-3,5.0563525E-2,-5.4128785E-2,-3.2250828E-4],"categories":[],"categories_nodes":[],"categories_segments":[],"categories_sizes":[],"default_left":[0,0,0,0,0,0,0,0,0],"id":27,"left_children":[1,3,-1,5,7,-1,-1,-1,-1],"loss_changes":[2.8403609E0,2.1931655E0,0E0,2.2113576E0,5.31907E0,0E0,0E0,0E0,0E0],"parents":[2147483647,0,0,1,1,3,3,4,4],"right_children":[2,4,-1,6,8,-1,-1,-1,-1],"split_conditions":[6.623161E1,3.960092E1,4.6177115E-2,3.779986E1,6.7214225E-3,3.0755184E-3,5.0563525E-2,-5.4128785E-2,-3.2250828E-4],"split_indices":[2,2,0,2,1,0,0,0,0],"split_type":[0,0,0,0,0,0,0,0,0],"sum_hessian":[4.6974358E1,4.4750313E1,2.2240474E0,1.3054352E1,3.169596E1,1.0827962E1,2.2263906E0,4.5307837E0,2.7165174E1],"tree_param":{"num_deleted":"0","num_feature":"6","num_nodes":"9","size_leaf_vector":"1"}},{"base_weights":[1.6794598E-2,3.215978E-1,-1.679223E-1,6.302063E-1,-9.1012895E-2,1.6753688E-1,-5.1737684E-1,3.853395E-2,2.5054728E-4,-2.8761635E-2,2.4544103E-2,-1.8766469E-4,4.762405E-2,-4.901446E-2,-1.1409447E-3],"categories":[],"categories_nodes":[],"categories_segments":[],"categories_sizes":[],"default_left":[0,0,0,0,0,0,0,0,0,0,0,0,0,0,0],"id":28,"left_children":[1,3,5,7,9,11,13,-1,-1,-1,-1,-1,-1,-1,-1],"loss_changes":[2.7470114E0,2.3992796E0,3.6550233E0,9.312911E-1,2.74602E0,2.1932926E0,3.4467874E0,0E0,0E0,0E0,0E0,0E0,0E0,0E0,0E0],"parents":[2147483647,0,0,1,1,2,2,3,3,4,4,5,5,6,6],"right_children":[2,4,6,8,10,12,14,-1,-1,-1,-1,-1,-1,-1,-1],"split_conditions":[2.053886E-2,9.964725E-1,4.1287643E1,5E-1,9.9785703E-1,7.3E-1,3.5556518E-2,3.853395E-2,2.5054728E-4,-2.8761635E-2,2.4544103E-2,-1.8766469E-4,4.762405E-2,-4.901446E-2,-1.1409447E-3],"split_indices":[0,1,2,5,1,5,1,0,0,0,0,0,0,0,0],"split_type":[0,0,0,0,0,0,0,0,0,0,0,0,0,0,0],"sum_hessian":[4.6831215E1,1.73918E1,2.9439415E1,9.648173E0,7.7436275E0,1.5286093E1,1.4153322E1,7.6880703E0,1.9601028E0,4.2327905E0,3.5108373E0,1.3364841E1,1.9212515E0,6.8032465E0,7.3500757E0],"tree_param":{"num_deleted":"0","num_feature":"6","num_nodes":"15","size_leaf_vector":"1"}},{"base_weights":[1.6684432E-2,-4.4714455E-2,4.489712E-2,2.5057796E-2,-6.7154264E-1,2.0833883E-2,-7.4974187E-3,-4.949823E-2,2.798936E-4],"categories":[],"categories_nodes":[],"categories_segments":[],"categories_sizes":[],"default_left":[0,0,0,0,0,0,0,0,0],"id":29,"left_children":[1,3,-1,5,7,-1,-1,-1,-1],"loss_changes":[2.6142733E0,2.0036075E0,0E0,2.9301202E0,9.9436617E-1,0E0,0E0,0E0,0E0],"parents":[2147483647,0,0,1,1,3,3,4,4],"right_children":[2,4,-1,6,8,-1,-1,-1,-1],"split_conditions":[6.623161E1,6.0701714E1,4.489712E-2,2.053886E-2,4.1E-1,2.0833883E-2,-7.4974187E-3,-4.949823E-2,2.798936E-4],"split_indices":[2,2,0,0,5,0,0,0,0],"split_type":[0,0,0,0,0,0,0,0,0],"sum_hessian":[4.6573555E1,4.442747E1,2.1460843E0,4.0841434E1,3.5860362E0,1.2187635E1,2.86538E1,2.1248553E0,1.4611809E0],"tree_param":{"num_deleted":"0","num_feature":"6","num_nodes":"9","size_leaf_vector":"1"}},{"base_weights":[1.6107807E-2,-4.3386564E-2,4.4091728E-2,2.304065E-1,-2.0020358E-1,-6.9930875E-3,2.9795779E-2,-4.2209793E-2,5.2613597E-3],"categories":[],"categories_nodes":[],"categories_segments":[],"categories_sizes":[],"default_left":[0,0,0,0,0,0,0,0,0],"id":30,"left_children":[1,3,-1,5,7,-1,-1,-1,-1],"loss_changes":[2.4802167E0,1.991775E0,0E0,2.3796961E0,5.8614287E0,0E0,0E0,0E0,0E0],"parents":[2147483647,0,0,1,1,3,3,4,4],"right_children":[2,4,-1,6,8,-1,-1,-1,-1],"split_conditions":[6.623161E1,4.1287643E1,4.4091728E-2,3.743822E-3,1.11985564E-1,-6.9930875E-3,2.9795779E-2,-4.2209793E-2,5.2613597E-3],"split_indices":[2,2,0,1,1,0,0,0,0],"split_type":[0,0,0,0,0,0,0,0,0],"sum_hessian":[4.641124E1,4.431567E1,2.0955718E0,1.5967721E1,2.8347948E1,8.238898E0,7.728823E0,8.552111E0,1.9795837E1],"tree_param":{"num_deleted":"0","num_feature":"6","num_nodes":"9","size_leaf_vector":"1"}},{"base_weights":[1.5976667E-2,-4.1761927E-2,4.331454E-2,2.6462452E-2,-6.5683883E-1,1.9671863E-2,-6.888553E-3,-4.8481796E-2,1.1550105E-4],"categories":[],"categories_nodes":[],"categories_segments":[],"categories_sizes":[],"default_left":[0,0,0,0,0,0,0,0,0],"id":31,"left_children":[1,3,-1,5,7,-1,-1,-1,-1],"loss_changes":[2.3523626E0,1.9112235E0,0E0,2.5605824E0,9.392942E-1,0E0,0E0,0E0,0E0],"parents":[2147483647,0,0,1,1,3,3,4,4],"right_children":[2,4,-1,6,8,-1,-1,-1,-1],"split_conditions":[6.623161E1,6.0701714E1,4.331454E-2,2.053886E-2,4.1E-1,1.9671863E-2,-6.888553E-3,-4.8481796E-2,1.1550105E-4],"split_indices":[2,2,0,0,5,0,0,0,0],"split_type":[0,0,0,0,0,0,0,0,0],"sum_hessian":[4.61767E1,4.4130974E1,2.0457244E0,4.0586136E1,3.5448403E0,1.2116527E1,2.8469608E1,2.0845711E0,1.4602691E0],"tree_param":{"num_deleted":"0","num_feature":"6","num_nodes":"9","size_leaf_vector":"1"}},{"base_weights":[1.5405156E-2,-4.057326E-2,4.25635E-2,2.6774168E-1,-1.7404558E-1,2.4464258E-3,4.924506E-2,-5.08562E-2,-3.38464E-4],"categories":[],"categories_nodes":[],"categories_segments":[],"categories_sizes":[],"default_left":[0,0,0,0,0,0,0,0,0],"id":32,"left_children":[1,3,-1,5,7,-1,-1,-1,-1],"loss_changes":[2.2344904E0,1.8992622E0,0E0,2.1480417E0,4.509507E0,0E0,0E0,0E0,0E0],"parents":[2147483647,0,0,1,1,3,3,4,4],"right_children":[2,4,-1,6,8,-1,-1,-1,-1],"split_conditions":[6.623161E1,3.960092E1,4.25635E-2,3.779986E1,6.7214225E-3,2.4464258E-3,4.924506E-2,-5.08562E-2,-3.38464E-4],"split_indices":[2,2,0,2,1,0,0,0,0],"split_type":[0,0,0,0,0,0,0,0,0],"sum_hessian":[4.6017155E1,4.402053E1,1.9966244E0,1.2995514E1,3.1025019E1,1.0775897E1,2.2196178E0,4.295425E0,2.6729593E1],"tree_param":{"num_deleted":"0","num_feature":"6","num_nodes":"9","size_leaf_vector":"1"}},{"base_weights":[1.5580328E-2,-3.865661E-2,4.1836776E-2,-8.416541E-2,4.216319E-2,-2.0042311E-2,1.93512E-3],"categories":[],"categories_nodes":[],"categories_segments":[],"categories_sizes":[],"default_left":[0,0,0,0,0,0,0],"id":33,"left_children":[1,3,-1,5,-1,-1,-1],"loss_changes":[2.1199656E0,1.874067E0,0E0,1.7131639E0,0E0,0E0,0E0],"parents":[2147483647,0,0,1,1,3,3],"right_children":[2,4,-1,6,-1,-1,-1],"split_conditions":[6.623161E1,8.1E-1,4.1836776E-2,6.7214225E-3,4.216319E-2,-2.0042311E-2,1.93512E-3],"split_indices":[2,5,0,1,0,0,0],"split_type":[0,0,0,0,0,0,0],"sum_hessian":[4.5873898E1,4.392556E1,1.9483397E0,4.2630318E1,1.2952411E0,1.1284111E1,3.1346207E1],"tree_param":{"num_deleted":"0","num_feature":"6","num_nodes":"7","size_leaf_vector":"1"}},{"base_weights":[1.6263174E-2,-3.6218047E-2,4.1132703E-2,2.2846812E-1,-1.8959405E-1,-5.7567894E-3,2.836802E-2,-4.555926E-2,2.7639659E-3],"categories":[],"categories_nodes":[],"categories_segments":[],"categories_sizes":[],"default_left":[0,0,0,0,0,0,0,0,0],"id":34,"left_children":[1,3,-1,5,7,-1,-1,-1,-1],"loss_changes":[2.0097332E0,1.8654326E0,0E0,2.0355806E0,5.1681695E0,0E0,0E0,0E0,0E0],"parents":[2147483647,0,0,1,1,3,3,4,4],"right_children":[2,4,-1,6,8,-1,-1,-1,-1],"split_conditions":[6.623161E1,4.1287643E1,4.1132703E-2,3.743822E-3,3.5556518E-2,-5.7567894E-3,2.836802E-2,-4.555926E-2,2.7639659E-3],"split_indices":[2,2,0,1,1,0,0,0,0],"split_type":[0,0,0,0,0,0,0,0,0],"sum_hessian":[4.5784508E1,4.388358E1,1.9009281E0,1.592011E1,2.796347E1,8.232952E0,7.6871576E0,6.3956795E0,2.1567791E1],"tree_param":{"num_deleted":"0","num_feature":"6","num_nodes":"9","size_leaf_vector":"1"}},{"base_weights":[1.5932215E-2,-3.5046197E-2,4.0449794E-2,3.2354705E-2,-6.4356667E-1,1.855212E-2,-6.0123405E-3,-4.7575127E-2,-1.731232E-5],"categories":[],"categories_nodes":[],"categories_segments":[],"categories_sizes":[],"default_left":[0,0,0,0,0,0,0,0,0],"id":35,"left_children":[1,3,-1,5,7,-1,-1,-1,-1],"loss_changes":[1.9112583E0,1.8549471E0,0E0,2.1746023E0,8.9238906E-1,0E0,0E0,0E0,0E0],"parents":[2147483647,0,0,1,1,3,3,4,4],"right_children":[2,4,-1,6,8,-1,-1,-1,-1],"split_conditions":[6.623161E1,6.0701714E1,4.0449794E-2,2.053886E-2,4.1E-1,1.855212E-2,-6.0123405E-3,-4.7575127E-2,-1.731232E-5],"split_indices":[2,2,0,0,5,0,0,0,0],"split_type":[0,0,0,0,0,0,0,0,0],"sum_hessian":[4.557301E1,4.3718575E1,1.8544363E0,4.0211502E1,3.507073E0,1.2045644E1,2.8165857E1,2.047549E0,1.4595239E0],"tree_param":{"num_deleted":"0","num_feature":"6","num_nodes":"9","size_leaf_vector":"1"}},{"base_weights":[1.5310138E-2,-3.4172356E-2,3.9786685E-2,2.2332618E-1,-1.8454161E-1,-5.2289865E-3,2.736478E-2,-4.4285756E-2,2.4799255E-3],"categories":[],"categories_nodes":[],"categories_segments":[],"categories_sizes":[],"default_left":[0,0,0,0,0,0,0,0,0],"id":36,"left_children":[1,3,-1,5,7,-1,-1,-1,-1],"loss_changes":[1.8197871E0,1.7685282E0,0E0,1.852453E0,4.7575736E0,0E0,0E0,0E0,0E0],"parents":[2147483647,0,0,1,1,3,3,4,4],"right_children":[2,4,-1,6,8,-1,-1,-1,-1],"split_conditions":[6.623161E1,4.1287643E1,3.9786685E-2,3.743822E-3,3.5556518E-2,-5.2289865E-3,2.736478E-2,-4.4285756E-2,2.4799255E-3],"split_indices":[2,2,0,1,1,0,0,0,0],"split_type":[0,0,0,0,0,0,0,0,0],"sum_hessian":[4.5419476E1,4.3610573E1,1.808901E0,1.5899105E1,2.771147E1,8.238099E0,7.661006E0,6.240465E0,2.1471003E1],"tree_param":{"num_deleted":"0","num_feature":"6","num_nodes":"9","size_leaf_vector":"1"}},{"base_weights":[1.5008982E-2,-3.308486E-2,3.9142158E-2,3.275529E-2,-6.29549E-1,1.760338E-2,-5.567049E-3,-4.666879E-2,-9.038642E-5],"categories":[],"categories_nodes":[],"categories_segments":[],"categories_sizes":[],"default_left":[0,0,0,0,0,0,0,0,0],"id":37,"left_children":[1,3,-1,5,7,-1,-1,-1,-1],"loss_changes":[1.732356E0,1.766068E0,0E0,1.9246687E0,8.504422E-1,0E0,0E0,0E0,0E0],"parents":[2147483647,0,0,1,1,3,3,4,4],"right_children":[2,4,-1,6,8,-1,-1,-1,-1],"split_conditions":[6.623161E1,6.0701714E1,3.9142158E-2,2.053886E-2,4.1E-1,1.760338E-2,-5.567049E-3,-4.666879E-2,-9.038642E-5],"split_indices":[2,2,0,0,5,0,0,0,0],"split_type":[0,0,0,0,0,0,0,0,0],"sum_hessian":[4.521023E1,4.3445877E1,1.7643521E0,3.9978024E1,3.467853E0,1.1982326E1,2.7995699E1,2.0087423E0,1.4591106E0],"tree_param":{"num_deleted":"0","num_feature":"6","num_nodes":"9","size_leaf_vector":"1"}},{"base_weights":[1.4407288E-2,-3.2301296E-2,3.8515102E-2,-7.629403E-2,4.0904224E-2,-6.878923E-3,2.6324302E-2],"categories":[],"categories_nodes":[],"categories_segments":[],"categories_sizes":[],"default_left":[0,0,0,0,0,0,0],"id":38,"left_children":[1,3,-1,5,-1,-1,-1],"loss_changes":[1.6511372E0,1.7212062E0,0E0,1.6636169E0,0E0,0E0,0E0],"parents":[2147483647,0,0,1,1,3,3],"right_children":[2,4,-1,6,-1,-1,-1],"split_conditions":[6.623161E1,8.1E-1,3.8515102E-2,1E0,4.0904224E-2,-6.878923E-3,2.6324302E-2],"split_indices":[2,5,0,3,0,0,0],"split_type":[0,0,0,0,0,0,0],"sum_hessian":[4.5060722E1,4.3339912E1,1.7208115E0,4.2073612E1,1.2662975E0,3.8891308E1,3.1823049E0],"tree_param":{"num_deleted":"0","num_feature":"6","num_nodes":"7","size_leaf_vector":"1"}},{"base_weights":[1.5889214E-2,-2.9338982E-2,3.790452E-2,3.4442157E-2,-6.133045E-1,1.7060854E-2,-5.198073E-3,-4.5617767E-2,-1.2319215E-4],"categories":[],"categories_nodes":[],"categories_segments":[],"categories_sizes":[],"default_left":[0,0,0,0,0,0,0,0,0],"id":39,"left_children":[1,3,-1,5,7,-1,-1,-1,-1],"loss_changes":[1.5657448E0,1.6712141E0,0E0,1.7714863E0,8.0433667E-1,0E0,0E0,0E0,0E0],"parents":[2147483647,0,0,1,1,3,3,4,4],"right_children":[2,4,-1,6,8,-1,-1,-1,-1],"split_conditions":[6.623161E1,6.0701714E1,3.790452E-2,2.053886E-2,4.1E-1,1.7060854E-2,-5.198073E-3,-4.5617767E-2,-1.2319215E-4],"split_indices":[2,2,0,0,5,0,0,0,0],"split_type":[0,0,0,0,0,0,0,0,0],"sum_hessian":[4.4980804E1,4.330251E1,1.6782948E0,3.988704E1,3.4154713E0,1.1945089E1,2.794195E1,1.9615461E0,1.4539254E0],"tree_param":{"num_deleted":"0","num_feature":"6","num_nodes":"9","size_leaf_vector":"1"}},{"base_weights":[1.5235964E-2,-2.8716914E-2,3.7309494E-2,2.2141E-1,-1.7658752E-1,3.1453907E-2,-1.26123E-3,2.6403653E-4,-5.2112944E-2],"categories":[],"categories_nodes":[],"categories_segments":[],"categories_sizes":[],"default_left":[0,0,0,0,0,0,0,0,0],"id":40,"left_children":[1,3,-1,5,7,-1,-1,-1,-1],"loss_changes":[1.4939831E0,1.6738191E0,0E0,1.7115417E0,4.466207E0,0E0,0E0,0E0,0E0],"parents":[2147483647,0,0,1,1,3,3,4,4],"right_children":[2,4,-1,6,8,-1,-1,-1,-1],"split_conditions":[6.623161E1,4.1287643E1,3.7309494E-2,2.8E-1,9.870165E-1,3.1453907E-2,-1.26123E-3,2.6403653E-4,-5.2112944E-2],"split_indices":[2,2,0,5,0,0,0,0,0],"split_type":[0,0,0,0,0,0,0,0,0],"sum_hessian":[4.4834675E1,4.3197865E1,1.6368113E0,1.586481E1,2.7333055E1,5.3956184E0,1.04691925E1,2.340898E1,3.9240756E0],"tree_param":{"num_deleted":"0","num_feature":"6","num_nodes":"9","size_leaf_vector":"1"}},{"base_weights":[1.4828667E-2,-2.5386522E-2,4.0134124E-2,5.2357968E-2,-5.69084E-1,-3.9748023E-3,2.9578198E-2,-3.998119E-2,4.7347653E-3],"categories":[],"categories_nodes":[],"categories_segments":[],"categories_sizes":[],"default_left":[0,0,0,0,0,0,0,0,0],"id":41,"left_children":[1,3,-1,5,7,-1,-1,-1,-1],"loss_changes":[1.4673952E0,1.907495E0,0E0,2.8752794E0,9.3904185E-1,0E0,0E0,0E0,0E0],"parents":[2147483647,0,0,1,1,3,3,4,4],"right_children":[2,4,-1,6,8,-1,-1,-1,-1],"split_conditions":[8.1E-1,6.5E-1,4.0134124E-2,4.8E-1,9.747414E-1,-3.9748023E-3,2.9578198E-2,-3.998119E-2,4.7347653E-3],"split_indices":[5,5,0,5,0,0,0,0,0],"split_type":[0,0,0,0,0,0,0,0,0],"sum_hessian":[4.467075E1,4.3422092E1,1.2486584E0,3.8780487E1,4.641606E0,3.1845707E1,6.9347787E0,3.2931843E0,1.3484218E0],"tree_param":{"num_deleted":"0","num_feature":"6","num_nodes":"9","size_leaf_vector":"1"}},{"base_weights":[1.4820454E-2,-2.8137041E-2,3.6790777E-2,3.3981368E-2,-5.9984636E-1,1.6379055E-2,-4.9317684E-3,-4.4672307E-2,-2.4873926E-4],"categories":[],"categories_nodes":[],"categories_segments":[],"categories_sizes":[],"default_left":[0,0,0,0,0,0,0,0,0],"id":42,"left_children":[1,3,-1,5,7,-1,-1,-1,-1],"loss_changes":[1.4328736E0,1.582779E0,0E0,1.6142484E0,7.579683E-1,0E0,0E0,0E0,0E0],"parents":[2147483647,0,0,1,1,3,3,4,4],"right_children":[2,4,-1,6,8,-1,-1,-1,-1],"split_conditions":[6.623161E1,6.0701714E1,3.6790777E-2,2.053886E-2,4.1E-1,1.6379055E-2,-4.9317684E-3,-4.4672307E-2,-2.4873926E-4],"split_indices":[2,2,0,0,5,0,0,0,0],"split_type":[0,0,0,0,0,0,0,0,0],"sum_hessian":[4.459485E1,4.2994194E1,1.6006557E0,3.962892E1,3.3652723E0,1.187306E1,2.775586E1,1.9171472E0,1.4481252E0],"tree_param":{"num_deleted":"0","num_feature":"6","num_nodes":"9","size_leaf_vector":"1"}},{"base_weights":[1.420032E-2,-2.5117915E-2,3.937465E-2,5.0429802E-2,-5.4893506E-1,-3.7815445E-3,2.8468056E-2,-3.861764E-2,4.740288E-3],"categories":[],"categories_nodes":[],"categories_segments":[],"categories_sizes":[],"default_left":[0,0,0,0,0,0,0,0,0],"id":43,"left_children":[1,3,-1,5,7,-1,-1,-1,-1],"loss_changes":[1.4017569E0,1.7777227E0,0E0,2.6312525E0,8.870132E-1,0E0,0E0,0E0,0E0],"parents":[2147483647,0,0,1,1,3,3,4,4],"right_children":[2,4,-1,6,8,-1,-1,-1,-1],"split_conditions":[8.1E-1,6.5E-1,3.937465E-2,4.8E-1,9.747414E-1,-3.7815445E-3,2.8468056E-2,-3.861764E-2,4.740288E-3],"split_indices":[5,5,0,5,0,0,0,0,0],"split_type":[0,0,0,0,0,0,0,0,0],"sum_hessian":[4.4453026E1,4.322287E1,1.2301579E0,3.85646E1,4.6582675E0,3.1714626E1,6.8499765E0,3.3097808E0,1.3484864E0],"tree_param":{"num_deleted":"0","num_feature":"6","num_nodes":"9","size_leaf_vector":"1"}},{"base_weights":[1.4216942E-2,-2.7761357E-2,3.6281135E-2,2.0930962E-1,-1.6888314E-1,-5.294201E-3,2.6128395E-2,3.111685E-4,-5.0977796E-2],"categories":[],"categories_nodes":[],"categories_segments":[],"categories_sizes":[],"default_left":[0,0,0,0,0,0,0,0,0],"id":44,"left_children":[1,3,-1,5,7,-1,-1,-1,-1],"loss_changes":[1.3752328E0,1.501076E0,0E0,1.7135638E0,4.1796093E0,0E0,0E0,0E0,0E0],"parents":[2147483647,0,0,1,1,3,3,4,4],"right_children":[2,4,-1,6,8,-1,-1,-1,-1],"split_conditions":[6.623161E1,4.1287643E1,3.6281135E-2,3.743822E-3,9.870165E-1,-5.294201E-3,2.6128395E-2,3.111685E-4,-5.0977796E-2],"split_indices":[2,2,0,1,0,0,0,0,0],"split_type":[0,0,0,0,0,0,0,0,0],"sum_hessian":[4.437593E1,4.281075E1,1.5651801E0,1.5794436E1,2.7016314E1,8.202874E0,7.5915623E0,2.3227697E1,3.788615E0],"tree_param":{"num_deleted":"0","num_feature":"6","num_nodes":"9","size_leaf_vector":"1"}},{"base_weights":[1.366434E-2,-2.4496723E-2,3.8467977E-2,4.8964716E-2,-5.2911144E-1,-1.821684E-2,9.86881E-3,-3.718714E-2,4.6328953E-3],"categories":[],"categories_nodes":[],"categories_segments":[],"categories_sizes":[],"default_left":[0,0,0,0,0,0,0,0,0],"id":45,"left_children":[1,3,-1,5,7,-1,-1,-1,-1],"loss_changes":[1.322407E0,1.6569343E0,0E0,2.483923E0,8.2638836E-1,0E0,0E0,0E0,0E0],"parents":[2147483647,0,0,1,1,3,3,4,4],"right_children":[2,4,-1,6,8,-1,-1,-1,-1],"split_conditions":[8.1E-1,6.5E-1,3.8467977E-2,6.7214225E-3,9.747414E-1,-1.821684E-2,9.86881E-3,-3.718714E-2,4.6328953E-3],"split_indices":[5,5,0,1,0,0,0,0,0],"split_type":[0,0,0,0,0,0,0,0,0],"sum_hessian":[4.420266E1,4.2998886E1,1.2037721E0,3.832284E1,4.676045E0,9.74096E0,2.858188E1,3.3302796E0,1.3457655E0],"tree_param":{"num_deleted":"0","num_feature":"6","num_nodes":"9","size_leaf_vector":"1"}},{"base_weights":[1.2949846E-2,-2.761408E-2,3.557496E-2,3.373272E-2,-5.934878E-1,1.5655419E-2,-4.6366462E-3,-4.395288E-2,-6.573884E-4],"categories":[],"categories_nodes":[],"categories_segments":[],"categories_sizes":[],"default_left":[0,0,0,0,0,0,0,0,0],"id":46,"left_children":[1,3,-1,5,7,-1,-1,-1,-1],"loss_changes":[1.2994746E0,1.5353134E0,0E0,1.4538463E0,7.0489657E-1,0E0,0E0,0E0,0E0],"parents":[2147483647,0,0,1,1,3,3,4,4],"right_children":[2,4,-1,6,8,-1,-1,-1,-1],"split_conditions":[6.623161E1,6.0701714E1,3.557496E-2,2.053886E-2,4.1E-1,1.5655419E-2,-4.6366462E-3,-4.395288E-2,-6.573884E-4],"split_indices":[2,2,0,0,5,0,0,0,0],"split_type":[0,0,0,0,0,0,0,0,0],"sum_hessian":[4.4166275E1,4.26501E1,1.5161709E0,3.932702E1,3.3230836E0,1.179494E1,2.7532078E1,1.8821833E0,1.4409003E0],"tree_param":{"num_deleted":"0","num_feature":"6","num_nodes":"9","size_leaf_vector":"1"}},{"base_weights":[1.2386234E-2,-2.4919834E-2,3.776523E-2,4.631936E-2,-5.109007E-1,-3.7598012E-3,2.7417738E-2,-3.5963666E-2,4.632998E-3],"categories":[],"categories_nodes":[],"categories_segments":[],"categories_sizes":[],"default_left":[0,0,0,0,0,0,0,0,0],"id":47,"left_children":[1,3,-1,5,7,-1,-1,-1,-1],"loss_changes":[1.2668283E0,1.5415967E0,0E0,2.4299393E0,7.82068E-1,0E0,0E0,0E0,0E0],"parents":[2147483647,0,0,1,1,3,3,4,4],"right_children":[2,4,-1,6,8,-1,-1,-1,-1],"split_conditions":[8.1E-1,6.5E-1,3.776523E-2,4.8E-1,9.747414E-1,-3.7598012E-3,2.7417738E-2,-3.5963666E-2,4.632998E-3],"split_indices":[5,5,0,5,0,0,0,0,0],"split_type":[0,0,0,0,0,0,0,0,0],"sum_hessian":[4.40294E1,4.2844402E1,1.1849992E0,3.8155876E1,4.6885233E0,3.1404724E1,6.751153E0,3.3427567E0,1.3457668E0],"tree_param":{"num_deleted":"0","num_feature":"6","num_nodes":"9","size_leaf_vector":"1"}},{"base_weights":[1.2492076E-2,-2.7171157E-2,3.509223E-2,4.7027595E-2,-4.7284275E-1,-3.184671E-3,2.4674771E-2,-4.506151E-2,3.606641E-2],"categories":[],"categories_nodes":[],"categories_segments":[],"categories_sizes":[],"default_left":[0,0,0,0,0,0,0,0,0],"id":48,"left_children":[1,3,-1,5,7,-1,-1,-1,-1],"loss_changes":[1.2480735E0,1.4596007E0,0E0,1.9184184E0,3.8700159E0,0E0,0E0,0E0,0E0],"parents":[2147483647,0,0,1,1,3,3,4,4],"right_children":[2,4,-1,6,8,-1,-1,-1,-1],"split_conditions":[6.623161E1,5.8148235E1,3.509223E-2,5.258291E1,4.2E-1,-3.184671E-3,2.4674771E-2,-4.506151E-2,3.606641E-2],"split_indices":[2,2,0,2,5,0,0,0,0],"split_type":[0,0,0,0,0,0,0,0,0],"sum_hessian":[4.3949368E1,4.2466557E1,1.4828109E0,3.717231E1,5.2942457E0,3.047264E1,6.69967E0,4.077003E0,1.2172428E0],"tree_param":{"num_deleted":"0","num_feature":"6","num_nodes":"9","size_leaf_vector":"1"}},{"base_weights":[1.296378E-2,-2.356969E-2,3.7145134E-2,4.5056973E-2,-4.8784482E-1,-1.7330607E-2,9.329643E-3,-3.4388836E-2,4.592393E-3],"categories":[],"categories_nodes":[],"categories_segments":[],"categories_sizes":[],"default_left":[0,0,0,0,0,0,0,0,0],"id":49,"left_children":[1,3,-1,5,7,-1,-1,-1,-1],"loss_changes":[1.2125487E0,1.4126248E0,0E0,2.2233808E0,7.244084E-1,0E0,0E0,0E0,0E0],"parents":[2147483647,0,0,1,1,3,3,4,4],"right_children":[2,4,-1,6,8,-1,-1,-1,-1],"split_conditions":[8.1E-1,6.5E-1,3.7145134E-2,6.7214225E-3,9.747414E-1,-1.7330607E-2,9.329643E-3,-3.4388836E-2,4.592393E-3],"split_indices":[5,5,0,1,0,0,0,0,0],"split_type":[0,0,0,0,0,0,0,0,0],"sum_hessian":[4.381306E1,4.264632E1,1.1667401E0,3.7941032E1,4.705288E0,9.686596E0,2.8254438E1,3.3599977E0,1.3452902E0],"tree_param":{"num_deleted":"0","num_feature":"6","num_nodes":"9","size_leaf_vector":"1"}},{"base_weights":[1.2321964E-2,-3.9558817E-2,5.208866E-1,-1.9453472E-1,2.1469621E-1,-1.6034938E-2,5.2689064E-2,-3.762252E-2,-1.7041479E-3,2.216907E-2,-8.061527E-3],"categories":[],"categories_nodes":[],"categories_segments":[],"categories_sizes":[],"default_left":[0,0,0,0,0,0,0,0,0,0,0],"id":50,"left_children":[1,3,5,7,9,-1,-1,-1,-1,-1,-1],"loss_changes":[1.2019069E0,1.6792524E0,2.2283509E0,2.3326283E0,1.4653009E0,0E0,0E0,0E0,0E0,0E0,0E0],"parents":[2147483647,0,0,1,1,2,2,3,3,4,4],"right_children":[2,4,6,8,10,-1,-1,-1,-1,-1,-1],"split_conditions":[1E0,4.4E-1,1.5436729E-3,6.7214225E-3,6.5E-1,-1.6034938E-2,5.2689064E-2,-3.762252E-2,-1.7041479E-3,2.216907E-2,-8.061527E-3],"split_indices":[3,5,1,1,5,0,0,0,0,0,0],"split_type":[0,0,0,0,0,0,0,0,0,0,0],"sum_hessian":[4.3772156E1,4.0556984E1,3.2151709E0,2.5343973E1,1.5213012E1,1.4009249E0,1.8142459E0,4.8366427E0,2.050733E1,9.347357E0,5.865655E0],"tree_param":{"num_deleted":"0","num_feature":"6","num_nodes":"11","size_leaf_vector":"1"}},{"base_weights":[1.1999104E-2,-2.3925127E-2,3.6630154E-2,-7.850565E-2,5.070334E-1,-2.1415567E-2,1.4947862E-3,-1.557414E-2,5.1490642E-2],"categories":[],"categories_nodes":[],"categories_segments":[],"categories_sizes":[],"default_left":[0,0,0,0,0,0,0,0,0],"id":51,"left_children":[1,3,-1,5,7,-1,-1,-1,-1],"loss_changes":[1.1730248E0,1.299993E0,0E0,1.5408546E0,2.1126008E0,0E0,0E0,0E0,0E0],"parents":[2147483647,0,0,1,1,3,3,4,4],"right_children":[2,4,-1,6,8,-1,-1,-1,-1],"split_conditions":[8.1E-1,1E0,3.6630154E-2,6.7214225E-3,1.5436729E-3,-2.1415567E-2,1.4947862E-3,-1.557414E-2,5.1490642E-2],"split_indices":[5,3,0,1,1,0,0,0,0],"split_type":[0,0,0,0,0,0,0,0,0],"sum_hessian":[4.363595E1,4.2484756E1,1.1511918E0,3.929729E1,3.1874685E0,8.598667E0,3.0698622E1,1.39987E0,1.7875986E0],"tree_param":{"num_deleted":"0","num_feature":"6","num_nodes":"9","size_leaf_vector":"1"}},{"base_weights":[1.2617118E-2,-2.5490295E-2,3.4264416E-2,2.1605028E-1,-1.7102376E-1,2.9652799E-2,-7.411871E-4,-5.3195003E-4,-4.9032535E-2],"categories":[],"categories_nodes":[],"categories_segments":[],"categories_sizes":[],"default_left":[0,0,0,0,0,0,0,0,0],"id":52,"left_children":[1,3,-1,5,7,-1,-1,-1,-1],"loss_changes":[1.1596268E0,1.5531394E0,0E0,1.4587866E0,3.5570257E0,0E0,0E0,0E0,0E0],"parents":[2147483647,0,0,1,1,3,3,4,4],"right_children":[2,4,-1,6,8,-1,-1,-1,-1],"split_conditions":[6.623161E1,4.1287643E1,3.4264416E-2,2.8E-1,9.870165E-1,2.9652799E-2,-7.411871E-4,-5.3195003E-4,-4.9032535E-2],"split_indices":[2,2,0,5,0,0,0,0,0],"split_type":[0,0,0,0,0,0,0,0,0],"sum_hessian":[4.3556816E1,4.21321E1,1.4247146E0,1.5658796E1,2.6473305E1,5.351433E0,1.03073635E1,2.2941751E1,3.5315535E0],"tree_param":{"num_deleted":"0","num_feature":"6","num_nodes":"9","size_leaf_vector":"1"}},{"base_weights":[1.2297429E-2,-2.2854317E-2,3.6001783E-2,4.214342E-2,-4.5610243E-1,-3.5343536E-3,2.5638303E-2,-3.2649904E-2,5.2221115E-3],"categories":[],"categories_nodes":[],"categories_segments":[],"categories_sizes":[],"default_left":[0,0,0,0,0,0,0,0,0],"id":53,"left_children":[1,3,-1,5,7,-1,-1,-1,-1],"loss_changes":[1.1211088E0,1.2377282E0,0E0,2.0828075E0,7.00544E-1,0E0,0E0,0E0,0E0],"parents":[2147483647,0,0,1,1,3,3,4,4],"right_children":[2,4,-1,6,8,-1,-1,-1,-1],"split_conditions":[8.1E-1,6.5E-1,3.6001783E-2,4.8E-1,9.747414E-1,-3.5343536E-3,2.5638303E-2,-3.2649904E-2,5.2221115E-3],"split_indices":[5,5,0,5,0,0,0,0,0],"split_type":[0,0,0,0,0,0,0,0,0],"sum_hessian":[4.3402378E1,4.22706E1,1.1317763E0,3.754123E1,4.729369E0,3.0966822E1,6.57441E0,3.3779151E0,1.351454E0],"tree_param":{"num_deleted":"0","num_feature":"6","num_nodes":"9","size_leaf_vector":"1"}},{"base_weights":[1.2426043E-2,-2.4869598E-2,3.3806123E-2,3.5127766E-2,-5.8883E-1,1.4724095E-2,-4.112396E-3,-4.2347264E-2,-1.9223354E-3],"categories":[],"categories_nodes":[],"categories_segments":[],"categories_sizes":[],"default_left":[0,0,0,0,0,0,0,0,0],"id":54,"left_children":[1,3,-1,5,7,-1,-1,-1,-1],"loss_changes":[1.1138942E0,1.4731871E0,0E0,1.2340873E0,5.6183314E-1,0E0,0E0,0E0,0E0],"parents":[2147483647,0,0,1,1,3,3,4,4],"right_children":[2,4,-1,6,8,-1,-1,-1,-1],"split_conditions":[6.623161E1,6.0701714E1,3.3806123E-2,2.053886E-2,4.1E-1,1.4724095E-2,-4.112396E-3,-4.2347264E-2,-1.9223354E-3],"split_indices":[2,2,0,0,5,0,0,0,0],"split_type":[0,0,0,0,0,0,0,0,0],"sum_hessian":[4.33211E1,4.192756E1,1.3935415E0,3.874351E1,3.1840463E0,1.1600993E1,2.7142519E1,1.8007252E0,1.383321E0],"tree_param":{"num_deleted":"0","num_feature":"6","num_nodes":"9","size_leaf_vector":"1"}},{"base_weights":[1.1843016E-2,-2.2552716E-2,3.5375472E-2,-6.09622E-2,3.330506E-2,-5.7325945E-3,2.3415934E-2],"categories":[],"categories_nodes":[],"categories_segments":[],"categories_sizes":[],"default_left":[0,0,0,0,0,0,0],"id":55,"left_children":[1,3,-1,5,-1,-1,-1],"loss_changes":[1.0734031E0,1.1801087E0,0E0,1.2392561E0,0E0,0E0,0E0],"parents":[2147483647,0,0,1,1,3,3],"right_children":[2,4,-1,6,-1,-1,-1],"split_conditions":[8.1E-1,6.623161E1,3.5375472E-2,1E0,3.330506E-2,-5.7325945E-3,2.3415934E-2],"split_indices":[5,2,0,3,0,0,0],"split_type":[0,0,0,0,0,0,0],"sum_hessian":[4.319295E1,4.207998E1,1.1129731E0,4.072029E1,1.3596871E0,3.768132E1,3.0389714E0],"tree_param":{"num_deleted":"0","num_feature":"6","num_nodes":"7","size_leaf_vector":"1"}},{"base_weights":[1.3248514E-2,-2.0250749E-2,3.4773394E-2,4.262749E-2,-4.362264E-1,-3.2577433E-3,2.4688324E-2,-4.409035E-2,-6.2341746E-3],"categories":[],"categories_nodes":[],"categories_segments":[],"categories_sizes":[],"default_left":[0,0,0,0,0,0,0,0,0],"id":56,"left_children":[1,3,-1,5,7,-1,-1,-1,-1],"loss_changes":[1.0224481E0,1.14405E0,0E0,1.8940023E0,6.8674505E-1,0E0,0E0,0E0,0E0],"parents":[2147483647,0,0,1,1,3,3,4,4],"right_children":[2,4,-1,6,8,-1,-1,-1,-1],"split_conditions":[8.1E-1,6.5E-1,3.4773394E-2,4.8E-1,2.9604265E-3,-3.2577433E-3,2.4688324E-2,-4.409035E-2,-6.2341746E-3],"split_indices":[5,5,0,5,0,0,0,0,0],"split_type":[0,0,0,0,0,0,0,0,0],"sum_hessian":[4.31223E1,4.202886E1,1.0934417E0,3.7289722E1,4.7391334E0,3.0789364E1,6.5003605E0,1.1968712E0,3.542262E0],"tree_param":{"num_deleted":"0","num_feature":"6","num_nodes":"9","size_leaf_vector":"1"}},{"base_weights":[1.2770391E-2,-2.2683777E-2,3.286235E-2,5.0618373E-2,-4.7055405E-1,1.9422552E-2,-3.9243563E-3,-4.3455314E-2,3.4070298E-2],"categories":[],"categories_nodes":[],"categories_segments":[],"categories_sizes":[],"default_left":[0,0,0,0,0,0,0,0,0],"id":57,"left_children":[1,3,-1,5,7,-1,-1,-1,-1],"loss_changes":[1.0212923E0,1.4261209E0,0E0,1.6708629E0,3.3950362E0,0E0,0E0,0E0,0E0],"parents":[2147483647,0,0,1,1,3,3,4,4],"right_children":[2,4,-1,6,8,-1,-1,-1,-1],"split_conditions":[6.623161E1,5.8148235E1,3.286235E-2,2.053886E-2,4.2E-1,1.9422552E-2,-3.9243563E-3,-4.3455314E-2,3.4070298E-2],"split_indices":[2,2,0,0,5,0,0,0,0],"split_type":[0,0,0,0,0,0,0,0,0],"sum_hessian":[4.304423E1,4.1714237E1,1.329995E0,3.6609417E1,5.10482E0,9.566859E0,2.7042559E1,3.9750748E0,1.129745E0],"tree_param":{"num_deleted":"0","num_feature":"6","num_nodes":"9","size_leaf_vector":"1"}},{"base_weights":[1.3073399E-2,2.0665152E-1,-1.00735895E-1,7.1883895E-2,4.338142E-2,-6.792618E-1,1.3336161E-1,2.8848816E-2,-1.3588368E-2,3.6469255E-2,-4.8952952E-2,-2.0839447E-2,2.355085E-2],"categories":[],"categories_nodes":[],"categories_segments":[],"categories_sizes":[],"default_left":[0,0,0,0,0,0,0,0,0,0,0,0,0],"id":58,"left_children":[1,3,5,7,-1,9,11,-1,-1,-1,-1,-1,-1],"loss_changes":[9.872E-1,1.4135246E0,3.922784E0,2.7348847E0,0E0,4.2258506E0,4.0937033E0,0E0,0E0,0E0,0E0,0E0,0E0],"parents":[2147483647,0,0,1,1,2,2,3,3,5,5,6,6],"right_children":[2,4,6,8,-1,10,12,-1,-1,-1,-1,-1,-1],"split_conditions":[4.1287643E1,7.3E-1,1.11985564E-1,2.8E-1,4.338142E-2,1.9E-1,2.5E-1,2.8848816E-2,-1.3588368E-2,3.6469255E-2,-4.8952952E-2,-2.0839447E-2,2.355085E-2],"split_indices":[2,5,1,5,0,5,5,0,0,0,0,0,0],"split_type":[0,0,0,0,0,0,0,0,0,0,0,0,0],"sum_hessian":[4.28647E1,1.5568495E1,2.7296207E1,1.3852783E1,1.7157117E0,7.315578E0,1.9980629E1,5.334003E0,8.51878E0,1.0322858E0,6.2832923E0,7.5100117E0,1.2470617E1],"tree_param":{"num_deleted":"0","num_feature":"6","num_nodes":"13","size_leaf_vector":"1"}},{"base_weights":[1.3564952E-2,-2.1564668E-2,3.2548916E-2,4.1302253E-2,-5.3231263E-1,-2.5866723E-3,1.8033227E-2,-4.3817308E-2,3.822072E-3],"categories":[],"categories_nodes":[],"categories_segments":[],"categories_sizes":[],"default_left":[0,0,0,0,0,0,0,0,0],"id":59,"left_children":[1,3,-1,5,7,-1,-1,-1,-1],"loss_changes":[9.897532E-1,1.3791106E0,0E0,1.1644078E0,1.0522113E0,0E0,0E0,0E0,0E0],"parents":[2147483647,0,0,1,1,3,3,4,4],"right_children":[2,4,-1,6,8,-1,-1,-1,-1],"split_conditions":[6.623161E1,5.9608284E1,3.2548916E-2,5.258291E1,4.1E-1,-2.5866723E-3,1.8033227E-2,-4.3817308E-2,3.822072E-3],"split_indices":[2,2,0,2,5,0,0,0,0],"split_type":[0,0,0,0,0,0,0,0,0],"sum_hessian":[4.2574097E1,4.1265984E1,1.3081143E0,3.756172E1,3.7042613E0,2.9736872E1,7.82485E0,2.085871E0,1.6183903E0],"tree_param":{"num_deleted":"0","num_feature":"6","num_nodes":"9","size_leaf_vector":"1"}},{"base_weights":[1.308931E-2,2.0295374E-1,-9.955901E-2,7.182801E-2,4.2617932E-2,5.1531106E-2,-4.722603E-2,2.782051E-2,-1.286453E-2,-2.5215728E-2,9.194783E-3],"categories":[],"categories_nodes":[],"categories_segments":[],"categories_sizes":[],"default_left":[0,0,0,0,0,0,0,0,0,0,0],"id":60,"left_children":[1,3,5,7,-1,9,-1,-1,-1,-1,-1],"loss_changes":[9.5007217E-1,1.3453965E0,3.6178966E0,2.5092103E0,0E0,1.9074545E0,0E0,0E0,0E0,0E0,0E0],"parents":[2147483647,0,0,1,1,2,2,3,3,5,5],"right_children":[2,4,6,8,-1,10,-1,-1,-1,-1,-1],"split_conditions":[4.1287643E1,7.3E-1,9.870165E-1,2.8E-1,4.2617932E-2,4.5301006E1,-4.722603E-2,2.782051E-2,-1.286453E-2,-2.5215728E-2,9.194783E-3],"split_indices":[2,5,0,5,0,2,0,0,0,0,0],"split_type":[0,0,0,0,0,0,0,0,0,0,0],"sum_hessian":[4.247626E1,1.5518599E1,2.6957663E1,1.383557E1,1.6830277E0,2.3665056E1,3.2926059E0,5.31676E0,8.51881E0,4.011077E0,1.9653978E1],"tree_param":{"num_deleted":"0","num_feature":"6","num_nodes":"11","size_leaf_vector":"1"}},{"base_weights":[1.2322368E-2,-2.176735E-2,3.194004E-2,4.9733035E-2,-4.628778E-1,-2.3535376E-3,2.18976E-2,-4.2338718E-2,3.2905716E-2],"categories":[],"categories_nodes":[],"categories_segments":[],"categories_sizes":[],"default_left":[0,0,0,0,0,0,0,0,0],"id":61,"left_children":[1,3,-1,5,7,-1,-1,-1,-1],"loss_changes":[9.388177E-1,1.348955E0,0E0,1.4140992E0,3.1225283E0,0E0,0E0,0E0,0E0],"parents":[2147483647,0,0,1,1,3,3,4,4],"right_children":[2,4,-1,6,8,-1,-1,-1,-1],"split_conditions":[6.623161E1,5.8148235E1,3.194004E-2,5.258291E1,4.2E-1,-2.3535376E-3,2.18976E-2,-4.2338718E-2,3.2905716E-2],"split_indices":[2,2,0,2,5,0,0,0,0],"split_type":[0,0,0,0,0,0,0,0,0],"sum_hessian":[4.2308308E1,4.1040356E1,1.2679497E0,3.6079433E1,4.9609246E0,2.9581846E1,6.4975867E0,3.8776128E0,1.083312E0],"tree_param":{"num_deleted":"0","num_feature":"6","num_nodes":"9","size_leaf_vector":"1"}},{"base_weights":[1.2709601E-2,1.991812E-1,-9.854342E-2,-1.5370163E-2,5.6830084E-1,-6.4770615E-1,1.2031505E-1,-1.22974925E-2,4.1876804E-2,5.0232258E-2,3.0983137E-3,3.619268E-2,-4.7625355E-2,-2.0575032E-2,2.2393141E-2],"categories":[],"categories_nodes":[],"categories_segments":[],"categories_sizes":[],"default_left":[0,0,0,0,0,0,0,0,0,0,0,0,0,0,0],"id":62,"left_children":[1,3,5,7,9,11,13,-1,-1,-1,-1,-1,-1,-1,-1],"loss_changes":[9.154391E-1,1.3128198E0,3.4088678E0,2.4454706E0,1.2808905E0,4.0565577E0,3.7831635E0,0E0,0E0,0E0,0E0,0E0,0E0,0E0,0E0],"parents":[2147483647,0,0,1,1,2,2,3,3,4,4,5,5,6,6],"right_children":[2,4,6,8,10,12,14,-1,-1,-1,-1,-1,-1,-1,-1],"split_conditions":[4.1287643E1,3.779986E1,1.11985564E-1,7.3E-1,3.960092E1,1.9E-1,2.5E-1,-1.22974925E-2,4.1876804E-2,5.0232258E-2,3.0983137E-3,3.619268E-2,-4.7625355E-2,-2.0575032E-2,2.2393141E-2],"split_indices":[2,2,1,5,2,5,5,0,0,0,0,0,0,0,0],"split_type":[0,0,0,0,0,0,0,0,0,0,0,0,0,0,0],"sum_hessian":[4.2180927E1,1.5466734E1,2.6714193E1,1.0387401E1,5.0793333E0,7.054206E0,1.9659986E1,8.737018E0,1.6503834E0,2.199616E0,2.879717E0,1.0326391E0,6.021567E0,7.395744E0,1.2264244E1],"tree_param":{"num_deleted":"0","num_feature":"6","num_nodes":"15","size_leaf_vector":"1"}},{"base_weights":[1.3798953E-2,-1.9934047E-2,3.164823E-2,4.1294284E-2,-5.2521336E-1,-2.1544085E-3,1.6513212E-2,-4.2454664E-2,2.7306953E-3],"categories":[],"categories_nodes":[],"categories_segments":[],"categories_sizes":[],"default_left":[0,0,0,0,0,0,0,0,0],"id":63,"left_children":[1,3,-1,5,7,-1,-1,-1,-1],"loss_changes":[9.089841E-1,1.310806E0,0E0,9.4306886E-1,9.058033E-1,0E0,0E0,0E0,0E0],"parents":[2147483647,0,0,1,1,3,3,4,4],"right_children":[2,4,-1,6,8,-1,-1,-1,-1],"split_conditions":[6.623161E1,5.9608284E1,3.164823E-2,5.258291E1,4.1E-1,-2.1544085E-3,1.6513212E-2,-4.2454664E-2,2.7306953E-3],"split_indices":[2,2,0,2,5,0,0,0,0],"split_type":[0,0,0,0,0,0,0,0,0],"sum_hessian":[4.1916454E1,4.066858E1,1.2478753E0,3.7092133E1,3.5764463E0,2.936741E1,7.724721E0,1.9967253E0,1.579721E0],"tree_param":{"num_deleted":"0","num_feature":"6","num_nodes":"9","size_leaf_vector":"1"}},{"base_weights":[1.3274286E-2,1.9670834E-1,-9.729292E-2,7.275873E-2,4.1157182E-2,4.505611E-2,-4.5823004E-2,2.6998509E-2,-1.22166965E-2,-2.4293311E-2,8.654151E-3],"categories":[],"categories_nodes":[],"categories_segments":[],"categories_sizes":[],"default_left":[0,0,0,0,0,0,0,0,0,0,0],"id":64,"left_children":[1,3,5,7,-1,9,-1,-1,-1,-1,-1],"loss_changes":[8.876519E-1,1.2162617E0,3.234814E0,2.3271458E0,0E0,1.7348382E0,0E0,0E0,0E0,0E0,0E0],"parents":[2147483647,0,0,1,1,2,2,3,3,5,5],"right_children":[2,4,6,8,-1,10,-1,-1,-1,-1,-1],"split_conditions":[4.1287643E1,7.3E-1,9.870165E-1,2.8E-1,4.1157182E-2,4.5301006E1,-4.5823004E-2,2.6998509E-2,-1.22166965E-2,-2.4293311E-2,8.654151E-3],"split_indices":[2,5,0,5,0,2,0,0,0,0,0],"split_type":[0,0,0,0,0,0,0,0,0,0,0],"sum_hessian":[4.1822334E1,1.5435435E1,2.6386898E1,1.3817569E1,1.6178658E0,2.3285507E1,3.1013916E0,5.3022447E0,8.515325E0,3.9810839E0,1.9304422E1],"tree_param":{"num_deleted":"0","num_feature":"6","num_nodes":"11","size_leaf_vector":"1"}},{"base_weights":[1.2502459E-2,-2.0265479E-2,3.106643E-2,4.933146E-2,-4.5472893E-1,1.3305484E-2,-4.8032426E-3,-4.1259836E-2,3.1829473E-2],"categories":[],"categories_nodes":[],"categories_segments":[],"categories_sizes":[],"default_left":[0,0,0,0,0,0,0,0,0],"id":65,"left_children":[1,3,-1,5,7,-1,-1,-1,-1],"loss_changes":[8.63621E-1,1.2757065E0,0E0,1.1800082E0,2.878607E0,0E0,0E0,0E0,0E0],"parents":[2147483647,0,0,1,1,3,3,4,4],"right_children":[2,4,-1,6,8,-1,-1,-1,-1],"split_conditions":[6.623161E1,5.8148235E1,3.106643E-2,3E-1,4.2E-1,1.3305484E-2,-4.8032426E-3,-4.1259836E-2,3.1829473E-2],"split_indices":[2,2,0,5,5,0,0,0,0],"split_type":[0,0,0,0,0,0,0,0,0],"sum_hessian":[4.165817E1,4.0447914E1,1.2102535E0,3.5627224E1,4.8206897E0,1.3969379E1,2.1657845E1,3.7810106E0,1.0396792E0],"tree_param":{"num_deleted":"0","num_feature":"6","num_nodes":"9","size_leaf_vector":"1"}},{"base_weights":[1.2601411E-2,-1.8171001E-2,3.2282896E-2,4.9450647E-2,-4.5502493E-1,-2.5465603E-3,2.327686E-2,-4.4572543E-2,-7.0200264E-3],"categories":[],"categories_nodes":[],"categories_segments":[],"categories_sizes":[],"default_left":[0,0,0,0,0,0,0,0,0],"id":66,"left_children":[1,3,-1,5,7,-1,-1,-1,-1],"loss_changes":[8.408965E-1,1.2503042E0,0E0,1.5646698E0,6.532886E-1,0E0,0E0,0E0,0E0],"parents":[2147483647,0,0,1,1,3,3,4,4],"right_children":[2,4,-1,6,8,-1,-1,-1,-1],"split_conditions":[8.1E-1,6.5E-1,3.2282896E-2,4.8E-1,2.9604265E-3,-2.5465603E-3,2.327686E-2,-4.4572543E-2,-7.0200264E-3],"split_indices":[5,5,0,5,0,0,0,0,0],"split_type":[0,0,0,0,0,0,0,0,0],"sum_hessian":[4.1563423E1,4.0562984E1,1.0004405E0,3.5893715E1,4.6692696E0,2.9624361E1,6.269352E0,1.1879892E0,3.4812803E0],"tree_param":{"num_deleted":"0","num_feature":"6","num_nodes":"9","size_leaf_vector":"1"}},{"base_weights":[1.2050502E-2,-2.0020502E-2,3.0657127E-2,3.8389757E-2,-5.124978E-1,1.3732548E-2,-3.1590294E-3,-4.1140374E-2,2.2118154E-3],"categories":[],"categories_nodes":[],"categories_segments":[],"categories_sizes":[],"default_left":[0,0,0,0,0,0,0,0,0],"id":67,"left_children":[1,3,-1,5,7,-1,-1,-1,-1],"loss_changes":[8.314781E-1,1.2080134E0,0E0,9.259097E-1,8.051554E-1,0E0,0E0,0E0,0E0],"parents":[2147483647,0,0,1,1,3,3,4,4],"right_children":[2,4,-1,6,8,-1,-1,-1,-1],"split_conditions":[6.623161E1,5.9608284E1,3.0657127E-2,2.053886E-2,4.1E-1,1.3732548E-2,-3.1590294E-3,-4.1140374E-2,2.2118154E-3],"split_indices":[2,2,0,0,5,0,0,0,0],"split_type":[0,0,0,0,0,0,0,0,0],"sum_hessian":[4.1495003E1,4.0310925E1,1.1840786E0,3.6861065E1,3.4498582E0,1.0570092E1,2.6290974E1,1.9083009E0,1.5415573E0],"tree_param":{"num_deleted":"0","num_feature":"6","num_nodes":"9","size_leaf_vector":"1"}},{"base_weights":[1.1530082E-2,1.8880336E-1,-9.614864E-2,-2.5020793E-2,5.560486E-1,4.2008612E-2,-4.5074504E-2,-1.217414E-2,4.0390193E-2,4.8738375E-2,3.39564E-3,-2.3469765E-2,8.329936E-3],"categories":[],"categories_nodes":[],"categories_segments":[],"categories_sizes":[],"default_left":[0,0,0,0,0,0,0,0,0,0,0,0,0],"id":68,"left_children":[1,3,5,7,9,11,-1,-1,-1,-1,-1,-1,-1],"loss_changes":[8.26928E-1,1.2976704E0,3.0443738E0,2.2506626E0,1.1721973E0,1.6086631E0,0E0,0E0,0E0,0E0,0E0,0E0,0E0],"parents":[2147483647,0,0,1,1,2,2,3,3,4,4,5,5],"right_children":[2,4,6,8,10,12,-1,-1,-1,-1,-1,-1,-1],"split_conditions":[4.1287643E1,3.779986E1,9.870165E-1,7.3E-1,3.960092E1,4.5301006E1,-4.5074504E-2,-1.217414E-2,4.0390193E-2,4.8738375E-2,3.39564E-3,-2.3469765E-2,8.329936E-3],"split_indices":[2,2,0,5,2,2,0,0,0,0,0,0,0],"split_type":[0,0,0,0,0,0,0,0,0,0,0,0,0],"sum_hessian":[4.1369614E1,1.53482065E1,2.6021406E1,1.028927E1,5.0589366E0,2.3020115E1,3.0012898E0,8.711706E0,1.5775646E0,2.186476E0,2.8724604E0,3.9674485E0,1.9052668E1],"tree_param":{"num_deleted":"0","num_feature":"6","num_nodes":"13","size_leaf_vector":"1"}},{"base_weights":[1.1441426E-2,-3.2639224E-2,4.4007155E-1,4.2991737E-1,-8.73405E-2,-1.5985366E-2,4.7790874E-2,-5.241413E-3,4.3146156E-2,-3.9790038E-2,1.0645617E-3],"categories":[],"categories_nodes":[],"categories_segments":[],"categories_sizes":[],"default_left":[0,0,0,0,0,0,0,0,0,0,0],"id":69,"left_children":[1,3,5,7,9,-1,-1,-1,-1,-1,-1],"loss_changes":[8.122336E-1,1.029942E0,1.8756771E0,1.0899572E0,2.7802105E0,0E0,0E0,0E0,0E0,0E0,0E0],"parents":[2147483647,0,0,1,1,2,2,3,3,4,4],"right_children":[2,4,6,8,10,-1,-1,-1,-1,-1,-1],"split_conditions":[1E0,1.0695298E-3,1.5436729E-3,7.515315E-4,3.743822E-3,-1.5985366E-2,4.7790874E-2,-5.241413E-3,4.3146156E-2,-3.9790038E-2,1.0645617E-3],"split_indices":[3,1,1,1,1,0,0,0,0,0,0],"split_type":[0,0,0,0,0,0,0,0,0,0,0],"sum_hessian":[4.1228092E1,3.8221245E1,3.0068495E0,3.3165944E0,3.490465E1,1.3694826E0,1.637367E0,1.8230735E0,1.493521E0,3.799552E0,3.1105099E1],"tree_param":{"num_deleted":"0","num_feature":"6","num_nodes":"11","size_leaf_vector":"1"}},{"base_weights":[1.163032E-2,1.8768626E-1,-9.54649E-2,-1.8519975E-2,5.409053E-1,3.703844E-2,-4.431547E-2,-1.1493683E-2,3.9689735E-2,4.6894915E-2,3.7556605E-3,5.6295036E-3,-3.786748E-2],"categories":[],"categories_nodes":[],"categories_segments":[],"categories_sizes":[],"default_left":[0,0,0,0,0,0,0,0,0,0,0,0,0],"id":70,"left_children":[1,3,5,7,9,11,-1,-1,-1,-1,-1,-1,-1],"loss_changes":[8.1298536E-1,1.1962397E0,2.8497615E0,2.1139278E0,1.0457546E0,1.5247303E0,0E0,0E0,0E0,0E0,0E0,0E0,0E0],"parents":[2147483647,0,0,1,1,2,2,3,3,4,4,5,5],"right_children":[2,4,6,8,10,12,-1,-1,-1,-1,-1,-1,-1],"split_conditions":[4.1287643E1,3.779986E1,9.870165E-1,7.3E-1,3.960092E1,7.1E-1,-4.431547E-2,-1.1493683E-2,3.9689735E-2,4.6894915E-2,3.7556605E-3,5.6295036E-3,-3.786748E-2],"split_indices":[2,2,0,5,2,5,0,0,0,0,0,0,0],"split_type":[0,0,0,0,0,0,0,0,0,0,0,0,0],"sum_hessian":[4.116804E1,1.5286215E1,2.5881828E1,1.0249949E1,5.036265E0,2.2984087E1,2.8977408E0,8.702648E0,1.5473014E0,2.1717415E0,2.8645232E0,2.1771719E1,1.2123682E0],"tree_param":{"num_deleted":"0","num_feature":"6","num_nodes":"13","size_leaf_vector":"1"}},{"base_weights":[1.1116062E-2,-3.2077696E-2,4.3292004E-1,-1.5310442E-1,1.6484642E-1,-1.5445138E-2,4.694881E-2,1.9684152E-3,-2.2987453E-2,1.9680412E-2,-9.946298E-3],"categories":[],"categories_nodes":[],"categories_segments":[],"categories_sizes":[],"default_left":[0,0,0,0,0,0,0,0,0,0,0],"id":71,"left_children":[1,3,5,7,9,-1,-1,-1,-1,-1,-1],"loss_changes":[7.798141E-1,9.5628506E-1,1.7819182E0,1.4767206E0,1.3558153E0,0E0,0E0,0E0,0E0,0E0,0E0],"parents":[2147483647,0,0,1,1,2,2,3,3,4,4],"right_children":[2,4,6,8,10,-1,-1,-1,-1,-1,-1],"split_conditions":[1E0,4.4E-1,1.5436729E-3,3E-1,6.5E-1,-1.5445138E-2,4.694881E-2,1.9684152E-3,-2.2987453E-2,1.9680412E-2,-9.946298E-3],"split_indices":[3,5,1,5,5,0,0,0,0,0,0],"split_type":[0,0,0,0,0,0,0,0,0,0,0],"sum_hessian":[4.1039326E1,3.8065296E1,2.9740283E0,2.371371E1,1.4351584E1,1.3640574E0,1.6099708E0,1.5104581E1,8.60913E0,8.760464E0,5.5911217E0],"tree_param":{"num_deleted":"0","num_feature":"6","num_nodes":"11","size_leaf_vector":"1"}},{"base_weights":[1.1082838E-2,-1.9848427E-2,2.9864876E-2,3.890834E-2,-5.1726E-1,1.2868184E-2,-2.7782428E-3,-4.059113E-2,1.3148715E-3],"categories":[],"categories_nodes":[],"categories_segments":[],"categories_sizes":[],"default_left":[0,0,0,0,0,0,0,0,0],"id":72,"left_children":[1,3,-1,5,7,-1,-1,-1,-1],"loss_changes":[7.719539E-1,1.2121576E0,0E0,7.8632146E-1,7.224541E-1,0E0,0E0,0E0,0E0],"parents":[2147483647,0,0,1,1,3,3,4,4],"right_children":[2,4,-1,6,8,-1,-1,-1,-1],"split_conditions":[6.623161E1,5.9608284E1,2.9864876E-2,2.053886E-2,4.1E-1,1.2868184E-2,-2.7782428E-3,-4.059113E-2,1.3148715E-3],"split_indices":[2,2,0,0,5,0,0,0,0],"split_type":[0,0,0,0,0,0,0,0,0],"sum_hessian":[4.091944E1,3.978628E1,1.133158E0,3.6407433E1,3.3788514E0,1.0470876E1,2.5936556E1,1.8712531E0,1.5075983E0],"tree_param":{"num_deleted":"0","num_feature":"6","num_nodes":"9","size_leaf_vector":"1"}},{"base_weights":[1.0567887E-2,1.8480504E-1,-9.627099E-2,-1.5404495E-2,5.2737194E-1,3.0621842E-2,-4.3454763E-2,-1.11105135E-2,3.9221834E-2,4.564203E-2,3.760629E-3,5.222199E-3,-3.678971E-2],"categories":[],"categories_nodes":[],"categories_segments":[],"categories_sizes":[],"default_left":[0,0,0,0,0,0,0,0,0,0,0,0,0],"id":73,"left_children":[1,3,5,7,9,11,-1,-1,-1,-1,-1,-1,-1],"loss_changes":[7.959137E-1,1.1213316E0,2.632137E0,2.0295084E0,9.7978437E-1,1.4227309E0,0E0,0E0,0E0,0E0,0E0,0E0,0E0],"parents":[2147483647,0,0,1,1,2,2,3,3,4,4,5,5],"right_children":[2,4,6,8,10,12,-1,-1,-1,-1,-1,-1,-1],"split_conditions":[4.1287643E1,3.779986E1,9.870165E-1,7.3E-1,3.960092E1,7.1E-1,-4.3454763E-2,-1.11105135E-2,3.9221834E-2,4.564203E-2,3.760629E-3,5.222199E-3,-3.678971E-2],"split_indices":[2,2,0,5,2,5,0,0,0,0,0,0,0],"split_type":[0,0,0,0,0,0,0,0,0,0,0,0,0],"sum_hessian":[4.0800148E1,1.5231025E1,2.5569122E1,1.0215638E1,5.0153866E0,2.2787874E1,2.7812479E0,8.690752E0,1.5248859E0,2.1573694E0,2.8580174E0,2.1573603E1,1.2142717E0],"tree_param":{"num_deleted":"0","num_feature":"6","num_nodes":"13","size_leaf_vector":"1"}},{"base_weights":[1.0111078E-2,1.8085307E-1,-9.465784E-2,-8.0621794E-2,4.4072038E-1,2.77699E-2,-4.2824376E-2,1.846583E-2,-2.6311383E-2,-9.548036E-3,5.3387523E-2,-2.2061191E-2,7.182137E-3],"categories":[],"categories_nodes":[],"categories_segments":[],"categories_sizes":[],"default_left":[0,0,0,0,0,0,0,0,0,0,0,0,0],"id":74,"left_children":[1,3,5,7,9,11,-1,-1,-1,-1,-1,-1,-1],"loss_changes":[7.625762E-1,1.1356524E0,2.4937446E0,1.9818829E0,3.4814157E0,1.3558968E0,0E0,0E0,0E0,0E0,0E0,0E0,0E0],"parents":[2147483647,0,0,1,1,2,2,3,3,4,4,5,5],"right_children":[2,4,6,8,10,12,-1,-1,-1,-1,-1,-1,-1],"split_conditions":[4.1287643E1,3.743822E-3,9.870165E-1,1.2645968E-3,9.747414E-1,4.5301006E1,-4.2824376E-2,1.846583E-2,-2.6311383E-2,-9.548036E-3,5.3387523E-2,-2.2061191E-2,7.182137E-3],"split_indices":[2,1,0,1,0,2,0,0,0,0,0,0,0],"split_type":[0,0,0,0,0,0,0,0,0,0,0,0,0],"sum_hessian":[4.0672527E1,1.5190442E1,2.5482086E1,7.915617E0,7.2748256E0,2.2784166E1,2.6979184E0,4.0238485E0,3.891768E0,3.9704132E0,3.3044121E0,3.9576807E0,1.8826487E1],"tree_param":{"num_deleted":"0","num_feature":"6","num_nodes":"13","size_leaf_vector":"1"}},{"base_weights":[9.098673E-3,-3.308366E-2,4.2171264E-1,3.9663035E-1,-8.3727956E-2,-1.5033654E-2,4.5914587E-2,-5.2652904E-3,4.0597446E-2,-3.7327025E-2,8.551067E-4],"categories":[],"categories_nodes":[],"categories_segments":[],"categories_sizes":[],"default_left":[0,0,0,0,0,0,0,0,0,0,0],"id":75,"left_children":[1,3,5,7,9,-1,-1,-1,-1,-1,-1],"loss_changes":[7.3684806E-1,8.7343514E-1,1.6840878E0,9.70396E-1,2.3761911E0,0E0,0E0,0E0,0E0,0E0,0E0],"parents":[2147483647,0,0,1,1,2,2,3,3,4,4],"right_children":[2,4,6,8,10,-1,-1,-1,-1,-1,-1],"split_conditions":[1E0,1.0695298E-3,1.5436729E-3,7.515315E-4,3.743822E-3,-1.5033654E-2,4.5914587E-2,-5.2652904E-3,4.0597446E-2,-3.7327025E-2,8.551067E-4],"split_indices":[3,1,1,1,1,0,0,0,0,0,0],"split_type":[0,0,0,0,0,0,0,0,0,0,0],"sum_hessian":[4.053378E1,3.760878E1,2.9249997E0,3.2448366E0,3.4363945E1,1.3522948E0,1.5727049E0,1.8071901E0,1.4376464E0,3.691791E0,3.0672153E1],"tree_param":{"num_deleted":"0","num_feature":"6","num_nodes":"11","size_leaf_vector":"1"}},{"base_weights":[9.385244E-3,1.7752689E-1,-9.379183E-2,5.0429654E-1,-2.6224514E-2,-6.6686755E-1,5.9083898E-2,-7.371639E-3,5.9660643E-2,-1.6124321E-2,2.8363217E-2,7.076782E-3,-4.6916988E-2,-1.5221655E-2,1.4634092E-2],"categories":[],"categories_nodes":[],"categories_segments":[],"categories_sizes":[],"default_left":[0,0,0,0,0,0,0,0,0,0,0,0,0,0,0],"id":76,"left_children":[1,3,5,7,9,11,13,-1,-1,-1,-1,-1,-1,-1,-1],"loss_changes":[7.3609793E-1,1.0862336E0,2.3483007E0,2.977139E0,2.095445E0,1.3686461E0,1.9337665E0,0E0,0E0,0E0,0E0,0E0,0E0,0E0,0E0],"parents":[2147483647,0,0,1,1,2,2,3,3,4,4,5,5,6,6],"right_children":[2,4,6,8,10,12,14,-1,-1,-1,-1,-1,-1,-1,-1],"split_conditions":[4.1287643E1,2.8E-1,3.5556518E-2,9.300218E-1,3.743822E-3,2.4E-1,2.5E-1,-7.371639E-3,5.9660643E-2,-1.6124321E-2,2.8363217E-2,7.076782E-3,-4.6916988E-2,-1.5221655E-2,1.4634092E-2],"split_indices":[2,5,1,0,1,5,5,0,0,0,0,0,0,0,0],"split_type":[0,0,0,0,0,0,0,0,0,0,0,0,0,0,0],"sum_hessian":[4.047062E1,1.5116134E1,2.5354485E1,5.2389784E0,9.877155E0,4.631293E0,2.0723192E1,3.0960464E0,2.142932E0,6.892924E0,2.9842317E0,1.284596E0,3.3466966E0,7.988512E0,1.273468E1],"tree_param":{"num_deleted":"0","num_feature":"6","num_nodes":"15","size_leaf_vector":"1"}},{"base_weights":[9.507281E-3,-2.0915048E-2,2.9353825E-2,4.8565518E-2,-4.588971E-1,1.2905705E-2,-4.735964E-3,-4.5231815E-2,6.356752E-4],"categories":[],"categories_nodes":[],"categories_segments":[],"categories_sizes":[],"default_left":[0,0,0,0,0,0,0,0,0],"id":77,"left_children":[1,3,-1,5,7,-1,-1,-1,-1],"loss_changes":[7.378122E-1,1.2453489E0,0E0,1.093116E0,1.1884041E0,0E0,0E0,0E0,0E0],"parents":[2147483647,0,0,1,1,3,3,4,4],"right_children":[2,4,-1,6,8,-1,-1,-1,-1],"split_conditions":[6.623161E1,5.8148235E1,2.9353825E-2,3E-1,1.9E-1,1.2905705E-2,-4.735964E-3,-4.5231815E-2,6.356752E-4],"split_indices":[2,2,0,5,5,0,0,0,0],"split_type":[0,0,0,0,0,0,0,0,0],"sum_hessian":[4.029153E1,3.9191006E1,1.1005218E0,3.459245E1,4.598559E0,1.3722462E1,2.0869987E1,1.8920848E0,2.706474E0],"tree_param":{"num_deleted":"0","num_feature":"6","num_nodes":"9","size_leaf_vector":"1"}},{"base_weights":[8.859239E-3,-2.0816162E-2,2.8940717E-2,3.3321135E-2,-5.566551E-1,-4.9041493E-5,2.496847E-2,-3.6707606E-2,-5.7353573E-3],"categories":[],"categories_nodes":[],"categories_segments":[],"categories_sizes":[],"default_left":[0,0,0,0,0,0,0,0,0],"id":78,"left_children":[1,3,-1,5,7,-1,-1,-1,-1],"loss_changes":[7.0945585E-1,1.1834885E0,0E0,5.986455E-1,2.0928395E-1,0E0,0E0,0E0,0E0],"parents":[2147483647,0,0,1,1,3,3,4,4],"right_children":[2,4,-1,6,8,-1,-1,-1,-1],"split_conditions":[6.623161E1,6.0701714E1,2.8940717E-2,7.8E-1,4.1E-1,-4.9041493E-5,2.496847E-2,-3.6707606E-2,-5.7353573E-3],"split_indices":[2,2,0,5,5,0,0,0,0],"split_type":[0,0,0,0,0,0,0,0,0],"sum_hessian":[4.02334E1,3.9158066E1,1.0753344E0,3.6416607E1,2.7414563E0,3.4849518E1,1.5670899E0,1.4841943E0,1.2572619E0],"tree_param":{"num_deleted":"0","num_feature":"6","num_nodes":"9","size_leaf_vector":"1"}},{"base_weights":[8.707694E-3,-2.0247446E-2,2.8535414E-2,3.2341775E-2,-5.4519343E-1,1.0917305E-2,-2.6225417E-3,-3.6120493E-2,-5.573564E-3],"categories":[],"categories_nodes":[],"categories_segments":[],"categories_sizes":[],"default_left":[0,0,0,0,0,0,0,0,0],"id":79,"left_children":[1,3,-1,5,7,-1,-1,-1,-1],"loss_changes":[6.813169E-1,1.1248584E0,0E0,6.0130686E-1,2.0448685E-1,0E0,0E0,0E0,0E0],"parents":[2147483647,0,0,1,1,3,3,4,4],"right_children":[2,4,-1,6,8,-1,-1,-1,-1],"split_conditions":[6.623161E1,6.0701714E1,2.8535414E-2,2.053886E-2,4.1E-1,1.0917305E-2,-2.6225417E-3,-3.6120493E-2,-5.573564E-3],"split_indices":[2,2,0,0,5,0,0,0,0],"split_type":[0,0,0,0,0,0,0,0,0],"sum_hessian":[4.0158337E1,3.9107433E1,1.050903E0,3.639933E1,2.708104E0,1.0904263E1,2.5495066E1,1.4500263E0,1.2580776E0],"tree_param":{"num_deleted":"0","num_feature":"6","num_nodes":"9","size_leaf_vector":"1"}},{"base_weights":[8.171118E-3,1.7204256E-1,-9.3354575E-2,5.967641E-2,3.8280897E-2,2.1987094E-2,-4.1628778E-2,2.4002178E-2,-1.1244239E-2,4.7371495E-3,-3.595652E-2],"categories":[],"categories_nodes":[],"categories_segments":[],"categories_sizes":[],"default_left":[0,0,0,0,0,0,0,0,0,0,0],"id":80,"left_children":[1,3,5,7,-1,9,-1,-1,-1,-1,-1],"loss_changes":[6.992167E-1,1.0254589E0,2.23534E0,1.852974E0,0E0,1.3334891E0,0E0,0E0,0E0,0E0,0E0],"parents":[2147483647,0,0,1,1,2,2,3,3,5,5],"right_children":[2,4,6,8,-1,10,-1,-1,-1,-1,-1],"split_conditions":[4.1287643E1,7.3E-1,9.870165E-1,2.8E-1,3.8280897E-2,7.1E-1,-4.1628778E-2,2.4002178E-2,-1.1244239E-2,4.7371495E-3,-3.595652E-2],"split_indices":[2,5,0,5,0,5,0,0,0,0,0],"split_type":[0,0,0,0,0,0,0,0,0,0,0],"sum_hessian":[4.006204E1,1.505973E1,2.5002308E1,1.3588004E1,1.4717256E0,2.2467005E1,2.5353014E0,5.207815E0,8.380189E0,2.1252771E1,1.2142336E0],"tree_param":{"num_deleted":"0","num_feature":"6","num_nodes":"11","size_leaf_vector":"1"}},{"base_weights":[7.2386567E-3,1.6726147E-1,-9.183014E-2,-2.3360394E-2,4.9386382E-1,1.9562019E-2,-4.1038733E-2,-1.0888937E-2,3.763572E-2,4.3157797E-2,3.2260236E-3,4.5119585E-3,-3.4956034E-2],"categories":[],"categories_nodes":[],"categories_segments":[],"categories_sizes":[],"default_left":[0,0,0,0,0,0,0,0,0,0,0,0,0],"id":81,"left_children":[1,3,5,7,9,11,-1,-1,-1,-1,-1,-1,-1],"loss_changes":[6.641643E-1,1.0078535E0,2.1209261E0,1.8327018E0,8.866042E-1,1.2548774E0,0E0,0E0,0E0,0E0,0E0,0E0,0E0],"parents":[2147483647,0,0,1,1,2,2,3,3,4,4,5,5],"right_children":[2,4,6,8,10,12,-1,-1,-1,-1,-1,-1,-1],"split_conditions":[4.1287643E1,3.779986E1,9.870165E-1,7.3E-1,3.960092E1,7.1E-1,-4.1038733E-2,-1.0888937E-2,3.763572E-2,4.3157797E-2,3.2260236E-3,4.5119585E-3,-3.4956034E-2],"split_indices":[2,2,0,5,2,5,0,0,0,0,0,0,0],"split_type":[0,0,0,0,0,0,0,0,0,0,0,0,0],"sum_hessian":[3.992561E1,1.5003146E1,2.4922462E1,1.0060057E1,4.94309E0,2.246299E1,2.459472E0,8.620001E0,1.440055E0,2.114194E0,2.828896E0,2.1247858E1,1.2151322E0],"tree_param":{"num_deleted":"0","num_feature":"6","num_nodes":"13","size_leaf_vector":"1"}},{"base_weights":[6.924224E-3,-2.1334367E-2,2.800921E-2,4.4742633E-2,-4.415626E-1,1.2008871E-2,-4.47401E-3,-4.4264615E-2,9.788295E-4],"categories":[],"categories_nodes":[],"categories_segments":[],"categories_sizes":[],"default_left":[0,0,0,0,0,0,0,0,0],"id":82,"left_children":[1,3,-1,5,7,-1,-1,-1,-1],"loss_changes":[6.4991796E-1,1.1245074E0,0E0,9.471573E-1,1.142324E0,0E0,0E0,0E0,0E0],"parents":[2147483647,0,0,1,1,3,3,4,4],"right_children":[2,4,-1,6,8,-1,-1,-1,-1],"split_conditions":[6.623161E1,5.8148235E1,2.800921E-2,3E-1,1.9E-1,1.2008871E-2,-4.47401E-3,-4.4264615E-2,9.788295E-4],"split_indices":[2,2,0,5,5,0,0,0,0],"split_type":[0,0,0,0,0,0,0,0,0],"sum_hessian":[3.980547E1,3.8785862E1,1.0196079E0,3.428793E1,4.497932E0,1.3639206E1,2.0648724E1,1.8234901E0,2.6744416E0],"tree_param":{"num_deleted":"0","num_feature":"6","num_nodes":"9","size_leaf_vector":"1"}},{"base_weights":[6.3833743E-3,1.6263863E-1,-9.049663E-2,5.5375673E-2,3.7083212E-2,-5.462429E-1,7.989856E-2,-1.678872E-2,1.7637763E-2,1.8910771E-2,-4.9791433E-2,-2.2149703E-2,2.0260086E-2],"categories":[],"categories_nodes":[],"categories_segments":[],"categories_sizes":[],"default_left":[0,0,0,0,0,0,0,0,0,0,0,0,0],"id":83,"left_children":[1,3,5,7,-1,9,11,-1,-1,-1,-1,-1,-1],"loss_changes":[6.315682E-1,9.497233E-1,2.0468574E0,1.8097528E0,0E0,3.347312E0,3.5216253E0,0E0,0E0,0E0,0E0,0E0,0E0],"parents":[2147483647,0,0,1,1,2,2,3,3,5,5,6,6],"right_children":[2,4,6,8,-1,10,12,-1,-1,-1,-1,-1,-1],"split_conditions":[4.1287643E1,7.3E-1,1.11985564E-1,3.513766E1,3.7083212E-2,2.4E-1,2.5E-1,-1.678872E-2,1.7637763E-2,1.8910771E-2,-4.9791433E-2,-2.2149703E-2,2.0260086E-2],"split_indices":[2,5,1,2,0,5,5,0,0,0,0,0,0],"split_type":[0,0,0,0,0,0,0,0,0,0,0,0,0],"sum_hessian":[3.9748417E1,1.495275E1,2.4795668E1,1.3540115E1,1.4126347E0,6.1475163E0,1.8648151E1,5.792284E0,7.7478313E0,2.0634024E0,4.0841136E0,7.0132537E0,1.1634898E1],"tree_param":{"num_deleted":"0","num_feature":"6","num_nodes":"13","size_leaf_vector":"1"}},{"base_weights":[6.1708027E-3,6.2207345E-2,-2.7467442E-1,2.0183073E-3,4.163937E-2,-6.19854E-1,2.921806E-1,-3.1068817E-2,3.1339407E-3,-4.556747E-2,-4.474998E-3,3.6662125E-3,1.8610502E-2],"categories":[],"categories_nodes":[],"categories_segments":[],"categories_sizes":[],"default_left":[0,0,0,0,0,0,0,0,0,0,0,0,0],"id":84,"left_children":[1,3,5,7,-1,9,11,-1,-1,-1,-1,-1,-1],"loss_changes":[6.551461E-1,1.603779E0,1.5368145E0,1.2910005E0,0E0,6.3370323E-1,3.0541241E-2,0E0,0E0,0E0,0E0,0E0,0E0],"parents":[2147483647,0,0,1,1,2,2,3,3,5,5,6,6],"right_children":[2,4,6,8,-1,10,12,-1,-1,-1,-1,-1,-1],"split_conditions":[9.964725E-1,9.943037E-1,9.9785703E-1,7.315721E-3,4.163937E-2,4.2E-1,9.983005E-1,-3.1068817E-2,3.1339407E-3,-4.556747E-2,-4.474998E-3,3.6662125E-3,1.8610502E-2],"split_indices":[1,1,1,0,0,5,1,0,0,0,0,0,0],"split_type":[0,0,0,0,0,0,0,0,0,0,0,0,0],"sum_hessian":[3.954364E1,3.3615E1,5.9286413E0,3.210958E1,1.50542E0,3.6267056E0,2.3019357E0,2.027713E0,3.0081867E1,1.8767946E0,1.7499112E0,1.1294489E0,1.1724867E0],"tree_param":{"num_deleted":"0","num_feature":"6","num_nodes":"13","size_leaf_vector":"1"}},{"base_weights":[5.5231033E-3,-2.2413936E-2,2.7703688E-2,2.8607138E-2,-5.337814E-1,1.0362854E-2,-2.6356645E-3,-3.5121195E-2,-5.801721E-3],"categories":[],"categories_nodes":[],"categories_segments":[],"categories_sizes":[],"default_left":[0,0,0,0,0,0,0,0,0],"id":85,"left_children":[1,3,-1,5,7,-1,-1,-1,-1],"loss_changes":[6.3275063E-1,1.0452769E0,0E0,5.462168E-1,1.7439783E-1,0E0,0E0,0E0,0E0],"parents":[2147483647,0,0,1,1,3,3,4,4],"right_children":[2,4,-1,6,8,-1,-1,-1,-1],"split_conditions":[6.623161E1,6.0701714E1,2.7703688E-2,2.053886E-2,4.1E-1,1.0362854E-2,-2.6356645E-3,-3.5121195E-2,-5.801721E-3],"split_indices":[2,2,0,0,5,0,0,0,0],"split_type":[0,0,0,0,0,0,0,0,0],"sum_hessian":[3.947872E1,3.8478214E1,1.0005103E0,3.58458E1,2.6324139E0,1.0728374E1,2.5117426E1,1.3898715E0,1.2425423E0],"tree_param":{"num_deleted":"0","num_feature":"6","num_nodes":"9","size_leaf_vector":"1"}},{"base_weights":[5.1204837E-3,5.972643E-2,-2.711657E-1,1.7386241E-3,4.0687352E-2,-6.080317E-1,2.8383544E-1,-3.0232463E-2,3.0400464E-3,-4.4480857E-2,-4.21309E-3,3.2417139E-3,1.8334445E-2],"categories":[],"categories_nodes":[],"categories_segments":[],"categories_sizes":[],"default_left":[0,0,0,0,0,0,0,0,0,0,0,0,0],"id":86,"left_children":[1,3,5,7,-1,9,11,-1,-1,-1,-1,-1,-1],"loss_changes":[6.255166E-1,1.5088995E0,1.4524238E0,1.2214191E0,0E0,6.002517E-1,3.551224E-2,0E0,0E0,0E0,0E0,0E0,0E0],"parents":[2147483647,0,0,1,1,2,2,3,3,5,5,6,6],"right_children":[2,4,6,8,-1,10,12,-1,-1,-1,-1,-1,-1],"split_conditions":[9.964725E-1,9.943037E-1,9.9785703E-1,7.315721E-3,4.0687352E-2,1.9967933E-3,9.983005E-1,-3.0232463E-2,3.0400464E-3,-4.4480857E-2,-4.21309E-3,3.2417139E-3,1.8334445E-2],"split_indices":[1,1,1,0,0,0,1,0,0,0,0,0,0],"split_type":[0,0,0,0,0,0,0,0,0,0,0,0,0],"sum_hessian":[3.93875E1,3.3541996E1,5.845506E0,3.2077396E1,1.4645997E0,3.5781472E0,2.267359E0,2.0271661E0,3.0050228E1,1.8728114E0,1.7053357E0,1.1116154E0,1.1557436E0],"tree_param":{"num_deleted":"0","num_feature":"6","num_nodes":"13","size_leaf_vector":"1"}},{"base_weights":[4.540907E-3,-3.449314E-2,3.8558894E-1,3.968007E-1,-8.598214E-2,-1.5034876E-2,4.3645103E-2,-4.3027713E-3,3.969007E-2,-3.603679E-2,5.515746E-4],"categories":[],"categories_nodes":[],"categories_segments":[],"categories_sizes":[],"default_left":[0,0,0,0,0,0,0,0,0,0,0],"id":87,"left_children":[1,3,5,7,9,-1,-1,-1,-1,-1,-1],"loss_changes":[6.1330366E-1,8.670767E-1,1.543524E0,8.692959E-1,2.12202E0,0E0,0E0,0E0,0E0,0E0,0E0],"parents":[2147483647,0,0,1,1,2,2,3,3,4,4],"right_children":[2,4,6,8,10,-1,-1,-1,-1,-1,-1],"split_conditions":[1E0,1.0695298E-3,1.5436729E-3,7.515315E-4,3.743822E-3,-1.5034876E-2,4.3645103E-2,-4.3027713E-3,3.969007E-2,-3.603679E-2,5.515746E-4],"split_indices":[3,1,1,1,1,0,0,0,0,0,0],"split_type":[0,0,0,0,0,0,0,0,0,0,0],"sum_hessian":[3.9339497E1,3.6509037E1,2.8304584E0,3.1784518E0,3.3330585E1,1.334301E0,1.4961574E0,1.7875553E0,1.3908966E0,3.5664327E0,2.9764154E1],"tree_param":{"num_deleted":"0","num_feature":"6","num_nodes":"11","size_leaf_vector":"1"}},{"base_weights":[5.0399536E-3,5.8393914E-2,-2.6598924E-1,2.2789037E-3,3.9859463E-2,-5.926469E-1,2.7392766E-1,-2.9165942E-2,2.9758173E-3,-4.4127718E-2,-4.1112504E-3,3.092747E-3,1.7735831E-2],"categories":[],"categories_nodes":[],"categories_segments":[],"categories_sizes":[],"default_left":[0,0,0,0,0,0,0,0,0,0,0,0,0],"id":88,"left_children":[1,3,5,7,-1,9,11,-1,-1,-1,-1,-1,-1],"loss_changes":[5.979445E-1,1.427289E0,1.3624495E0,1.142189E0,0E0,6.015576E-1,3.372276E-2,0E0,0E0,0E0,0E0,0E0,0E0],"parents":[2147483647,0,0,1,1,2,2,3,3,5,5,6,6],"right_children":[2,4,6,8,-1,10,12,-1,-1,-1,-1,-1,-1],"split_conditions":[9.964725E-1,9.943037E-1,9.9785703E-1,7.315721E-3,3.9859463E-2,4.2E-1,9.983005E-1,-2.9165942E-2,2.9758173E-3,-4.4127718E-2,-4.1112504E-3,3.092747E-3,1.7735831E-2],"split_indices":[1,1,1,0,0,5,1,0,0,0,0,0,0],"split_type":[0,0,0,0,0,0,0,0,0,0,0,0,0],"sum_hessian":[3.9276142E1,3.3471577E1,5.804563E0,3.2040997E1,1.4305811E0,3.555668E0,2.248895E0,2.0345235E0,3.0006474E1,1.8027061E0,1.7529621E0,1.1074504E0,1.1414446E0],"tree_param":{"num_deleted":"0","num_feature":"6","num_nodes":"13","size_leaf_vector":"1"}},{"base_weights":[4.4515817E-3,-2.5943756E-2,2.3713028E-2,4.607297E-2,-5.295616E-1,-1.9803557E-3,2.000029E-2,-4.3518674E-2,-9.554835E-3],"categories":[],"categories_nodes":[],"categories_segments":[],"categories_sizes":[],"default_left":[0,0,0,0,0,0,0,0,0],"id":89,"left_children":[1,3,-1,5,7,-1,-1,-1,-1],"loss_changes":[5.865301E-1,1.4286045E0,0E0,1.0709321E0,4.01649E-1,0E0,0E0,0E0,0E0],"parents":[2147483647,0,0,1,1,3,3,4,4],"right_children":[2,4,-1,6,8,-1,-1,-1,-1],"split_conditions":[7.8E-1,6.5E-1,2.3713028E-2,4.8E-1,2.9604265E-3,-1.9803557E-3,2.000029E-2,-4.3518674E-2,-9.554835E-3],"split_indices":[5,5,0,5,0,0,0,0,0],"split_type":[0,0,0,0,0,0,0,0,0],"sum_hessian":[3.92119E1,3.7716522E1,1.4953765E0,3.379272E1,3.9238017E0,2.7921562E1,5.8711596E0,1.172071E0,2.7517307E0],"tree_param":{"num_deleted":"0","num_feature":"6","num_nodes":"9","size_leaf_vector":"1"}},{"base_weights":[3.97282E-3,1.5102051E-1,-8.833437E-2,4.5305896E-1,-3.7062716E-2,1.8473312E-2,-4.001934E-2,-8.366636E-3,5.636809E-2,-1.598576E-2,2.6832435E-2,-2.1072349E-2,6.5658414E-3],"categories":[],"categories_nodes":[],"categories_segments":[],"categories_sizes":[],"default_left":[0,0,0,0,0,0,0,0,0,0,0,0,0],"id":90,"left_children":[1,3,5,7,9,11,-1,-1,-1,-1,-1,-1,-1],"loss_changes":[5.583776E-1,9.17464E-1,1.9389011E0,2.7654767E0,1.9058523E0,1.1959829E0,0E0,0E0,0E0,0E0,0E0,0E0,0E0],"parents":[2147483647,0,0,1,1,2,2,3,3,4,4,5,5],"right_children":[2,4,6,8,10,12,-1,-1,-1,-1,-1,-1,-1],"split_conditions":[4.1287643E1,2.8E-1,9.870165E-1,9.300218E-1,3.743822E-3,4.5301006E1,-4.001934E-2,-8.366636E-3,5.636809E-2,-1.598576E-2,2.6832435E-2,-2.1072349E-2,6.5658414E-3],"split_indices":[2,5,0,0,1,2,0,0,0,0,0,0,0],"split_type":[0,0,0,0,0,0,0,0,0,0,0,0,0],"sum_hessian":[3.9154343E1,1.485457E1,2.4299772E1,5.1597795E0,9.694791E0,2.1977247E1,2.3225253E0,3.0788915E0,2.080888E0,6.7915154E0,2.9032757E0,3.9282353E0,1.8049011E1],"tree_param":{"num_deleted":"0","num_feature":"6","num_nodes":"13","size_leaf_vector":"1"}},{"base_weights":[3.8824207E-3,-2.5874287E-2,2.3290377E-2,4.39117E-2,-5.105725E-1,-1.9532663E-3,1.9401034E-2,-4.2115714E-2,-9.116051E-3],"categories":[],"categories_nodes":[],"categories_segments":[],"categories_sizes":[],"default_left":[0,0,0,0,0,0,0,0,0],"id":91,"left_children":[1,3,-1,5,7,-1,-1,-1,-1],"loss_changes":[5.6231135E-1,1.3266133E0,0E0,1.0038118E0,3.8348293E-1,0E0,0E0,0E0,0E0],"parents":[2147483647,0,0,1,1,3,3,4,4],"right_children":[2,4,-1,6,8,-1,-1,-1,-1],"split_conditions":[7.8E-1,6.5E-1,2.3290377E-2,4.8E-1,2.9604265E-3,-1.9532663E-3,1.9401034E-2,-4.2115714E-2,-9.116051E-3],"split_indices":[5,5,0,5,0,0,0,0,0],"split_type":[0,0,0,0,0,0,0,0,0],"sum_hessian":[3.9032307E1,3.755692E1,1.4753895E0,3.362505E1,3.931871E0,2.78064E1,5.8186474E0,1.1766478E0,2.755223E0],"tree_param":{"num_deleted":"0","num_feature":"6","num_nodes":"9","size_leaf_vector":"1"}},{"base_weights":[3.4496854E-3,-2.5469653E-2,2.2742176E-2,4.229305E-2,-4.946021E-1,-1.8593138E-3,1.8699279E-2,-4.086662E-2,-8.77622E-3],"categories":[],"categories_nodes":[],"categories_segments":[],"categories_sizes":[],"default_left":[0,0,0,0,0,0,0,0,0],"id":92,"left_children":[1,3,-1,5,7,-1,-1,-1,-1],"loss_changes":[5.3342134E-1,1.245307E0,0E0,9.2540824E-1,3.6522663E-1,0E0,0E0,0E0,0E0],"parents":[2147483647,0,0,1,1,3,3,4,4],"right_children":[2,4,-1,6,8,-1,-1,-1,-1],"split_conditions":[7.8E-1,6.5E-1,2.2742176E-2,4.8E-1,2.9604265E-3,-1.8593138E-3,1.8699279E-2,-4.086662E-2,-8.77622E-3],"split_indices":[5,5,0,5,0,0,0,0,0],"split_type":[0,0,0,0,0,0,0,0,0],"sum_hessian":[3.8975193E1,3.7515285E1,1.4599073E0,3.3575417E1,3.9398713E0,2.7801565E1,5.773852E0,1.1823949E0,2.7574766E0],"tree_param":{"num_deleted":"0","num_feature":"6","num_nodes":"9","size_leaf_vector":"1"}},{"base_weights":[3.046936E-3,5.0336696E-2,-2.5930554E-1,4.0119343E-2,-2.7914618E-3,-6.173022E-1,2.7020153E-1,-2.4230147E-2,2.6748967E-3,-4.1948218E-2,-2.8717045E-3,3.4206228E-3,1.7184215E-2],"categories":[],"categories_nodes":[],"categories_segments":[],"categories_sizes":[],"default_left":[0,0,0,0,0,0,0,0,0,0,0,0,0],"id":93,"left_children":[1,3,5,-1,7,9,11,-1,-1,-1,-1,-1,-1],"loss_changes":[5.0830764E-1,1.3870661E0,1.353283E0,0E0,9.309272E-1,4.5303524E-1,2.4238586E-2,0E0,0E0,0E0,0E0,0E0,0E0],"parents":[2147483647,0,0,1,1,2,2,4,4,5,5,6,6],"right_children":[2,4,6,-1,8,10,12,-1,-1,-1,-1,-1,-1],"split_conditions":[9.9661994E-1,3.09515E-3,9.9785703E-1,4.0119343E-2,7.315721E-3,1.9967933E-3,9.983005E-1,-2.4230147E-2,2.6748967E-3,-4.1948218E-2,-2.8717045E-3,3.4206228E-3,1.7184215E-2],"split_indices":[1,0,1,0,0,0,1,0,0,0,0,0,0],"split_type":[0,0,0,0,0,0,0,0,0,0,0,0,0],"sum_hessian":[3.891872E1,3.3659615E1,5.2591057E0,1.2904159E0,3.2369198E1,3.0387912E0,2.2203145E0,2.5900888E0,2.977911E1,1.8197967E0,1.2189946E0,1.1081775E0,1.112137E0],"tree_param":{"num_deleted":"0","num_feature":"6","num_nodes":"13","size_leaf_vector":"1"}},{"base_weights":[2.7603093E-3,-2.5444971E-2,2.2251526E-2,4.0170364E-2,-4.7829375E-1,-1.7989395E-3,1.797979E-2,-3.932257E-2,-8.579823E-3],"categories":[],"categories_nodes":[],"categories_segments":[],"categories_sizes":[],"default_left":[0,0,0,0,0,0,0,0,0],"id":94,"left_children":[1,3,-1,5,7,-1,-1,-1,-1],"loss_changes":[5.0879174E-1,1.1612458E0,0E0,8.5193884E-1,3.3208632E-1,0E0,0E0,0E0,0E0],"parents":[2147483647,0,0,1,1,3,3,4,4],"right_children":[2,4,-1,6,8,-1,-1,-1,-1],"split_conditions":[7.8E-1,6.5E-1,2.2251526E-2,4.8E-1,2.9604265E-3,-1.7989395E-3,1.797979E-2,-3.932257E-2,-8.579823E-3],"split_indices":[5,5,0,5,0,0,0,0,0],"split_type":[0,0,0,0,0,0,0,0,0],"sum_hessian":[3.8879253E1,3.7434383E1,1.444868E0,3.349276E1,3.9416254E0,2.7761858E1,5.730901E0,1.1858598E0,2.7557657E0],"tree_param":{"num_deleted":"0","num_feature":"6","num_nodes":"9","size_leaf_vector":"1"}},{"base_weights":[2.403747E-3,-2.501308E-2,2.1729171E-2,3.8694218E-2,-4.6354657E-1,-1.111738E-2,6.5554953E-3,-3.8193878E-2,-8.260584E-3],"categories":[],"categories_nodes":[],"categories_segments":[],"categories_sizes":[],"default_left":[0,0,0,0,0,0,0,0,0],"id":95,"left_children":[1,3,-1,5,7,-1,-1,-1,-1],"loss_changes":[4.8273495E-1,1.0905558E0,0E0,8.6014134E-1,3.1705153E-1,0E0,0E0,0E0,0E0],"parents":[2147483647,0,0,1,1,3,3,4,4],"right_children":[2,4,-1,6,8,-1,-1,-1,-1],"split_conditions":[7.8E-1,6.5E-1,2.1729171E-2,6.7214225E-3,2.9604265E-3,-1.111738E-2,6.5554953E-3,-3.8193878E-2,-8.260584E-3],"split_indices":[5,5,0,1,0,0,0,0,0],"split_type":[0,0,0,0,0,0,0,0,0],"sum_hessian":[3.8823177E1,3.7393135E1,1.4300407E0,3.344607E1,3.9470637E0,8.377273E0,2.50688E1,1.1893181E0,2.7577455E0],"tree_param":{"num_deleted":"0","num_feature":"6","num_nodes":"9","size_leaf_vector":"1"}},{"base_weights":[1.5534468E-3,-3.356123E-2,3.4805107E-1,3.9715263E-1,-8.525777E-2,-1.544554E-2,4.17093E-2,-3.4696672E-3,3.8758844E-2,-3.53723E-2,4.6161373E-4],"categories":[],"categories_nodes":[],"categories_segments":[],"categories_sizes":[],"default_left":[0,0,0,0,0,0,0,0,0,0,0],"id":96,"left_children":[1,3,5,7,9,-1,-1,-1,-1,-1,-1],"loss_changes":[4.9582893E-1,8.586524E-1,1.4551476E0,7.850504E-1,1.9992802E0,0E0,0E0,0E0,0E0,0E0,0E0],"parents":[2147483647,0,0,1,1,2,2,3,3,4,4],"right_children":[2,4,6,8,10,-1,-1,-1,-1,-1,-1],"split_conditions":[1E0,1.0695298E-3,1.5436729E-3,7.515315E-4,3.743822E-3,-1.544554E-2,4.17093E-2,-3.4696672E-3,3.8758844E-2,-3.53723E-2,4.6161373E-4],"split_indices":[3,1,1,1,1,0,0,0,0,0,0],"split_type":[0,0,0,0,0,0,0,0,0,0,0],"sum_hessian":[3.8791393E1,3.6041977E1,2.7494154E0,3.1462617E0,3.2895714E1,1.324307E0,1.4251086E0,1.7736762E0,1.3725854E0,3.481844E0,2.941387E1],"tree_param":{"num_deleted":"0","num_feature":"6","num_nodes":"11","size_leaf_vector":"1"}},{"base_weights":[2.1595273E-3,1.429739E-1,-8.611722E-2,-3.8274866E-2,4.550499E-1,-5.243874E-1,7.810699E-2,-1.0766392E-2,3.53574E-2,4.0519785E-2,2.4139693E-3,3.714125E-2,-4.3094527E-2,-2.1303205E-2,1.9868264E-2],"categories":[],"categories_nodes":[],"categories_segments":[],"categories_sizes":[],"default_left":[0,0,0,0,0,0,0,0,0,0,0,0,0,0,0],"id":97,"left_children":[1,3,5,7,9,11,13,-1,-1,-1,-1,-1,-1,-1,-1],"loss_changes":[5.0615835E-1,9.0458727E-1,1.8434604E0,1.5835066E0,8.050301E-1,3.6151757E0,3.2416787E0,0E0,0E0,0E0,0E0,0E0,0E0,0E0,0E0],"parents":[2147483647,0,0,1,1,2,2,3,3,4,4,5,5,6,6],"right_children":[2,4,6,8,10,12,14,-1,-1,-1,-1,-1,-1,-1,-1],"split_conditions":[4.1287643E1,3.779986E1,1.11985564E-1,7.3E-1,3.960092E1,1.9E-1,2.5E-1,-1.0766392E-2,3.53574E-2,4.0519785E-2,2.4139693E-3,3.714125E-2,-4.3094527E-2,-2.1303205E-2,1.9868264E-2],"split_indices":[2,2,1,5,2,5,5,0,0,0,0,0,0,0,0],"split_type":[0,0,0,0,0,0,0,0,0,0,0,0,0,0,0],"sum_hessian":[3.8728123E1,1.4684531E1,2.4043592E1,9.844409E0,4.8401217E0,5.9558673E0,1.8087725E1,8.529592E0,1.314817E0,2.0537465E0,2.7863755E0,1.0000538E0,4.9558134E0,6.883226E0,1.1204499E1],"tree_param":{"num_deleted":"0","num_feature":"6","num_nodes":"15","size_leaf_vector":"1"}},{"base_weights":[3.5428205E-3,5.0128147E-2,-2.5523856E-1,3.9303742E-2,-1.8151449E-3,-6.027178E-1,2.60863E-1,-2.3897277E-2,2.7067177E-3,-4.0800024E-2,-2.9578994E-3,3.5211963E-3,1.6399514E-2],"categories":[],"categories_nodes":[],"categories_segments":[],"categories_sizes":[],"default_left":[0,0,0,0,0,0,0,0,0,0,0,0,0],"id":98,"left_children":[1,3,5,-1,7,9,11,-1,-1,-1,-1,-1,-1],"loss_changes":[4.889432E-1,1.3129001E0,1.2672333E0,0E0,9.0611416E-1,4.155879E-1,1.7661437E-2,0E0,0E0,0E0,0E0,0E0,0E0],"parents":[2147483647,0,0,1,1,2,2,4,4,5,5,6,6],"right_children":[2,4,6,-1,8,10,12,-1,-1,-1,-1,-1,-1],"split_conditions":[9.9661994E-1,3.09515E-3,9.9785703E-1,3.9303742E-2,7.315721E-3,1.9967933E-3,9.983005E-1,-2.3897277E-2,2.7067177E-3,-4.0800024E-2,-2.9578994E-3,3.5211963E-3,1.6399514E-2],"split_indices":[1,0,1,0,0,0,1,0,0,0,0,0,0],"split_type":[0,0,0,0,0,0,0,0,0,0,0,0,0],"sum_hessian":[3.8496655E1,3.330707E1,5.1895833E0,1.2640691E0,3.2043003E1,3.0011501E0,2.188433E0,2.5762935E0,2.946671E1,1.7954384E0,1.2057117E0,1.1043938E0,1.0840391E0],"tree_param":{"num_deleted":"0","num_feature":"6","num_nodes":"13","size_leaf_vector":"1"}},{"base_weights":[3.2280176E-3,1.3806714E-1,-8.1865445E-2,4.3943703E-1,-5.0605692E-2,1.8946579E-2,-3.8830426E-2,-7.927722E-3,5.492418E-2,-1.5973045E-2,2.5140582E-2,-2.0107135E-2,6.359499E-3],"categories":[],"categories_nodes":[],"categories_segments":[],"categories_sizes":[],"default_left":[0,0,0,0,0,0,0,0,0,0,0,0,0],"id":99,"left_children":[1,3,5,7,9,11,-1,-1,-1,-1,-1,-1,-1],"loss_changes":[4.6402812E-1,9.114405E-1,1.7529633E0,2.587759E0,1.7250156E0,1.083525E0,0E0,0E0,0E0,0E0,0E0,0E0,0E0],"parents":[2147483647,0,0,1,1,2,2,3,3,4,4,5,5],"right_children":[2,4,6,8,10,12,-1,-1,-1,-1,-1,-1,-1],"split_conditions":[4.1287643E1,2.8E-1,9.870165E-1,9.300218E-1,3.743822E-3,4.5301006E1,-3.8830426E-2,-7.927722E-3,5.492418E-2,-1.5973045E-2,2.5140582E-2,-2.0107135E-2,6.359499E-3],"split_indices":[2,5,0,0,1,2,0,0,0,0,0,0,0],"split_type":[0,0,0,0,0,0,0,0,0,0,0,0,0],"sum_hessian":[3.845686E1,1.4638366E1,2.3818495E1,5.124243E0,9.514123E0,2.1649702E1,2.1687927E0,3.0847168E0,2.0395257E0,6.687852E0,2.826271E0,3.871928E0,1.7777775E1],"tree_param":{"num_deleted":"0","num_feature":"6","num_nodes":"13","size_leaf_vector":"1"}}]},"name":"gbtree"},"learner_model_param":{"base_score":"[5.119617E-1]","boost_from_average":"1","num_class":"0","num_feature":"6","num_target":"1"},"objective":{"name":"binary:logistic","reg_loss_param":{"scale_pos_weight":"1"}}},"version":[3,2,0]}