{"learner":{"attributes":{"scikit_learn":"{\"_estimator_type\": \"classifier\"}"},"feature_names":["open","high","low","close","volume","volume_ma","volume_spike","ema_50","ema_200","ema_trend","rsi","macd","macd_signal","momentum","atr","bollinger_width","volatility_breakout","support_distance","resistance_distance","candle_body","upper_wick","lower_wick","rsi_divergence","price_change","ema_trend_15m","rsi_15m","ema_50_15m","ema_200_15m","ema_trend_1h","rsi_1h","ema_50_1h","ema_200_1h"],"feature_types":["float","float","float","float","float","float","int","float","float","int","float","float","float","float","float","float","int","float","float","float","float","float","int","float","int","float","float","float","int","float","float","float"],"gradient_booster":{"model":{"cats":{"enc":[],"feature_segments":[],"sorted_idx":[]},"gbtree_model_param":{"num_parallel_tree":"1","num_trees":"300"},"iteration_indptr":[0,3,6,9,12,15,18,21,24,27,30,33,36,39,42,45,48,51,54,57,60,63,66,69,72,75,78,81,84,87,90,93,96,99,102,105,108,111,114,117,120,123,126,129,132,135,138,141,144,147,150,153,156,159,162,165,168,171,174,177,180,183,186,189,192,195,198,201,204,207,210,213,216,219,222,225,228,231,234,237,240,243,246,249,252,255,258,261,264,267,270,273,276,279,282,285,288,291,294,297,300],"tree_info":[0,1,2,0,1,2,0,1,2,0,1,2,0,1,2,0,1,2,0,1,2,0,1,2,0,1,2,0,1,2,0,1,2,0,1,2,0,1,2,0,1,2,0,1,2,0,1,2,0,1,2,0,1,2,0,1,2,0,1,2,0,1,2,0,1,2,0,1,2,0,1,2,0,1,2,0,1,2,0,1,2,0,1,2,0,1,2,0,1,2,0,1,2,0,1,2,0,1,2,0,1,2,0,1,2,0,1,2,0,1,2,0,1,2,0,1,2,0,1,2,0,1,2,0,1,2,0,1,2,0,1,2,0,1,2,0,1,2,0,1,2,0,1,2,0,1,2,0,1,2,0,1,2,0,1,2,0,1,2,0,1,2,0,1,2,0,1,2,0,1,2,0,1,2,0,1,2,0,1,2,0,1,2,0,1,2,0,1,2,0,1,2,0,1,2,0,1,2,0,1,2,0,1,2,0,1,2,0,1,2,0,1,2,0,1,2,0,1,2,0,1,2,0,1,2,0,1,2,0,1,2,0,1,2,0,1,2,0,1,2,0,1,2,0,1,2,0,1,2,0,1,2,0,1,2,0,1,2,0,1,2,0,1,2,0,1,2,0,1,2,0,1,2,0,1,2,0,1,2,0,1,2,0,1,2,0,1,2,0,1,2,0,1,2,0,1,2,0,1,2],"trees":[{"base_weights":[-4.451794E-3,-3.3433756E-1,2.3118865E0,1.0924435E0,-4.617718E-1,5.399331E0,-2.184473E-1,1.5985547E-1,-1.8606547E-2,-2.5085662E-2,3.5017088E-2,3.820534E-1,6.66772E-2,1.1723508E-2,-1.939842E-2],"categories":[],"categories_nodes":[],"categories_segments":[],"categories_sizes":[],"default_left":[0,0,0,0,0,0,0,0,0,0,0,0,0,0,0],"id":0,"left_children":[1,3,5,7,9,11,13,-1,-1,-1,-1,-1,-1,-1,-1],"loss_changes":[4.6689373E1,1.0226901E1,6.068813E1,1.5620111E1,2.6625032E0,2.1435997E1,4.8618615E-1,0E0,0E0,0E0,0E0,0E0,0E0,0E0,0E0],"parents":[2147483647,0,0,1,1,2,2,3,3,4,4,5,5,6,6],"right_children":[2,4,6,8,10,12,14,-1,-1,-1,-1,-1,-1,-1,-1],"split_conditions":[8.181982E-4,-3.0704937E-4,1.0352809E-3,-1.0020119E-4,2.9473095E-3,1.04359E0,-2.3423485E-4,1.5985547E-1,-1.8606547E-2,-2.5085662E-2,3.5017088E-2,3.820534E-1,6.66772E-2,1.1723508E-2,-1.939842E-2],"split_indices":[14,13,17,11,15,1,11,0,0,0,0,0,0,0,0],"split_type":[0,0,0,0,0,0,0,0,0,0,0,0,0,0,0],"sum_hessian":[5.9090027E1,5.247269E1,6.617337E0,3.6814764E0,4.8791214E1,2.4698513E0,4.147486E0,1.0252213E0,2.6562552E0,4.771939E1,1.0718223E0,1.0252213E0,1.44463E0,1.0252213E0,3.1222649E0],"tree_param":{"num_deleted":"0","num_feature":"32","num_nodes":"15","size_leaf_vector":"1"}},{"base_weights":[-2.514703E-2,3.8268286E-1,-2.0272937E0,4.562214E-1,-4.091074E-1,-1.4112698E0,-2.7767375E-1,-3.529778E-2,2.3859387E-2,1.626236E-2,-1.22581065E-1,-3.6628295E-2,-1.7555116E-1],"categories":[],"categories_nodes":[],"categories_segments":[],"categories_sizes":[],"default_left":[0,0,0,0,0,0,0,0,0,0,0,0,0],"id":1,"left_children":[1,3,5,7,9,11,-1,-1,-1,-1,-1,-1,-1],"loss_changes":[9.925458E1,6.0697546E0,3.68414E1,2.6011047E0,1.4467307E1,2.429152E1,0E0,0E0,0E0,0E0,0E0,0E0,0E0],"parents":[2147483647,0,0,1,1,2,2,3,3,4,4,5,5],"right_children":[2,4,6,8,10,12,-1,-1,-1,-1,-1,-1,-1],"split_conditions":[2.1219815E-3,1E0,1E0,1.0423144E0,1.5738141E-3,3.1848296E-3,-2.7767375E-1,-3.529778E-2,2.3859387E-2,1.626236E-2,-1.22581065E-1,-3.6628295E-2,-1.7555116E-1],"split_indices":[15,16,16,31,15,15,0,0,0,0,0,0,0],"split_type":[0,0,0,0,0,0,0,0,0,0,0,0,0],"sum_hessian":[1.1960567E2,1.000373E2,1.9568365E1,9.1923584E1,8.113712E0,1.7850166E1,1.7181978E0,1.0500098E0,9.087357E1,6.5864253E0,1.527287E0,1.4509227E1,3.3409402E0],"tree_param":{"num_deleted":"0","num_feature":"32","num_nodes":"13","size_leaf_vector":"1"}},{"base_weights":[2.3610694E-3,-2.3098299E-1,3.635932E0,-4.2668733E-1,7.12966E-1,-1.6500618E-2,3.5279736E-1,-2.512299E-2,8.253447E-3,-1.7086307E-2,1.6929458E-1],"categories":[],"categories_nodes":[],"categories_segments":[],"categories_sizes":[],"default_left":[0,0,0,0,0,0,0,0,0,0,0],"id":2,"left_children":[1,3,5,7,9,-1,-1,-1,-1,-1,-1],"loss_changes":[5.5917683E1,1.175416E1,5.6307102E1,2.4128838E0,3.2217598E1,0E0,0E0,0E0,0E0,0E0,0E0],"parents":[2147483647,0,0,1,1,2,2,3,3,4,4],"right_children":[2,4,6,8,10,-1,-1,-1,-1,-1,-1],"split_conditions":[6.855716E1,5.988923E1,7.7013345E-4,8.216328E-4,7.6892955E-4,-1.6500618E-2,3.5279736E-1,-2.512299E-2,8.253447E-3,-1.7086307E-2,1.6929458E-1],"split_indices":[10,10,14,14,14,0,0,0,0,0,0],"split_type":[0,0,0,0,0,0,0,0,0,0,0],"sum_hessian":[6.396008E1,6.098041E1,2.9796662E0,5.0962566E1,1.0017843E1,1.7980745E0,1.1815917E0,4.5311478E1,5.651091E0,7.8087807E0,2.2090628E0],"tree_param":{"num_deleted":"0","num_feature":"32","num_nodes":"11","size_leaf_vector":"1"}},{"base_weights":[-5.3192146E-2,2.5219686E0,-3.559017E-1,-1.9072805E-2,2.5287473E-1,-4.463329E-1,1.0868428E-1,-2.5060311E-2,1.9875946E-3],"categories":[],"categories_nodes":[],"categories_segments":[],"categories_sizes":[],"default_left":[0,0,0,0,0,0,0,0,0],"id":3,"left_children":[1,3,5,-1,-1,7,-1,-1,-1],"loss_changes":[4.761509E1,4.9246555E1,1.3437991E1,0E0,0E0,1.4456444E0,0E0,0E0,0E0],"parents":[2147483647,0,0,1,1,2,2,5,5],"right_children":[2,4,6,-1,-1,8,-1,-1,-1],"split_conditions":[3.602264E1,7.1805896E-4,4.4153488E-4,-1.9072805E-2,2.5287473E-1,8.329527E-4,1.0868428E-1,-2.5060311E-2,1.9875946E-3],"split_indices":[10,14,12,0,0,14,0,0,0],"split_type":[0,0,0,0,0,0,0,0,0],"sum_hessian":[5.893069E1,5.4274936E0,5.3503197E1,2.9262302E0,2.5012636E0,5.2451637E1,1.0515594E0,4.710313E1,5.3485055E0],"tree_param":{"num_deleted":"0","num_feature":"32","num_nodes":"9","size_leaf_vector":"1"}},{"base_weights":[-3.3114787E-2,4.071762E-1,-1.7982495E0,4.747429E-1,-3.0396625E-1,-1.3466618E0,-2.203692E-1,1.6647129E-3,2.4786687E-2,2.2380678E-2,-8.693529E-2,-3.443522E-2,-1.6191211E-1],"categories":[],"categories_nodes":[],"categories_segments":[],"categories_sizes":[],"default_left":[0,0,0,0,0,0,0,0,0,0,0,0,0],"id":4,"left_children":[1,3,5,7,9,11,-1,-1,-1,-1,-1,-1,-1],"loss_changes":[9.4507065E1,4.823757E0,2.2665054E1,8.1124306E-1,1.0547617E1,2.5314945E1,0E0,0E0,0E0,0E0,0E0,0E0,0E0],"parents":[2147483647,0,0,1,1,2,2,3,3,4,4,5,5],"right_children":[2,4,6,8,10,12,-1,-1,-1,-1,-1,-1,-1],"split_conditions":[2.0565211E-3,1E0,1E0,1.0409338E0,1.3946791E-3,3.2838683E-3,-2.203692E-1,1.6647129E-3,2.4786687E-2,2.2380678E-2,-8.693529E-2,-3.443522E-2,-1.6191211E-1],"split_indices":[15,16,16,30,15,15,0,0,0,0,0,0,0],"split_type":[0,0,0,0,0,0,0,0,0,0,0,0,0],"sum_hessian":[1.1966152E2,9.638804E1,2.3273481E1,8.832826E1,8.059775E0,2.1132084E1,2.1413965E0,4.1267457E0,8.420152E1,5.740609E0,2.3191667E0,1.6690601E1,4.441483E0],"tree_param":{"num_deleted":"0","num_feature":"32","num_nodes":"13","size_leaf_vector":"1"}},{"base_weights":[1.7048702E-2,-2.3579979E-1,3.3196874E0,-4.4483888E-1,6.399218E-1,-1.7403629E-2,3.1262612E-1,-2.4086235E-2,4.675759E-3,-2.2032231E-2,8.4223896E-2],"categories":[],"categories_nodes":[],"categories_segments":[],"categories_sizes":[],"default_left":[0,0,0,0,0,0,0,0,0,0,0],"id":5,"left_children":[1,3,5,7,9,-1,-1,-1,-1,-1,-1],"loss_changes":[5.6661537E1,1.1833971E1,5.407853E1,1.06816E0,1.4927811E1,0E0,0E0,0E0,0E0,0E0,0E0],"parents":[2147483647,0,0,1,1,2,2,3,3,4,4],"right_children":[2,4,6,8,10,-1,-1,-1,-1,-1,-1],"split_conditions":[6.855716E1,2.077221E-3,2.4550527E-3,6.3341312E1,1.8466586E-3,-1.7403629E-2,3.1262612E-1,-2.4086235E-2,4.675759E-3,-2.2032231E-2,8.4223896E-2],"split_indices":[10,15,15,10,17,0,0,0,0,0,0],"split_type":[0,0,0,0,0,0,0,0,0,0,0],"sum_hessian":[6.5915276E1,6.2090275E1,3.825E0,5.0522366E1,1.1567909E1,2.0911534E0,1.7338467E0,4.738119E1,3.1411757E0,5.970123E0,5.597786E0],"tree_param":{"num_deleted":"0","num_feature":"32","num_nodes":"11","size_leaf_vector":"1"}},{"base_weights":[-2.9652998E-2,2.339332E0,-3.5087502E-1,4.9475223E-1,2.5942647E-1,-4.246653E-1,8.324973E-2,9.240885E-2,-1.9432154E-2,-2.5006702E-2,4.6156794E-3],"categories":[],"categories_nodes":[],"categories_segments":[],"categories_sizes":[],"default_left":[0,0,0,0,0,0,0,0,0,0,0],"id":6,"left_children":[1,3,5,7,-1,9,-1,-1,-1,-1,-1],"loss_changes":[4.5740437E1,3.5161594E1,8.56868E0,7.2499447E0,0E0,2.06645E0,0E0,0E0,0E0,0E0,0E0],"parents":[2147483647,0,0,1,1,2,2,3,3,5,5],"right_children":[2,4,6,8,-1,10,-1,-1,-1,-1,-1],"split_conditions":[3.602264E1,8.041306E-4,4.4919993E-4,-3.0704937E-4,2.5942647E-1,8.206565E-4,8.324973E-2,9.240885E-2,-1.9432154E-2,-2.5006702E-2,4.6156794E-3],"split_indices":[10,14,12,13,0,14,0,0,0,0,0],"split_type":[0,0,0,0,0,0,0,0,0,0,0],"sum_hessian":[5.8029408E1,6.178786E0,5.1850624E1,4.4630427E0,1.7157428E0,5.0781136E1,1.0694889E0,1.3312869E0,3.1317558E0,4.4340828E1,6.440306E0],"tree_param":{"num_deleted":"0","num_feature":"32","num_nodes":"11","size_leaf_vector":"1"}},{"base_weights":[-4.6851944E-2,3.9109984E-1,-1.5014408E0,4.6016654E-1,-3.4115168E-1,-1.0754801E0,-1.7119454E-1,2.5817871E-2,1.1833466E-2,1.5116294E-2,-8.843466E-2,-1.630654E-2,-9.084957E-2],"categories":[],"categories_nodes":[],"categories_segments":[],"categories_sizes":[],"default_left":[0,0,0,0,0,0,0,0,0,0,0,0,0],"id":7,"left_children":[1,3,5,7,9,11,-1,-1,-1,-1,-1,-1,-1],"loss_changes":[7.770713E1,4.9028063E0,1.9427547E1,9.6004105E-1,8.491879E0,1.3054316E1,0E0,0E0,0E0,0E0,0E0,0E0,0E0],"parents":[2147483647,0,0,1,1,2,2,3,3,4,4,5,5],"right_children":[2,4,6,8,10,12,-1,-1,-1,-1,-1,-1,-1],"split_conditions":[2.0565211E-3,1E0,1E0,7.532808E-4,1.9074127E-3,8.1535726E-4,-1.7119454E-1,2.5817871E-2,1.1833466E-2,1.5116294E-2,-8.843466E-2,-1.630654E-2,-9.084957E-2],"split_indices":[15,16,16,14,18,14,0,0,0,0,0,0,0],"split_type":[0,0,0,0,0,0,0,0,0,0,0,0,0],"sum_hessian":[1.2005981E2,9.283877E1,2.7221037E1,8.517642E1,7.6623526E0,2.3560194E1,3.6608427E0,6.701691E1,1.8159512E1,5.82493E0,1.8374223E0,1.2434288E1,1.1125906E1],"tree_param":{"num_deleted":"0","num_feature":"32","num_nodes":"13","size_leaf_vector":"1"}},{"base_weights":[-6.2080037E-2,-2.9179668E-1,2.5962024E0,-4.4441205E-1,4.5721817E-1,-1.6598782E-2,2.1157555E-1,-2.4091093E-2,1.1455954E-2,-1.1651296E-2,1.2302275E-1],"categories":[],"categories_nodes":[],"categories_segments":[],"categories_sizes":[],"default_left":[0,0,0,0,0,0,0,0,0,0,0],"id":8,"left_children":[1,3,5,7,9,-1,-1,-1,-1,-1,-1],"loss_changes":[4.06208E1,7.1746116E0,2.675261E1,1.3997202E0,1.5528614E1,0E0,0E0,0E0,0E0,0E0,0E0],"parents":[2147483647,0,0,1,1,2,2,3,3,4,4],"right_children":[2,4,6,8,10,-1,-1,-1,-1,-1,-1],"split_conditions":[6.855716E1,6.0255997E1,7.7013345E-4,3.0040655E-3,7.8076805E-4,-1.6598782E-2,2.1157555E-1,-2.4091093E-2,1.1455954E-2,-1.1651296E-2,1.2302275E-1],"split_indices":[10,10,14,15,14,0,0,0,0,0,0],"split_type":[0,0,0,0,0,0,0,0,0,0,0],"sum_hessian":[6.427982E1,5.9986313E1,4.293513E0,5.01705E1,9.81581E0,1.8241647E0,2.469348E0,4.7800182E1,2.370323E0,7.957585E0,1.8582252E0],"tree_param":{"num_deleted":"0","num_feature":"32","num_nodes":"11","size_leaf_vector":"1"}},{"base_weights":[7.362575E-2,-3.716317E-1,1.6239253E0,-4.7824836E-1,1.065925E-1,7.929662E-1,1.9935231E-1,1.2016378E-2,-2.5000898E-2,-5.180368E-4,1.4260457E-1],"categories":[],"categories_nodes":[],"categories_segments":[],"categories_sizes":[],"default_left":[0,0,0,0,0,0,0,0,0,0,0],"id":9,"left_children":[1,3,5,7,-1,9,-1,-1,-1,-1,-1],"loss_changes":[4.11675E1,1.3422024E1,2.2951096E1,8.3013153E-1,0E0,1.8368622E1,0E0,0E0,0E0,0E0,0E0],"parents":[2147483647,0,0,1,1,2,2,3,3,5,5],"right_children":[2,4,6,8,-1,10,-1,-1,-1,-1,-1],"split_conditions":[2.1130147E-3,8.950732E-4,1E0,1.03882E0,1.065925E-1,2.7507262E-3,1.9935231E-1,1.2016378E-2,-2.5000898E-2,-5.180368E-4,1.4260457E-1],"split_indices":[18,14,16,1,0,15,0,0,0,0,0],"split_type":[0,0,0,0,0,0,0,0,0,0,0],"sum_hessian":[5.776435E1,4.546636E1,1.229799E1,4.4385082E1,1.0812767E0,1.0086699E1,2.2112908E0,1.009917E0,4.3375168E1,7.971676E0,2.115023E0],"tree_param":{"num_deleted":"0","num_feature":"32","num_nodes":"11","size_leaf_vector":"1"}},{"base_weights":[-9.264978E-3,4.542667E-1,-9.013528E-1,-2.143157E-2,4.7835395E-1,-5.271532E-1,-2.6625917E0,-7.5610117E-3,2.5159482E-2,-1.2588505E-1,-1.6580388E-3,-2.6595334E-2,-1.540898E-1],"categories":[],"categories_nodes":[],"categories_segments":[],"categories_sizes":[],"default_left":[0,0,0,0,0,0,0,0,0,0,0,0,0],"id":10,"left_children":[1,3,5,-1,7,9,11,-1,-1,-1,-1,-1,-1],"loss_changes":[5.0003456E1,1.8976326E0,2.5844719E1,0E0,1.2948856E0,3.4673225E1,4.611397E0,0E0,0E0,0E0,0E0,0E0,0E0],"parents":[2147483647,0,0,1,1,2,2,4,4,5,5,6,6],"right_children":[2,4,6,-1,8,10,12,-1,-1,-1,-1,-1,-1],"split_conditions":[7.733874E-4,-4.326236E-4,6.3483246E1,-2.143157E-2,1.0409338E0,3.602264E1,-2.4002563E-4,-7.5610117E-3,2.5159482E-2,-1.2588505E-1,-1.6580388E-3,-2.6595334E-2,-1.540898E-1],"split_indices":[14,13,25,0,30,10,13,0,0,0,0,0,0],"split_type":[0,0,0,0,0,0,0,0,0,0,0,0,0],"sum_hessian":[1.1893394E2,7.858941E1,4.0344524E1,1.6411068E0,7.69483E1,3.4346455E1,5.998072E0,2.7271593E0,7.4221146E1,6.0144644E0,2.833199E1,1.3590895E0,4.6389823E0],"tree_param":{"num_deleted":"0","num_feature":"32","num_nodes":"13","size_leaf_vector":"1"}},{"base_weights":[1.6052427E-2,-4.0206197E-1,1.2997471E0,-2.5030315E-2,2.9865924E-1,-2.8877613E-1,2.2008083E0,-2.0523949E-2,6.883601E-2,1.1793119E-2,-2.1179616E-2,1.4525895E-1,-1.7737517E-2],"categories":[],"categories_nodes":[],"categories_segments":[],"categories_sizes":[],"default_left":[0,0,0,0,0,0,0,0,0,0,0,0,0],"id":11,"left_children":[1,3,5,-1,7,9,11,-1,-1,-1,-1,-1,-1],"loss_changes":[3.539051E1,3.585989E0,2.3819246E1,0E0,5.734792E0,5.7706887E-1,1.9842663E1,0E0,0E0,0E0,0E0,0E0,0E0],"parents":[2147483647,0,0,1,1,2,2,4,4,5,5,6,6],"right_children":[2,4,6,-1,8,10,12,-1,-1,-1,-1,-1,-1],"split_conditions":[5.988923E1,2.512926E-3,1.4676042E-3,-2.5030315E-2,6.725731E-5,7.890196E-2,3.640392E-4,-2.0523949E-2,6.883601E-2,1.1793119E-2,-2.1179616E-2,1.4525895E-1,-1.7737517E-2],"split_indices":[10,15,15,0,13,20,12,0,0,0,0,0,0],"split_type":[0,0,0,0,0,0,0,0,0,0,0,0,0],"sum_hessian":[6.3963486E1,4.8766468E1,1.5197018E1,4.300425E1,5.7622194E0,5.746231E0,9.450787E0,3.8493786E0,1.9128412E0,1.021509E0,4.724722E0,7.301514E0,2.1492724E0],"tree_param":{"num_deleted":"0","num_feature":"32","num_nodes":"13","size_leaf_vector":"1"}},{"base_weights":[7.5422294E-2,2.0649307E0,-3.0169478E-1,-1.8963365E-2,3.1853418E0,-3.9821437E-1,8.951018E-2,3.09432E-2,1.8228976E-1,1.9860681E-2,-2.388111E-2],"categories":[],"categories_nodes":[],"categories_segments":[],"categories_sizes":[],"default_left":[0,0,0,0,0,0,0,0,0,0,0],"id":12,"left_children":[1,3,5,-1,7,9,-1,-1,-1,-1,-1],"loss_changes":[4.4487E1,2.706934E1,1.0812418E1,0E0,5.521637E0,3.2614756E0,0E0,0E0,0E0,0E0,0E0],"parents":[2147483647,0,0,1,1,2,2,4,4,5,5],"right_children":[2,4,6,-1,8,10,-1,-1,-1,-1,-1],"split_conditions":[3.602264E1,2.0633764E-3,1.0434572E0,-1.8963365E-2,1.042863E0,3.996474E1,8.951018E-2,3.09432E-2,1.8228976E-1,1.9860681E-2,-2.388111E-2],"split_indices":[10,18,31,0,31,10,0,0,0,0,0],"split_type":[0,0,0,0,0,0,0,0,0,0,0],"sum_hessian":[5.7463726E1,8.443558E0,4.902017E1,2.8618565E0,5.5817013E0,4.763208E1,1.3880912E0,1.2056539E0,4.376047E0,3.960233E0,4.3671844E1],"tree_param":{"num_deleted":"0","num_feature":"32","num_nodes":"11","size_leaf_vector":"1"}},{"base_weights":[6.892202E-3,4.0429345E-1,-1.0974735E0,4.663996E-1,-2.0549618E-1,-2.5268761E-2,-1.4043171E0,-3.0818006E-2,2.4530895E-2,-5.7448804E-2,1.4738879E-2,1.4884653E-2,-4.1488536E-2,-1.0595331E-1,-3.519598E-2],"categories":[],"categories_nodes":[],"categories_segments":[],"categories_sizes":[],"default_left":[0,0,0,0,0,0,0,0,0,0,0,0,0,0,0],"id":13,"left_children":[1,3,5,7,9,11,13,-1,-1,-1,-1,-1,-1,-1,-1],"loss_changes":[5.28574E1,3.449563E0,1.045047E1,2.4179077E0,4.5298686E0,2.3541932E0,1.0904549E1,0E0,0E0,0E0,0E0,0E0,0E0,0E0,0E0],"parents":[2147483647,0,0,1,1,2,2,3,3,4,4,5,5,6,6],"right_children":[2,4,6,8,10,12,14,-1,-1,-1,-1,-1,-1,-1,-1],"split_conditions":[2.0565211E-3,1E0,7.815553E-4,1.0423144E0,3.6909324E-1,5.973532E1,1.1322978E-3,-3.0818006E-2,2.4530895E-2,-5.7448804E-2,1.4738879E-2,1.4884653E-2,-4.1488536E-2,-1.0595331E-1,-3.519598E-2],"split_indices":[15,16,14,31,21,29,18,0,0,0,0,0,0,0,0],"split_type":[0,0,0,0,0,0,0,0,0,0,0,0,0,0,0],"sum_hessian":[1.1842704E2,8.7554756E1,3.087229E1,7.967511E1,7.879644E0,7.110033E0,2.3762257E1,1.208202E0,7.84669E1,2.2810516E0,5.5985923E0,5.522877E0,1.5871553E0,1.0758148E1,1.3004109E1],"tree_param":{"num_deleted":"0","num_feature":"32","num_nodes":"15","size_leaf_vector":"1"}},{"base_weights":[2.2363104E-2,-3.972782E-1,1.1863648E0,1.650039E-1,-4.7647092E-1,-3.5682926E-1,2.805848E0,-2.1124708E-2,8.584076E-2,1.0763178E-2,-2.498999E-2,1.1775922E-2,-2.2688748E-2,1.543973E-1,4.4051334E-2],"categories":[],"categories_nodes":[],"categories_segments":[],"categories_sizes":[],"default_left":[0,0,0,0,0,0,0,0,0,0,0,0,0,0,0],"id":14,"left_children":[1,3,5,7,9,11,13,-1,-1,-1,-1,-1,-1,-1,-1],"loss_changes":[3.1749273E1,2.2077427E0,4.4033882E1,6.784131E0,7.88085E-1,6.641426E-1,1.9027252E0,0E0,0E0,0E0,0E0,0E0,0E0,0E0,0E0],"parents":[2147483647,0,0,1,1,2,2,3,3,4,4,5,5,6,6],"right_children":[2,4,6,8,10,12,14,-1,-1,-1,-1,-1,-1,-1,-1],"split_conditions":[5.988923E1,-2.458643E-4,7.6892955E-4,4.6476547E1,1.0393419E0,1.4275418E-3,1.0427418E0,-2.1124708E-2,8.584076E-2,1.0763178E-2,-2.498999E-2,1.1775922E-2,-2.2688748E-2,1.543973E-1,4.4051334E-2],"split_indices":[10,12,14,10,26,17,26,0,0,0,0,0,0,0,0],"split_type":[0,0,0,0,0,0,0,0,0,0,0,0,0,0,0],"sum_hessian":[6.3033398E1,4.681466E1,1.6218739E1,5.645693E0,4.1168964E1,8.704217E0,7.514522E0,4.623159E0,1.0225339E0,1.0747163E0,4.009425E1,1.0231689E0,7.681048E0,6.026948E0,1.4875741E0],"tree_param":{"num_deleted":"0","num_feature":"32","num_nodes":"15","size_leaf_vector":"1"}},{"base_weights":[7.9541E-3,1.8273168E0,-3.405348E-1,-1.8276185E-2,1.333584E-1,-4.3870154E-1,9.2164494E-2,1.1115749E-2,-2.4986083E-2],"categories":[],"categories_nodes":[],"categories_segments":[],"categories_sizes":[],"default_left":[0,0,0,0,0,0,0,0,0],"id":15,"left_children":[1,3,5,-1,-1,7,-1,-1,-1],"loss_changes":[3.753207E1,1.849886E1,1.1463183E1,0E0,0E0,2.062087E0,0E0,0E0,0E0],"parents":[2147483647,0,0,1,1,2,2,5,5],"right_children":[2,4,6,-1,-1,8,-1,-1,-1],"split_conditions":[3.602264E1,7.1805896E-4,4.8654526E-4,-1.8276185E-2,1.333584E-1,3.996474E1,9.2164494E-2,1.1115749E-2,-2.4986083E-2],"split_indices":[10,14,12,0,0,10,0,0,0],"split_type":[0,0,0,0,0,0,0,0,0],"sum_hessian":[5.7214817E1,8.515297E0,4.869952E1,2.5145688E0,6.0007286E0,4.73693E1,1.3302194E0,3.7798426E0,4.3589455E1],"tree_param":{"num_deleted":"0","num_feature":"32","num_nodes":"9","size_leaf_vector":"1"}},{"base_weights":[-2.67747E-2,4.4602174E-1,-7.89376E-1,-3.9277755E-2,4.8615992E-1,-3.8404626E-1,-2.193055E0,-8.473807E-3,2.4991674E-2,-9.436835E-2,-2.0495488E-3,-3.62281E-2,-1.2070745E-1],"categories":[],"categories_nodes":[],"categories_segments":[],"categories_sizes":[],"default_left":[0,0,0,0,0,0,0,0,0,0,0,0,0],"id":16,"left_children":[1,3,5,-1,7,9,11,-1,-1,-1,-1,-1,-1],"loss_changes":[4.2547478E1,3.9846E0,2.4845375E1,0E0,7.229862E-1,1.8615023E1,1.4663353E0,0E0,0E0,0E0,0E0,0E0,0E0],"parents":[2147483647,0,0,1,1,2,2,4,4,5,5,6,6],"right_children":[2,4,6,-1,8,10,12,-1,-1,-1,-1,-1,-1],"split_conditions":[7.6892955E-4,2.8793077E-4,6.3483246E1,-3.9277755E-2,1.03798E0,3.5507652E1,5.395175E-7,-8.473807E-3,2.4991674E-2,-9.436835E-2,-2.0495488E-3,-3.62281E-2,-1.2070745E-1],"split_indices":[14,17,25,0,2,10,11,0,0,0,0,0,0],"split_type":[0,0,0,0,0,0,0,0,0,0,0,0,0],"sum_hessian":[1.1602895E2,7.188001E1,4.4148937E1,1.6825434E0,7.019747E1,3.524508E1,8.903856E0,1.2013048E0,6.899617E1,5.712108E0,2.9532972E1,1.7248275E0,7.1790285E0],"tree_param":{"num_deleted":"0","num_feature":"32","num_nodes":"13","size_leaf_vector":"1"}},{"base_weights":[1.9892151E-3,-3.9382312E-1,9.749652E-1,-4.7492477E-1,1.4083971E-1,1.9762319E0,3.6341867E-1,-2.4903769E-2,-1.0183719E-2,-2.0830646E-2,6.1907202E-2,1.2166728E-1,5.279529E-3,-9.839391E-3,1.093197E-1],"categories":[],"categories_nodes":[],"categories_segments":[],"categories_sizes":[],"default_left":[0,0,0,0,0,0,0,0,0,0,0,0,0,0,0],"id":17,"left_children":[1,3,5,7,9,11,13,-1,-1,-1,-1,-1,-1,-1,-1],"loss_changes":[2.5189426E1,2.0830984E0,1.0862791E1,1.5351772E-1,4.7336864E0,5.682726E0,1.3672771E1,0E0,0E0,0E0,0E0,0E0,0E0,0E0,0E0],"parents":[2147483647,0,0,1,1,2,2,3,3,4,4,5,5,6,6],"right_children":[2,4,6,8,10,12,14,-1,-1,-1,-1,-1,-1,-1,-1],"split_conditions":[5.988923E1,2.1073733E-4,4.9525264E-5,1.0438787E0,1.8466586E-3,1.0430226E0,3.7657847E-3,-2.4903769E-2,-1.0183719E-2,-2.0830646E-2,6.1907202E-2,1.2166728E-1,5.279529E-3,-9.839391E-3,1.093197E-1],"split_indices":[10,13,12,27,17,7,17,0,0,0,0,0,0,0,0],"split_type":[0,0,0,0,0,0,0,0,0,0,0,0,0,0,0],"sum_hessian":[6.341039E1,4.5497128E1,1.791326E1,3.960177E1,5.895362E0,5.9461975E0,1.1967062E1,3.571717E1,3.8845975E0,4.3206935E0,1.5746685E0,4.536774E0,1.4094235E0,9.836365E0,2.1306973E0],"tree_param":{"num_deleted":"0","num_feature":"32","num_nodes":"15","size_leaf_vector":"1"}},{"base_weights":[6.45531E-3,1.6151735E0,-3.5618827E-1,-1.8641777E-2,2.3195717E0,-4.3558556E-1,5.447446E-2,2.1926615E-2,1.3552229E-1,-2.4917891E-2,-5.418862E-4],"categories":[],"categories_nodes":[],"categories_segments":[],"categories_sizes":[],"default_left":[0,0,0,0,0,0,0,0,0,0,0],"id":18,"left_children":[1,3,5,-1,7,9,-1,-1,-1,-1,-1],"loss_changes":[3.4513676E1,1.6103683E1,6.0176697E0,0E0,4.8210297E0,1.2341948E0,0E0,0E0,0E0,0E0,0E0],"parents":[2147483647,0,0,1,1,2,2,4,4,5,5],"right_children":[2,4,6,-1,8,10,-1,-1,-1,-1,-1],"split_conditions":[3.602264E1,7.1805896E-4,9.0943027E-4,-1.8641777E-2,1.042863E0,2.1272113E-3,5.447446E-2,2.1926615E-2,1.3552229E-1,-2.4917891E-2,-5.418862E-4],"split_indices":[10,14,14,0,31,18,0,0,0,0,0],"split_type":[0,0,0,0,0,0,0,0,0,0,0],"sum_hessian":[5.717427E1,9.88218E0,4.729209E1,2.7085626E0,7.173618E0,4.549233E1,1.7997618E0,1.5992631E0,5.5743546E0,3.9483826E1,6.008503E0],"tree_param":{"num_deleted":"0","num_feature":"32","num_nodes":"11","size_leaf_vector":"1"}},{"base_weights":[-3.2536898E-2,4.0399057E-1,-9.646512E-1,-4.8132876E-1,4.3802437E-1,-6.9229335E-1,-1.04551785E-1,-5.9140902E-2,1.5598813E-2,2.486289E-2,6.8187057E-3,2.099185E-3,-5.2045006E-2],"categories":[],"categories_nodes":[],"categories_segments":[],"categories_sizes":[],"default_left":[0,0,0,0,0,0,0,0,0,0,0,0,0],"id":19,"left_children":[1,3,5,7,9,11,-1,-1,-1,-1,-1,-1,-1],"loss_changes":[4.8074368E1,2.636919E0,1.0109856E1,2.2929177E0,1.3269682E0,8.192067E0,0E0,0E0,0E0,0E0,0E0,0E0,0E0],"parents":[2147483647,0,0,1,1,2,2,3,3,4,4,5,5],"right_children":[2,4,6,8,10,12,-1,-1,-1,-1,-1,-1,-1],"split_conditions":[1.9276323E-3,2.8793077E-4,1E0,5.044357E1,1.5830791E-3,7.9244253E-4,-1.04551785E-1,-5.9140902E-2,1.5598813E-2,2.486289E-2,6.8187057E-3,2.099185E-3,-5.2045006E-2],"split_indices":[15,17,16,25,15,14,0,0,0,0,0,0,0],"split_type":[0,0,0,0,0,0,0,0,0,0,0,0,0],"sum_hessian":[1.1619199E2,7.95185E1,3.6673492E1,2.4571857E0,7.706132E1,3.0832788E1,5.8407016E0,1.0434778E0,1.4137079E0,6.3870884E1,1.3190434E1,1.0208982E1,2.0623806E1],"tree_param":{"num_deleted":"0","num_feature":"32","num_nodes":"13","size_leaf_vector":"1"}},{"base_weights":[5.054706E-2,-3.9376542E-1,1.08436E0,-4.7582388E-1,2.909973E-1,-3.4599632E-1,2.0867095E0,3.0888978E-3,-2.4954183E-2,8.50015E-2,-2.0024521E-2,1.2094287E-2,-2.2450965E-2,1.1336098E-1,9.391287E-3],"categories":[],"categories_nodes":[],"categories_segments":[],"categories_sizes":[],"default_left":[0,0,0,0,0,0,0,0,0,0,0,0,0,0,0],"id":20,"left_children":[1,3,5,7,9,11,13,-1,-1,-1,-1,-1,-1,-1,-1],"loss_changes":[3.0555788E1,2.7574635E0,2.9371725E1,5.560341E-1,6.145101E0,6.5923035E-1,3.6501884E0,0E0,0E0,0E0,0E0,0E0,0E0,0E0,0E0],"parents":[2147483647,0,0,1,1,2,2,3,3,4,4,5,5,6,6],"right_children":[2,4,6,8,10,12,14,-1,-1,-1,-1,-1,-1,-1,-1],"split_conditions":[5.988923E1,1.0438737E0,7.6892955E-4,1.0387E0,-1.13801376E-4,7.557355E-2,3.3609985E-4,3.0888978E-3,-2.4954183E-2,8.50015E-2,-2.0024521E-2,1.2094287E-2,-2.2450965E-2,1.1336098E-1,9.391287E-3],"split_indices":[10,27,14,0,12,20,12,0,0,0,0,0,0,0,0],"split_type":[0,0,0,0,0,0,0,0,0,0,0,0,0,0,0],"sum_hessian":[6.459208E1,4.5609238E1,1.898284E1,4.100101E1,4.608226E0,8.091317E0,1.0891523E1,1.6316968E0,3.9369316E1,1.0368809E0,3.5713449E0,1.0055344E0,7.0857825E0,9.768906E0,1.1226175E0],"tree_param":{"num_deleted":"0","num_feature":"32","num_nodes":"15","size_leaf_vector":"1"}},{"base_weights":[6.895211E-2,1.3383154E0,-2.3418812E-1,-1.6698567E-2,1.7030741E0,4.1157985E-1,-4.6889427E-1,1.0808531E-1,3.5305496E-2,-1.7174164E-2,8.036189E-2,-2.479348E-2,9.440749E-3],"categories":[],"categories_nodes":[],"categories_segments":[],"categories_sizes":[],"default_left":[0,0,0,0,0,0,0,0,0,0,0,0,0],"id":21,"left_children":[1,3,5,-1,7,9,11,-1,-1,-1,-1,-1,-1],"loss_changes":[2.2782177E1,7.5258446E0,7.4660378E0,0E0,2.8297424E0,1.2581025E1,7.2633886E-1,0E0,0E0,0E0,0E0,0E0,0E0],"parents":[2147483647,0,0,1,1,2,2,4,4,5,5,6,6],"right_children":[2,4,6,-1,8,10,12,-1,-1,-1,-1,-1,-1],"split_conditions":[-2.5930244E-4,1.3946791E-3,4.3236588E1,-1.6698567E-2,4.307284E1,7.9182175E-4,5.358254E-4,1.0808531E-1,3.5305496E-2,-1.7174164E-2,8.036189E-2,-2.479348E-2,9.440749E-3],"split_indices":[13,15,25,0,25,14,11,0,0,0,0,0,0],"split_type":[0,0,0,0,0,0,0,0,0,0,0,0,0],"sum_hessian":[5.739149E1,1.0405379E1,4.6986115E1,1.878328E0,8.527051E0,1.2324106E1,3.4662006E1,5.040149E0,3.4869022E0,7.9906807E0,4.333425E0,3.353276E1,1.1292467E0],"tree_param":{"num_deleted":"0","num_feature":"32","num_nodes":"13","size_leaf_vector":"1"}},{"base_weights":[-1.8210454E-2,4.0876E-1,-8.0069137E-1,4.3396017E-1,-3.5638195E-2,-3.8952342E-1,-1.3393661E0,2.4764065E-2,7.019563E-3,-1.990617E-3,-5.693583E-2,-7.672074E-2,-2.2545803E-2],"categories":[],"categories_nodes":[],"categories_segments":[],"categories_sizes":[],"default_left":[0,0,0,0,0,0,0,0,0,0,0,0,0],"id":22,"left_children":[1,3,5,7,-1,9,11,-1,-1,-1,-1,-1,-1],"loss_changes":[3.8910427E1,2.4396772E0,8.583002E0,1.2687826E0,0E0,6.432109E0,2.3206844E0,0E0,0E0,0E0,0E0,0E0,0E0],"parents":[2147483647,0,0,1,1,2,2,3,3,5,5,6,6],"right_children":[2,4,6,8,-1,10,12,-1,-1,-1,-1,-1,-1],"split_conditions":[1.9276323E-3,3.7954682E-3,3.8700166E-1,1.5597808E-3,-3.5638195E-2,6.1139736E1,1.671022E-4,2.4764065E-2,7.019563E-3,-1.990617E-3,-5.693583E-2,-7.672074E-2,-2.2545803E-2],"split_indices":[15,17,19,15,0,10,12,0,0,0,0,0,0],"split_type":[0,0,0,0,0,0,0,0,0,0,0,0,0],"sum_hessian":[1.144851E2,7.4377625E1,4.0107468E1,7.334271E1,1.0349172E0,2.372296E1,1.638451E1,6.010151E1,1.32412E1,1.6891449E1,6.8315105E0,1.283883E1,3.5456798E0],"tree_param":{"num_deleted":"0","num_feature":"32","num_nodes":"13","size_leaf_vector":"1"}},{"base_weights":[2.5109407E-2,-3.8974667E-1,9.285657E-1,-4.7508734E-1,4.1467407E-1,-3.4213123E-1,1.7444922E0,-2.4896456E-2,-8.879138E-3,-1.8720174E-2,7.8497104E-2,1.1971265E-2,-2.2341711E-2,1.01568736E-1,1.227123E-2],"categories":[],"categories_nodes":[],"categories_segments":[],"categories_sizes":[],"default_left":[0,0,0,0,0,0,0,0,0,0,0,0,0,0,0],"id":23,"left_children":[1,3,5,7,9,11,13,-1,-1,-1,-1,-1,-1,-1,-1],"loss_changes":[2.4624153E1,3.290833E0,2.2023588E1,1.9162178E-1,5.0149484E0,6.4995384E-1,4.9843254E0,0E0,0E0,0E0,0E0,0E0,0E0,0E0,0E0],"parents":[2147483647,0,0,1,1,2,2,3,3,4,4,5,5,6,6],"right_children":[2,4,6,8,10,12,14,-1,-1,-1,-1,-1,-1,-1,-1],"split_conditions":[6.0255997E1,2.8850386E-4,7.6892955E-4,1.0438787E0,1.8466586E-3,4.377199E-5,1.0424061E0,-2.4896456E-2,-8.879138E-3,-1.8720174E-2,7.8497104E-2,1.1971265E-2,-2.2341711E-2,1.01568736E-1,1.227123E-2],"split_indices":[10,13,14,27,17,12,7,0,0,0,0,0,0,0,0],"split_type":[0,0,0,0,0,0,0,0,0,0,0,0,0,0,0],"sum_hessian":[6.3733105E1,4.4066784E1,1.9666323E1,4.0210293E1,3.8564892E0,7.9171295E0,1.1749193E1,3.6717514E1,3.492777E0,2.6930106E0,1.1634787E0,1.0116068E0,6.905523E0,9.563831E0,2.1853614E0],"tree_param":{"num_deleted":"0","num_feature":"32","num_nodes":"15","size_leaf_vector":"1"}},{"base_weights":[-5.984719E-2,9.586035E-1,-3.3009252E-1,1.7563046E0,-1.175644E-1,-4.7116968E-1,3.1459963E-1,-1.418963E-2,1.1149029E-1,-2.0630775E-2,3.1023478E-2,-2.4823597E-2,1.1295853E-2,-2.0693658E-2,5.141395E-2],"categories":[],"categories_nodes":[],"categories_segments":[],"categories_sizes":[],"default_left":[0,0,0,0,0,0,0,0,0,0,0,0,0,0,0],"id":24,"left_children":[1,3,5,7,9,11,13,-1,-1,-1,-1,-1,-1,-1,-1],"loss_changes":[1.6058256E1,1.0722758E1,4.3269615E0,7.4894238E0,1.5956877E0,7.8409576E-1,5.025901E0,0E0,0E0,0E0,0E0,0E0,0E0,0E0,0E0],"parents":[2147483647,0,0,1,1,2,2,3,3,4,4,5,5,6,6],"right_children":[2,4,6,8,10,12,14,-1,-1,-1,-1,-1,-1,-1,-1],"split_conditions":[-2.5930244E-4,7.477222E-4,2.2877704E-3,7.518078E-4,1.0440519E0,3.4756796E-3,7.9182175E-4,-1.418963E-2,1.1149029E-1,-2.0630775E-2,3.1023478E-2,-2.4823597E-2,1.1295853E-2,-2.0693658E-2,5.141395E-2],"split_indices":[13,17,18,14,27,15,14,0,0,0,0,0,0,0,0],"split_type":[0,0,0,0,0,0,0,0,0,0,0,0,0,0,0],"sum_hessian":[5.6194855E1,1.1250162E1,4.4944695E1,6.098039E0,5.1521235E0,3.7096146E1,7.8485465E0,1.2241956E0,4.8738437E0,3.9956636E0,1.1564597E0,3.6074535E1,1.021612E0,4.0919065E0,3.7566402E0],"tree_param":{"num_deleted":"0","num_feature":"32","num_nodes":"15","size_leaf_vector":"1"}},{"base_weights":[1.9350275E-2,3.321443E-1,-9.2587984E-1,4.4041777E-1,-4.8119527E-1,-1.04182266E-1,-1.2733725E0,-1.6409155E-2,2.5036061E-2,3.1556846E-3,-6.3998066E-2,2.1648725E-2,-2.687865E-2,-7.5162634E-2,-2.021969E-2],"categories":[],"categories_nodes":[],"categories_segments":[],"categories_sizes":[],"default_left":[0,0,0,0,0,0,0,0,0,0,0,0,0,0,0],"id":25,"left_children":[1,3,5,7,9,11,13,-1,-1,-1,-1,-1,-1,-1,-1],"loss_changes":[3.550794E1,8.154346E0,8.395103E0,3.8776674E0,4.8953304E0,2.5527186E0,3.567196E0,0E0,0E0,0E0,0E0,0E0,0E0,0E0,0E0],"parents":[2147483647,0,0,1,1,2,2,3,3,4,4,5,5,6,6],"right_children":[2,4,6,8,10,12,14,-1,-1,-1,-1,-1,-1,-1,-1],"split_conditions":[2.472572E-3,1E0,1.0423038E0,1.0409939E0,1.768084E-3,8.1535726E-4,2.8273402E-4,-1.6409155E-2,2.5036061E-2,3.1556846E-3,-6.3998066E-2,2.1648725E-2,-2.687865E-2,-7.5162634E-2,-2.021969E-2],"split_indices":[15,16,27,30,15,14,12,0,0,0,0,0,0,0,0],"split_type":[0,0,0,0,0,0,0,0,0,0,0,0,0,0,0],"sum_hessian":[1.1805613E2,8.9190094E1,2.8866032E1,7.9116455E1,1.0073643E1,8.965531E0,1.9900501E1,5.4326096E0,7.3683846E1,6.5388274E0,3.534815E0,4.0039196E0,4.9616113E0,1.5160128E1,4.740374E0],"tree_param":{"num_deleted":"0","num_feature":"32","num_nodes":"15","size_leaf_vector":"1"}},{"base_weights":[7.889489E-2,-3.8254893E-1,9.836654E-1,2.739514E-1,-2.4860976E-2,1.6530238E0,3.2549015E-1,-2.1373266E-2,1.1116655E-1,9.922442E-2,9.2153624E-4,-4.5557073E-3,8.433843E-2],"categories":[],"categories_nodes":[],"categories_segments":[],"categories_sizes":[],"default_left":[0,0,0,0,0,0,0,0,0,0,0,0,0],"id":26,"left_children":[1,3,5,7,-1,9,11,-1,-1,-1,-1,-1,-1],"loss_changes":[2.682376E1,3.3485703E0,9.011307E0,1.0507817E1,0E0,5.6531715E0,7.0579333E0,0E0,0E0,0E0,0E0,0E0,0E0],"parents":[2147483647,0,0,1,1,2,2,3,3,5,5,6,6],"right_children":[2,4,6,8,-1,10,12,-1,-1,-1,-1,-1,-1],"split_conditions":[5.988923E1,-2.3902385E-4,6.152134E-5,4.8863884E1,-2.4860976E-2,1.0430226E0,3.7954682E-3,-2.1373266E-2,1.1116655E-1,9.922442E-2,9.2153624E-4,-4.5557073E-3,8.433843E-2],"split_indices":[10,12,12,10,0,7,17,0,0,0,0,0,0],"split_type":[0,0,0,0,0,0,0,0,0,0,0,0,0],"sum_hessian":[6.2347095E1,4.167138E1,2.0675716E1,5.989855E0,3.5681526E1,9.501375E0,1.1174341E1,4.979038E0,1.010817E0,7.7215376E0,1.7798378E0,9.270327E0,1.9040142E0],"tree_param":{"num_deleted":"0","num_feature":"32","num_nodes":"13","size_leaf_vector":"1"}},{"base_weights":[-3.126141E-2,1.0660203E0,-4.2946818E-1,-1.958692E-2,1.4955581E0,-4.7439E-1,3.151992E-2,8.696227E-2,-1.4853585E-2,4.962743E-3,-2.4890983E-2],"categories":[],"categories_nodes":[],"categories_segments":[],"categories_sizes":[],"default_left":[0,0,0,0,0,0,0,0,0,0,0],"id":27,"left_children":[1,3,5,-1,7,9,-1,-1,-1,-1,-1],"loss_changes":[2.5550968E1,1.0340736E1,2.3391829E0,0E0,5.863928E0,6.095772E-1,0E0,0E0,0E0,0E0,0E0],"parents":[2147483647,0,0,1,1,2,2,4,4,5,5],"right_children":[2,4,6,-1,8,10,-1,-1,-1,-1,-1],"split_conditions":[3.920336E1,7.2133937E-4,4.8654526E-4,-1.958692E-2,4.9395374E1,3.996474E1,3.151992E-2,8.696227E-2,-1.4853585E-2,4.962743E-3,-2.4890983E-2],"split_indices":[10,14,12,0,29,10,0,0,0,0,0],"split_type":[0,0,0,0,0,0,0,0,0,0,0],"sum_hessian":[5.642862E1,1.4578812E1,4.1849808E1,3.3380823E0,1.1240729E1,4.0678097E1,1.1717112E0,9.9217615E0,1.3189677E0,1.4692445E0,3.920885E1],"tree_param":{"num_deleted":"0","num_feature":"32","num_nodes":"11","size_leaf_vector":"1"}},{"base_weights":[-1.1801096E-2,4.057918E-1,-7.3903376E-1,4.9351877E-1,3.8641453E-2,8.692852E-2,-8.9876133E-1,-2.8975747E-4,2.5490547E-2,1.5477933E-2,-3.363047E-2,1.5237281E-2,-3.1084979E-2,-4.931123E-2,1.8356422E-2],"categories":[],"categories_nodes":[],"categories_segments":[],"categories_sizes":[],"default_left":[0,0,0,0,0,0,0,0,0,0,0,0,0,0,0],"id":28,"left_children":[1,3,5,7,9,11,13,-1,-1,-1,-1,-1,-1,-1,-1],"loss_changes":[3.522804E1,2.35493E0,5.6597023E0,4.862194E-1,3.1563323E0,1.3883963E0,4.296999E0,0E0,0E0,0E0,0E0,0E0,0E0,0E0,0E0],"parents":[2147483647,0,0,1,1,2,2,3,3,4,4,5,5,6,6],"right_children":[2,4,6,8,10,12,14,-1,-1,-1,-1,-1,-1,-1,-1],"split_conditions":[2.0565211E-3,3.8700166E-1,7.815553E-4,3.0385107E1,1.8008376E-3,3.334393E-1,7.6354575E-1,-2.8975747E-4,2.5490547E-2,1.5477933E-2,-3.363047E-2,1.5237281E-2,-3.1084979E-2,-4.931123E-2,1.8356422E-2],"split_indices":[15,19,14,10,18,20,21,0,0,0,0,0,0,0,0],"split_type":[0,0,0,0,0,0,0,0,0,0,0,0,0,0,0],"sum_hessian":[1.1401355E2,7.2706116E1,4.1307434E1,5.8406315E1,1.4299802E1,6.767579E0,3.4539856E1,1.8658861E0,5.654043E1,1.0764388E1,3.5354137E0,5.612398E0,1.1551813E0,3.2514294E1,2.0255647E0],"tree_param":{"num_deleted":"0","num_feature":"32","num_nodes":"15","size_leaf_vector":"1"}},{"base_weights":[4.1084435E-2,-3.793513E-1,7.984248E-1,-4.7091037E-1,3.837472E-1,-3.4951556E-1,1.4697664E0,-2.4794282E-2,-9.692545E-3,-1.8331507E-2,6.473154E-2,1.2167977E-2,-2.2511235E-2,8.186763E-2,-1.4384806E-2],"categories":[],"categories_nodes":[],"categories_segments":[],"categories_sizes":[],"default_left":[0,0,0,0,0,0,0,0,0,0,0,0,0,0,0],"id":29,"left_children":[1,3,5,7,9,11,13,-1,-1,-1,-1,-1,-1,-1,-1],"loss_changes":[2.0588655E1,3.0903487E0,1.8288649E1,1.6427231E-1,3.900619E0,6.659874E-1,4.814001E0,0E0,0E0,0E0,0E0,0E0,0E0,0E0,0E0],"parents":[2147483647,0,0,1,1,2,2,3,3,4,4,5,5,6,6],"right_children":[2,4,6,8,10,12,14,-1,-1,-1,-1,-1,-1,-1,-1],"split_conditions":[5.988923E1,2.8850386E-4,7.6892955E-4,2.4164214E-3,2.5349148E-3,6.8954885E-2,3.640392E-4,-2.4794282E-2,-9.692545E-3,-1.8331507E-2,6.473154E-2,1.2167977E-2,-2.2511235E-2,8.186763E-2,-1.4384806E-2],"split_indices":[10,13,14,17,15,20,12,0,0,0,0,0,0,0,0],"split_type":[0,0,0,0,0,0,0,0,0,0,0,0,0,0,0],"sum_hessian":[6.2709003E1,4.064444E1,2.2064564E1,3.6632095E1,4.0123434E0,8.319044E0,1.3745521E1,3.287848E1,3.7536159E0,2.527617E0,1.4847263E0,1.0022624E0,7.3167815E0,1.2611291E1,1.1342301E0],"tree_param":{"num_deleted":"0","num_feature":"32","num_nodes":"15","size_leaf_vector":"1"}},{"base_weights":[1.1328141E-2,1.1184548E0,-3.5992822E-1,-1.7861567E-2,1.4289659E0,-4.5081043E-1,8.457862E-2,4.2647924E-2,1.0287255E-1,1.0047943E-2,-2.3682103E-2],"categories":[],"categories_nodes":[],"categories_segments":[],"categories_sizes":[],"default_left":[0,0,0,0,0,0,0,0,0,0,0],"id":30,"left_children":[1,3,5,-1,7,9,-1,-1,-1,-1,-1],"loss_changes":[2.3511091E1,7.091358E0,8.753491E0,0E0,2.6128502E0,7.176647E-1,0E0,0E0,0E0,0E0,0E0],"parents":[2147483647,0,0,1,1,2,2,4,4,5,5],"right_children":[2,4,6,-1,8,10,-1,-1,-1,-1,-1],"split_conditions":[3.7071587E1,1.5738141E-3,7.594871E-4,-1.7861567E-2,-8.504061E-5,-4.58769E-4,8.457862E-2,4.2647924E-2,1.0287255E-1,1.0047943E-2,-2.3682103E-2],"split_indices":[10,15,12,0,12,13,0,0,0,0,0],"split_type":[0,0,0,0,0,0,0,0,0,0,0],"sum_hessian":[5.5221325E1,1.3361942E1,4.1859383E1,2.2966733E0,1.10652685E1,4.0830814E1,1.0285664E0,7.0036125E0,4.0616565E0,1.1178557E0,3.971296E1],"tree_param":{"num_deleted":"0","num_feature":"32","num_nodes":"11","size_leaf_vector":"1"}},{"base_weights":[-4.7647234E-2,3.758165E-1,-7.432896E-1,4.3475825E-1,-1.674901E-1,5.9250712E-2,-9.320353E-1,-3.0971939E-2,2.3191085E-2,1.2878954E-2,-4.5196354E-2,-3.650525E-2,1.6805796E-2,-5.0485075E-2,1.763287E-2],"categories":[],"categories_nodes":[],"categories_segments":[],"categories_sizes":[],"default_left":[0,0,0,0,0,0,0,0,0,0,0,0,0,0,0],"id":31,"left_children":[1,3,5,7,9,11,13,-1,-1,-1,-1,-1,-1,-1,-1],"loss_changes":[3.4291595E1,2.392435E0,6.724024E0,2.2979364E0,2.6779835E0,2.2828715E0,3.9183788E0,0E0,0E0,0E0,0E0,0E0,0E0,0E0,0E0],"parents":[2147483647,0,0,1,1,2,2,3,3,4,4,5,5,6,6],"right_children":[2,4,6,8,10,12,14,-1,-1,-1,-1,-1,-1,-1,-1],"split_conditions":[1.9677093E-3,1E0,7.858112E-4,1.0423144E0,1.9074127E-3,3.6559415E-1,7.6354575E-1,-3.0971939E-2,2.3191085E-2,1.2878954E-2,-4.5196354E-2,-3.650525E-2,1.6805796E-2,-5.0485075E-2,1.763287E-2],"split_indices":[15,16,14,31,18,21,21,0,0,0,0,0,0,0,0],"split_type":[0,0,0,0,0,0,0,0,0,0,0,0,0,0,0],"sum_hessian":[1.14460434E2,7.1435005E1,4.302543E1,6.462394E1,6.811069E0,8.322888E0,3.470254E1,1.1888379E0,6.34351E1,4.7307377E0,2.0803313E0,1.7361115E0,6.586777E0,3.2926044E1,1.7764941E0],"tree_param":{"num_deleted":"0","num_feature":"32","num_nodes":"15","size_leaf_vector":"1"}},{"base_weights":[2.7858233E-2,-3.621936E-1,8.403731E-1,-2.485877E-2,2.9614535E-1,-3.0804634E-1,1.377352E0,-2.0687595E-2,5.9001356E-2,1.2177688E-2,-2.1606697E-2,9.2837706E-2,3.326181E-2],"categories":[],"categories_nodes":[],"categories_segments":[],"categories_sizes":[],"default_left":[0,0,0,0,0,0,0,0,0,0,0,0,0],"id":32,"left_children":[1,3,5,-1,7,9,11,-1,-1,-1,-1,-1,-1],"loss_changes":[2.0282112E1,3.9941049E0,1.3218521E1,0E0,5.5031385E0,6.136272E-1,3.6534157E0,0E0,0E0,0E0,0E0,0E0,0E0],"parents":[2147483647,0,0,1,1,2,2,4,4,5,5,6,6],"right_children":[2,4,6,-1,8,10,12,-1,-1,-1,-1,-1,-1],"split_conditions":[6.0768612E1,2.1073733E-4,7.6892955E-4,-2.485877E-2,1.8466586E-3,9.099802E-4,1.043083E0,-2.0687595E-2,5.9001356E-2,1.2177688E-2,-2.1606697E-2,9.2837706E-2,3.326181E-2],"split_indices":[10,13,14,0,17,15,31,0,0,0,0,0,0],"split_type":[0,0,0,0,0,0,0,0,0,0,0,0,0],"sum_hessian":[6.203657E1,4.2289513E1,1.974706E1,3.5297195E1,6.992317E0,6.427375E0,1.3319686E1,4.172794E0,2.8195233E0,1.0035571E0,5.4238176E0,6.999912E0,6.319774E0],"tree_param":{"num_deleted":"0","num_feature":"32","num_nodes":"13","size_leaf_vector":"1"}},{"base_weights":[-7.7803314E-2,5.788832E-1,-4.1571173E-1,-2.1476345E-2,1.025302E0,-2.4811104E-2,5.421689E-2,1.8406985E-2,8.388983E-2],"categories":[],"categories_nodes":[],"categories_segments":[],"categories_sizes":[],"default_left":[0,0,0,0,0,0,0,0,0],"id":33,"left_children":[1,3,5,-1,7,-1,-1,-1,-1],"loss_changes":[1.2249978E1,8.905959E0,4.9238615E0,0E0,5.098153E0,0E0,0E0,0E0,0E0],"parents":[2147483647,0,0,1,1,2,2,4,4],"right_children":[2,4,6,-1,8,-1,-1,-1,-1],"split_conditions":[4.3236588E1,7.241226E-4,7.594871E-4,-2.1476345E-2,-1.5936466E-4,-2.4811104E-2,5.421689E-2,1.8406985E-2,8.388983E-2],"split_indices":[25,14,12,0,12,0,0,0,0],"split_type":[0,0,0,0,0,0,0,0,0],"sum_hessian":[5.3120487E1,1.7805124E1,3.5315365E1,5.4751697E0,1.2329954E1,3.4151585E1,1.1637806E0,6.922318E0,5.407636E0],"tree_param":{"num_deleted":"0","num_feature":"32","num_nodes":"9","size_leaf_vector":"1"}},{"base_weights":[-3.6651846E-2,4.5611307E-1,-5.344788E-1,-6.1622046E-2,4.888105E-1,2.3001205E-2,-6.896903E-1,1.7994717E-2,-3.5277463E-2,8.367601E-3,2.5335371E-2,-1.8133434E-2,-5.3152747E-2],"categories":[],"categories_nodes":[],"categories_segments":[],"categories_sizes":[],"default_left":[0,0,0,0,0,0,0,0,0,0,0,0,0],"id":34,"left_children":[1,3,5,7,9,-1,11,-1,-1,-1,-1,-1,-1],"loss_changes":[2.8044872E1,1.0034151E0,9.09034E0,1.4219698E0,2.2696495E-1,0E0,5.6660213E0,0E0,0E0,0E0,0E0,0E0,0E0],"parents":[2147483647,0,0,1,1,2,2,3,3,4,4,6,6],"right_children":[2,4,6,8,10,-1,12,-1,-1,-1,-1,-1,-1],"split_conditions":[7.659002E-4,4.0364682E-4,1.4738245E-3,1.6419168E-3,4.416954E-4,2.3001205E-2,3.8700166E-1,1.7994717E-2,-3.5277463E-2,8.367601E-3,2.5335371E-2,-1.8133434E-2,-5.3152747E-2],"split_indices":[14,17,15,15,15,0,19,0,0,0,0,0,0],"split_type":[0,0,0,0,0,0,0,0,0,0,0,0,0],"sum_hessian":[1.1232968E2,5.6493958E1,5.5835724E1,3.3033724E0,5.3190586E1,7.2727056E0,4.856302E1,2.2630615E0,1.0403111E0,3.351049E0,4.983954E1,2.693906E1,2.1623959E1],"tree_param":{"num_deleted":"0","num_feature":"32","num_nodes":"13","size_leaf_vector":"1"}},{"base_weights":[4.243283E-2,-3.79034E-1,7.683373E-1,-4.6972615E-1,2.77271E-1,-3.2757646E-1,1.2604493E0,-2.4751857E-2,-9.61453E-3,-1.9155737E-2,5.5321246E-2,1.1754933E-2,-2.1997167E-2,7.514018E-2,1.1675826E-2],"categories":[],"categories_nodes":[],"categories_segments":[],"categories_sizes":[],"default_left":[0,0,0,0,0,0,0,0,0,0,0,0,0,0,0],"id":35,"left_children":[1,3,5,7,9,11,13,-1,-1,-1,-1,-1,-1,-1,-1],"loss_changes":[2.003241E1,2.5999594E0,1.3373973E1,1.6340923E-1,3.5265942E0,6.2448627E-1,3.8281498E0,0E0,0E0,0E0,0E0,0E0,0E0,0E0,0E0],"parents":[2147483647,0,0,1,1,2,2,3,3,4,4,5,5,6,6],"right_children":[2,4,6,8,10,12,14,-1,-1,-1,-1,-1,-1,-1,-1],"split_conditions":[5.988923E1,2.8850386E-4,7.6892955E-4,1.0438787E0,1.8466586E-3,9.947088E-5,1.0424061E0,-2.4751857E-2,-9.61453E-3,-1.9155737E-2,5.5321246E-2,1.1754933E-2,-2.1997167E-2,7.514018E-2,1.1675826E-2],"split_indices":[10,13,14,27,17,11,7,0,0,0,0,0,0,0,0],"split_type":[0,0,0,0,0,0,0,0,0,0,0,0,0,0,0],"sum_hessian":[6.352534E1,4.0492733E1,2.3032608E1,3.5826324E1,4.666408E0,7.241166E0,1.5791442E1,3.211232E1,3.7140036E0,2.8970091E0,1.769399E0,1.0235442E0,6.2176223E0,1.2401355E1,3.3900876E0],"tree_param":{"num_deleted":"0","num_feature":"32","num_nodes":"15","size_leaf_vector":"1"}},{"base_weights":[3.2583207E-2,1.182389E0,-3.778325E-1,-1.685705E-2,1.4408096E0,1.31252445E-2,-2.4708683E-2,3.5814535E-2,9.41525E-2,-1.6663646E-2,4.9500793E-2],"categories":[],"categories_nodes":[],"categories_segments":[],"categories_sizes":[],"default_left":[0,0,0,0,0,0,0,0,0,0,0],"id":36,"left_children":[1,3,5,-1,7,9,-1,-1,-1,-1,-1],"loss_changes":[2.632944E1,6.2463055E0,1.8794508E0,0E0,2.7291698E0,3.8552191E0,0E0,0E0,0E0,0E0,0E0],"parents":[2147483647,0,0,1,1,2,2,4,4,5,5],"right_children":[2,4,6,-1,8,10,-1,-1,-1,-1,-1],"split_conditions":[3.602264E1,1.9590606E-3,8.0444064E-4,-1.685705E-2,-1.3037195E-4,3.8278145E-1,-2.4708683E-2,3.5814535E-2,9.41525E-2,-1.6663646E-2,4.9500793E-2],"split_indices":[10,18,17,0,12,19,0,0,0,0,0],"split_type":[0,0,0,0,0,0,0,0,0,0,0],"sum_hessian":[5.3848026E1,1.3669919E1,4.017811E1,1.9426113E0,1.1727308E1,9.417688E0,3.076042E1,5.4379864E0,6.2893214E0,7.4387913E0,1.9788969E0],"tree_param":{"num_deleted":"0","num_feature":"32","num_nodes":"11","size_leaf_vector":"1"}},{"base_weights":[-6.973974E-3,3.9879987E-1,-5.168229E-1,-3.2799568E-2,4.2855644E-1,2.2067057E-2,-6.4506626E-1,2.4460103E-2,-3.1807653E-3,-2.2369126E-2,-5.8636587E-2],"categories":[],"categories_nodes":[],"categories_segments":[],"categories_sizes":[],"default_left":[0,0,0,0,0,0,0,0,0,0,0],"id":37,"left_children":[1,3,5,-1,7,-1,9,-1,-1,-1,-1],"loss_changes":[2.3231415E1,2.2440023E0,6.3989086E0,0E0,1.8645906E0,0E0,4.0953617E0,0E0,0E0,0E0,0E0],"parents":[2147483647,0,0,1,1,2,2,4,4,6,6],"right_children":[2,4,6,-1,8,-1,10,-1,-1,-1,-1],"split_conditions":[1.8632839E-3,1.0423144E0,7.659002E-4,-3.2799568E-2,1E0,2.2067057E-2,6.3483246E1,2.4460103E-2,-3.1807653E-3,-2.2369126E-2,-5.8636587E-2],"split_indices":[15,31,14,0,16,0,25,0,0,0,0],"split_type":[0,0,0,0,0,0,0,0,0,0,0],"sum_hessian":[1.102961E2,6.1537785E1,4.8758316E1,1.110988E0,6.0426796E1,5.4674087E0,4.3290905E1,5.380318E1,6.6236157E0,3.2836826E1,1.0454081E1],"tree_param":{"num_deleted":"0","num_feature":"32","num_nodes":"11","size_leaf_vector":"1"}},{"base_weights":[-7.9036495E-3,-2.9935032E-1,8.8073623E-1,-3.7203887E-1,6.161607E-1,-1.8819764E-2,1.1753435E0,3.1048683E-2,-2.0648573E-2,5.3703338E-2,-1.4364135E-2,7.91044E-2,-1.8838402E-2],"categories":[],"categories_nodes":[],"categories_segments":[],"categories_sizes":[],"default_left":[0,0,0,0,0,0,0,0,0,0,0,0,0],"id":38,"left_children":[1,3,5,7,9,-1,11,-1,-1,-1,-1,-1,-1],"loss_changes":[1.6405825E1,3.4022384E0,6.2372856E0,2.07728E0,1.915215E0,0E0,8.751753E0,0E0,0E0,0E0,0E0,0E0,0E0],"parents":[2147483647,0,0,1,1,2,2,3,3,4,4,6,6],"right_children":[2,4,6,8,10,-1,12,-1,-1,-1,-1,-1,-1],"split_conditions":[6.371109E1,5.370066E-4,1.4738245E-3,1.0393147E0,-7.902112E-5,-1.8819764E-2,3.640392E-4,3.1048683E-2,-2.0648573E-2,5.3703338E-2,-1.4364135E-2,7.91044E-2,-1.8838402E-2],"split_indices":[25,13,15,26,12,0,12,0,0,0,0,0,0],"split_type":[0,0,0,0,0,0,0,0,0,0,0,0,0],"sum_hessian":[6.132714E1,4.66805E1,1.4646638E1,4.3796806E1,2.883695E0,2.7280483E0,1.191859E1,1.1728616E0,4.2623943E1,1.7883959E0,1.0952991E0,9.428464E0,2.4901252E0],"tree_param":{"num_deleted":"0","num_feature":"32","num_nodes":"13","size_leaf_vector":"1"}},{"base_weights":[1.2322501E-2,9.036024E-1,-4.1314933E-1,-1.8096382E-2,1.143467E0,-4.6519315E-1,1.712678E-2,3.2036626E-3,7.200185E-2,-1.260633E-4,-2.4699742E-2],"categories":[],"categories_nodes":[],"categories_segments":[],"categories_sizes":[],"default_left":[0,0,0,0,0,0,0,0,0,0,0],"id":39,"left_children":[1,3,5,-1,7,9,-1,-1,-1,-1,-1],"loss_changes":[1.9872992E1,5.552779E0,1.5552039E0,0E0,4.5404816E0,4.4689035E-1,0E0,0E0,0E0,0E0,0E0],"parents":[2147483647,0,0,1,1,2,2,4,4,5,5],"right_children":[2,4,6,-1,8,10,-1,-1,-1,-1,-1],"split_conditions":[3.996474E1,1.3946791E-3,1.043456E0,-1.8096382E-2,1.0428916E0,4.0861553E1,1.712678E-2,3.2036626E-3,7.200185E-2,-1.260633E-4,-2.4699742E-2],"split_indices":[10,15,31,0,31,29,0,0,0,0,0],"split_type":[0,0,0,0,0,0,0,0,0,0,0],"sum_hessian":[5.042121E1,1.5929104E1,3.4492107E1,2.4570062E0,1.3472097E1,3.2629345E1,1.8627647E0,3.165828E0,1.030627E1,1.9759018E0,3.0653442E1],"tree_param":{"num_deleted":"0","num_feature":"32","num_nodes":"11","size_leaf_vector":"1"}},{"base_weights":[-2.4041722E-2,3.7634706E-1,-4.8722133E-1,4.5040262E-1,-1.662304E-1,-1.2602656E-1,-7.905153E-1,-2.0131301E-2,2.5291706E-2,-3.426466E-2,2.0183943E-2,1.2183071E-2,-3.087878E-2,-4.9082257E-2,6.8242685E-3],"categories":[],"categories_nodes":[],"categories_segments":[],"categories_sizes":[],"default_left":[0,0,0,0,0,0,0,0,0,0,0,0,0,0,0],"id":40,"left_children":[1,3,5,7,9,11,13,-1,-1,-1,-1,-1,-1,-1,-1],"loss_changes":[2.056461E1,2.4660301E0,5.530114E0,2.6923714E0,2.6069083E0,4.629135E0,5.049696E0,0E0,0E0,0E0,0E0,0E0,0E0,0E0,0E0],"parents":[2147483647,0,0,1,1,2,2,3,3,4,4,5,5,6,6],"right_children":[2,4,6,8,10,12,14,-1,-1,-1,-1,-1,-1,-1,-1],"split_conditions":[1.8632839E-3,1E0,8.1535726E-4,1.0409338E0,-8.040147E-6,1.0421621E0,1E0,-2.0131301E-2,2.5291706E-2,-3.426466E-2,2.0183943E-2,1.2183071E-2,-3.087878E-2,-4.9082257E-2,6.8242685E-3],"split_indices":[15,16,14,30,12,8,9,0,0,0,0,0,0,0,0],"split_type":[0,0,0,0,0,0,0,0,0,0,0,0,0,0,0],"sum_hessian":[1.0890041E2,5.850988E1,5.0390533E1,5.163252E1,6.877359E0,2.3645948E1,2.6744585E1,2.7682805E0,4.886424E1,3.493282E0,3.3840766E0,1.3783697E1,9.86225E0,2.2124077E1,4.620508E0],"tree_param":{"num_deleted":"0","num_feature":"32","num_nodes":"15","size_leaf_vector":"1"}},{"base_weights":[7.7880397E-3,-2.4560975E-2,4.5012158E-1,9.497007E-1,-4.0002543E-1,1.1968105E-1,3.2763254E-2,1.1635662E-2,-2.3642154E-2],"categories":[],"categories_nodes":[],"categories_segments":[],"categories_sizes":[],"default_left":[0,0,0,0,0,0,0,0,0],"id":41,"left_children":[1,-1,3,5,7,-1,-1,-1,-1],"loss_changes":[1.3821353E1,0E0,1.4473822E1,7.4437313E0,7.0837307E-1,0E0,0E0,0E0,0E0],"parents":[2147483647,0,0,2,2,3,3,4,4],"right_children":[2,-1,4,6,8,-1,-1,-1,-1],"split_conditions":[7.7013345E-4,-2.4560975E-2,1.1322978E-3,-7.902112E-5,-4.0739335E-4,1.1968105E-1,3.2763254E-2,1.1635662E-2,-2.3642154E-2],"split_indices":[14,0,18,12,12,0,0,0,0],"split_type":[0,0,0,0,0,0,0,0,0],"sum_hessian":[6.0615463E1,2.8431105E1,3.2184357E1,2.0198084E1,1.1986274E1,2.2134995E0,1.7984585E1,1.010432E0,1.0975842E1],"tree_param":{"num_deleted":"0","num_feature":"32","num_nodes":"9","size_leaf_vector":"1"}},{"base_weights":[5.282203E-2,7.734547E-1,-3.3159775E-1,-1.9996153E-2,1.069354E0,-4.6680665E-1,9.7681455E-2,2.1692254E-2,7.840202E-2,1.2111156E-2,-2.4749698E-2],"categories":[],"categories_nodes":[],"categories_segments":[],"categories_sizes":[],"default_left":[0,0,0,0,0,0,0,0,0,0,0],"id":42,"left_children":[1,3,5,-1,7,9,-1,-1,-1,-1,-1],"loss_changes":[1.5234893E1,7.062413E0,1.2022848E1,0E0,4.24242E0,8.1455755E-1,0E0,0E0,0E0,0E0,0E0],"parents":[2147483647,0,0,1,1,2,2,4,4,5,5],"right_children":[2,4,6,-1,8,10,-1,-1,-1,-1,-1],"split_conditions":[3.996474E1,1.5738141E-3,7.594871E-4,-1.9996153E-2,-1.2404779E-4,-4.1189734E-4,9.7681455E-2,2.1692254E-2,7.840202E-2,1.2111156E-2,-2.4749698E-2],"split_indices":[10,15,12,0,12,13,0,0,0,0,0],"split_type":[0,0,0,0,0,0,0,0,0,0,0],"sum_hessian":[5.3068737E1,1.8109219E1,3.495952E1,3.5762365E0,1.4532983E1,3.3757908E1,1.2016094E0,7.212101E0,7.3208814E0,1.0003961E0,3.2757515E1],"tree_param":{"num_deleted":"0","num_feature":"32","num_nodes":"11","size_leaf_vector":"1"}},{"base_weights":[-1.5421363E-2,3.6243936E-1,-5.683882E-1,-4.4457474E-1,4.302807E-1,2.001332E-2,-6.5236396E-1,1.8468507E-2,-5.9533674E-2,-2.8514428E-2,2.2967303E-2,-3.650813E-2,1.9725999E-2],"categories":[],"categories_nodes":[],"categories_segments":[],"categories_sizes":[],"default_left":[0,0,0,0,0,0,0,0,0,0,0,0,0],"id":43,"left_children":[1,3,5,7,9,-1,11,-1,-1,-1,-1,-1,-1],"loss_changes":[2.3014387E1,3.775054E0,3.8973246E0,3.8210502E0,2.0327673E0,0E0,3.6693764E0,0E0,0E0,0E0,0E0,0E0,0E0],"parents":[2147483647,0,0,1,1,2,2,3,3,4,4,6,6],"right_children":[2,4,6,8,10,-1,12,-1,-1,-1,-1,-1,-1],"split_conditions":[2.0565211E-3,1.0409939E0,7.6892955E-4,1.0408247E0,-6.8905123E-4,2.001332E-2,7.414183E-1,1.8468507E-2,-5.9533674E-2,-2.8514428E-2,2.2967303E-2,-3.650813E-2,1.9725999E-2],"split_indices":[15,30,14,27,13,0,21,0,0,0,0,0,0],"split_type":[0,0,0,0,0,0,0,0,0,0,0,0,0],"sum_hessian":[1.0816001E2,6.445815E1,4.370186E1,4.5678315E0,5.9890324E1,3.1859283E0,4.051593E1,2.4260745E0,2.141757E0,1.1649885E0,5.8725338E1,3.7994896E1,2.5210364E0],"tree_param":{"num_deleted":"0","num_feature":"32","num_nodes":"13","size_leaf_vector":"1"}},{"base_weights":[5.7716776E-2,-3.7916255E-1,6.161292E-1,2.0753431E-1,-2.4622906E-2,-2.9338184E-1,8.8963383E-1,-2.0713866E-2,8.1665E-2,1.2109245E-2,-2.1334909E-2,5.351792E-2,-1.8610954E-2],"categories":[],"categories_nodes":[],"categories_segments":[],"categories_sizes":[],"default_left":[0,0,0,0,0,0,0,0,0,0,0,0,0],"id":44,"left_children":[1,3,5,7,-1,9,11,-1,-1,-1,-1,-1,-1],"loss_changes":[1.4749352E1,2.3623323E0,6.8526716E0,6.1793785E0,0E0,5.944481E-1,5.1008186E0,0E0,0E0,0E0,0E0,0E0,0E0],"parents":[2147483647,0,0,1,1,2,2,3,3,5,5,6,6],"right_children":[2,4,6,8,-1,10,12,-1,-1,-1,-1,-1,-1],"split_conditions":[5.779556E1,-2.458643E-4,1.4676042E-3,4.9194656E1,-2.4622906E-2,8.693962E-2,3.640392E-4,-2.0713866E-2,8.1665E-2,1.2109245E-2,-2.1334909E-2,5.351792E-2,-1.8610954E-2],"split_indices":[10,12,15,10,0,20,12,0,0,0,0,0,0],"split_type":[0,0,0,0,0,0,0,0,0,0,0,0,0],"sum_hessian":[5.8500774E1,3.3002193E1,2.5498585E1,5.2068605E0,2.7795332E1,5.878286E0,1.9620298E1,4.119625E0,1.0872353E0,1.0088505E0,4.869436E0,1.7295034E1,2.3252645E0],"tree_param":{"num_deleted":"0","num_feature":"32","num_nodes":"13","size_leaf_vector":"1"}},{"base_weights":[-7.4394606E-4,8.732656E-1,-3.452105E-1,-1.6657434E-2,1.0706217E0,-4.1713786E-1,4.970778E-2,2.2405831E-2,6.980325E-2,9.996227E-3,-2.3382572E-2],"categories":[],"categories_nodes":[],"categories_segments":[],"categories_sizes":[],"default_left":[0,0,0,0,0,0,0,0,0,0,0],"id":45,"left_children":[1,3,5,-1,7,9,-1,-1,-1,-1,-1],"loss_changes":[1.623342E1,3.986042E0,4.140521E0,0E0,2.0764875E0,1.2595091E0,0E0,0E0,0E0,0E0,0E0],"parents":[2147483647,0,0,1,1,2,2,4,4,5,5],"right_children":[2,4,6,-1,8,10,-1,-1,-1,-1,-1],"split_conditions":[3.602264E1,7.166587E-4,7.594871E-4,-1.6657434E-2,-1.3037195E-4,4.0861553E1,4.970778E-2,2.2405831E-2,6.980325E-2,9.996227E-3,-2.3382572E-2],"split_indices":[10,14,12,0,12,29,0,0,0,0,0],"split_type":[0,0,0,0,0,0,0,0,0,0,0],"sum_hessian":[5.191831E1,1.4243464E1,3.7674843E1,1.9057546E0,1.233771E1,3.6408188E1,1.2666569E0,5.0517364E0,7.2859735E0,2.5310938E0,3.3877094E1],"tree_param":{"num_deleted":"0","num_feature":"32","num_nodes":"11","size_leaf_vector":"1"}},{"base_weights":[-3.44976E-3,4.4177416E-1,-3.3395186E-1,-1.1007986E-2,4.610343E-1,3.5747185E-1,-4.4572917E-1,-9.824841E-3,2.4095325E-2,-1.1541869E-2,2.2781134E-2,-1.0650486E-2,-3.6698397E-2],"categories":[],"categories_nodes":[],"categories_segments":[],"categories_sizes":[],"default_left":[0,0,0,0,0,0,0,0,0,0,0,0,0],"id":46,"left_children":[1,3,5,-1,7,9,11,-1,-1,-1,-1,-1,-1],"loss_changes":[1.6266848E1,7.0201206E-1,5.0625176E0,0E0,7.272978E-1,6.470294E-1,3.5369186E0,0E0,0E0,0E0,0E0,0E0,0E0],"parents":[2147483647,0,0,1,1,2,2,4,4,5,5,6,6],"right_children":[2,4,6,-1,8,10,12,-1,-1,-1,-1,-1,-1],"split_conditions":[1.5830791E-3,1.040842E0,7.532808E-4,-1.1007986E-2,1.0430896E-2,3.6909324E-1,3.8700166E-1,-9.824841E-3,2.4095325E-2,-1.1541869E-2,2.2781134E-2,-1.0650486E-2,-3.6698397E-2],"split_indices":[15,27,14,0,20,21,19,0,0,0,0,0,0],"split_type":[0,0,0,0,0,0,0,0,0,0,0,0,0],"sum_hessian":[1.0854534E2,4.6102863E1,6.244248E1,1.0085932E0,4.5094273E1,8.3839E0,5.405858E1,1.1285216E0,4.3965748E1,1.0054482E0,7.378452E0,3.0872007E1,2.3186571E1],"tree_param":{"num_deleted":"0","num_feature":"32","num_nodes":"13","size_leaf_vector":"1"}},{"base_weights":[-5.53273E-3,-3.4353027E-1,5.871304E-1,2.243712E-1,-4.646811E-1,8.315611E-1,-4.2283177E-2,-1.9873774E-2,4.341499E-2,-2.4694717E-2,-8.226065E-3,5.1551055E-2,7.7865617E-3,-2.1905174E-2,4.5703974E-2],"categories":[],"categories_nodes":[],"categories_segments":[],"categories_sizes":[],"default_left":[0,0,0,0,0,0,0,0,0,0,0,0,0,0,0],"id":47,"left_children":[1,3,5,7,9,11,13,-1,-1,-1,-1,-1,-1,-1,-1],"loss_changes":[1.2003888E1,2.7290764E0,3.3839154E0,3.3010952E0,1.973095E-1,1.959383E0,3.0654943E0,0E0,0E0,0E0,0E0,0E0,0E0,0E0,0E0],"parents":[2147483647,0,0,1,1,2,2,3,3,4,4,5,5,6,6],"right_children":[2,4,6,8,10,12,14,-1,-1,-1,-1,-1,-1,-1,-1],"split_conditions":[6.0768612E1,3.369185E-1,2.2755226E-4,2.1043776E-4,1.0438787E0,1.0430226E0,3.7954682E-3,-1.9873774E-2,4.341499E-2,-2.4694717E-2,-8.226065E-3,5.1551055E-2,7.7865617E-3,-2.1905174E-2,4.5703974E-2],"split_indices":[10,21,12,13,27,7,17,0,0,0,0,0,0,0,0],"split_type":[0,0,0,0,0,0,0,0,0,0,0,0,0,0,0],"sum_hessian":[5.7917072E1,3.7150433E1,2.076664E1,6.382077E0,3.0768356E1,1.4726488E1,6.0401506E0,3.441413E0,2.9406645E0,2.7451212E1,3.3171434E0,1.0964836E1,3.7616522E0,4.655312E0,1.3848386E0],"tree_param":{"num_deleted":"0","num_feature":"32","num_nodes":"15","size_leaf_vector":"1"}},{"base_weights":[-1.8671947E-2,7.2820747E-1,-3.631738E-1,-1.7731458E-2,9.242059E-1,-4.3888593E-1,4.4644717E-2,5.2398205E-2,-1.4140415E-2,5.330093E-3,-2.4691403E-2],"categories":[],"categories_nodes":[],"categories_segments":[],"categories_sizes":[],"default_left":[0,0,0,0,0,0,0,0,0,0,0],"id":48,"left_children":[1,3,5,-1,7,9,-1,-1,-1,-1,-1],"loss_changes":[1.3762713E1,3.9128933E0,3.869524E0,0E0,2.4744081E0,1.1063972E0,0E0,0E0,0E0,0E0,0E0],"parents":[2147483647,0,0,1,1,2,2,4,4,5,5],"right_children":[2,4,6,-1,8,10,-1,-1,-1,-1,-1],"split_conditions":[3.7071587E1,7.325662E-4,7.594871E-4,-1.7731458E-2,4.9395374E1,3.996474E1,4.4644717E-2,5.2398205E-2,-1.4140415E-2,5.330093E-3,-2.4691403E-2],"split_indices":[10,14,12,0,29,10,0,0,0,0,0],"split_type":[0,0,0,0,0,0,0,0,0,0,0],"sum_hessian":[5.146085E1,1.58923855E1,3.5568462E1,2.3116755E0,1.358071E1,3.4159985E1,1.4084761E0,1.2437259E1,1.1434516E0,3.039761E0,3.1120226E1],"tree_param":{"num_deleted":"0","num_feature":"32","num_nodes":"11","size_leaf_vector":"1"}},{"base_weights":[-2.3063777E-2,3.7542334E-1,-5.063334E-1,-2.3502623E-1,4.3247378E-1,-7.564833E-1,-1.5842457E-1,-3.5397194E-2,1.7712066E-2,-2.3980392E-2,2.3360832E-2,1.3406815E-2,-4.029238E-2,4.8466637E-3,-3.9698955E-2],"categories":[],"categories_nodes":[],"categories_segments":[],"categories_sizes":[],"default_left":[0,0,0,0,0,0,0,0,0,0,0,0,0,0,0],"id":49,"left_children":[1,3,5,7,9,11,13,-1,-1,-1,-1,-1,-1,-1,-1],"loss_changes":[2.0455679E1,2.130293E0,4.0561256E0,1.8187447E0,1.9233313E0,1.6145287E0,3.539492E0,0E0,0E0,0E0,0E0,0E0,0E0,0E0,0E0],"parents":[2147483647,0,0,1,1,2,2,3,3,4,4,5,5,6,6],"right_children":[2,4,6,8,10,12,14,-1,-1,-1,-1,-1,-1,-1,-1],"split_conditions":[1.9677093E-3,-3.7405497E-4,4.5777076E-1,3.7071587E1,1.0423144E0,7.621496E-4,6.478737E1,-3.5397194E-2,1.7712066E-2,-2.3980392E-2,2.3360832E-2,1.3406815E-2,-4.029238E-2,4.8466637E-3,-3.9698955E-2],"split_indices":[15,13,21,10,31,14,25,0,0,0,0,0,0,0,0],"split_type":[0,0,0,0,0,0,0,0,0,0,0,0,0,0,0],"sum_hessian":[1.0423385E2,5.7250366E1,4.698348E1,4.626489E0,5.262388E1,2.664854E1,2.0334938E1,2.454905E0,2.1715841E0,1.4611346E0,5.1162743E1,1.0211637E0,2.5627377E1,1.5111007E1,5.2239313E0],"tree_param":{"num_deleted":"0","num_feature":"32","num_nodes":"15","size_leaf_vector":"1"}},{"base_weights":[6.1747655E-3,-3.9045772E-1,6.472845E-1,-2.4655906E-2,3.5286896E-2,-2.851012E-1,9.799046E-1,-2.086936E-2,3.1598806E-2,1.2265364E-2,-2.1033827E-2,-7.6175726E-4,5.4305054E-2],"categories":[],"categories_nodes":[],"categories_segments":[],"categories_sizes":[],"default_left":[0,0,0,0,0,0,0,0,0,0,0,0,0],"id":50,"left_children":[1,3,5,-1,7,9,11,-1,-1,-1,-1,-1,-1],"loss_changes":[1.5052511E1,1.6162167E0,7.294919E0,0E0,2.4354713E0,5.8662355E-1,1.8024006E0,0E0,0E0,0E0,0E0,0E0,0E0],"parents":[2147483647,0,0,1,1,2,2,4,4,5,5,6,6],"right_children":[2,4,6,-1,8,10,12,-1,-1,-1,-1,-1,-1],"split_conditions":[6.0768612E1,2.1073733E-4,7.6892955E-4,-2.4655906E-2,2.5349148E-3,1.7559509E-3,8.2135856E-2,-2.086936E-2,3.1598806E-2,1.2265364E-2,-2.1033827E-2,-7.6175726E-4,5.4305054E-2],"split_indices":[10,13,14,0,15,17,20,0,0,0,0,0,0],"split_type":[0,0,0,0,0,0,0,0,0,0,0,0,0],"sum_hessian":[5.7201534E1,3.5580235E1,2.1621298E1,2.8540077E1,7.0401573E0,5.7226596E0,1.5898639E1,4.1740437E0,2.8661137E0,1.0002038E0,4.7224555E0,1.61562E0,1.4283019E1],"tree_param":{"num_deleted":"0","num_feature":"32","num_nodes":"13","size_leaf_vector":"1"}},{"base_weights":[4.290844E-2,-3.405764E-1,5.767813E-1,-2.4618752E-2,6.277719E-2,8.405308E-1,-2.784445E-1,1.1241553E-2,6.691416E-2,-2.084898E-2,1.0139603E-2],"categories":[],"categories_nodes":[],"categories_segments":[],"categories_sizes":[],"default_left":[0,0,0,0,0,0,0,0,0,0,0],"id":51,"left_children":[1,3,5,-1,-1,7,9,-1,-1,-1,-1],"loss_changes":[1.1026295E1,8.229341E0,5.3056946E0,0E0,0E0,5.041847E0,4.8795745E-1,0E0,0E0,0E0,0E0],"parents":[2147483647,0,0,1,1,2,2,5,5,6,6],"right_children":[2,4,6,-1,-1,8,10,-1,-1,-1,-1],"split_conditions":[1.9590606E-3,9.0943027E-4,4.3236588E1,-2.4618752E-2,6.277719E-2,-1.6288219E-4,1.0433459E0,1.1241553E-2,6.691416E-2,-2.084898E-2,1.0139603E-2],"split_indices":[18,14,25,0,0,12,26,0,0,0,0],"split_type":[0,0,0,0,0,0,0,0,0,0,0],"sum_hessian":[5.1897686E1,3.0413504E1,2.1484184E1,2.8403694E1,2.0098088E0,1.643336E1,5.050825E0,7.9952493E0,8.438108E0,4.0255127E0,1.0253124E0],"tree_param":{"num_deleted":"0","num_feature":"32","num_nodes":"11","size_leaf_vector":"1"}},{"base_weights":[-6.403969E-3,3.925503E-1,-3.8567996E-1,4.5657045E-1,8.347206E-2,2.1183237E-2,-4.6321595E-1,2.5007073E-2,3.7266489E-3,2.1040788E-2,-1.27823595E-2,-4.0256534E-2,-1.511022E-2],"categories":[],"categories_nodes":[],"categories_segments":[],"categories_sizes":[],"default_left":[0,0,0,0,0,0,0,0,0,0,0,0,0],"id":52,"left_children":[1,3,5,7,9,-1,11,-1,-1,-1,-1,-1,-1],"loss_changes":[1.624073E1,9.9709225E-1,3.6485739E0,6.8041897E-1,1.2745467E0,0E0,2.5468569E0,0E0,0E0,0E0,0E0,0E0,0E0],"parents":[2147483647,0,0,1,1,2,2,3,3,4,4,6,6],"right_children":[2,4,6,8,10,-1,12,-1,-1,-1,-1,-1,-1],"split_conditions":[1.8632839E-3,1.5597808E-3,7.621496E-4,1E0,7.532808E-4,2.1183237E-2,4.0364682E-4,2.5007073E-2,3.7266489E-3,2.1040788E-2,-1.27823595E-2,-4.0256534E-2,-1.511022E-2],"split_indices":[15,15,14,16,14,0,17,0,0,0,0,0,0],"split_type":[0,0,0,0,0,0,0,0,0,0,0,0,0],"sum_hessian":[1.0533091E2,5.1316704E1,5.4014206E1,4.2115925E1,9.200779E0,4.331942E0,4.9682262E1,3.7526882E1,4.5890436E0,4.491694E0,4.709085E0,1.4625004E1,3.505726E1],"tree_param":{"num_deleted":"0","num_feature":"32","num_nodes":"13","size_leaf_vector":"1"}},{"base_weights":[1.8012336E-2,-4.478223E-1,3.5934484E-1,1.1997546E-2,-2.4321213E-2,7.8940076E-1,-4.027293E-1,5.521188E-2,8.368681E-3,-2.370726E-2,1.1511783E-2],"categories":[],"categories_nodes":[],"categories_segments":[],"categories_sizes":[],"default_left":[0,0,0,0,0,0,0,0,0,0,0],"id":53,"left_children":[1,3,5,-1,-1,7,9,-1,-1,-1,-1],"loss_changes":[9.522255E0,7.895303E-1,1.1635473E1,0E0,0E0,4.2044764E0,7.0222497E-1,0E0,0E0,0E0,0E0],"parents":[2147483647,0,0,1,1,2,2,5,5,6,6],"right_children":[2,4,6,-1,-1,8,10,-1,-1,-1,-1],"split_conditions":[7.6892955E-4,3.034134E-2,1.0752516E-3,1.1997546E-2,-2.4321213E-2,1.043083E0,3.4756796E-3,5.521188E-2,8.368681E-3,-2.370726E-2,1.1511783E-2],"split_indices":[14,20,18,0,0,31,15,0,0,0,0],"split_type":[0,0,0,0,0,0,0,0,0,0,0],"sum_hessian":[5.7874634E1,2.4341927E1,3.3532707E1,1.016413E0,2.3325514E1,2.1413E1,1.2119705E1,1.370237E1,7.71063E0,1.1116385E1,1.0033199E0],"tree_param":{"num_deleted":"0","num_feature":"32","num_nodes":"11","size_leaf_vector":"1"}},{"base_weights":[-2.6093286E-2,4.870815E-1,-3.687074E-1,-2.115812E-2,8.089384E-1,-2.461736E-2,6.698592E-1,7.638519E-3,5.108062E-2,6.811052E-2,-1.6299793E-2],"categories":[],"categories_nodes":[],"categories_segments":[],"categories_sizes":[],"default_left":[0,0,0,0,0,0,0,0,0,0,0],"id":54,"left_children":[1,3,5,-1,7,-1,9,-1,-1,-1,-1],"loss_changes":[8.838629E0,6.244948E0,4.1950803E0,0E0,1.9689999E0,0E0,2.944093E0,0E0,0E0,0E0,0E0],"parents":[2147483647,0,0,1,1,2,2,4,4,6,6],"right_children":[2,4,6,-1,8,-1,10,-1,-1,-1,-1],"split_conditions":[4.3236588E1,1.7000643E-3,3.5832569E-3,-2.115812E-2,1.0429325E0,-2.461736E-2,1.0454E0,7.638519E-3,5.108062E-2,6.811052E-2,-1.6299793E-2],"split_indices":[25,15,15,0,31,0,3,0,0,0,0],"split_type":[0,0,0,0,0,0,0,0,0,0,0],"sum_hessian":[4.824919E1,1.9147697E1,2.9101496E1,4.9196563E0,1.4228041E1,2.6475555E1,2.6259396E0,3.9033322E0,1.0324708E1,1.3320054E0,1.2939341E0],"tree_param":{"num_deleted":"0","num_feature":"32","num_nodes":"11","size_leaf_vector":"1"}},{"base_weights":[-3.364944E-2,4.5136806E-1,-3.3199367E-1,2.4921287E-2,4.4902157E-2,-8.3863664E-1,-1.4679037E-1,1.9702071E-2,-3.275469E-2,-4.541176E-2,-1.0223797E-3,2.3176542E-2,-1.4690721E-2],"categories":[],"categories_nodes":[],"categories_segments":[],"categories_sizes":[],"default_left":[0,0,0,0,0,0,0,0,0,0,0,0,0],"id":55,"left_children":[1,3,5,-1,7,9,11,-1,-1,-1,-1,-1,-1],"loss_changes":[1.5140411E1,7.4038696E-1,5.949467E0,0E0,1.5379874E0,9.558859E-1,4.497626E0,0E0,0E0,0E0,0E0,0E0,0E0],"parents":[2147483647,0,0,1,1,2,2,4,4,5,5,6,6],"right_children":[2,4,6,-1,8,10,12,-1,-1,-1,-1,-1,-1],"split_conditions":[1.5597808E-3,2.5879545E-4,4.0364682E-4,2.4921287E-2,5.000828E-1,5.7586706E-1,7.659002E-4,1.9702071E-2,-3.275469E-2,-4.541176E-2,-1.0223797E-3,2.3176542E-2,-1.4690721E-2],"split_indices":[15,13,17,0,21,21,14,0,0,0,0,0,0],"split_type":[0,0,0,0,0,0,0,0,0,0,0,0,0],"sum_hessian":[1.0259595E2,3.8878445E1,6.3717503E1,3.4641647E1,4.2367997E0,1.6112335E1,4.7605167E1,3.1184704E0,1.1183292E0,1.4747773E1,1.3645627E0,8.823713E0,3.8781452E1],"tree_param":{"num_deleted":"0","num_feature":"32","num_nodes":"13","size_leaf_vector":"1"}},{"base_weights":[6.292764E-4,-3.514043E-1,4.9089342E-1,2.6733887E-1,-2.4631916E-2,-2.9549152E-1,7.680353E-1,-1.3192922E-2,8.42719E-2,-2.1240117E-2,1.1939686E-2,-5.873629E-3,4.4611458E-2],"categories":[],"categories_nodes":[],"categories_segments":[],"categories_sizes":[],"default_left":[0,0,0,0,0,0,0,0,0,0,0,0,0],"id":56,"left_children":[1,3,5,7,-1,9,11,-1,-1,-1,-1,-1,-1],"loss_changes":[1.0050945E1,3.0939407E0,5.531381E0,5.6784086E0,0E0,5.8952427E-1,2.1145287E0,0E0,0E0,0E0,0E0,0E0,0E0],"parents":[2147483647,0,0,1,1,2,2,3,3,5,5,6,6],"right_children":[2,4,6,8,-1,10,12,-1,-1,-1,-1,-1,-1],"split_conditions":[6.0255997E1,-2.3902385E-4,7.6892955E-4,1.04448E0,-2.4631916E-2,2.5879545E-4,8.2135856E-2,-1.3192922E-2,8.42719E-2,-2.1240117E-2,1.1939686E-2,-5.873629E-3,4.4611458E-2],"split_indices":[10,12,14,1,0,13,20,0,0,0,0,0,0],"split_type":[0,0,0,0,0,0,0,0,0,0,0,0,0],"sum_hessian":[5.6236664E1,3.2897724E1,2.3338938E1,5.9477735E0,2.6949951E1,6.064584E0,1.7274355E1,4.919094E0,1.0286793E0,5.0478005E0,1.0167834E0,2.1314116E0,1.5142943E1],"tree_param":{"num_deleted":"0","num_feature":"32","num_nodes":"13","size_leaf_vector":"1"}},{"base_weights":[3.4110073E-2,5.925502E-1,-3.15949E-1,-3.1917725E-2,9.3665045E-1,-4.5888045E-1,9.7770214E-1,-1.6391506E-2,3.9909992E-2,-1.6854463E-2,5.962019E-2,1.1803507E-2,-2.4590362E-2,6.9105804E-2,5.6683104E-3],"categories":[],"categories_nodes":[],"categories_segments":[],"categories_sizes":[],"default_left":[0,0,0,0,0,0,0,0,0,0,0,0,0,0,0],"id":57,"left_children":[1,3,5,7,9,11,13,-1,-1,-1,-1,-1,-1,-1,-1],"loss_changes":[1.0176246E1,4.3353724E0,6.3769245E0,2.247794E0,4.6209965E0,7.92326E-1,1.0700068E0,0E0,0E0,0E0,0E0,0E0,0E0,0E0,0E0],"parents":[2147483647,0,0,1,1,2,2,3,3,4,4,5,5,6,6],"right_children":[2,4,6,8,10,12,14,-1,-1,-1,-1,-1,-1,-1,-1],"split_conditions":[3.996474E1,-1.5936466E-4,7.594871E-4,5.058906E-1,1.7821105E-3,-4.222744E-4,1.04566E0,-1.6391506E-2,3.9909992E-2,-1.6854463E-2,5.962019E-2,1.1803507E-2,-2.4590362E-2,6.9105804E-2,5.6683104E-3],"split_indices":[10,12,12,19,18,13,1,0,0,0,0,0,0,0,0],"split_type":[0,0,0,0,0,0,0,0,0,0,0,0,0,0,0],"sum_hessian":[5.0098167E1,1.90367E1,3.1061468E1,7.0854225E0,1.1951278E1,2.8552116E1,2.5093513E0,5.669495E0,1.4159275E0,1.9452481E0,1.0006029E1,1.0125126E0,2.7539604E1,1.3013932E0,1.2079582E0],"tree_param":{"num_deleted":"0","num_feature":"32","num_nodes":"15","size_leaf_vector":"1"}},{"base_weights":[-5.501344E-2,4.506715E-1,-3.6177436E-1,-1.0979836E-2,4.7498375E-1,3.4689865E-1,-4.6529648E-1,-1.0401343E-2,2.4987157E-2,2.2518529E-2,-1.0586492E-2,-1.1935628E-2,-3.813067E-2],"categories":[],"categories_nodes":[],"categories_segments":[],"categories_sizes":[],"default_left":[0,0,0,0,0,0,0,0,0,0,0,0,0],"id":58,"left_children":[1,3,5,-1,7,9,11,-1,-1,-1,-1,-1,-1],"loss_changes":[1.6175283E1,7.4667454E-1,4.915533E0,0E0,7.5259304E-1,6.059011E-1,3.6558552E0,0E0,0E0,0E0,0E0,0E0,0E0],"parents":[2147483647,0,0,1,1,2,2,4,4,5,5,6,6],"right_children":[2,4,6,-1,8,10,12,-1,-1,-1,-1,-1,-1],"split_conditions":[1.5597808E-3,1.0430896E-2,7.532808E-4,-1.0979836E-2,1.0306749E-1,3.7339056E-1,3.8700166E-1,-1.0401343E-2,2.4987157E-2,2.2518529E-2,-1.0586492E-2,-1.1935628E-2,-3.813067E-2],"split_indices":[15,20,14,0,21,20,19,0,0,0,0,0,0],"split_type":[0,0,0,0,0,0,0,0,0,0,0,0,0],"sum_hessian":[1.02221954E2,3.8419533E1,6.380242E1,1.0636364E0,3.7355896E1,7.8325834E0,5.5969837E1,1.0478559E0,3.630804E1,6.7720275E0,1.060556E0,3.2786373E1,2.3183464E1],"tree_param":{"num_deleted":"0","num_feature":"32","num_nodes":"13","size_leaf_vector":"1"}},{"base_weights":[8.301342E-3,-3.5806742E-1,3.939797E-1,-4.4656533E-1,6.1851673E-2,7.062138E-1,-3.5246378E-1,-2.408929E-2,-1.2125493E-2,-2.002947E-2,3.8299363E-2,4.471944E-2,-1.9631257E-2,1.1514091E-2,-2.2755709E-2],"categories":[],"categories_nodes":[],"categories_segments":[],"categories_sizes":[],"default_left":[0,0,0,0,0,0,0,0,0,0,0,0,0,0,0],"id":59,"left_children":[1,3,5,7,9,11,13,-1,-1,-1,-1,-1,-1,-1,-1],"loss_changes":[8.146728E0,1.1268611E0,6.7927384E0,5.9619427E-2,2.269416E0,4.5133953E0,6.4005625E-1,0E0,0E0,0E0,0E0,0E0,0E0,0E0,0E0],"parents":[2147483647,0,0,1,1,2,2,3,3,4,4,5,5,6,6],"right_children":[2,4,6,8,10,12,14,-1,-1,-1,-1,-1,-1,-1,-1],"split_conditions":[2.077221E-3,2.2991194E-4,1.1322978E-3,3.0435345E-1,1.042137E0,3.640392E-4,-4.5531636E-4,-2.408929E-2,-1.2125493E-2,-2.002947E-2,3.8299363E-2,4.471944E-2,-1.9631257E-2,1.1514091E-2,-2.2755709E-2],"split_indices":[15,13,18,20,8,12,12,0,0,0,0,0,0,0,0],"split_type":[0,0,0,0,0,0,0,0,0,0,0,0,0,0,0],"sum_hessian":[5.5656956E1,2.8579716E1,2.7077238E1,2.355256E1,5.027156E0,1.912939E1,7.947847E0,1.8925005E1,4.6275554E0,3.2945504E0,1.7326055E0,1.6491327E1,2.6380627E0,1.0041174E0,6.9437294E0],"tree_param":{"num_deleted":"0","num_feature":"32","num_nodes":"15","size_leaf_vector":"1"}},{"base_weights":[2.6359791E-2,6.122515E-1,-3.467764E-1,-1.8677255E-2,7.9226667E-1,-2.4611443E-2,9.250182E-1,4.5654934E-2,-1.5625369E-2,6.5783605E-2,4.9440614E-3],"categories":[],"categories_nodes":[],"categories_segments":[],"categories_sizes":[],"default_left":[0,0,0,0,0,0,0,0,0,0,0],"id":60,"left_children":[1,3,5,-1,7,-1,9,-1,-1,-1,-1],"loss_changes":[1.1369167E1,3.8837385E0,6.3408318E0,0E0,2.6102762E0,0E0,1.0358131E0,0E0,0E0,0E0,0E0],"parents":[2147483647,0,0,1,1,2,2,4,4,6,6],"right_children":[2,4,6,-1,8,-1,10,-1,-1,-1,-1],"split_conditions":[3.996474E1,7.2133937E-4,7.594871E-4,-1.8677255E-2,4.9395374E1,-2.4611443E-2,1.04524E0,4.5654934E-2,-1.5625369E-2,6.5783605E-2,4.9440614E-3],"split_indices":[10,14,12,0,29,0,3,0,0,0,0],"split_type":[0,0,0,0,0,0,0,0,0,0,0],"sum_hessian":[5.003369E1,1.9217653E1,3.0816038E1,2.8014293E0,1.6416224E1,2.8203436E1,2.6126025E0,1.4954148E1,1.4620756E0,1.3715031E0,1.2410994E0],"tree_param":{"num_deleted":"0","num_feature":"32","num_nodes":"11","size_leaf_vector":"1"}},{"base_weights":[1.3811641E-3,3.6717442E-1,-3.861247E-1,4.1673222E-1,-3.9626654E-2,-5.740176E-2,-5.5401826E-1,-1.2612486E-2,2.4185205E-2,-3.1356838E-2,7.886625E-3,-3.028567E-2,1.6455047E-2],"categories":[],"categories_nodes":[],"categories_segments":[],"categories_sizes":[],"default_left":[0,0,0,0,0,0,0,0,0,0,0,0,0],"id":61,"left_children":[1,3,5,7,-1,9,11,-1,-1,-1,-1,-1,-1],"loss_changes":[1.4809678E1,3.4190574E0,2.7683325E0,2.4605722E0,0E0,2.3380315E0,1.7272406E0,0E0,0E0,0E0,0E0,0E0,0E0],"parents":[2147483647,0,0,1,1,2,2,3,3,5,5,6,6],"right_children":[2,4,6,8,-1,10,12,-1,-1,-1,-1,-1,-1],"split_conditions":[2.0565211E-3,3.8929903E-3,1.0423352E0,4.0364682E-4,-3.9626654E-2,2.34014E-3,7.414183E-1,-1.2612486E-2,2.4185205E-2,-3.1356838E-2,7.886625E-3,-3.028567E-2,1.6455047E-2],"split_indices":[15,17,26,17,0,15,21,0,0,0,0,0,0],"split_type":[0,0,0,0,0,0,0,0,0,0,0,0,0],"sum_hessian":[1.0247943E2,5.274361E1,4.9735825E1,5.1196487E1,1.5471233E0,1.7268095E1,3.246773E1,4.4071336E0,4.6789352E1,4.208288E0,1.3059806E1,3.096902E1,1.4987111E0],"tree_param":{"num_deleted":"0","num_feature":"32","num_nodes":"13","size_leaf_vector":"1"}},{"base_weights":[2.8238222E-2,-3.7369812E-1,5.020522E-1,-2.4547879E-2,1.858631E-1,-2.870965E-1,7.293601E-1,4.038063E-2,-1.9160619E-2,-2.103754E-2,1.2144088E-2,4.5862976E-2,5.8173464E-4],"categories":[],"categories_nodes":[],"categories_segments":[],"categories_sizes":[],"default_left":[0,0,0,0,0,0,0,0,0,0,0,0,0],"id":62,"left_children":[1,3,5,-1,7,9,11,-1,-1,-1,-1,-1,-1],"loss_changes":[1.131703E1,2.2034464E0,5.0971885E0,0E0,2.5394688E0,5.846439E-1,2.8803596E0,0E0,0E0,0E0,0E0,0E0,0E0],"parents":[2147483647,0,0,1,1,2,2,4,4,5,5,6,6],"right_children":[2,4,6,-1,8,10,12,-1,-1,-1,-1,-1,-1],"split_conditions":[5.988923E1,5.058906E-1,7.6892955E-4,-2.4547879E-2,-2.3902385E-4,1E0,1.0424939E0,4.038063E-2,-1.9160619E-2,-2.103754E-2,1.2144088E-2,4.5862976E-2,5.8173464E-4],"split_indices":[10,19,14,0,12,16,8,0,0,0,0,0,0],"split_type":[0,0,0,0,0,0,0,0,0,0,0,0,0],"sum_hessian":[5.7439594E1,3.1191309E1,2.6248285E1,2.5888763E1,5.3025455E0,5.8110256E0,2.043726E1,2.333686E0,2.9688594E0,4.805287E0,1.0057387E0,1.5976602E1,4.460659E0],"tree_param":{"num_deleted":"0","num_feature":"32","num_nodes":"13","size_leaf_vector":"1"}},{"base_weights":[4.284471E-2,6.723454E-1,-3.4404922E-1,-1.7569643E-1,8.649043E-1,-4.5798063E-1,7.4418503E-1,-1.8055115E-2,1.1241719E-2,2.1055158E-2,5.7568043E-2,1.0787784E-2,-2.4573386E-2,5.5168685E-2,4.348735E-3],"categories":[],"categories_nodes":[],"categories_segments":[],"categories_sizes":[],"default_left":[0,0,0,0,0,0,0,0,0,0,0,0,0,0,0],"id":63,"left_children":[1,3,5,7,9,11,13,-1,-1,-1,-1,-1,-1,-1,-1],"loss_changes":[1.2280182E1,3.282402E0,4.221736E0,4.063396E-1,1.5227404E0,7.592864E-1,6.942495E-1,0E0,0E0,0E0,0E0,0E0,0E0,0E0,0E0],"parents":[2147483647,0,0,1,1,2,2,3,3,4,4,5,5,6,6],"right_children":[2,4,6,8,10,12,14,-1,-1,-1,-1,-1,-1,-1,-1],"split_conditions":[3.920336E1,1.7000643E-3,7.594871E-4,4.752744E-1,-1.7044455E-4,-4.222744E-4,1.04518E0,-1.8055115E-2,1.1241719E-2,2.1055158E-2,5.7568043E-2,1.0787784E-2,-2.4573386E-2,5.5168685E-2,4.348735E-3],"split_indices":[10,15,12,19,12,23,0,0,0,0,0,0,0,0,0],"split_type":[0,0,0,0,0,0,0,0,0,0,0,0,0,0,0],"sum_hessian":[4.8471825E1,1.817011E1,3.0301714E1,3.3785086E0,1.4791602E1,2.795423E1,2.347483E0,2.3767505E0,1.001758E0,6.7711864E0,8.020415E0,1.0659101E0,2.688832E1,1.0789334E0,1.2685496E0],"tree_param":{"num_deleted":"0","num_feature":"32","num_nodes":"15","size_leaf_vector":"1"}},{"base_weights":[3.631979E-2,4.2395794E-1,-2.1054016E-1,-2.9756337E-1,4.710307E-1,2.2294337E-2,-2.8588343E-1,-3.5764076E-2,1.3330686E-2,-1.0280803E-2,2.4868881E-2,1.1283262E-2,-1.8869027E-2],"categories":[],"categories_nodes":[],"categories_segments":[],"categories_sizes":[],"default_left":[0,0,0,0,0,0,0,0,0,0,0,0,0],"id":64,"left_children":[1,3,5,7,9,-1,11,-1,-1,-1,-1,-1,-1],"loss_changes":[9.681713E0,1.4760523E0,3.1893804E0,9.02838E-1,7.6742935E-1,0E0,2.713048E0,0E0,0E0,0E0,0E0,0E0,0E0],"parents":[2147483647,0,0,1,1,2,2,3,3,4,4,6,6],"right_children":[2,4,6,8,10,-1,12,-1,-1,-1,-1,-1,-1],"split_conditions":[7.621496E-4,-3.7405497E-4,1.4738245E-3,1.042472E0,1.517341E-2,2.2294337E-2,1.04058E0,-3.5764076E-2,1.3330686E-2,-1.0280803E-2,2.4868881E-2,1.1283262E-2,-1.8869027E-2],"split_indices":[14,13,15,8,20,0,1,0,0,0,0,0,0],"split_type":[0,0,0,0,0,0,0,0,0,0,0,0,0],"sum_hessian":[9.9242645E1,3.833256E1,6.0910088E1,2.0217812E0,3.631078E1,5.7649536E0,5.5145134E1,1.007784E0,1.0139972E0,1.1058524E0,3.5204926E1,8.144412E0,4.700072E1],"tree_param":{"num_deleted":"0","num_feature":"32","num_nodes":"13","size_leaf_vector":"1"}},{"base_weights":[-3.1783294E-2,-3.5826132E-1,3.209762E-1,2.0751499E-1,-2.4421372E-2,7.6816404E-1,-6.27323E-2,-2.036261E-2,6.71973E-2,7.021802E-2,1.0535802E-2,-1.5234721E-2,3.2859758E-2],"categories":[],"categories_nodes":[],"categories_segments":[],"categories_sizes":[],"default_left":[0,0,0,0,0,0,0,0,0,0,0,0,0],"id":65,"left_children":[1,3,5,7,-1,9,11,-1,-1,-1,-1,-1,-1],"loss_changes":[6.4517484E0,2.2405849E0,4.6766243E0,4.8333545E0,0E0,4.1485205E0,2.8901312E0,0E0,0E0,0E0,0E0,0E0,0E0],"parents":[2147483647,0,0,1,1,2,2,3,3,5,5,6,6],"right_children":[2,4,6,8,-1,10,12,-1,-1,-1,-1,-1,-1],"split_conditions":[5.779556E1,-2.458643E-4,4.9525264E-5,4.9194656E1,-2.4421372E-2,1.0430785E0,3.8929903E-3,-2.036261E-2,6.71973E-2,7.021802E-2,1.0535802E-2,-1.5234721E-2,3.2859758E-2],"split_indices":[10,12,12,10,0,31,17,0,0,0,0,0,0],"split_type":[0,0,0,0,0,0,0,0,0,0,0,0,0],"sum_hessian":[5.402173E1,2.8047886E1,2.5973845E1,5.1348147E0,2.291307E1,1.153204E1,1.4441805E1,3.7486E0,1.3862149E0,4.6761E0,6.85594E0,1.1240672E1,3.201133E0],"tree_param":{"num_deleted":"0","num_feature":"32","num_nodes":"13","size_leaf_vector":"1"}},{"base_weights":[1.3869298E-2,5.4195035E-1,-3.3717263E-1,1.654687E-1,1.1533743E0,-2.4557965E-2,5.7448205E-2,-9.801222E-3,3.6992334E-2,1.4695744E-2,6.57413E-2],"categories":[],"categories_nodes":[],"categories_segments":[],"categories_sizes":[],"default_left":[0,0,0,0,0,0,0,0,0,0,0],"id":66,"left_children":[1,3,5,7,9,-1,-1,-1,-1,-1,-1],"loss_changes":[9.302608E0,4.419381E0,7.4681334E0,2.9611568E0,6.4939976E-1,0E0,0E0,0E0,0E0,0E0,0E0],"parents":[2147483647,0,0,1,1,2,2,3,3,4,4],"right_children":[2,4,6,8,10,-1,-1,-1,-1,-1,-1],"split_conditions":[3.996474E1,8.1110443E-4,7.594871E-4,4.102094E-1,1.9413704E-3,-2.4557965E-2,5.7448205E-2,-9.801222E-3,3.6992334E-2,1.4695744E-2,6.57413E-2],"split_indices":[10,14,12,19,15,0,0,0,0,0,0],"split_type":[0,0,0,0,0,0,0,0,0,0,0],"sum_hessian":[4.8195957E1,1.9027933E1,2.9168026E1,1.2562968E1,6.464965E0,2.7036167E1,2.1318579E0,8.114628E0,4.4483404E0,1.4684392E0,4.996526E0],"tree_param":{"num_deleted":"0","num_feature":"32","num_nodes":"11","size_leaf_vector":"1"}},{"base_weights":[-3.3699557E-2,4.1444284E-1,-2.7226657E-1,-2.6652828E-2,4.670968E-1,-1.0385876E-1,-7.550726E-1,-9.7903125E-3,2.4784718E-2,-2.836158E-2,6.1629447E-3,2.0295786E-2,-4.3617617E-2],"categories":[],"categories_nodes":[],"categories_segments":[],"categories_sizes":[],"default_left":[0,0,0,0,0,0,0,0,0,0,0,0,0],"id":67,"left_children":[1,3,5,-1,7,9,11,-1,-1,-1,-1,-1,-1],"loss_changes":[1.0950863E1,2.0257678E0,5.349651E0,0E0,7.467718E-1,5.4007826E0,2.6831007E0,0E0,0E0,0E0,0E0,0E0,0E0],"parents":[2147483647,0,0,1,1,2,2,4,4,5,5,6,6],"right_children":[2,4,6,-1,8,10,12,-1,-1,-1,-1,-1,-1],"split_conditions":[7.532808E-4,2.8793077E-4,6.3483246E1,-2.6652828E-2,1.8543046E-2,3.7071587E1,-3.9229193E-4,-9.7903125E-3,2.4784718E-2,-2.836158E-2,6.1629447E-3,2.0295786E-2,-4.3617617E-2],"split_indices":[14,17,25,0,20,10,13,0,0,0,0,0,0],"split_type":[0,0,0,0,0,0,0,0,0,0,0,0,0],"sum_hessian":[1.0037332E2,3.461419E1,6.575913E1,1.3419659E0,3.327222E1,4.9654305E1,1.610483E1,1.1341927E0,3.2138027E1,1.5839835E1,3.3814472E1,1.2517983E0,1.4853031E1],"tree_param":{"num_deleted":"0","num_feature":"32","num_nodes":"13","size_leaf_vector":"1"}},{"base_weights":[-2.6613198E-2,-3.882999E-1,3.4621784E-1,1.6293296E-1,-2.4414187E-2,-2.1941675E-2,6.064405E-1,-1.9051107E-2,5.2069437E-2,3.4670975E-2,-1.6864657E-2],"categories":[],"categories_nodes":[],"categories_segments":[],"categories_sizes":[],"default_left":[0,0,0,0,0,0,0,0,0,0,0],"id":68,"left_children":[1,3,5,7,-1,-1,9,-1,-1,-1,-1],"loss_changes":[7.4628806E0,1.6258793E0,5.8410172E0,2.8134425E0,0E0,0E0,1.9507289E0,0E0,0E0,0E0,0E0],"parents":[2147483647,0,0,1,1,2,2,3,3,6,6],"right_children":[2,4,6,8,-1,-1,10,-1,-1,-1,-1],"split_conditions":[5.779556E1,-2.736209E-4,7.6892955E-4,1.7367672E-3,-2.4414187E-2,-2.1941675E-2,3.640392E-4,-1.9051107E-2,5.2069437E-2,3.4670975E-2,-1.6864657E-2],"split_indices":[10,12,14,17,0,0,12,0,0,0,0],"split_type":[0,0,0,0,0,0,0,0,0,0,0],"sum_hessian":[5.334595E1,2.7056606E1,2.6289345E1,4.0574408E0,2.2999165E1,6.3739004E0,1.9915443E1,2.8555152E0,1.2019255E0,1.8477692E1,1.4377528E0],"tree_param":{"num_deleted":"0","num_feature":"32","num_nodes":"11","size_leaf_vector":"1"}},{"base_weights":[5.1448267E-2,5.4379696E-1,-3.025886E-1,1.8037982E-1,9.4416046E-1,-4.5226702E-1,7.996389E-1,-8.353135E-3,3.888719E-2,5.6529354E-2,1.5194163E-2,1.0069954E-2,-2.443814E-2,5.8285672E-2,2.9417349E-3],"categories":[],"categories_nodes":[],"categories_segments":[],"categories_sizes":[],"default_left":[0,0,0,0,0,0,0,0,0,0,0,0,0,0,0],"id":69,"left_children":[1,3,5,7,9,11,13,-1,-1,-1,-1,-1,-1,-1,-1],"loss_changes":[8.771304E0,2.886806E0,5.2062836E0,2.6724095E0,8.215828E-1,7.304516E-1,9.815042E-1,0E0,0E0,0E0,0E0,0E0,0E0,0E0,0E0],"parents":[2147483647,0,0,1,1,2,2,3,3,4,4,5,5,6,6],"right_children":[2,4,6,8,10,12,14,-1,-1,-1,-1,-1,-1,-1,-1],"split_conditions":[3.996474E1,3.8700166E-1,7.594871E-4,8.1110443E-4,4.7910667E1,-4.1189734E-4,1.04524E0,-8.353135E-3,3.888719E-2,5.6529354E-2,1.5194163E-2,1.0069954E-2,-2.443814E-2,5.8285672E-2,2.9417349E-3],"split_indices":[10,19,12,14,29,23,3,0,0,0,0,0,0,0,0],"split_type":[0,0,0,0,0,0,0,0,0,0,0,0,0,0,0],"sum_hessian":[4.837627E1,2.0011238E1,2.836503E1,1.1249974E1,8.761263E0,2.5492872E1,2.8721588E0,7.568355E0,3.6816196E0,6.1924567E0,2.5688066E0,1.1091292E0,2.4383743E1,1.5383782E0,1.3337805E0],"tree_param":{"num_deleted":"0","num_feature":"32","num_nodes":"15","size_leaf_vector":"1"}},{"base_weights":[-1.9852092E-2,3.9118132E-1,-2.5930566E-1,-2.4938157E-2,4.4079116E-1,-1.05091475E-1,-7.492793E-1,-3.77865E-4,2.4759656E-2,-3.0759394E-2,7.189279E-3,2.0369107E-2,-4.424929E-2],"categories":[],"categories_nodes":[],"categories_segments":[],"categories_sizes":[],"default_left":[0,0,0,0,0,0,0,0,0,0,0,0,0],"id":70,"left_children":[1,3,5,-1,7,9,11,-1,-1,-1,-1,-1,-1],"loss_changes":[9.854802E0,1.8479819E0,4.698118E0,0E0,8.6867285E-1,6.340516E0,2.7104702E0,0E0,0E0,0E0,0E0,0E0,0E0],"parents":[2147483647,0,0,1,1,2,2,4,4,5,5,6,6],"right_children":[2,4,6,-1,8,10,12,-1,-1,-1,-1,-1,-1],"split_conditions":[7.621496E-4,2.8793077E-4,6.3483246E1,-2.4938157E-2,6.357616E-2,3.602264E1,-3.9229193E-4,-3.77865E-4,2.4759656E-2,-3.0759394E-2,7.189279E-3,2.0369107E-2,-4.424929E-2],"split_indices":[14,17,25,0,20,10,13,0,0,0,0,0,0],"split_type":[0,0,0,0,0,0,0,0,0,0,0,0,0],"sum_hessian":[9.809599E1,3.5877285E1,6.2218704E1,1.416324E0,3.4460964E1,4.8247715E1,1.397099E1,3.8221533E0,3.063881E1,1.53384E1,3.2909313E1,1.2568227E0,1.2714168E1],"tree_param":{"num_deleted":"0","num_feature":"32","num_nodes":"13","size_leaf_vector":"1"}},{"base_weights":[4.7676504E-2,-3.8695088E-1,4.5723855E-1,1.7221251E-1,-2.439535E-2,8.737279E-1,7.9014264E-2,-1.8553384E-2,4.4712853E-2,7.429994E-2,1.8509388E-2,-2.3907004E-2,2.391041E-2],"categories":[],"categories_nodes":[],"categories_segments":[],"categories_sizes":[],"default_left":[0,0,0,0,0,0,0,0,0,0,0,0,0],"id":71,"left_children":[1,3,5,7,-1,9,11,-1,-1,-1,-1,-1,-1],"loss_changes":[1.0095976E1,1.6407037E0,4.522389E0,2.27611E0,0E0,3.6959696E0,3.8705792E0,0E0,0E0,0E0,0E0,0E0,0E0],"parents":[2147483647,0,0,1,1,2,2,3,3,5,5,6,6],"right_children":[2,4,6,8,-1,10,12,-1,-1,-1,-1,-1,-1],"split_conditions":[5.779556E1,-2.736209E-4,4.9525264E-5,4.9194656E1,-2.439535E-2,1.0423411E0,6.371109E1,-1.8553384E-2,4.4712853E-2,7.429994E-2,1.8509388E-2,-2.3907004E-2,2.391041E-2],"split_indices":[10,12,12,10,0,27,25,0,0,0,0,0,0],"split_type":[0,0,0,0,0,0,0,0,0,0,0,0,0],"sum_hessian":[5.4722824E1,2.6575792E1,2.814703E1,3.9564538E0,2.2619339E1,1.2772384E1,1.5374647E1,2.5350904E0,1.4213634E0,4.883398E0,7.888985E0,6.335056E0,9.039591E0],"tree_param":{"num_deleted":"0","num_feature":"32","num_nodes":"13","size_leaf_vector":"1"}},{"base_weights":[3.2228986E-3,5.17237E-1,-3.5723412E-1,-1.7951047E-2,6.6443664E-1,-2.4298249E-2,2.7228913E-1,1.1824387E-3,4.1089203E-2,-1.7826168E-2,3.37193E-2],"categories":[],"categories_nodes":[],"categories_segments":[],"categories_sizes":[],"default_left":[0,0,0,0,0,0,0,0,0,0,0],"id":72,"left_children":[1,3,5,-1,7,-1,9,-1,-1,-1,-1],"loss_changes":[8.70577E0,2.7364054E0,2.3709705E0,0E0,1.6876612E0,0E0,1.5882808E0,0E0,0E0,0E0,0E0],"parents":[2147483647,0,0,1,1,2,2,4,4,6,6],"right_children":[2,4,6,-1,8,-1,10,-1,-1,-1,-1],"split_conditions":[3.996474E1,7.2133937E-4,8.7762746E-4,-1.7951047E-2,1.0428916E0,-2.4298249E-2,3.7367535E-1,1.1824387E-3,4.1089203E-2,-1.7826168E-2,3.37193E-2],"split_indices":[10,14,14,0,31,0,21,0,0,0,0],"split_type":[0,0,0,0,0,0,0,0,0,0,0],"sum_hessian":[4.4989826E1,1.8365522E1,2.6624304E1,2.4344704E0,1.5931052E1,2.2293552E1,4.330753E0,3.3674824E0,1.256357E1,1.733378E0,2.5973747E0],"tree_param":{"num_deleted":"0","num_feature":"32","num_nodes":"11","size_leaf_vector":"1"}},{"base_weights":[-3.714827E-2,4.652909E-1,-2.7505967E-1,-1.0467737E-2,2.4741715E-2,-4.089698E-1,1.9305621E-1,-1.3528754E-2,-3.8820785E-2,2.380339E-2,-8.886073E-3],"categories":[],"categories_nodes":[],"categories_segments":[],"categories_sizes":[],"default_left":[0,0,0,0,0,0,0,0,0,0,0],"id":73,"left_children":[1,3,5,-1,-1,7,9,-1,-1,-1,-1],"loss_changes":[1.1689936E1,7.305074E-1,4.2331166E0,0E0,0E0,2.426631E0,1.7026868E0,0E0,0E0,0E0,0E0],"parents":[2147483647,0,0,1,1,2,2,5,5,6,6],"right_children":[2,4,6,-1,-1,8,10,-1,-1,-1,-1],"split_conditions":[1.4738245E-3,4.750189E-2,5.8622813E-1,-1.0467737E-2,2.4741715E-2,1E0,2.6735023E-3,-1.3528754E-2,-3.8820785E-2,2.380339E-2,-8.886073E-3],"split_indices":[15,21,21,0,0,16,15,0,0,0,0],"split_type":[0,0,0,0,0,0,0,0,0,0,0],"sum_hessian":[9.572359E1,3.0453619E1,6.526997E1,1.0222982E0,2.943132E1,5.085006E1,1.4419914E1,3.819912E1,1.2650937E1,8.016791E0,6.4031234E0],"tree_param":{"num_deleted":"0","num_feature":"32","num_nodes":"11","size_leaf_vector":"1"}},{"base_weights":[-3.9726097E-2,2.0272402E-1,-4.3802324E-1,-3.8418669E-1,5.261963E-1,-2.4241675E-2,1.0378509E-2,1.2290492E-2,-2.3104442E-2,3.282107E-2,-1.9280082E-2],"categories":[],"categories_nodes":[],"categories_segments":[],"categories_sizes":[],"default_left":[0,0,0,0,0,0,0,0,0,0,0],"id":74,"left_children":[1,3,5,7,9,-1,-1,-1,-1,-1,-1],"loss_changes":[5.0881524E0,6.441557E0,7.021961E-1,7.150581E-1,2.819018E0,0E0,0E0,0E0,0E0,0E0,0E0],"parents":[2147483647,0,0,1,1,2,2,3,3,4,4],"right_children":[2,4,6,8,10,-1,-1,-1,-1,-1,-1],"split_conditions":[9.777735E-4,7.7013345E-4,3.4756796E-3,5.4399654E-2,3.640392E-4,-2.4241675E-2,1.0378509E-2,1.2290492E-2,-2.3104442E-2,3.282107E-2,-1.9280082E-2],"split_indices":[18,14,15,20,12,0,0,0,0,0,0],"split_type":[0,0,0,0,0,0,0,0,0,0,0],"sum_hessian":[5.0770737E1,3.1865002E1,1.8905735E1,1.1255405E1,2.0609596E1,1.7859781E1,1.045954E0,1.0014329E0,1.0253973E1,1.8279024E1,2.3305721E0],"tree_param":{"num_deleted":"0","num_feature":"32","num_nodes":"11","size_leaf_vector":"1"}},{"base_weights":[6.6221906E-3,4.268597E-1,-3.5097203E-1,-2.0045336E-2,6.2520045E-1,-2.455189E-2,3.9696548E-2,6.391833E-3,4.797685E-2],"categories":[],"categories_nodes":[],"categories_segments":[],"categories_sizes":[],"default_left":[0,0,0,0,0,0,0,0,0],"id":75,"left_children":[1,3,5,-1,7,-1,-1,-1,-1],"loss_changes":[7.146836E0,3.8391364E0,4.5118704E0,0E0,2.8743153E0,0E0,0E0,0E0,0E0],"parents":[2147483647,0,0,1,1,2,2,4,4],"right_children":[2,4,6,-1,8,-1,-1,-1,-1],"split_conditions":[4.3236588E1,7.3315366E-4,7.594871E-4,-2.0045336E-2,-1.5936466E-4,-2.455189E-2,3.9696548E-2,6.391833E-3,4.797685E-2],"split_indices":[25,14,12,0,12,0,0,0,0],"split_type":[0,0,0,0,0,0,0,0,0],"sum_hessian":[4.556159E1,2.0857077E1,2.4704514E1,3.834143E0,1.7022934E1,2.2520498E1,2.184016E0,7.3987737E0,9.624159E0],"tree_param":{"num_deleted":"0","num_feature":"32","num_nodes":"9","size_leaf_vector":"1"}},{"base_weights":[-2.0385861E-2,2.472685E-2,-2.622694E-1,2.7612558E-1,-3.6003625E-1,-2.4155673E-2,2.2774374E-2,-9.882003E-3,-3.9109915E-2],"categories":[],"categories_nodes":[],"categories_segments":[],"categories_sizes":[],"default_left":[0,0,0,0,0,0,0,0,0],"id":76,"left_children":[1,-1,3,5,7,-1,-1,-1,-1],"loss_changes":[1.1693232E1,0E0,3.4588132E0,1.6327999E0,3.5781937E0,0E0,0E0,0E0,0E0],"parents":[2147483647,0,0,2,2,3,3,4,4],"right_children":[2,-1,4,6,8,-1,-1,-1,-1],"split_conditions":[1.4738245E-3,2.472685E-2,7.659002E-4,4.0364682E-4,6.3017536E1,-2.4155673E-2,2.2774374E-2,-9.882003E-3,-3.9109915E-2],"split_indices":[15,0,14,17,25,0,0,0,0],"split_type":[0,0,0,0,0,0,0,0,0],"sum_hessian":[9.1841446E1,2.9019682E1,6.2821766E1,9.374231E0,5.3447536E1,1.467747E0,7.906484E0,3.965956E1,1.3787975E1],"tree_param":{"num_deleted":"0","num_feature":"32","num_nodes":"9","size_leaf_vector":"1"}},{"base_weights":[1.1009932E-2,-4.153714E-1,4.0850455E-1,-2.4419919E-2,8.905364E-2,-2.988973E-1,6.237881E-1,3.543115E-2,-1.7282499E-2,-2.1345655E-2,1.2173141E-2,3.5930406E-2,-1.734852E-2],"categories":[],"categories_nodes":[],"categories_segments":[],"categories_sizes":[],"default_left":[0,0,0,0,0,0,0,0,0,0,0,0,0],"id":77,"left_children":[1,3,5,-1,7,9,11,-1,-1,-1,-1,-1,-1],"loss_changes":[9.12099E0,1.0004144E0,4.4258857E0,0E0,1.3575319E0,6.018383E-1,2.2436657E0,0E0,0E0,0E0,0E0,0E0,0E0],"parents":[2147483647,0,0,1,1,2,2,4,4,5,5,6,6],"right_children":[2,4,6,-1,8,10,12,-1,-1,-1,-1,-1,-1],"split_conditions":[5.779556E1,2.3648741E-3,7.7013345E-4,-2.4419919E-2,2.4737776E-3,5.752834E-4,3.640392E-4,3.543115E-2,-1.7282499E-2,-2.1345655E-2,1.2173141E-2,3.5930406E-2,-1.734852E-2],"split_indices":[10,17,14,0,17,18,12,0,0,0,0,0,0],"split_type":[0,0,0,0,0,0,0,0,0,0,0,0,0],"sum_hessian":[5.181498E1,2.4977423E1,2.6837557E1,2.184643E1,3.1309938E0,6.171195E0,2.066636E1,1.0311704E0,2.0998235E0,5.1649485E0,1.0062464E0,1.9064009E1,1.6023532E0],"tree_param":{"num_deleted":"0","num_feature":"32","num_nodes":"13","size_leaf_vector":"1"}},{"base_weights":[-2.326307E-2,5.1876545E-1,-2.5847027E-1,-1.9490346E-1,7.181153E-1,-3.6016926E-1,7.052574E-1,-1.9200016E-2,8.054746E-3,4.907151E-2,9.446227E-3,1.1918996E-2,-2.2773871E-2,4.708299E-2,5.888516E-3],"categories":[],"categories_nodes":[],"categories_segments":[],"categories_sizes":[],"default_left":[0,0,0,0,0,0,0,0,0,0,0,0,0,0,0],"id":78,"left_children":[1,3,5,7,9,11,13,-1,-1,-1,-1,-1,-1,-1,-1],"loss_changes":[5.778364E0,2.0933776E0,3.345479E0,3.166217E-1,1.3398294E0,1.7739639E0,3.5420477E-1,0E0,0E0,0E0,0E0,0E0,0E0,0E0,0E0],"parents":[2147483647,0,0,1,1,2,2,3,3,4,4,5,5,6,6],"right_children":[2,4,6,8,10,12,14,-1,-1,-1,-1,-1,-1,-1,-1],"split_conditions":[3.503624E1,1.042863E0,7.594871E-4,-2.835648E-4,1.0431346E0,4.3076984E1,1.04518E0,-1.9200016E-2,8.054746E-3,4.907151E-2,9.446227E-3,1.1918996E-2,-2.2773871E-2,4.708299E-2,5.888516E-3],"split_indices":[10,31,12,11,31,29,0,0,0,0,0,0,0,0,0],"split_type":[0,0,0,0,0,0,0,0,0,0,0,0,0,0,0],"sum_hessian":[4.327267E1,1.2730352E1,3.0542318E1,2.7844338E0,9.945919E0,2.8193432E1,2.3488848E0,1.7671262E0,1.0173078E0,6.0706816E0,3.8752372E0,3.6664488E0,2.4526983E1,1.2450297E0,1.1038551E0],"tree_param":{"num_deleted":"0","num_feature":"32","num_nodes":"15","size_leaf_vector":"1"}},{"base_weights":[-9.3567726E-4,1.0609132E-1,-4.739342E-1,1.8907914E-1,-2.6133418E-1,-5.7276845E-1,1.4425719E-1,1.5625438E-2,-1.03536565E-2,4.466339E-3,-4.4908676E-2,-8.4908615E-4,-3.5529315E-2,-7.2005647E-3,1.72692E-2],"categories":[],"categories_nodes":[],"categories_segments":[],"categories_sizes":[],"default_left":[0,0,0,0,0,0,0,0,0,0,0,0,0,0,0],"id":79,"left_children":[1,3,5,7,9,11,13,-1,-1,-1,-1,-1,-1,-1,-1],"loss_changes":[4.6821733E0,2.349434E0,1.1253319E0,3.101844E0,3.2775965E0,1.1303678E0,2.3243955E-1,0E0,0E0,0E0,0E0,0E0,0E0,0E0,0E0],"parents":[2147483647,0,0,1,1,2,2,3,3,4,4,5,5,6,6],"right_children":[2,4,6,8,10,12,14,-1,-1,-1,-1,-1,-1,-1,-1],"split_conditions":[1E0,6.389335E1,2.7953854E-3,4.1306037E-1,2.9624724E-1,1.0429165E0,1.043011E0,1.5625438E-2,-1.03536565E-2,4.466339E-3,-4.4908676E-2,-8.4908615E-4,-3.5529315E-2,-7.2005647E-3,1.72692E-2],"split_indices":[16,25,17,19,20,31,31,0,0,0,0,0,0,0,0],"split_type":[0,0,0,0,0,0,0,0,0,0,0,0,0,0,0],"sum_hessian":[9.049669E1,7.44307E1,1.6065987E1,6.1112946E1,1.3317758E1,1.3914813E1,2.1511734E0,4.6756203E1,1.4356744E1,9.14307E0,4.1746874E0,2.9880273E0,1.0926785E1,1.000774E0,1.1503992E0],"tree_param":{"num_deleted":"0","num_feature":"32","num_nodes":"15","size_leaf_vector":"1"}},{"base_weights":[-4.5061115E-2,-4.1095018E-1,2.822868E-1,8.167085E-3,-2.4224307E-2,5.4668594E-2,1.5228486E-1,-1.8782346E-2,3.4833193E-2,-1.0767738E-2,2.3543617E-2],"categories":[],"categories_nodes":[],"categories_segments":[],"categories_sizes":[],"default_left":[0,0,0,0,0,0,0,0,0,0,0],"id":80,"left_children":[1,3,5,7,-1,-1,9,-1,-1,-1,-1],"loss_changes":[6.2904696E0,7.6675177E-1,2.7649603E0,1.4978073E0,0E0,0E0,3.0439246E0,0E0,0E0,0E0,0E0],"parents":[2147483647,0,0,1,1,2,2,3,3,6,6],"right_children":[2,4,6,8,-1,-1,10,-1,-1,-1,-1],"split_conditions":[5.779556E1,-2.736209E-4,-7.902112E-5,4.9194656E1,-2.4224307E-2,5.4668594E-2,6.371109E1,-1.8782346E-2,3.4833193E-2,-1.0767738E-2,2.3543617E-2],"split_indices":[10,12,12,10,0,0,25,0,0,0,0],"split_type":[0,0,0,0,0,0,0,0,0,0,0],"sum_hessian":[5.0551373E1,2.3749863E1,2.680151E1,3.6777132E0,2.0072151E1,2.678687E0,2.4122824E1,2.6530962E0,1.024617E0,1.1349686E1,1.2773137E1],"tree_param":{"num_deleted":"0","num_feature":"32","num_nodes":"11","size_leaf_vector":"1"}},{"base_weights":[3.1373175E-3,3.8226515E-1,-3.4566557E-1,-4.625196E-2,7.4868816E-1,-2.4405833E-2,5.286153E-1,3.049129E-2,-1.9613076E-2,4.7902957E-2,6.354519E-3,3.1172693E-2,7.0977807E-3],"categories":[],"categories_nodes":[],"categories_segments":[],"categories_sizes":[],"default_left":[0,0,0,0,0,0,0,0,0,0,0,0,0],"id":81,"left_children":[1,3,5,7,9,-1,11,-1,-1,-1,-1,-1,-1],"loss_changes":[6.2390804E0,3.5837448E0,3.3189366E0,2.818175E0,1.4715409E0,0E0,5.5374026E-2,0E0,0E0,0E0,0E0,0E0,0E0],"parents":[2147483647,0,0,1,1,2,2,3,3,4,4,6,6],"right_children":[2,4,6,8,10,-1,12,-1,-1,-1,-1,-1,-1],"split_conditions":[4.3236588E1,8.041306E-4,9.0943027E-4,4.0364682E-4,1.0352809E-3,-2.4405833E-2,1.04518E0,3.049129E-2,-1.9613076E-2,4.7902957E-2,6.354519E-3,3.1172693E-2,7.0977807E-3],"split_indices":[25,14,14,17,17,0,0,0,0,0,0,0,0],"split_type":[0,0,0,0,0,0,0,0,0,0,0,0,0],"sum_hessian":[4.5180454E1,2.160317E1,2.3577286E1,1.0360616E1,1.1242554E1,2.0653755E1,2.9235291E0,3.3141384E0,7.046478E0,8.004976E0,3.2375777E0,1.8559086E0,1.0676205E0],"tree_param":{"num_deleted":"0","num_feature":"32","num_nodes":"13","size_leaf_vector":"1"}},{"base_weights":[-3.5708237E-2,4.255914E-1,-2.4280328E-1,2.4493514E-2,-1.6996704E-2,-1.3291582E-1,-7.1329856E-1,-2.238886E-2,1.7370446E-2,3.6381817E-4,-2.8566143E-2,-4.064653E-2,1.0580154E-3],"categories":[],"categories_nodes":[],"categories_segments":[],"categories_sizes":[],"default_left":[0,0,0,0,0,0,0,0,0,0,0,0,0],"id":82,"left_children":[1,3,5,-1,7,9,11,-1,-1,-1,-1,-1,-1],"loss_changes":[8.852441E0,8.259244E-1,3.2059789E0,0E0,8.793969E-1,3.2606392E0,8.849764E-1,0E0,0E0,0E0,0E0,0E0,0E0],"parents":[2147483647,0,0,1,1,2,2,4,4,5,5,6,6],"right_children":[2,4,6,-1,8,10,12,-1,-1,-1,-1,-1,-1],"split_conditions":[1.4738245E-3,1E0,1E0,2.4493514E-2,1.0421193E0,6.3483246E1,2.7953854E-3,-2.238886E-2,1.7370446E-2,3.6381817E-4,-2.8566143E-2,-4.064653E-2,1.0580154E-3],"split_indices":[15,16,16,0,27,25,17,0,0,0,0,0,0],"split_type":[0,0,0,0,0,0,0,0,0,0,0,0,0],"sum_hessian":[9.0582146E1,2.7739025E1,6.2843124E1,2.4127989E1,3.6110363E0,5.1984325E1,1.0858799E1,1.5499647E0,2.0610716E0,4.0133865E1,1.1850457E1,9.467637E0,1.3911622E0],"tree_param":{"num_deleted":"0","num_feature":"32","num_nodes":"13","size_leaf_vector":"1"}},{"base_weights":[4.9655262E-2,-3.3690685E-1,3.6260357E-1,-4.4258472E-1,2.5985274E-1,-2.5471157E-1,4.8483238E-1,-2.4231702E-2,4.629313E-3,5.4958414E-2,-1.7862344E-2,-2.052128E-2,1.2029289E-2,6.020653E-2,1.8669028E-2],"categories":[],"categories_nodes":[],"categories_segments":[],"categories_sizes":[],"default_left":[0,0,0,0,0,0,0,0,0,0,0,0,0,0,0],"id":83,"left_children":[1,3,5,7,9,11,13,-1,-1,-1,-1,-1,-1,-1,-1],"loss_changes":[6.819652E0,1.7097006E0,2.4683108E0,5.366297E-1,2.689397E0,5.454289E-1,1.6575546E0,0E0,0E0,0E0,0E0,0E0,0E0,0E0,0E0],"parents":[2147483647,0,0,1,1,2,2,3,3,4,4,5,5,6,6],"right_children":[2,4,6,8,10,12,14,-1,-1,-1,-1,-1,-1,-1,-1],"split_conditions":[5.779556E1,1.0438737E0,1.4738245E-3,3.4756796E-3,1.0447708E0,4.1243073E-4,5.425948E1,-2.4231702E-2,4.629313E-3,5.4958414E-2,-1.7862344E-2,-2.052128E-2,1.2029289E-2,6.020653E-2,1.8669028E-2],"split_indices":[10,27,15,15,26,18,25,0,0,0,0,0,0,0,0],"split_type":[0,0,0,0,0,0,0,0,0,0,0,0,0,0,0],"sum_hessian":[5.4363056E1,2.4286798E1,3.007626E1,2.0852468E1,3.4343302E0,4.791739E0,2.528452E1,1.942096E1,1.4315084E0,1.1241678E0,2.3101623E0,3.7759826E0,1.0157566E0,2.0768306E0,2.320769E1],"tree_param":{"num_deleted":"0","num_feature":"32","num_nodes":"15","size_leaf_vector":"1"}},{"base_weights":[3.8561758E-2,5.0849694E-1,-3.2292074E-1,-1.764852E-2,6.32167E-1,-4.4761014E-1,5.871043E-1,7.171739E-3,4.5446627E-2,1.1497519E-2,-2.4374768E-2,4.6504647E-2,1.1353526E-3],"categories":[],"categories_nodes":[],"categories_segments":[],"categories_sizes":[],"default_left":[0,0,0,0,0,0,0,0,0,0,0,0,0],"id":84,"left_children":[1,3,5,-1,7,9,11,-1,-1,-1,-1,-1,-1],"loss_changes":[8.049912E0,2.4147549E0,3.3094544E0,0E0,2.3513417E0,7.656002E-1,6.8896914E-1,0E0,0E0,0E0,0E0,0E0,0E0],"parents":[2147483647,0,0,1,1,2,2,4,4,5,5,6,6],"right_children":[2,4,6,-1,8,10,12,-1,-1,-1,-1,-1,-1],"split_conditions":[3.920336E1,1.5738141E-3,7.594871E-4,-1.764852E-2,-1.6620863E-4,-4.326236E-4,1.04524E0,7.171739E-3,4.5446627E-2,1.1497519E-2,-2.4374768E-2,4.6504647E-2,1.1353526E-3],"split_indices":[10,15,12,0,12,23,3,0,0,0,0,0,0],"split_type":[0,0,0,0,0,0,0,0,0,0,0,0,0],"sum_hessian":[4.5421104E1,1.9571295E1,2.584981E1,2.2241397E0,1.7347157E1,2.3181652E1,2.6681585E0,6.8207836E0,1.0526372E1,1.0238264E0,2.2157825E1,1.2565831E0,1.4115756E0],"tree_param":{"num_deleted":"0","num_feature":"32","num_nodes":"13","size_leaf_vector":"1"}},{"base_weights":[-2.6060775E-2,3.930782E-1,-2.2511594E-1,-2.5926838E-2,4.555826E-1,2.1753896E-2,-2.921876E-1,-1.1054382E-2,2.4533352E-2,2.376018E-2,-1.7710118E-2],"categories":[],"categories_nodes":[],"categories_segments":[],"categories_sizes":[],"default_left":[0,0,0,0,0,0,0,0,0,0,0],"id":85,"left_children":[1,3,5,-1,7,-1,9,-1,-1,-1,-1],"loss_changes":[7.55701E0,1.8993654E0,2.8427703E0,0E0,7.695961E-1,0E0,2.8462205E0,0E0,0E0,0E0,0E0],"parents":[2147483647,0,0,1,1,2,2,4,4,6,6],"right_children":[2,4,6,-1,8,-1,10,-1,-1,-1,-1],"split_conditions":[7.532808E-4,2.8793077E-4,1.4738245E-3,-2.5926838E-2,1.517341E-2,2.1753896E-2,5.805114E-2,-1.1054382E-2,2.4533352E-2,2.376018E-2,-1.7710118E-2],"split_indices":[14,17,15,0,20,0,20,0,0,0,0],"split_type":[0,0,0,0,0,0,0,0,0,0,0],"sum_hessian":[8.851651E1,2.8187983E1,6.032853E1,1.3405342E0,2.6847448E1,5.0577526E0,5.527078E1,1.0620583E0,2.5785389E1,3.6344256E0,5.1636353E1],"tree_param":{"num_deleted":"0","num_feature":"32","num_nodes":"11","size_leaf_vector":"1"}},{"base_weights":[3.96552E-2,2.9443303E-1,-4.355464E-1,-3.677091E-1,5.6362206E-1,1.0256712E-2,-2.4211392E-2,1.2173329E-2,-2.2736343E-2,4.883839E-2,1.2029237E-2],"categories":[],"categories_nodes":[],"categories_segments":[],"categories_sizes":[],"default_left":[0,0,0,0,0,0,0,0,0,0,0],"id":86,"left_children":[1,3,5,7,9,-1,-1,-1,-1,-1,-1],"loss_changes":[6.6454334E0,6.5595255E0,6.9788384E-1,6.907289E-1,3.1993113E0,0E0,0E0,0E0,0E0,0E0,0E0],"parents":[2147483647,0,0,1,1,2,2,3,3,4,4],"right_children":[2,4,6,8,10,-1,-1,-1,-1,-1,-1],"split_conditions":[9.777735E-4,7.6892955E-4,-4.5531636E-4,4.5200533E-4,1.0430524E0,1.0256712E-2,-2.4211392E-2,1.2173329E-2,-2.2736343E-2,4.883839E-2,1.2029237E-2],"split_indices":[18,14,12,15,31,0,0,0,0,0,0],"split_type":[0,0,0,0,0,0,0,0,0,0,0],"sum_hessian":[5.2829597E1,3.463862E1,1.819098E1,9.906053E0,2.4732565E1,1.0576596E0,1.7133322E1,1.0105418E0,8.895511E0,9.964657E0,1.4767907E1],"tree_param":{"num_deleted":"0","num_feature":"32","num_nodes":"11","size_leaf_vector":"1"}},{"base_weights":[-1.8200597E-2,-3.496401E-1,3.6310253E-1,-2.4353549E-2,6.266139E-1,-4.582319E-2,7.533965E-1,4.296064E-2,4.5411782E-3,-1.8624013E-2,2.6376773E-2,5.250253E-2,-7.2315037E-3],"categories":[],"categories_nodes":[],"categories_segments":[],"categories_sizes":[],"default_left":[0,0,0,0,0,0,0,0,0,0,0,0,0],"id":87,"left_children":[1,3,5,-1,7,9,11,-1,-1,-1,-1,-1,-1],"loss_changes":[5.887341E0,3.6451683E0,3.4956825E0,0E0,3.5930896E-1,2.3565369E0,3.1231341E0,0E0,0E0,0E0,0E0,0E0,0E0],"parents":[2147483647,0,0,1,1,2,2,4,4,5,5,6,6],"right_children":[2,4,6,-1,8,10,12,-1,-1,-1,-1,-1,-1],"split_conditions":[2.1272113E-3,9.2557276E-4,-1.1754697E-4,-2.4353549E-2,5.4389877E1,1.0423775E0,4.3236588E1,4.296064E-2,4.5411782E-3,-1.8624013E-2,2.6376773E-2,5.250253E-2,-7.2315037E-3],"split_indices":[18,14,12,0,10,8,25,0,0,0,0,0,0],"split_type":[0,0,0,0,0,0,0,0,0,0,0,0,0],"sum_hessian":[4.458028E1,2.3893988E1,2.0686293E1,2.138467E1,2.5093172E0,1.05330305E1,1.0153261E1,1.3288131E0,1.1805041E0,6.9333043E0,3.5997267E0,7.5048294E0,2.648432E0],"tree_param":{"num_deleted":"0","num_feature":"32","num_nodes":"13","size_leaf_vector":"1"}},{"base_weights":[-4.6371292E-2,4.4634765E-1,-2.1402644E-1,2.4239996E-2,8.858937E-2,-3.9345928E-2,-4.450829E-1,-1.2089119E-2,1.581955E-2,1.7708987E-2,-7.5351894E-3,-2.9562414E-2,-8.213762E-3],"categories":[],"categories_nodes":[],"categories_segments":[],"categories_sizes":[],"default_left":[0,0,0,0,0,0,0,0,0,0,0,0,0],"id":88,"left_children":[1,3,5,-1,7,9,11,-1,-1,-1,-1,-1,-1],"loss_changes":[7.7176747E0,2.8376484E-1,2.7884111E0,0E0,3.42049E-1,1.8363731E0,1.1273685E0,0E0,0E0,0E0,0E0,0E0,0E0],"parents":[2147483647,0,0,1,1,2,2,4,4,5,5,6,6],"right_children":[2,4,6,-1,8,10,12,-1,-1,-1,-1,-1,-1],"split_conditions":[1.3946791E-3,2.5879545E-4,3.8700166E-1,2.4239996E-2,6.774093E-4,