{"learner":{"attributes":{"scikit_learn":"{\"_estimator_type\": \"classifier\"}"},"feature_names":["prob_buy","prob_sell","rsi","vol_brk","vol_imb","regime_strength"],"feature_types":["float","float","float","int","float","float"],"gradient_booster":{"model":{"cats":{"enc":[],"feature_segments":[],"sorted_idx":[]},"gbtree_model_param":{"num_parallel_tree":"1","num_trees":"100"},"iteration_indptr":[0,1,2,3,4,5,6,7,8,9,10,11,12,13,14,15,16,17,18,19,20,21,22,23,24,25,26,27,28,29,30,31,32,33,34,35,36,37,38,39,40,41,42,43,44,45,46,47,48,49,50,51,52,53,54,55,56,57,58,59,60,61,62,63,64,65,66,67,68,69,70,71,72,73,74,75,76,77,78,79,80,81,82,83,84,85,86,87,88,89,90,91,92,93,94,95,96,97,98,99,100],"tree_info":[0,0,0,0,0,0,0,0,0,0,0,0,0,0,0,0,0,0,0,0,0,0,0,0,0,0,0,0,0,0,0,0,0,0,0,0,0,0,0,0,0,0,0,0,0,0,0,0,0,0,0,0,0,0,0,0,0,0,0,0,0,0,0,0,0,0,0,0,0,0,0,0,0,0,0,0,0,0,0,0,0,0,0,0,0,0,0,0,0,0,0,0,0,0,0,0,0,0,0,0],"trees":[{"base_weights":[6.8519737E-9,-5.5367255E-1,1.539896E0,3.9910246E-2,-7.259972E-1,-1.771627E-2,1.0277138E-1,-6.200875E-2,-2.1422442E-2],"categories":[],"categories_nodes":[],"categories_segments":[],"categories_sizes":[],"default_left":[0,0,0,0,0,0,0,0,0],"id":0,"left_children":[1,3,5,-1,7,-1,-1,-1,-1],"loss_changes":[1.9394268E1,4.4772787E0,6.6029205E0,0E0,1.8191509E0,0E0,0E0,0E0,0E0],"parents":[2147483647,0,0,1,1,2,2,4,4],"right_children":[2,4,6,-1,8,-1,-1,-1,-1],"split_conditions":[5.1E-1,1.5115387E-4,8.2709116E-1,3.9910246E-2,3.3E-1,-1.771627E-2,1.0277138E-1,-6.200875E-2,-2.1422442E-2],"split_indices":[5,1,0,0,5,0,0,0,0],"split_type":[0,0,0,0,0,0,0,0,0],"sum_hessian":[2.0747253E1,1.5731435E1,5.0158195E0,1.3679508E0,1.4363483E1,1.139959E0,3.8758607E0,4.1038523E0,1.0259631E1],"tree_param":{"num_deleted":"0","num_feature":"6","num_nodes":"9","size_leaf_vector":"1"}},{"base_weights":[1.4847097E-3,-5.3289056E-1,1.4509239E0,3.8494047E-2,-7.019269E-1,9.687376E-2,-1.7881488E-2,-6.0467202E-2,-2.0570284E-2],"categories":[],"categories_nodes":[],"categories_segments":[],"categories_sizes":[],"default_left":[0,0,0,0,0,0,0,0,0],"id":1,"left_children":[1,3,5,-1,7,-1,-1,-1,-1],"loss_changes":[1.7598532E1,4.196604E0,6.078273E0,0E0,1.7459984E0,0E0,0E0,0E0,0E0],"parents":[2147483647,0,0,1,1,2,2,4,4],"right_children":[2,4,6,-1,8,-1,-1,-1,-1],"split_conditions":[5.1E-1,1.5115387E-4,5.096357E-2,3.8494047E-2,3.3E-1,9.687376E-2,-1.7881488E-2,-6.0467202E-2,-2.0570284E-2],"split_indices":[5,1,1,0,5,0,0,0,0],"split_type":[0,0,0,0,0,0,0,0,0],"sum_hessian":[2.0722895E1,1.5602833E1,5.1200624E0,1.3837411E0,1.4219092E1,3.978461E0,1.1416012E0,4.0255303E0,1.0193562E1],"tree_param":{"num_deleted":"0","num_feature":"6","num_nodes":"9","size_leaf_vector":"1"}},{"base_weights":[2.730886E-3,-5.1309365E-1,1.3718568E0,3.7146043E-2,-6.788941E-1,9.169886E-2,-1.803851E-2,-5.9026636E-2,-1.975136E-2],"categories":[],"categories_nodes":[],"categories_segments":[],"categories_sizes":[],"default_left":[0,0,0,0,0,0,0,0,0],"id":2,"left_children":[1,3,5,-1,7,-1,-1,-1,-1],"loss_changes":[1.6010841E1,3.9343648E0,5.6286325E0,0E0,1.6799741E0,0E0,0E0,0E0,0E0],"parents":[2147483647,0,0,1,1,2,2,4,4],"right_children":[2,4,6,-1,8,-1,-1,-1,-1],"split_conditions":[5.1E-1,1.5115387E-4,3.646568E1,3.7146043E-2,3.3E-1,9.169886E-2,-1.803851E-2,-5.9026636E-2,-1.975136E-2],"split_indices":[5,1,2,0,5,0,0,0,0],"split_type":[0,0,0,0,0,0,0,0,0],"sum_hessian":[2.067421E1,1.5470767E1,5.2034435E0,1.3981704E0,1.4072597E1,4.061641E0,1.1418023E0,3.9440575E0,1.0128539E1],"tree_param":{"num_deleted":"0","num_feature":"6","num_nodes":"9","size_leaf_vector":"1"}},{"base_weights":[3.7736488E-3,-8.168973E-1,8.0009776E-1,-5.9671223E-2,-4.2139915E-1,-4.7339145E-2,8.856133E-2,1.3030765E-2,-5.5049438E-2,2.0643163E-2,-2.895832E-2],"categories":[],"categories_nodes":[],"categories_segments":[],"categories_sizes":[],"default_left":[0,0,0,0,0,0,0,0,0,0,0],"id":3,"left_children":[1,3,5,-1,7,9,-1,-1,-1,-1,-1],"loss_changes":[1.4772257E1,1.1551452E0,9.523195E0,0E0,3.5202966E0,1.9765744E0,0E0,0E0,0E0,0E0,0E0],"parents":[2147483647,0,0,1,1,2,2,4,4,5,5],"right_children":[2,4,6,-1,8,10,-1,-1,-1,-1,-1],"split_conditions":[8.144956E-1,5.4983307E1,5.1E-1,-5.9671223E-2,4.3E-1,3.6513565E1,8.856133E-2,1.3030765E-2,-5.5049438E-2,2.0643163E-2,-2.895832E-2],"split_indices":[0,2,5,0,5,2,0,0,0,0,0],"split_type":[0,0,0,0,0,0,0,0,0,0,0],"sum_hessian":[2.060402E1,1.01341715E1,1.0469849E1,4.1580496E0,5.976122E0,6.0989614E0,4.3708873E0,3.290446E0,2.6856759E0,3.389574E0,2.7093873E0],"tree_param":{"num_deleted":"0","num_feature":"6","num_nodes":"11","size_leaf_vector":"1"}},{"base_weights":[2.2615856E-3,-7.94385E-1,7.632309E-1,-5.8302738E-2,-4.0857077E-1,-4.624562E-2,8.40408E-2,1.2582645E-2,-5.38571E-2,3.600497E-2,-1.8144323E-2],"categories":[],"categories_nodes":[],"categories_segments":[],"categories_sizes":[],"default_left":[0,0,0,0,0,0,0,0,0,0,0],"id":4,"left_children":[1,3,5,-1,7,9,-1,-1,-1,-1,-1],"loss_changes":[1.3660712E1,1.1024218E0,8.637051E0,0E0,3.335208E0,1.9831294E0,0E0,0E0,0E0,0E0,0E0],"parents":[2147483647,0,0,1,1,2,2,4,4,5,5],"right_children":[2,4,6,-1,8,10,-1,-1,-1,-1,-1],"split_conditions":[8.144956E-1,5.4983307E1,5.1E-1,-5.8302738E-2,6.202796E1,1.5115387E-4,8.40408E-2,1.2582645E-2,-5.38571E-2,3.600497E-2,-1.8144323E-2],"split_indices":[0,2,5,0,2,1,0,0,0,0,0],"split_type":[0,0,0,0,0,0,0,0,0,0,0],"sum_hessian":[2.0533989E1,1.0010375E1,1.0523613E1,4.0686073E0,5.941768E0,6.0957E0,4.427913E0,3.3033042E0,2.638464E0,1.4097034E0,4.6859965E0],"tree_param":{"num_deleted":"0","num_feature":"6","num_nodes":"11","size_leaf_vector":"1"}},{"base_weights":[1.973649E-3,-7.730404E-1,7.3226845E-1,-5.7016876E-2,-3.9636356E-1,-9.4766006E-2,7.6842345E-2,1.2695658E-2,-5.3078692E-2,3.477328E-2,-2.2181807E-2],"categories":[],"categories_nodes":[],"categories_segments":[],"categories_sizes":[],"default_left":[0,0,0,0,0,0,0,0,0,0,0],"id":5,"left_children":[1,3,5,-1,7,9,-1,-1,-1,-1,-1],"loss_changes":[1.2694769E1,1.0536671E0,7.828817E0,0E0,3.2566833E0,2.1379154E0,0E0,0E0,0E0,0E0,0E0],"parents":[2147483647,0,0,1,1,2,2,4,4,5,5],"right_children":[2,4,6,-1,8,10,-1,-1,-1,-1,-1],"split_conditions":[8.144956E-1,5.4983307E1,5E-1,-5.7016876E-2,4.3E-1,1.5115387E-4,7.6842345E-2,1.2695658E-2,-5.3078692E-2,3.477328E-2,-2.2181807E-2],"split_indices":[0,2,5,0,5,1,0,0,0,0,0],"split_type":[0,0,0,0,0,0,0,0,0,0,0],"sum_hessian":[2.042922E1,9.882761E0,1.0546459E1,3.9772182E0,5.9055424E0,5.6356907E0,4.910768E0,3.2989492E0,2.6065934E0,1.4217596E0,4.213931E0],"tree_param":{"num_deleted":"0","num_feature":"6","num_nodes":"11","size_leaf_vector":"1"}},{"base_weights":[1.2315492E-3,7.89299E-1,-6.766762E-1,-3.570154E-2,1.3155475E0,-2.4784777E-1,-5.8783527E-2,2.2382673E-2,7.9132855E-2,-3.987765E-2,1.0908505E-2],"categories":[],"categories_nodes":[],"categories_segments":[],"categories_sizes":[],"default_left":[0,0,0,0,0,0,0,0,0,0,0],"id":6,"left_children":[1,3,5,-1,7,9,-1,-1,-1,-1,-1],"loss_changes":[1.1919738E1,9.101246E0,2.2753654E0,0E0,1.1446161E0,2.1512058E0,0E0,0E0,0E0,0E0,0E0],"parents":[2147483647,0,0,1,1,2,2,4,4,5,5],"right_children":[2,4,6,-1,8,10,-1,-1,-1,-1,-1],"split_conditions":[3.7048542E1,4.4E-1,4.3E-1,-3.570154E-2,5E-1,3.3E-1,-5.8783527E-2,2.2382673E-2,7.9132855E-2,-3.987765E-2,1.0908505E-2],"split_indices":[2,5,5,0,5,5,0,0,0,0,0],"split_type":[0,0,0,0,0,0,0,0,0,0,0],"sum_hessian":[2.031196E1,9.316832E0,1.0995129E1,2.3232346E0,6.9935966E0,6.718254E0,4.2768745E0,2.2756047E0,4.717992E0,2.7559593E0,3.9622948E0],"tree_param":{"num_deleted":"0","num_feature":"6","num_nodes":"11","size_leaf_vector":"1"}},{"base_weights":[-1.0169132E-4,7.5633824E-1,-6.573379E-1,-3.479806E-2,1.2578764E0,-2.4019848E-1,-5.748869E-2,2.150674E-2,7.567813E-2,-3.886678E-2,1.0441344E-2],"categories":[],"categories_nodes":[],"categories_segments":[],"categories_sizes":[],"default_left":[0,0,0,0,0,0,0,0,0,0,0],"id":7,"left_children":[1,3,5,-1,7,9,-1,-1,-1,-1,-1],"loss_changes":[1.1028574E1,8.38747E0,2.1620631E0,0E0,1.0467882E0,2.0171392E0,0E0,0E0,0E0,0E0,0E0],"parents":[2147483647,0,0,1,1,2,2,4,4,5,5],"right_children":[2,4,6,-1,8,10,-1,-1,-1,-1,-1],"split_conditions":[3.7048542E1,4.4E-1,4.3E-1,-3.479806E-2,5E-1,3.3E-1,-5.748869E-2,2.150674E-2,7.567813E-2,-3.886678E-2,1.0441344E-2],"split_indices":[2,5,5,0,5,5,0,0,0,0,0],"split_type":[0,0,0,0,0,0,0,0,0,0,0],"sum_hessian":[2.0183142E1,9.3133E0,1.0869843E1,2.2911587E0,7.022141E0,6.6903043E0,4.1795382E0,2.2902188E0,4.731922E0,2.713352E0,3.976952E0],"tree_param":{"num_deleted":"0","num_feature":"6","num_nodes":"11","size_leaf_vector":"1"}},{"base_weights":[-1.4291749E-3,7.25813E-1,-6.388826E-1,-3.3924907E-2,1.2050776E0,-2.328707E-1,-5.626927E-2,2.0670325E-2,7.2558485E-2,-3.7892483E-2,9.995557E-3],"categories":[],"categories_nodes":[],"categories_segments":[],"categories_sizes":[],"default_left":[0,0,0,0,0,0,0,0,0,0,0],"id":8,"left_children":[1,3,5,-1,7,9,-1,-1,-1,-1,-1],"loss_changes":[1.021609E1,7.7462735E0,2.0573564E0,0E0,9.6556664E-1,1.8922285E0,0E0,0E0,0E0,0E0,0E0],"parents":[2147483647,0,0,1,1,2,2,4,4,5,5],"right_children":[2,4,6,-1,8,10,-1,-1,-1,-1,-1],"split_conditions":[3.7048542E1,4.4E-1,4.3E-1,-3.3924907E-2,5E-1,3.3E-1,-5.626927E-2,2.0670325E-2,7.2558485E-2,-3.7892483E-2,9.995557E-3],"split_indices":[2,5,5,0,5,5,0,0,0,0,0],"split_type":[0,0,0,0,0,0,0,0,0,0,0],"sum_hessian":[2.0036968E1,9.294581E0,1.0742387E1,2.2591767E0,7.0354047E0,6.661599E0,4.080788E0,2.3038547E0,4.7315497E0,2.6707623E0,3.9908369E0],"tree_param":{"num_deleted":"0","num_feature":"6","num_nodes":"11","size_leaf_vector":"1"}},{"base_weights":[-2.747484E-3,-6.970632E-1,6.239701E-1,-5.4176074E-2,-3.1638026E-1,-2.965853E-2,6.740954E-2,1.5200846E-2,-4.9440388E-2,3.3584516E-2,-1.6453393E-2],"categories":[],"categories_nodes":[],"categories_segments":[],"categories_sizes":[],"default_left":[0,0,0,0,0,0,0,0,0,0,0],"id":9,"left_children":[1,3,5,-1,7,9,-1,-1,-1,-1,-1],"loss_changes":[9.51896E0,1.1837301E0,5.4836726E0,0E0,3.0704696E0,1.6957889E0,0E0,0E0,0E0,0E0,0E0],"parents":[2147483647,0,0,1,1,2,2,4,4,5,5],"right_children":[2,4,6,-1,8,10,-1,-1,-1,-1,-1],"split_conditions":[8.144956E-1,5.4983307E1,5.1E-1,-5.4176074E-2,6.202796E1,1.5115387E-4,6.740954E-2,1.5200846E-2,-4.9440388E-2,3.3584516E-2,-1.6453393E-2],"split_indices":[0,2,5,0,2,1,0,0,0,0,0],"split_type":[0,0,0,0,0,0,0,0,0,0,0],"sum_hessian":[1.9876076E1,9.376251E0,1.0499825E1,3.736653E0,5.639599E0,6.022975E0,4.4768496E0,3.2182488E0,2.4213495E0,1.4299698E0,4.593005E0],"tree_param":{"num_deleted":"0","num_feature":"6","num_nodes":"11","size_leaf_vector":"1"}},{"base_weights":[-2.9892076E-3,6.7942846E-1,-6.07521E-1,-3.237885E-2,1.1239741E0,-2.1357767E-1,-5.4537397E-2,1.9918622E-2,6.743823E-2,-3.662805E-2,1.0270278E-2],"categories":[],"categories_nodes":[],"categories_segments":[],"categories_sizes":[],"default_left":[0,0,0,0,0,0,0,0,0,0,0],"id":10,"left_children":[1,3,5,-1,7,9,-1,-1,-1,-1,-1],"loss_changes":[8.954738E0,6.7440047E0,1.9576182E0,0E0,7.683296E-1,1.7993121E0,0E0,0E0,0E0,0E0,0E0],"parents":[2147483647,0,0,1,1,2,2,4,4,5,5],"right_children":[2,4,6,-1,8,10,-1,-1,-1,-1,-1],"split_conditions":[3.7048542E1,4.4E-1,4.3E-1,-3.237885E-2,5E-1,3.3E-1,-5.4537397E-2,1.9918622E-2,6.743823E-2,-3.662805E-2,1.0270278E-2],"split_indices":[2,5,5,0,5,5,0,0,0,0,0],"split_type":[0,0,0,0,0,0,0,0,0,0,0],"sum_hessian":[1.9705643E1,9.198334E0,1.0507309E1,2.1935847E0,7.004749E0,6.582781E0,3.924528E0,2.312481E0,4.692268E0,2.6061664E0,3.9766142E0],"tree_param":{"num_deleted":"0","num_feature":"6","num_nodes":"11","size_leaf_vector":"1"}},{"base_weights":[-4.2796843E-3,6.5421665E-1,-5.910662E-1,-3.1582654E-2,1.0816053E0,-2.0725915E-1,-5.3475905E-2,1.915303E-2,6.504016E-2,-3.211679E-2,1.4189221E-2],"categories":[],"categories_nodes":[],"categories_segments":[],"categories_sizes":[],"default_left":[0,0,0,0,0,0,0,0,0,0,0],"id":11,"left_children":[1,3,5,-1,7,9,-1,-1,-1,-1,-1],"loss_changes":[8.317714E0,6.2593503E0,1.8679218E0,0E0,7.242222E-1,1.7962297E0,0E0,0E0,0E0,0E0,0E0],"parents":[2147483647,0,0,1,1,2,2,4,4,5,5],"right_children":[2,4,6,-1,8,10,-1,-1,-1,-1,-1],"split_conditions":[3.7048542E1,4.4E-1,4.3E-1,-3.1582654E-2,5E-1,5.4983307E1,-5.3475905E-2,1.915303E-2,6.504016E-2,-3.211679E-2,1.4189221E-2],"split_indices":[2,5,5,0,5,2,0,0,0,0,0],"split_type":[0,0,0,0,0,0,0,0,0,0,0],"sum_hessian":[1.9525608E1,9.146462E0,1.0379146E1,2.1624465E0,6.984016E0,6.5544505E0,3.8246953E0,2.3243337E0,4.6596823E0,3.3119118E0,3.2425385E0],"tree_param":{"num_deleted":"0","num_feature":"6","num_nodes":"11","size_leaf_vector":"1"}},{"base_weights":[-5.1627844E-3,-6.4976984E-1,5.653499E-1,-5.1988345E-2,-2.7709264E-1,-5.8015384E-2,5.8236916E-2,1.55895995E-2,-4.7233734E-2,3.2682788E-2,-1.9415507E-2],"categories":[],"categories_nodes":[],"categories_segments":[],"categories_sizes":[],"default_left":[0,0,0,0,0,0,0,0,0,0,0],"id":12,"left_children":[1,3,5,-1,7,9,-1,-1,-1,-1,-1],"loss_changes":[7.847239E0,1.1674662E0,4.298826E0,0E0,2.843754E0,1.7826031E0,0E0,0E0,0E0,0E0,0E0],"parents":[2147483647,0,0,1,1,2,2,4,4,5,5],"right_children":[2,4,6,-1,8,10,-1,-1,-1,-1,-1],"split_conditions":[8.144956E-1,5.4983307E1,5E-1,-5.1988345E-2,6.202796E1,1.5115387E-4,5.8236916E-2,1.55895995E-2,-4.7233734E-2,3.2682788E-2,-1.9415507E-2],"split_indices":[0,2,5,0,2,1,0,0,0,0,0],"split_type":[0,0,0,0,0,0,0,0,0,0,0],"sum_hessian":[1.9339252E1,9.014775E0,1.0324476E1,3.5303555E0,5.48442E0,5.503762E0,4.820715E0,3.1971323E0,2.2872875E0,1.4343106E0,4.069451E0],"tree_param":{"num_deleted":"0","num_feature":"6","num_nodes":"11","size_leaf_vector":"1"}},{"base_weights":[-5.7047773E-3,-6.339901E-1,5.463305E-1,-5.1030446E-2,-2.6972812E-1,-5.3308047E-2,5.621285E-2,1.4929247E-2,-4.634057E-2,3.160273E-2,-1.8747121E-2],"categories":[],"categories_nodes":[],"categories_segments":[],"categories_sizes":[],"default_left":[0,0,0,0,0,0,0,0,0,0,0],"id":13,"left_children":[1,3,5,-1,7,9,-1,-1,-1,-1,-1],"loss_changes":[7.336351E0,1.1173422E0,3.963749E0,0E0,2.6856377E0,1.6661439E0,0E0,0E0,0E0,0E0,0E0],"parents":[2147483647,0,0,1,1,2,2,4,4,5,5],"right_children":[2,4,6,-1,8,10,-1,-1,-1,-1,-1],"split_conditions":[8.144956E-1,5.4983307E1,5E-1,-5.1030446E-2,6.202796E1,1.5115387E-4,5.621285E-2,1.4929247E-2,-4.634057E-2,3.160273E-2,-1.8747121E-2],"split_indices":[0,2,5,0,2,1,0,0,0,0,0],"split_type":[0,0,0,0,0,0,0,0,0,0,0],"sum_hessian":[1.9153587E1,8.888688E0,1.02649E1,3.4379146E0,5.4507732E0,5.4833283E0,4.781572E0,3.2153764E0,2.235397E0,1.4431093E0,4.040219E0],"tree_param":{"num_deleted":"0","num_feature":"6","num_nodes":"11","size_leaf_vector":"1"}},{"base_weights":[-6.283007E-3,6.026494E-1,-5.518204E-1,-2.9475404E-2,9.9118257E-1,-1.7760919E-1,-5.1673748E-2,1.8688867E-2,5.9153147E-2,-3.5068545E-2,1.1642112E-2],"categories":[],"categories_nodes":[],"categories_segments":[],"categories_sizes":[],"default_left":[0,0,0,0,0,0,0,0,0,0,0],"id":14,"left_children":[1,3,5,-1,7,9,-1,-1,-1,-1,-1],"loss_changes":[6.964005E0,5.1750774E0,1.8083489E0,0E0,4.8752642E-1,1.7599306E0,0E0,0E0,0E0,0E0,0E0],"parents":[2147483647,0,0,1,1,2,2,4,4,5,5],"right_children":[2,4,6,-1,8,10,-1,-1,-1,-1,-1],"split_conditions":[3.7048542E1,4.4E-1,4.3E-1,-2.9475404E-2,5E-1,3.3E-1,-5.1673748E-2,1.8688867E-2,5.9153147E-2,-3.5068545E-2,1.1642112E-2],"split_indices":[2,5,5,0,5,5,0,0,0,0,0],"split_type":[0,0,0,0,0,0,0,0,0,0,0],"sum_hessian":[1.8962503E1,8.91114E0,1.0051363E1,2.0632112E0,6.847929E0,6.4268823E0,3.6244802E0,2.3225925E0,4.5253363E0,2.5122786E0,3.9146037E0],"tree_param":{"num_deleted":"0","num_feature":"6","num_nodes":"11","size_leaf_vector":"1"}},{"base_weights":[-7.490626E-3,5.820483E-1,-5.3728014E-1,-2.8764078E-2,9.5760095E-1,-1.7257088E-1,-5.074611E-2,1.7977696E-2,5.7352584E-2,-3.421926E-2,1.114227E-2],"categories":[],"categories_nodes":[],"categories_segments":[],"categories_sizes":[],"default_left":[0,0,0,0,0,0,0,0,0,0,0],"id":15,"left_children":[1,3,5,-1,7,9,-1,-1,-1,-1,-1],"loss_changes":[6.485273E0,4.825098E0,1.728668E0,0E0,4.7130966E-1,1.6505086E0,0E0,0E0,0E0,0E0,0E0],"parents":[2147483647,0,0,1,1,2,2,4,4,5,5],"right_children":[2,4,6,-1,8,10,-1,-1,-1,-1,-1],"split_conditions":[3.7048542E1,4.4E-1,4.3E-1,-2.8764078E-2,5E-1,3.3E-1,-5.074611E-2,1.7977696E-2,5.7352584E-2,-3.421926E-2,1.114227E-2],"split_indices":[2,5,5,0,5,5,0,0,0,0,0],"split_type":[0,0,0,0,0,0,0,0,0,0,0],"sum_hessian":[1.8762812E1,8.833941E0,9.928869E0,2.0339987E0,6.7999425E0,6.4019113E0,3.5269587E0,2.3330336E0,4.466909E0,2.471754E0,3.9301572E0],"tree_param":{"num_deleted":"0","num_feature":"6","num_nodes":"11","size_leaf_vector":"1"}},{"base_weights":[-8.68261E-3,5.624878E-1,-5.232883E-1,-3.075175E-2,9.145772E-1,-1.6773614E-1,-4.9857493E-2,1.0093677E-2,6.078825E-2,-2.950812E-2,1.4402029E-2],"categories":[],"categories_nodes":[],"categories_segments":[],"categories_sizes":[],"default_left":[0,0,0,0,0,0,0,0,0,0,0],"id":16,"left_children":[1,3,5,-1,7,9,-1,-1,-1,-1,-1],"loss_changes":[6.043393E0,4.6056814E0,1.6535735E0,0E0,1.4524002E0,1.5902305E0,0E0,0E0,0E0,0E0,0E0],"parents":[2147483647,0,0,1,1,2,2,4,4,5,5],"right_children":[2,4,6,-1,8,10,-1,-1,-1,-1,-1],"split_conditions":[3.7048542E1,8.9965516E-1,4.3E-1,-3.075175E-2,3.7663773E-4,5.4983307E1,-4.9857493E-2,1.0093677E-2,6.078825E-2,-2.950812E-2,1.4402029E-2],"split_indices":[2,0,5,0,1,2,0,0,0,0,0],"split_type":[0,0,0,0,0,0,0,0,0,0,0],"sum_hessian":[1.8559412E1,8.75217E0,9.807242E0,1.8426899E0,6.90948E0,6.3766403E0,3.4306018E0,2.5487072E0,4.360773E0,3.1563756E0,3.220265E0],"tree_param":{"num_deleted":"0","num_feature":"6","num_nodes":"11","size_leaf_vector":"1"}},{"base_weights":[-9.733063E-3,-5.792908E-1,4.8073822E-1,-4.884524E-2,-2.1841988E-1,-8.539851E-3,5.2237846E-2,1.5970109E-2,-4.3933854E-2,3.0665541E-2,-1.4375739E-2],"categories":[],"categories_nodes":[],"categories_segments":[],"categories_sizes":[],"default_left":[0,0,0,0,0,0,0,0,0,0,0],"id":17,"left_children":[1,3,5,-1,7,9,-1,-1,-1,-1,-1],"loss_changes":[5.694017E0,1.1387584E0,3.034209E0,0E0,2.492184E0,1.3667934E0,0E0,0E0,0E0,0E0,0E0],"parents":[2147483647,0,0,1,1,2,2,4,4,5,5],"right_children":[2,4,6,-1,8,10,-1,-1,-1,-1,-1],"split_conditions":[8.144956E-1,5.4983307E1,5.1E-1,-4.884524E-2,6.202796E1,1.5115387E-4,5.2237846E-2,1.5970109E-2,-4.3933854E-2,3.0665541E-2,-1.4375739E-2],"split_indices":[0,2,5,0,2,1,0,0,0,0,0],"split_type":[0,0,0,0,0,0,0,0,0,0,0],"sum_hessian":[1.8386063E1,8.42337E0,9.962693E0,3.1954696E0,5.2279E0,5.8621883E0,4.100505E0,3.1655784E0,2.062322E0,1.4443059E0,4.4178824E0],"tree_param":{"num_deleted":"0","num_feature":"6","num_nodes":"11","size_leaf_vector":"1"}},{"base_weights":[-9.875901E-3,5.588897E-1,-4.7905356E-1,-2.9616619E-2,9.189771E-1,-9.561031E-2,-8.106144E-1,1.4989967E-2,5.7106894E-2,-3.3125762E-2,2.1507887E-2,-1.2673843E-2,-4.4007313E-2],"categories":[],"categories_nodes":[],"categories_segments":[],"categories_sizes":[],"default_left":[0,0,0,0,0,0,0,0,0,0,0,0,0],"id":18,"left_children":[1,3,5,-1,7,9,11,-1,-1,-1,-1,-1,-1],"loss_changes":[5.3875437E0,4.3307886E0,1.3275697E0,0E0,6.731429E-1,2.1504471E0,1.3241768E-3,0E0,0E0,0E0,0E0,0E0,0E0],"parents":[2147483647,0,0,1,1,2,2,4,4,5,5,6,6],"right_children":[2,4,6,-1,8,10,12,-1,-1,-1,-1,-1,-1],"split_conditions":[3.6513565E1,8.9965516E-1,3.9E-1,-2.9616619E-2,3.7663773E-4,3.3E-1,4.3E-1,1.4989967E-2,5.7106894E-2,-3.3125762E-2,2.1507887E-2,-1.2673843E-2,-4.4007313E-2],"split_indices":[2,0,5,0,1,5,5,0,0,0,0,0,0],"split_type":[0,0,0,0,0,0,0,0,0,0,0,0,0],"sum_hessian":[1.8185928E1,8.134086E0,1.0051842E1,1.7843709E0,6.3497143E0,5.2586665E0,4.7931757E0,2.3030734E0,4.0466413E0,2.4051952E0,2.8534715E0,1.0472622E0,3.7459133E0],"tree_param":{"num_deleted":"0","num_feature":"6","num_nodes":"13","size_leaf_vector":"1"}},{"base_weights":[-1.0932318E-2,-5.5380607E-1,4.513632E-1,-4.7706705E-2,-1.9811611E-1,-4.7024045E-2,4.7792625E-2,1.5912201E-2,-4.2669144E-2,2.9742518E-2,-1.7744098E-2],"categories":[],"categories_nodes":[],"categories_segments":[],"categories_sizes":[],"default_left":[0,0,0,0,0,0,0,0,0,0,0],"id":19,"left_children":[1,3,5,-1,7,9,-1,-1,-1,-1,-1],"loss_changes":[5.0237007E0,1.1205943E0,2.7664387E0,0E0,2.346439E0,1.4753939E0,0E0,0E0,0E0,0E0,0E0],"parents":[2147483647,0,0,1,1,2,2,4,4,5,5],"right_children":[2,4,6,-1,8,10,-1,-1,-1,-1,-1],"split_conditions":[8.144956E-1,5.4983307E1,5E-1,-4.7706705E-2,6.202796E1,1.5115387E-4,4.7792625E-2,1.5912201E-2,-4.2669144E-2,2.9742518E-2,-1.7744098E-2],"split_indices":[0,2,5,0,2,1,0,0,0,0,0],"split_type":[0,0,0,0,0,0,0,0,0,0,0],"sum_hessian":[1.8021275E1,8.19727E0,9.824005E0,3.0650628E0,5.132208E0,5.398042E0,4.4259624E0,3.157992E0,1.9742161E0,1.4476051E0,3.950437E0],"tree_param":{"num_deleted":"0","num_feature":"6","num_nodes":"11","size_leaf_vector":"1"}},{"base_weights":[-1.1383326E-2,5.311574E-1,-4.5905733E-1,-2.849677E-2,8.721999E-1,-1.4030065E-1,-4.29553E-2,2.4362266E-2,6.8651006E-2,-3.2173738E-2,1.1655939E-2],"categories":[],"categories_nodes":[],"categories_segments":[],"categories_sizes":[],"default_left":[0,0,0,0,0,0,0,0,0,0,0],"id":20,"left_children":[1,3,5,-1,7,9,-1,-1,-1,-1,-1],"loss_changes":[4.8158774E0,3.8669994E0,1.2630672E0,0E0,7.2816753E-1,1.5092081E0,0E0,0E0,0E0,0E0,0E0],"parents":[2147483647,0,0,1,1,2,2,4,4,5,5],"right_children":[2,4,6,-1,8,10,-1,-1,-1,-1,-1],"split_conditions":[3.6513565E1,8.9965516E-1,4.3E-1,-2.849677E-2,3.4376823E1,3.3E-1,-4.29553E-2,2.4362266E-2,6.8651006E-2,-3.2173738E-2,1.1655939E-2],"split_indices":[2,0,5,0,2,5,0,0,0,0,0],"split_type":[0,0,0,0,0,0,0,0,0,0,0],"sum_hessian":[1.7824194E1,7.973973E0,9.850221E0,1.7270025E0,6.24697E0,6.2338395E0,3.6163816E0,4.6475406E0,1.5994297E0,2.347475E0,3.8863645E0],"tree_param":{"num_deleted":"0","num_feature":"6","num_nodes":"11","size_leaf_vector":"1"}},{"base_weights":[-1.0978668E-2,4.9001467E-1,-4.67509E-1,-2.5947882E-2,8.133813E-1,-1.366425E-1,-4.691642E-2,2.2934286E-2,6.1498713E-2,-3.1408127E-2,1.1156807E-2],"categories":[],"categories_nodes":[],"categories_segments":[],"categories_sizes":[],"default_left":[0,0,0,0,0,0,0,0,0,0,0],"id":21,"left_children":[1,3,5,-1,7,9,-1,-1,-1,-1,-1],"loss_changes":[4.501853E0,3.4874542E0,1.4741445E0,0E0,5.447087E-1,1.4154118E0,0E0,0E0,0E0,0E0,0E0],"parents":[2147483647,0,0,1,1,2,2,4,4,5,5],"right_children":[2,4,6,-1,8,10,-1,-1,-1,-1,-1],"split_conditions":[3.7048542E1,4.4E-1,4.3E-1,-2.5947882E-2,3.4376823E1,3.3E-1,-4.691642E-2,2.2934286E-2,6.1498713E-2,-3.1408127E-2,1.1156807E-2],"split_indices":[2,5,5,0,2,5,0,0,0,0,0],"split_type":[0,0,0,0,0,0,0,0,0,0,0],"sum_hessian":[1.7681322E1,8.395172E0,9.286151E0,1.890756E0,6.504416E0,6.211363E0,3.074788E0,4.6480303E0,1.8563856E0,2.309802E0,3.9015605E0],"tree_param":{"num_deleted":"0","num_feature":"6","num_nodes":"11","size_leaf_vector":"1"}},{"base_weights":[-1.1125052E-2,4.9871165E-1,-4.360418E-1,-2.780938E-2,8.227266E-1,-7.393857E-2,-3.8142685E-2,2.267625E-2,6.519453E-2,-3.0663682E-2,2.0017503E-2],"categories":[],"categories_nodes":[],"categories_segments":[],"categories_sizes":[],"default_left":[0,0,0,0,0,0,0,0,0,0,0],"id":22,"left_children":[1,3,5,-1,7,9,-1,-1,-1,-1,-1],"loss_changes":[4.227963E0,3.4934177E0,1.2016234E0,0E0,6.873746E-1,1.81879E0,0E0,0E0,0E0,0E0,0E0],"parents":[2147483647,0,0,1,1,2,2,4,4,5,5],"right_children":[2,4,6,-1,8,10,-1,-1,-1,-1,-1],"split_conditions":[3.6513565E1,8.9965516E-1,3.9E-1,-2.780938E-2,3.4376823E1,3.3E-1,-3.8142685E-2,2.267625E-2,6.519453E-2,-3.0663682E-2,2.0017503E-2],"split_indices":[2,0,5,0,2,5,0,0,0,0,0],"split_type":[0,0,0,0,0,0,0,0,0,0,0],"sum_hessian":[1.7512457E1,7.8818016E0,9.630655E0,1.683679E0,6.1981225E0,5.1503634E0,4.480292E0,4.606257E0,1.5918655E0,2.2728095E0,2.8775537E0],"tree_param":{"num_deleted":"0","num_feature":"6","num_nodes":"11","size_leaf_vector":"1"}},{"base_weights":[-1.01695815E-2,4.6146905E-1,-4.4439107E-1,-2.5050431E-2,7.678332E-1,-1.2668794E-1,-4.5566816E-2,1.181523E-2,4.8660398E-2,-2.707423E-2,1.5027001E-2],"categories":[],"categories_nodes":[],"categories_segments":[],"categories_sizes":[],"default_left":[0,0,0,0,0,0,0,0,0,0,0],"id":23,"left_children":[1,3,5,-1,7,9,-1,-1,-1,-1,-1],"loss_changes":[3.9657142E0,3.1248395E0,1.3784468E0,0E0,5.826187E-1,1.4305531E0,0E0,0E0,0E0,0E0,0E0],"parents":[2147483647,0,0,1,1,2,2,4,4,5,5],"right_children":[2,4,6,-1,8,10,-1,-1,-1,-1,-1],"split_conditions":[3.7048542E1,4.4E-1,4.3E-1,-2.5050431E-2,5E-1,5.4983307E1,-4.5566816E-2,1.181523E-2,4.8660398E-2,-2.707423E-2,1.5027001E-2],"split_indices":[2,5,5,0,5,2,0,0,0,0,0],"split_type":[0,0,0,0,0,0,0,0,0,0,0],"sum_hessian":[1.7362898E1,8.292777E0,9.070122E0,1.8489025E0,6.4438744E0,6.1542006E0,2.9159212E0,2.3952782E0,4.0485964E0,2.9868362E0,3.1673641E0],"tree_param":{"num_deleted":"0","num_feature":"6","num_nodes":"11","size_leaf_vector":"1"}},{"base_weights":[-1.1047815E-2,-4.976177E-1,3.93259E-1,-4.562905E-2,-1.4408296E-1,-2.8176807E-2,9.1096157E-1,1.7161952E-2,-4.0349394E-2,2.8184352E-2,-1.4723289E-2,1.2152231E-2,5.1758785E-2],"categories":[],"categories_nodes":[],"categories_segments":[],"categories_sizes":[],"default_left":[0,0,0,0,0,0,0,0,0,0,0,0,0],"id":24,"left_children":[1,3,5,-1,7,9,11,-1,-1,-1,-1,-1,-1],"loss_changes":[3.7687845E0,1.1425416E0,2.3118849E0,0E0,2.1754625E0,1.229263E0,1.4101768E-1,0E0,0E0,0E0,0E0,0E0,0E0],"parents":[2147483647,0,0,1,1,2,2,4,4,5,5,6,6],"right_children":[2,4,6,-1,8,10,12,-1,-1,-1,-1,-1,-1],"split_conditions":[8.144956E-1,5.4983307E1,5.1E-1,-4.562905E-2,6.202796E1,1.5115387E-4,4.756541E-4,1.7161952E-2,-4.0349394E-2,2.8184352E-2,-1.4723289E-2,1.2152231E-2,5.1758785E-2],"split_indices":[0,2,5,0,2,1,1,0,0,0,0,0,0],"split_type":[0,0,0,0,0,0,0,0,0,0,0,0,0],"sum_hessian":[1.7163013E1,7.6843543E0,9.478659E0,2.8076062E0,4.876748E0,5.746386E0,3.7322726E0,3.088509E0,1.7882391E0,1.4365755E0,4.3098106E0,1.0488914E0,2.683381E0],"tree_param":{"num_deleted":"0","num_feature":"6","num_nodes":"13","size_leaf_vector":"1"}},{"base_weights":[-1.0213425E-2,-4.8678416E-1,3.8406047E-1,-4.5952626E-2,-1.399369E-1,-2.487162E-2,8.910917E-1,3.185362E-2,-3.450356E-2,2.7302498E-2,-1.4186554E-2,1.1871631E-2,5.068927E-2],"categories":[],"categories_nodes":[],"categories_segments":[],"categories_sizes":[],"default_left":[0,0,0,0,0,0,0,0,0,0,0,0,0],"id":25,"left_children":[1,3,5,-1,7,9,11,-1,-1,-1,-1,-1,-1],"loss_changes":[3.565187E0,1.157944E0,2.1780934E0,0E0,2.9789462E0,1.1493471E0,1.3377404E-1,0E0,0E0,0E0,0E0,0E0,0E0],"parents":[2147483647,0,0,1,1,2,2,4,4,5,5,6,6],"right_children":[2,4,6,-1,8,10,12,-1,-1,-1,-1,-1,-1],"split_conditions":[8.144956E-1,3.3E-1,5.1E-1,-4.5952626E-2,3.9E-1,1.5115387E-4,4.756541E-4,3.185362E-2,-3.450356E-2,2.7302498E-2,-1.4186554E-2,1.1871631E-2,5.068927E-2],"split_indices":[0,5,5,0,5,1,1,0,0,0,0,0,0],"split_type":[0,0,0,0,0,0,0,0,0,0,0,0,0],"sum_hessian":[1.6978943E1,7.580966E0,9.397976E0,2.640471E0,4.9404955E0,5.728643E0,3.6693332E0,1.9824517E0,2.9580436E0,1.44101E0,4.287633E0,1.0437657E0,2.6255674E0],"tree_param":{"num_deleted":"0","num_feature":"6","num_nodes":"13","size_leaf_vector":"1"}},{"base_weights":[-8.381657E-3,4.5971516E-1,-3.9921233E-1,-2.6447132E-2,7.58835E-1,-1.09072305E-1,-3.9649922E-2,1.9159505E-2,6.3021E-2,-2.5586238E-2,1.470526E-2],"categories":[],"categories_nodes":[],"categories_segments":[],"categories_sizes":[],"default_left":[0,0,0,0,0,0,0,0,0,0,0],"id":26,"left_children":[1,3,5,-1,7,9,-1,-1,-1,-1,-1],"loss_changes":[3.4370701E0,2.9319022E0,1.0819936E0,0E0,8.321967E-1,1.2946786E0,0E0,0E0,0E0,0E0,0E0],"parents":[2147483647,0,0,1,1,2,2,4,4,5,5],"right_children":[2,4,6,-1,8,10,-1,-1,-1,-1,-1],"split_conditions":[3.6513565E1,8.9965516E-1,4.3E-1,-2.6447132E-2,3.4376823E1,5.4983307E1,-3.9649922E-2,1.9159505E-2,6.3021E-2,-2.5586238E-2,1.470526E-2],"split_indices":[2,0,5,0,2,2,0,0,0,0,0],"split_type":[0,0,0,0,0,0,0,0,0,0,0],"sum_hessian":[1.678413E1,7.556946E0,9.227184E0,1.5768328E0,5.980113E0,6.0480146E0,3.1791697E0,4.4279265E0,1.5521868E0,2.891275E0,3.1567395E0],"tree_param":{"num_deleted":"0","num_feature":"6","num_nodes":"11","size_leaf_vector":"1"}},{"base_weights":[-7.833975E-3,-4.6803477E-1,3.6935386E-1,-4.5165177E-2,-1.2260276E-1,-5.4174237E-2,8.2743037E-1,3.052423E-2,-3.31625E-2,2.6447657E-2,-1.6857771E-2,1.1156662E-2,4.6417933E-2],"categories":[],"categories_nodes":[],"categories_segments":[],"categories_sizes":[],"default_left":[0,0,0,0,0,0,0,0,0,0,0,0,0],"id":27,"left_children":[1,3,5,-1,7,9,11,-1,-1,-1,-1,-1,-1],"loss_changes":[3.2365248E0,1.1508944E0,2.035069E0,0E0,2.7176964E0,1.2127845E0,9.717846E-2,0E0,0E0,0E0,0E0,0E0,0E0],"parents":[2147483647,0,0,1,1,2,2,4,4,5,5,6,6],"right_children":[2,4,6,-1,8,10,12,-1,-1,-1,-1,-1,-1],"split_conditions":[8.144956E-1,3.3E-1,5E-1,-4.5165177E-2,3.9E-1,1.5115387E-4,4.756541E-4,3.052423E-2,-3.31625E-2,2.6447657E-2,-1.6857771E-2,1.1156662E-2,4.6417933E-2],"split_indices":[0,5,5,0,5,1,1,0,0,0,0,0,0],"split_type":[0,0,0,0,0,0,0,0,0,0,0,0,0],"sum_hessian":[1.6649593E1,7.391045E0,9.258549E0,2.555694E0,4.835351E0,5.2688313E0,3.9897172E0,1.997576E0,2.837775E0,1.4374734E0,3.8313577E0,1.0305027E0,2.9592144E0],"tree_param":{"num_deleted":"0","num_feature":"6","num_nodes":"13","size_leaf_vector":"1"}},{"base_weights":[-6.5163835E-3,4.4181567E-1,-3.8155934E-1,-2.550996E-2,7.2658634E-1,-9.923397E-2,-3.866644E-2,1.7813787E-2,6.118929E-2,-2.4718944E-2,1.4523975E-2],"categories":[],"categories_nodes":[],"categories_segments":[],"categories_sizes":[],"default_left":[0,0,0,0,0,0,0,0,0,0,0],"id":28,"left_children":[1,3,5,-1,7,9,-1,-1,-1,-1,-1],"loss_changes":[3.1044796E0,2.6525064E0,1.0341917E0,0E0,8.3279514E-1,1.2191846E0,0E0,0E0,0E0,0E0,0E0],"parents":[2147483647,0,0,1,1,2,2,4,4,5,5],"right_children":[2,4,6,-1,8,10,-1,-1,-1,-1,-1],"split_conditions":[3.6513565E1,8.9965516E-1,4.3E-1,-2.550996E-2,3.4376823E1,5.4983307E1,-3.866644E-2,1.7813787E-2,6.118929E-2,-2.4718944E-2,1.4523975E-2],"split_indices":[2,0,5,0,2,2,0,0,0,0,0],"split_type":[0,0,0,0,0,0,0,0,0,0,0],"sum_hessian":[1.6460657E1,7.4166455E0,9.044011E0,1.5254178E0,5.8912277E0,5.9845743E0,3.059437E0,4.3602843E0,1.5309436E0,2.838224E0,3.1463504E0],"tree_param":{"num_deleted":"0","num_feature":"6","num_nodes":"11","size_leaf_vector":"1"}},{"base_weights":[-6.066424E-3,-2.5081787E-1,6.590338E-1,2.5645113E-2,-3.8518852E-1,4.2772245E-2,8.899934E-3,-4.8589822E-2,-7.463071E-3],"categories":[],"categories_nodes":[],"categories_segments":[],"categories_sizes":[],"default_left":[0,0,0,0,0,0,0,0,0],"id":29,"left_children":[1,3,5,-1,7,-1,-1,-1,-1],"loss_changes":[2.9862747E0,1.5718932E0,3.1421542E-1,0E0,1.5101166E0,0E0,0E0,0E0,0E0],"parents":[2147483647,0,0,1,1,2,2,4,4],"right_children":[2,4,6,-1,8,-1,-1,-1,-1],"split_conditions":[5.1E-1,1.5115387E-4,6.3E-1,2.5645113E-2,3.4376823E1,4.2772245E-2,8.899934E-3,-4.8589822E-2,-7.463071E-3],"split_indices":[5,1,5,0,2,0,0,0,0],"split_type":[0,0,0,0,0,0,0,0,0],"sum_hessian":[1.632955E1,1.2392206E1,3.9373436E0,1.4326138E0,1.0959593E1,2.2431164E0,1.6942271E0,2.248896E0,8.710697E0],"tree_param":{"num_deleted":"0","num_feature":"6","num_nodes":"9","size_leaf_vector":"1"}},{"base_weights":[-4.596173E-3,4.332585E-1,-3.6849362E-1,-2.4398915E-2,7.0398235E-1,-9.2101E-2,-3.789478E-2,1.6909264E-2,5.9584588E-2,-2.8050423E-2,1.1425806E-2],"categories":[],"categories_nodes":[],"categories_segments":[],"categories_sizes":[],"default_left":[0,0,0,0,0,0,0,0,0,0,0],"id":30,"left_children":[1,3,5,-1,7,9,-1,-1,-1,-1,-1],"loss_changes":[2.9018767E0,2.4063418E0,9.999572E-1,0E0,8.104651E-1,1.1733E0,0E0,0E0,0E0,0E0,0E0],"parents":[2147483647,0,0,1,1,2,2,4,4,5,5],"right_children":[2,4,6,-1,8,10,-1,-1,-1,-1,-1],"split_conditions":[3.6513565E1,8.9965516E-1,4.3E-1,-2.4398915E-2,3.4376823E1,3.3E-1,-3.789478E-2,1.6909264E-2,5.9584588E-2,-2.8050423E-2,1.1425806E-2],"split_indices":[2,0,5,0,2,5,0,0,0,0,0],"split_type":[0,0,0,0,0,0,0,0,0,0,0],"sum_hessian":[1.6210516E1,7.271081E0,8.939436E0,1.4691764E0,5.801904E0,5.951591E0,2.9878442E0,4.2829647E0,1.5189397E0,2.1123986E0,3.8391926E0],"tree_param":{"num_deleted":"0","num_feature":"6","num_nodes":"11","size_leaf_vector":"1"}},{"base_weights":[-4.6328176E-3,-2.4111892E-1,6.40903E-1,2.4720838E-2,-3.7196693E-1,4.1701604E-2,8.490296E-3,-4.7714796E-2,-7.0084496E-3],"categories":[],"categories_nodes":[],"categories_segments":[],"categories_sizes":[],"default_left":[0,0,0,0,0,0,0,0,0],"id":31,"left_children":[1,3,5,-1,7,-1,-1,-1,-1],"loss_changes":[2.7622046E0,1.457042E0,2.999363E-1,0E0,1.4591835E0,0E0,0E0,0E0,0E0],"parents":[2147483647,0,0,1,1,2,2,4,4],"right_children":[2,4,6,-1,8,-1,-1,-1,-1],"split_conditions":[5.1E-1,1.5115387E-4,6.3E-1,2.4720838E-2,3.4376823E1,4.1701604E-2,8.490296E-3,-4.7714796E-2,-7.0084496E-3],"split_indices":[5,1,5,0,2,0,0,0,0],"split_type":[0,0,0,0,0,0,0,0,0],"sum_hessian":[1.608153E1,1.2228291E1,3.8532393E0,1.4271722E0,1.0801119E1,2.1864767E0,1.6667626E0,2.1878397E0,8.613278E0],"tree_param":{"num_deleted":"0","num_feature":"6","num_nodes":"9","size_leaf_vector":"1"}},{"base_weights":[-3.2684465E-3,4.2507657E-1,-3.5677165E-1,-2.334195E-2,6.827071E-1,-8.653675E-2,-3.714386E-2,1.6062213E-2,5.8066916E-2,-2.398861E-2,1.4736856E-2],"categories":[],"categories_nodes":[],"categories_segments":[],"categories_sizes":[],"default_left":[0,0,0,0,0,0,0,0,0,0,0],"id":32,"left_children":[1,3,5,-1,7,9,-1,-1,-1,-1,-1],"loss_changes":[2.7205667E0,2.18617E0,9.6223795E-1,0E0,7.881026E-1,1.1788425E0,0E0,0E0,0E0,0E0,0E0],"parents":[2147483647,0,0,1,1,2,2,4,4,5,5],"right_children":[2,4,6,-1,8,10,-1,-1,-1,-1,-1],"split_conditions":[3.6513565E1,8.9965516E-1,4.3E-1,-2.334195E-2,3.4376823E1,5.4983307E1,-3.714386E-2,1.6062213E-2,5.8066916E-2,-2.398861E-2,1.4736856E-2],"split_indices":[2,0,5,0,2,2,0,0,0,0,0],"split_type":[0,0,0,0,0,0,0,0,0,0,0],"sum_hessian":[1.5965322E1,7.1269827E0,8.838339E0,1.4152713E0,5.7117114E0,5.919449E0,2.9188895E0,4.2062902E0,1.5054214E0,2.7868392E0,3.1326098E0],"tree_param":{"num_deleted":"0","num_feature":"6","num_nodes":"11","size_leaf_vector":"1"}},{"base_weights":[-2.9517666E-3,4.5937946E-1,-3.1677002E-1,-3.4255538E-2,8.613659E-1,-4.4162128E-2,-3.3173874E-2,-3.3242263E-2,3.7561636E-2,8.308159E-3,5.3317364E-2,9.733763E-3,-3.4968313E-2],"categories":[],"categories_nodes":[],"categories_segments":[],"categories_sizes":[],"default_left":[0,0,0,0,0,0,0,0,0,0,0,0,0],"id":33,"left_children":[1,3,5,7,9,-1,11,-1,-1,-1,-1,-1,-1],"loss_changes":[2.5888093E0,1.4616139E0,1.6772853E0,2.5802999E0,3.9510918E-1,0E0,1.3683999E0,0E0,0E0,0E0,0E0,0E0,0E0],"parents":[2147483647,0,0,1,1,2,2,3,3,4,4,6,6],"right_children":[2,4,6,8,10,-1,12,-1,-1,-1,-1,-1,-1],"split_conditions":[1.5973003E-3,4.0560137E-4,3.3E-1,9.973876E-1,3.1347763E1,-4.4162128E-2,6.202796E1,-3.3242263E-2,3.7561636E-2,8.308159E-3,5.3317364E-2,9.733763E-3,-3.4968313E-2],"split_indices":[1,1,5,0,2,0,2,0,0,0,0,0,0],"split_type":[0,0,0,0,0,0,0,0,0,0,0,0,0],"sum_hessian":[1.5840067E1,6.2170253E0,9.623042E0,3.2010074E0,3.016018E0,2.5049872E0,7.118055E0,1.860771E0,1.3402363E0,1.0990771E0,1.9169408E0,5.831397E0,1.2866578E0],"tree_param":{"num_deleted":"0","num_feature":"6","num_nodes":"13","size_leaf_vector":"1"}},{"base_weights":[-3.1324755E-3,-2.2826634E-1,6.169548E-1,2.395437E-2,-3.5628042E-1,4.035289E-2,7.841898E-3,-4.678009E-2,-6.4390637E-3],"categories":[],"categories_nodes":[],"categories_segments":[],"categories_sizes":[],"default_left":[0,0,0,0,0,0,0,0,0],"id":34,"left_children":[1,3,5,-1,7,-1,-1,-1,-1],"loss_changes":[2.4764159E0,1.348208E0,2.8683448E-1,0E0,1.4063113E0,0E0,0E0,0E0,0E0],"parents":[2147483647,0,0,1,1,2,2,4,4],"right_children":[2,4,6,-1,8,-1,-1,-1,-1],"split_conditions":[5.1E-1,1.5115387E-4,6.3E-1,2.395437E-2,3.4376823E1,4.035289E-2,7.841898E-3,-4.678009E-2,-6.4390637E-3],"split_indices":[5,1,5,0,2,0,0,0,0],"split_type":[0,0,0,0,0,0,0,0,0],"sum_hessian":[1.5730243E1,1.2003893E1,3.7263498E0,1.4192477E0,1.0584645E1,2.1033125E0,1.6230373E0,2.1069062E0,8.477739E0],"tree_param":{"num_deleted":"0","num_feature":"6","num_nodes":"9","size_leaf_vector":"1"}},{"base_weights":[-1.88199E-3,4.104416E-1,-3.395987E-1,-2.2080233E-2,6.512796E-1,-7.16935E-2,-3.647729E-2,1.4791789E-2,5.5954695E-2,-2.3238434E-2,1.5178176E-2],"categories":[],"categories_nodes":[],"categories_segments":[],"categories_sizes":[],"default_left":[0,0,0,0,0,0,0,0,0,0,0],"id":35,"left_children":[1,3,5,-1,7,9,-1,-1,-1,-1,-1],"loss_changes":[2.453506E0,1.9160253E0,9.5927584E-1,0E0,7.6487446E-1,1.1512988E0,0E0,0E0,0E0,0E0,0E0],"parents":[2147483647,0,0,1,1,2,2,4,4,5,5],"right_children":[2,4,6,-1,8,10,-1,-1,-1,-1,-1],"split_conditions":[3.6513565E1,8.9965516E-1,4.3E-1,-2.2080233E-2,3.4376823E1,5.4983307E1,-3.647729E-2,1.4791789E-2,5.5954695E-2,-2.3238434E-2,1.5178176E-2],"split_indices":[2,0,5,0,2,2,0,0,0,0,0],"split_type":[0,0,0,0,0,0,0,0,0,0,0],"sum_hessian":[1.5618632E1,6.9355583E0,8.683074E0,1.34468E0,5.5908785E0,5.848699E0,2.834375E0,4.104597E0,1.4862812E0,2.7400308E0,3.1086686E0],"tree_param":{"num_deleted":"0","num_feature":"6","num_nodes":"11","size_leaf_vector":"1"}},{"base_weights":[-1.6293505E-3,4.3983823E-1,-3.0295897E-1,-3.8482558E-2,8.325875E-1,-4.3249726E-2,-2.6486116E-2,2.9736718E-2,-3.8956594E-2,7.854845E-3,5.1483065E-2,9.754419E-3,-3.419395E-2],"categories":[],"categories_nodes":[],"categories_segments":[],"categories_sizes":[],"default_left":[0,0,0,0,0,0,0,0,0,0,0,0,0],"id":36,"left_children":[1,3,5,7,9,-1,11,-1,-1,-1,-1,-1,-1],"loss_changes":[2.3279567E0,1.3659685E0,1.5927327E0,2.4131489E0,3.631785E-1,0E0,1.2988296E0,0E0,0E0,0E0,0E0,0E0,0E0],"parents":[2147483647,0,0,1,1,2,2,3,3,4,4,6,6],"right_children":[2,4,6,8,10,-1,12,-1,-1,-1,-1,-1,-1],"split_conditions":[1.5973003E-3,4.0560137E-4,3.3E-1,1.5115387E-4,3.1347763E1,-4.3249726E-2,6.202796E1,2.9736718E-2,-3.8956594E-2,7.854845E-3,5.1483065E-2,9.754419E-3,-3.419395E-2],"split_indices":[1,1,5,1,2,0,2,0,0,0,0,0,0],"split_type":[0,0,0,0,0,0,0,0,0,0,0,0,0],"sum_hessian":[1.5498152E1,6.100647E0,9.397505E0,3.157371E0,2.943276E0,2.3966763E0,7.0008283E0,1.8083416E0,1.3490294E0,1.0706526E0,1.8726233E0,5.7619877E0,1.2388407E0],"tree_param":{"num_deleted":"0","num_feature":"6","num_nodes":"13","size_leaf_vector":"1"}},{"base_weights":[-2.7321533E-3,-1.6196816E-1,4.089778E-2,-4.257336E-2,3.9045807E-2,-3.2463886E-2,1.1091755E-2],"categories":[],"categories_nodes":[],"categories_segments":[],"categories_sizes":[],"default_left":[0,0,0,0,0,0,0],"id":37,"left_children":[1,3,-1,-1,5,-1,-1],"loss_changes":[2.2742567E0,2.0513284E0,0E0,0E0,1.6827896E0,0E0,0E0],"parents":[2147483647,0,0,1,1,4,4],"right_children":[2,4,-1,-1,6,-1,-1],"split_conditions":[9.973876E-1,3.3E-1,4.089778E-2,-4.257336E-2,4.0560137E-4,-3.2463886E-2,1.1091755E-2],"split_indices":[0,5,0,0,1,0,0],"split_type":[0,0,0,0,0,0,0],"sum_hessian":[1.5389075E1,1.3560591E1,1.8284844E0,2.3305836E0,1.1230007E1,1.8209314E0,9.409076E0],"tree_param":{"num_deleted":"0","num_feature":"6","num_nodes":"7","size_leaf_vector":"1"}},{"base_weights":[-4.0953252E-3,3.8975874E-1,-3.2571077E-1,-2.115542E-2,6.168571E-1,-6.8791294E-3,-3.237197E-2,1.3565023E-2,5.362762E-2,-2.4988681E-2,1.8456563E-2],"categories":[],"categories_nodes":[],"categories_segments":[],"categories_sizes":[],"default_left":[0,0,0,0,0,0,0,0,0,0,0],"id":38,"left_children":[1,3,5,-1,7,9,-1,-1,-1,-1,-1],"loss_changes":[2.194634E0,1.6995742E0,9.7316396E-1,0E0,7.322483E-1,1.2589651E0,0E0,0E0,0E0,0E0,0E0],"parents":[2147483647,0,0,1,1,2,2,4,4,5,5],"right_children":[2,4,6,-1,8,10,-1,-1,-1,-1,-1],"split_conditions":[3.6513565E1,8.9965516E-1,3.9E-1,-2.115542E-2,3.4376823E1,3.3E-1,-3.237197E-2,1.3565023E-2,5.362762E-2,-2.4988681E-2,1.8456563E-2],"split_indices":[2,0,5,0,2,5,0,0,0,0,0],"split_type":[0,0,0,0,0,0,0,0,0,0,0],"sum_hessian":[1.5323459E1,6.7929068E0,8.530552E0,1.2948967E0,5.49801E0,4.797567E0,3.7329853E0,4.0342035E0,1.4638066E0,1.9336659E0,2.863901E0],"tree_param":{"num_deleted":"0","num_feature":"6","num_nodes":"11","size_leaf_vector":"1"}},{"base_weights":[-3.5565563E-3,-2.159086E-1,5.872644E-1,2.2151165E-2,-3.374729E-1,3.8761478E-2,6.885756E-3,-4.568632E-2,-5.712197E-3],"categories":[],"categories_nodes":[],"categories_segments":[],"categories_sizes":[],"default_left":[0,0,0,0,0,0,0,0,0],"id":39,"left_children":[1,3,5,-1,7,-1,-1,-1,-1],"loss_changes":[2.1591778E0,1.1626005E0,2.7785957E-1,0E0,1.342153E0,0E0,0E0,0E0,0E0],"parents":[2147483647,0,0,1,1,2,2,4,4],"right_children":[2,4,6,-1,8,-1,-1,-1,-1],"split_conditions":[5.1E-1,1.5115387E-4,6.3E-1,2.2151165E-2,3.4376823E1,3.8761478E-2,6.885756E-3,-4.568632E-2,-5.712197E-3],"split_indices":[5,1,5,0,2,0,0,0,0],"split_type":[0,0,0,0,0,0,0,0,0],"sum_hessian":[1.5199181E1,1.1647437E1,3.5517437E0,1.4022533E0,1.0245184E1,1.9936861E0,1.5580577E0,1.9969468E0,8.248237E0],"tree_param":{"num_deleted":"0","num_feature":"6","num_nodes":"9","size_leaf_vector":"1"}},{"base_weights":[-2.404131E-3,-1.5580684E-1,3.9350502E-2,-4.1341014E-2,3.469255E-2,-3.201435E-2,1.0727363E-2],"categories":[],"categories_nodes":[],"categories_segments":[],"categories_sizes":[],"default_left":[0,0,0,0,0,0,0],"id":40,"left_children":[1,3,-1,-1,5,-1,-1],"loss_changes":[2.0716174E0,1.8579518E0,0E0,0E0,1.6069949E0,0E0,0E0],"parents":[2147483647,0,0,1,1,4,4],"right_children":[2,4,-1,-1,6,-1,-1],"split_conditions":[9.973876E-1,3.3E-1,3.9350502E-2,-4.1341014E-2,4.0560137E-4,-3.201435E-2,1.0727363E-2],"split_indices":[0,5,0,0,1,0,0],"split_type":[0,0,0,0,0,0,0],"sum_hessian":[1.5094334E1,1.3310419E1,1.7839142E0,2.204617E0,1.1105802E1,1.7980075E0,9.307795E0],"tree_param":{"num_deleted":"0","num_feature":"6","num_nodes":"7","size_leaf_vector":"1"}},{"base_weights":[-3.816583E-3,3.6131084E-1,-3.3076456E-1,-8.936368E-2,7.770134E-1,-4.5536384E-2,-4.049043E-2,-2.6969379E-2,3.0160049E-2,9.722408E-3,4.5423023E-2,-2.247276E-2,1.6704092E-2],"categories":[],"categories_nodes":[],"categories_segments":[],"categories_sizes":[],"default_left":[0,0,0,0,0,0,0,0,0,0,0,0,0],"id":41,"left_children":[1,3,5,7,9,11,-1,-1,-1,-1,-1,-1,-1],"loss_changes":[2.0332255E0,1.57779E0,1.190074E0,1.8088888E0,1.5195727E-1,1.1756585E0,0E0,0E0,0E0,0E0,0E0,0E0,0E0],"parents":[2147483647,0,0,1,1,2,2,3,3,4,4,5,5],"right_children":[2,4,6,8,10,12,-1,-1,-1,-1,-1,-1,-1],"split_conditions":[3.7048542E1,5E-1,4.3E-1,3.4376823E1,2.7692553E1,5.4983307E1,-4.049043E-2,-2.6969379E-2,3.0160049E-2,9.722408E-3,4.5423023E-2,-2.247276E-2,1.6704092E-2],"split_indices":[2,5,5,2,2,2,0,0,0,0,0,0,0],"split_type":[0,0,0,0,0,0,0,0,0,0,0,0,0],"sum_hessian":[1.5030777E1,7.051138E0,7.9796386E0,3.7599277E0,3.2912102E0,5.687998E0,2.2916408E0,2.413091E0,1.3468368E0,1.0623274E0,2.2288828E0,2.666665E0,3.021333E0],"tree_param":{"num_deleted":"0","num_feature":"6","num_nodes":"13","size_leaf_vector":"1"}},{"base_weights":[-2.9610225E-3,-1.5430838E-1,3.8637035E-2,-4.073148E-2,3.1365167E-2,-3.1070119E-2,1.030537E-2],"categories":[],"categories_nodes":[],"categories_segments":[],"categories_sizes":[],"default_left":[0,0,0,0,0,0,0],"id":42,"left_children":[1,3,-1,-1,5,-1,-1],"loss_changes":[1.9827758E0,1.7561636E0,0E0,0E0,1.4946332E0,0E0,0E0],"parents":[2147483647,0,0,1,1,4,4],"right_children":[2,4,-1,-1,6,-1,-1],"split_conditions":[9.973876E-1,3.3E-1,3.8637035E-2,-4.073148E-2,4.0560137E-4,-3.1070119E-2,1.030537E-2],"split_indices":[0,5,0,0,1,0,0],"split_type":[0,0,0,0,0,0,0],"sum_hessian":[1.4873333E1,1.3115447E1,1.7578856E0,2.1350434E0,1.0980404E1,1.7789277E0,9.201476E0],"tree_param":{"num_deleted":"0","num_feature":"6","num_nodes":"7","size_leaf_vector":"1"}},{"base_weights":[-4.338424E-3,4.03738E-1,-2.8463787E-1,-4.0583063E-2,7.7287936E-1,-4.0115584E-2,-4.650664E-2,2.7895657E-2,-3.7692964E-2,9.513075E-3,4.7686182E-2,8.085284E-3,-3.5166472E-2],"categories":[],"categories_nodes":[],"categories_segments":[],"categories_sizes":[],"default_left":[0,0,0,0,0,0,0,0,0,0,0,0,0],"id":43,"left_children":[1,3,5,7,9,-1,11,-1,-1,-1,-1,-1,-1],"loss_changes":[1.9233749E0,1.1551042E0,1.1903892E0,2.1534247E0,2.180965E-1,0E0,1.1917768E0,0E0,0E0,0E0,0E0,0E0,0E0],"parents":[2147483647,0,0,1,1,2,2,3,3,4,4,6,6],"right_children":[2,4,6,8,10,-1,12,-1,-1,-1,-1,-1,-1],"split_conditions":[1.5973003E-3,4.0560137E-4,3.3E-1,1.5115387E-4,3.1653439E1,-4.0115584E-2,1E0,2.7895657E-2,-3.7692964E-2,9.513075E-3,4.7686182E-2,8.085284E-3,-3.5166472E-2],"split_indices":[1,1,5,1,2,0,3,0,0,0,0,0,0],"split_type":[0,0,0,0,0,0,0,0,0,0,0,0,0],"sum_hessian":[1.4810447E1,5.851341E0,8.959106E0,3.0591826E0,2.792158E0,2.0762796E0,6.882827E0,1.7818681E0,1.2773147E0,1.1474719E0,1.644686E0,5.7985096E0,1.084317E0],"tree_param":{"num_deleted":"0","num_feature":"6","num_nodes":"13","size_leaf_vector":"1"}},{"base_weights":[-5.4909694E-3,3.6770633E-1,-3.046047E-1,-1.971242E-2,5.754215E-1,1.8342067E-2,-3.1709444E-2,1.1838731E-2,5.068148E-2,-2.2361852E-2,1.7399725E-2],"categories":[],"categories_nodes":[],"categories_segments":[],"categories_sizes":[],"default_left":[0,0,0,0,0,0,0,0,0,0,0],"id":44,"left_children":[1,3,5,-1,7,9,-1,-1,-1,-1,-1],"loss_changes":[1.8666227E0,1.4053718E0,9.985418E-1,0E0,6.8863297E-1,1.0235792E0,0E0,0E0,0E0,0E0,0E0],"parents":[2147483647,0,0,1,1,2,2,4,4,5,5],"right_children":[2,4,6,-1,8,10,-1,-1,-1,-1,-1],"split_conditions":[3.6513565E1,8.9965516E-1,3.9E-1,-1.971242E-2,3.4376823E1,3.3E-1,-3.1709444E-2,1.1838731E-2,5.068148E-2,-2.2361852E-2,1.7399725E-2],"split_indices":[2,0,5,0,2,5,0,0,0,0,0],"split_type":[0,0,0,0,0,0,0,0,0,0,0],"sum_hessian":[1.4718376E1,6.4462366E0,8.27214E0,1.1884952E0,5.2577415E0,4.655117E0,3.617022E0,3.8346505E0,1.4230908E0,1.7818533E0,2.8732638E0],"tree_param":{"num_deleted":"0","num_feature":"6","num_nodes":"11","size_leaf_vector":"1"}},{"base_weights":[-4.9288156E-3,-1.5236992E-1,3.7341133E-2,-3.918735E-2,1.9219883E-2,-3.0534655E-2,9.427735E-3],"categories":[],"categories_nodes":[],"categories_segments":[],"categories_sizes":[],"default_left":[0,0,0,0,0,0,0],"id":45,"left_children":[1,3,-1,-1,5,-1,-1],"loss_changes":[1.8430715E0,1.5181463E0,0E0,0E0,1.3829073E0,0E0,0E0],"parents":[2147483647,0,0,1,1,4,4],"right_children":[2,4,-1,-1,6,-1,-1],"split_conditions":[9.973876E-1,3.3E-1,3.7341133E-2,-3.918735E-2,4.0560137E-4,-3.0534655E-2,9.427735E-3],"split_indices":[0,5,0,0,1,0,0],"split_type":[0,0,0,0,0,0,0],"sum_hessian":[1.4601701E1,1.287403E1,1.7276715E0,1.9887433E0,1.0885286E1,1.7540237E0,9.131263E0],"tree_param":{"num_deleted":"0","num_feature":"6","num_nodes":"7","size_leaf_vector":"1"}},{"base_weights":[-6.2381024E-3,-4.9722803E-1,2.1081145E-1,-1.559262E-1,-3.784364E-2,-1.5853796E-2,6.1935997E-1,1.936873E-2,-3.363817E-2,-1.2719045E-2,3.0257747E-2,3.9728634E-2,8.096232E-3],"categories":[],"categories_nodes":[],"categories_segments":[],"categories_sizes":[],"default_left":[0,0,0,0,0,0,0,0,0,0,0,0,0],"id":46,"left_children":[1,3,5,7,-1,9,11,-1,-1,-1,-1,-1,-1],"loss_changes":[1.7609762E0,3.3054006E-1,1.0728112E0,1.2283642E0,0E0,1.3919756E0,2.0163238E-1,0E0,0E0,0E0,0E0,0E0,0E0],"parents":[2147483647,0,0,1,1,2,2,3,3,5,5,6,6],"right_children":[2,4,6,8,-1,10,12,-1,-1,-1,-1,-1,-1],"split_conditions":[7.7985873E-4,6.153772E1,5.1E-1,5.6176947E-4,-3.784364E-2,4.543785E1,6.3E-1,1.936873E-2,-3.363817E-2,-1.2719045E-2,3.0257747E-2,3.9728634E-2,8.096232E-3],"split_indices":[0,2,5,0,0,2,5,0,0,0,0,0,0],"split_type":[0,0,0,0,0,0,0,0,0,0,0,0,0],"sum_hessian":[1.4540659E1,4.0617294E0,1.04789295E1,2.4464366E0,1.6152929E0,7.3579106E0,3.121019E0,1.3148025E0,1.1316341E0,5.7425814E0,1.6153293E0,1.7237501E0,1.3972688E0],"tree_param":{"num_deleted":"0","num_feature":"6","num_nodes":"13","size_leaf_vector":"1"}},{"base_weights":[-5.1589543E-3,-1.4837602E-1,3.6364615E-2,-3.8472492E-2,1.7815094E-2,-2.9463068E-2,9.0555465E-3],"categories":[],"categories_nodes":[],"categories_segments":[],"categories_sizes":[],"default_left":[0,0,0,0,0,0,0],"id":47,"left_children":[1,3,-1,-1,5,-1,-1],"loss_changes":[1.7274269E0,1.432347E0,0E0,0E0,1.2784958E0,0E0,0E0],"parents":[2147483647,0,0,1,1,4,4],"right_children":[2,4,-1,-1,6,-1,-1],"split_conditions":[9.973876E-1,3.3E-1,3.6364615E-2,-3.8472492E-2,4.0560137E-4,-2.9463068E-2,9.0555465E-3],"split_indices":[0,5,0,0,1,0,0],"split_type":[0,0,0,0,0,0,0],"sum_hessian":[1.4438719E1,1.27442465E1,1.6944722E0,1.9240307E0,1.0820215E1,1.7406269E0,9.079589E0],"tree_param":{"num_deleted":"0","num_feature":"6","num_nodes":"7","size_leaf_vector":"1"}},{"base_weights":[-6.441807E-3,3.7743494E-1,-2.717997E-1,8.131135E-2,4.6667054E-2,-3.790653E-2,-5.8005705E-2,-2.8673062E-2,2.5623718E-2,7.07564E-3,-3.433241E-2],"categories":[],"categories_nodes":[],"categories_segments":[],"categories_sizes":[],"default_left":[0,0,0,0,0,0,0,0,0,0,0],"id":48,"left_children":[1,3,5,7,-1,-1,9,-1,-1,-1,-1],"loss_changes":[1.669139E0,1.0277523E0,9.619203E-1,1.8380432E0,0E0,0E0,1.0758731E0,0E0,0E0,0E0,0E0],"parents":[2147483647,0,0,1,1,2,2,3,3,6,6],"right_children":[2,4,6,8,-1,-1,10,-1,-1,-1,-1],"split_conditions":[1.5973003E-3,1.2405384E-3,3.3E-1,9.93049E-1,4.6667054E-2,-3.790653E-2,1E0,-2.8673062E-2,2.5623718E-2,7.07564E-3,-3.433241E-2],"split_indices":[1,1,5,0,0,0,3,0,0,0,0],"split_type":[0,0,0,0,0,0,0,0,0,0,0],"sum_hessian":[1.4378752E1,5.704314E0,8.6744375E0,4.4696574E0,1.2346568E0,1.8713889E0,6.8030486E0,1.6436082E0,2.826049E0,5.752281E0,1.0507672E0],"tree_param":{"num_deleted":"0","num_feature":"6","num_nodes":"11","size_leaf_vector":"1"}},{"base_weights":[-7.6266727E-3,-4.8234075E-1,2.0170869E-1,-1.5034238E-1,-3.687412E-2,-1.2586309E-2,5.9353054E-1,1.8846098E-2,-3.2954555E-2,-2.6388273E-2,1.3453408E-2,3.843851E-2,7.477607E-3],"categories":[],"categories_nodes":[],"categories_segments":[],"categories_sizes":[],"default_left":[0,0,0,0,0,0,0,0,0,0,0,0,0],"id":49,"left_children":[1,3,5,7,-1,9,11,-1,-1,-1,-1,-1,-1],"loss_changes":[1.6157564E0,3.1020057E-1,9.5705605E-1,1.1648047E0,0E0,1.3449117E0,1.9773221E-1,0E0,0E0,0E0,0E0,0E0,0E0],"parents":[2147483647,0,0,1,1,2,2,3,3,5,5,6,6],"right_children":[2,4,6,8,-1,10,12,-1,-1,-1,-1,-1,-1],"split_conditions":[7.7985873E-4,6.153772E1,5.1E-1,5.6176947E-4,-3.687412E-2,3.4376823E1,6.3E-1,1.8846098E-2,-3.2954555E-2,-2.6388273E-2,1.3453408E-2,3.843851E-2,7.477607E-3],"split_indices":[0,2,5,0,0,2,5,0,0,0,0,0,0],"split_type":[0,0,0,0,0,0,0,0,0,0,0,0,0],"sum_hessian":[1.4280227E1,3.9709864E0,1.030924E1,2.4162004E0,1.554786E0,7.2900486E0,3.019192E0,1.3137532E0,1.1024472E0,2.267931E0,5.0221176E0,1.6402367E0,1.3789552E0],"tree_param":{"num_deleted":"0","num_feature":"6","num_nodes":"13","size_leaf_vector":"1"}},{"base_weights":[-8.527211E-3,3.428416E-1,-2.8620273E-1,5.1717795E-3,4.380371E-2,3.7941918E-2,-3.0952996E-2,-2.5640456E-2,2.694433E-2,-1.9676825E-2,1.6053196E-2],"categories":[],"categories_nodes":[],"categories_segments":[],"categories_sizes":[],"default_left":[0,0,0,0,0,0,0,0,0,0,0],"id":50,"left_children":[1,3,5,7,-1,9,-1,-1,-1,-1,-1],"loss_changes":[1.5797125E0,1.2843506E0,9.974718E-1,1.7660835E0,0E0,8.001568E-1,0E0,0E0,0E0,0E0,0E0],"parents":[2147483647,0,0,1,1,2,2,3,3,5,5],"right_children":[2,4,6,8,-1,10,-1,-1,-1,-1,-1],"split_conditions":[3.6513565E1,3.4376823E1,3.9E-1,5E-1,4.380371E-2,3.3E-1,-3.0952996E-2,-2.5640456E-2,2.694433E-2,-1.9676825E-2,1.6053196E-2],"split_indices":[2,2,5,5,0,5,0,0,0,0,0],"split_type":[0,0,0,0,0,0,0,0,0,0,0],"sum_hessian":[1.4185439E1,6.158203E0,8.027235E0,4.388734E0,1.7694693E0,4.515723E0,3.5115125E0,2.247074E0,2.14166E0,1.6346002E0,2.8811228E0],"tree_param":{"num_deleted":"0","num_feature":"6","num_nodes":"11","size_leaf_vector":"1"}},{"base_weights":[-7.5249523E-3,-1.463547E-1,3.5032146E-2,-3.686466E-2,7.2424323E-3,-2.9182388E-2,8.41377E-3],"categories":[],"categories_nodes":[],"categories_segments":[],"categories_sizes":[],"default_left":[0,0,0,0,0,0,0],"id":51,"left_children":[1,3,-1,-1,5,-1,-1],"loss_changes":[1.5816034E0,1.2221087E0,0E0,0E0,1.2048616E0,0E0,0E0],"parents":[2147483647,0,0,1,1,4,4],"right_children":[2,4,-1,-1,6,-1,-1],"split_conditions":[9.973876E-1,3.3E-1,3.5032146E-2,-3.686466E-2,4.0560137E-4,-2.9182388E-2,8.41377E-3],"split_indices":[0,5,0,0,1,0,0],"split_type":[0,0,0,0,0,0,0],"sum_hessian":[1.404414E1,1.2405492E1,1.6386485E0,1.7752702E0,1.0630221E1,1.7145387E0,8.915683E0],"tree_param":{"num_deleted":"0","num_feature":"6","num_nodes":"7","size_leaf_vector":"1"}},{"base_weights":[-8.734777E-3,-1.4384387E-1,3.4160905E-2,-3.6330782E-2,5.076894E-3,-2.8335605E-2,8.023005E-3],"categories":[],"categories_nodes":[],"categories_segments":[],"categories_sizes":[],"default_left":[0,0,0,0,0,0,0],"id":52,"left_children":[1,3,-1,-1,5,-1,-1],"loss_changes":[1.4994766E0,1.1636379E0,0E0,0E0,1.124955E0,0E0,0E0],"parents":[2147483647,0,0,1,1,4,4],"right_children":[2,4,-1,-1,6,-1,-1],"split_conditions":[9.973876E-1,3.3E-1,3.4160905E-2,-3.6330782E-2,4.0560137E-4,-2.8335605E-2,8.023005E-3],"split_indices":[0,5,0,0,1,0,0],"split_type":[0,0,0,0,0,0,0],"sum_hessian":[1.3987838E1,1.2365499E1,1.6223395E0,1.7272074E0,1.0638291E1,1.70755E0,8.93074E0],"tree_param":{"num_deleted":"0","num_feature":"6","num_nodes":"7","size_leaf_vector":"1"}},{"base_weights":[-9.883362E-3,3.5606825E-1,-2.6324454E-1,6.880886E-2,4.4778313E-2,-3.580712E-2,-7.182866E-2,-2.7849555E-2,2.4479095E-2,-1.9047199E-2,1.4480825E-2],"categories":[],"categories_nodes":[],"categories_segments":[],"categories_sizes":[],"default_left":[0,0,0,0,0,0,0,0,0,0,0],"id":53,"left_children":[1,3,5,7,-1,-1,9,-1,-1,-1,-1],"loss_changes":[1.478226E0,9.5097023E-1,7.633282E-1,1.6806339E0,0E0,0E0,9.72622E-1,0E0,0E0,0E0,0E0],"parents":[2147483647,0,0,1,1,2,2,3,3,6,6],"right_children":[2,4,6,8,-1,-1,10,-1,-1,-1,-1],"split_conditions":[1.5973003E-3,1.2405384E-3,3.3E-1,9.93049E-1,4.4778313E-2,-3.580712E-2,5.2751698E1,-2.7849555E-2,2.4479095E-2,-1.9047199E-2,1.4480825E-2],"split_indices":[1,1,5,0,0,0,2,0,0,0,0],"split_type":[0,0,0,0,0,0,0,0,0,0,0],"sum_hessian":[1.3932311E1,5.5338755E0,8.398437E0,4.346888E0,1.1869875E0,1.6806524E0,6.717784E0,1.6175032E0,2.7293847E0,3.591938E0,3.1258457E0],"tree_param":{"num_deleted":"0","num_feature":"6","num_nodes":"11","size_leaf_vector":"1"}},{"base_weights":[-9.41836E-3,-4.6776927E-1,1.9340555E-1,-1.4127411E-1,-3.602758E-2,-4.2663515E-3,5.5883414E-1,1.8208122E-2,-3.193223E-2,-1.1966373E-2,2.9531052E-2,3.6690287E-2,6.597679E-3],"categories":[],"categories_nodes":[],"categories_segments":[],"categories_sizes":[],"default_left":[0,0,0,0,0,0,0,0,0,0,0,0,0],"id":54,"left_children":[1,3,5,7,-1,9,11,-1,-1,-1,-1,-1,-1],"loss_changes":[1.4708178E0,2.9826915E-1,7.970233E-1,1.0770253E0,0E0,1.2784122E0,1.921773E-1,0E0,0E0,0E0,0E0,0E0,0E0],"parents":[2147483647,0,0,1,1,2,2,3,3,5,5,6,6],"right_children":[2,4,6,8,-1,10,12,-1,-1,-1,-1,-1,-1],"split_conditions":[7.7985873E-4,6.153772E1,5.1E-1,5.6176947E-4,-3.602758E-2,4.543785E1,6.3E-1,1.8208122E-2,-3.193223E-2,-1.1966373E-2,2.9531052E-2,3.6690287E-2,6.597679E-3],"split_indices":[0,2,5,0,0,2,5,0,0,0,0,0,0],"split_type":[0,0,0,0,0,0,0,0,0,0,0,0,0],"sum_hessian":[1.3848124E1,3.8473718E0,1.0000752E1,2.3591528E0,1.4882191E0,7.1314497E0,2.8693023E0,1.3029238E0,1.056229E0,5.5400662E0,1.5913835E0,1.5251658E0,1.3441364E0],"tree_param":{"num_deleted":"0","num_feature":"6","num_nodes":"13","size_leaf_vector":"1"}},{"base_weights":[-8.300722E-3,-4.5963314E-1,1.9002852E-1,-1.3900124E-1,-3.5477944E-2,-1.9386075E-3,5.478082E-1,1.7642943E-2,-3.143547E-2,-2.5081957E-2,1.3194668E-2,3.6114242E-2,6.416812E-3],"categories":[],"categories_nodes":[],"categories_segments":[],"categories_sizes":[],"default_left":[0,0,0,0,0,0,0,0,0,0,0,0,0],"id":55,"left_children":[1,3,5,7,-1,9,11,-1,-1,-1,-1,-1,-1],"loss_changes":[1.4081283E0,2.8577554E-1,7.536995E-1,1.0275245E0,0E0,1.2121035E0,1.8762064E-1,0E0,0E0,0E0,0E0,0E0,0E0],"parents":[2147483647,0,0,1,1,2,2,3,3,5,5,6,6],"right_children":[2,4,6,8,-1,10,12,-1,-1,-1,-1,-1,-1],"split_conditions":[7.7985873E-4,6.153772E1,5.1E-1,5.6176947E-4,-3.5477944E-2,3.4376823E1,6.3E-1,1.7642943E-2,-3.143547E-2,-2.5081957E-2,1.3194668E-2,3.6114242E-2,6.416812E-3],"split_indices":[0,2,5,0,0,2,5,0,0,0,0,0,0],"split_type":[0,0,0,0,0,0,0,0,0,0,0,0,0],"sum_hessian":[1.3755325E1,3.7970216E0,9.958304E0,2.3448994E0,1.4521221E0,7.1282268E0,2.8300772E0,1.3092984E0,1.0356011E0,2.1672542E0,4.960973E0,1.4888915E0,1.3411857E0],"tree_param":{"num_deleted":"0","num_feature":"6","num_nodes":"13","size_leaf_vector":"1"}},{"base_weights":[-9.250871E-3,3.2773888E-1,-2.7162024E-1,-1.36211E-2,4.2368047E-2,1.0038472E-4,-3.419389E-2,-2.4373274E-2,2.453894E-2,-2.1432394E-2,2.026041E-2],"categories":[],"categories_nodes":[],"categories_segments":[],"categories_sizes":[],"default_left":[0,0,0,0,0,0,0,0,0,0,0],"id":56,"left_children":[1,3,5,7,-1,9,-1,-1,-1,-1,-1],"loss_changes":[1.3859272E0,1.2308781E0,9.851685E-1,1.4660426E0,0E0,1.2679923E0,0E0,0E0,0E0,0E0,0E0],"parents":[2147483647,0,0,1,1,2,2,3,3,5,5],"right_children":[2,4,6,8,-1,10,-1,-1,-1,-1,-1],"split_conditions":[3.6513565E1,3.4376823E1,4.3E-1,5E-1,4.2368047E-2,5.4983307E1,-3.419389E-2,-2.4373274E-2,2.453894E-2,-2.1432394E-2,2.026041E-2],"split_indices":[2,2,5,5,0,2,0,0,0,0,0],"split_type":[0,0,0,0,0,0,0,0,0,0,0],"sum_hessian":[1.3668269E1,5.874217E0,7.794052E0,4.1329246E0,1.7412927E0,5.3003354E0,2.4937167E0,2.1483192E0,1.9846052E0,2.546803E0,2.7535324E0],"tree_param":{"num_deleted":"0","num_feature":"6","num_nodes":"11","size_leaf_vector":"1"}},{"base_weights":[-8.432595E-3,-1.3956204E-1,3.3013057E-2,-3.5082866E-2,1.7597544E-3,2.3407448E-2,-9.188112E-3],"categories":[],"categories_nodes":[],"categories_segments":[],"categories_sizes":[],"default_left":[0,0,0,0,0,0,0],"id":57,"left_children":[1,3,-1,-1,5,-1,-1],"loss_changes":[1.3672476E0,1.0325699E0,0E0,0E0,1.0700175E0,0E0,0E0],"parents":[2147483647,0,0,1,1,4,4],"right_children":[2,4,-1,-1,6,-1,-1],"split_conditions":[9.973876E-1,3.3E-1,3.3013057E-2,-3.5082866E-2,3.7E-1,2.3407448E-2,-9.188112E-3],"split_indices":[0,5,0,0,5,0,0],"split_type":[0,0,0,0,0,0,0],"sum_hessian":[1.3541755E1,1.1983171E1,1.5585831E0,1.6109188E0,1.0372252E1,2.518217E0,7.8540354E0],"tree_param":{"num_deleted":"0","num_feature":"6","num_nodes":"7","size_leaf_vector":"1"}},{"base_weights":[-7.2534815E-3,-4.4888905E-1,1.8593532E-1,-6.092669E-1,-2.3665768E-3,3.9675184E-2,3.2201976E-2,-9.709009E-3,-3.55432E-2,-2.3615278E-2,1.4241936E-2],"categories":[],"categories_nodes":[],"categories_segments":[],"categories_sizes":[],"default_left":[0,0,0,0,0,0,0,0,0,0,0],"id":58,"left_children":[1,3,5,7,-1,9,-1,-1,-1,-1,-1],"loss_changes":[1.3189844E0,2.7383274E-1,6.968266E-1,4.339218E-5,0E0,1.2940596E0,0E0,0E0,0E0,0E0,0E0],"parents":[2147483647,0,0,1,1,2,2,3,3,5,5],"right_children":[2,4,6,8,-1,10,-1,-1,-1,-1,-1],"split_conditions":[7.7985873E-4,9.538595E-1,9.973876E-1,9.0446657E-1,-2.3665768E-3,3.287498E1,3.2201976E-2,-9.709009E-3,-3.55432E-2,-2.3615278E-2,1.4241936E-2],"split_indices":[0,1,0,1,0,2,0,0,0,0,0],"split_type":[0,0,0,0,0,0,0,0,0,0,0],"sum_hessian":[1.3481176E1,3.6997824E0,9.781394E0,2.2742224E0,1.4255601E0,8.237873E0,1.5435203E0,1.01964E0,1.2545823E0,2.3674273E0,5.870446E0],"tree_param":{"num_deleted":"0","num_feature":"6","num_nodes":"11","size_leaf_vector":"1"}},{"base_weights":[-8.656785E-3,3.0378172E-1,-2.7835634E-1,-6.30472E-2,6.5660954E-1,-1.1735966E-3,-3.8092576E-2,-2.3827368E-2,2.5551518E-2,7.6168585E-3,3.94557E-2,-2.1206563E-2,1.9865721E-2],"categories":[],"categories_nodes":[],"categories_segments":[],"categories_sizes":[],"default_left":[0,0,0,0,0,0,0,0,0,0,0,0,0],"id":59,"left_children":[1,3,5,7,9,11,-1,-1,-1,-1,-1,-1,-1],"loss_changes":[1.3012959E0,9.6911424E-1,1.1076412E0,1.2943199E0,1.2977326E-1,1.2234418E0,0E0,0E0,0E0,0E0,0E0,0E0,0E0],"parents":[2147483647,0,0,1,1,2,2,3,3,4,4,5,5],"right_children":[2,4,6,8,10,12,-1,-1,-1,-1,-1,-1,-1],"split_conditions":[3.7048542E1,5E-1,4.3E-1,3.4376823E1,2.8142525E1,5.4983307E1,-3.8092576E-2,-2.3827368E-2,2.5551518E-2,7.6168585E-3,3.94557E-2,-2.1206563E-2,1.9865721E-2],"split_indices":[2,5,5,2,2,2,0,0,0,0,0,0,0],"split_type":[0,0,0,0,0,0,0,0,0,0,0,0,0],"sum_hessian":[1.3439485E1,6.167851E0,7.271634E0,3.426592E0,2.7412589E0,5.2590833E0,2.0125506E0,2.0906303E0,1.3359618E0,1.0177358E0,1.7235231E0,2.5199943E0,2.7390893E0],"tree_param":{"num_deleted":"0","num_feature":"6","num_nodes":"13","size_leaf_vector":"1"}},{"base_weights":[-7.70768E-3,3.3558685E-1,-2.4777308E-1,-5.598286E-2,6.779579E-1,-3.4560695E-2,-6.1864473E-2,2.5570765E-2,-3.7213475E-2,8.611604E-3,4.146087E-2,-1.8736951E-2,1.5023562E-2],"categories":[],"categories_nodes":[],"categories_segments":[],"categories_sizes":[],"default_left":[0,0,0,0,0,0,0,0,0,0,0,0,0],"id":60,"left_children":[1,3,5,7,9,-1,11,-1,-1,-1,-1,-1,-1],"loss_changes":[1.2624549E0,8.843527E-1,6.9888014E-1,1.891545E0,1.2068164E-1,0E0,9.5570266E-1,0E0,0E0,0E0,0E0,0E0,0E0],"parents":[2147483647,0,0,1,1,2,2,3,3,4,4,6,6],"right_children":[2,4,6,8,10,-1,12,-1,-1,-1,-1,-1,-1],"split_conditions":[1.5973003E-3,4.0560137E-4,3.3E-1,1.5115387E-4,3.2559624E1,-3.4560695E-2,5.2751698E1,2.5570765E-2,-3.7213475E-2,8.611604E-3,4.146087E-2,-1.8736951E-2,1.5023562E-2],"split_indices":[1,1,5,1,2,0,2,0,0,0,0,0,0],"split_type":[0,0,0,0,0,0,0,0,0,0,0,0,0],"sum_hessian":[1.3309678E1,5.313481E0,7.9961977E0,2.8688557E0,2.444625E0,1.5591602E0,6.4370375E0,1.713381E0,1.1554748E0,1.0552204E0,1.3894045E0,3.4359152E0,3.001122E0],"tree_param":{"num_deleted":"0","num_feature":"6","num_nodes":"13","size_leaf_vector":"1"}},{"base_weights":[-7.40925E-3,3.1919017E-1,-2.6022285E-1,-7.0934747E-3,4.000209E-2,1.988494E-3,-3.331315E-2,-2.2944605E-2,2.3422068E-2,-2.0445919E-2,1.9167993E-2],"categories":[],"categories_nodes":[],"categories_segments":[],"categories_sizes":[],"default_left":[0,0,0,0,0,0,0,0,0,0,0],"id":61,"left_children":[1,3,5,7,-1,9,-1,-1,-1,-1,-1],"loss_changes":[1.2589278E0,1.0510404E0,9.1463006E-1,1.2807347E0,0E0,1.1298051E0,0E0,0E0,0E0,0E0,0E0],"parents":[2147483647,0,0,1,1,2,2,3,3,5,5],"right_children":[2,4,6,8,-1,10,-1,-1,-1,-1,-1],"split_conditions":[3.6513565E1,3.4376823E1,4.3E-1,5E-1,4.000209E-2,5.4983307E1,-3.331315E-2,-2.2944605E-2,2.3422068E-2,-2.0445919E-2,1.9167993E-2],"split_indices":[2,2,5,5,0,2,0,0,0,0,0],"split_type":[0,0,0,0,0,0,0,0,0,0,0],"sum_hessian":[1.3241062E1,5.662876E0,7.5781865E0,3.9606264E0,1.7022498E0,5.209265E0,2.368921E0,2.0489485E0,1.9116778E0,2.4727647E0,2.7365005E0],"tree_param":{"num_deleted":"0","num_feature":"6","num_nodes":"11","size_leaf_vector":"1"}},{"base_weights":[-6.73517E-3,-1.3461518E-1,3.189779E-2,-3.412168E-2,1.8440114E-3,-2.7474785E-2,7.7498253E-3],"categories":[],"categories_nodes":[],"categories_segments":[],"categories_sizes":[],"default_left":[0,0,0,0,0,0,0],"id":62,"left_children":[1,3,-1,-1,5,-1,-1],"loss_changes":[1.250042E0,9.438586E-1,0E0,0E0,1.0217665E0,0E0,0E0],"parents":[2147483647,0,0,1,1,4,4],"right_children":[2,4,-1,-1,6,-1,-1],"split_conditions":[9.973876E-1,3.3E-1,3.189779E-2,-3.412168E-2,4.0560137E-4,-2.7474785E-2,7.7498253E-3],"split_indices":[0,5,0,0,1,0,0],"split_type":[0,0,0,0,0,0,0],"sum_hessian":[1.3120812E1,1.1609219E1,1.5115942E0,1.5172352E0,1.0091983E1,1.631344E0,8.460639E0],"tree_param":{"num_deleted":"0","num_feature":"6","num_nodes":"7","size_leaf_vector":"1"}},{"base_weights":[-8.021712E-3,-4.3694466E-1,1.8093413E-1,-1.2031379E-1,-3.4394346E-2,3.799819E-2,3.1120805E-2,-1.6506555E-2,8.640888E-3,-2.6691535E-2,1.1846186E-2],"categories":[],"categories_nodes":[],"categories_segments":[],"categories_sizes":[],"default_left":[0,0,0,0,0,0,0,0,0,0,0],"id":63,"left_children":[1,3,5,7,-1,9,-1,-1,-1,-1,-1],"loss_changes":[1.2195958E0,2.824483E-1,6.374278E-1,2.565832E-1,0E0,1.1478362E0,0E0,0E0,0E0,0E0,0E0],"parents":[2147483647,0,0,1,1,2,2,3,3,5,5],"right_children":[2,4,6,8,-1,10,-1,-1,-1,-1,-1],"split_conditions":[7.7985873E-4,6.153772E1,9.973876E-1,5.6712963E1,-3.4394346E-2,4.0560137E-4,3.1120805E-2,-1.6506555E-2,8.640888E-3,-2.6691535E-2,1.1846186E-2],"split_indices":[0,2,0,2,0,1,0,0,0,0,0],"split_type":[0,0,0,0,0,0,0,0,0,0,0],"sum_hessian":[1.3072458E1,3.5963826E0,9.476075E0,2.2441874E0,1.3521953E0,7.9788733E0,1.497202E0,1.2344049E0,1.0097824E0,1.624767E0,6.3541064E0],"tree_param":{"num_deleted":"0","num_feature":"6","num_nodes":"11","size_leaf_vector":"1"}},{"base_weights":[-9.541428E-3,3.2377154E-1,-2.4200414E-1,4.996656E-2,4.1756637E-2,-3.364229E-2,-6.392766E-2,-2.6984483E-2,2.2977026E-2,-1.8641984E-2,1.4643435E-2],"categories":[],"categories_nodes":[],"categories_segments":[],"categories_sizes":[],"default_left":[0,0,0,0,0,0,0,0,0,0,0],"id":64,"left_children":[1,3,5,7,-1,-1,9,-1,-1,-1,-1],"loss_changes":[1.1648765E0,8.24859E-1,6.34711E-1,1.4783971E0,0E0,0E0,9.198623E-1,0E0,0E0,0E0,0E0],"parents":[2147483647,0,0,1,1,2,2,3,3,6,6],"right_children":[2,4,6,8,-1,-1,10,-1,-1,-1,-1],"split_conditions":[1.5973003E-3,1.2405384E-3,3.3E-1,9.93049E-1,4.1756637E-2,-3.364229E-2,5.2751698E1,-2.6984483E-2,2.2977026E-2,-1.8641984E-2,1.4643435E-2],"split_indices":[1,1,5,0,0,0,2,0,0,0,0],"split_type":[0,0,0,0,0,0,0,0,0,0,0],"sum_hessian":[1.302275E1,5.1893272E0,7.8334227E0,4.094609E0,1.0947182E0,1.4783257E0,6.355097E0,1.5481211E0,2.5464876E0,3.3820095E0,2.9730873E0],"tree_param":{"num_deleted":"0","num_feature":"6","num_nodes":"11","size_leaf_vector":"1"}},{"base_weights":[-9.145869E-3,-4.2789465E-1,1.7474742E-1,-1.14022836E-1,-3.3955477E-2,3.866223E-2,2.979033E-2,-1.6009022E-2,8.550285E-3,-2.2356546E-2,1.3462247E-2],"categories":[],"categories_nodes":[],"categories_segments":[],"categories_sizes":[],"default_left":[0,0,0,0,0,0,0,0,0,0,0],"id":65,"left_children":[1,3,5,7,-1,9,-1,-1,-1,-1,-1],"loss_changes":[1.1486706E0,2.8097206E-1,5.7290304E-1,2.4410987E-1,0E0,1.1206185E0,0E0,0E0,0E0,0E0,0E0],"parents":[2147483647,0,0,1,1,2,2,3,3,5,5],"right_children":[2,4,6,8,-1,10,-1,-1,-1,-1,-1],"split_conditions":[7.7985873E-4,6.153772E1,9.973876E-1,5.6712963E1,-3.3955477E-2,3.287498E1,2.979033E-2,-1.6009022E-2,8.550285E-3,-2.2356546E-2,1.3462247E-2],"split_indices":[0,2,0,2,0,2,0,0,0,0,0],"split_type":[0,0,0,0,0,0,0,0,0,0,0],"sum_hessian":[1.2945794E1,3.5454597E0,9.400334E0,2.2225082E0,1.3229514E0,7.929396E0,1.4709381E0,1.2181256E0,1.0043826E0,2.2499828E0,5.6794133E0],"tree_param":{"num_deleted":"0","num_feature":"6","num_nodes":"11","size_leaf_vector":"1"}},{"base_weights":[-1.0234367E-2,3.0128276E-1,-2.4954428E-1,-2.1815592E-2,3.8515735E-2,6.360752E-2,-2.8962707E-2,-2.3031479E-2,2.2397913E-2,-1.0341821E-2,2.0315345E-2],"categories":[],"categories_nodes":[],"categories_segments":[],"categories_sizes":[],"default_left":[0,0,0,0,0,0,0,0,0,0,0],"id":66,"left_children":[1,3,5,7,-1,9,-1,-1,-1,-1,-1],"loss_changes":[1.1112983E0,1.0005159E0,9.048754E-1,1.1991378E0,0E0,5.6717515E-1,0E0,0E0,0E0,0E0,0E0],"parents":[2147483647,0,0,1,1,2,2,3,3,5,5],"right_children":[2,4,6,8,-1,10,-1,-1,-1,-1,-1],"split_conditions":[3.6513565E1,3.4376823E1,3.9E-1,5E-1,3.8515735E-2,9.339004E-1,-2.8962707E-2,-2.3031479E-2,2.2397913E-2,-1.0341821E-2,2.0315345E-2],"split_indices":[2,2,5,5,0,1,0,0,0,0,0],"split_type":[0,0,0,0,0,0,0,0,0,0,0],"sum_hessian":[1.28984165E1,5.491281E0,7.407136E0,3.8160417E0,1.675239E0,4.212894E0,3.1942418E0,1.9831004E0,1.8329414E0,2.5762641E0,1.63663E0],"tree_param":{"num_deleted":"0","num_feature":"6","num_nodes":"11","size_leaf_vector":"1"}},{"base_weights":[-8.469634E-3,-4.1598922E-1,1.6972409E-1,-1.1198267E-1,-3.313515E-2,3.5360754E-2,2.9287308E-2,-1.5499139E-2,8.069973E-3,-2.603328E-2,1.1508107E-2],"categories":[],"categories_nodes":[],"categories_segments":[],"categories_sizes":[],"default_left":[0,0,0,0,0,0,0,0,0,0,0],"id":67,"left_children":[1,3,5,7,-1,9,-1,-1,-1,-1,-1],"loss_changes":[1.0714114E0,2.6200283E-1,5.549948E-1,2.2386937E-1,0E0,1.0783322E0,0E0,0E0,0E0,0E0,0E0],"parents":[2147483647,0,0,1,1,2,2,3,3,5,5],"right_children":[2,4,6,8,-1,10,-1,-1,-1,-1,-1],"split_conditions":[7.7985873E-4,6.153772E1,9.973876E-1,5.6712963E1,-3.313515E-2,4.0560137E-4,2.9287308E-2,-1.5499139E-2,8.069973E-3,-2.603328E-2,1.1508107E-2],"split_indices":[0,2,0,2,0,1,0,0,0,0,0],"split_type":[0,0,0,0,0,0,0,0,0,0,0],"sum_hessian":[1.2781924E1,3.482699E0,9.299225E0,2.211515E0,1.271184E0,7.8491645E0,1.4500602E0,1.2049416E0,1.0065733E0,1.6024501E0,6.2467146E0],"tree_param":{"num_deleted":"0","num_feature":"6","num_nodes":"11","size_leaf_vector":"1"}},{"base_weights":[-9.989729E-3,3.0773607E-1,-2.3156586E-1,3.9981775E-2,4.0508658E-2,-3.3041526E-2,-5.567058E-2,-2.6258215E-2,2.187009E-2,-1.8511938E-2,1.5350588E-2],"categories":[],"categories_nodes":[],"categories_segments":[],"categories_sizes":[],"default_left":[0,0,0,0,0,0,0,0,0,0,0],"id":68,"left_children":[1,3,5,7,-1,-1,9,-1,-1,-1,-1],"loss_changes":[1.038204E0,7.8453434E-1,6.1727357E-1,1.3556978E0,0E0,0E0,9.392804E-1,0E0,0E0,0E0,0E0],"parents":[2147483647,0,0,1,1,2,2,3,3,6,6],"right_children":[2,4,6,8,-1,-1,10,-1,-1,-1,-1],"split_conditions":[1.5973003E-3,1.2405384E-3,3.3E-1,9.93049E-1,4.0508658E-2,-3.3041526E-2,5.2751698E1,-2.6258215E-2,2.187009E-2,-1.8511938E-2,1.5350588E-2],"split_indices":[1,1,5,0,0,0,2,0,0,0,0],"split_type":[0,0,0,0,0,0,0,0,0,0,0],"sum_hessian":[1.2734895E1,5.0724626E0,7.6624327E0,4.0133038E0,1.0591586E0,1.4258221E0,6.2366104E0,1.5242829E0,2.4890208E0,3.3286827E0,2.907928E0],"tree_param":{"num_deleted":"0","num_feature":"6","num_nodes":"11","size_leaf_vector":"1"}},{"base_weights":[-9.58669E-3,-4.078775E-1,1.6411884E-1,-1.06355555E-1,-3.2735076E-2,-7.0676045E-4,4.8013973E-1,-1.5037502E-2,7.976159E-3,-1.1219089E-2,2.6874064E-2,3.2759544E-2,4.3932246E-3],"categories":[],"categories_nodes":[],"categories_segments":[],"categories_sizes":[],"default_left":[0,0,0,0,0,0,0,0,0,0,0,0,0],"id":69,"left_children":[1,3,5,7,-1,9,11,-1,-1,-1,-1,-1,-1],"loss_changes":[1.0120683E0,2.6046985E-1,5.3296006E-1,2.1287748E-1,0E0,1.0497844E0,1.8321949E-1,0E0,0E0,0E0,0E0,0E0,0E0],"parents":[2147483647,0,0,1,1,2,2,3,3,5,5,6,6],"right_children":[2,4,6,8,-1,10,12,-1,-1,-1,-1,-1,-1],"split_conditions":[7.7985873E-4,6.153772E1,5.1E-1,5.6712963E1,-3.2735076E-2,4.543785E1,6.3E-1,-1.5037502E-2,7.976159E-3,-1.1219089E-2,2.6874064E-2,3.2759544E-2,4.3932246E-3],"split_indices":[0,2,5,2,0,2,5,0,0,0,0,0,0],"split_type":[0,0,0,0,0,0,0,0,0,0,0,0,0],"sum_hessian":[1.2660816E1,3.4354796E0,9.225336E0,2.1904757E0,1.2450042E0,6.7188034E0,2.506533E0,1.1895752E0,1.0009004E0,5.1581264E0,1.5606773E0,1.2697015E0,1.2368313E0],"tree_param":{"num_deleted":"0","num_feature":"6","num_nodes":"13","size_leaf_vector":"1"}},{"base_weights":[-8.220688E-3,2.8866234E-1,-2.3579428E-1,-3.590765E-2,3.771044E-2,1.9335322E-2,-3.2055464E-2,-2.253086E-2,2.1066125E-2,-1.9113591E-2,1.9295255E-2],"categories":[],"categories_nodes":[],"categories_segments":[],"categories_sizes":[],"default_left":[0,0,0,0,0,0,0,0,0,0,0],"id":70,"left_children":[1,3,5,7,-1,9,-1,-1,-1,-1,-1],"loss_changes":[9.862324E-1,9.8605937E-1,8.648188E-1,1.0799234E0,0E0,1.035187E0,0E0,0E0,0E0,0E0,0E0],"parents":[2147483647,0,0,1,1,2,2,3,3,5,5],"right_children":[2,4,6,8,-1,10,-1,-1,-1,-1,-1],"split_conditions":[3.6513565E1,3.4376823E1,4.3E-1,5E-1,3.771044E-2,5.4983307E1,-3.2055464E-2,-2.253086E-2,2.1066125E-2,-1.9113591E-2,1.9295255E-2],"split_indices":[2,2,5,5,0,2,0,0,0,0,0],"split_type":[0,0,0,0,0,0,0,0,0,0,0],"sum_hessian":[1.258985E1,5.3465405E0,7.2433095E0,3.6940145E0,1.652526E0,5.0296445E0,2.2136652E0,1.9446619E0,1.7493528E0,2.3796778E0,2.6499667E0],"tree_param":{"num_deleted":"0","num_feature":"6","num_nodes":"11","size_leaf_vector":"1"}},{"base_weights":[-7.5990837E-3,3.0445585E-1,-2.2550288E-1,-5.706291E-2,6.2607324E-1,-3.263819E-2,-5.0673854E-2,2.4467722E-2,-3.63126E-2,9.543917E-3,3.9584573E-2,-1.7957883E-2,1.5049706E-2],"categories":[],"categories_nodes":[],"categories_segments":[],"categories_sizes":[],"default_left":[0,0,0,0,0,0,0,0,0,0,0,0,0],"id":71,"left_children":[1,3,5,7,9,-1,11,-1,-1,-1,-1,-1,-1],"loss_changes":[9.852929E-1,7.296581E-1,6.027564E-1,1.7179381E0,8.255088E-2,0E0,8.8101E-1,0E0,0E0,0E0,0E0,0E0,0E0],"parents":[2147483647,0,0,1,1,2,2,3,3,4,4,6,6],"right_children":[2,4,6,8,10,-1,12,-1,-1,-1,-1,-1,-1],"split_conditions":[1.5973003E-3,4.0560137E-4,3.3E-1,1.5115387E-4,1.2405384E-3,-3.263819E-2,5.2751698E1,2.4467722E-2,-3.63126E-2,9.543917E-3,3.9584573E-2,-1.7957883E-2,1.5049706E-2],"split_indices":[1,1,5,1,1,0,2,0,0,0,0,0,0],"split_type":[0,0,0,0,0,0,0,0,0,0,0,0,0],"sum_hessian":[1.2480363E1,4.968248E0,7.512115E0,2.7262933E0,2.2419548E0,1.3875022E0,6.124613E0,1.6487576E0,1.0775356E0,1.2113668E0,1.0305882E0,3.2512834E0,2.8733294E0],"tree_param":{"num_deleted":"0","num_feature":"6","num_nodes":"13","size_leaf_vector":"1"}},{"base_weights":[-7.170078E-3,-3.998607E-1,1.6439697E-1,-1.00606635E-1,-3.2317746E-2,3.418743E-2,2.8218662E-2,-1.248341E-2,4.8451535E-3,-2.5251767E-2,1.1220134E-2],"categories":[],"categories_nodes":[],"categories_segments":[],"categories_sizes":[],"default_left":[0,0,0,0,0,0,0,0,0,0,0],"id":72,"left_children":[1,3,5,7,-1,9,-1,-1,-1,-1,-1],"loss_changes":[9.692629E-1,2.5725132E-1,5.0369143E-1,1.1715905E-1,0E0,9.995343E-1,0E0,0E0,0E0,0E0,0E0],"parents":[2147483647,0,0,1,1,2,2,3,3,5,5],"right_children":[2,4,6,8,-1,10,-1,-1,-1,-1,-1],"split_conditions":[7.7985873E-4,6.153772E1,9.973876E-1,9.538595E-1,-3.2317746E-2,4.0560137E-4,2.8218662E-2,-1.248341E-2,4.8451535E-3,-2.5251767E-2,1.1220134E-2],"split_indices":[0,2,0,1,0,1,0,0,0,0,0],"split_type":[0,0,0,0,0,0,0,0,0,0,0],"sum_hessian":[1.2410864E1,3.369031E0,9.041833E0,2.157675E0,1.2113559E0,7.640118E0,1.4017146E0,1.0791527E0,1.0785224E0,1.5607178E0,6.0794005E0],"tree_param":{"num_deleted":"0","num_feature":"6","num_nodes":"11","size_leaf_vector":"1"}},{"base_weights":[-8.794511E-3,2.9449686E-1,-2.1991423E-1,3.8144358E-2,3.8698524E-2,-3.2164983E-2,-4.874173E-2,-2.5279963E-2,2.1201454E-2,-1.7632931E-2,1.4874744E-2],"categories":[],"categories_nodes":[],"categories_segments":[],"categories_sizes":[],"default_left":[0,0,0,0,0,0,0,0,0,0,0],"id":73,"left_children":[1,3,5,7,-1,-1,9,-1,-1,-1,-1],"loss_changes":[9.2070186E-1,6.9735664E-1,5.813141E-1,1.2436274E0,0E0,0E0,8.522378E-1,0E0,0E0,0E0,0E0],"parents":[2147483647,0,0,1,1,2,2,3,3,6,6],"right_children":[2,4,6,8,-1,-1,10,-1,-1,-1,-1],"split_conditions":[1.5973003E-3,1.2405384E-3,3.3E-1,9.93049E-1,3.8698524E-2,-3.2164983E-2,5.2751698E1,-2.5279963E-2,2.1201454E-2,-1.7632931E-2,1.4874744E-2],"split_indices":[1,1,5,0,0,0,2,0,0,0,0],"split_type":[0,0,0,0,0,0,0,0,0,0,0],"sum_hessian":[1.2367598E1,4.913709E0,7.4538884E0,3.9052863E0,1.0084226E0,1.3518844E0,6.102004E0,1.4922909E0,2.4129956E0,3.2397199E0,2.862284E0],"tree_param":{"num_deleted":"0","num_feature":"6","num_nodes":"11","size_leaf_vector":"1"}},{"base_weights":[-8.457921E-3,-3.9248502E-1,1.5899728E-1,-9.58724E-2,-3.1936597E-2,4.87736E-3,4.556772E-1,-1.2183635E-2,4.9164654E-3,-1.0508719E-2,2.5553895E-2,3.1694986E-2,3.502755E-3],"categories":[],"categories_nodes":[],"categories_segments":[],"categories_sizes":[],"default_left":[0,0,0,0,0,0,0,0,0,0,0,0,0],"id":74,"left_children":[1,3,5,7,-1,9,11,-1,-1,-1,-1,-1,-1],"loss_changes":[9.174933E-1,2.547238E-1,4.536969E-1,1.1405515E-1,0E0,9.318027E-1,1.8913144E-1,0E0,0E0,0E0,0E0,0E0,0E0],"parents":[2147483647,0,0,1,1,2,2,3,3,5,5,6,6],"right_children":[2,4,6,8,-1,10,12,-1,-1,-1,-1,-1,-1],"split_conditions":[7.7985873E-4,6.153772E1,5.1E-1,9.538595E-1,-3.1936597E-2,4.543785E1,6.3E-1,-1.2183635E-2,4.9164654E-3,-1.0508719E-2,2.5553895E-2,3.1694986E-2,3.502755E-3],"split_indices":[0,2,5,1,0,2,5,0,0,0,0,0,0],"split_type":[0,0,0,0,0,0,0,0,0,0,0,0,0],"sum_hessian":[1.2296915E1,3.3258593E0,8.971056E0,2.1388624E0,1.186997E0,6.57296E0,2.3980956E0,1.0698761E0,1.0689863E0,5.023571E0,1.5493891E0,1.1997653E0,1.1983304E0],"tree_param":{"num_deleted":"0","num_feature":"6","num_nodes":"13","size_leaf_vector":"1"}},{"base_weights":[-7.258959E-3,2.801336E-1,-2.2680405E-1,-4.5327097E-2,3.690491E-2,7.728944E-2,-2.7713422E-2,-2.188011E-2,1.9812651E-2,-1.4497642E-2,1.4201625E-2],"categories":[],"categories_nodes":[],"categories_segments":[],"categories_sizes":[],"default_left":[0,0,0,0,0,0,0,0,0,0,0],"id":75,"left_children":[1,3,5,7,-1,9,-1,-1,-1,-1,-1],"loss_changes":[8.9839345E-1,9.542489E-1,8.4484076E-1,9.6215594E-1,0E0,4.6604714E-1,0E0,0E0,0E0,0E0,0E0],"parents":[2147483647,0,0,1,1,2,2,3,3,5,5],"right_children":[2,4,6,8,-1,10,-1,-1,-1,-1,-1],"split_conditions":[3.6513565E1,3.4376823E1,3.9E-1,5E-1,3.690491E-2,3.3E-1,-2.7713422E-2,-2.188011E-2,1.9812651E-2,-1.4497642E-2,1.4201625E-2],"split_indices":[2,2,5,5,0,5,0,0,0,0,0],"split_type":[0,0,0,0,0,0,0,0,0,0,0],"sum_hessian":[1.223163E1,5.177768E0,7.0538616E0,3.553462E0,1.6243064E0,4.053569E0,3.0002925E0,1.8865578E0,1.6669041E0,1.3150812E0,2.7384877E0],"tree_param":{"num_deleted":"0","num_feature":"6","num_nodes":"11","size_leaf_vector":"1"}},{"base_weights":[-6.466539E-3,-1.1718833E-1,2.7340913E-2,-3.147161E-2,6.529854E-3,-2.4720652E-2,7.4066655E-3],"categories":[],"categories_nodes":[],"categories_segments":[],"categories_sizes":[],"default_left":[0,0,0,0,0,0,0],"id":76,"left_children":[1,3,-1,-1,5,-1,-1],"loss_changes":[8.682012E-1,7.4944735E-1,0E0,0E0,8.154163E-1,0E0,0E0],"parents":[2147483647,0,0,1,1,4,4],"right_children":[2,4,-1,-1,6,-1,-1],"split_conditions":[9.973876E-1,3.3E-1,2.7340913E-2,-3.147161E-2,4.0560137E-4,-2.4720652E-2,7.4066655E-3],"split_indices":[0,5,0,0,1,0,0],"split_type":[0,0,0,0,0,0,0],"sum_hessian":[1.2126207E1,1.0760952E1,1.3652558E0,1.2982085E0,9.462743E0,1.5363055E0,7.9264374E0],"tree_param":{"num_deleted":"0","num_feature":"6","num_nodes":"7","size_leaf_vector":"1"}},{"base_weights":[-7.836101E-3,-3.82655E-1,1.5542682E-1,-9.332163E-2,-3.1258035E-2,3.199689E-2,2.6689533E-2,-1.1925405E-2,4.8535257E-3,-2.1360217E-2,1.2343443E-2],"categories":[],"categories_nodes":[],"categories_segments":[],"categories_sizes":[],"default_left":[0,0,0,0,0,0,0,0,0,0,0],"id":77,"left_children":[1,3,5,7,-1,9,-1,-1,-1,-1,-1],"loss_changes":[8.6025697E-1,2.4051613E-1,4.418367E-1,1.0933073E-1,0E0,9.415143E-1,0E0,0E0,0E0,0E0,0E0],"parents":[2147483647,0,0,1,1,2,2,3,3,5,5],"right_children":[2,4,6,8,-1,10,-1,-1,-1,-1,-1],"split_conditions":[7.7985873E-4,6.153772E1,9.973876E-1,9.538595E-1,-3.1258035E-2,3.287498E1,2.6689533E-2,-1.1925405E-2,4.8535257E-3,-2.1360217E-2,1.2343443E-2],"split_indices":[0,2,0,1,0,2,0,0,0,0,0],"split_type":[0,0,0,0,0,0,0,0,0,0,0],"sum_hessian":[1.2085953E1,3.2593477E0,8.826605E0,2.1176286E0,1.1417191E0,7.473247E0,1.3533577E0,1.0580647E0,1.0595639E0,2.067222E0,5.4060254E0],"tree_param":{"num_deleted":"0","num_feature":"6","num_nodes":"11","size_leaf_vector":"1"}},{"base_weights":[-9.081091E-3,2.7133906E-1,-2.2179298E-1,-4.5439955E-2,3.559164E-2,7.528008E-2,-2.7150137E-2,-2.1533001E-2,1.9373575E-2,-1.1792584E-2,1.6709646E-2],"categories":[],"categories_nodes":[],"categories_segments":[],"categories_sizes":[],"default_left":[0,0,0,0,0,0,0,0,0,0,0],"id":78,"left_children":[1,3,5,7,-1,9,-1,-1,-1,-1,-1],"loss_changes":[8.3837205E-1,8.803587E-1,8.0130064E-1,9.131523E-1,0E0,4.8307317E-1,0E0,0E0,0E0,0E0,0E0],"parents":[2147483647,0,0,1,1,2,2,3,3,5,5],"right_children":[2,4,6,8,-1,10,-1,-1,-1,-1,-1],"split_conditions":[3.6513565E1,3.4376823E1,3.9E-1,5E-1,3.559164E-2,5.4983307E1,-2.7150137E-2,-2.1533001E-2,1.9373575E-2,-1.1792584E-2,1.6709646E-2],"split_indices":[2,2,5,5,0,2,0,0,0,0,0],"split_type":[0,0,0,0,0,0,0,0,0,0,0],"sum_hessian":[1.2046234E1,5.0772405E0,6.9689937E0,3.4750311E0,1.6022094E0,4.0182877E0,2.9507058E0,1.8415526E0,1.6334785E0,1.8655515E0,2.1527364E0],"tree_param":{"num_deleted":"0","num_feature":"6","num_nodes":"11","size_leaf_vector":"1"}},{"base_weights":[-7.861221E-3,-1.463899E-1,4.2440256E-1,-3.0314786E-2,-1.1601309E-2,3.328075E-2,-3.5047883E-3,3.6821343E-2,-1.5326244E-2],"categories":[],"categories_nodes":[],"categories_segments":[],"categories_sizes":[],"default_left":[0,0,0,0,0,0,0,0,0],"id":79,"left_children":[1,3,5,-1,7,-1,-1,-1,-1],"loss_changes":[8.3739936E-1,6.468535E-1,4.5204073E-1,0E0,2.2502787E0,0E0,0E0,0E0,0E0],"parents":[2147483647,0,0,1,1,2,2,4,4],"right_children":[2,4,6,-1,8,-1,-1,-1,-1],"split_conditions":[9.93049E-1,3.2419353E1,1.5115387E-4,-3.0314786E-2,3.7048542E1,3.328075E-2,-3.5047883E-3,3.6821343E-2,-1.5326244E-2],"split_indices":[0,2,1,0,2,0,0,0,0],"split_type":[0,0,0,0,0,0,0,0,0],"sum_hessian":[1.19468775E1,9.548263E0,2.398615E0,1.3712753E0,8.176988E0,1.3796107E0,1.0190042E0,1.8889494E0,6.288038E0],"tree_param":{"num_deleted":"0","num_feature":"6","num_nodes":"9","size_leaf_vector":"1"}},{"base_weights":[-5.8801817E-3,-1.4100489E-1,4.1318384E-1,2.4145247E-2,-5.058415E-1,3.2461867E-2,-3.415225E-3,-3.002247E-2,1.0741632E-2,-5.9380876E-3,-3.3558935E-2],"categories":[],"categories_nodes":[],"categories_segments":[],"categories_sizes":[],"default_left":[0,0,0,0,0,0,0,0,0,0,0],"id":80,"left_children":[1,3,5,7,9,-1,-1,-1,-1,-1,-1],"loss_changes":[7.861956E-1,6.428387E-1,4.295106E-1,1.1007913E0,1.3193244E-1,0E0,0E0,0E0,0E0,0E0,0E0],"parents":[2147483647,0,0,1,1,2,2,3,3,4,4],"right_children":[2,4,6,8,10,-1,-1,-1,-1,-1,-1],"split_conditions":[9.93049E-1,1E0,1.5115387E-4,3.3E-1,3.526171E1,3.2461867E-2,-3.415225E-3,-3.002247E-2,1.0741632E-2,-5.9380876E-3,-3.3558935E-2],"split_indices":[0,3,1,5,2,0,0,0,0,0,0],"split_type":[0,0,0,0,0,0,0,0,0,0,0],"sum_hessian":[1.1855151E1,9.466317E0,2.3888335E0,7.1593304E0,2.3069866E0,1.3691835E0,1.01965E0,1.1719037E0,5.9874268E0,1.20476E0,1.1022267E0],"tree_param":{"num_deleted":"0","num_feature":"6","num_nodes":"11","size_leaf_vector":"1"}},{"base_weights":[-7.981311E-3,2.7200198E-1,-2.0439202E-1,-7.599361E-2,2.9478276E-2,-4.404131E-1,8.584274E-2,2.2187654E-2,-3.5102066E-2,-4.249966E-2,1.6099498E-2,2.1723468E-2,-1.9614285E-2],"categories":[],"categories_nodes":[],"categories_segments":[],"categories_sizes":[],"default_left":[0,0,0,0,0,0,0,0,0,0,0,0,0],"id":81,"left_children":[1,3,5,7,-1,9,11,-1,-1,-1,-1,-1,-1],"loss_changes":[7.599094E-1,6.757591E-1,5.925443E-1,1.486183E0,0E0,1.7192714E0,9.1534024E-1,0E0,0E0,0E0,0E0,0E0,0E0],"parents":[2147483647,0,0,1,1,2,2,3,3,5,5,6,6],"right_children":[2,4,6,8,-1,10,12,-1,-1,-1,-1,-1,-1],"split_conditions":[1.5973003E-3,4.0560137E-4,5.4983307E1,1.5115387E-4,2.9478276E-2,4.8E-1,6.153772E1,2.2187654E-2,-3.5102066E-2,-4.249966E-2,1.6099498E-2,2.1723468E-2,-1.9614285E-2],"split_indices":[1,1,2,1,0,5,2,0,0,0,0,0,0],"split_type":[0,0,0,0,0,0,0,0,0,0,0,0,0],"sum_hessian":[1.1807643E1,4.709455E0,7.098188E0,2.6100178E0,2.0994375E0,3.6293423E0,3.4688456E0,1.5851799E0,1.0248379E0,2.2862372E0,1.3431052E0,2.0589082E0,1.4099373E0],"tree_param":{"num_deleted":"0","num_feature":"6","num_nodes":"13","size_leaf_vector":"1"}},{"base_weights":[-8.36535E-3,-3.6098322E-1,1.4534637E-1,-8.051736E-2,-2.9666323E-2,2.431898E-2,1.813761E-2,-1.1212133E-2,5.1684557E-3,1.3814914E-2,-2.6291236E-2],"categories":[],"categories_nodes":[],"categories_segments":[],"categories_sizes":[],"default_left":[0,0,0,0,0,0,0,0,0,0,0],"id":82,"left_children":[1,3,5,7,-1,-1,9,-1,-1,-1,-1],"loss_changes":[7.411847E-1,2.223028E-1,4.0600395E-1,1.0338731E-1,0E0,0E0,1.2691501E0,0E0,0E0,0E0,0E0],"parents":[2147483647,0,0,1,1,2,2,3,3,6,6],"right_children":[2,4,6,8,-1,-1,10,-1,-1,-1,-1],"split_conditions":[7.7985873E-4,3.9E-1,3.5E-1,5.9087185E1,-2.9666323E-2,2.431898E-2,3.7048542E1,-1.1212133E-2,5.1684557E-3,1.3814914E-2,-2.6291236E-2],"split_indices":[0,5,5,2,0,0,2,0,0,0,0],"split_type":[0,0,0,0,0,0,0,0,0,0,0],"sum_hessian":[1.1706606E1,3.1445348E0,8.562072E0,2.0348155E0,1.1097193E0,1.5590222E0,7.003049E0,1.0189465E0,1.015869E0,5.082835E0,1.9202139E0],"tree_param":{"num_deleted":"0","num_feature":"6","num_nodes":"11","size_leaf_vector":"1"}},{"base_weights":[-9.937949E-3,-1.12512626E-1,2.4914345E-2,-3.0369988E-2,6.497766E-3,-2.4490086E-2,7.4361227E-3],"categories":[],"categories_nodes":[],"categories_segments":[],"categories_sizes":[],"default_left":[0,0,0,0,0,0,0],"id":83,"left_children":[1,3,-1,-1,5,-1,-1],"loss_changes":[7.152132E-1,6.7162967E-1,0E0,0E0,7.8775585E-1,0E0,0E0],"parents":[2147483647,0,0,1,1,4,4],"right_children":[2,4,-1,-1,6,-1,-1],"split_conditions":[9.973876E-1,3.3E-1,2.4914345E-2,-3.0369988E-2,4.0560137E-4,-2.4490086E-2,7.4361227E-3],"split_indices":[0,5,0,0,1,0,0],"split_type":[0,0,0,0,0,0,0],"sum_hessian":[1.1644101E1,1.0336508E1,1.307594E0,1.2082839E0,9.128223E0,1.4888735E0,7.6393504E0],"tree_param":{"num_deleted":"0","num_feature":"6","num_nodes":"7","size_leaf_vector":"1"}},{"base_weights":[-1.128703E-2,-3.5470435E-1,1.3847212E-1,-7.812523E-2,-2.9703617E-2,2.374187E-2,1.2903927E-2,-1.1059404E-2,5.158346E-3,1.3131894E-2,-2.5691634E-2],"categories":[],"categories_nodes":[],"categories_segments":[],"categories_sizes":[],"default_left":[0,0,0,0,0,0,0,0,0,0,0],"id":84,"left_children":[1,3,5,7,-1,-1,9,-1,-1,-1,-1],"loss_changes":[6.975019E-1,2.2562754E-1,3.9504057E-1,1.0212673E-1,0E0,0E0,1.1799543E0,0E0,0E0,0E0,0E0],"parents":[2147483647,0,0,1,1,2,2,3,3,6,6],"right_children":[2,4,6,8,-1,-1,10,-1,-1,-1,-1],"split_conditions":[7.7985873E-4,6.153772E1,3.5E-1,9.538595E-1,-2.9703617E-2,2.374187E-2,3.7048542E1,-1.1059404E-2,5.158346E-3,1.3131894E-2,-2.5691634E-2],"split_indices":[0,2,5,1,0,0,2,0,0,0,0],"split_type":[0,0,0,0,0,0,0,0,0,0,0],"sum_hessian":[1.1607167E1,3.1090987E0,8.498069E0,2.0577922E0,1.0513065E0,1.5539424E0,6.9441266E0,1.0271635E0,1.0306286E0,5.0508347E0,1.8932917E0],"tree_param":{"num_deleted":"0","num_feature":"6","num_nodes":"11","size_leaf_vector":"1"}},{"base_weights":[-1.2780076E-2,-1.3864177E-1,3.7756252E-1,-3.0041084E-2,-4.6865516E-5,2.9418463E-2,-2.2669209E-3,3.4746986E-2,-1.3856973E-2],"categories":[],"categories_nodes":[],"categories_segments":[],"categories_sizes":[],"default_left":[0,0,0,0,0,0,0,0,0],"id":85,"left_children":[1,3,5,-1,7,-1,-1,-1,-1],"loss_changes":[6.688081E-1,6.54608E-1,3.2336798E-1,0E0,1.8992434E0,0E0,0E0,0E0,0E0],"parents":[2147483647,0,0,1,1,2,2,4,4],"right_children":[2,4,6,-1,8,-1,-1,-1,-1],"split_conditions":[9.93049E-1,3.2419353E1,3.2559624E1,-3.0041084E-2,3.7048542E1,2.9418463E-2,-2.2669209E-3,3.4746986E-2,-1.3856973E-2],"split_indices":[0,2,2,0,2,0,0,0,0],"split_type":[0,0,0,0,0,0,0,0,0],"sum_hessian":[1.1547781E1,9.219783E0,2.3279977E0,1.3575606E0,7.862222E0,1.2924635E0,1.0355341E0,1.8112893E0,6.050933E0],"tree_param":{"num_deleted":"0","num_feature":"6","num_nodes":"9","size_leaf_vector":"1"}},{"base_weights":[-1.0764676E-2,-1.0821246E-1,2.3629418E-2,-2.9809386E-2,8.363162E-3,2.024427E-2,-8.463668E-3],"categories":[],"categories_nodes":[],"categories_segments":[],"categories_sizes":[],"default_left":[0,0,0,0,0,0,0],"id":86,"left_children":[1,3,-1,-1,5,-1,-1],"loss_changes":[6.377227E-1,6.408436E-1,0E0,0E0,7.735038E-1,0E0,0E0],"parents":[2147483647,0,0,1,1,4,4],"right_children":[2,4,-1,-1,6,-1,-1],"split_conditions":[9.973876E-1,3.3E-1,2.3629418E-2,-2.9809386E-2,3.7E-1,2.024427E-2,-8.463668E-3],"split_indices":[0,5,0,0,5,0,0],"split_type":[0,0,0,0,0,0,0],"sum_hessian":[1.1453541E1,1.0177748E1,1.2757931E0,1.1692402E0,9.008508E0,2.3913088E0,6.617199E0],"tree_param":{"num_deleted":"0","num_feature":"6","num_nodes":"7","size_leaf_vector":"1"}},{"base_weights":[-9.842762E-3,-3.3856088E-1,1.330619E-1,-3.1302068E-3,-2.875697E-2,2.3519559E-2,6.6759796E-3,1.2212918E-2,-2.4749635E-2],"categories":[],"categories_nodes":[],"categories_segments":[],"categories_sizes":[],"default_left":[0,0,0,0,0,0,0,0,0],"id":87,"left_children":[1,3,5,-1,-1,-1,7,-1,-1],"loss_changes":[6.280062E-1,2.279034E-1,3.9622825E-1,0E0,0E0,0E0,1.0539948E0,0E0,0E0],"parents":[2147483647,0,0,1,1,2,2,6,6],"right_children":[2,4,6,-1,-1,-1,8,-1,-1],"split_conditions":[7.7985873E-4,3.9E-1,3.5E-1,-3.1302068E-3,-2.875697E-2,2.3519559E-2,3.7048542E1,1.2212918E-2,-2.4749635E-2],"split_indices":[0,5,5,0,0,0,2,0,0],"split_type":[0,0,0,0,0,0,0,0,0],"sum_hessian":[1.1409842E1,3.0423963E0,8.367445E0,1.9880551E0,1.0543412E0,1.5387076E0,6.8287377E0,4.9823046E0,1.8464328E0],"tree_param":{"num_deleted":"0","num_feature":"6","num_nodes":"9","size_leaf_vector":"1"}},{"base_weights":[-1.1142239E-2,-3.3174506E-1,1.2796132E-1,-3.0285108E-3,-2.8354704E-2,2.2723904E-2,4.7332915E-3,1.2906476E-2,-2.1999719E-2],"categories":[],"categories_nodes":[],"categories_segments":[],"categories_sizes":[],"default_left":[0,0,0,0,0,0,0,0,0],"id":88,"left_children":[1,3,5,-1,-1,-1,7,-1,-1],"loss_changes":[5.933664E-1,2.219767E-1,3.7352723E-1,0E0,0E0,0E0,9.9135077E-1,0E0,0E0],"parents":[2147483647,0,0,1,1,2,2,6,6],"right_children":[2,4,6,-1,-1,-1,8,-1,-1],"split_conditions":[7.7985873E-4,3.9E-1,3.5E-1,-3.0285108E-3,-2.8354704E-2,2.2723904E-2,3.6513565E1,1.2906476E-2,-2.1999719E-2],"split_indices":[0,5,5,0,0,0,2,0,0],"split_type":[0,0,0,0,0,0,0,0,0],"sum_hessian":[1.1353206E1,3.016338E0,8.336867E0,1.985714E0,1.0306242E0,1.5477351E0,6.7891326E0,4.5921836E0,2.1969488E0],"tree_param":{"num_deleted":"0","num_feature":"6","num_nodes":"9","size_leaf_vector":"1"}},{"base_weights":[-1.2123124E-2,-1.0480749E-1,2.2378003E-2,-2.9662801E-2,1.2562728E-2,-2.3894213E-2,7.730724E-3],"categories":[],"categories_nodes":[],"categories_segments":[],"categories_sizes":[],"default_left":[0,0,0,0,0,0,0],"id":89,"left_children":[1,3,-1,-1,5,-1,-1],"loss_changes":[5.7093096E-1,6.4070785E-1,0E0,0E0,7.6257604E-1,0E0,0E0],"parents":[2147483647,0,0,1,1,4,4],"right_children":[2,4,-1,-1,6,-1,-1],"split_conditions":[9.973876E-1,3.3E-1,2.2378003E-2,-2.9662801E-2,4.0560137E-4,-2.3894213E-2,7.730724E-3],"split_indices":[0,5,0,0,1,0,0],"split_type":[0,0,0,0,0,0,0],"sum_hessian":[1.1299443E1,1.0045919E1,1.2535242E0,1.160753E0,8.885166E0,1.4645419E0,7.4206247E0],"tree_param":{"num_deleted":"0","num_feature":"6","num_nodes":"7","size_leaf_vector":"1"}},{"base_weights":[-1.3494354E-2,-1.3006969E-1,3.4716302E-1,-2.9648378E-2,1.0785356E-2,2.8054906E-2,-2.9322992E-3,3.3317417E-2,-1.2755029E-2],"categories":[],"categories_nodes":[],"categories_segments":[],"categories_sizes":[],"default_left":[0,0,0,0,0,0,0,0,0],"id":90,"left_children":[1,3,5,-1,7,-1,-1,-1,-1],"loss_changes":[5.608088E-1,6.581625E-1,3.166658E-1,0E0,1.6770668E0,0E0,0E0,0E0,0E0],"parents":[2147483647,0,0,1,1,2,2,4,4],"right_children":[2,4,6,-1,8,-1,-1,-1,-1],"split_conditions":[9.93049E-1,3.2419353E1,3.2559624E1,-2.9648378E-2,3.7048542E1,2.8054906E-2,-2.9322992E-3,3.3317417E-2,-1.2755029E-2],"split_indices":[0,2,2,0,2,0,0,0,0],"split_type":[0,0,0,0,0,0,0,0,0],"sum_hessian":[1.1264687E1,8.996199E0,2.2684886E0,1.3499683E0,7.64623E0,1.2348387E0,1.0336498E0,1.7717344E0,5.8744955E0],"tree_param":{"num_deleted":"0","num_feature":"6","num_nodes":"9","size_leaf_vector":"1"}},{"base_weights":[-1.1572094E-2,2.0254092E-2,-1.08712025E-1,-3.0828267E-2,1.3135418E-2,2.5819814E-2,-8.878501E-3],"categories":[],"categories_nodes":[],"categories_segments":[],"categories_sizes":[],"default_left":[0,0,0,0,0,0,0],"id":91,"left_children":[1,-1,3,-1,5,-1,-1],"loss_changes":[5.368906E-1,0E0,6.679489E-1,0E0,1.0110432E0,0E0,0E0],"parents":[2147483647,0,0,2,2,4,4],"right_children":[2,-1,4,-1,6,-1,-1],"split_conditions":[1.5115387E-4,2.0254092E-2,4.756541E-4,-3.0828267E-2,1.5973003E-3,2.5819814E-2,-8.878501E-3],"split_indices":[1,0,1,0,1,0,0],"split_type":[0,0,0,0,0,0,0],"sum_hessian":[1.1177115E1,1.5138412E0,9.663274E0,1.0842091E0,8.579064E0,1.8882524E0,6.6908126E0],"tree_param":{"num_deleted":"0","num_feature":"6","num_nodes":"7","size_leaf_vector":"1"}},{"base_weights":[-1.05057545E-2,-1.22025244E-1,3.427663E-1,-2.6812342E-1,2.3992206E-1,2.5969768E-2,5.958487E-4,1.4634815E-2,-2.1229504E-2,3.104395E-2,-1.45404665E-2],"categories":[],"categories_nodes":[],"categories_segments":[],"categories_sizes":[],"default_left":[0,0,0,0,0,0,0,0,0,0,0],"id":92,"left_children":[1,3,5,7,9,-1,-1,-1,-1,-1,-1],"loss_changes":[5.198554E-1,5.9100634E-1,1.7928183E-1,7.883631E-1,8.6635387E-1,0E0,0E0,0E0,0E0,0E0,0E0],"parents":[2147483647,0,0,1,1,2,2,3,3,4,4],"right_children":[2,4,6,8,10,-1,-1,-1,-1,-1,-1],"split_conditions":[5.1E-1,5.7698326E1,6.3E-1,1.5115387E-4,6.153772E1,2.5969768E-2,5.958487E-4,1.4634815E-2,-2.1229504E-2,3.104395E-2,-1.45404665E-2],"split_indices":[5,2,5,1,2,0,0,0,0,0,0],"split_type":[0,0,0,0,0,0,0,0,0,0,0],"sum_hessian":[1.1133731E1,8.959894E0,2.1738372E0,6.5679817E0,2.3919122E0,1.0456929E0,1.1281444E0,1.2427957E0,5.3251863E0,1.2935511E0,1.0983613E0],"tree_param":{"num_deleted":"0","num_feature":"6","num_nodes":"11","size_leaf_vector":"1"}},{"base_weights":[-7.049887E-3,-3.1108752E-1,1.2490682E-1,-2.3072628E-2,1.1240927E-3,2.2962896E-2,-2.21865E-3,1.1997244E-2,-2.1207953E-2],"categories":[],"categories_nodes":[],"categories_segments":[],"categories_sizes":[],"default_left":[0,0,0,0,0,0,0,0,0],"id":93,"left_children":[1,3,5,-1,-1,-1,7,-1,-1],"loss_changes":[5.2270085E-1,2.0781916E-1,3.8880718E-1,0E0,0E0,0E0,8.788794E-1,0E0,0E0],"parents":[2147483647,0,0,1,1,2,2,6,6],"right_children":[2,4,6,-1,-1,-1,8,-1,-1],"split_conditions":[7.7985873E-4,9.538595E-1,3.5E-1,-2.3072628E-2,1.1240927E-3,2.2962896E-2,3.6513565E1,1.1997244E-2,-2.1207953E-2],"split_indices":[0,1,5,0,0,0,2,0,0],"split_type":[0,0,0,0,0,0,0,0,0],"sum_hessian":[1.1059977E1,2.9365227E0,8.123454E0,1.7598476E0,1.1766751E0,1.5180955E0,6.605358E0,4.470781E0,2.1345775E0],"tree_param":{"num_deleted":"0","num_feature":"6","num_nodes":"9","size_leaf_vector":"1"}},{"base_weights":[-7.45292E-3,-3.0305532E-1,1.2049208E-1,-2.254513E-2,1.0934491E-3,2.2198735E-2,-3.354733E-3,1.153418E-2,-2.0634051E-2],"categories":[],"categories_nodes":[],"categories_segments":[],"categories_sizes":[],"default_left":[0,0,0,0,0,0,0,0,0],"id":94,"left_children":[1,3,5,-1,-1,-1,7,-1,-1],"loss_changes":[4.9071E-1,1.9779894E-1,3.6593252E-1,0E0,0E0,0E0,8.2047206E-1,0E0,0E0],"parents":[2147483647,0,0,1,1,2,2,6,6],"right_children":[2,4,6,-1,-1,-1,8,-1,-1],"split_conditions":[7.7985873E-4,9.538595E-1,3.5E-1,-2.254513E-2,1.0934491E-3,2.2198735E-2,3.6513565E1,1.153418E-2,-2.0634051E-2],"split_indices":[0,1,5,0,0,0,2,0,0],"split_type":[0,0,0,0,0,0,0,0,0],"sum_hessian":[1.1009097E1,2.9121857E0,8.096911E0,1.7350061E0,1.1771796E0,1.526054E0,6.5708575E0,4.45823E0,2.1126275E0],"tree_param":{"num_deleted":"0","num_feature":"6","num_nodes":"9","size_leaf_vector":"1"}},{"base_weights":[-7.8503145E-3,-1.1489809E-1,3.3158737E-1,-2.873314E-1,2.035168E-1,2.5293803E-2,4.8915186E-4,4.4924812E-3,-3.0466398E-2,2.3442127E-2,-1.388094E-2],"categories":[],"categories_nodes":[],"categories_segments":[],"categories_sizes":[],"default_left":[0,0,0,0,0,0,0,0,0,0,0],"id":95,"left_children":[1,3,5,7,9,-1,-1,-1,-1,-1,-1],"loss_changes":[4.7267E-1,5.984711E-1,1.703097E-1,8.799618E-1,6.459452E-1,0E0,0E0,0E0,0E0,0E0,0E0],"parents":[2147483647,0,0,1,1,2,2,3,3,4,4],"right_children":[2,4,6,8,10,-1,-1,-1,-1,-1,-1],"split_conditions":[5.1E-1,5.4983307E1,6.3E-1,1.4214402E-3,6.153772E1,2.5293803E-2,4.8915186E-4,4.4924812E-3,-3.0466398E-2,2.3442127E-2,-1.388094E-2],"split_indices":[5,2,5,1,2,0,0,0,0,0,0],"split_type":[0,0,0,0,0,0,0,0,0,0,0],"sum_hessian":[1.095978E1,8.835007E0,2.1247735E0,5.794625E0,3.040382E0,1.0072498E0,1.1175238E0,3.0006626E0,2.793962E0,1.9761627E0,1.0642191E0],"tree_param":{"num_deleted":"0","num_feature":"6","num_nodes":"11","size_leaf_vector":"1"}},{"base_weights":[-6.7616515E-3,-2.9702097E-1,1.1874858E-1,-2.2029215E-2,9.352973E-4,-1.2217964E-1,2.6799455E-1,-2.3196539E-2,1.5651677E-2,3.487512E-2,1.5608518E-3],"categories":[],"categories_nodes":[],"categories_segments":[],"categories_sizes":[],"default_left":[0,0,0,0,0,0,0,0,0,0,0],"id":96,"left_children":[1,3,5,-1,-1,7,9,-1,-1,-1,-1],"loss_changes":[4.688446E-1,1.840342E-1,3.5719046E-1,0E0,0E0,7.607308E-1,5.7669485E-1,0E0,0E0,0E0,0E0],"parents":[2147483647,0,0,1,1,2,2,5,5,6,6],"right_children":[2,4,6,-1,-1,8,10,-1,-1,-1,-1],"split_conditions":[7.7985873E-4,9.538595E-1,3.4376823E1,-2.2029215E-2,9.352973E-4,5E-1,3.646568E1,-2.3196539E-2,1.5651677E-2,3.487512E-2,1.5608518E-3],"split_indices":[0,1,2,0,0,5,2,0,0,0,0],"split_type":[0,0,0,0,0,0,0,0,0,0,0],"sum_hessian":[1.090139E1,2.878338E0,8.023052E0,1.7067888E0,1.1715494E0,3.1382766E0,4.8847756E0,1.7209307E0,1.4173459E0,1.0444175E0,3.8403583E0],"tree_param":{"num_deleted":"0","num_feature":"6","num_nodes":"11","size_leaf_vector":"1"}},{"base_weights":[-5.799713E-3,-9.1580085E-2,2.0659737E-2,-2.8793145E-2,2.4327481E-2,-2.361255E-2,8.470934E-3],"categories":[],"categories_nodes":[],"categories_segments":[],"categories_sizes":[],"default_left":[0,0,0,0,0,0,0],"id":97,"left_children":[1,3,-1,-1,5,-1,-1],"loss_changes":[4.6318263E-1,6.113536E-1,0E0,0E0,7.67798E-1,0E0,0E0],"parents":[2147483647,0,0,1,1,4,4],"right_children":[2,4,-1,-1,6,-1,-1],"split_conditions":[9.973876E-1,3.3E-1,2.0659737E-2,-2.8793145E-2,4.0560137E-4,-2.361255E-2,8.470934E-3],"split_indices":[0,5,0,0,1,0,0],"split_type":[0,0,0,0,0,0,0],"sum_hessian":[1.0834292E1,9.64177E0,1.1925223E0,1.0956503E0,8.54612E0,1.4225495E0,7.1235704E0],"tree_param":{"num_deleted":"0","num_feature":"6","num_nodes":"7","size_leaf_vector":"1"}},{"base_weights":[-7.5282855E-3,1.9172354E-2,-1.0073616E-1,-3.0607594E-2,2.2994569E-2,-2.8396992E-2,8.462918E-3],"categories":[],"categories_nodes":[],"categories_segments":[],"categories_sizes":[],"default_left":[0,0,0,0,0,0,0],"id":98,"left_children":[1,-1,3,-1,5,-1,-1],"loss_changes":[4.687685E-1,0E0,6.673045E-1,0E0,8.9787024E-1,0E0,0E0],"parents":[2147483647,0,0,2,2,4,4],"right_children":[2,-1,4,-1,6,-1,-1],"split_conditions":[1.5115387E-4,1.9172354E-2,4.756541E-4,-3.0607594E-2,3.3E-1,-2.8396992E-2,8.462918E-3],"split_indices":[1,0,1,0,5,0,0],"split_type":[0,0,0,0,0,0,0],"sum_hessian":[1.0803461E1,1.4802835E0,9.323177E0,1.0472269E0,8.27595E0,1.0699916E0,7.205959E0],"tree_param":{"num_deleted":"0","num_feature":"6","num_nodes":"7","size_leaf_vector":"1"}},{"base_weights":[-9.866542E-3,1.8644402E-2,-1.0084315E-1,-2.9897762E-2,1.9687267E-2,-2.8007722E-2,8.08227E-3],"categories":[],"categories_nodes":[],"categories_segments":[],"categories_sizes":[],"default_left":[0,0,0,0,0,0,0],"id":99,"left_children":[1,-1,3,-1,5,-1,-1],"loss_changes":[4.476981E-1,0E0,6.2906426E-1,0E0,8.527736E-1,0E0,0E0],"parents":[2147483647,0,0,2,2,4,4],"right_children":[2,-1,4,-1,6,-1,-1],"split_conditions":[1.5115387E-4,1.8644402E-2,4.756541E-4,-2.9897762E-2,3.3E-1,-2.8007722E-2,8.08227E-3],"split_indices":[1,0,1,0,5,0,0],"split_type":[0,0,0,0,0,0,0],"sum_hessian":[1.0776987E1,1.4745541E0,9.302433E0,1.0423527E0,8.26008E0,1.0451499E0,7.21493E0],"tree_param":{"num_deleted":"0","num_feature":"6","num_nodes":"7","size_leaf_vector":"1"}}]},"name":"gbtree"},"learner_model_param":{"base_score":"[3.5164836E-1]","boost_from_average":"1","num_class":"0","num_feature":"6","num_target":"1"},"objective":{"name":"binary:logistic","reg_loss_param":{"scale_pos_weight":"1"}}},"version":[3,2,0]}