{"learner":{"attributes":{"scikit_learn":"{\"_estimator_type\": \"classifier\"}"},"feature_names":["ema_20","ema_50","ema_100","ema_200","ema_trend","ema_slope","rsi","macd","macd_signal","macd_hist","momentum","roc","rsi_slope","atr","atr_change","bollinger_width","volatility_breakout","range_expansion","vol_ratio","volume_ma","volume_spike","volume_slope","volume_change_rate","volume_imbalance","volume","support_distance","resistance_distance","sr_breakout","pullback_depth","swing_high","swing_low","candle_body","upper_wick","lower_wick","doji","engulfing","hour","session_asian","session_london","session_newyork","rsi_divergence","price_change","ema_trend_1h","rsi_1h","ema_50_1h","ema_200_1h","ema_trend_1d","rsi_1d","ema_50_1d","ema_200_1d"],"feature_types":["float","float","float","float","int","float","float","float","float","float","float","float","float","float","float","float","int","float","float","float","int","float","float","float","float","float","float","int","float","int","int","float","float","float","int","int","int","int","int","int","int","float","int","float","float","float","int","float","float","float"],"gradient_booster":{"model":{"cats":{"enc":[],"feature_segments":[],"sorted_idx":[]},"gbtree_model_param":{"num_parallel_tree":"1","num_trees":"600"},"iteration_indptr":[0,3,6,9,12,15,18,21,24,27,30,33,36,39,42,45,48,51,54,57,60,63,66,69,72,75,78,81,84,87,90,93,96,99,102,105,108,111,114,117,120,123,126,129,132,135,138,141,144,147,150,153,156,159,162,165,168,171,174,177,180,183,186,189,192,195,198,201,204,207,210,213,216,219,222,225,228,231,234,237,240,243,246,249,252,255,258,261,264,267,270,273,276,279,282,285,288,291,294,297,300,303,306,309,312,315,318,321,324,327,330,333,336,339,342,345,348,351,354,357,360,363,366,369,372,375,378,381,384,387,390,393,396,399,402,405,408,411,414,417,420,423,426,429,432,435,438,441,444,447,450,453,456,459,462,465,468,471,474,477,480,483,486,489,492,495,498,501,504,507,510,513,516,519,522,525,528,531,534,537,540,543,546,549,552,555,558,561,564,567,570,573,576,579,582,585,588,591,594,597,600],"tree_info":[0,1,2,0,1,2,0,1,2,0,1,2,0,1,2,0,1,2,0,1,2,0,1,2,0,1,2,0,1,2,0,1,2,0,1,2,0,1,2,0,1,2,0,1,2,0,1,2,0,1,2,0,1,2,0,1,2,0,1,2,0,1,2,0,1,2,0,1,2,0,1,2,0,1,2,0,1,2,0,1,2,0,1,2,0,1,2,0,1,2,0,1,2,0,1,2,0,1,2,0,1,2,0,1,2,0,1,2,0,1,2,0,1,2,0,1,2,0,1,2,0,1,2,0,1,2,0,1,2,0,1,2,0,1,2,0,1,2,0,1,2,0,1,2,0,1,2,0,1,2,0,1,2,0,1,2,0,1,2,0,1,2,0,1,2,0,1,2,0,1,2,0,1,2,0,1,2,0,1,2,0,1,2,0,1,2,0,1,2,0,1,2,0,1,2,0,1,2,0,1,2,0,1,2,0,1,2,0,1,2,0,1,2,0,1,2,0,1,2,0,1,2,0,1,2,0,1,2,0,1,2,0,1,2,0,1,2,0,1,2,0,1,2,0,1,2,0,1,2,0,1,2,0,1,2,0,1,2,0,1,2,0,1,2,0,1,2,0,1,2,0,1,2,0,1,2,0,1,2,0,1,2,0,1,2,0,1,2,0,1,2,0,1,2,0,1,2,0,1,2,0,1,2,0,1,2,0,1,2,0,1,2,0,1,2,0,1,2,0,1,2,0,1,2,0,1,2,0,1,2,0,1,2,0,1,2,0,1,2,0,1,2,0,1,2,0,1,2,0,1,2,0,1,2,0,1,2,0,1,2,0,1,2,0,1,2,0,1,2,0,1,2,0,1,2,0,1,2,0,1,2,0,1,2,0,1,2,0,1,2,0,1,2,0,1,2,0,1,2,0,1,2,0,1,2,0,1,2,0,1,2,0,1,2,0,1,2,0,1,2,0,1,2,0,1,2,0,1,2,0,1,2,0,1,2,0,1,2,0,1,2,0,1,2,0,1,2,0,1,2,0,1,2,0,1,2,0,1,2,0,1,2,0,1,2,0,1,2,0,1,2,0,1,2,0,1,2,0,1,2,0,1,2,0,1,2,0,1,2,0,1,2,0,1,2,0,1,2,0,1,2,0,1,2,0,1,2,0,1,2,0,1,2,0,1,2,0,1,2,0,1,2,0,1,2,0,1,2,0,1,2,0,1,2,0,1,2,0,1,2,0,1,2,0,1,2,0,1,2,0,1,2,0,1,2,0,1,2,0,1,2,0,1,2,0,1,2,0,1,2,0,1,2,0,1,2,0,1,2,0,1,2,0,1,2,0,1,2,0,1,2,0,1,2,0,1,2,0,1,2],"trees":[{"base_weights":[-1.38865365E-2,1.970391E0,-2.3450395E-1,-4.404999E-2,2.83851E0,-3.0719572E-1,1.1197461E0,-2.0812291E-1,4.0636253E0,3.0881938E-2,-5.018419E-1,-4.080026E-2,2.1399775E0,2.0043286E-2,-3.881106E-2,4.7628498E-1,1.2126564E0,-2.5412825E-1,1.5587474E0,-1.387631E-1,-5.3307284E-2,2.0043286E-2,2.6172657E0,1.6421221E-1,2.0043286E-2,-3.6781367E-2,9.097271E-2,-2.263186E-2,3.0268812E-1,4.5290414E-2,-4.532749E-2,8.8426515E-2,3.2975605E-1],"categories":[],"categories_nodes":[],"categories_segments":[],"categories_sizes":[],"default_left":[0,0,0,0,0,0,0,0,0,0,0,0,0,0,0,0,0,0,0,0,0,0,0,0,0,0,0,0,0,0,0,0,0],"id":0,"left_children":[1,3,5,-1,7,9,11,13,15,17,19,-1,21,-1,-1,-1,23,25,27,29,-1,-1,31,-1,-1,-1,-1,-1,-1,-1,-1,-1,-1],"loss_changes":[7.589857E1,3.7559723E1,1.56984005E1,0E0,4.8956657E1,9.808151E0,1.3593179E1,4.195817E-1,1.2647537E1,2.4483366E1,9.975605E-1,0E0,4.153408E0,0E0,0E0,0E0,1.0453405E0,6.6166353E0,2.3842909E1,1.8496361E0,0E0,0E0,1.7674103E0,0E0,0E0,0E0,0E0,0E0,0E0,0E0,0E0,0E0,0E0],"parents":[2147483647,0,0,1,1,2,2,4,4,5,5,6,6,7,7,8,8,9,9,10,10,12,12,16,16,17,17,18,18,19,19,22,22],"right_children":[2,4,6,-1,8,10,12,14,16,18,20,-1,22,-1,-1,-1,24,26,28,30,-1,-1,32,-1,-1,-1,-1,-1,-1,-1,-1,-1,-1],"split_conditions":[3.5709064E1,7.4003264E-4,1.1456456E-3,-4.404999E-2,-1.6728486E-3,4.7031773E1,3.1536466E-1,2.249856E0,3.365049E1,0E0,3.3794697E1,-4.080026E-2,2.9994606E-3,2.0043286E-2,-3.881106E-2,4.7628498E-1,-2.2532867E-4,1.0073512E-3,2.3885085E-3,2.295844E-3,-5.3307284E-2,2.0043286E-2,1.1887422E-3,1.6421221E-1,2.0043286E-2,-3.6781367E-2,9.097271E-2,-2.263186E-2,3.0268812E-1,4.5290414E-2,-4.532749E-2,8.8426515E-2,3.2975605E-1],"split_indices":[6,18,18,0,8,6,28,0,6,7,47,0,15,0,0,0,10,18,15,15,0,0,18,0,0,0,0,0,0,0,0,0,0],"split_type":[0,0,0,0,0,0,0,0,0,0,0,0,0,0,0,0,0,0,0,0,0,0,0,0,0,0,0,0,0,0,0,0,0],"sum_hessian":[1.7132143E2,1.6348495E1,1.5497293E2,4.4586806E0,1.1889815E1,1.4781203E2,7.1609116E0,3.6480117E0,8.241804E0,5.431484E1,9.3497185E1,3.1075654E0,4.053346E0,1.0808923E0,2.5671194E0,6.0800195E0,2.1617846E0,4.647837E1,7.836469E0,7.836469E0,8.566071E1,1.0808923E0,2.9724538E0,1.0808923E0,1.0808923E0,4.296547E1,3.5129E0,3.9182346E0,3.9182346E0,2.5671194E0,5.26935E0,1.4862269E0,1.4862269E0],"tree_param":{"num_deleted":"0","num_feature":"50","num_nodes":"33","size_leaf_vector":"1"}},{"base_weights":[1.7351762E-3,1.16504766E-1,-3.2215878E-1,-2.500372E0,2.6628914E-1,-2.906395E-1,5.9467964E-3,3.2707196E-1,-6.3714164E-1,-2.6637483E-1,4.1179585E-1,1.912864E-1,-1.073503E0,5.323419E-2,-8.051558E-2,-5.576622E-3,4.526218E-2,4.6765346E-2,-5.1182777E-2,-5.725282E-2,-2.2334635E-1],"categories":[],"categories_nodes":[],"categories_segments":[],"categories_sizes":[],"default_left":[0,0,0,0,0,0,0,0,0,0,0,0,0,0,0,0,0,0,0,0,0],"id":1,"left_children":[1,3,-1,5,7,-1,-1,9,11,13,15,17,19,-1,-1,-1,-1,-1,-1,-1,-1],"loss_changes":[1.0647538E2,1.09596695E2,0E0,1.5910652E1,1.4692593E1,0E0,0E0,1.2568836E1,6.338704E0,1.4012011E1,4.171959E0,1.5417504E0,5.267089E0,0E0,0E0,0E0,0E0,0E0,0E0,0E0,0E0],"parents":[2147483647,0,0,1,1,3,3,4,4,7,7,8,8,9,9,10,10,11,11,12,12],"right_children":[2,4,-1,6,8,-1,-1,10,12,14,16,18,20,-1,-1,-1,-1,-1,-1,-1,-1],"split_conditions":[2.7088528E-3,-2.0191092E-3,-3.2215878E-1,-3.8617812E-4,1.6553168E-3,-2.906395E-1,5.9467964E-3,-2.9907434E-4,-1.9023443E-2,2.2528346E-3,-5.744502E-4,6.401469E1,5.653E-4,5.323419E-2,-8.051558E-2,-5.576622E-3,4.526218E-2,4.6765346E-2,-5.1182777E-2,-5.725282E-2,-2.2334635E-1],"split_indices":[11,11,0,9,11,0,0,9,14,26,10,6,9,0,0,0,0,0,0,0,0],"split_type":[0,0,0,0,0,0,0,0,0,0,0,0,0,0,0,0,0,0,0,0,0],"sum_hessian":[2.858038E2,2.7690808E2,8.895729E0,1.4141929E1,2.6276614E2,1.2089067E1,2.0528605E0,2.4679947E2,1.5966694E1,3.0564814E1,2.1623465E2,5.7023907E0,1.0264303E1,1.2317163E1,1.824765E1,1.7335268E1,1.9889938E2,4.333817E0,1.3685737E0,8.211442E0,2.0528605E0],"tree_param":{"num_deleted":"0","num_feature":"50","num_nodes":"21","size_leaf_vector":"1"}},{"base_weights":[1.9549238E-3,-2.6389593E-1,5.9442663E-1,-3.9136723E-1,1.6540567E0,-4.576619E-1,3.9966244E-1,-1.5579793E-1,2.7152116E0,6.141774E-2,-4.742696E-1,-4.4792596E-2,1.4339888E0,-3.5283744E-2,1.9800005E-2,4.151667E-1,2.4024994E-4,-5.1545557E-2,-2.189149E-2,2.1688001E-1,-3.0214516E-2],"categories":[],"categories_nodes":[],"categories_segments":[],"categories_sizes":[],"default_left":[0,0,0,0,0,0,0,0,0,0,0,0,0,0,0,0,0,0,0,0,0],"id":2,"left_children":[1,3,-1,5,7,9,11,13,15,-1,17,-1,19,-1,-1,-1,-1,-1,-1,-1,-1],"loss_changes":[2.1951839E2,3.3166786E1,0E0,6.765936E0,1.6710545E1,2.3613548E0,9.620329E0,3.5430807E-1,2.1034542E1,0E0,1.0974674E0,0E0,6.8430567E0,0E0,0E0,0E0,0E0,0E0,0E0,0E0,0E0],"parents":[2147483647,0,0,1,1,3,3,4,4,5,5,6,6,7,7,8,8,10,10,12,12],"right_children":[2,4,-1,6,8,10,12,14,16,-1,18,-1,20,-1,-1,-1,-1,-1,-1,-1,-1],"split_conditions":[5.653E-4,1.6719181E-3,5.9442663E-1,3.0631552E-4,3.614506E-1,2.251406E0,5.4817146E1,2.2583497E0,2.2584608E0,6.141774E-2,5.787822E1,-4.4792596E-2,2.2617269E0,-3.5283744E-2,1.9800005E-2,4.151667E-1,2.4024994E-4,-5.1545557E-2,-2.189149E-2,2.1688001E-1,-3.0214516E-2],"split_indices":[9,11,0,9,31,44,6,2,45,0,6,0,2,0,0,0,0,0,0,0,0],"split_type":[0,0,0,0,0,0,0,0,0,0,0,0,0,0,0,0,0,0,0,0,0],"sum_hessian":[1.3696307E2,1.320126E2,4.950473E0,1.2453189E2,7.4807143E0,1.1529101E2,9.240883E0,3.0802941E0,4.40042E0,1.2101156E0,1.14080894E2,5.390515E0,3.8503675E0,1.9801891E0,1.100105E0,2.5302415E0,1.8701786E0,9.73593E1,1.6721596E1,2.5302415E0,1.320126E0],"tree_param":{"num_deleted":"0","num_feature":"50","num_nodes":"21","size_leaf_vector":"1"}},{"base_weights":[-4.9491927E-2,1.8061082E0,-3.5914472E-1,-4.43741E-2,2.36768E0,2.5555944E-1,-4.179643E-1,5.7693875E-1,2.6542737E0,-4.4905886E-1,4.4123417E-1,1.5958296E-1,-3.5793442E-2,1.2345744E-2,2.8590512E0,-4.6244505E-1,5.9667286E-2,1.4826001E-1,-4.0431168E-2,3.1744957E-1,9.590324E-2,3.3238437E-2,-4.825256E-2],"categories":[],"categories_nodes":[],"categories_segments":[],"categories_sizes":[],"default_left":[0,0,0,0,0,0,0,0,0,0,0,0,0,0,0,0,0,0,0,0,0,0,0],"id":3,"left_children":[1,3,5,-1,7,-1,9,11,13,15,17,-1,-1,-1,19,21,-1,-1,-1,-1,-1,-1,-1],"loss_changes":[9.957302E1,3.2367973E1,2.6506538E1,0E0,8.729767E0,0E0,4.1067944E0,4.4157424E0,8.435432E0,2.259327E0,5.542826E0,0E0,0E0,0E0,6.331291E0,2.4022121E0,0E0,0E0,0E0,0E0,0E0,0E0,0E0],"parents":[2147483647,0,0,1,1,2,2,4,4,6,6,7,7,8,8,9,9,10,10,14,14,15,15],"right_children":[2,4,6,-1,8,-1,10,12,14,16,18,-1,-1,-1,20,22,-1,-1,-1,-1,-1,-1,-1],"split_conditions":[-3.4941806E-4,2.2138169E-3,-1.8667315E1,-4.43741E-2,2.257548E0,2.5555944E-1,9.426759E-1,-1.0570956E1,7.495995E-4,2.8642241E-3,-8.871572E0,1.5958296E-1,-3.5793442E-2,1.2345744E-2,2.2652152E0,-3.2601933E-4,5.9667286E-2,1.4826001E-1,-4.0431168E-2,3.1744957E-1,9.590324E-2,3.3238437E-2,-4.825256E-2],"split_indices":[9,26,12,0,45,0,28,12,18,13,12,0,0,0,2,9,0,0,0,0,0,0,0],"split_type":[0,0,0,0,0,0,0,0,0,0,0,0,0,0,0,0,0,0,0,0,0,0,0],"sum_hessian":[1.711646E2,2.3787123E1,1.4737747E2,4.793309E0,1.8993814E1,2.0755963E0,1.4530186E2,3.0361192E0,1.5957695E1,1.4068771E2,4.614159E0,1.1144795E0,1.9216398E0,1.3145276E0,1.46431675E1,1.3946028E2,1.2274255E0,1.7300378E0,2.8841214E0,1.19829645E1,2.6602027E0,3.0532584E0,1.3640703E2],"tree_param":{"num_deleted":"0","num_feature":"50","num_nodes":"23","size_leaf_vector":"1"}},{"base_weights":[-1.7695677E-2,1.0316783E-1,-1.8355552E0,-1.355499E0,2.581899E-1,-2.0320842E0,3.4270607E-2,-8.330353E-2,-1.8517064E0,-7.3172164E-1,3.13685E-1,-6.9424E-3,-2.1963523E-1,-1.0319436E0,4.792061E-2,-2.0986571E0,-6.221141E-1,4.7140077E-2,-1.423536E0,-2.3784046E-1,4.0487835E-1,3.1675994E-2,-1.8854299E-1,-6.1440986E-2,-2.1741755E-1,-1.4528643E-1,3.8676396E-2,-1.860575E-1,3.5106603E-2,2.1108326E-2,-1.6239034E-1,-1.3617726E-2,4.587045E-2],"categories":[],"categories_nodes":[],"categories_segments":[],"categories_sizes":[],"default_left":[0,0,0,0,0,0,0,0,0,0,0,0,0,0,0,0,0,0,0,0,0,0,0,0,0,0,0,0,0,0,0,0,0],"id":4,"left_children":[1,3,5,7,9,11,-1,13,15,17,19,-1,-1,21,-1,23,25,-1,27,29,31,-1,-1,-1,-1,-1,-1,-1,-1,-1,-1,-1,-1],"loss_changes":[6.374116E1,6.189316E1,8.438675E0,1.6451958E1,1.3790724E1,5.2423325E0,0E0,4.992097E0,4.4265137E0,1.1828064E1,1.1888235E1,0E0,0E0,4.573723E0,0E0,3.7899017E-1,4.3993373E0,0E0,7.446739E0,2.1433987E1,5.932415E0,0E0,0E0,0E0,0E0,0E0,0E0,0E0,0E0,0E0,0E0,0E0,0E0],"parents":[2147483647,0,0,1,1,2,2,3,3,4,4,5,5,7,7,8,8,9,9,10,10,13,13,15,15,16,16,18,18,19,19,20,20],"right_children":[2,4,6,8,10,12,-1,14,16,18,20,-1,-1,22,-1,24,26,-1,28,30,32,-1,-1,-1,-1,-1,-1,-1,-1,-1,-1,-1,-1],"split_conditions":[5.653E-4,-4.597228E-4,3.0499499E-3,5.2766025E-1,-1.2493038E1,-6.8203874E0,3.4270607E-2,-6.2243366E0,2.3798464E-4,2.2286347E-3,2.2571833E0,-6.9424E-3,-2.1963523E-1,2.1098107E-1,4.792061E-2,1.6916131E-3,-4.216308E-4,4.7140077E-2,2.2608964E0,1.9568541E-4,-3.0870753E-4,3.1675994E-2,-1.8854299E-1,-6.1440986E-2,-2.1741755E-1,-1.4528643E-1,3.8676396E-2,-1.860575E-1,3.5106603E-2,2.1108326E-2,-1.6239034E-1,-1.3617726E-2,4.587045E-2],"split_indices":[9,9,26,28,12,12,0,12,41,26,45,0,0,33,0,13,5,0,2,9,9,0,0,0,0,0,0,0,0,0,0,0,0],"split_type":[0,0,0,0,0,0,0,0,0,0,0,0,0,0,0,0,0,0,0,0,0,0,0,0,0,0,0,0,0,0,0,0,0],"sum_hessian":[2.882493E2,2.7116376E2,1.708554E1,2.5305923E1,2.4585783E2,1.5733156E1,1.3523847E0,7.428452E0,1.7877472E1,1.2404433E1,2.334534E2,1.3249832E0,1.4408173E1,2.4545164E0,4.9739356E0,1.4298896E1,3.5785758E0,4.6449986E0,7.759435E0,3.289581E1,2.005576E2,1.1950026E0,1.2595139E0,1.1346295E0,1.3164267E1,1.7211958E0,1.8573799E0,6.1872325E0,1.5722027E0,2.5488272E1,7.4075356E0,1.8008432E1,1.8254916E2],"tree_param":{"num_deleted":"0","num_feature":"50","num_nodes":"33","size_leaf_vector":"1"}},{"base_weights":[-4.988367E-3,-3.8340235E-1,2.77319E0,-4.4696793E-1,2.6205233E-1,5.7480533E-2,3.0508323E0,-4.79009E-1,1.5143286E-1,2.1469231E-1,-1.1759858E-1,4.6831846E-2,3.2998613E-1,-4.8765242E-1,1.7924828E-2,1.0489943E-1,-4.1945044E-2,-4.684562E-2,7.658147E-1,-4.9647108E-2,1.745181E-2,1.7294693E-1,-3.1892788E-2],"categories":[],"categories_nodes":[],"categories_segments":[],"categories_sizes":[],"default_left":[0,0,0,0,0,0,0,0,0,0,0,0,0,0,0,0,0,0,0,0,0,0,0],"id":5,"left_children":[1,3,5,7,9,-1,11,13,15,-1,17,-1,-1,19,-1,-1,-1,-1,21,-1,-1,-1,-1],"loss_changes":[1.5137408E2,5.316057E0,8.782166E0,2.2913551E0,8.8329315E0,0E0,8.161713E0,7.137375E-1,3.8429952E0,0E0,3.7460651E0,0E0,0E0,7.22702E-1,0E0,0E0,0E0,0E0,4.195667E0,0E0,0E0,0E0,0E0],"parents":[2147483647,0,0,1,1,2,2,3,3,4,4,6,6,7,7,8,8,10,10,13,13,18,18],"right_children":[2,4,6,8,10,-1,12,14,16,-1,18,-1,-1,20,-1,-1,-1,-1,22,-1,-1,-1,-1],"split_conditions":[1.8856179E-3,3.0631552E-4,2.8005564E-3,7.871813E-1,2.2570682E0,5.7480533E-2,-6.362866E0,6.892251E-4,2.2579627E0,2.1469231E-1,8.280511E0,4.6831846E-2,3.2998613E-1,2.7785378E-3,1.7924828E-2,1.0489943E-1,-4.1945044E-2,-4.684562E-2,4.183535E-1,-4.9647108E-2,1.745181E-2,1.7294693E-1,-3.1892788E-2],"split_indices":[11,9,15,31,45,0,12,5,45,0,12,0,0,13,0,0,0,0,28,0,0,0,0],"split_type":[0,0,0,0,0,0,0,0,0,0,0,0,0,0,0,0,0,0,0,0,0,0,0],"sum_hessian":[1.4197594E2,1.2571444E2,1.6261492E1,1.1472375E2,1.0990695E1,2.1677177E0,1.4093775E1,1.090825E2,5.6412473E0,1.0621912E0,9.928504E0,1.4928622E0,1.2600912E1,1.0792454E2,1.1579586E0,1.8675424E0,3.773705E0,7.4423933E0,2.4861104E0,1.0675306E2,1.1714784E0,1.0017897E0,1.4843208E0],"tree_param":{"num_deleted":"0","num_feature":"50","num_nodes":"23","size_leaf_vector":"1"}},{"base_weights":[5.7751345E-3,1.7291251E0,-2.7475658E-1,2.0018153E0,2.0396271E-1,1.5462192E0,-3.818043E-1,2.2715321E-1,1.0667597E0,1.1610683E-1,-3.9083473E-2,-3.513133E-2,2.1469052E0,-4.0905407E-1,1.3497497E-1,1.9923975E-1,-4.0206965E-2,2.4952023E-1,1.9905327E-2,7.340846E-1,-4.493432E-1,-3.5725653E-2,1.5165062E-1,-1.1544357E-2,-5.0451167E-2],"categories":[],"categories_nodes":[],"categories_segments":[],"categories_sizes":[],"default_left":[0,0,0,0,0,0,0,0,0,0,0,0,0,0,0,0,0,0,0,0,0,0,0,0,0],"id":6,"left_children":[1,3,5,7,9,11,13,-1,15,-1,-1,-1,17,19,-1,-1,-1,-1,-1,21,23,-1,-1,-1,-1],"loss_changes":[8.2464134E1,9.522797E0,2.9188978E1,2.6569977E0,3.1494966E0,1.0264599E1,7.128109E0,0E0,9.495796E0,0E0,0E0,0E0,3.8982944E0,6.684473E0,0E0,0E0,0E0,0E0,0E0,4.876977E0,2.40827E0,0E0,0E0,0E0,0E0],"parents":[2147483647,0,0,1,1,2,2,3,3,4,4,5,5,6,6,8,8,12,12,13,13,19,19,20,20],"right_children":[2,4,6,8,10,12,14,-1,16,-1,-1,-1,18,20,-1,-1,-1,-1,-1,22,24,-1,-1,-1,-1],"split_conditions":[-1.7301841E-3,-3.5662923E-4,-1.2759234E1,3.7505206E-1,2.342785E-3,2.2286347E-3,2.8642241E-3,2.2715321E-1,-4.216308E-4,1.1610683E-1,-3.9083473E-2,-3.513133E-2,2.2614949E0,-4.768493E-4,1.3497497E-1,1.9923975E-1,-4.0206965E-2,2.4952023E-1,1.9905327E-2,2.6783052E-1,7.3736394E-4,-3.5725653E-2,1.5165062E-1,-1.1544357E-2,-5.0451167E-2],"split_indices":[11,9,12,12,15,26,13,0,5,0,0,0,2,9,0,0,0,0,0,33,25,0,0,0,0],"split_type":[0,0,0,0,0,0,0,0,0,0,0,0,0,0,0,0,0,0,0,0,0,0,0,0,0],"sum_hessian":[1.6859006E2,2.2878727E1,1.4571132E2,1.9143461E1,3.7352655E0,7.3437333E0,1.3836758E2,1.3748426E1,5.3950353E0,1.066726E0,2.6685395E0,1.8655891E0,5.478144E0,1.3697574E2,1.3918488E0,3.0907998E0,2.3042355E0,4.4088006E0,1.0693436E0,4.077001E0,1.3289874E2,1.9293258E0,2.1476753E0,1.9283083E1,1.1361566E2],"tree_param":{"num_deleted":"0","num_feature":"50","num_nodes":"25","size_leaf_vector":"1"}},{"base_weights":[-1.9906582E-2,1.3736539E-1,-1.156023E0,-1.0783252E0,2.9143846E-1,-1.2739215E0,1.7060621E-1,-1.4104912E0,9.211958E-2,5.450947E-1,1.4111553E-1,-2.1065421E-1,-1.4407878E0,3.6573064E-2,-1.6437573E-2,-1.5020698E0,-4.831738E-3,4.7883082E-2,-1.0035471E-1,5.568902E-2,-7.8096986E-3,4.2165312E-1,-1.4673308E-1,3.8421255E-2,-6.2819767E-1,-1.6383613E0,-6.6458267E-1,-4.8091523E-2,-1.547484E-1,5.1032364E-2,-2.146515E-2,-7.028618E-2,1.4091953E-2,-9.639648E-2,-4.320954E-3,-6.5204166E-2,-1.6967677E-1,1.7798126E-2,-1.2156626E-1],"categories":[],"categories_nodes":[],"categories_segments":[],"categories_sizes":[],"default_left":[0,0,0,0,0,0,0,0,0,0,0,0,0,0,0,0,0,0,0,0,0,0,0,0,0,0,0,0,0,0,0,0,0,0,0,0,0,0,0],"id":7,"left_children":[1,3,5,7,9,11,13,15,17,19,21,23,25,-1,-1,27,-1,-1,-1,-1,-1,29,31,-1,33,35,37,-1,-1,-1,-1,-1,-1,-1,-1,-1,-1,-1,-1],"loss_changes":[5.1569386E1,4.7821007E1,5.706108E0,1.13042145E1,8.5363865E0,5.4355507E0,3.049722E-1,2.7279015E0,3.5703366E0,6.587982E-1,1.1624398E1,1.6221291E0,3.172615E0,0E0,0E0,2.2975159E-1,0E0,0E0,0E0,0E0,0E0,4.215419E0,1.1523192E1,0E0,6.744648E-1,1.3030624E-1,3.615379E0,0E0,0E0,0E0,0E0,0E0,0E0,0E0,0E0,0E0,0E0,0E0,0E0],"parents":[2147483647,0,0,1,1,2,2,3,3,4,4,5,5,6,6,7,7,8,8,9,9,10,10,11,11,12,12,15,15,21,21,22,22,24,24,25,25,26,26],"right_children":[2,4,6,8,10,12,14,16,18,20,22,24,26,-1,-1,28,-1,-1,-1,-1,-1,30,32,-1,34,36,38,-1,-1,-1,-1,-1,-1,-1,-1,-1,-1,-1,-1],"split_conditions":[1.8036173E-3,-1.8162647E-3,2.2616897E0,-3.8617812E-4,1.9279622E-3,-5.6755938E-2,2.7866077E-1,4.474547E1,1.533312E-2,3.8987253E-4,-2.25274E-2,4.489248E-3,4.1620728E-1,3.6573064E-2,-1.6437573E-2,-1.0164693E-1,-4.831738E-3,4.7883082E-2,-1.0035471E-1,5.568902E-2,-7.8096986E-3,2.283382E-3,-4.5740587E-4,3.8421255E-2,6.8377E-1,3.1421015E-3,5.653E-4,-4.8091523E-2,-1.547484E-1,5.1032364E-2,-2.146515E-2,-7.028618E-2,1.4091953E-2,-9.639648E-2,-4.320954E-3,-6.5204166E-2,-1.6967677E-1,1.7798126E-2,-1.2156626E-1],"split_indices":[11,11,2,9,15,14,32,6,14,9,14,25,33,0,0,14,0,0,0,0,0,13,11,0,17,25,9,0,0,0,0,0,0,0,0,0,0,0,0],"split_type":[0,0,0,0,0,0,0,0,0,0,0,0,0,0,0,0,0,0,0,0,0,0,0,0,0,0,0,0,0,0,0,0,0,0,0,0,0,0,0],"sum_hessian":[2.8672552E2,2.526328E2,3.4092728E1,2.7741766E1,2.2489104E2,3.1346657E1,2.7460709E0,2.1449438E1,6.292327E0,8.270602E1,1.4218501E2,4.559033E0,2.6787624E1,1.6772776E0,1.0687934E0,2.0002008E1,1.4474303E0,5.066946E0,1.2253809E0,8.127409E1,1.4319259E0,7.177154E1,7.0413475E1,1.9131823E0,2.645851E0,2.046721E1,6.320413E0,1.3451574E0,1.865685E1,6.3167053E1,8.60449E0,2.3512505E1,4.690097E1,1.2694085E0,1.3764424E0,1.8242677E0,1.8642942E1,2.7669559E0,3.553457E0],"tree_param":{"num_deleted":"0","num_feature":"50","num_nodes":"39","size_leaf_vector":"1"}},{"base_weights":[-4.8000984E-2,-3.4864265E-1,1.8031334E0,-4.395513E-1,4.4922078E-1,-3.0419786E-2,1.9664379E0,-5.010712E-1,9.6793356E-4,1.3268806E0,-4.5467503E-2,2.2481527E0,7.5395125E-1,-5.1099396E-1,-1.0695154E-1,9.769488E-1,-3.8858095E-1,2.3734553E0,-1.275332E-1,1.4593482E-2,2.4279593E-1,-6.874574E-2,1.4411621E-1,-1.9830247E-2,-5.2162815E-2,-3.292551E-2,2.3039548E-2,-3.5634685E-2,2.3609093E-1,-4.7542714E-2,2.2217296E-2,5.567464E-2,3.0537966E-1,-3.4034006E-2,2.2828808E-2,-3.0234812E-2,2.2152023E-2],"categories":[],"categories_nodes":[],"categories_segments":[],"categories_sizes":[],"default_left":[0,0,0,0,0,0,0,0,0,0,0,0,0,0,0,0,0,0,0,0,0,0,0,0,0,0,0,0,0,0,0,0,0,0,0,0,0],"id":8,"left_children":[1,3,5,7,9,-1,11,13,15,17,-1,19,21,23,25,27,29,31,33,-1,-1,35,-1,-1,-1,-1,-1,-1,-1,-1,-1,-1,-1,-1,-1,-1,-1],"loss_changes":[7.743062E1,8.869361E0,7.2893677E0,2.9228897E0,1.0697168E1,0E0,4.514488E0,3.1539345E-1,5.782982E0,1.0517473E1,0E0,5.0309143E0,2.887474E0,2.0259285E-1,3.449735E-1,8.847591E0,6.8236244E-1,3.1863022E0,3.6219645E-1,0E0,0E0,2.8390402E-1,0E0,0E0,0E0,0E0,0E0,0E0,0E0,0E0,0E0,0E0,0E0,0E0,0E0,0E0,0E0],"parents":[2147483647,0,0,1,1,2,2,3,3,4,4,6,6,7,7,8,8,9,9,11,11,12,12,13,13,14,14,15,15,16,16,17,17,18,18,21,21],"right_children":[2,4,6,8,10,-1,12,14,16,18,-1,20,22,24,26,28,30,32,34,-1,-1,36,-1,-1,-1,-1,-1,-1,-1,-1,-1,-1,-1,-1,-1,-1,-1],"split_conditions":[1.9096504E-3,3.0631552E-4,7.536203E-4,4.1985824E-3,4.183535E-1,-3.0419786E-2,4.1620728E-1,1.1456456E-3,2.54193E-3,5.55239E1,-4.5467503E-2,-7.590241E-6,5.653E-4,2.2567165E0,-1.3298319E-3,-7.7759534E-5,1.7697507E-4,4.8030457E1,5.9902454E1,1.4593482E-2,2.4279593E-1,1.2886175E-4,1.4411621E-1,-1.9830247E-2,-5.2162815E-2,-3.292551E-2,2.3039548E-2,-3.5634685E-2,2.3609093E-1,-4.7542714E-2,2.2217296E-2,5.567464E-2,3.0537966E-1,-3.4034006E-2,2.2828808E-2,-3.0234812E-2,2.2152023E-2],"split_indices":[11,9,18,25,28,0,33,18,15,43,0,5,9,45,11,9,9,43,43,0,0,10,0,0,0,0,0,0,0,0,0,0,0,0,0,0,0],"split_type":[0,0,0,0,0,0,0,0,0,0,0,0,0,0,0,0,0,0,0,0,0,0,0,0,0,0,0,0,0,0,0,0,0,0,0,0,0],"sum_hessian":[1.3700197E2,1.1855859E2,1.8443373E1,1.068349E2,1.1723691E1,1.2644001E0,1.7178972E1,9.362273E1,1.3212173E1,5.7107453E0,6.0129457E0,1.3246948E1,3.9320245E0,9.103422E1,2.588509E0,3.3389146E0,9.873259E0,2.95353E0,2.7572153E0,1.186503E0,1.2060445E1,2.1992035E0,1.7328207E0,3.6403263E0,8.73939E1,1.5747644E0,1.0137447E0,2.0787659E0,1.2601488E0,8.838099E0,1.0351602E0,1.3001323E0,1.6533978E0,1.7525637E0,1.0046515E0,1.1954757E0,1.0037279E0],"tree_param":{"num_deleted":"0","num_feature":"50","num_nodes":"37","size_leaf_vector":"1"}},{"base_weights":[2.523436E-2,1.4081466E0,-2.5647506E-1,1.6075749E0,7.520944E-1,1.0589279E0,-3.6266753E-1,5.917361E-1,1.7844405E0,1.527056E-1,-4.3401152E-2,-3.7374284E-2,1.4883736E0,-4.1409028E-1,2.718907E-1,-3.3340774E-2,1.195931E-1,7.2002727E-1,1.9040088E-1,-2.9011665E-2,1.7990723E0,-1.5414658E-1,-5.147169E-1,-3.3636594E-1,1.3210555E0,9.59601E-2,1.2413066E-2,2.0735572E-1,1.6926104E-2,-3.515522E-2,8.356955E-2,-5.2612852E-2,1.9052688E-2,2.2403466E-2,-4.6028223E-2,1.8172708E-1,1.3706723E-2],"categories":[],"categories_nodes":[],"categories_segments":[],"categories_sizes":[],"default_left":[0,0,0,0,0,0,0,0,0,0,0,0,0,0,0,0,0,0,0,0,0,0,0,0,0,0,0,0,0,0,0,0,0,0,0,0,0],"id":9,"left_children":[1,3,5,7,9,11,13,15,17,-1,-1,-1,19,21,23,-1,-1,25,-1,-1,27,29,31,33,35,-1,-1,-1,-1,-1,-1,-1,-1,-1,-1,-1,-1],"loss_changes":[6.586132E1,2.533802E0,2.0013138E1,2.7277489E0,8.520009E0,7.1715603E0,4.379736E0,2.9806046E0,8.486862E-1,0E0,0E0,0E0,5.203985E0,3.0952206E0,7.085414E0,0E0,0E0,3.6190486E-1,0E0,0E0,2.9379692E0,7.1909275E0,8.009529E-1,6.1591965E-1,2.113912E0,0E0,0E0,0E0,0E0,0E0,0E0,0E0,0E0,0E0,0E0,0E0,0E0],"parents":[2147483647,0,0,1,1,2,2,3,3,4,4,5,5,6,6,7,7,8,8,12,12,13,13,14,14,17,17,20,20,21,21,22,22,23,23,24,24],"right_children":[2,4,6,8,10,12,14,16,18,-1,-1,-1,20,22,24,-1,-1,26,-1,-1,28,30,32,34,36,-1,-1,-1,-1,-1,-1,-1,-1,-1,-1,-1,-1],"split_conditions":[-1.7595012E-3,3.7505206E-1,-1.2759234E1,2.2542713E0,-4.216308E-4,2.2286347E-3,1.1099913E-3,1.1938601E-2,8.275862E-2,1.527056E-1,-4.3401152E-2,-3.7374284E-2,1.8766549E-3,-5.507384E-4,2.9365139E-3,-3.3340774E-2,1.195931E-1,1.0509558E0,1.9040088E-1,-2.9011665E-2,2.2610407E0,6.2121704E-2,5.9258053E-3,4.7996864E1,2.75829E-1,9.59601E-2,1.2413066E-2,2.0735572E-1,1.6926104E-2,-3.515522E-2,8.356955E-2,-5.2612852E-2,1.9052688E-2,2.2403466E-2,-4.6028223E-2,1.8172708E-1,1.3706723E-2],"split_indices":[11,12,12,0,5,26,18,14,32,0,0,0,15,11,26,0,0,17,0,0,1,14,26,6,31,0,0,0,0,0,0,0,0,0,0,0,0],"split_type":[0,0,0,0,0,0,0,0,0,0,0,0,0,0,0,0,0,0,0,0,0,0,0,0,0,0,0,0,0,0,0,0,0,0,0,0,0],"sum_hessian":[1.6713048E2,2.760735E1,1.3952312E2,2.00593E1,7.5480485E0,9.752122E0,1.29771E2,3.619005E0,1.6440294E1,4.391402E0,3.1566467E0,2.2789712E0,7.4731503E0,1.20364456E2,9.406544E0,1.6068197E0,2.0121853E0,2.369407E0,1.40708885E1,1.1212385E0,6.351912E0,3.429746E1,8.6067E1,6.3845043E0,3.02204E0,1.2546431E0,1.1147639E0,5.203325E0,1.1485872E0,2.9132383E1,5.1650734E0,8.494646E1,1.1205468E0,1.0098039E0,5.3747005E0,1.7526315E0,1.2694083E0],"tree_param":{"num_deleted":"0","num_feature":"50","num_nodes":"37","size_leaf_vector":"1"}},{"base_weights":[2.7654363E-2,4.8997414E-1,-2.6234078E-1,-5.871842E-2,5.071652E-1,5.498227E-2,-7.1708995E-1,5.337694E-1,-7.250747E-2,2.4265005E-1,-6.253828E-1,-1.2252786E0,-4.8225406E-1,5.43353E-1,-2.1643898E-2,4.3036394E-2,-9.3094975E-2,-5.7835627E-1,3.543991E-1,-8.377341E-1,2.682118E-1,-1.3621032E0,3.482664E-2,-1.07253715E-1,-1.216464E0,1.8276965E-2,5.528107E-2,-9.325995E-2,4.103259E-2,-2.567174E-2,4.2027634E-2,-1.222868E-1,-4.1000333E-2,-2.1547338E-2,4.4140738E-2,-1.5220688E-1,-5.0638337E-2,-3.414003E-2,5.0761517E-2,-5.5170517E-2,-1.3502549E-1],"categories":[],"categories_nodes":[],"categories_segments":[],"categories_sizes":[],"default_left":[0,0,0,0,0,0,0,0,0,0,0,0,0,0,0,0,0,0,0,0,0,0,0,0,0,0,0,0,0,0,0,0,0,0,0,0,0,0,0,0,0],"id":10,"left_children":[1,3,5,-1,7,9,11,13,15,17,19,21,23,25,-1,-1,-1,27,29,31,33,35,-1,37,39,-1,-1,-1,-1,-1,-1,-1,-1,-1,-1,-1,-1,-1,-1,-1,-1],"loss_changes":[3.753276E1,2.2956657E0,2.487364E1,0E0,1.6847019E0,1.3212968E1,7.8589134E0,8.521614E-1,2.8025339E0,7.6271806E0,4.47437E0,5.152588E0,1.3656666E1,2.4396324E-1,0E0,0E0,0E0,3.9102523E0,2.999548E0,2.5194836E0,5.187985E-1,1.9935455E0,0E0,5.1031723E0,7.521286E-1,0E0,0E0,0E0,0E0,0E0,0E0,0E0,0E0,0E0,0E0,0E0,0E0,0E0,0E0,0E0,0E0],"parents":[2147483647,0,0,1,1,2,2,4,4,5,5,6,6,7,7,8,8,9,9,10,10,11,11,12,12,13,13,17,17,18,18,19,19,20,20,21,21,23,23,24,24],"right_children":[2,4,6,-1,8,10,12,14,16,18,20,22,24,26,-1,-1,-1,28,30,32,34,36,-1,38,40,-1,-1,-1,-1,-1,-1,-1,-1,-1,-1,-1,-1,-1,-1,-1,-1],"split_conditions":[2.219681E-3,-1.697543E1,1.7860986E-2,-5.871842E-2,3.5436515E-4,1.023924E-3,-2.796327E-4,8.788981E-4,5.6577568E1,-4.768493E-4,2.258683E0,4.966256E1,4.7247292E-4,-3.4632304E-4,-2.1643898E-2,4.3036394E-2,-9.3094975E-2,2.262112E0,2.2492192E0,2.2606137E0,2.9158273E-3,2.2602189E0,3.482664E-2,2.2621431E0,2.2565503E0,1.8276965E-2,5.528107E-2,-9.325995E-2,4.103259E-2,-2.567174E-2,4.2027634E-2,-1.222868E-1,-4.1000333E-2,-2.1547338E-2,4.4140738E-2,-1.5220688E-1,-5.0638337E-2,-3.414003E-2,5.0761517E-2,-5.5170517E-2,-1.3502549E-1],"split_indices":[15,12,14,0,9,18,9,7,6,9,45,6,9,9,0,0,0,0,2,1,15,45,0,1,45,0,0,0,0,0,0,0,0,0,0,0,0,0,0,0,0],"split_type":[0,0,0,0,0,0,0,0,0,0,0,0,0,0,0,0,0,0,0,0,0,0,0,0,0,0,0,0,0,0,0,0,0,0,0,0,0,0,0,0,0],"sum_hessian":[2.779892E2,1.06890785E2,1.710984E2,1.1582884E0,1.057325E2,1.0129444E2,6.980396E1,1.0116853E2,4.5639668E0,7.989896E1,2.139549E1,2.0728836E1,4.9075127E1,1.001647E2,1.0038269E0,3.19249E0,1.3714767E0,9.072075E0,7.082688E1,1.7337877E1,4.0576124E0,1.9194212E1,1.5346236E0,3.324249E1,1.5832639E1,3.079531E0,9.7085175E1,6.7207613E0,2.3513134E0,6.6101627E0,6.421671E1,8.14503E0,9.192848E0,1.0054832E0,3.0521293E0,1.5515159E1,3.6790526E0,2.4396776E1,8.845712E0,3.5110633E0,1.2321575E1],"tree_param":{"num_deleted":"0","num_feature":"50","num_nodes":"41","size_leaf_vector":"1"}},{"base_weights":[-3.495045E-3,-3.8268825E-1,1.3339155E0,-4.9480376E-1,-5.960889E-2,-3.7775014E-2,1.4828368E0,-5.196504E-2,3.653395E-2,1.0615263E-1,-1.7526904E-1,1.6719006E0,1.920914E-1,3.050392E-1,-4.4007394E-1,2.7127904E-1,1.78865E0,1.10350646E-1,-3.9119747E-2,1.2599526E-1,-9.594642E-3,2.125951E-2,-4.941037E-2,-2.8410047E-2,6.976885E-2,1.8537378E-1,2.0719448E-2],"categories":[],"categories_nodes":[],"categories_segments":[],"categories_sizes":[],"default_left":[0,0,0,0,0,0,0,0,0,0,0,0,0,0,0,0,0,0,0,0,0,0,0,0,0,0,0],"id":11,"left_children":[1,3,5,7,9,-1,11,-1,-1,-1,13,15,17,19,21,23,25,-1,-1,-1,-1,-1,-1,-1,-1,-1,-1],"loss_changes":[7.008864E1,3.870491E0,8.342247E0,1.8951778E0,3.9302466E0,0E0,6.582306E0,0E0,0E0,0E0,3.5724728E0,3.5284119E0,2.9537282E0,4.025665E0,7.3396873E-1,9.246133E-1,1.9296188E0,0E0,0E0,0E0,0E0,0E0,0E0,0E0,0E0,0E0,0E0],"parents":[2147483647,0,0,1,1,2,2,3,3,4,4,6,6,10,10,11,11,12,12,13,13,14,14,15,15,16,16],"right_children":[2,4,6,8,10,-1,12,-1,-1,-1,14,16,18,20,22,24,26,-1,-1,-1,-1,-1,-1,-1,-1,-1,-1],"split_conditions":[1.5920582E-3,5.4445843E1,5.71893E1,7.561882E-4,-3.5150602E-4,-3.7775014E-2,2.258685E0,-5.196504E-2,3.653395E-2,1.0615263E-1,2.2586584E0,1.7159159E-4,5.5464836E1,1.4195567E-1,5.041927E1,1.1207678E-1,2.265574E0,1.10350646E-1,-3.9119747E-2,1.2599526E-1,-9.594642E-3,2.125951E-2,-4.941037E-2,-2.8410047E-2,6.976885E-2,1.8537378E-1,2.0719448E-2],"split_indices":[11,6,6,10,8,0,45,0,0,0,45,9,43,28,43,28,0,0,0,0,0,0,0,0,0,0,0],"split_type":[0,0,0,0,0,0,0,0,0,0,0,0,0,0,0,0,0,0,0,0,0,0,0,0,0,0,0],"sum_hessian":[1.3619797E2,1.0666837E2,2.9529602E1,7.879373E1,2.7874641E1,2.2405617E0,2.7289042E1,7.6966286E1,1.8274417E0,1.8419533E0,2.6032688E1,2.354496E1,3.7440803E0,9.197729E0,1.6834959E1,2.067319E0,2.1477642E1,1.1130383E0,2.631042E0,2.0865788E0,7.1111507E0,1.0627214E0,1.5772238E1,1.0428243E0,1.0244946E0,2.0463266E1,1.0143751E0],"tree_param":{"num_deleted":"0","num_feature":"50","num_nodes":"27","size_leaf_vector":"1"}},{"base_weights":[4.9955854E-3,9.705701E-1,-3.0682412E-1,5.5443287E-1,1.5724186E0,5.8655715E-1,-3.9594772E-1,1.2842743E-1,1.8090445E-1,1.4795827E-2,1.6751813E0,1.3235792E0,-2.9945457E-1,-4.2060953E-1,9.659871E-2,-4.3063354E-2,3.748453E-1,1.7893304E-1,7.4406254E-1,-3.002267E-2,1.7762922E-1,-4.422727E-2,2.0408154E-2,-1.5414566E-1,-5.0120664E-1,1.1607355E-1,2.7827567E-3,1.0182804E-1,1.2306298E-2,7.170194E-2,-3.079838E-2,8.133549E-3,-5.1239848E-2],"categories":[],"categories_nodes":[],"categories_segments":[],"categories_sizes":[],"default_left":[0,0,0,0,0,0,0,0,0,0,0,0,0,0,0,0,0,0,0,0,0,0,0,0,0,0,0,0,0,0,0,0,0],"id":12,"left_children":[1,3,5,7,9,11,13,-1,15,-1,17,19,21,23,-1,-1,25,-1,27,-1,-1,-1,-1,29,31,-1,-1,-1,-1,-1,-1,-1,-1],"loss_changes":[4.9367706E1,9.152229E0,1.0101557E1,6.6396036E0,2.0673828E0,8.001866E0,4.212002E0,0E0,2.2770166E0,0E0,2.2629166E-1,5.342801E0,5.292483E-1,2.3278122E0,0E0,0E0,3.8068724E0,0E0,4.3873417E-1,0E0,0E0,0E0,0E0,3.8997364E0,5.993519E-1,0E0,0E0,0E0,0E0,0E0,0E0,0E0,0E0],"parents":[2147483647,0,0,1,1,2,2,3,3,4,4,5,5,6,6,8,8,10,10,11,11,12,12,13,13,16,16,18,18,23,23,24,24],"right_children":[2,4,6,8,10,12,14,-1,16,-1,18,20,22,24,-1,-1,26,-1,28,-1,-1,-1,-1,30,32,-1,-1,-1,-1,-1,-1,-1,-1],"split_conditions":[-1.216389E-3,3.244486E-2,-1.119515E1,-2.6919872E-3,2.6207375E-3,-4.5740587E-4,1.24128E-3,1.2842743E-1,-8.159366E-2,1.4795827E-2,1.5135531E-4,2.071042E-3,2.260331E0,-5.507384E-4,9.659871E-2,-4.3063354E-2,-6.4038746E-2,1.7893304E-1,-5.4474676E-4,-3.002267E-2,1.7762922E-1,-4.422727E-2,2.0408154E-2,3E0,2.2511811E0,1.1607355E-1,2.7827567E-3,1.0182804E-1,1.2306298E-2,7.170194E-2,-3.079838E-2,8.133549E-3,-5.1239848E-2],"split_indices":[11,14,12,11,26,11,18,0,14,0,10,15,3,11,0,0,14,0,5,0,0,0,0,36,44,0,0,0,0,0,0,0,0],"split_type":[0,0,0,0,0,0,0,0,0,0,0,0,0,0,0,0,0,0,0,0,0,0,0,0,0,0,0,0,0,0,0,0,0],"sum_hessian":[1.6197685E2,3.9023838E1,1.2295302E2,2.4207335E1,1.48165045E1,1.06468525E1,1.1230617E2,7.3695884E0,1.6837746E1,1.1611302E0,1.3655375E1,5.5425024E0,5.10435E0,1.1098758E2,1.318586E0,3.7602901E0,1.30774555E1,1.1343087E1,2.312287E0,1.2817843E0,4.2607183E0,4.0712786E0,1.0330716E0,2.645075E1,8.4536835E1,3.2874618E0,9.789993E0,1.160219E0,1.152068E0,3.4204316E0,2.303032E1,1.4753726E0,8.306146E1],"tree_param":{"num_deleted":"0","num_feature":"50","num_nodes":"33","size_leaf_vector":"1"}},{"base_weights":[-8.484277E-3,4.793111E-1,-2.772604E-1,-5.7750333E-2,4.9787593E-1,3.7478343E-2,-5.937905E-1,5.261408E-1,-1.7430346E-2,2.6109627E-1,-5.954225E-1,-6.657253E-1,3.5063538E-1,-9.221296E-2,5.4700255E-2,-8.082452E-2,4.3847796E-2,-3.6751777E-1,3.8259333E-1,-1.944546E-1,-1.2702689E0,2.3829585E-1,-7.49186E-1,4.756935E-2,-1.9868653E-2,3.5728026E-2,-6.269397E-2,-7.209533E-2,4.3747228E-2,-7.427794E-2,4.2476613E-2,-9.054991E-2,3.2135423E-2,-1.3793914E-1,-4.236008E-2,4.7636356E-2,-5.2558757E-2,-1.12995766E-1,-5.541998E-2],"categories":[],"categories_nodes":[],"categories_segments":[],"categories_sizes":[],"default_left":[0,0,0,0,0,0,0,0,0,0,0,0,0,0,0,0,0,0,0,0,0,0,0,0,0,0,0,0,0,0,0,0,0,0,0,0,0,0,0],"id":13,"left_children":[1,3,5,-1,7,9,11,13,15,17,19,21,23,25,-1,-1,-1,27,29,31,33,35,37,-1,-1,-1,-1,-1,-1,-1,-1,-1,-1,-1,-1,-1,-1,-1,-1],"loss_changes":[3.6477192E1,2.2268543E0,1.7891144E1,0E0,1.4318485E0,1.3017033E1,6.312868E0,1.2453632E0,2.5345778E0,5.3223205E0,6.2554884E0,6.478447E0,5.746088E-1,1.1563017E0,0E0,0E0,0E0,3.5870528E0,3.0371857E0,6.252688E0,2.264843E-1,1.6717205E0,5.0670395E0,0E0,0E0,0E0,0E0,0E0,0E0,0E0,0E0,0E0,0E0,0E0,0E0,0E0,0E0,0E0,0E0],"parents":[2147483647,0,0,1,1,2,2,4,4,5,5,6,6,7,7,8,8,9,9,10,10,11,11,12,12,13,13,17,17,18,18,19,19,20,20,21,21,22,22],"right_children":[2,4,6,-1,8,10,12,14,16,18,20,22,24,26,-1,-1,-1,28,30,32,34,36,38,-1,-1,-1,-1,-1,-1,-1,-1,-1,-1,-1,-1,-1,-1,-1,-1],"split_conditions":[2.219681E-3,-1.8667315E1,-2.4787055E-3,-5.7750333E-2,3.5436515E-4,1.023924E-3,1.9E1,-3.4632304E-4,2.5549817E-3,-1.7301841E-3,4.5162713E-4,7.363486E-4,2.747742E-3,-2.1667099E-2,5.4700255E-2,-8.082452E-2,4.3847796E-2,8.8497903E-4,2.25135E0,-4.990239E-4,2.6783052E-1,8.066305E-2,-9.445728E-4,4.756935E-2,-1.9868653E-2,3.5728026E-2,-6.269397E-2,-7.209533E-2,4.3747228E-2,-7.427794E-2,4.2476613E-2,-9.054991E-2,3.2135423E-2,-1.3793914E-1,-4.236008E-2,4.7636356E-2,-5.2558757E-2,-1.12995766E-1,-5.541998E-2],"split_indices":[15,12,14,0,9,18,36,9,26,11,11,18,15,14,0,0,0,18,44,9,33,14,11,0,0,0,0,0,0,0,0,0,0,0,0,0,0,0,0],"split_type":[0,0,0,0,0,0,0,0,0,0,0,0,0,0,0,0,0,0,0,0,0,0,0,0,0,0,0,0,0,0,0,0,0,0,0,0,0,0,0],"sum_hessian":[2.762094E2,9.784661E1,1.7836281E2,1.1694171E0,9.667719E1,8.987652E1,8.848628E1,9.163019E1,5.0470023E0,6.6845856E1,2.3030663E1,8.249771E1,5.9885707E0,2.8788645E0,8.875133E1,1.563004E0,3.483998E0,1.0499184E1,5.634667E1,1.5254919E1,7.775744E0,6.815799E0,7.5681915E1,4.9872203E0,1.0013506E0,1.7443787E0,1.1344858E0,7.3684287E0,3.1307554E0,1.4352235E0,5.4911446E1,6.096028E0,9.158892E0,6.3306246E0,1.4451195E0,5.4832973E0,1.3325019E0,2.4006538E1,5.1675377E1],"tree_param":{"num_deleted":"0","num_feature":"50","num_nodes":"39","size_leaf_vector":"1"}},{"base_weights":[-2.3940675E-2,-3.833054E-1,1.0888695E0,-4.8346195E-1,1.1253456E-1,-1.7608766E-1,1.2214218E0,-5.062557E-1,1.7880513E-1,8.909411E-1,-2.5461206E-1,1.9677203E-2,-3.664678E-2,1.3369038E0,9.025243E-2,-5.1819522E-2,2.2553828E-2,7.3056325E-2,-3.211336E-2,-3.2849997E-2,1.4475132E0,5.503751E-2,-3.9501962E-1,-3.5825022E-3,1.4371307E0,-3.4500714E-2,6.105093E-2,1.904764E-1,1.5846308E-2,-4.7601514E-2,2.0359375E-2,1.5844768E-2,1.4933817E-1],"categories":[],"categories_nodes":[],"categories_segments":[],"categories_sizes":[],"default_left":[0,0,0,0,0,0,0,0,0,0,0,0,0,0,0,0,0,0,0,0,0,0,0,0,0,0,0,0,0,0,0,0,0],"id":14,"left_children":[1,3,5,7,9,11,13,15,17,19,21,-1,-1,23,25,-1,-1,-1,-1,-1,27,-1,29,-1,31,-1,-1,-1,-1,-1,-1,-1,-1],"loss_changes":[5.396445E1,5.117593E0,5.7392197E0,1.373785E0,5.3551598E0,3.5597163E-1,3.7913017E0,8.371887E-1,1.2186793E0,4.5296884E0,1.6834729E0,0E0,0E0,3.7800941E0,1.081657E0,0E0,0E0,0E0,0E0,0E0,2.2246485E0,0E0,6.6063666E-1,0E0,1.5817451E0,0E0,0E0,0E0,0E0,0E0,0E0,0E0,0E0],"parents":[2147483647,0,0,1,1,2,2,3,3,4,4,5,5,6,6,7,7,8,8,9,9,10,10,13,13,14,14,20,20,22,22,24,24],"right_children":[2,4,6,8,10,12,14,16,18,20,22,-1,-1,24,26,-1,-1,-1,-1,-1,28,-1,30,-1,32,-1,-1,-1,-1,-1,-1,-1,-1],"split_conditions":[1.5920582E-3,5.7736675E1,5.8941536E1,7.1072514E-4,5.9607132E1,1.4555405E-3,2.2616897E0,2.7785378E-3,1.2908448E0,3.9283905E1,6.885094E-1,1.9677203E-2,-3.664678E-2,-6.6588144E0,5.4033677E-4,-5.1819522E-2,2.2553828E-2,7.3056325E-2,-3.211336E-2,-3.2849997E-2,2.5039423E-1,5.503751E-2,6.933292E1,-3.5825022E-3,1.7230223E-3,-3.4500714E-2,6.105093E-2,1.904764E-1,1.5846308E-2,-4.7601514E-2,2.0359375E-2,1.5844768E-2,1.4933817E-1],"split_indices":[11,6,6,10,6,26,2,13,17,47,17,0,0,12,9,0,0,0,0,0,28,0,6,0,13,0,0,0,0,0,0,0,0],"split_type":[0,0,0,0,0,0,0,0,0,0,0,0,0,0,0,0,0,0,0,0,0,0,0,0,0,0,0,0,0,0,0,0,0],"sum_hessian":[1.328996E2,1.0095371E2,3.194588E1,8.400932E1,1.6944391E1,2.9988837E0,2.8946997E1,8.144185E1,2.5674746E0,4.973389E0,1.1971002E1,1.0023011E0,1.9965826E0,2.61005E1,2.8464978E0,8.042162E1,1.020228E0,1.0011969E0,1.5662779E0,1.686993E0,3.286396E0,1.3442547E0,1.0626747E1,1.8197246E0,2.4280775E1,1.7332613E0,1.1132364E0,2.0733054E0,1.2130907E0,9.54065E0,1.0860959E0,1.1839647E0,2.3096811E1],"tree_param":{"num_deleted":"0","num_feature":"50","num_nodes":"33","size_leaf_vector":"1"}},{"base_weights":[1.9467497E-2,9.026848E-1,-2.77353E-1,1.2659887E0,5.2513355E-1,6.379029E-1,-3.7320146E-1,4.194023E-1,1.4025042E0,1.0700444E0,1.5634836E-1,-3.766025E-2,9.2827433E-1,-4.0670696E-1,1.1322107E-1,-3.141335E-2,8.8409655E-2,1.4571926E-1,4.3747008E-2,1.1768674E-1,1.4068534E-2,6.915221E-1,-2.7240187E-1,1.3810047E0,1.839235E-1,-5.171799E-2,-4.604488E-1,9.725923E-2,-3.1179367E-2,-4.746418E-2,1.7424483E-2,1.7569708E-2,1.6086659E-1,-3.8590457E-2,9.694493E-2,3.8733304E-2,-4.7019776E-2,-8.115886E-3,-4.8918184E-2],"categories":[],"categories_nodes":[],"categories_segments":[],"categories_sizes":[],"default_left":[0,0,0,0,0,0,0,0,0,0,0,0,0,0,0,0,0,0,0,0,0,0,0,0,0,0,0,0,0,0,0,0,0,0,0,0,0,0,0],"id":15,"left_children":[1,3,5,7,9,11,13,15,17,19,21,-1,23,25,-1,-1,-1,-1,-1,-1,-1,27,29,31,33,35,37,-1,-1,-1,-1,-1,-1,-1,-1,-1,-1,-1,-1],"loss_changes":[4.2441307E1,4.9200935E0,1.0872305E1,1.7279587E0,4.18851E0,3.8434577E0,6.0270376E0,1.7126275E0,2.5081635E-1,6.859846E-1,3.423239E0,0E0,2.9506836E0,2.04982E0,0E0,0E0,0E0,0E0,0E0,0E0,0E0,2.1513033E0,8.5454094E-1,1.2977915E0,2.500362E0,3.014952E0,9.877281E-1,0E0,0E0,0E0,0E0,0E0,0E0,0E0,0E0,0E0,0E0,0E0,0E0],"parents":[2147483647,0,0,1,1,2,2,3,3,4,4,5,5,6,6,7,7,8,8,9,9,10,10,12,12,13,13,21,21,22,22,23,23,24,24,25,25,26,26],"right_children":[2,4,6,8,10,12,14,16,18,20,22,-1,24,26,-1,-1,-1,-1,-1,-1,-1,28,30,32,34,36,38,-1,-1,-1,-1,-1,-1,-1,-1,-1,-1,-1,-1],"split_conditions":[-1.216389E-3,-4.3892436E0,-1.119515E1,2.2549953E0,-2.6919872E-3,2.1104699E-3,2.8642241E-3,1.533312E-2,5.8269197E-1,4.505894E1,2.3847659E-1,-3.766025E-2,-4.5740587E-4,-8.0748706E-4,1.1322107E-1,-3.141335E-2,8.8409655E-2,1.4571926E-1,4.3747008E-2,1.1768674E-1,1.4068534E-2,1.1306682E0,1.7E1,1E0,1.5E1,8.293692E-1,2.247456E0,9.725923E-2,-3.1179367E-2,-4.746418E-2,1.7424483E-2,1.7569708E-2,1.6086659E-1,-3.8590457E-2,9.694493E-2,3.8733304E-2,-4.7019776E-2,-8.115886E-3,-4.8918184E-2],"split_indices":[11,12,12,0,11,15,13,14,32,43,32,0,11,11,0,0,0,0,0,0,0,17,36,38,36,17,0,0,0,0,0,0,0,0,0,0,0,0,0],"split_type":[0,0,0,0,0,0,0,0,0,0,0,0,0,0,0,0,0,0,0,0,0,0,0,0,0,0,0,0,0,0,0,0,0,0,0,0,0,0,0],"sum_hessian":[1.599377E2,3.9716457E1,1.2022124E2,1.9040916E1,2.0675539E1,1.0860369E1,1.0936087E2,3.2095337E0,1.5831384E1,7.5775456E0,1.3097994E1,2.3506505E0,8.509718E0,1.07693794E2,1.6670722E0,1.3703651E0,1.8391687E0,1.4499698E1,1.3316857E0,6.5574884E0,1.0200568E0,5.553338E0,7.544656E0,4.759545E0,3.7501733E0,1.44181E1,9.3275696E1,4.3619876E0,1.1913506E0,5.1500525E0,2.394603E0,1.0376511E0,3.721894E0,2.4683437E0,1.2818296E0,7.0724344E0,7.3456664E0,6.8378158E0,8.643788E1],"tree_param":{"num_deleted":"0","num_feature":"50","num_nodes":"39","size_leaf_vector":"1"}},{"base_weights":[2.093646E-2,4.7161052E-1,-1.7973766E-1,-3.4733392E-2,4.9255568E-1,-8.6242217E-1,-6.475078E-2,3.9224233E-2,-6.67885E-2,5.274622E-1,1.1521642E-1,-9.3567723E-1,3.1946797E-2,1.14195995E-1,-7.776521E-1,4.7602924E-3,5.4059863E-2,-5.4292824E-2,3.2813781E-1,-9.9427514E-2,-1.6970316E-2,-1.4609626E-1,2.5022665E-1,-8.500685E-1,1.1441063E-1,-4.5645246E-3,4.5228805E-2,-5.5226415E-2,4.3942244E-3,-1.1055129E-1,2.816995E-2,-9.262075E-2,-6.3897045E-3,3.2181155E-2,-1.4863282E-2],"categories":[],"categories_nodes":[],"categories_segments":[],"categories_sizes":[],"default_left":[0,0,0,0,0,0,0,0,0,0,0,0,0,0,0,0,0,0,0,0,0,0,0,0,0,0,0,0,0,0,0,0,0,0,0],"id":16,"left_children":[1,3,5,7,9,11,13,-1,-1,15,17,19,-1,21,23,-1,-1,-1,25,-1,-1,27,29,31,33,-1,-1,-1,-1,-1,-1,-1,-1,-1,-1],"loss_changes":[2.3806166E1,8.7705994E-1,1.4247358E1,1.3852506E0,9.6570015E-1,2.5659618E0,2.0120375E1,0E0,0E0,4.2215538E-1,1.2821518E0,9.4937897E-1,0E0,4.511678E0,2.1408215E0,0E0,0E0,0E0,3.2579476E-1,0E0,0E0,3.4214344E0,3.8690119E0,1.6993103E0,2.2549574E-1,0E0,0E0,0E0,0E0,0E0,0E0,0E0,0E0,0E0,0E0],"parents":[2147483647,0,0,1,1,2,2,3,3,4,4,5,5,6,6,9,9,10,10,11,11,13,13,14,14,18,18,21,21,22,22,23,23,24,24],"right_children":[2,4,6,8,10,12,14,-1,-1,16,18,20,-1,22,24,-1,-1,-1,26,-1,-1,28,30,32,34,-1,-1,-1,-1,-1,-1,-1,-1,-1,-1],"split_conditions":[1.6878064E-3,-1.4634272E-3,-2.1106012E-3,1.6455331E-3,3.0631552E-4,-3.8617812E-4,1.8856179E-3,3.9224233E-2,-6.67885E-2,-3.4941806E-4,3.2448483E-4,5.044726E1,3.1946797E-2,-2.3411852E-4,2.2616897E0,4.7602924E-3,5.4059863E-2,-5.4292824E-2,7.1311355E-5,-9.9427514E-2,-1.6970316E-2,-9.961112E-4,2.2511168E0,1.7E1,2.2669313E0,-4.5645246E-3,4.5228805E-2,-5.5226415E-2,4.3942244E-3,-1.1055129E-1,2.816995E-2,-9.262075E-2,-6.3897045E-3,3.2181155E-2,-1.4863282E-2],"split_indices":[13,11,11,13,9,9,11,0,0,9,9,43,0,41,2,0,0,0,7,0,0,11,44,36,0,0,0,0,0,0,0,0,0,0,0],"split_type":[0,0,0,0,0,0,0,0,0,0,0,0,0,0,0,0,0,0,0,0,0,0,0,0,0,0,0,0,0,0,0,0,0,0,0],"sum_hessian":[2.6129282E2,8.0085846E1,1.8120697E2,3.1550505E0,7.693079E1,2.5184542E1,1.5602243E2,2.1115716E0,1.0434791E0,7.00526E1,6.8782005E0,2.391084E1,1.2737032E0,1.2538828E2,3.0634148E1,1.9898345E0,6.806276E1,1.3024378E0,5.5757627E0,2.1934752E1,1.9760857E0,4.3011856E1,8.237643E1,2.8377571E1,2.2565763E0,1.5478724E0,4.02789E0,1.3102313E1,2.990954E1,1.0947009E0,8.128172E1,2.5709534E1,2.6680381E0,1.1368179E0,1.1197584E0],"tree_param":{"num_deleted":"0","num_feature":"50","num_nodes":"35","size_leaf_vector":"1"}},{"base_weights":[-3.49069E-2,-3.660285E-1,9.225574E-1,-4.8863098E-1,-2.3342997E-2,1.045525E0,-1.9251318E-1,-5.159099E-2,2.5795522E-1,1.1145521E0,-2.0982976E-1,-3.638066E-2,1.1541234E0,1.8385751E-2,-3.730187E-2,6.9666825E-2,-2.830321E-2,7.825776E-3,1.7094608E-1,-4.9049836E-2,3.3997622E-1,1.2446342E0,3.775931E-1,-4.2696096E-2,1.1781346E-1,8.639034E-3,1.3058312E-1,-3.549369E-2,9.201505E-2],"categories":[],"categories_nodes":[],"categories_segments":[],"categories_sizes":[],"default_left":[0,0,0,0,0,0,0,0,0,0,0,0,0,0,0,0,0,0,0,0,0,0,0,0,0,0,0,0,0],"id":17,"left_children":[1,3,5,7,9,11,13,-1,15,17,19,-1,21,-1,-1,-1,-1,-1,-1,-1,23,25,27,-1,-1,-1,-1,-1,-1],"loss_changes":[4.1703884E1,4.0919104E0,4.8375225E0,1.5970039E0,5.9176607E0,5.1046753E0,3.541134E-1,0E0,9.567727E-1,2.2890759E0,3.8478649E0,0E0,1.5443192E0,0E0,0E0,0E0,0E0,0E0,0E0,0E0,6.0650506E0,1.6756477E0,2.086152E0,0E0,0E0,0E0,0E0,0E0,0E0],"parents":[2147483647,0,0,1,1,2,2,3,3,4,4,5,5,6,6,8,8,9,9,10,10,12,12,20,20,21,21,22,22],"right_children":[2,4,6,8,10,12,14,-1,16,18,20,-1,22,-1,-1,-1,-1,-1,-1,-1,24,26,28,-1,-1,-1,-1,-1,-1],"split_conditions":[1.5920582E-3,5.4445843E1,2.258685E0,7.561882E-4,2.2529182E0,5.839004E1,6.2261375E1,-5.159099E-2,1.22334E-1,7.913777E-4,4.1985824E-3,-3.638066E-2,4.9649882E-1,1.8385751E-2,-3.730187E-2,6.9666825E-2,-2.830321E-2,7.825776E-3,1.7094608E-1,-4.9049836E-2,2.2586439E0,1.2760844E-4,2.8448792E-3,-4.2696096E-2,1.1781346E-1,8.639034E-3,1.3058312E-1,-3.549369E-2,9.201505E-2],"split_indices":[11,6,45,10,0,6,6,0,33,18,25,0,33,0,0,0,0,0,0,0,1,9,11,0,0,0,0,0,0],"split_type":[0,0,0,0,0,0,0,0,0,0,0,0,0,0,0,0,0,0,0,0,0,0,0,0,0,0,0,0,0],"sum_hessian":[1.2947748E2,9.666526E1,3.281221E1,7.0880486E1,2.578478E1,2.9609327E1,3.2028828E0,6.8680016E1,2.2004676E0,2.930012E0,2.2854769E1,1.9502349E0,2.7659092E1,1.032161E0,2.1707218E0,1.0561844E0,1.1442832E0,1.4812721E0,1.4487399E0,1.5202147E1,7.6526217E0,2.4231861E1,3.4272306E0,4.252274E0,3.4003477E0,1.3370924E0,2.289477E1,1.6054506E0,1.8217798E0],"tree_param":{"num_deleted":"0","num_feature":"50","num_nodes":"29","size_leaf_vector":"1"}},{"base_weights":[1.4546774E-2,9.059769E-1,-2.3446755E-1,-2.9511994E-2,9.529645E-1,8.400048E-1,-3.5254112E-1,5.984823E-3,9.8914343E-1,-3.813904E-2,1.1662383E0,-5.1991273E-2,-1.3110447E-1,1.1023177E0,6.087649E-1,4.0273927E-3,1.3689265E0,-3.6757448E-1,7.170529E-1,1.1492223E-2,1.14112794E-1,1.05774954E-1,-4.244409E-2,5.734226E-2,1.5165664E-1,4.268792E-2,-4.353444E-2,-4.164784E-2,1.2214613E-1],"categories":[],"categories_nodes":[],"categories_segments":[],"categories_sizes":[],"default_left":[0,0,0,0,0,0,0,0,0,0,0,0,0,0,0,0,0,0,0,0,0,0,0,0,0,0,0,0,0],"id":18,"left_children":[1,3,5,-1,7,9,11,-1,13,-1,15,-1,17,19,21,-1,23,25,27,-1,-1,-1,-1,-1,-1,-1,-1,-1,-1],"loss_changes":[3.560863E1,2.2578144E0,1.6209625E1,0E0,1.0375004E0,5.511157E0,4.1465416E0,0E0,7.304115E-1,0E0,2.2912083E0,0E0,1.0350028E1,7.830696E-1,4.9480143E0,0E0,1.5009308E-1,2.338759E0,6.9714684E0,0E0,0E0,0E0,0E0,0E0,0E0,0E0,0E0,0E0,0E0],"parents":[2147483647,0,0,1,1,2,2,4,4,5,5,6,6,8,8,10,10,12,12,13,13,14,14,16,16,17,17,18,18],"right_children":[2,4,6,-1,8,10,12,-1,14,-1,16,-1,18,20,22,-1,24,26,28,-1,-1,-1,-1,-1,-1,-1,-1,-1,-1],"split_conditions":[-1.7595012E-3,7.3240435E-4,-1.2759234E1,-2.9511994E-2,2.2494285E0,2.2286347E-3,2.3072765E-3,5.984823E-3,3.7505206E-1,-3.813904E-2,8.1885693E-4,-5.1991273E-2,-4.2484724E-5,3.229941E-2,-4.216308E-4,4.0273927E-3,3.9111828E1,-8.220294E0,2.2303742E-1,1.1492223E-2,1.14112794E-1,1.05774954E-1,-4.244409E-2,5.734226E-2,1.5165664E-1,4.268792E-2,-4.353444E-2,-4.164784E-2,1.2214613E-1],"split_indices":[11,18,12,0,1,26,26,0,12,0,18,0,8,32,5,0,47,12,33,0,0,0,0,0,0,0,0,0,0],"split_type":[0,0,0,0,0,0,0,0,0,0,0,0,0,0,0,0,0,0,0,0,0,0,0,0,0,0,0,0,0],"sum_hessian":[1.5845755E2,3.402291E1,1.2443464E2,1.0820771E0,3.2940834E1,1.1714862E1,1.1271978E2,1.3857726E0,3.1555061E1,2.4338033E0,9.281058E0,6.3429253E1,4.929053E1,2.285658E1,8.698481E0,1.5987042E0,7.682354E0,3.8987316E1,1.0303215E1,1.0142233E0,2.1842358E1,6.046981E0,2.6515E0,1.9671277E0,5.715226E0,2.6478724E0,3.6339443E1,3.226589E0,7.076626E0],"tree_param":{"num_deleted":"0","num_feature":"50","num_nodes":"29","size_leaf_vector":"1"}},{"base_weights":[-9.447305E-3,4.607293E-1,-1.9283307E-1,5.237441E-1,-1.6420601E-1,-6.162679E-2,-7.387004E-1,-1.3488335E-2,5.365296E-2,-9.917056E-2,1.5950245E-1,-7.1683896E-1,1.5201926E-1,-4.8892647E-1,-1.0185827E0,-3.748558E-2,4.342288E-2,-8.8896704E-1,1.1488527E-1,3.1845236E-1,-1.05824634E-1,-7.0219696E-1,2.2889619E-1,-1.0745158E-1,-1.4033762E-2,-9.3606465E-2,7.949138E-4,-6.16239E-2,4.64568E-2,-2.3697782E-2,3.7965737E-2,-3.8809612E-2,2.8993776E-2,3.0382985E-2,-7.881331E-2,-1.1564226E-2,4.62447E-2],"categories":[],"categories_nodes":[],"categories_segments":[],"categories_sizes":[],"default_left":[0,0,0,0,0,0,0,0,0,0,0,0,0,0,0,0,0,0,0,0,0,0,0,0,0,0,0,0,0,0,0,0,0,0,0,0,0],"id":19,"left_children":[1,3,5,7,9,11,13,-1,-1,-1,15,17,19,21,23,-1,-1,25,27,29,31,33,35,-1,-1,-1,-1,-1,-1,-1,-1,-1,-1,-1,-1,-1,-1],"loss_changes":[2.2811605E1,3.009616E0,1.3583416E1,6.422882E-1,2.1836977E0,2.1737453E1,2.0734978E0,0E0,0E0,0E0,1.087159E0,5.566265E0,5.069206E0,3.43088E0,6.559849E-1,0E0,0E0,1.3481026E0,2.1858485E0,2.5226603E0,5.3384457E0,1.6844444E0,5.0787383E-1,0E0,0E0,0E0,0E0,0E0,0E0,0E0,0E0,0E0,0E0,0E0,0E0,0E0,0E0],"parents":[2147483647,0,0,1,1,2,2,3,3,4,4,5,5,6,6,10,10,11,11,12,12,13,13,14,14,17,17,18,18,19,19,20,20,21,21,22,22],"right_children":[2,4,6,8,10,12,14,-1,-1,-1,16,18,20,22,24,-1,-1,26,28,30,32,34,36,-1,-1,-1,-1,-1,-1,-1,-1,-1,-1,-1,-1,-1,-1],"split_conditions":[1.6878064E-3,3.0631552E-4,1.8856179E-3,-2.0191092E-3,3.224118E-4,-1.7595012E-3,2.25604E-3,-1.3488335E-2,5.365296E-2,-9.917056E-2,1E1,-3.5662923E-4,1E0,1.7744895E-3,2.2660878E0,-3.748558E-2,4.342288E-2,4.474547E1,-4.496201E-4,-6.34078E-4,2.8585738E-1,-2.5068673E-5,2.2303742E-1,-1.0745158E-1,-1.4033762E-2,-9.3606465E-2,7.949138E-4,-6.16239E-2,4.64568E-2,-2.3697782E-2,3.7965737E-2,-3.8809612E-2,2.8993776E-2,3.0382985E-2,-7.881331E-2,-1.1564226E-2,4.62447E-2],"split_indices":[13,9,11,11,9,11,13,0,0,0,36,9,38,7,0,0,0,6,10,10,32,5,33,0,0,0,0,0,0,0,0,0,0,0,0,0,0],"split_type":[0,0,0,0,0,0,0,0,0,0,0,0,0,0,0,0,0,0,0,0,0,0,0,0,0,0,0,0,0,0,0,0,0,0,0,0,0],"sum_hessian":[2.625327E2,7.3240776E1,1.8929193E2,6.667916E1,6.561611E0,1.5350735E2,3.578458E1,1.0878978E0,6.559126E1,1.2648034E0,5.296808E0,3.716722E1,1.16340126E2,2.0360905E1,1.5423675E1,1.6747855E0,3.6220222E0,3.0737228E1,6.429993E0,7.056E1,4.578013E1,1.5713942E1,4.646962E0,1.4290097E1,1.1335781E0,2.9162252E1,1.574975E0,1.8337235E0,4.5962696E0,6.718483E0,6.384152E1,2.6732763E1,1.9047363E1,1.0371238E0,1.4676818E1,2.0813572E0,2.5656047E0],"tree_param":{"num_deleted":"0","num_feature":"50","num_nodes":"37","size_leaf_vector":"1"}},{"base_weights":[-8.97768E-3,-4.4222054E-1,6.7311215E-1,6.1208528E-2,-4.6604526E-1,9.4345516E-1,-1.2884258E-1,-4.8983523E-1,3.2389622E-2,-1.357583E-1,1.0338851E0,1.3998865E-1,-4.7992714E-2,-5.145954E-2,-8.8665314E-2,-3.4749176E-2,2.2711247E-2,-3.436679E-2,1.1130829E0,-4.1262746E-2,5.9530605E-2,4.0207233E-2,1.274091E-1],"categories":[],"categories_nodes":[],"categories_segments":[],"categories_sizes":[],"default_left":[0,0,0,0,0,0,0,0,0,0,0,0,0,0,0,0,0,0,0,0,0,0,0],"id":20,"left_children":[1,3,5,-1,7,9,11,13,-1,15,17,-1,-1,-1,19,-1,-1,-1,21,-1,-1,-1,-1],"loss_changes":[3.8796165E1,2.3016748E0,1.117894E1,0E0,1.6445866E0,3.8746376E0,8.045339E0,7.20768E-1,0E0,3.741279E-1,4.2469826E0,0E0,0E0,0E0,1.5071884E0,0E0,0E0,0E0,3.3492775E0,0E0,0E0,0E0,0E0],"parents":[2147483647,0,0,1,1,2,2,4,4,5,5,6,6,7,7,9,9,10,10,14,14,18,18],"right_children":[2,4,6,-1,8,10,12,14,-1,16,18,-1,-1,-1,20,-1,-1,-1,22,-1,-1,-1,-1],"split_conditions":[5.7736675E1,2.2511683E0,2.258685E0,6.1208528E-2,4.9757294E-4,1.0221419E-4,5.1181E1,2.5904416E-3,3.2389622E-2,1.997243E-1,2.4026975E-3,1.3998865E-1,-4.7992714E-2,-5.145954E-2,2.6873563E-4,-3.4749176E-2,2.2711247E-2,-3.436679E-2,2.2565541E0,-4.1262746E-2,5.9530605E-2,4.0207233E-2,1.274091E-1],"split_indices":[6,44,45,0,9,9,43,13,0,28,15,0,0,0,10,0,0,0,45,0,0,0,0],"split_type":[0,0,0,0,0,0,0,0,0,0,0,0,0,0,0,0,0,0,0,0,0,0,0],"sum_hessian":[1.2927792E2,7.9275925E1,5.0002003E1,1.2062246E0,7.80697E1,3.7263756E1,1.2738245E1,7.615609E1,1.9136153E0,2.842262E0,3.4421497E1,1.8211378E0,1.0917108E1,7.1462685E1,4.6934032E0,1.8216937E0,1.0205685E0,1.689811E0,3.2731686E1,3.4540942E0,1.239309E0,6.6892447E0,2.604244E1],"tree_param":{"num_deleted":"0","num_feature":"50","num_nodes":"23","size_leaf_vector":"1"}},{"base_weights":[2.8527014E-2,6.997711E-1,-3.1133708E-1,-4.3938406E-2,8.2910675E-1,6.371871E-1,-4.0709114E-1,8.83427E-1,-1.271305E-1,-3.5096582E-2,9.170382E-1,-4.3644598E-1,5.9692556E-1,1.8223135E-1,7.944774E-1,-3.1803228E-2,1.6459625E-2,2.201855E-2,1.1213051E0,-4.5607266E-1,6.417109E-2,-2.7505485E-2,1.2188534E-1,8.879977E-2,1.8494368E-2,1.340111E-1,3.4458946E-2,-8.170879E-3,-4.8517436E-2],"categories":[],"categories_nodes":[],"categories_segments":[],"categories_sizes":[],"default_left":[0,0,0,0,0,0,0,0,0,0,0,0,0,0,0,0,0,0,0,0,0,0,0,0,0,0,0,0,0],"id":21,"left_children":[1,3,5,-1,7,9,11,13,15,-1,17,19,21,-1,23,-1,-1,-1,25,27,-1,-1,-1,-1,-1,-1,-1,-1,-1],"loss_changes":[3.56912E1,8.110268E0,9.697973E0,0E0,2.5827446E0,3.0647273E0,3.0604858E0,2.3211517E0,2.4340656E-1,0E0,8.927703E-1,2.2580833E0,2.027825E0,0E0,2.2867603E0,0E0,0E0,0E0,5.489321E-1,9.6053505E-1,0E0,0E0,0E0,0E0,0E0,0E0,0E0,0E0,0E0],"parents":[2147483647,0,0,1,1,2,2,4,4,5,5,6,6,7,7,8,8,10,10,11,11,12,12,14,14,18,18,19,19],"right_children":[2,4,6,-1,8,10,12,14,16,-1,18,20,22,-1,24,-1,-1,-1,26,28,-1,-1,-1,-1,-1,-1,-1,-1,-1],"split_conditions":[-3.0277375E-4,2.2286347E-3,-1.2493038E1,-4.3938406E-2,-6.405998E-4,2.2846712E-3,2.262909E0,2.3306299E-3,4.1765766E1,-3.5096582E-2,2.1104699E-3,2.9875692E-3,1.5373908E-3,1.8223135E-1,-3.8617812E-4,-3.1803228E-2,1.6459625E-2,2.201855E-2,-8.391869E-5,2.247631E0,6.417109E-2,-2.7505485E-2,1.2188534E-1,8.879977E-2,1.8494368E-2,1.340111E-1,3.4458946E-2,-8.170879E-3,-4.8517436E-2],"split_indices":[9,26,12,0,11,26,45,15,47,0,15,13,13,0,9,0,0,0,11,0,0,0,0,0,0,0,0,0,0],"split_type":[0,0,0,0,0,0,0,0,0,0,0,0,0,0,0,0,0,0,0,0,0,0,0,0,0,0,0,0,0],"sum_hessian":[1.5449493E2,5.157448E1,1.0292046E2,5.014122E0,4.6560356E1,8.918714E0,9.400175E1,4.4129654E1,2.4307E0,1.9122945E0,7.006419E0,9.18807E1,2.1210508E0,2.132588E0,4.1997066E1,1.4147415E0,1.0159584E0,2.0592515E0,4.9471674E0,9.080468E1,1.0760119E0,1.1152046E0,1.0058461E0,3.601454E1,5.9825263E0,3.2938983E0,1.6532692E0,6.824333E0,8.398035E1],"tree_param":{"num_deleted":"0","num_feature":"50","num_nodes":"29","size_leaf_vector":"1"}},{"base_weights":[-1.4258754E-2,4.8964247E-1,-1.986686E-1,5.039616E-1,-2.1900453E-2,5.1107753E-2,-2.67418E-1,-1.7332474E-2,5.1854753E-1,-2.0272541E-1,-8.794988E-2,-1.4335345E-2,5.319452E-2,-6.760267E-1,-8.0781735E-2,-7.372553E-2,3.5730105E-2,-2.0658167E-2,2.5928074E-2],"categories":[],"categories_nodes":[],"categories_segments":[],"categories_sizes":[],"default_left":[0,0,0,0,0,0,0,0,0,0,0,0,0,0,0,0,0,0,0],"id":22,"left_children":[1,3,5,7,-1,-1,9,-1,11,13,-1,-1,-1,15,17,-1,-1,-1,-1],"loss_changes":[2.3177692E1,7.885437E-1,9.043897E0,7.400284E-1,0E0,0E0,6.437627E0,0E0,6.497936E-1,8.741865E0,0E0,0E0,0E0,2.2302933E0,5.28648E0,0E0,0E0,0E0,0E0],"parents":[2147483647,0,0,1,1,2,2,3,3,6,6,8,8,9,9,13,13,14,14],"right_children":[2,4,6,8,-1,-1,10,-1,12,14,-1,-1,-1,16,18,-1,-1,-1,-1],"split_conditions":[2.0203886E-3,8.558147E-4,1.5879875E-3,2.251467E0,-2.1900453E-2,5.1107753E-2,2.8448792E-3,-1.7332474E-2,-1.4482237E1,-2.0191092E-3,-8.794988E-2,-1.4335345E-2,5.319452E-2,4.474547E1,1.7E1,-7.372553E-2,3.5730105E-2,-2.0658167E-2,2.5928074E-2],"split_indices":[15,7,13,44,0,0,11,0,12,11,0,0,0,6,36,0,0,0,0],"split_type":[0,0,0,0,0,0,0,0,0,0,0,0,0,0,0,0,0,0,0],"sum_hessian":[2.4737859E2,6.5833336E1,1.8154526E2,6.481255E1,1.0207857E0,1.5464185E1,1.6608107E2,1.1369319E0,6.367562E1,1.5140938E2,1.4671685E1,1.0708522E0,6.2604767E1,3.0087334E1,1.2132205E2,2.8674768E1,1.4125657E0,8.8847176E1,3.2474876E1],"tree_param":{"num_deleted":"0","num_feature":"50","num_nodes":"19","size_leaf_vector":"1"}},{"base_weights":[6.1630164E-3,-3.8072896E-1,5.0795764E-1,-4.5865408E-1,6.910093E-1,6.9057626E-1,-3.005763E-1,-2.2643213E-1,-5.1176973E-2,-3.0556053E-2,1.127838E0,8.993772E-1,-1.3256896E-1,6.281558E-2,-4.715117E-2,9.1884404E-2,-4.073681E-1,1.71901E-1,7.689332E-3,1.1676239E0,5.0722516E-1,2.7004996E-1,-4.416206E-2,-4.7857888E-2,2.2555582E-2,-1.3910639E-3,1.250188E-1,-3.1831905E-2,8.936758E-2,6.1736412E-2,-3.1512257E-2],"categories":[],"categories_nodes":[],"categories_segments":[],"categories_sizes":[],"default_left":[0,0,0,0,0,0,0,0,0,0,0,0,0,0,0,0,0,0,0,0,0,0,0,0,0,0,0,0,0,0,0],"id":23,"left_children":[1,3,5,7,9,11,13,15,-1,-1,17,19,21,-1,-1,-1,23,-1,-1,25,27,29,-1,-1,-1,-1,-1,-1,-1,-1,-1],"loss_changes":[2.472296E1,6.3229027E0,8.392746E0,7.184496E-1,2.6402829E0,7.9436817E0,2.028273E0,3.3551874E0,0E0,0E0,2.278101E0,3.2411785E0,1.3738662E0,0E0,0E0,0E0,6.9906425E-1,0E0,0E0,2.053444E0,5.570917E0,1.2105622E0,0E0,0E0,0E0,0E0,0E0,0E0,0E0,0E0,0E0],"parents":[2147483647,0,0,1,1,2,2,3,3,4,4,5,5,6,6,7,7,10,10,11,11,12,12,16,16,19,19,20,20,21,21],"right_children":[2,4,6,8,10,12,14,16,-1,-1,18,20,22,-1,-1,-1,24,-1,-1,26,28,30,-1,-1,-1,-1,-1,-1,-1,-1,-1],"split_conditions":[3.1887493E-3,7.039555E-4,2.258685E0,3.524087E-1,1E0,2.6450136E-1,4.951651E1,-4.5185213E-4,-5.1176973E-2,-3.0556053E-2,-3.961794E-4,1.3166155E-3,1.2E1,6.281558E-2,-4.715117E-2,9.1884404E-2,1.3141214E-3,1.71901E-1,7.689332E-3,2.2565184E0,2.2663996E-3,2.2577257E0,-4.416206E-2,-4.7857888E-2,2.2555582E-2,-1.3910639E-3,1.250188E-1,-3.1831905E-2,8.936758E-2,6.1736412E-2,-3.1512257E-2],"split_indices":[25,10,45,28,38,28,43,8,0,0,8,8,36,0,0,0,26,0,0,45,13,0,0,0,0,0,0,0,0,0,0],"split_type":[0,0,0,0,0,0,0,0,0,0,0,0,0,0,0,0,0,0,0,0,0,0,0,0,0,0,0,0,0,0,0],"sum_hessian":[1.2534967E2,7.09146E1,5.443507E1,6.664123E1,4.273375E0,4.4524487E1,9.910585E0,1.3384983E1,5.325624E1,1.393891E0,2.8794842E0,3.544166E1,9.082826E0,1.1247487E0,8.785836E0,1.2697189E0,1.2115264E1,1.4360207E0,1.4434634E0,1.9871403E1,1.5570258E1,3.9991314E0,5.083694E0,1.1109218E1,1.0060465E0,1.3522031E0,1.85192E1,5.0208693E0,1.0549389E1,2.475092E0,1.5240396E0],"tree_param":{"num_deleted":"0","num_feature":"50","num_nodes":"31","size_leaf_vector":"1"}},{"base_weights":[3.2635253E-2,6.12714E-1,-2.7990505E-1,-4.362085E-2,7.2905E-1,6.7040724E-1,-3.7744877E-1,1.0697111E0,5.187521E-1,-3.2440543E-2,9.029554E-1,3.7876925E-1,-4.167221E-1,7.595014E-1,1.340932E0,3.9477074E-1,1.3256808E-1,-2.4682784E-3,1.1648326E-1,1.3089947E-1,-3.7429046E-2,-4.469433E-1,3.194966E-1,9.081942E-2,-3.0361258E-3,8.313497E-2,1.9106944E-1,5.0507512E-2,-4.159457E-2,-7.907434E-3,-4.7866967E-2,-3.6202047E-2,1.1583274E-1],"categories":[],"categories_nodes":[],"categories_segments":[],"categories_sizes":[],"default_left":[0,0,0,0,0,0,0,0,0,0,0,0,0,0,0,0,0,0,0,0,0,0,0,0,0,0,0,0,0,0,0,0,0],"id":24,"left_children":[1,3,5,-1,7,9,11,13,15,-1,17,19,21,23,25,27,-1,-1,-1,-1,-1,29,31,-1,-1,-1,-1,-1,-1,-1,-1,-1,-1],"loss_changes":[2.7458757E1,6.7870693E0,9.383458E0,0E0,2.8906136E0,2.4974322E0,2.8298244E0,4.4685555E-1,2.645938E0,0E0,1.9692621E0,3.9684048E0,2.056306E0,1.2525821E0,7.3010254E-1,2.793034E0,0E0,0E0,0E0,0E0,0E0,9.311867E-1,2.691346E0,0E0,0E0,0E0,0E0,0E0,0E0,0E0,0E0,0E0,0E0],"parents":[2147483647,0,0,1,1,2,2,4,4,5,5,6,6,7,7,8,8,10,10,11,11,12,12,13,13,14,14,15,15,21,21,22,22],"right_children":[2,4,6,-1,8,10,12,14,16,-1,18,20,22,24,26,28,-1,-1,-1,-1,-1,30,32,-1,-1,-1,-1,-1,-1,-1,-1,-1,-1],"split_conditions":[-2.8400813E-4,2.2286347E-3,-1.2493038E1,-4.362085E-2,5.1195896E-4,2.2846712E-3,2.2445958E0,2.2603552E0,1.7583718E-3,-3.2440543E-2,2.1709278E-3,5.1912575E1,7.0943646E-3,-4.67467E-4,-4.990239E-4,5.7337143E1,1.3256808E-1,-2.4682784E-3,1.1648326E-1,1.3089947E-1,-3.7429046E-2,2.247631E0,2.2624316E0,9.081942E-2,-3.0361258E-3,8.313497E-2,1.9106944E-1,5.0507512E-2,-4.159457E-2,-7.907434E-3,-4.7866967E-2,-3.6202047E-2,1.1583274E-1],"split_indices":[9,26,12,0,25,26,1,0,8,0,15,43,15,9,9,43,0,0,0,0,0,0,0,0,0,0,0,0,0,0,0,0,0],"split_type":[0,0,0,0,0,0,0,0,0,0,0,0,0,0,0,0,0,0,0,0,0,0,0,0,0,0,0,0,0,0,0,0,0],"sum_hessian":[1.4951053E2,5.201311E1,9.749742E1,4.918328E0,4.7094784E1,8.5292225E0,8.89682E1,1.6415958E1,3.0678823E1,1.5411912E0,6.988031E0,3.9655745E0,8.5002625E1,9.430315E0,6.9856434E0,2.7883814E1,2.7950091E0,1.7378509E0,5.2501802E0,1.4438311E0,2.5217433E0,8.202834E1,2.9742825E0,7.810218E0,1.6200974E0,4.9856815E0,1.9999619E0,2.4876213E1,3.0076022E0,6.790021E0,7.523832E1,1.9546382E0,1.0196443E0],"tree_param":{"num_deleted":"0","num_feature":"50","num_nodes":"33","size_leaf_vector":"1"}},{"base_weights":[1.5687527E-2,4.4730496E-1,-1.8138383E-1,4.7171167E-1,-7.154239E-2,6.3003644E-2,-3.971224E-1,-5.719727E-2,4.9410018E-1,2.0600925E-1,-2.6909158E-1,-4.5045117E-1,4.655061E-2,5.1979844E-2,5.1916987E-1,-3.45845E-1,4.0082288E-1,-4.6356314E-1,4.671829E-2,-9.2065305E-1,-3.612322E-1,4.0742304E-2,-7.173444E-2,1.9093828E-2,5.3166207E-2,4.1208263E-2,-5.390043E-2,-2.2095904E-2,4.8110984E-2,8.0081625E-3,-6.869869E-2,-1.23282574E-1,-2.7361525E-2,-6.3667886E-2,-1.600272E-2],"categories":[],"categories_nodes":[],"categories_segments":[],"categories_sizes":[],"default_left":[0,0,0,0,0,0,0,0,0,0,0,0,0,0,0,0,0,0,0,0,0,0,0,0,0,0,0,0,0,0,0,0,0,0,0],"id":25,"left_children":[1,3,5,7,-1,9,11,-1,13,15,17,19,-1,21,23,25,27,29,-1,31,33,-1,-1,-1,-1,-1,-1,-1,-1,-1,-1,-1,-1,-1,-1],"loss_changes":[2.1190989E1,2.5533524E0,9.045767E0,2.0837212E0,0E0,3.9062257E0,4.3964376E0,0E0,8.1536484E-1,6.2928452E0,3.7732546E0,3.2844372E0,0E0,1.7113035E0,1.929264E-1,2.487281E0,2.2415042E0,2.5027094E0,0E0,2.3097315E0,4.0056562E0,0E0,0E0,0E0,0E0,0E0,0E0,0E0,0E0,0E0,0E0,0E0,0E0,0E0,0E0],"parents":[2147483647,0,0,1,1,2,2,3,3,5,5,6,6,8,8,9,9,10,10,11,11,13,13,14,14,15,15,16,16,17,17,19,19,20,20],"right_children":[2,4,6,8,-1,10,12,-1,14,16,18,20,-1,22,24,26,28,30,-1,32,34,-1,-1,-1,-1,-1,-1,-1,-1,-1,-1,-1,-1,-1,-1],"split_conditions":[2.219681E-3,9.3490205E-4,-8.838315E-3,-1.8667315E1,-7.154239E-2,4.1985824E-3,1.9E1,-5.719727E-2,2.9482296E-2,-1.7595012E-3,2.258683E0,2.2478616E0,4.655061E-2,7.876034E-1,3.9601292E-2,2.2572722E0,3E0,2.3874323E-4,4.671829E-2,1.0779923E-1,-4.5740587E-4,4.0742304E-2,-7.173444E-2,1.9093828E-2,5.3166207E-2,4.1208263E-2,-5.390043E-2,-2.2095904E-2,4.8110984E-2,8.0081625E-3,-6.869869E-2,-1.23282574E-1,-2.7361525E-2,-6.3667886E-2,-1.600272E-2],"split_indices":[15,7,14,12,0,25,36,0,31,11,45,0,0,28,32,2,36,11,0,14,11,0,0,0,0,0,0,0,0,0,0,0,0,0,0],"split_type":[0,0,0,0,0,0,0,0,0,0,0,0,0,0,0,0,0,0,0,0,0,0,0,0,0,0,0,0,0,0,0,0,0,0,0],"sum_hessian":[2.4717767E2,7.7083305E1,1.7009438E2,7.608061E1,1.0026934E0,8.0083824E1,9.001056E1,1.0822413E0,7.499837E1,5.6243935E1,2.3839888E1,8.521997E1,4.7905874E0,4.1893773E0,7.080899E1,1.4472368E1,4.1771564E1,1.9151745E1,4.688142E0,1.2105025E1,7.3114944E1,3.1872284E0,1.002149E0,3.193169E0,6.761582E1,2.7090576E0,1.1763311E1,4.576531E0,3.7195034E1,5.765191E0,1.3386554E1,7.554777E0,4.5502477E0,2.9949793E1,4.316515E1],"tree_param":{"num_deleted":"0","num_feature":"50","num_nodes":"35","size_leaf_vector":"1"}},{"base_weights":[-9.197324E-3,-4.426699E-1,5.798921E-1,-4.829461E-1,2.5963467E-1,-4.293986E-2,6.933178E-1,-1.8638486E-1,-5.1121082E-2,7.8416124E-2,-3.4015775E-2,-1.2364379E-1,7.9872555E-1,5.5346012E-2,-4.3825887E-2,7.2745696E-2,-4.3041192E-2,-9.7692885E-2,8.9797705E-1,-4.4192795E-2,5.981351E-2,-8.263144E-3,9.672825E-2],"categories":[],"categories_nodes":[],"categories_segments":[],"categories_sizes":[],"default_left":[0,0,0,0,0,0,0,0,0,0,0,0,0,0,0,0,0,0,0,0,0,0,0],"id":26,"left_children":[1,3,5,7,9,-1,11,13,-1,-1,-1,15,17,-1,-1,-1,-1,19,21,-1,-1,-1,-1],"loss_changes":[3.093789E1,2.099349E0,6.1780777E0,4.6087933E-1,1.6621438E0,0E0,4.108162E0,1.6117005E0,0E0,0E0,0E0,1.9283968E0,3.768673E0,0E0,0E0,0E0,0E0,1.4682074E0,2.6180515E0,0E0,0E0,0E0,0E0],"parents":[2147483647,0,0,1,1,2,2,3,3,4,4,6,6,7,7,11,11,12,12,17,17,18,18],"right_children":[2,4,6,8,10,-1,12,14,-1,-1,-1,16,18,-1,-1,-1,-1,20,22,-1,-1,-1,-1],"split_conditions":[5.7736675E1,7.039555E-4,7.018124E-4,2.2568643E0,-5.933796E-4,-4.293986E-2,9.917285E-5,2.2518232E0,-5.1121082E-2,7.8416124E-2,-3.4015775E-2,2.092366E-3,-6.362866E0,5.5346012E-2,-4.3825887E-2,7.2745696E-2,-4.3041192E-2,2.4629897E-3,2.4026975E-3,-4.4192795E-2,5.981351E-2,-8.263144E-3,9.672825E-2],"split_indices":[6,10,18,45,7,0,9,1,0,0,0,15,12,0,0,0,0,13,15,0,0,0,0],"split_type":[0,0,0,0,0,0,0,0,0,0,0,0,0,0,0,0,0,0,0,0,0,0,0],"sum_hessian":[1.19151535E2,6.878539E1,5.0366142E1,6.5350006E1,3.4353914E0,4.8069477E0,4.5559193E1,6.3472424E0,5.900276E1,1.6687016E0,1.7666898E0,5.186706E0,4.037249E1,1.3079504E0,5.039292E0,1.0108461E0,4.17586E0,4.0260205E0,3.6346466E1,2.9376276E0,1.088393E0,2.386559E0,3.3959908E1],"tree_param":{"num_deleted":"0","num_feature":"50","num_nodes":"23","size_leaf_vector":"1"}},{"base_weights":[1.5546932E-2,5.6696355E-1,-2.9471415E-1,9.3354344E-1,3.642994E-1,4.786493E-1,-3.5622886E-1,-1.0963968E-3,1.0057925E0,-2.9096642E-1,4.782824E-1,7.311185E-1,-3.2090675E-2,-3.84897E-1,6.682327E-2,8.455583E-1,1.607007E-1,-4.344483E-2,2.093066E-2,5.679375E-1,-3.8350243E-2,1.4349784E-2,8.367619E-1,2.2120617E-2,-4.6337083E-1,8.886581E-2,1.1522668E-2,2.0385472E-2,7.635979E-2,9.706957E-2,1.6973464E-2,5.669217E-2,-4.684706E-2,3.2402948E-2,-4.879928E-2],"categories":[],"categories_nodes":[],"categories_segments":[],"categories_sizes":[],"default_left":[0,0,0,0,0,0,0,0,0,0,0,0,0,0,0,0,0,0,0,0,0,0,0,0,0,0,0,0,0,0,0,0,0,0,0],"id":27,"left_children":[1,3,5,7,9,11,13,-1,15,17,19,21,-1,23,-1,25,-1,-1,-1,27,-1,-1,29,31,33,-1,-1,-1,-1,-1,-1,-1,-1,-1,-1],"loss_changes":[2.558691E1,3.6599197E0,4.7251883E0,1.2754269E0,2.851314E0,1.7447475E0,2.8786974E0,0E0,3.00354E-1,5.2178127E-1,2.6369343E0,2.5181675E-1,0E0,2.803876E0,0E0,3.9208126E-1,0E0,0E0,0E0,1.8933039E0,0E0,0E0,2.7038312E-1,4.2992864E0,1.580617E0,0E0,0E0,0E0,0E0,0E0,0E0,0E0,0E0,0E0,0E0],"parents":[2147483647,0,0,1,1,2,2,3,3,4,4,5,5,6,6,8,8,9,9,10,10,11,11,13,13,15,15,19,19,22,22,23,23,24,24],"right_children":[2,4,6,8,10,12,14,-1,16,18,20,22,-1,24,-1,26,-1,-1,-1,28,-1,-1,30,32,34,-1,-1,-1,-1,-1,-1,-1,-1,-1,-1],"split_conditions":[-3.0277375E-4,5.1195896E-4,-8.635807E-4,-1.5194595E-3,1.7789812E-3,2.261008E0,2.8642241E-3,-1.0963968E-3,4.8211735E1,-6.7747344E-4,-3.8477228E-4,1.9051201E-3,-3.2090675E-2,2.2498882E0,6.682327E-2,3.5028904E1,1.607007E-1,-4.344483E-2,2.093066E-2,2.9682997E-1,-3.8350243E-2,1.4349784E-2,4.733557E1,2.4577626E-3,-1.7595012E-3,8.886581E-2,1.1522668E-2,2.0385472E-2,7.635979E-2,9.706957E-2,1.6973464E-2,5.669217E-2,-4.684706E-2,3.2402948E-2,-4.879928E-2],"split_indices":[9,25,10,8,13,1,13,0,43,11,11,13,0,1,0,6,0,0,0,33,0,0,6,15,11,0,0,0,0,0,0,0,0,0,0],"split_type":[0,0,0,0,0,0,0,0,0,0,0,0,0,0,0,0,0,0,0,0,0,0,0,0,0,0,0,0,0,0,0,0,0,0,0],"sum_hessian":[1.4758168E2,5.2841274E1,9.47404E1,1.752878E1,3.5312496E1,6.4809375E0,8.825947E1,1.3058414E0,1.6222939E1,5.002336E0,3.0310158E1,4.9906693E0,1.4902682E0,8.646418E1,1.7952858E0,1.4709118E1,1.5138209E0,3.9896529E0,1.0126833E0,2.7762848E1,2.5473104E0,1.1198798E0,3.8707895E0,1.4091966E1,7.2372215E1,1.368474E1,1.0243785E0,1.0418359E1,1.734449E1,2.8444002E0,1.0263892E0,6.603356E0,7.48861E0,1.8257377E0,7.054648E1],"tree_param":{"num_deleted":"0","num_feature":"50","num_nodes":"35","size_leaf_vector":"1"}},{"base_weights":[1.1198111E-3,3.833501E-1,-1.8004167E-1,4.1686705E-1,-6.0039807E-2,1.4209373E-2,-4.9331996E-1,-5.4523546E-2,4.4909137E-1,-3.9179832E-1,1.7437434E-1,-8.621476E-1,-3.9148122E-1,4.8614293E-1,-1.4645845E-1,-6.9323254E-1,5.082964E-2,2.5028324E-1,-6.400892E-2,-1.0084901E-1,3.0298963E-2,-5.453877E-1,2.6131728E-1,9.753303E-3,5.2656677E-2,3.6967203E-2,-6.638139E-2,-8.118773E-2,3.304834E-2,-6.415058E-2,4.583522E-2,9.35959E-3,5.259465E-2,-7.926891E-3,-6.652475E-2,4.8816722E-2,-2.6667763E-2],"categories":[],"categories_nodes":[],"categories_segments":[],"categories_sizes":[],"default_left":[0,0,0,0,0,0,0,0,0,0,0,0,0,0,0,0,0,0,0,0,0,0,0,0,0,0,0,0,0,0,0,0,0,0,0,0,0],"id":28,"left_children":[1,3,5,7,-1,9,11,-1,13,15,17,19,21,23,25,27,29,31,-1,-1,-1,33,35,-1,-1,-1,-1,-1,-1,-1,-1,-1,-1,-1,-1,-1,-1],"loss_changes":[1.638055E1,2.7583342E0,9.77392E0,2.543725E0,0E0,6.5737314E0,1.9708261E0,0E0,1.6664581E0,3.8522525E0,4.638284E0,2.4310493E0,5.165047E0,1.02145E0,1.5812545E0,2.3436556E0,3.8268754E0,2.8436313E0,0E0,0E0,0E0,2.2254305E0,1.3535037E0,0E0,0E0,0E0,0E0,0E0,0E0,0E0,0E0,0E0,0E0,0E0,0E0,0E0,0E0],"parents":[2147483647,0,0,1,1,2,2,3,3,5,5,6,6,8,8,9,9,10,10,11,11,12,12,13,13,14,14,15,15,16,16,17,17,21,21,22,22],"right_children":[2,4,6,8,-1,10,12,-1,14,16,18,20,22,24,26,28,30,32,-1,-1,-1,34,36,-1,-1,-1,-1,-1,-1,-1,-1,-1,-1,-1,-1,-1,-1],"split_conditions":[2.2910577E-3,3.206735E-4,4.5812756E-2,-1.697543E1,-6.0039807E-2,-3.644578E-4,7.3736394E-4,-5.4523546E-2,3.4922996E-4,-1.4655142E0,2.8448792E-3,-8.8412705E-4,2.261531E0,-2.4431382E-4,-6.9525593E-4,5.9311893E1,-4.216308E-4,2.258015E0,-6.400892E-2,-1.0084901E-1,3.0298963E-2,1.8656756E-3,1.5920582E-3,9.753303E-3,5.2656677E-2,3.6967203E-2,-6.638139E-2,-8.118773E-2,3.304834E-2,-6.415058E-2,4.583522E-2,9.35959E-3,5.259465E-2,-7.926891E-3,-6.652475E-2,4.8816722E-2,-2.6667763E-2],"split_indices":[15,5,14,12,0,9,25,0,9,12,11,11,2,9,8,43,5,44,0,0,0,25,11,0,0,0,0,0,0,0,0,0,0,0,0,0,0],"split_type":[0,0,0,0,0,0,0,0,0,0,0,0,0,0,0,0,0,0,0,0,0,0,0,0,0,0,0,0,0,0,0,0,0,0,0,0,0],"sum_hessian":[2.3456122E2,7.506547E1,1.5949574E2,7.314947E1,1.9160054E0,9.903984E1,6.0455902E1,1.8547027E0,7.129476E1,2.7608328E1,7.143151E1,1.1465541E1,4.8990364E1,6.729197E1,4.002796E0,1.6086845E1,1.1521482E1,6.597525E1,5.4562635E0,1.0305593E1,1.1599486E0,3.9776928E1,9.213433E0,6.6618433E0,6.0630123E1,2.1466684E0,1.8561276E0,1.4601516E1,1.485329E0,4.0562334E0,7.465249E0,4.291936E1,2.3055891E1,8.476052E0,3.1300877E1,6.4973264E0,2.716107E0],"tree_param":{"num_deleted":"0","num_feature":"50","num_nodes":"37","size_leaf_vector":"1"}},{"base_weights":[-4.87669E-3,-4.5163417E-1,5.5936444E-1,-4.799953E-1,3.515301E-2,-4.3416217E-2,6.792043E-1,-4.9397683E-1,-8.785374E-2,8.6286895E-2,7.90905E-1,-5.09776E-2,-1.3604511E-1,-3.1421453E-2,2.272629E-2,-3.1875202E-1,9.2172074E-1,8.6879116E-1,9.0952784E-2,-3.432013E-2,2.3639394E-2,-4.3760188E-2,1.6505899E-2,1.2003016E-1,1.8804371E-2,-7.900776E-3,9.179313E-2,-3.52122E-2,4.6201896E-2],"categories":[],"categories_nodes":[],"categories_segments":[],"categories_sizes":[],"default_left":[0,0,0,0,0,0,0,0,0,0,0,0,0,0,0,0,0,0,0,0,0,0,0,0,0,0,0,0,0],"id":29,"left_children":[1,3,5,7,-1,-1,9,11,13,15,17,-1,19,-1,-1,21,23,25,27,-1,-1,-1,-1,-1,-1,-1,-1,-1,-1],"loss_changes":[2.9603493E1,1.6615572E0,6.474205E0,3.059826E-1,0E0,0E0,3.024847E0,2.7737617E-1,3.1465343E-1,3.1788864E0,2.0567608E0,0E0,3.8634765E-1,0E0,0E0,4.4513434E-1,3.958149E-1,1.7090225E0,9.912731E-1,0E0,0E0,0E0,0E0,0E0,0E0,0E0,0E0,0E0,0E0],"parents":[2147483647,0,0,1,1,2,2,3,3,6,6,7,7,8,8,9,9,10,10,12,12,15,15,16,16,17,17,18,18],"right_children":[2,4,6,8,-1,-1,10,12,14,16,18,-1,20,-1,-1,22,24,26,28,-1,-1,-1,-1,-1,-1,-1,-1,-1,-1],"split_conditions":[5.7540066E1,4.9757294E-4,1.5937459E-3,7.561882E-4,3.515301E-2,-4.3416217E-2,1.5054834E-4,1.0523595E1,2.25842E0,2.2653723E0,2.2617269E0,-5.09776E-2,5.247763E1,-3.1421453E-2,2.272629E-2,2.4712903E-3,5.9607132E1,-7.155824E-2,4.5812756E-2,-3.432013E-2,2.3639394E-2,-4.3760188E-2,1.6505899E-2,1.2003016E-1,1.8804371E-2,-7.900776E-3,9.179313E-2,-3.52122E-2,4.6201896E-2],"split_indices":[6,9,13,10,0,0,9,12,3,0,2,0,6,0,0,13,6,14,14,0,0,0,0,0,0,0,0,0,0],"split_type":[0,0,0,0,0,0,0,0,0,0,0,0,0,0,0,0,0,0,0,0,0,0,0,0,0,0,0,0,0],"sum_hessian":[1.1543521E2,6.4536095E1,5.0899117E1,6.2723583E1,1.81251E0,5.1963315E0,4.5702785E1,6.031346E1,2.4101212E0,7.5260916E0,3.8176693E1,5.7357468E1,2.9559932E0,1.4042531E0,1.0058681E0,5.4851937E0,2.0408978E0,3.413694E1,4.039754E0,1.9499213E0,1.006072E0,4.480142E0,1.0050516E0,1.0182537E0,1.022644E0,1.6526828E0,3.2484257E1,1.864493E0,2.1752608E0],"tree_param":{"num_deleted":"0","num_feature":"50","num_nodes":"29","size_leaf_vector":"1"}},{"base_weights":[-4.051721E-3,5.121926E-1,-3.9060113E-1,2.0360628E-1,7.889014E-1,2.9814807E-1,-4.337477E-1,5.1346207E-1,-1.1806266E-1,9.7231793E-1,-1.10658735E-1,-3.648929E-2,8.994553E-2,5.0334103E-2,-4.551353E-1,7.548425E-2,8.6879706E-1,-2.8185207E-1,8.200055E-2,-1.9426888E-3,1.0492659E0,5.7909507E-2,-4.5183588E-2,-1.4826664E-1,-4.8778716E-1,-4.03613E-2,3.5567235E-2,1.05174564E-1,2.5775293E-2,1.7952617E-2,-4.827089E-2,1.88118E-3,1.1033832E-1,3.0873671E-2,-4.3340214E-2,-5.1422622E-2,-1.3803626E-2],"categories":[],"categories_nodes":[],"categories_segments":[],"categories_sizes":[],"default_left":[0,0,0,0,0,0,0,0,0,0,0,0,0,0,0,0,0,0,0,0,0,0,0,0,0,0,0,0,0,0,0,0,0,0,0,0,0],"id":30,"left_children":[1,3,5,7,9,11,13,15,17,19,21,-1,-1,-1,23,25,27,29,-1,-1,31,-1,-1,33,35,-1,-1,-1,-1,-1,-1,-1,-1,-1,-1,-1,-1],"loss_changes":[2.7707497E1,4.916031E0,2.488595E0,2.9964924E0,5.222084E0,2.430455E0,1.7346106E0,2.298462E0,2.5765777E0,1.9930878E0,1.708393E0,0E0,0E0,0E0,6.688137E-1,1.2039033E0,6.5577936E-1,1.3599951E0,0E0,0E0,1.3180084E0,0E0,0E0,1.2479588E0,5.431833E-1,0E0,0E0,0E0,0E0,0E0,0E0,0E0,0E0,0E0,0E0,0E0,0E0],"parents":[2147483647,0,0,1,1,2,2,3,3,4,4,5,5,6,6,7,7,8,8,9,9,10,10,14,14,15,15,16,16,17,17,20,20,23,23,24,24],"right_children":[2,4,6,8,10,12,14,16,18,20,22,-1,-1,-1,24,26,28,30,-1,-1,32,-1,-1,34,36,-1,-1,-1,-1,-1,-1,-1,-1,-1,-1,-1,-1],"split_conditions":[-2.1696731E-4,-4.92286E-3,-1.216389E-3,-1.7595012E-3,2.5672486E-4,-1.2956454E-3,-1.4763729E-3,8.56802E-1,1.1591436E-3,1.7844188E-3,-2.2965565E-3,-3.648929E-2,8.994553E-2,5.0334103E-2,3.779457E1,2.2595797E0,2.2607975E0,2.3306299E-3,8.200055E-2,-1.9426888E-3,2.2567272E0,5.7909507E-2,-4.5183588E-2,2.2526855E0,1.1260576E-3,-4.03613E-2,3.5567235E-2,1.05174564E-1,2.5775293E-2,1.7952617E-2,-4.827089E-2,1.88118E-3,1.1033832E-1,3.0873671E-2,-4.3340214E-2,-5.1422622E-2,-1.3803626E-2],"split_indices":[9,14,11,11,41,14,41,17,18,13,11,0,0,0,43,2,1,15,0,0,45,0,0,2,18,0,0,0,0,0,0,0,0,0,0,0,0],"split_type":[0,0,0,0,0,0,0,0,0,0,0,0,0,0,0,0,0,0,0,0,0,0,0,0,0,0,0,0,0,0,0,0,0,0,0,0,0],"sum_hessian":[1.3684459E2,5.845361E1,7.8390976E1,2.8455631E1,2.9997978E1,4.2728763E0,7.41181E1,1.4190259E1,1.4265372E1,2.4850237E1,5.147741E0,2.2191086E0,2.0537674E0,1.151049E0,7.296706E1,6.899063E0,7.291196E0,1.2740401E1,1.5249708E0,1.8430891E0,2.3007147E1,1.472818E0,3.674923E0,7.5501475E0,6.541691E1,2.3833072E0,4.5157557E0,5.0561433E0,2.2350526E0,3.8963914E0,8.84401E0,1.2152377E0,2.179191E1,2.8690236E0,4.6811237E0,6.038212E1,5.0347877E0],"tree_param":{"num_deleted":"0","num_feature":"50","num_nodes":"37","size_leaf_vector":"1"}},{"base_weights":[-1.0947627E-2,5.0020945E-1,-1.472897E-1,5.197177E-2,-1.2889276E-2,3.7659958E-2,-3.9274377E-1,1.991092E-1,-4.874672E-1,-6.7859423E-1,-2.5485337E-1,-1.7619684E-1,3.319043E-1,-1.9290385E-1,-8.8760036E-1,-7.543031E-1,3.4241658E-2,3.451778E-2,-5.9825337E-1,-4.353946E-2,3.3582803E-2,1.0815121E-2,4.7967646E-2,4.666295E-2,-5.4821797E-2,-1.2503493E-1,-4.0996917E-2,-8.9262165E-2,-1.6784813E-2,-6.586468E-2,2.422893E-2,4.0574558E-2,-7.1719944E-2],"categories":[],"categories_nodes":[],"categories_segments":[],"categories_sizes":[],"default_left":[0,0,0,0,0,0,0,0,0,0,0,0,0,0,0,0,0,0,0,0,0,0,0,0,0,0,0,0,0,0,0,0,0],"id":31,"left_children":[1,3,5,-1,-1,7,9,11,13,15,17,19,21,23,25,27,-1,29,31,-1,-1,-1,-1,-1,-1,-1,-1,-1,-1,-1,-1,-1,-1],"loss_changes":[1.631358E1,6.7196274E-1,8.400853E0,0E0,0E0,9.106018E0,2.9593582E0,4.1444473E0,2.8080897E0,2.210741E0,5.5068064E0,3.0765953E0,1.9618659E0,3.967089E0,1.296298E0,1.7829542E0,0E0,4.6108246E0,3.3126335E0,0E0,0E0,0E0,0E0,0E0,0E0,0E0,0E0,0E0,0E0,0E0,0E0,0E0,0E0],"parents":[2147483647,0,0,1,1,2,2,5,5,6,6,7,7,8,8,9,9,10,10,11,11,12,12,13,13,14,14,15,15,17,17,18,18],"right_children":[2,4,6,-1,-1,8,10,12,14,16,18,20,22,24,26,28,-1,30,32,-1,-1,-1,-1,-1,-1,-1,-1,-1,-1,-1,-1,-1,-1],"split_conditions":[1.9279622E-3,3.8987253E-4,3.3914026E-2,5.197177E-2,-1.2889276E-2,2.3200128E-3,-2.796327E-4,-3.3595224E-4,4.5162713E-4,6.117599E1,2.9760733E-4,1E0,2.6450136E-1,3.1704518E-3,2.8568096E-4,2.5672486E-4,3.4241658E-2,-1.5938312E1,5.4141342E1,-4.353946E-2,3.3582803E-2,1.0815121E-2,4.7967646E-2,4.666295E-2,-5.4821797E-2,-1.2503493E-1,-4.0996917E-2,-8.9262165E-2,-1.6784813E-2,-6.586468E-2,2.422893E-2,4.0574558E-2,-7.1719944E-2],"split_indices":[15,9,14,0,0,13,9,9,11,43,9,42,28,26,10,10,0,12,6,0,0,0,0,0,0,0,0,0,0,0,0,0,0],"split_type":[0,0,0,0,0,0,0,0,0,0,0,0,0,0,0,0,0,0,0,0,0,0,0,0,0,0,0,0,0,0,0,0,0],"sum_hessian":[2.3202322E2,4.8294514E1,1.837287E2,4.7010605E1,1.2839081E0,1.0526106E2,7.846764E1,8.098365E1,2.4277416E1,2.4258295E1,5.4209347E1,2.1080114E1,5.9903534E1,1.4837035E1,9.440381E0,2.282688E1,1.4314154E0,2.9907135E1,2.4302212E1,1.4094728E1,6.985387E0,2.4515154E1,3.5388382E1,5.0849934E0,9.752042E0,4.4459667E0,4.9944143E0,1.804808E1,4.7787995E0,6.396653E0,2.3510483E1,2.318771E0,2.198344E1],"tree_param":{"num_deleted":"0","num_feature":"50","num_nodes":"33","size_leaf_vector":"1"}},{"base_weights":[1.8504199E-2,-3.4724236E-1,6.4172006E-1,-4.2297113E-1,3.706551E-1,-4.0199913E-2,7.4401104E-1,-5.0729807E-2,-1.7166783E-1,-3.7889488E-2,8.609201E-1,8.1587917E-1,-1.4637341E-3,-3.7658384E-1,1.1509982E-1,1.0306295E-1,1.7011467E-2,5.4136974E-1,1.0609845E0,-3.791274E-2,6.351514E-2,-4.6363976E-2,2.3099413E-2,-4.4188995E-2,7.8582995E-2,-3.9901722E-2,6.5704934E-2,2.7345933E-3,1.15111254E-1],"categories":[],"categories_nodes":[],"categories_segments":[],"categories_sizes":[],"default_left":[0,0,0,0,0,0,0,0,0,0,0,0,0,0,0,0,0,0,0,0,0,0,0,0,0,0,0,0,0],"id":32,"left_children":[1,3,5,7,9,-1,11,-1,13,-1,15,17,19,21,23,-1,-1,25,27,-1,-1,-1,-1,-1,-1,-1,-1,-1,-1],"loss_changes":[2.6217653E1,4.0991125E0,4.839449E0,1.3128958E0,3.064818E0,0E0,2.0950603E0,0E0,1.1075339E0,0E0,3.887117E-1,1.8241196E0,1.3070158E0,6.7815304E-1,3.4530528E0,0E0,0E0,2.313511E0,1.6258869E0,0E0,0E0,0E0,0E0,0E0,0E0,0E0,0E0,0E0,0E0],"parents":[2147483647,0,0,1,1,2,2,3,3,4,4,6,6,8,8,10,10,11,11,12,12,13,13,14,14,17,17,18,18],"right_children":[2,4,6,8,10,-1,12,-1,14,-1,16,18,20,22,24,-1,-1,26,28,-1,-1,-1,-1,-1,-1,-1,-1,-1,-1],"split_conditions":[3.0631552E-4,6.8982306E-4,5.4817146E1,4.7165607E-4,3.367685E-3,-4.0199913E-2,2.2617269E0,-5.0729807E-2,4.1985824E-3,-3.7889488E-2,2.4571356E-3,4.1247272E1,8.286831E-4,9.971346E0,2.2583792E0,1.0306295E-1,1.7011467E-2,-6.6588144E0,2.2538407E0,-3.791274E-2,6.351514E-2,-4.6363976E-2,2.3099413E-2,-4.4188995E-2,7.8582995E-2,-3.9901722E-2,6.5704934E-2,2.7345933E-3,1.15111254E-1],"split_indices":[9,10,6,11,15,0,2,0,25,0,26,47,10,12,1,0,0,12,44,0,0,0,0,0,0,0,0,0,0],"split_type":[0,0,0,0,0,0,0,0,0,0,0,0,0,0,0,0,0,0,0,0,0,0,0,0,0,0,0,0,0],"sum_hessian":[1.1304286E2,7.1515434E1,4.1527424E1,6.5062965E1,6.45247E0,3.445146E0,3.808228E1,4.79532E1,1.7109766E1,2.6413538E0,3.8111157E0,3.4647606E1,3.4346733E0,9.796362E0,7.313403E0,2.6645856E0,1.1465302E0,1.7857052E1,1.6790552E1,2.409646E0,1.0250275E0,8.775834E0,1.0205278E0,4.1818657E0,3.1315374E0,1.6877333E0,1.616932E1,1.4511677E0,1.5339385E1],"tree_param":{"num_deleted":"0","num_feature":"50","num_nodes":"29","size_leaf_vector":"1"}},{"base_weights":[1.1486233E-2,4.1566154E-1,-3.1177604E-1,7.587028E-1,2.3711759E-1,2.03156E-1,-4.6261403E-1,-2.8068352E-2,8.267209E-1,1.2036108E-2,5.476108E-1,9.5932615E-1,-5.78193E-2,6.762816E-2,-4.9437425E-1,5.443761E-1,1.0888436E-1,-1.60961E-1,5.977315E-1,-3.836728E-2,6.922773E-1,2.4196459E-2,1.3312544E-1,-2.7829453E-1,7.117902E-1,5.9399504E-2,-3.4860887E-2,-5.103172E-2,1.0713425E-2,6.832875E-2,-3.0056247E-2,1.831319E-2,-4.1027114E-2,1.05435565E-1,-1.0436031E-2,8.289062E-2,2.0804493E-2,4.5630835E-2,-4.784106E-2,-2.6626352E-2,1.2442404E-1],"categories":[],"categories_nodes":[],"categories_segments":[],"categories_sizes":[],"default_left":[0,0,0,0,0,0,0,0,0,0,0,0,0,0,0,0,0,0,0,0,0,0,0,0,0,0,0,0,0,0,0,0,0,0,0,0,0,0,0,0,0],"id":33,"left_children":[1,3,5,7,9,11,13,-1,15,17,19,21,23,25,27,29,-1,31,33,-1,35,-1,-1,37,39,-1,-1,-1,-1,-1,-1,-1,-1,-1,-1,-1,-1,-1,-1,-1,-1],"loss_changes":[1.7934525E1,3.5554285E0,6.019352E0,1.6758146E0,2.898244E0,3.6034226E0,1.0322323E0,0E0,8.445883E-1,2.6413991E0,2.6159983E0,9.238076E-1,2.6260324E0,1.1341369E0,5.924492E-1,1.5375006E0,0E0,1.8062503E0,2.014312E0,0E0,8.501673E-1,0E0,0E0,1.9590764E0,2.137022E0,0E0,0E0,0E0,0E0,0E0,0E0,0E0,0E0,0E0,0E0,0E0,0E0,0E0,0E0,0E0,0E0],"parents":[2147483647,0,0,1,1,2,2,3,3,4,4,5,5,6,6,8,8,9,9,10,10,11,11,12,12,13,13,14,14,15,15,17,17,18,18,20,20,23,23,24,24],"right_children":[2,4,6,8,10,12,14,-1,16,18,20,22,24,26,28,30,-1,32,34,-1,36,-1,-1,38,40,-1,-1,-1,-1,-1,-1,-1,-1,-1,-1,-1,-1,-1,-1,-1,-1],"split_conditions":[-2.1696731E-4,4.9590913E-4,-6.455657E0,1.6511286E-3,3.244486E-2,-8.8412705E-4,2.2445958E0,-2.8068352E-2,-4.7150353E-4,2.5474636E-3,7.837381E-2,-1.2472867E-4,1.6E1,-9.8167286E-5,1.24128E-3,-1.9927118E-3,1.0888436E-1,-1.7595012E-3,1.9379589E-1,-3.836728E-2,2.5672486E-4,2.4196459E-2,1.3312544E-1,-1.8667315E1,2.2211894E-3,5.9399504E-2,-3.4860887E-2,-5.103172E-2,1.0713425E-2,6.832875E-2,-3.0056247E-2,1.831319E-2,-4.1027114E-2,1.05435565E-1,-1.0436031E-2,8.289062E-2,2.0804493E-2,4.5630835E-2,-4.784106E-2,-2.6626352E-2,1.2442404E-1],"split_indices":[9,25,12,13,14,11,1,0,8,13,33,9,36,14,18,11,0,11,31,0,10,0,0,12,13,0,0,0,0,0,0,0,0,0,0,0,0,0,0,0,0],"split_type":[0,0,0,0,0,0,0,0,0,0,0,0,0,0,0,0,0,0,0,0,0,0,0,0,0,0,0,0,0,0,0,0,0,0,0,0,0,0,0,0,0],"sum_hessian":[1.3527478E2,5.9987045E1,7.5287735E1,1.9421883E1,4.0565163E1,1.6978737E1,5.8309E1,1.0008752E0,1.8421007E1,2.4119396E1,1.6445768E1,3.66976E0,1.3308976E1,3.2313685E0,5.507763E1,1.0349677E1,8.07133E0,1.9179514E1,4.9398823E0,1.989075E0,1.4456694E1,1.8165781E0,1.853182E0,1.0841526E1,2.4674501E0,1.2383326E0,1.9930359E0,5.380318E1,1.2744483E0,9.052692E0,1.2969843E0,8.169532E0,1.1009981E1,2.689172E0,2.25071E0,1.072015E1,3.7365437E0,2.0470016E0,8.794524E0,1.045996E0,1.4214541E0],"tree_param":{"num_deleted":"0","num_feature":"50","num_nodes":"41","size_leaf_vector":"1"}},{"base_weights":[-1.434438E-3,4.6470526E-1,-1.3370028E-1,4.8257962E-1,-1.9474281E-2,-2.1874732E-1,2.3982665E-1,-4.0674838E-4,5.00587E-1,-5.424001E-2,-4.0740815E-1,3.4991226E-1,-4.796417E-1,5.1998105E-2,5.2931797E-2,-4.3469736E-1,6.281631E-2,-6.992559E-1,-1.8986656E-1,-4.2399E-1,4.87111E-1,1.900754E-2,-1.036283E-1,2.7306924E-2,-1.9487469E-2,6.95307E-4,-6.569876E-2,-5.0159197E-2,2.066422E-2,-8.076619E-2,1.2048381E-2,2.0368721E-2,-6.0148757E-2,-6.0539402E-2,7.897369E-3,5.207038E-2,-1.4689191E-2],"categories":[],"categories_nodes":[],"categories_segments":[],"categories_sizes":[],"default_left":[0,0,0,0,0,0,0,0,0,0,0,0,0,0,0,0,0,0,0,0,0,0,0,0,0,0,0,0,0,0,0,0,0,0,0,0,0],"id":34,"left_children":[1,3,5,7,-1,9,11,-1,13,15,17,19,21,-1,23,25,27,29,31,33,35,-1,-1,-1,-1,-1,-1,-1,-1,-1,-1,-1,-1,-1,-1,-1,-1],"loss_changes":[1.3710848E1,6.733675E-1,5.555226E0,4.2393303E-1,0E0,4.373178E0,2.750052E0,0E0,3.7561607E-1,3.4478302E0,4.0456266E0,3.2702222E0,1.9671041E0,0E0,2.1913318E-1,1.791074E0,4.942435E0,2.561843E0,6.453167E0,4.9302918E-1,6.083932E-1,0E0,0E0,0E0,0E0,0E0,0E0,0E0,0E0,0E0,0E0,0E0,0E0,0E0,0E0,0E0,0E0],"parents":[2147483647,0,0,1,1,2,2,3,3,5,5,6,6,8,8,9,9,10,10,11,11,12,12,14,14,15,15,16,16,17,17,18,18,19,19,20,20],"right_children":[2,4,6,8,-1,10,12,-1,14,16,18,20,22,-1,24,26,28,30,32,34,36,-1,-1,-1,-1,-1,-1,-1,-1,-1,-1,-1,-1,-1,-1,-1,-1],"split_conditions":[7.363486E-4,2.974658E-4,1.8E1,-1.2759234E1,-1.9474281E-2,4.4633422E-2,3.585177E-4,-4.0674838E-4,3.4922996E-4,-4.3251264E-4,-4.5740587E-4,-1.8410401E-3,2.261854E0,5.1998105E-2,-1.9023443E-2,-6.520987E-4,7.1512E-4,3.997049E-4,4.4559198E-4,5.5911113E-3,2.4991105E0,1.900754E-2,-1.036283E-1,2.7306924E-2,-1.9487469E-2,6.95307E-4,-6.569876E-2,-5.0159197E-2,2.066422E-2,-8.076619E-2,1.2048381E-2,2.0368721E-2,-6.0148757E-2,-6.0539402E-2,7.897369E-3,5.207038E-2,-1.4689191E-2],"split_indices":[18,5,36,12,0,14,5,0,9,9,11,11,1,0,14,9,26,10,9,26,17,0,0,0,0,0,0,0,0,0,0,0,0,0,0,0,0],"split_type":[0,0,0,0,0,0,0,0,0,0,0,0,0,0,0,0,0,0,0,0,0,0,0,0,0,0,0,0,0,0,0,0,0,0,0,0,0],"sum_hessian":[2.2037471E2,4.8153976E1,1.7222073E2,4.7144333E1,1.0096426E0,1.4061824E2,3.1602499E1,1.7098497E0,4.5434486E1,7.580541E1,6.481283E1,2.785419E1,3.7483087E0,4.3392975E1,2.0415106E0,1.7197239E1,5.860817E1,2.6733522E1,3.8079304E1,3.8796666E0,2.3974524E1,2.0002549E0,1.7480539E0,1.0271248E0,1.0143859E0,6.0820417E0,1.1115196E1,1.1396805E1,4.7211365E1,2.36241E1,3.1094217E0,1.9725128E1,1.8354176E1,2.7016194E0,1.1780472E0,2.2937859E1,1.0366645E0],"tree_param":{"num_deleted":"0","num_feature":"50","num_nodes":"37","size_leaf_vector":"1"}},{"base_weights":[-2.7051065E-2,-4.1102827E-1,4.05217E-1,-4.5603508E-1,2.52044E-1,-4.735102E-2,4.9159092E-1,-5.0581247E-2,-1.08109996E-1,6.536118E-2,-3.1987082E-2,-4.2299084E-2,5.941117E-1,4.279789E-1,-4.286649E-2,6.797953E-1,-2.4694262E-1,1.1947329E-1,-3.307101E-2,4.9399763E-2,1.2025197E-1,1.7758785E-2,-4.060845E-2],"categories":[],"categories_nodes":[],"categories_segments":[],"categories_sizes":[],"default_left":[0,0,0,0,0,0,0,0,0,0,0,0,0,0,0,0,0,0,0,0,0,0,0],"id":35,"left_children":[1,3,5,7,9,-1,11,-1,13,-1,-1,-1,15,17,-1,19,21,-1,-1,-1,-1,-1,-1],"loss_changes":[1.8729319E1,1.8972406E0,4.2640514E0,9.200678E-1,1.2288071E0,0E0,4.831724E0,0E0,1.6125873E0,0E0,0E0,0E0,3.3634062E0,2.4965205E0,0E0,3.3402576E0,3.9865837E-1,0E0,0E0,0E0,0E0,0E0,0E0],"parents":[2147483647,0,0,1,1,2,2,3,3,4,4,6,6,8,8,12,12,13,13,15,15,16,16],"right_children":[2,4,6,8,10,-1,12,-1,14,-1,-1,-1,16,18,-1,20,22,-1,-1,-1,-1,-1,-1],"split_conditions":[5.7736675E1,7.1072514E-4,-6.362866E0,5.4445843E1,-5.933796E-4,-4.735102E-2,1.5937459E-3,-5.0581247E-2,2.2574637E0,6.536118E-2,-3.1987082E-2,-4.2299084E-2,2.2618122E0,6.550527E-4,-4.286649E-2,2.25707E0,3.933698E-4,1.1947329E-1,-3.307101E-2,4.9399763E-2,1.2025197E-1,1.7758785E-2,-4.060845E-2],"split_indices":[6,10,12,6,7,0,13,0,45,0,0,0,2,8,0,3,8,0,0,0,0,0,0],"split_type":[0,0,0,0,0,0,0,0,0,0,0,0,0,0,0,0,0,0,0,0,0,0,0],"sum_hessian":[1.10836624E2,5.8723E1,5.211362E1,5.5282852E1,3.4401484E0,4.2628927E0,4.785073E1,4.796652E1,7.3163323E0,1.9371427E0,1.5030056E0,4.508123E0,4.3342606E1,2.6123602E0,4.7039723E0,3.9509274E1,3.8333318E0,1.0134271E0,1.5989331E0,3.0583637E1,8.925638E0,1.0135785E0,2.8197534E0],"tree_param":{"num_deleted":"0","num_feature":"50","num_nodes":"23","size_leaf_vector":"1"}},{"base_weights":[-2.186495E-2,3.9367503E-1,-3.184869E-1,-4.404999E-2,4.9637887E-1,1.3788155E-1,-4.0457442E-1,-3.483837E-2,5.8552855E-1,3.9225516E-1,-4.1248966E-2,-4.464604E-1,7.003381E-2,-2.2468378E-1,5.7275888E-2,1.1733832E0,4.4899446E-1,6.981344E-2,8.182903E-1,-4.763353E-1,1.2598516E-1,2.055496E-2,-4.3567047E-2,3.7312016E-2,1.3153009E-1,2.0685015E-2,7.0054345E-2,-2.496904E-2,5.279385E-2,1.1777933E-2,1.0442083E-1,4.3699816E-3,-5.0945938E-2,7.0657335E-2,-3.374502E-2],"categories":[],"categories_nodes":[],"categories_segments":[],"categories_sizes":[],"default_left":[0,0,0,0,0,0,0,0,0,0,0,0,0,0,0,0,0,0,0,0,0,0,0,0,0,0,0,0,0,0,0,0,0,0,0],"id":36,"left_children":[1,3,5,-1,7,9,11,13,15,17,-1,19,-1,21,-1,23,25,27,29,31,33,-1,-1,-1,-1,-1,-1,-1,-1,-1,-1,-1,-1,-1,-1],"loss_changes":[1.5571759E1,4.728731E0,2.9502697E0,0E0,2.2624264E0,1.9031041E0,3.1929913E0,1.0223198E0,2.73141E0,1.1818174E0,0E0,1.0959301E0,0E0,6.905675E-1,0E0,3.078251E-1,1.9603934E0,1.0432663E0,4.7713757E-1,1.017539E0,1.2596098E0,0E0,0E0,0E0,0E0,0E0,0E0,0E0,0E0,0E0,0E0,0E0,0E0,0E0,0E0],"parents":[2147483647,0,0,1,1,2,2,4,4,5,5,6,6,7,7,8,8,9,9,11,11,13,13,15,15,16,16,17,17,18,18,19,19,20,20],"right_children":[2,4,6,-1,8,10,12,14,16,18,-1,20,-1,22,-1,24,26,28,30,32,34,-1,-1,-1,-1,-1,-1,-1,-1,-1,-1,-1,-1,-1,-1],"split_conditions":[-2.3853632E-4,2.2286347E-3,-4.777399E-4,-4.404999E-2,2.257548E0,4.733557E1,1.2640167E-3,1.2640167E-3,3E0,2.2854224E-1,-4.1248966E-2,5.9258053E-3,7.003381E-2,4.390037E1,5.7275888E-2,-8.03297E-4,9.698957E-3,2.84713E-3,-5.2470586E-4,2.2445958E0,2.6568284E-3,2.055496E-2,-4.3567047E-2,3.7312016E-2,1.3153009E-1,2.0685015E-2,7.0054345E-2,-2.496904E-2,5.279385E-2,1.1777933E-2,1.0442083E-1,4.3699816E-3,-5.0945938E-2,7.0657335E-2,-3.374502E-2],"split_indices":[9,26,41,0,45,6,18,18,36,33,0,26,0,43,0,7,14,15,7,1,15,0,0,0,0,0,0,0,0,0,0,0,0,0,0],"split_type":[0,0,0,0,0,0,0,0,0,0,0,0,0,0,0,0,0,0,0,0,0,0,0,0,0,0,0,0,0,0,0,0,0,0,0],"sum_hessian":[1.2431717E2,5.1642956E1,7.267422E1,5.3007207E0,4.6342236E1,1.1437885E1,6.123633E1,6.7471485E0,3.959509E1,8.018938E0,3.4189475E0,5.9573883E1,1.6624467E0,5.6210465E0,1.1261019E0,6.03161E0,3.3563477E1,5.226879E0,2.7920592E0,5.6778606E1,2.7952762E0,1.8580253E0,3.7630212E0,1.4551659E0,4.576444E0,1.8029934E1,1.5533543E1,3.3473537E0,1.8795254E0,1.0518602E0,1.7401991E0,3.380877E0,5.3397728E1,1.0079195E0,1.7873566E0],"tree_param":{"num_deleted":"0","num_feature":"50","num_nodes":"35","size_leaf_vector":"1"}},{"base_weights":[-1.2557738E-2,5.1388174E-2,-1.3644515E-1,4.4146344E-2,-3.9688867E-1,1.5716161E-1,-3.2439548E-1,1.3800308E-1,-4.718394E-1,-3.270196E-1,2.558748E-1,-1.7760962E-2,-5.9572875E-1,-5.7200886E-2,3.6116302E-1,-6.6775125E-1,-2.83423E-1,-4.890731E-2,3.9111696E-2,-6.1802305E-2,2.8932232E-2,-3.9904464E-2,4.626956E-2,-4.360463E-4,-7.7563114E-2,-1.8762397E-2,4.705157E-2,-3.0343449E-2,-8.2621455E-2,-3.934509E-2,4.4306368E-2],"categories":[],"categories_nodes":[],"categories_segments":[],"categories_sizes":[],"default_left":[0,0,0,0,0,0,0,0,0,0,0,0,0,0,0,0,0,0,0,0,0,0,0,0,0,0,0,0,0,0,0],"id":37,"left_children":[1,-1,3,5,7,9,11,13,15,17,19,21,23,-1,25,27,29,-1,-1,-1,-1,-1,-1,-1,-1,-1,-1,-1,-1,-1,-1],"loss_changes":[1.4013739E1,0E0,8.194746E0,4.3646784E0,2.9231749E0,3.904203E0,2.0388422E0,1.7174351E0,2.1272087E0,1.8177712E0,2.1360135E0,2.491862E0,1.3836846E0,0E0,5.604527E-1,1.4828396E0,2.8702328E0,0E0,0E0,0E0,0E0,0E0,0E0,0E0,0E0,0E0,0E0,0E0,0E0,0E0,0E0],"parents":[2147483647,0,0,2,2,3,3,4,4,5,5,6,6,7,7,8,8,9,9,10,10,11,11,12,12,14,14,15,15,16,16],"right_children":[2,-1,4,6,8,10,12,14,16,18,20,22,24,-1,26,28,30,-1,-1,-1,-1,-1,-1,-1,-1,-1,-1,-1,-1,-1,-1],"split_conditions":[1.9279622E-3,5.1388174E-2,4.4633422E-2,1.023924E-3,2.2701758E-3,-4.768493E-4,1.0626022E-3,-1.697543E1,1.2E1,3.7505206E-1,-1.2493038E1,1.3710591E-3,2.654382E-4,-5.7200886E-2,1.6054594E-3,2.3389626E-3,2.2611885E0,-4.890731E-2,3.9111696E-2,-6.1802305E-2,2.8932232E-2,-3.9904464E-2,4.626956E-2,-4.360463E-4,-7.7563114E-2,-1.8762397E-2,4.705157E-2,-3.0343449E-2,-8.2621455E-2,-3.934509E-2,4.4306368E-2],"split_indices":[15,0,14,18,15,9,7,12,36,12,12,25,11,0,13,25,3,0,0,0,0,0,0,0,0,0,0,0,0,0,0],"split_type":[0,0,0,0,0,0,0,0,0,0,0,0,0,0,0,0,0,0,0,0,0,0,0,0,0,0,0,0,0,0,0],"sum_hessian":[2.1279619E2,3.993803E1,1.7285815E2,1.0256801E2,7.0290146E1,7.893556E1,2.3632444E1,8.535392E0,6.1754753E1,1.2976067E1,6.5959496E1,1.1594699E1,1.2037745E1,1.6673331E0,6.868058E0,2.9027983E1,3.2726772E1,1.084726E1,2.1288056E0,1.7871965E0,6.41723E1,6.559008E0,5.035691E0,3.0467668E0,8.990978E0,1.022229E0,5.8458295E0,9.6824045E0,1.9345577E1,2.88203E1,3.9064734E0],"tree_param":{"num_deleted":"0","num_feature":"50","num_nodes":"31","size_leaf_vector":"1"}},{"base_weights":[5.1225005E-3,-4.3519038E-1,4.2865595E-1,4.3852597E-2,-4.702002E-1,-4.135216E-2,5.029966E-1,-4.8651206E-1,4.271572E-3,-4.6465434E-2,6.013819E-1,-5.0460394E-2,-1.0239084E-1,-3.5237825E-1,1.016672E-1,6.740114E-1,-6.648013E-3,-3.2254495E-2,2.2191053E-2,-4.5115273E-2,1.4052035E-2,5.337568E-2,1.15420915E-1,-2.7667075E-2,6.1425548E-2],"categories":[],"categories_nodes":[],"categories_segments":[],"categories_sizes":[],"default_left":[0,0,0,0,0,0,0,0,0,0,0,0,0,0,0,0,0,0,0,0,0,0,0,0,0],"id":38,"left_children":[1,3,5,-1,7,-1,9,11,-1,13,15,-1,17,19,-1,21,23,-1,-1,-1,-1,-1,-1,-1,-1],"loss_changes":[2.036896E1,1.8444366E0,3.6931944E0,0E0,4.5564842E-1,0E0,2.8175411E0,2.9896832E-1,0E0,3.208851E0,1.9404011E0,0E0,3.231822E-1,4.3092668E-1,0E0,2.022028E0,1.1202222E0,0E0,0E0,0E0,0E0,0E0,0E0,0E0,0E0],"parents":[2147483647,0,0,1,1,2,2,4,4,6,6,7,7,9,9,10,10,12,12,13,13,15,15,16,16],"right_children":[2,4,6,-1,8,-1,10,12,-1,14,16,-1,18,20,-1,22,24,-1,-1,-1,-1,-1,-1,-1,-1],"split_conditions":[5.7540066E1,2.2511683E0,7.018124E-4,4.3852597E-2,5.1387097E-4,-4.135216E-2,1.2760844E-4,7.561882E-4,4.271572E-3,2E1,2.2617269E0,-5.0460394E-2,2.2584493E0,8.286831E-4,1.016672E-1,2.2569587E0,2.1987197E-3,-3.2254495E-2,2.2191053E-2,-4.5115273E-2,1.4052035E-2,5.337568E-2,1.15420915E-1,-2.7667075E-2,6.1425548E-2],"split_indices":[6,44,18,0,9,0,9,41,0,36,2,0,3,41,0,3,13,0,0,0,0,0,0,0,0],"split_type":[0,0,0,0,0,0,0,0,0,0,0,0,0,0,0,0,0,0,0,0,0,0,0,0,0],"sum_hessian":[1.0722409E2,5.2557186E1,5.4666904E1,1.5807853E0,5.09764E1,4.064069E0,5.0602837E1,4.9455097E1,1.5213027E0,7.764938E0,4.28379E1,4.693102E1,2.5240786E0,6.549033E0,1.2159048E0,3.816996E1,4.667939E0,1.506677E0,1.0174015E0,5.526287E0,1.0227458E0,3.1175777E1,6.9941826E0,3.639552E0,1.0283868E0],"tree_param":{"num_deleted":"0","num_feature":"50","num_nodes":"25","size_leaf_vector":"1"}},{"base_weights":[1.5256705E-2,3.415932E-1,-3.4134948E-1,-4.646034E-2,4.68247E-1,-3.956006E-1,5.885324E-1,1.566102E-1,6.6268766E-1,5.018267E-1,-4.6143624E-1,8.939478E-2,4.3896283E-3,5.049521E-1,-3.7927E-1,4.4691175E-1,1.0760809E0,7.223314E-2,7.8488636E-4,-2.1194325E-1,-5.0862767E-2,6.295173E-2,-3.386351E-2,1.5707526E-2,-4.6682883E-2,-8.503749E-3,7.176065E-2,1.2029947E-1,-5.0792226E-4,-3.803673E-2,5.4634787E-2],"categories":[],"categories_nodes":[],"categories_segments":[],"categories_sizes":[],"default_left":[0,0,0,0,0,0,0,0,0,0,0,0,0,0,0,0,0,0,0,0,0,0,0,0,0,0,0,0,0,0,0],"id":39,"left_children":[1,3,5,-1,7,9,11,13,15,17,19,-1,-1,21,23,25,27,-1,-1,29,-1,-1,-1,-1,-1,-1,-1,-1,-1,-1,-1],"loss_changes":[1.4333689E1,6.782166E0,3.2029786E0,0E0,3.2931767E0,3.5537233E0,5.675012E-1,4.456618E0,2.5707884E0,4.651116E-1,5.1512146E-1,0E0,0E0,1.7133374E0,5.2285826E-1,3.544146E0,1.5185871E0,0E0,0E0,1.5015457E0,0E0,0E0,0E0,0E0,0E0,0E0,0E0,0E0,0E0,0E0,0E0],"parents":[2147483647,0,0,1,1,2,2,4,4,5,5,6,6,7,7,8,8,9,9,10,10,13,13,14,14,15,15,16,16,19,19],"right_children":[2,4,6,-1,8,10,12,14,16,18,20,-1,-1,22,24,26,28,-1,-1,30,-1,-1,-1,-1,-1,-1,-1,-1,-1,-1,-1],"split_conditions":[4.492783E1,1.6598254E-3,2.8642241E-3,-4.646034E-2,-8.838315E-3,-6.227666E-4,1.1697721E-1,-3.6867976E-4,-1.13299946E-4,-6.9839516E0,4.733557E1,8.939478E-2,4.3896283E-3,4.8961952E1,-9.722743E0,8.667973E-1,1E0,7.223314E-2,7.8488636E-4,2.5347206E-3,-5.0862767E-2,6.295173E-2,-3.386351E-2,1.5707526E-2,-4.6682883E-2,-8.503749E-3,7.176065E-2,1.2029947E-1,-5.0792226E-4,-3.803673E-2,5.4634787E-2],"split_indices":[6,13,13,0,14,9,14,9,5,12,6,0,0,47,12,28,16,0,0,13,0,0,0,0,0,0,0,0,0,0,0],"split_type":[0,0,0,0,0,0,0,0,0,0,0,0,0,0,0,0,0,0,0,0,0,0,0,0,0,0,0,0,0,0,0],"sum_hessian":[1.21167595E2,6.3291004E1,5.7876595E1,8.23079E0,5.506021E1,5.5228996E1,2.6475978E0,2.1848425E1,3.321179E1,3.32209E0,5.1906906E1,1.2854112E0,1.3621864E0,1.3276152E1,8.572273E0,2.3189047E1,1.002274E1,1.9772145E0,1.3448753E0,9.129888E0,4.277702E1,1.1789117E1,1.487035E0,1.0916129E0,7.48066E0,8.051902E0,1.5137146E1,8.868955E0,1.153786E0,7.878404E0,1.2514834E0],"tree_param":{"num_deleted":"0","num_feature":"50","num_nodes":"31","size_leaf_vector":"1"}},{"base_weights":[5.381125E-3,4.8411885E-1,-1.0328556E-1,-2.0308368E-2,5.096462E-2,3.2032737E-1,-1.730286E-1,5.0398614E-2,-2.140451E-1,-1.1740736E-1,-6.156893E-1,-6.851815E-1,3.899238E-2,-3.502449E-1,6.6182544E-3,-6.6695124E-2,4.8905886E-3,-7.9451185E-3,-9.181486E-2,9.57401E-3,-5.3487707E-2,6.723897E-3,-5.2189376E-2],"categories":[],"categories_nodes":[],"categories_segments":[],"categories_sizes":[],"default_left":[0,0,0,0,0,0,0,0,0,0,0,0,0,0,0,0,0,0,0,0,0,0,0],"id":40,"left_children":[1,3,5,-1,-1,7,9,-1,11,13,15,17,-1,19,21,-1,-1,-1,-1,-1,-1,-1,-1],"loss_changes":[1.0564845E1,7.62516E-1,4.9465275E0,0E0,0E0,2.4391465E0,3.4436107E0,0E0,2.1957822E0,3.7014039E0,5.676441E-1,5.155381E-1,0E0,3.718524E0,2.744207E0,0E0,0E0,0E0,0E0,0E0,0E0,0E0,0E0],"parents":[2147483647,0,0,1,1,2,2,5,5,6,6,8,8,9,9,10,10,11,11,13,13,14,14],"right_children":[2,4,6,-1,-1,8,10,-1,12,14,16,18,-1,20,22,-1,-1,-1,-1,-1,-1,-1,-1],"split_conditions":[1.9279622E-3,2.251888E0,7.4003264E-4,-2.0308368E-2,5.096462E-2,3.0631552E-4,2.7088528E-3,5.0398614E-2,5.55239E1,-4.9656744E0,2.529838E-3,2.252232E0,3.899238E-2,2.3595765E-3,7.8071266E-1,-6.6695124E-2,4.8905886E-3,-7.9451185E-3,-9.181486E-2,9.57401E-3,-5.3487707E-2,6.723897E-3,-5.2189376E-2],"split_indices":[15,44,18,0,0,9,11,0,43,12,8,0,0,26,31,0,0,0,0,0,0,0,0],"split_type":[0,0,0,0,0,0,0,0,0,0,0,0,0,0,0,0,0,0,0,0,0,0,0],"sum_hessian":[2.0111972E2,3.6566902E1,1.6455281E2,1.0605699E0,3.5506332E1,2.2754017E1,1.417988E2,1.697629E1,5.777726E0,1.2709435E2,1.4704444E1,3.1702516E0,2.6074746E0,4.3536953E1,8.3557396E1,1.3648178E1,1.0562652E0,1.2531129E0,1.9171388E0,1.2887714E1,3.0649239E1,7.574246E1,7.8149395E0],"tree_param":{"num_deleted":"0","num_feature":"50","num_nodes":"23","size_leaf_vector":"1"}},{"base_weights":[1.0116389E-2,-4.813666E-1,3.6578843E-1,-5.025493E-2,2.2506183E-3,-1.0988129E-1,5.090185E-1,-3.895769E-1,5.4159075E-1,-3.6324706E-2,5.637819E-1,-4.6872336E-2,3.5070938E-3,-3.1026518E-2,9.9650696E-2,-2.303096E-2,6.327831E-1,4.893646E-2,-4.4943616E-2,6.843558E-2,-1.2292697E-2],"categories":[],"categories_nodes":[],"categories_segments":[],"categories_sizes":[],"default_left":[0,0,0,0,0,0,0,0,0,0,0,0,0,0,0,0,0,0,0,0,0],"id":41,"left_children":[1,3,5,-1,-1,7,9,11,13,-1,15,-1,-1,-1,-1,17,19,-1,-1,-1,-1],"loss_changes":[1.8230288E1,4.7873688E-1,4.1769495E0,0E0,0E0,2.9115589E0,2.4339733E0,3.8448596E-1,2.196469E0,0E0,1.8083782E0,0E0,0E0,0E0,0E0,1.4491642E0,1.6304369E0,0E0,0E0,0E0,0E0],"parents":[2147483647,0,0,1,1,2,2,5,5,6,6,7,7,8,8,10,10,15,15,16,16],"right_children":[2,4,6,-1,-1,8,10,12,14,-1,16,-1,-1,-1,-1,18,20,-1,-1,-1,-1],"split_conditions":[5.4445843E1,7.561882E-4,1.7394754E-4,-5.025493E-2,2.2506183E-3,1.6626132E-3,1.5812084E-3,1.5291515E-4,-7.7759534E-5,-3.6324706E-2,-6.2243366E0,-4.6872336E-2,3.5070938E-3,-3.1026518E-2,9.9650696E-2,2.2821531E0,2.2618122E0,4.893646E-2,-4.4943616E-2,6.843558E-2,-1.2292697E-2],"split_indices":[6,10,9,0,0,26,13,9,9,0,12,0,0,0,0,48,2,0,0,0,0],"split_type":[0,0,0,0,0,0,0,0,0,0,0,0,0,0,0,0,0,0,0,0,0],"sum_hessian":[1.0228096E2,4.2793564E1,5.9487396E1,4.1069633E1,1.723931E0,1.3820866E1,4.566653E1,9.950735E0,3.8701305E0,2.3649473E0,4.3301582E1,8.29998E0,1.6507549E0,1.457971E0,2.4121594E0,4.6260533E0,3.867553E1,2.034099E0,2.5919542E0,3.6293163E1,2.382368E0],"tree_param":{"num_deleted":"0","num_feature":"50","num_nodes":"21","size_leaf_vector":"1"}},{"base_weights":[2.098625E-2,-3.997468E-1,2.7239096E-1,1.0335813E-1,-5.074464E-2,5.729412E-1,7.679543E-3,-4.1569605E-2,5.784546E-1,-3.4779236E-2,6.360014E-1,3.849147E-1,-3.325902E-1,8.66035E-1,-2.7520398E-2,-3.164011E-2,6.855987E-1,4.9202234E-1,-3.7751522E-2,4.226571E-1,-4.943518E-2,1.0870643E-1,1.08149685E-2,7.949218E-2,1.9537508E-2,-2.9172767E-2,5.5609312E-2,7.5930364E-2,-2.8548945E-2],"categories":[],"categories_nodes":[],"categories_segments":[],"categories_sizes":[],"default_left":[0,0,0,0,0,0,0,0,0,0,0,0,0,0,0,0,0,0,0,0,0,0,0,0,0,0,0,0,0],"id":42,"left_children":[1,3,5,7,-1,9,11,-1,13,-1,15,17,19,21,-1,-1,23,25,-1,27,-1,-1,-1,-1,-1,-1,-1,-1,-1],"loss_changes":[1.3173708E1,2.5776982E0,6.1941395E0,2.4717927E0,0E0,2.338828E0,5.575566E0,0E0,1.5007626E0,0E0,1.8460112E0,1.8671539E0,3.0004277E0,5.671823E-1,0E0,0E0,1.6184254E0,1.090601E0,0E0,1.3061721E0,0E0,0E0,0E0,0E0,0E0,0E0,0E0,0E0,0E0],"parents":[2147483647,0,0,1,1,2,2,3,3,5,5,6,6,8,8,10,10,11,11,12,12,13,13,16,16,17,17,19,19],"right_children":[2,4,6,8,-1,10,12,-1,14,-1,16,18,20,22,-1,-1,24,26,-1,28,-1,-1,-1,-1,-1,-1,-1,-1,-1],"split_conditions":[2.446576E-3,-7.633034E-4,-5.135844E0,-4.0088454E-3,-5.074464E-2,1.6700674E-3,-3.4632304E-4,-4.1569605E-2,3.762096E-1,-3.4779236E-2,-1.3037222E-3,4.4423424E1,5.202926E-1,2.261008E0,-2.7520398E-2,-3.164011E-2,1.7E1,1.6994468E-3,-3.7751522E-2,8.78111E-1,-4.943518E-2,1.0870643E-1,1.08149685E-2,7.949218E-2,1.9537508E-2,-2.9172767E-2,5.5609312E-2,7.5930364E-2,-2.8548945E-2],"split_indices":[26,11,12,14,0,13,9,0,32,0,8,6,28,1,0,0,36,13,0,17,0,0,0,0,0,0,0,0,0],"split_type":[0,0,0,0,0,0,0,0,0,0,0,0,0,0,0,0,0,0,0,0,0,0,0,0,0,0,0,0,0],"sum_hessian":[1.2251605E2,4.5604893E1,7.6911156E1,8.048354E0,3.7556538E1,3.5472126E1,4.1439034E1,3.9059925E0,4.1423616E0,1.9843049E0,3.348782E1,1.9589836E1,2.1849197E1,3.0876846E0,1.054677E0,1.3913189E0,3.20965E1,1.7487785E1,2.1020522E0,3.5697205E0,1.8279476E1,2.0542467E0,1.0334378E0,2.5735716E1,6.3607855E0,1.0530518E0,1.6434732E1,2.3705442E0,1.1991763E0],"tree_param":{"num_deleted":"0","num_feature":"50","num_nodes":"29","size_leaf_vector":"1"}},{"base_weights":[-2.0764133E-2,4.7868583E-1,-1.2030732E-1,-1.7109225E-2,5.0661534E-2,1.0290568E-1,-2.5506812E-1,2.2283383E-1,-3.7705266E-1,-4.4445276E-1,-6.396563E-2,-1.8420744E-1,3.2876465E-1,-7.019685E-1,-8.647473E-2,-3.887104E-2,-5.321895E-1,-4.6122947E-1,9.7864844E-2,4.3714758E-2,-4.276348E-2,-1.24168135E-2,4.6195667E-2,-1.8677657E-2,-8.078441E-2,2.9178113E-2,-6.8038836E-2,-5.1350154E-2,4.715431E-2,-1.0473827E-1,-3.984238E-2,-6.0397036E-2,5.0037827E-2,2.4437249E-2,-4.4922773E-2],"categories":[],"categories_nodes":[],"categories_segments":[],"categories_sizes":[],"default_left":[0,0,0,0,0,0,0,0,0,0,0,0,0,0,0,0,0,0,0,0,0,0,0,0,0,0,0,0,0,0,0,0,0,0,0],"id":43,"left_children":[1,3,5,-1,-1,7,9,11,13,15,17,19,21,23,25,27,29,31,33,-1,-1,-1,-1,-1,-1,-1,-1,-1,-1,-1,-1,-1,-1,-1,-1],"loss_changes":[1.0231386E1,7.074833E-1,5.182832E0,0E0,0E0,3.8396678E0,3.8506145E0,2.3385582E0,1.2059004E0,1.8889074E0,3.549948E0,1.9340546E0,2.608025E0,1.869204E-1,2.0457122E0,2.8156233E0,2.6177864E0,2.492181E0,3.2807488E0,0E0,0E0,0E0,0E0,0E0,0E0,0E0,0E0,0E0,0E0,0E0,0E0,0E0,0E0,0E0,0E0],"parents":[2147483647,0,0,1,1,2,2,5,5,6,6,7,7,8,8,9,9,10,10,11,11,12,12,13,13,14,14,15,15,16,16,17,17,18,18],"right_children":[2,4,6,-1,-1,8,10,12,14,16,18,20,22,24,26,28,30,32,34,-1,-1,-1,-1,-1,-1,-1,-1,-1,-1,-1,-1,-1,-1,-1,-1],"split_conditions":[1.9279622E-3,2.252914E0,-2.25274E-2,-1.7109225E-2,5.0661534E-2,2.4290471E-3,1.2E1,-1.7595012E-3,4.5498955E1,-7.4875646E-4,4.2467205E1,-1.261735E-3,2.2571833E0,2.2602663E0,1.8640907E-3,-1.9927118E-3,4.2700043E1,2.2601256E0,7.8869615E0,4.3714758E-2,-4.276348E-2,-1.24168135E-2,4.6195667E-2,-1.8677657E-2,-8.078441E-2,2.9178113E-2,-6.8038836E-2,-5.1350154E-2,4.715431E-2,-1.0473827E-1,-3.984238E-2,-6.0397036E-2,5.0037827E-2,2.4437249E-2,-4.4922773E-2],"split_indices":[15,44,14,0,0,13,36,11,6,7,6,8,45,2,7,11,6,45,12,0,0,0,0,0,0,0,0,0,0,0,0,0,0,0,0],"split_type":[0,0,0,0,0,0,0,0,0,0,0,0,0,0,0,0,0,0,0,0,0,0,0,0,0,0,0,0,0,0,0,0,0,0,0],"sum_hessian":[2.0363483E2,3.320792E1,1.7042691E2,