{"learner":{"attributes":{"scikit_learn":"{\"_estimator_type\": \"classifier\"}"},"feature_names":["prob_buy","prob_sell","rsi","vol_brk","vol_imb","regime_strength"],"feature_types":["float","float","float","int","float","float"],"gradient_booster":{"model":{"cats":{"enc":[],"feature_segments":[],"sorted_idx":[]},"gbtree_model_param":{"num_parallel_tree":"1","num_trees":"100"},"iteration_indptr":[0,1,2,3,4,5,6,7,8,9,10,11,12,13,14,15,16,17,18,19,20,21,22,23,24,25,26,27,28,29,30,31,32,33,34,35,36,37,38,39,40,41,42,43,44,45,46,47,48,49,50,51,52,53,54,55,56,57,58,59,60,61,62,63,64,65,66,67,68,69,70,71,72,73,74,75,76,77,78,79,80,81,82,83,84,85,86,87,88,89,90,91,92,93,94,95,96,97,98,99,100],"tree_info":[0,0,0,0,0,0,0,0,0,0,0,0,0,0,0,0,0,0,0,0,0,0,0,0,0,0,0,0,0,0,0,0,0,0,0,0,0,0,0,0,0,0,0,0,0,0,0,0,0,0,0,0,0,0,0,0,0,0,0,0,0,0,0,0,0,0,0,0,0,0,0,0,0,0,0,0,0,0,0,0,0,0,0,0,0,0,0,0,0,0,0,0,0,0,0,0,0,0,0,0],"trees":[{"base_weights":[-4.8767433E-8,-4.351145E-2,3.7873748E-1,9.850745E-1,-6.1764705E-1,7.021276E-2,-1.6763807E-9,-3.75E-2,-7.894739E-3],"categories":[],"categories_nodes":[],"categories_segments":[],"categories_sizes":[],"default_left":[0,0,0,0,0,0,0,0,0],"id":0,"left_children":[1,-1,3,5,7,-1,-1,-1,-1],"loss_changes":[3.9550605E0,0E0,5.659751E0,2.3054938E0,1.1145508E-1,0E0,0E0,0E0,0E0],"parents":[2147483647,0,0,2,2,3,3,4,4],"right_children":[2,-1,4,6,8,-1,-1,-1,-1],"split_conditions":[1.6862476E-3,-4.351145E-2,1E0,9.4613254E-1,9.689113E-1,7.021276E-2,-1.6763807E-9,-3.75E-2,-7.894739E-3],"split_indices":[0,0,3,0,0,0,0,0,0],"split_type":[0,0,0,0,0,0,0,0,0],"sum_hessian":[1E1,2.638889E0,7.3611116E0,4.5833335E0,2.777778E0,2.9166667E0,1.6666667E0,1.6666667E0,1.1111112E0],"tree_param":{"num_deleted":"0","num_feature":"6","num_nodes":"9","size_leaf_vector":"1"}},{"base_weights":[-2.358182E-3,-4.2852912E-2,3.5822618E-1,9.247357E-1,-6.065892E-1,-8.105968E-3,6.1191887E-2,-7.2750296E-3,-3.7109815E-2],"categories":[],"categories_nodes":[],"categories_segments":[],"categories_sizes":[],"default_left":[0,0,0,0,0,0,0,0,0],"id":1,"left_children":[1,-1,3,5,7,-1,-1,-1,-1],"loss_changes":[3.7015102E0,0E0,5.1803036E0,2.0581856E0,1.2526476E-1,0E0,0E0,0E0,0E0],"parents":[2147483647,0,0,2,2,3,3,4,4],"right_children":[2,-1,4,6,8,-1,-1,-1,-1],"split_conditions":[1.6862476E-3,-4.2852912E-2,1E0,6.622863E-4,2.616351E1,-8.105968E-3,6.1191887E-2,-7.2750296E-3,-3.7109815E-2],"split_indices":[0,0,3,1,2,0,0,0,0],"split_type":[0,0,0,0,0,0,0,0,0],"sum_hessian":[1.0014222E1,2.562773E0,7.4514494E0,4.7209787E0,2.7304707E0,1.1176658E0,3.6033132E0,1.0916432E0,1.6388273E0],"tree_param":{"num_deleted":"0","num_feature":"6","num_nodes":"9","size_leaf_vector":"1"}},{"base_weights":[-5.948415E-3,-4.2211447E-2,3.3705214E-1,8.660708E-1,-5.957276E-1,6.1281662E-2,-6.5997144E-4,-3.6612958E-2,-6.930418E-3],"categories":[],"categories_nodes":[],"categories_segments":[],"categories_sizes":[],"default_left":[0,0,0,0,0,0,0,0,0],"id":2,"left_children":[1,-1,3,5,7,-1,-1,-1,-1],"loss_changes":[3.4566848E0,0E0,4.731861E0,1.8685956E0,1.2844884E-1,0E0,0E0,0E0,0E0],"parents":[2147483647,0,0,2,2,3,3,4,4],"right_children":[2,-1,4,6,8,-1,-1,-1,-1],"split_conditions":[1.6862476E-3,-4.2211447E-2,1E0,9.4613254E-1,6.5E-1,6.1281662E-2,-6.5997144E-4,-3.6612958E-2,-6.930418E-3],"split_indices":[0,0,3,0,5,0,0,0,0],"split_type":[0,0,0,0,0,0,0,0,0],"sum_hessian":[1.0032338E1,2.4887125E0,7.5436254E0,4.859254E0,2.6843712E0,3.1693017E0,1.6899523E0,1.6035316E0,1.0808396E0],"tree_param":{"num_deleted":"0","num_feature":"6","num_nodes":"9","size_leaf_vector":"1"}},{"base_weights":[-8.471582E-3,-4.1585878E-2,3.187938E-1,8.154896E-1,-5.850941E-1,-8.093571E-3,5.3660303E-2,-6.50682E-3,-3.6167942E-2],"categories":[],"categories_nodes":[],"categories_segments":[],"categories_sizes":[],"default_left":[0,0,0,0,0,0,0,0,0],"id":3,"left_children":[1,-1,3,5,7,-1,-1,-1,-1],"loss_changes":[3.2388566E0,0E0,4.3474817E0,1.6802971E0,1.3480377E-1,0E0,0E0,0E0,0E0],"parents":[2147483647,0,0,2,2,3,3,4,4],"right_children":[2,-1,4,6,8,-1,-1,-1,-1],"split_conditions":[1.6862476E-3,-4.1585878E-2,1E0,6.622863E-4,4.086555E-4,-8.093571E-3,5.3660303E-2,-6.50682E-3,-3.6167942E-2],"split_indices":[0,0,3,1,1,0,0,0,0],"split_type":[0,0,0,0,0,0,0,0,0],"sum_hessian":[1.0037456E1,2.4167163E0,7.620739E0,4.9812746E0,2.6394641E0,1.1170163E0,3.8642583E0,1.0676366E0,1.5718275E0],"tree_param":{"num_deleted":"0","num_feature":"6","num_nodes":"9","size_leaf_vector":"1"}},{"base_weights":[-1.2055519E-2,-4.4681218E-1,5.7112056E-1,4.2809188E-1,-4.728193E-2,6.280443E-2,-2.197104E-1,-3.2387033E-2,6.955544E-2,-3.133193E-2,1.3936773E-2],"categories":[],"categories_nodes":[],"categories_segments":[],"categories_sizes":[],"default_left":[0,0,0,0,0,0,0,0,0,0,0],"id":4,"left_children":[1,3,5,7,-1,-1,9,-1,-1,-1,-1],"loss_changes":[3.0558093E0,3.4115267E0,3.0693316E0,4.2061E0,0E0,0E0,8.327589E-1,0E0,0E0,0E0,0E0],"parents":[2147483647,0,0,1,1,2,2,3,3,6,6],"right_children":[2,4,6,8,-1,-1,10,-1,-1,-1,-1],"split_conditions":[6.5E-1,4.7E-1,7.3E-1,4.4E-1,-4.728193E-2,6.280443E-2,7.8E-1,-3.2387033E-2,6.955544E-2,-3.133193E-2,1.3936773E-2],"split_indices":[5,5,5,5,0,0,5,0,0,0,0],"split_type":[0,0,0,0,0,0,0,0,0,0,0],"sum_hessian":[1.00461035E1,5.8893976E0,4.1567054E0,2.1900375E0,3.6993601E0,1.9121802E0,2.2445254E0,1.1890625E0,1.000975E0,1.0941131E0,1.1504122E0],"tree_param":{"num_deleted":"0","num_feature":"6","num_nodes":"11","size_leaf_vector":"1"}},{"base_weights":[-8.9690285E-3,-4.0755913E-2,3.0001256E-1,7.6024944E-1,-5.705977E-1,4.9565688E-2,-8.178293E-3,-5.819801E-3,-3.5613976E-2],"categories":[],"categories_nodes":[],"categories_segments":[],"categories_sizes":[],"default_left":[0,0,0,0,0,0,0,0,0],"id":5,"left_children":[1,-1,3,5,7,-1,-1,-1,-1],"loss_changes":[2.9878938E0,0E0,3.916955E0,1.4675622E0,1.4731169E-1,0E0,0E0,0E0,0E0],"parents":[2147483647,0,0,2,2,3,3,4,4],"right_children":[2,-1,4,6,8,-1,-1,-1,-1],"split_conditions":[1.6862476E-3,-4.0755913E-2,1E0,7.3E-1,4.086555E-4,4.9565688E-2,-8.178293E-3,-5.819801E-3,-3.5613976E-2],"split_indices":[0,0,3,5,1,0,0,0,0],"split_type":[0,0,0,0,0,0,0,0,0],"sum_hessian":[1.001369E1,2.3207223E0,7.692967E0,5.1154914E0,2.5774758E0,4.0335555E0,1.081936E0,1.0459415E0,1.5315343E0],"tree_param":{"num_deleted":"0","num_feature":"6","num_nodes":"9","size_leaf_vector":"1"}},{"base_weights":[-1.2680517E-2,-4.3750516E-1,5.443439E-1,4.1592187E-1,-4.681338E-2,5.7919193E-2,-2.0340282E-1,-3.1702433E-2,6.554497E-2,-3.053991E-2,1.4067802E-2],"categories":[],"categories_nodes":[],"categories_segments":[],"categories_sizes":[],"default_left":[0,0,0,0,0,0,0,0,0,0,0],"id":6,"left_children":[1,3,5,7,-1,-1,9,-1,-1,-1,-1],"loss_changes":[2.8462622E0,3.2869315E0,2.6297765E0,3.8412838E0,0E0,0E0,8.0417705E-1,0E0,0E0,0E0,0E0],"parents":[2147483647,0,0,1,1,2,2,3,3,6,6],"right_children":[2,4,6,8,-1,-1,10,-1,-1,-1,-1],"split_conditions":[6.5E-1,4.7E-1,7.3E-1,4.4E-1,-4.681338E-2,5.7919193E-2,7.8E-1,-3.1702433E-2,6.554497E-2,-3.053991E-2,1.4067802E-2],"split_indices":[5,5,5,5,0,0,5,0,0,0,0],"split_type":[0,0,0,0,0,0,0,0,0,0,0],"sum_hessian":[1.0021527E1,5.8071604E0,4.2143674E0,2.2032669E0,3.6038935E0,2.0125341E0,2.2018332E0,1.1480014E0,1.0552654E0,1.0551078E0,1.1467254E0],"tree_param":{"num_deleted":"0","num_feature":"6","num_nodes":"11","size_leaf_vector":"1"}},{"base_weights":[-1.0122221E-2,-3.9967693E-2,2.8200912E-1,7.0960885E-1,-5.568103E-1,5.0090123E-2,-1.7660566E-3,-5.1679593E-3,-3.509311E-2],"categories":[],"categories_nodes":[],"categories_segments":[],"categories_sizes":[],"default_left":[0,0,0,0,0,0,0,0,0],"id":7,"left_children":[1,-1,3,5,7,-1,-1,-1,-1],"loss_changes":[2.7583244E0,0E0,3.5361588E0,1.3936255E0,1.5879393E-1,0E0,0E0,0E0,0E0],"parents":[2147483647,0,0,2,2,3,3,4,4],"right_children":[2,-1,4,6,8,-1,-1,-1,-1],"split_conditions":[1.6862476E-3,-3.9967693E-2,1E0,9.4613254E-1,4.086555E-4,5.0090123E-2,-1.7660566E-3,-5.1679593E-3,-3.509311E-2],"split_indices":[0,0,3,0,1,0,0,0,0],"split_type":[0,0,0,0,0,0,0,0,0],"sum_hessian":[9.98589E0,2.2286403E0,7.7572503E0,5.240084E0,2.5171661E0,3.516093E0,1.7239912E0,1.0251088E0,1.4920573E0],"tree_param":{"num_deleted":"0","num_feature":"6","num_nodes":"9","size_leaf_vector":"1"}},{"base_weights":[-1.2933905E-2,-4.2481607E-1,5.11665E-1,4.051121E-1,-4.6217885E-2,5.3878713E-2,-1.9926423E-1,-3.1069834E-2,6.211671E-2,-2.9949272E-2,1.3371947E-2],"categories":[],"categories_nodes":[],"categories_segments":[],"categories_sizes":[],"default_left":[0,0,0,0,0,0,0,0,0,0,0],"id":8,"left_children":[1,3,5,7,-1,-1,9,-1,-1,-1,-1],"loss_changes":[2.589816E0,3.1509705E0,2.3400998E0,3.5321503E0,0E0,0E0,7.54419E-1,0E0,0E0,0E0,0E0],"parents":[2147483647,0,0,1,1,2,2,3,3,6,6],"right_children":[2,4,6,8,-1,-1,10,-1,-1,-1,-1],"split_conditions":[6.5E-1,4.7E-1,7.3E-1,4.4E-1,-4.6217885E-2,5.3878713E-2,7.8E-1,-3.1069834E-2,6.211671E-2,-2.9949272E-2,1.3371947E-2],"split_indices":[5,5,5,5,0,0,5,0,0,0,0],"split_type":[0,0,0,0,0,0,0,0,0,0,0],"sum_hessian":[9.97987E0,5.6970844E0,4.2827854E0,2.2116787E0,3.4854054E0,2.0974557E0,2.1853297E0,1.1093296E0,1.1023493E0,1.0244612E0,1.1608685E0],"tree_param":{"num_deleted":"0","num_feature":"6","num_nodes":"11","size_leaf_vector":"1"}},{"base_weights":[-1.0884396E-2,-3.921611E-2,2.6634276E-1,6.660936E-1,-5.436798E-1,4.3592613E-2,-8.512553E-3,-3.4615625E-2,-4.518348E-3],"categories":[],"categories_nodes":[],"categories_segments":[],"categories_sizes":[],"default_left":[0,0,0,0,0,0,0,0,0],"id":9,"left_children":[1,-1,3,5,7,-1,-1,-1,-1],"loss_changes":[2.5549433E0,0E0,3.2119548E0,1.2398365E0,1.7047727E-1,0E0,0E0,0E0,0E0],"parents":[2147483647,0,0,2,2,3,3,4,4],"right_children":[2,-1,4,6,8,-1,-1,-1,-1],"split_conditions":[1.6862476E-3,-3.921611E-2,1E0,7.3E-1,9.689113E-1,4.3592613E-2,-8.512553E-3,-3.4615625E-2,-4.518348E-3],"split_indices":[0,0,3,5,0,0,0,0,0],"split_type":[0,0,0,0,0,0,0,0,0],"sum_hessian":[9.941457E0,2.1404986E0,7.800958E0,5.3422246E0,2.4587336E0,4.253353E0,1.0888715E0,1.4545767E0,1.0041568E0],"tree_param":{"num_deleted":"0","num_feature":"6","num_nodes":"9","size_leaf_vector":"1"}},{"base_weights":[-1.4675876E-2,-4.1683674E-1,4.8696515E-1,3.9206147E-1,-4.5764554E-2,4.994731E-2,-9.257886E-3,-3.2147326E-2,6.633633E-2],"categories":[],"categories_nodes":[],"categories_segments":[],"categories_sizes":[],"default_left":[0,0,0,0,0,0,0,0,0],"id":10,"left_children":[1,3,5,7,-1,-1,-1,-1,-1],"loss_changes":[2.4103713E0,3.02473E0,2.0190544E0,3.968964E0,0E0,0E0,0E0,0E0,0E0],"parents":[2147483647,0,0,1,1,2,2,3,3],"right_children":[2,4,6,8,-1,-1,-1,-1,-1],"split_conditions":[6.5E-1,4.7E-1,7.3E-1,8.1654423E-1,-4.5764554E-2,4.994731E-2,-9.257886E-3,-3.2147326E-2,6.633633E-2],"split_indices":[5,5,5,0,0,0,0,0,0],"split_type":[0,0,0,0,0,0,0,0,0],"sum_hessian":[9.941717E0,5.6118245E0,4.329893E0,2.2210007E0,3.3908238E0,2.1817315E0,2.1481616E0,1.2020322E0,1.0189685E0],"tree_param":{"num_deleted":"0","num_feature":"6","num_nodes":"9","size_leaf_vector":"1"}},{"base_weights":[-1.1852034E-2,-3.838684E-2,2.4982305E-1,6.2414294E-1,-5.316896E-1,4.3983813E-2,-2.2474679E-3,-4.902528E-3,-3.372496E-2],"categories":[],"categories_nodes":[],"categories_segments":[],"categories_sizes":[],"default_left":[0,0,0,0,0,0,0,0,0],"id":11,"left_children":[1,-1,3,5,7,-1,-1,-1,-1],"loss_changes":[2.3461885E0,0E0,2.9194708E0,1.1407685E0,1.4470625E-1,0E0,0E0,0E0,0E0],"parents":[2147483647,0,0,2,2,3,3,4,4],"right_children":[2,-1,4,6,8,-1,-1,-1,-1],"split_conditions":[1.6862476E-3,-3.838684E-2,1E0,9.4613254E-1,2.616351E1,4.3983813E-2,-2.2474679E-3,-4.902528E-3,-3.372496E-2],"split_indices":[0,0,3,0,2,0,0,0,0],"split_type":[0,0,0,0,0,0,0,0,0],"sum_hessian":[9.891969E0,2.0464842E0,7.8454847E0,5.440853E0,2.4046314E0,3.7094462E0,1.7314072E0,1.0135586E0,1.3910729E0],"tree_param":{"num_deleted":"0","num_feature":"6","num_nodes":"9","size_leaf_vector":"1"}},{"base_weights":[-1.4845813E-2,-3.7841856E-2,2.3616076E-1,5.914261E-1,-5.223402E-1,4.721114E-3,4.7747158E-2,-4.7875457E-3,-3.3225987E-2],"categories":[],"categories_nodes":[],"categories_segments":[],"categories_sizes":[],"default_left":[0,0,0,0,0,0,0,0,0],"id":12,"left_children":[1,-1,3,5,7,-1,-1,-1,-1],"loss_changes":[2.2050865E0,0E0,2.7050447E0,1.0886357E0,1.4060926E-1,0E0,0E0,0E0,0E0],"parents":[2147483647,0,0,2,2,3,3,4,4],"right_children":[2,-1,4,6,8,-1,-1,-1,-1],"split_conditions":[1.6862476E-3,-3.7841856E-2,1E0,6.1E-1,2.616351E1,4.721114E-3,4.7747158E-2,-4.7875457E-3,-3.3225987E-2],"split_indices":[0,0,3,5,2,0,0,0,0],"split_type":[0,0,0,0,0,0,0,0,0],"sum_hessian":[9.880049E0,1.988047E0,7.8920016E0,5.524647E0,2.3673544E0,2.8659885E0,2.6586585E0,1.0101113E0,1.3572431E0],"tree_param":{"num_deleted":"0","num_feature":"6","num_nodes":"9","size_leaf_vector":"1"}},{"base_weights":[-1.6578214E-2,-3.730714E-2,2.247888E-1,5.632878E-1,-5.1319724E-1,3.777052E-2,-9.8324055E-3,-4.675272E-3,-3.273743E-2],"categories":[],"categories_nodes":[],"categories_segments":[],"categories_sizes":[],"default_left":[0,0,0,0,0,0,0,0,0],"id":13,"left_children":[1,-1,3,5,7,-1,-1,-1,-1],"loss_changes":[2.080266E0,0E0,2.519734E0,1.1119173E0,1.366731E-1,0E0,0E0,0E0,0E0],"parents":[2147483647,0,0,2,2,3,3,4,4],"right_children":[2,-1,4,6,8,-1,-1,-1,-1],"split_conditions":[1.6862476E-3,-3.730714E-2,1E0,7.3E-1,2.616351E1,3.777052E-2,-9.8324055E-3,-4.675272E-3,-3.273743E-2],"split_indices":[0,0,3,5,2,0,0,0,0],"split_type":[0,0,0,0,0,0,0,0,0],"sum_hessian":[9.860986E0,1.9314861E0,7.9294996E0,5.5983667E0,2.3311327E0,4.4733863E0,1.1249807E0,1.0067503E0,1.3243823E0],"tree_param":{"num_deleted":"0","num_feature":"6","num_nodes":"9","size_leaf_vector":"1"}},{"base_weights":[-2.0371515E-2,-4.0232304E-1,4.3797833E-1,3.9191958E-1,-4.522651E-2,-5.6578506E-2,6.4463004E-2,-3.0988822E-2,6.1912335E-2,2.4344517E-2,-2.3486918E-2],"categories":[],"categories_nodes":[],"categories_segments":[],"categories_sizes":[],"default_left":[0,0,0,0,0,0,0,0,0,0,0],"id":14,"left_children":[1,3,5,7,-1,9,-1,-1,-1,-1,-1],"loss_changes":[2.0764244E0,2.9239445E0,2.351629E0,3.5013976E0,0E0,1.2125304E0,0E0,0E0,0E0,0E0,0E0],"parents":[2147483647,0,0,1,1,2,2,3,3,5,5],"right_children":[2,4,6,8,-1,10,-1,-1,-1,-1,-1],"split_conditions":[6.5E-1,4.7E-1,4.65758E1,8.1654423E-1,-4.522651E-2,7.2E-1,6.4463004E-2,-3.0988822E-2,6.1912335E-2,2.4344517E-2,-2.3486918E-2],"split_indices":[5,5,2,0,0,5,0,0,0,0,0],"split_type":[0,0,0,0,0,0,0,0,0,0,0],"sum_hessian":[9.854192E0,5.441731E0,4.4124603E0,2.1930382E0,3.2486928E0,3.3814979E0,1.0309628E0,1.1208571E0,1.0721812E0,1.3833671E0,1.9981307E0],"tree_param":{"num_deleted":"0","num_feature":"6","num_nodes":"11","size_leaf_vector":"1"}},{"base_weights":[-1.5249151E-2,-3.9063188E-1,4.2631173E-1,3.8055137E-1,-4.4588085E-2,-5.385442E-2,6.1789513E-2,-3.0532843E-2,5.933789E-2,2.346379E-2,-2.2947852E-2],"categories":[],"categories_nodes":[],"categories_segments":[],"categories_sizes":[],"default_left":[0,0,0,0,0,0,0,0,0,0,0],"id":15,"left_children":[1,3,5,7,-1,9,-1,-1,-1,-1,-1],"loss_changes":[1.9534969E0,2.7929766E0,2.1778488E0,3.2831273E0,0E0,1.14099E0,0E0,0E0,0E0,0E0,0E0],"parents":[2147483647,0,0,1,1,2,2,3,3,5,5],"right_children":[2,4,6,8,-1,10,-1,-1,-1,-1,-1],"split_conditions":[6.5E-1,4.7E-1,4.65758E1,8.1654423E-1,-4.4588085E-2,7.2E-1,6.1789513E-2,-3.0532843E-2,5.933789E-2,2.346379E-2,-2.2947852E-2],"split_indices":[5,5,2,0,0,5,0,0,0,0,0],"split_type":[0,0,0,0,0,0,0,0,0,0,0],"sum_hessian":[9.780809E0,5.3489027E0,4.4319067E0,2.2015595E0,3.1473432E0,3.3677163E0,1.0641906E0,1.0962751E0,1.1052845E0,1.4006157E0,1.9671006E0],"tree_param":{"num_deleted":"0","num_feature":"6","num_nodes":"11","size_leaf_vector":"1"}},{"base_weights":[-1.0708206E-2,-3.635501E-2,2.1823397E-1,5.302818E-1,-4.9062696E-1,1.0524689E-2,5.4697137E-2,-3.8595684E-3,-3.2063577E-2],"categories":[],"categories_nodes":[],"categories_segments":[],"categories_sizes":[],"default_left":[0,0,0,0,0,0,0,0,0],"id":16,"left_children":[1,-1,3,5,7,-1,-1,-1,-1],"loss_changes":[1.9148474E0,0E0,2.2251925E0,9.681901E-1,1.5196443E-1,0E0,0E0,0E0,0E0],"parents":[2147483647,0,0,2,2,3,3,4,4],"right_children":[2,-1,4,6,8,-1,-1,-1,-1],"split_conditions":[1.6862476E-3,-3.635501E-2,1E0,4.4952045E1,4.453834E-4,1.0524689E-2,5.4697137E-2,-3.8595684E-3,-3.2063577E-2],"split_indices":[0,0,3,2,1,0,0,0,0],"split_type":[0,0,0,0,0,0,0,0,0],"sum_hessian":[9.707544E0,1.8240198E0,7.8835244E0,5.6487923E0,2.234732E0,4.4803476E0,1.1684448E0,1.0007198E0,1.2340121E0],"tree_param":{"num_deleted":"0","num_feature":"6","num_nodes":"9","size_leaf_vector":"1"}},{"base_weights":[-1.1076272E-2,-3.5845738E-2,2.0994182E-1,5.093391E-1,-4.8201573E-1,5.3816475E-2,9.633039E-3,-3.1093756E-2,-4.704731E-3],"categories":[],"categories_nodes":[],"categories_segments":[],"categories_sizes":[],"default_left":[0,0,0,0,0,0,0,0,0],"id":17,"left_children":[1,-1,3,5,7,-1,-1,-1,-1],"loss_changes":[1.8164159E0,0E0,2.0905106E0,9.960635E-1,1.15282476E-1,0E0,0E0,0E0,0E0],"parents":[2147483647,0,0,2,2,3,3,4,4],"right_children":[2,-1,4,6,8,-1,-1,-1,-1],"split_conditions":[1.6862476E-3,-3.5845738E-2,1E0,4.7E-1,9.6729606E-1,5.3816475E-2,9.633039E-3,-3.1093756E-2,-4.704731E-3],"split_indices":[0,0,3,5,0,0,0,0,0],"split_type":[0,0,0,0,0,0,0,0,0],"sum_hessian":[9.678671E0,1.772944E0,7.905727E0,5.702344E0,2.2033832E0,1.1838796E0,4.518464E0,1.1762179E0,1.0271653E0],"tree_param":{"num_deleted":"0","num_feature":"6","num_nodes":"9","size_leaf_vector":"1"}},{"base_weights":[-1.1524804E-2,-3.8080546E-1,4.131936E-1,3.6667168E-1,-4.3963794E-2,-4.6679325E-2,5.8164656E-2,-3.1760048E-2,6.3644126E-2,2.2048585E-2,-2.3458807E-2],"categories":[],"categories_nodes":[],"categories_segments":[],"categories_sizes":[],"default_left":[0,0,0,0,0,0,0,0,0,0,0],"id":18,"left_children":[1,3,5,7,-1,9,-1,-1,-1,-1,-1],"loss_changes":[1.8276688E0,2.6388676E0,1.9283237E0,3.7074904E0,0E0,1.0988712E0,0E0,0E0,0E0,0E0,0E0],"parents":[2147483647,0,0,1,1,2,2,3,3,5,5],"right_children":[2,4,6,8,-1,10,-1,-1,-1,-1,-1],"split_conditions":[6.5E-1,4.7E-1,4.65758E1,8.608497E-1,-4.3963794E-2,3.309667E1,5.8164656E-2,-3.1760048E-2,6.3644126E-2,2.2048585E-2,-2.3458807E-2],"split_indices":[5,5,2,0,0,2,0,0,0,0,0],"split_type":[0,0,0,0,0,0,0,0,0,0,0],"sum_hessian":[9.649829E0,5.2171006E0,4.4327283E0,2.1930048E0,3.024096E0,3.3293383E0,1.1033902E0,1.1835618E0,1.009443E0,1.5252026E0,1.8041357E0],"tree_param":{"num_deleted":"0","num_feature":"6","num_nodes":"11","size_leaf_vector":"1"}},{"base_weights":[-7.2378754E-3,-3.6990538E-1,4.0091446E-1,3.5805243E-1,-4.3351594E-2,-4.4821445E-2,5.588438E-2,-3.1291556E-2,6.1243873E-2,2.2927132E-2,-2.2210417E-2],"categories":[],"categories_nodes":[],"categories_segments":[],"categories_sizes":[],"default_left":[0,0,0,0,0,0,0,0,0,0,0],"id":19,"left_children":[1,3,5,7,-1,9,-1,-1,-1,-1,-1],"loss_changes":[1.7142926E0,2.5258868E0,1.7936962E0,3.488832E0,0E0,1.073445E0,0E0,0E0,0E0,0E0,0E0],"parents":[2147483647,0,0,1,1,2,2,3,3,5,5],"right_children":[2,4,6,8,-1,10,-1,-1,-1,-1,-1],"split_conditions":[6.5E-1,4.7E-1,4.65758E1,8.608497E-1,-4.3351594E-2,7.2E-1,5.588438E-2,-3.1291556E-2,6.1243873E-2,2.2927132E-2,-2.2210417E-2],"split_indices":[5,5,2,0,0,5,0,0,0,0,0],"split_type":[0,0,0,0,0,0,0,0,0,0,0],"sum_hessian":[9.579342E0,5.12192E0,4.4574213E0,2.1919441E0,2.9299762E0,3.3263497E0,1.1310717E0,1.1568683E0,1.0350758E0,1.4060853E0,1.9202645E0],"tree_param":{"num_deleted":"0","num_feature":"6","num_nodes":"11","size_leaf_vector":"1"}},{"base_weights":[-3.2276784E-3,-3.4912884E-2,2.0746002E-1,4.882192E-1,-4.6221384E-1,3.2945953E-2,-9.709401E-3,-3.028351E-2,-3.9700945E-3],"categories":[],"categories_nodes":[],"categories_segments":[],"categories_sizes":[],"default_left":[0,0,0,0,0,0,0,0,0],"id":20,"left_children":[1,-1,3,5,7,-1,-1,-1,-1],"loss_changes":[1.6822553E0,0E0,1.8853962E0,9.091401E-1,1.2332374E-1,0E0,0E0,0E0,0E0],"parents":[2147483647,0,0,2,2,3,3,4,4],"right_children":[2,-1,4,6,8,-1,-1,-1,-1],"split_conditions":[1.6862476E-3,-3.4912884E-2,1E0,7.3E-1,9.6729606E-1,3.2945953E-2,-9.709401E-3,-3.028351E-2,-3.9700945E-3],"split_indices":[0,0,3,5,0,0,0,0,0],"split_type":[0,0,0,0,0,0,0,0,0],"sum_hessian":[9.498873E0,1.6712997E0,7.8275733E0,5.7062154E0,2.1213577E0,4.59198E0,1.1142353E0,1.1196241E0,1.0017335E0],"tree_param":{"num_deleted":"0","num_feature":"6","num_nodes":"9","size_leaf_vector":"1"}},{"base_weights":[-7.67598E-3,-3.652056E-1,3.8883302E-1,3.4742865E-1,-4.294804E-2,-4.266956E-2,5.3476095E-2,-3.0685207E-2,5.82012E-2,2.1448614E-2,-2.294924E-2],"categories":[],"categories_nodes":[],"categories_segments":[],"categories_sizes":[],"default_left":[0,0,0,0,0,0,0,0,0,0,0],"id":21,"left_children":[1,3,5,7,-1,9,-1,-1,-1,-1,-1],"loss_changes":[1.6290847E0,2.4207926E0,1.6487917E0,3.2107558E0,0E0,1.0416251E0,0E0,0E0,0E0,0E0,0E0],"parents":[2147483647,0,0,1,1,2,2,3,3,5,5],"right_children":[2,4,6,8,-1,10,-1,-1,-1,-1,-1],"split_conditions":[6.5E-1,4.7E-1,4.65758E1,8.608497E-1,-4.294804E-2,3.309667E1,5.3476095E-2,-3.0685207E-2,5.82012E-2,2.1448614E-2,-2.294924E-2],"split_indices":[5,5,2,0,0,2,0,0,0,0,0],"split_type":[0,0,0,0,0,0,0,0,0,0,0],"sum_hessian":[9.489855E0,5.0317264E0,4.458128E0,2.1806953E0,2.851031E0,3.302145E0,1.1559831E0,1.115827E0,1.0648685E0,1.5339437E0,1.7682014E0],"tree_param":{"num_deleted":"0","num_feature":"6","num_nodes":"11","size_leaf_vector":"1"}},{"base_weights":[-4.2194114E-3,-3.420747E-2,1.966857E-1,4.6366277E-1,-4.518074E-1,3.1310007E-2,-9.535106E-3,-4.309795E-3,-2.9641068E-2],"categories":[],"categories_nodes":[],"categories_segments":[],"categories_sizes":[],"default_left":[0,0,0,0,0,0,0,0,0],"id":22,"left_children":[1,-1,3,5,7,-1,-1,-1,-1],"loss_changes":[1.5576811E0,0E0,1.7362657E0,8.3631146E-1,1.076026E-1,0E0,0E0,0E0,0E0],"parents":[2147483647,0,0,2,2,3,3,4,4],"right_children":[2,-1,4,6,8,-1,-1,-1,-1],"split_conditions":[1.6862476E-3,-3.420747E-2,1E0,7.3E-1,5.0090323E-4,3.1310007E-2,-9.535106E-3,-4.309795E-3,-2.9641068E-2],"split_indices":[0,0,3,5,1,0,0,0,0],"split_type":[0,0,0,0,0,0,0,0,0],"sum_hessian":[9.418038E0,1.599491E0,7.818547E0,5.7403336E0,2.0782135E0,4.6326685E0,1.1076651E0,1.026926E0,1.0512873E0],"tree_param":{"num_deleted":"0","num_feature":"6","num_nodes":"9","size_leaf_vector":"1"}},{"base_weights":[-8.675065E-3,-3.6161238E-1,3.7701008E-1,3.3663952E-1,-4.2564888E-2,-4.02311E-2,5.1250875E-2,-3.010243E-2,5.5412024E-2,2.0708347E-2,-2.2434197E-2],"categories":[],"categories_nodes":[],"categories_segments":[],"categories_sizes":[],"default_left":[0,0,0,0,0,0,0,0,0,0,0],"id":23,"left_children":[1,3,5,7,-1,9,-1,-1,-1,-1,-1],"loss_changes":[1.5531071E0,2.3193824E0,1.5182679E0,2.961277E0,0E0,9.8119986E-1,0E0,0E0,0E0,0E0,0E0],"parents":[2147483647,0,0,1,1,2,2,3,3,5,5],"right_children":[2,4,6,8,-1,10,-1,-1,-1,-1,-1],"split_conditions":[6.5E-1,4.7E-1,4.65758E1,8.608497E-1,-4.2564888E-2,3.309667E1,5.1250875E-2,-3.010243E-2,5.5412024E-2,2.0708347E-2,-2.2434197E-2],"split_indices":[5,5,2,0,0,2,0,0,0,0,0],"split_type":[0,0,0,0,0,0,0,0,0,0,0],"sum_hessian":[9.408078E0,4.9451904E0,4.462888E0,2.167314E0,2.7778764E0,3.2853935E0,1.1774944E0,1.0769256E0,1.0903885E0,1.5486039E0,1.7367895E0],"tree_param":{"num_deleted":"0","num_feature":"6","num_nodes":"11","size_leaf_vector":"1"}},{"base_weights":[-5.5340924E-3,-3.5230315E-1,3.6581898E-1,3.2810798E-1,-4.1977584E-2,-3.8753737E-2,4.937422E-2,-2.9667107E-2,5.349527E-2,2.1416001E-2,-2.1090595E-2],"categories":[],"categories_nodes":[],"categories_segments":[],"categories_sizes":[],"default_left":[0,0,0,0,0,0,0,0,0,0,0],"id":24,"left_children":[1,3,5,7,-1,9,-1,-1,-1,-1,-1],"loss_changes":[1.4597491E0,2.2161655E0,1.4168293E0,2.7959406E0,0E0,9.4689184E-1,0E0,0E0,0E0,0E0,0E0],"parents":[2147483647,0,0,1,1,2,2,3,3,5,5],"right_children":[2,4,6,8,-1,10,-1,-1,-1,-1,-1],"split_conditions":[6.5E-1,4.7E-1,4.65758E1,8.608497E-1,-4.1977584E-2,7.2E-1,4.937422E-2,-2.9667107E-2,5.349527E-2,2.1416001E-2,-2.1090595E-2],"split_indices":[5,5,2,0,0,5,0,0,0,0,0],"split_type":[0,0,0,0,0,0,0,0,0,0,0],"sum_hessian":[9.334948E0,4.8537865E0,4.481161E0,2.1617093E0,2.692077E0,3.282566E0,1.198595E0,1.0533644E0,1.1083449E0,1.4258398E0,1.8567264E0],"tree_param":{"num_deleted":"0","num_feature":"6","num_nodes":"11","size_leaf_vector":"1"}},{"base_weights":[-2.5587564E-3,-3.3389654E-2,1.8897204E-1,4.3932965E-1,-2.1721322E-2,2.9643869E-2,-9.21269E-3],"categories":[],"categories_nodes":[],"categories_segments":[],"categories_sizes":[],"default_left":[0,0,0,0,0,0,0],"id":25,"left_children":[1,-1,3,5,-1,-1,-1],"loss_changes":[1.4324546E0,0E0,1.554889E0,7.5389755E-1,0E0,0E0,0E0],"parents":[2147483647,0,0,2,2,3,3],"right_children":[2,-1,4,6,-1,-1,-1],"split_conditions":[1.6862476E-3,-3.3389654E-2,1E0,7.3E-1,-2.1721322E-2,2.9643869E-2,-9.21269E-3],"split_indices":[0,0,3,5,0,0,0],"split_type":[0,0,0,0,0,0,0],"sum_hessian":[9.252186E0,1.5124521E0,7.7397337E0,5.7327294E0,2.0070045E0,4.639553E0,1.0931764E0],"tree_param":{"num_deleted":"0","num_feature":"6","num_nodes":"7","size_leaf_vector":"1"}},{"base_weights":[-6.0126367E-3,-3.4922975E-1,3.5698587E-1,3.164256E-1,-4.1574344E-2,-3.5056192E-2,4.74264E-2,-2.912747E-2,5.1014315E-2,2.0400994E-2,-2.1985067E-2],"categories":[],"categories_nodes":[],"categories_segments":[],"categories_sizes":[],"default_left":[0,0,0,0,0,0,0,0,0,0,0],"id":26,"left_children":[1,3,5,7,-1,9,-1,-1,-1,-1,-1],"loss_changes":[1.3994521E0,2.1137066E0,1.3011527E0,2.5851607E0,0E0,9.418189E-1,0E0,0E0,0E0,0E0,0E0],"parents":[2147483647,0,0,1,1,2,2,3,3,5,5],"right_children":[2,4,6,8,-1,10,-1,-1,-1,-1,-1],"split_conditions":[6.5E-1,4.7E-1,4.65758E1,8.608497E-1,-4.1574344E-2,3.309667E1,4.74264E-2,-2.912747E-2,5.1014315E-2,2.0400994E-2,-2.1985067E-2],"split_indices":[5,5,2,0,0,2,0,0,0,0,0],"split_type":[0,0,0,0,0,0,0,0,0,0,0],"sum_hessian":[9.232038E0,4.7648115E0,4.4672256E0,2.1462402E0,2.6185713E0,3.2524292E0,1.2147963E0,1.018174E0,1.1280662E0,1.5485102E0,1.703919E0],"tree_param":{"num_deleted":"0","num_feature":"6","num_nodes":"11","size_leaf_vector":"1"}},{"base_weights":[-3.4932832E-3,-3.2749396E-2,1.8023336E-1,-5.5275198E-2,4.358014E-2,3.0225763E-2,-1.6878463E-2],"categories":[],"categories_nodes":[],"categories_segments":[],"categories_sizes":[],"default_left":[0,0,0,0,0,0,0],"id":27,"left_children":[1,-1,3,5,-1,-1,-1],"loss_changes":[1.3339808E0,0E0,1.4660501E0,1.5890188E0,0E0,0E0,0E0],"parents":[2147483647,0,0,2,2,3,3],"right_children":[2,-1,4,6,-1,-1,-1],"split_conditions":[1.6862476E-3,-3.2749396E-2,8.4151924E-1,4.7E-1,4.358014E-2,3.0225763E-2,-1.6878463E-2],"split_indices":[0,0,1,5,0,0,0],"split_type":[0,0,0,0,0,0,0],"sum_hessian":[9.158409E0,1.4503733E0,7.7080355E0,6.4357924E0,1.272243E0,1.5864444E0,4.849348E0],"tree_param":{"num_deleted":"0","num_feature":"6","num_nodes":"7","size_leaf_vector":"1"}},{"base_weights":[-1.1076732E-3,-3.400025E-1,3.493162E-1,2.9839423E-1,-4.075493E-2,-2.4419656E-2,4.4996157E-2,3.4486607E-2,-1.0724566E-2,2.0267809E-2,-2.1276493E-2],"categories":[],"categories_nodes":[],"categories_segments":[],"categories_sizes":[],"default_left":[0,0,0,0,0,0,0,0,0,0,0],"id":28,"left_children":[1,3,5,7,-1,9,-1,-1,-1,-1,-1],"loss_changes":[1.3181405E0,1.9541073E0,1.1452312E0,7.779424E-1,0E0,9.0083814E-1,0E0,0E0,0E0,0E0,0E0],"parents":[2147483647,0,0,1,1,2,2,3,3,5,5],"right_children":[2,4,6,8,-1,10,-1,-1,-1,-1,-1],"split_conditions":[6.5E-1,4.7E-1,4.65758E1,1.0323898E-3,-4.075493E-2,3.309667E1,4.4996157E-2,3.4486607E-2,-1.0724566E-2,2.0267809E-2,-2.1276493E-2],"split_indices":[5,5,2,1,0,2,0,0,0,0,0],"split_type":[0,0,0,0,0,0,0,0,0,0,0],"sum_hessian":[9.099394E0,4.64091E0,4.4584837E0,2.138837E0,2.5020728E0,3.225058E0,1.2334255E0,1.0175937E0,1.1212435E0,1.5517864E0,1.6732717E0],"tree_param":{"num_deleted":"0","num_feature":"6","num_nodes":"11","size_leaf_vector":"1"}},{"base_weights":[1.3785084E-3,-3.2220017E-2,1.8063368E-1,4.1663188E-1,-2.0938316E-2,2.840577E-2,-9.450607E-3],"categories":[],"categories_nodes":[],"categories_segments":[],"categories_sizes":[],"default_left":[0,0,0,0,0,0,0],"id":29,"left_children":[1,-1,3,5,-1,-1,-1],"loss_changes":[1.2784939E0,0E0,1.3964924E0,7.2203934E-1,0E0,0E0,0E0],"parents":[2147483647,0,0,2,2,3,3],"right_children":[2,-1,4,6,-1,-1,-1],"split_conditions":[1.6862476E-3,-3.2220017E-2,1E0,7.3E-1,-2.0938316E-2,2.840577E-2,-9.450607E-3],"split_indices":[0,0,3,5,0,0,0],"split_type":[0,0,0,0,0,0,0],"sum_hessian":[9.038887E0,1.4000902E0,7.6387963E0,5.6996326E0,1.9391638E0,4.608836E0,1.0907964E0],"tree_param":{"num_deleted":"0","num_feature":"6","num_nodes":"7","size_leaf_vector":"1"}},{"base_weights":[-2.268421E-3,-3.3673882E-1,3.3990097E-1,2.869508E-1,-4.0369794E-2,-2.17566E-2,4.3325465E-2,3.3095326E-2,-1.0512862E-2,1.9731302E-2,-2.0822104E-2],"categories":[],"categories_nodes":[],"categories_segments":[],"categories_sizes":[],"default_left":[0,0,0,0,0,0,0,0,0,0,0],"id":30,"left_children":[1,3,5,7,-1,9,-1,-1,-1,-1,-1],"loss_changes":[1.2610128E0,1.8662837E0,1.0567846E0,7.2320175E-1,0E0,8.556265E-1,0E0,0E0,0E0,0E0,0E0],"parents":[2147483647,0,0,1,1,2,2,3,3,5,5],"right_children":[2,4,6,8,-1,10,-1,-1,-1,-1,-1],"split_conditions":[6.5E-1,4.7E-1,4.65758E1,1.0323898E-3,-4.0369794E-2,3.309667E1,4.3325465E-2,3.3095326E-2,-1.0512862E-2,1.9731302E-2,-2.0822104E-2],"split_indices":[5,5,2,1,0,2,0,0,0,0,0],"split_type":[0,0,0,0,0,0,0,0,0,0,0],"sum_hessian":[9.018345E0,4.568505E0,4.4498396E0,2.1326928E0,2.435812E0,3.2064435E0,1.2433963E0,1.0269786E0,1.1057142E0,1.5604067E0,1.6460367E0],"tree_param":{"num_deleted":"0","num_feature":"6","num_nodes":"11","size_leaf_vector":"1"}},{"base_weights":[4.977868E-5,-3.1707656E-2,1.734171E-1,3.9997834E-1,-2.0473232E-2,2.730656E-2,-9.305166E-3],"categories":[],"categories_nodes":[],"categories_segments":[],"categories_sizes":[],"default_left":[0,0,0,0,0,0,0],"id":31,"left_children":[1,-1,3,5,-1,-1,-1],"loss_changes":[1.2048277E0,0E0,1.3001792E0,6.75761E-1,0E0,0E0,0E0],"parents":[2147483647,0,0,2,2,3,3],"right_children":[2,-1,4,6,-1,-1,-1],"split_conditions":[1.6862476E-3,-3.1707656E-2,1E0,7.3E-1,-2.0473232E-2,2.730656E-2,-9.305166E-3],"split_indices":[0,0,3,5,0,0,0],"split_type":[0,0,0,0,0,0,0],"sum_hessian":[8.957746E0,1.3524456E0,7.6053E0,5.702556E0,1.9027438E0,4.6188946E0,1.0836613E0],"tree_param":{"num_deleted":"0","num_feature":"6","num_nodes":"7","size_leaf_vector":"1"}},{"base_weights":[-3.5467898E-3,-3.3372056E-1,3.308291E-1,2.758647E-1,-3.998883E-2,-1.9312005E-2,4.1766714E-2,3.178519E-2,-1.0312042E-2,2.032074E-2,-1.9373268E-2],"categories":[],"categories_nodes":[],"categories_segments":[],"categories_sizes":[],"default_left":[0,0,0,0,0,0,0,0,0,0,0],"id":32,"left_children":[1,3,5,7,-1,9,-1,-1,-1,-1,-1],"loss_changes":[1.2074116E0,1.7824674E0,9.769194E-1,6.733196E-1,0E0,8.138823E-1,0E0,0E0,0E0,0E0,0E0],"parents":[2147483647,0,0,1,1,2,2,3,3,5,5],"right_children":[2,4,6,8,-1,10,-1,-1,-1,-1,-1],"split_conditions":[6.5E-1,4.7E-1,4.65758E1,1.0323898E-3,-3.998883E-2,7.2E-1,4.1766714E-2,3.178519E-2,-1.0312042E-2,2.032074E-2,-1.9373268E-2],"split_indices":[5,5,2,1,0,5,0,0,0,0,0],"split_type":[0,0,0,0,0,0,0,0,0,0,0],"sum_hessian":[8.936466E0,4.4974732E0,4.4389935E0,2.125491E0,2.371982E0,3.1880887E0,1.2509046E0,1.0346435E0,1.0908474E0,1.4302464E0,1.7578424E0],"tree_param":{"num_deleted":"0","num_feature":"6","num_nodes":"11","size_leaf_vector":"1"}},{"base_weights":[-1.1641714E-3,-3.1257283E-2,1.6748004E-1,3.817312E-1,-1.9742895E-2,5.4780365E-4,3.214882E-2],"categories":[],"categories_nodes":[],"categories_segments":[],"categories_sizes":[],"default_left":[0,0,0,0,0,0,0],"id":33,"left_children":[1,-1,3,5,-1,-1,-1],"loss_changes":[1.1429603E0,0E0,1.1815631E0,6.423186E-1,0E0,0E0,0E0],"parents":[2147483647,0,0,2,2,3,3],"right_children":[2,-1,4,6,-1,-1,-1],"split_conditions":[1.6862476E-3,-3.1257283E-2,1E0,6.1E-1,-1.9742895E-2,5.4780365E-4,3.214882E-2],"split_indices":[0,0,3,5,0,0,0],"split_type":[0,0,0,0,0,0,0],"sum_hessian":[8.866505E0,1.3105596E0,7.5559454E0,5.703919E0,1.8520262E0,2.7883952E0,2.9155238E0],"tree_param":{"num_deleted":"0","num_feature":"6","num_nodes":"7","size_leaf_vector":"1"}},{"base_weights":[-3.102292E-3,-3.0825516E-2,1.6042557E-1,-5.1117655E-2,3.799667E-2,3.253853E-2,-1.69525E-2],"categories":[],"categories_nodes":[],"categories_segments":[],"categories_sizes":[],"default_left":[0,0,0,0,0,0,0],"id":34,"left_children":[1,-1,3,5,-1,-1,-1],"loss_changes":[1.0858213E0,0E0,1.1246204E0,1.6889445E0,0E0,0E0,0E0],"parents":[2147483647,0,0,2,2,3,3],"right_children":[2,-1,4,6,-1,-1,-1],"split_conditions":[1.6862476E-3,-3.0825516E-2,4.4952045E1,4.7E-1,3.799667E-2,3.253853E-2,-1.69525E-2],"split_indices":[0,0,2,5,0,0,0],"split_type":[0,0,0,0,0,0,0],"sum_hessian":[8.83874E0,1.2773226E0,7.561417E0,6.2653503E0,1.2960671E0,1.4559798E0,4.8093705E0],"tree_param":{"num_deleted":"0","num_feature":"6","num_nodes":"7","size_leaf_vector":"1"}},{"base_weights":[-7.717833E-4,-3.2219312E-1,3.1857142E-1,2.638144E-1,-3.9171398E-2,-1.2927637E-2,3.9376386E-2,3.0090792E-2,-9.941441E-3,1.9920282E-2,-2.0442383E-2],"categories":[],"categories_nodes":[],"categories_segments":[],"categories_sizes":[],"default_left":[0,0,0,0,0,0,0,0,0,0,0],"id":35,"left_children":[1,3,5,7,-1,9,-1,-1,-1,-1,-1],"loss_changes":[1.106084E0,1.6579345E0,8.506935E-1,6.064321E-1,0E0,8.389653E-1,0E0,0E0,0E0,0E0,0E0],"parents":[2147483647,0,0,1,1,2,2,3,3,5,5],"right_children":[2,4,6,8,-1,10,-1,-1,-1,-1,-1],"split_conditions":[6.5E-1,4.7E-1,4.65758E1,1.0323898E-3,-3.9171398E-2,3.309667E1,3.9376386E-2,3.0090792E-2,-9.941441E-3,1.9920282E-2,-2.0442383E-2],"split_indices":[5,5,2,1,0,2,0,0,0,0,0],"split_type":[0,0,0,0,0,0,0,0,0,0,0],"sum_hessian":[8.775975E0,4.369309E0,4.4066668E0,2.1128805E0,2.2564285E0,3.1514094E0,1.2552571E0,1.0470779E0,1.0658026E0,1.54254E0,1.6088696E0],"tree_param":{"num_deleted":"0","num_feature":"6","num_nodes":"11","size_leaf_vector":"1"}},{"base_weights":[1.0962993E-3,-3.0346815E-2,1.6125293E-1,3.6590025E-1,-1.914646E-2,2.5431698E-2,-9.68058E-3],"categories":[],"categories_nodes":[],"categories_segments":[],"categories_sizes":[],"default_left":[0,0,0,0,0,0,0],"id":36,"left_children":[1,-1,3,5,-1,-1,-1],"loss_changes":[1.0440904E0,0E0,1.084606E0,6.315204E-1,0E0,0E0,0E0],"parents":[2147483647,0,0,2,2,3,3],"right_children":[2,-1,4,6,-1,-1,-1],"split_conditions":[1.6862476E-3,-3.0346815E-2,1E0,7.3E-1,-1.914646E-2,2.5431698E-2,-9.68058E-3],"split_indices":[0,0,3,5,0,0,0],"split_type":[0,0,0,0,0,0,0],"sum_hessian":[8.716735E0,1.2357155E0,7.4810195E0,5.6746154E0,1.8064041E0,4.5936813E0,1.080934E0],"tree_param":{"num_deleted":"0","num_feature":"6","num_nodes":"7","size_leaf_vector":"1"}},{"base_weights":[-2.5666638E-3,-3.1999144E-1,3.1017002E-1,2.5311014E-1,-3.8803704E-2,-1.1088022E-2,3.8061243E-2,2.8935015E-2,-9.778992E-3,1.9380677E-2,-2.00169E-2],"categories":[],"categories_nodes":[],"categories_segments":[],"categories_sizes":[],"default_left":[0,0,0,0,0,0,0,0,0,0,0],"id":37,"left_children":[1,3,5,7,-1,9,-1,-1,-1,-1,-1],"loss_changes":[1.0616853E0,1.582717E0,7.896803E-1,5.666996E-1,0E0,7.968105E-1,0E0,0E0,0E0,0E0,0E0],"parents":[2147483647,0,0,1,1,2,2,3,3,5,5],"right_children":[2,4,6,8,-1,10,-1,-1,-1,-1,-1],"split_conditions":[6.5E-1,4.7E-1,4.65758E1,1.0323898E-3,-3.8803704E-2,3.309667E1,3.8061243E-2,2.8935015E-2,-9.778992E-3,1.9380677E-2,-2.00169E-2],"split_indices":[5,5,2,1,0,2,0,0,0,0,0],"split_type":[0,0,0,0,0,0,0,0,0,0,0],"sum_hessian":[8.695073E0,4.3036804E0,4.3913927E0,2.1043913E0,2.1992893E0,3.1343846E0,1.257008E0,1.051569E0,1.0528222E0,1.5504704E0,1.5839142E0],"tree_param":{"num_deleted":"0","num_feature":"6","num_nodes":"11","size_leaf_vector":"1"}},{"base_weights":[-8.0434565E-4,-3.1180057E-1,3.0115846E-1,2.465705E-1,-3.827407E-2,-1.0775216E-2,3.6877345E-2,2.8107265E-2,-9.556504E-3,1.8661855E-2,-1.9545807E-2],"categories":[],"categories_nodes":[],"categories_segments":[],"categories_sizes":[],"default_left":[0,0,0,0,0,0,0,0,0,0,0],"id":38,"left_children":[1,3,5,7,-1,9,-1,-1,-1,-1,-1],"loss_changes":[9.9881655E-1,1.5157337E0,7.4270713E-1,5.362729E-1,0E0,7.492799E-1,0E0,0E0,0E0,0E0,0E0],"parents":[2147483647,0,0,1,1,2,2,3,3,5,5],"right_children":[2,4,6,8,-1,10,-1,-1,-1,-1,-1],"split_conditions":[6.5E-1,4.7E-1,4.65758E1,1.0323898E-3,-3.827407E-2,3.309667E1,3.6877345E-2,2.8107265E-2,-9.556504E-3,1.8661855E-2,-1.9545807E-2],"split_indices":[5,5,2,1,0,2,0,0,0,0,0],"split_type":[0,0,0,0,0,0,0,0,0,0,0],"sum_hessian":[8.636056E0,4.2383423E0,4.397714E0,2.1046004E0,2.1337416E0,3.1333098E0,1.2644045E0,1.057701E0,1.0468996E0,1.5677525E0,1.5655572E0],"tree_param":{"num_deleted":"0","num_feature":"6","num_nodes":"11","size_leaf_vector":"1"}},{"base_weights":[7.4441376E-4,-2.984484E-2,1.56509E-1,3.5623676E-1,-1.8816425E-2,2.484683E-2,-9.620349E-3],"categories":[],"categories_nodes":[],"categories_segments":[],"categories_sizes":[],"default_left":[0,0,0,0,0,0,0],"id":39,"left_children":[1,-1,3,5,-1,-1,-1],"loss_changes":[9.850506E-1,0E0,1.0269523E0,6.063528E-1,0E0,0E0,0E0],"parents":[2147483647,0,0,2,2,3,3],"right_children":[2,-1,4,6,-1,-1,-1],"split_conditions":[1.6862476E-3,-2.984484E-2,1E0,7.3E-1,-1.8816425E-2,2.484683E-2,-9.620349E-3],"split_indices":[0,0,3,5,0,0,0],"split_type":[0,0,0,0,0,0,0],"sum_hessian":[8.578023E0,1.1879654E0,7.390057E0,5.616292E0,1.7737651E0,4.5449767E0,1.0713153E0],"tree_param":{"num_deleted":"0","num_feature":"6","num_nodes":"7","size_leaf_vector":"1"}},{"base_weights":[-2.9113875E-3,-3.1018528E-1,2.932838E-1,2.3624665E-1,-3.7918936E-2,-9.2057735E-3,3.569335E-2,2.7042313E-2,-9.4125485E-3,1.8172232E-2,-1.9146053E-2],"categories":[],"categories_nodes":[],"categories_segments":[],"categories_sizes":[],"default_left":[0,0,0,0,0,0,0,0,0,0,0],"id":40,"left_children":[1,3,5,7,-1,9,-1,-1,-1,-1,-1],"loss_changes":[9.6068054E-1,1.4468563E0,6.9098175E-1,5.019984E-1,0E0,7.1244186E-1,0E0,0E0,0E0,0E0,0E0],"parents":[2147483647,0,0,1,1,2,2,3,3,5,5],"right_children":[2,4,6,8,-1,10,-1,-1,-1,-1,-1],"split_conditions":[6.5E-1,4.7E-1,4.65758E1,1.0323898E-3,-3.7918936E-2,3.309667E1,3.569335E-2,2.7042313E-2,-9.4125485E-3,1.8172232E-2,-1.9146053E-2],"split_indices":[5,5,2,1,0,2,0,0,0,0,0],"split_type":[0,0,0,0,0,0,0,0,0,0,0],"sum_hessian":[8.555863E0,4.1762133E0,4.3796506E0,2.0949576E0,2.0812554E0,3.1164014E0,1.2632492E0,1.0601548E0,1.0348029E0,1.5741847E0,1.5422168E0],"tree_param":{"num_deleted":"0","num_feature":"6","num_nodes":"11","size_leaf_vector":"1"}},{"base_weights":[-1.4393936E-3,-2.9402986E-2,1.4992811E-1,3.4311655E-1,-1.8449182E-2,2.3985768E-2,-9.483888E-3],"categories":[],"categories_nodes":[],"categories_segments":[],"categories_sizes":[],"default_left":[0,0,0,0,0,0,0],"id":41,"left_children":[1,-1,3,5,-1,-1,-1],"loss_changes":[9.3156034E-1,0E0,9.6335924E-1,5.71375E-1,0E0,0E0,0E0],"parents":[2147483647,0,0,2,2,3,3],"right_children":[2,-1,4,6,-1,-1,-1],"split_conditions":[1.6862476E-3,-2.9402986E-2,1E0,7.3E-1,-1.8449182E-2,2.3985768E-2,-9.483888E-3],"split_indices":[0,0,3,5,0,0,0],"split_type":[0,0,0,0,0,0,0],"sum_hessian":[8.498184E0,1.1513153E0,7.3468685E0,5.6005764E0,1.7462921E0,4.5369964E0,1.0635799E0],"tree_param":{"num_deleted":"0","num_feature":"6","num_nodes":"7","size_leaf_vector":"1"}},{"base_weights":[-5.0034267E-3,-3.0867618E-1,2.8572053E-1,2.2628771E-1,-3.756634E-2,-7.771561E-3,3.457887E-2,2.6033817E-2,-9.275845E-3,1.8815976E-2,-1.776052E-2],"categories":[],"categories_nodes":[],"categories_segments":[],"categories_sizes":[],"default_left":[0,0,0,0,0,0,0,0,0,0,0],"id":42,"left_children":[1,3,5,7,-1,9,-1,-1,-1,-1,-1],"loss_changes":[9.2474926E-1,1.3813266E0,6.4387465E-1,4.705498E-1,0E0,6.807668E-1,0E0,0E0,0E0,0E0,0E0],"parents":[2147483647,0,0,1,1,2,2,3,3,5,5],"right_children":[2,4,6,8,-1,10,-1,-1,-1,-1,-1],"split_conditions":[6.5E-1,4.7E-1,4.65758E1,1.0323898E-3,-3.756634E-2,7.2E-1,3.457887E-2,2.6033817E-2,-9.275845E-3,1.8815976E-2,-1.776052E-2],"split_indices":[5,5,2,1,0,5,0,0,0,0,0],"split_type":[0,0,0,0,0,0,0,0,0,0,0],"sum_hessian":[8.4756155E0,4.115286E0,4.3603296E0,2.084663E0,2.0306227E0,3.099676E0,1.2606537E0,1.0614688E0,1.0231941E0,1.4327058E0,1.66697E0],"tree_param":{"num_deleted":"0","num_feature":"6","num_nodes":"11","size_leaf_vector":"1"}},{"base_weights":[-3.3779894E-3,-2.901407E-2,1.445041E-1,-2.0197026E-1,4.352393E-1,2.0960826E-2,-3.6128156E-2,3.8033985E-2,-3.981539E-3],"categories":[],"categories_nodes":[],"categories_segments":[],"categories_sizes":[],"default_left":[0,0,0,0,0,0,0,0,0],"id":43,"left_children":[1,-1,3,5,7,-1,-1,-1,-1],"loss_changes":[8.865895E-1,0E0,9.2298025E-1,1.7469811E0,8.689748E-1,0E0,0E0,0E0,0E0],"parents":[2147483647,0,0,2,2,3,3,4,4],"right_children":[2,-1,4,6,8,-1,-1,-1,-1],"split_conditions":[1.6862476E-3,-2.901407E-2,6.5E-1,4.7E-1,8.835161E-1,2.0960826E-2,-3.6128156E-2,3.8033985E-2,-3.981539E-3],"split_indices":[0,0,5,5,0,0,0,0,0],"split_type":[0,0,0,0,0,0,0,0,0],"sum_hessian":[8.409236E0,1.1191947E0,7.2900414E0,3.4654794E0,3.824562E0,1.6688685E0,1.7966108E0,2.0508409E0,1.7737213E0],"tree_param":{"num_deleted":"0","num_feature":"6","num_nodes":"9","size_leaf_vector":"1"}},{"base_weights":[-4.4902624E-3,-2.8616352E-2,1.3995765E-1,-1.9737582E-1,4.1962123E-1,2.0246547E-2,-3.5623852E-2,3.658085E-2,-3.8604604E-3],"categories":[],"categories_nodes":[],"categories_segments":[],"categories_sizes":[],"default_left":[0,0,0,0,0,0,0,0,0],"id":44,"left_children":[1,-1,3,5,7,-1,-1,-1,-1],"loss_changes":[8.469991E-1,0E0,8.618081E-1,1.6606779E0,8.058634E-1,0E0,0E0,0E0,0E0],"parents":[2147483647,0,0,2,2,3,3,4,4],"right_children":[2,-1,4,6,8,-1,-1,-1,-1],"split_conditions":[1.6862476E-3,-2.8616352E-2,6.5E-1,4.7E-1,8.835161E-1,2.0246547E-2,-3.5623852E-2,3.658085E-2,-3.8604604E-3],"split_indices":[0,0,5,5,0,0,0,0,0],"split_type":[0,0,0,0,0,0,0,0,0],"sum_hessian":[8.349805E0,1.0925869E0,7.2572184E0,3.422816E0,3.8344023E0,1.6764396E0,1.7463765E0,2.0650434E0,1.7693589E0],"tree_param":{"num_deleted":"0","num_feature":"6","num_nodes":"9","size_leaf_vector":"1"}},{"base_weights":[-5.6732693E-3,-2.8225362E-2,1.3545641E-1,3.149415E-1,-1.7611256E-2,2.256368E-2,-9.967765E-3],"categories":[],"categories_nodes":[],"categories_segments":[],"categories_sizes":[],"default_left":[0,0,0,0,0,0,0],"id":45,"left_children":[1,-1,3,5,-1,-1,-1],"loss_changes":[8.0924183E-1,0E0,8.308175E-1,5.484961E-1,0E0,0E0,0E0],"parents":[2147483647,0,0,2,2,3,3],"right_children":[2,-1,4,6,-1,-1,-1],"split_conditions":[1.6862476E-3,-2.8225362E-2,1E0,7.3E-1,-1.7611256E-2,2.256368E-2,-9.967765E-3],"split_indices":[0,0,3,5,0,0,0],"split_type":[0,0,0,0,0,0,0],"sum_hessian":[8.291159E0,1.0668428E0,7.224316E0,5.5397043E0,1.6846119E0,4.4757857E0,1.0639188E0],"tree_param":{"num_deleted":"0","num_feature":"6","num_nodes":"7","size_leaf_vector":"1"}},{"base_weights":[-9.087521E-3,-2.9605925E-1,2.5886524E-1,2.0210078E-1,-3.6244504E-2,-1.923187E-2,3.2531958E-2,2.3951164E-2,-9.261125E-3,1.793167E-2,-1.9681323E-2],"categories":[],"categories_nodes":[],"categories_segments":[],"categories_sizes":[],"default_left":[0,0,0,0,0,0,0,0,0,0,0],"id":46,"left_children":[1,3,5,7,-1,9,-1,-1,-1,-1,-1],"loss_changes":[7.892638E-1,1.2021209E0,5.927961E-1,4.1778582E-1,0E0,7.1925217E-1,0E0,0E0,0E0,0E0,0E0],"parents":[2147483647,0,0,1,1,2,2,3,3,5,5],"right_children":[2,4,6,8,-1,10,-1,-1,-1,-1,-1],"split_conditions":[6.5E-1,4.7E-1,4.65758E1,1.0323898E-3,-3.6244504E-2,3.309667E1,3.2531958E-2,2.3951164E-2,-9.261125E-3,1.793167E-2,-1.9681323E-2],"split_indices":[5,5,2,1,0,2,0,0,0,0,0],"split_type":[0,0,0,0,0,0,0,0,0,0,0],"sum_hessian":[8.267515E0,3.9414318E0,4.326083E0,2.067914E0,1.8735176E0,3.0862489E0,1.2398344E0,1.0677543E0,1.0001597E0,1.5569566E0,1.5292921E0],"tree_param":{"num_deleted":"0","num_feature":"6","num_nodes":"11","size_leaf_vector":"1"}},{"base_weights":[-7.833484E-3,-2.7813373E-2,1.2965176E-1,-1.9550261E-1,3.9569494E-1,1.8711787E-2,-3.4820378E-2,3.464441E-2,-3.8415024E-3],"categories":[],"categories_nodes":[],"categories_segments":[],"categories_sizes":[],"default_left":[0,0,0,0,0,0,0,0,0],"id":47,"left_children":[1,-1,3,5,7,-1,-1,-1,-1],"loss_changes":[7.667522E-1,0E0,7.847004E-1,1.5017481E0,7.3122376E-1,0E0,0E0,0E0,0E0],"parents":[2147483647,0,0,2,2,3,3,4,4],"right_children":[2,-1,4,6,8,-1,-1,-1,-1],"split_conditions":[1.6862476E-3,-2.7813373E-2,6.5E-1,4.7E-1,8.835161E-1,1.8711787E-2,-3.4820378E-2,3.464441E-2,-3.8415024E-3],"split_indices":[0,0,5,5,0,0,0,0,0],"split_type":[0,0,0,0,0,0,0,0,0],"sum_hessian":[8.212421E0,1.0355513E0,7.17687E0,3.3489618E0,3.8279083E0,1.685137E0,1.6638247E0,2.0636373E0,1.764271E0],"tree_param":{"num_deleted":"0","num_feature":"6","num_nodes":"9","size_leaf_vector":"1"}},{"base_weights":[-9.071857E-3,-2.7435524E-2,1.2535268E-1,2.9795402E-1,-1.7210765E-2,2.168007E-2,-1.0189097E-2],"categories":[],"categories_nodes":[],"categories_segments":[],"categories_sizes":[],"default_left":[0,0,0,0,0,0,0],"id":48,"left_children":[1,-1,3,5,-1,-1,-1],"loss_changes":[7.328944E-1,0E0,7.6256144E-1,5.3010476E-1,0E0,0E0,0E0],"parents":[2147483647,0,0,2,2,3,3],"right_children":[2,-1,4,6,-1,-1,-1],"split_conditions":[1.6862476E-3,-2.7435524E-2,1E0,7.3E-1,-1.7210765E-2,2.168007E-2,-1.0189097E-2],"split_indices":[0,0,3,5,0,0,0],"split_type":[0,0,0,0,0,0,0],"sum_hessian":[8.155032E0,1.0117011E0,7.1433306E0,5.4905977E0,1.6527331E0,4.428991E0,1.0616069E0],"tree_param":{"num_deleted":"0","num_feature":"6","num_nodes":"7","size_leaf_vector":"1"}},{"base_weights":[-1.2360551E-2,-2.8995275E-1,2.4321035E-1,9.313637E-3,-3.543432E-2,-2.3906535E-2,3.1158492E-2,1.74183E-2,-1.966455E-2],"categories":[],"categories_nodes":[],"categories_segments":[],"categories_sizes":[],"default_left":[0,0,0,0,0,0,0,0,0],"id":49,"left_children":[1,3,5,-1,-1,7,-1,-1,-1],"loss_changes":[7.1830744E-1,1.0957761E0,5.5259657E-1,0E0,0E0,6.972218E-1,0E0,0E0,0E0],"parents":[2147483647,0,0,1,1,2,2,5,5],"right_children":[2,4,6,-1,-1,8,-1,-1,-1],"split_conditions":[6.5E-1,4.7E-1,4.65758E1,9.313637E-3,-3.543432E-2,3.309667E1,3.1158492E-2,1.74183E-2,-1.966455E-2],"split_indices":[5,5,2,0,0,2,0,0,0],"split_type":[0,0,0,0,0,0,0,0,0],"sum_hessian":[8.130914E0,3.8330543E0,4.297859E0,2.053155E0,1.7798994E0,3.073927E0,1.2239325E0,1.5593182E0,1.5146086E0],"tree_param":{"num_deleted":"0","num_feature":"6","num_nodes":"9","size_leaf_vector":"1"}},{"base_weights":[-1.1630006E-2,-2.8367433E-1,2.3648182E-1,-3.5924807E-2,1.6656248E-1,-2.3344794E-2,3.0284092E-2,-1.3848618E-2,2.7524173E-2,1.6789636E-2,-1.9201726E-2],"categories":[],"categories_nodes":[],"categories_segments":[],"categories_sizes":[],"default_left":[0,0,0,0,0,0,0,0,0,0,0],"id":50,"left_children":[1,3,5,-1,7,9,-1,-1,-1,-1,-1],"loss_changes":[6.8033063E-1,1.0571065E0,5.222816E-1,0E0,6.912915E-1,6.564278E-1,0E0,0E0,0E0,0E0,0E0],"parents":[2147483647,0,0,1,1,2,2,4,4,5,5],"right_children":[2,4,6,-1,8,10,-1,-1,-1,-1,-1],"split_conditions":[6.5E-1,8.8544047E-1,4.65758E1,-3.5924807E-2,3.7820473E1,3.309667E1,3.0284092E-2,-1.3848618E-2,2.7524173E-2,1.6789636E-2,-1.9201726E-2],"split_indices":[5,0,2,0,2,2,0,0,0,0,0],"split_type":[0,0,0,0,0,0,0,0,0,0,0],"sum_hessian":[8.085486E0,3.7883668E0,4.2971196E0,1.6240764E0,2.1642904E0,3.0719717E0,1.225148E0,1.1334324E0,1.0308582E0,1.5738856E0,1.4980862E0],"tree_param":{"num_deleted":"0","num_feature":"6","num_nodes":"11","size_leaf_vector":"1"}},{"base_weights":[-1.0616151E-2,-2.770158E-1,2.2991763E-1,9.3240775E-3,-3.472727E-2,-2.2848442E-2,2.9438859E-2,1.618561E-2,-1.8749978E-2],"categories":[],"categories_nodes":[],"categories_segments":[],"categories_sizes":[],"default_left":[0,0,0,0,0,0,0,0,0],"id":51,"left_children":[1,3,5,-1,-1,7,-1,-1,-1],"loss_changes":[6.4281464E-1,1.0471835E0,4.9383208E-1,0E0,0E0,6.1809194E-1,0E0,0E0,0E0],"parents":[2147483647,0,0,1,1,2,2,5,5],"right_children":[2,4,6,-1,-1,8,-1,-1,-1],"split_conditions":[6.5E-1,4.7E-1,4.65758E1,9.3240775E-3,-3.472727E-2,3.309667E1,2.9438859E-2,1.618561E-2,-1.8749978E-2],"split_indices":[5,5,2,0,0,2,0,0,0],"split_type":[0,0,0,0,0,0,0,0,0],"sum_hessian":[8.037779E0,3.7418625E0,4.295916E0,2.0355637E0,1.7062988E0,3.06992E0,1.2259963E0,1.5879433E0,1.4819767E0],"tree_param":{"num_deleted":"0","num_feature":"6","num_nodes":"9","size_leaf_vector":"1"}},{"base_weights":[-1.009645E-2,-2.711218E-1,2.2351478E-1,-3.5267197E-2,1.713198E-1,-2.2411034E-2,2.8621376E-2,-1.3206412E-2,2.6937107E-2,1.5605128E-2,-1.8309012E-2],"categories":[],"categories_nodes":[],"categories_segments":[],"categories_sizes":[],"default_left":[0,0,0,0,0,0,0,0,0,0,0],"id":52,"left_children":[1,3,5,-1,7,9,-1,-1,-1,-1,-1],"loss_changes":[6.0903203E-1,1.0237126E0,4.6711406E-1,0E0,6.4344984E-1,5.820622E-1,0E0,0E0,0E0,0E0,0E0],"parents":[2147483647,0,0,1,1,2,2,4,4,5,5],"right_children":[2,4,6,-1,8,10,-1,-1,-1,-1,-1],"split_conditions":[6.5E-1,8.8544047E-1,4.65758E1,-3.5267197E-2,3.7820473E1,3.309667E1,2.8621376E-2,-1.3206412E-2,2.6937107E-2,1.5605128E-2,-1.8309012E-2],"split_indices":[5,0,2,0,2,2,0,0,0,0,0],"split_type":[0,0,0,0,0,0,0,0,0,0,0],"sum_hessian":[7.9938703E0,3.6995795E0,4.294291E0,1.5672436E0,2.132336E0,3.0677812E0,1.2265098E0,1.1044894E0,1.0278465E0,1.6015081E0,1.4662731E0],"tree_param":{"num_deleted":"0","num_feature":"6","num_nodes":"11","size_leaf_vector":"1"}},{"base_weights":[-9.273179E-3,2.018929E-1,-2.8495353E-1,5.028429E-1,-1.6852139E-2,-3.4750793E-2,6.221707E-3,4.2360097E-2,-2.5382661E-3],"categories":[],"categories_nodes":[],"categories_segments":[],"categories_sizes":[],"default_left":[0,0,0,0,0,0,0,0,0],"id":53,"left_children":[1,3,5,7,-1,-1,-1,-1,-1],"loss_changes":[5.7839525E-1,1.0861628E0,8.075969E-1,8.1089497E-1,0E0,0E0,0E0,0E0,0E0],"parents":[2147483647,0,0,1,1,2,2,3,3],"right_children":[2,4,6,8,-1,-1,-1,-1,-1],"split_conditions":[4.0447773E1,1E0,4.65758E1,9.4613254E-1,-1.6852139E-2,-3.4750793E-2,6.221707E-3,4.2360097E-2,-2.5382661E-3],"split_indices":[2,3,2,0,0,0,0,0,0],"split_type":[0,0,0,0,0,0,0,0,0],"sum_hessian":[7.9473677E0,4.651817E0,3.2955503E0,3.0279393E0,1.6238778E0,1.2978578E0,1.9976927E0,1.5398092E0,1.48813E0],"tree_param":{"num_deleted":"0","num_feature":"6","num_nodes":"9","size_leaf_vector":"1"}},{"base_weights":[-9.571817E-3,-2.6828954E-1,2.1989703E-1,8.971435E-3,-3.3959594E-2,4.3489107E-1,-5.8097034E-3,2.9129703E-3,2.9011501E-2],"categories":[],"categories_nodes":[],"categories_segments":[],"categories_sizes":[],"default_left":[0,0,0,0,0,0,0,0,0],"id":54,"left_children":[1,3,5,-1,-1,7,-1,-1,-1],"loss_changes":[5.879853E-1,9.752424E-1,4.31451E-1,0E0,0E0,1.5372717E-1,0E0,0E0,0E0],"parents":[2147483647,0,0,1,1,2,2,5,5],"right_children":[2,4,6,-1,-1,8,-1,-1,-1],"split_conditions":[6.5E-1,4.7E-1,7.3E-1,8.971435E-3,-3.3959594E-2,6.9E-1,-5.8097034E-3,2.9129703E-3,2.9011501E-2],"split_indices":[5,5,5,0,0,5,0,0,0],"split_type":[0,0,0,0,0,0,0,0,0],"sum_hessian":[7.910393E0,3.6387074E0,4.2716856E0,2.0109313E0,1.627776E0,2.4258966E0,1.8457892E0,1.0655304E0,1.3603662E0],"tree_param":{"num_deleted":"0","num_feature":"6","num_nodes":"9","size_leaf_vector":"1"}},{"base_weights":[-9.108765E-3,-2.62699E-1,2.1384105E-1,-3.458762E-2,1.7185749E-1,-2.2824407E-2,2.7443072E-2,-1.2667462E-2,2.6132656E-2,1.5049587E-2,-1.7930131E-2],"categories":[],"categories_nodes":[],"categories_segments":[],"categories_sizes":[],"default_left":[0,0,0,0,0,0,0,0,0,0,0],"id":55,"left_children":[1,3,5,-1,7,9,-1,-1,-1,-1,-1],"loss_changes":[5.576814E-1,9.763003E-1,4.3049753E-1,0E0,5.9267837E-1,5.48221E-1,0E0,0E0,0E0,0E0,0E0],"parents":[2147483647,0,0,1,1,2,2,4,4,5,5],"right_children":[2,4,6,-1,8,10,-1,-1,-1,-1,-1],"split_conditions":[6.5E-1,8.8544047E-1,4.65758E1,-3.458762E-2,3.7820473E1,3.309667E1,2.7443072E-2,-1.2667462E-2,2.6132656E-2,1.5049587E-2,-1.7930131E-2],"split_indices":[5,0,2,0,2,2,0,0,0,0,0],"split_type":[0,0,0,0,0,0,0,0,0,0,0],"sum_hessian":[7.870255E0,3.5986958E0,4.271559E0,1.5129987E0,2.0856972E0,3.0493238E0,1.2222352E0,1.0684243E0,1.017273E0,1.6050516E0,1.4442723E0],"tree_param":{"num_deleted":"0","num_feature":"6","num_nodes":"11","size_leaf_vector":"1"}},{"base_weights":[-8.421439E-3,1.976762E-1,-2.7998483E-1,4.8799136E-1,-1.636248E-2,-3.3939924E-2,5.7970053E-3,4.1008938E-2,-2.4974158E-3],"categories":[],"categories_nodes":[],"categories_segments":[],"categories_sizes":[],"default_left":[0,0,0,0,0,0,0,0,0],"id":56,"left_children":[1,3,5,7,-1,-1,-1,-1,-1],"loss_changes":[5.4925585E-1,1.0136007E0,7.452737E-1,7.5741774E-1,0E0,0E0,0E0,0E0,0E0],"parents":[2147483647,0,0,1,1,2,2,3,3],"right_children":[2,4,6,8,-1,-1,-1,-1,-1],"split_conditions":[4.0447773E1,1E0,4.65758E1,9.4613254E-1,-1.636248E-2,-3.3939924E-2,5.7970053E-3,4.1008938E-2,-2.4974158E-3],"split_indices":[2,3,2,0,0,0,0,0,0],"split_type":[0,0,0,0,0,0,0,0,0],"sum_hessian":[7.8247657E0,4.603279E0,3.2214863E0,3.009312E0,1.5939671E0,1.2489558E0,1.9725306E0,1.5360851E0,1.4732268E0],"tree_param":{"num_deleted":"0","num_feature":"6","num_nodes":"9","size_leaf_vector":"1"}},{"base_weights":[-8.808764E-3,-2.6025945E-1,2.1033676E-1,-3.405529E-2,1.6423102E-1,-1.8650996E-2,2.6532931E-2,-1.2461889E-2,2.5202975E-2,1.5881013E-2,-1.6410684E-2],"categories":[],"categories_nodes":[],"categories_segments":[],"categories_sizes":[],"default_left":[0,0,0,0,0,0,0,0,0,0,0],"id":57,"left_children":[1,3,5,-1,7,9,-1,-1,-1,-1,-1],"loss_changes":[5.389911E-1,9.227756E-1,3.9488125E-1,0E0,5.5636865E-1,5.2341413E-1,0E0,0E0,0E0,0E0,0E0],"parents":[2147483647,0,0,1,1,2,2,4,4,5,5],"right_children":[2,4,6,-1,8,10,-1,-1,-1,-1,-1],"split_conditions":[6.5E-1,8.8544047E-1,4.65758E1,-3.405529E-2,3.7820473E1,7.2E-1,2.6532931E-2,-1.2461889E-2,2.5202975E-2,1.5881013E-2,-1.6410684E-2],"split_indices":[5,0,2,0,2,5,0,0,0,0,0],"split_type":[0,0,0,0,0,0,0,0,0,0,0],"sum_hessian":[7.7878613E0,3.5392573E0,4.2486043E0,1.4736915E0,2.0655658E0,3.026693E0,1.2219111E0,1.0520798E0,1.013486E0,1.4382855E0,1.5884076E0],"tree_param":{"num_deleted":"0","num_feature":"6","num_nodes":"11","size_leaf_vector":"1"}},{"base_weights":[-7.990667E-3,1.940279E-1,-2.7574858E-1,4.704558E-1,-1.570092E-2,-3.3327542E-2,5.517719E-3,3.9587904E-2,-2.5335688E-3],"categories":[],"categories_nodes":[],"categories_segments":[],"categories_sizes":[],"default_left":[0,0,0,0,0,0,0,0,0],"id":58,"left_children":[1,3,5,7,-1,-1,-1,-1,-1],"loss_changes":[5.2596134E-1,9.2930925E-1,7.026259E-1,7.1063244E-1,0E0,0E0,0E0,0E0,0E0],"parents":[2147483647,0,0,1,1,2,2,3,3],"right_children":[2,4,6,8,-1,-1,-1,-1,-1],"split_conditions":[4.0447773E1,1E0,4.65758E1,9.4613254E-1,-1.570092E-2,-3.3327542E-2,5.517719E-3,3.9587904E-2,-2.5335688E-3],"split_indices":[2,3,2,0,0,0,0,0,0],"split_type":[0,0,0,0,0,0,0,0,0],"sum_hessian":[7.7343388E0,4.565278E0,3.1690602E0,3.0045133E0,1.5607649E0,1.2139649E0,1.9550954E0,1.5373425E0,1.4671707E0],"tree_param":{"num_deleted":"0","num_feature":"6","num_nodes":"9","size_leaf_vector":"1"}},{"base_weights":[-8.450639E-3,-2.5799018E-1,2.0748684E-1,8.617596E-3,-3.2945972E-2,-1.4380674E-2,2.565944E-2,1.4970555E-2,-1.7279316E-2],"categories":[],"categories_nodes":[],"categories_segments":[],"categories_sizes":[],"default_left":[0,0,0,0,0,0,0,0,0],"id":59,"left_children":[1,3,5,-1,-1,7,-1,-1,-1],"loss_changes":[5.2220213E-1,8.866415E-1,3.612256E-1,0E0,0E0,5.187497E-1,0E0,0E0,0E0],"parents":[2147483647,0,0,1,1,2,2,5,5],"right_children":[2,4,6,-1,-1,8,-1,-1,-1],"split_conditions":[6.5E-1,4.7E-1,4.65758E1,8.617596E-3,-3.2945972E-2,3.309667E1,2.565944E-2,1.4970555E-2,-1.7279316E-2],"split_indices":[5,5,2,0,0,2,0,0,0],"split_type":[0,0,0,0,0,0,0,0,0],"sum_hessian":[7.697655E0,3.4806437E0,4.217012E0,1.9537171E0,1.5269265E0,2.995757E0,1.2212547E0,1.5876129E0,1.4081442E0],"tree_param":{"num_deleted":"0","num_feature":"6","num_nodes":"9","size_leaf_vector":"1"}},{"base_weights":[-8.282832E-3,1.9076835E-1,-2.7316558E-1,4.6056417E-1,-1.5390384E-2,-3.2559376E-2,4.8545143E-3,3.8479593E-2,-2.307838E-3],"categories":[],"categories_nodes":[],"categories_segments":[],"categories_sizes":[],"default_left":[0,0,0,0,0,0,0,0,0],"id":60,"left_children":[1,3,5,7,-1,-1,-1,-1,-1],"loss_changes":[5.086003E-1,8.858973E-1,6.407006E-1,6.6034675E-1,0E0,0E0,0E0,0E0,0E0],"parents":[2147483647,0,0,1,1,2,2,3,3],"right_children":[2,4,6,8,-1,-1,-1,-1,-1],"split_conditions":[4.0447773E1,1E0,4.65758E1,9.4613254E-1,-1.5390384E-2,-3.2559376E-2,4.8545143E-3,3.8479593E-2,-2.307838E-3],"split_indices":[2,3,2,0,0,0,0,0,0],"split_type":[0,0,0,0,0,0,0,0,0],"sum_hessian":[7.6578856E0,4.5320163E0,3.125869E0,2.9901755E0,1.541841E0,1.1712759E0,1.9545932E0,1.5351708E0,1.4550046E0],"tree_param":{"num_deleted":"0","num_feature":"6","num_nodes":"9","size_leaf_vector":"1"}},{"base_weights":[-8.783342E-3,-1.4232059E-1,1.9304182E-2,9.2382155E-2,-2.6709963E-2,2.8827364E-2,-1.1459529E-2],"categories":[],"categories_nodes":[],"categories_segments":[],"categories_sizes":[],"default_left":[0,0,0,0,0,0,0],"id":61,"left_children":[1,3,-1,5,-1,-1,-1],"loss_changes":[5.095601E-1,7.0912665E-1,0E0,9.6338993E-1,0E0,0E0,0E0],"parents":[2147483647,0,0,1,1,3,3],"right_children":[2,4,-1,6,-1,-1,-1],"split_conditions":[9.769241E-1,8.9546496E-1,1.9304182E-2,4.0447773E1,-2.6709963E-2,2.8827364E-2,-1.1459529E-2],"split_indices":[0,0,0,2,0,0,0],"split_type":[0,0,0,0,0,0,0],"sum_hessian":[7.6216054E0,6.1734304E0,1.4481751E0,4.3389926E0,1.8344376E0,1.4152583E0,2.9237342E0],"tree_param":{"num_deleted":"0","num_feature":"6","num_nodes":"7","size_leaf_vector":"1"}},{"base_weights":[-7.2880066E-3,-2.5752848E-1,2.0748566E-1,-3.3377744E-2,7.981406E-3,-1.0404997E-2,2.514194E-2,1.4476913E-2,-1.6613504E-2],"categories":[],"categories_nodes":[],"categories_segments":[],"categories_sizes":[],"default_left":[0,0,0,0,0,0,0,0,0],"id":62,"left_children":[1,3,5,-1,-1,7,-1,-1,-1],"loss_changes":[5.1577836E-1,8.6247957E-1,3.3879182E-1,0E0,0E0,4.7874376E-1,0E0,0E0,0E0],"parents":[2147483647,0,0,1,1,2,2,5,5],"right_children":[2,4,6,-1,-1,8,-1,-1,-1],"split_conditions":[6.5E-1,8.8544047E-1,4.65758E1,-3.3377744E-2,7.981406E-3,3.309667E1,2.514194E-2,1.4476913E-2,-1.6613504E-2],"split_indices":[5,0,2,0,0,2,0,0,0],"split_type":[0,0,0,0,0,0,0,0,0],"sum_hessian":[7.602556E0,3.41941E0,4.183146E0,1.4217304E0,1.9976796E0,2.962439E0,1.2207069E0,1.5854284E0,1.3770108E0],"tree_param":{"num_deleted":"0","num_feature":"6","num_nodes":"9","size_leaf_vector":"1"}},{"base_weights":[-7.324087E-3,-2.5231138E-1,2.0161752E-1,8.3243465E-3,-3.2305554E-2,3.8969377E-1,-5.0005927E-3,1.0648201E-3,2.7331863E-2],"categories":[],"categories_nodes":[],"categories_segments":[],"categories_sizes":[],"default_left":[0,0,0,0,0,0,0,0,0],"id":63,"left_children":[1,3,5,-1,-1,7,-1,-1,-1],"loss_changes":[4.8949566E-1,8.313141E-1,3.3286083E-1,0E0,0E0,1.8465573E-1,0E0,0E0,0E0],"parents":[2147483647,0,0,1,1,2,2,5,5],"right_children":[2,4,6,-1,-1,8,-1,-1,-1],"split_conditions":[6.5E-1,4.7E-1,7.3E-1,8.3243465E-3,-3.2305554E-2,6.9E-1,-5.0005927E-3,1.0648201E-3,2.7331863E-2],"split_indices":[5,5,5,0,0,5,0,0,0],"split_type":[0,0,0,0,0,0,0,0,0],"sum_hessian":[7.5689006E0,3.3883905E0,4.18051E0,1.9218112E0,1.4665794E0,2.3951128E0,1.7853973E0,1.0548146E0,1.3402982E0],"tree_param":{"num_deleted":"0","num_feature":"6","num_nodes":"9","size_leaf_vector":"1"}},{"base_weights":[-7.141898E-3,-2.4730709E-1,1.960753E-1,-3.2784596E-2,8.061423E-3,-1.515615E-2,2.4280729E-2,1.3829392E-2,-1.644577E-2],"categories":[],"categories_nodes":[],"categories_segments":[],"categories_sizes":[],"default_left":[0,0,0,0,0,0,0,0,0],"id":64,"left_children":[1,3,5,-1,-1,7,-1,-1,-1],"loss_changes":[4.649253E-1,8.319627E-1,3.2413954E-1,0E0,0E0,4.5387188E-1,0E0,0E0,0E0],"parents":[2147483647,0,0,1,1,2,2,5,5],"right_children":[2,4,6,-1,-1,8,-1,-1,-1],"split_conditions":[6.5E-1,8.8544047E-1,4.65758E1,-3.2784596E-2,8.061423E-3,3.309667E1,2.4280729E-2,1.3829392E-2,-1.644577E-2],"split_indices":[5,0,2,0,0,2,0,0,0],"split_type":[0,0,0,0,0,0,0,0,0],"sum_hessian":[7.532497E0,3.3529592E0,4.179538E0,1.3742423E0,1.9787167E0,2.9644773E0,1.2150605E0,1.5975201E0,1.3669572E0],"tree_param":{"num_deleted":"0","num_feature":"6","num_nodes":"9","size_leaf_vector":"1"}},{"base_weights":[-7.259985E-3,-1.350159E-1,1.7971797E-2,9.9443726E-2,-2.6209844E-2,2.8537065E-2,-1.1048814E-2],"categories":[],"categories_nodes":[],"categories_segments":[],"categories_sizes":[],"default_left":[0,0,0,0,0,0,0],"id":65,"left_children":[1,3,-1,5,-1,-1,-1],"loss_changes":[4.4672126E-1,6.9364315E-1,0E0,9.1560423E-1,0E0,0E0,0E0],"parents":[2147483647,0,0,1,1,3,3],"right_children":[2,4,-1,6,-1,-1,-1],"split_conditions":[9.769241E-1,8.9546496E-1,1.7971797E-2,4.0447773E1,-2.6209844E-2,2.8537065E-2,-1.1048814E-2],"split_indices":[0,0,0,2,0,0,0],"split_type":[0,0,0,0,0,0,0],"sum_hessian":[7.4997287E0,6.0305166E0,1.4692123E0,4.227915E0,1.8026016E0,1.3949258E0,2.8329892E0],"tree_param":{"num_deleted":"0","num_feature":"6","num_nodes":"7","size_leaf_vector":"1"}},{"base_weights":[-5.8990526E-3,-2.4364898E-1,1.9391729E-1,8.333712E-3,-3.17521E-2,-1.4695256E-2,2.392432E-2,1.4750503E-2,-1.5285226E-2],"categories":[],"categories_nodes":[],"categories_segments":[],"categories_sizes":[],"default_left":[0,0,0,0,0,0,0,0,0],"id":66,"left_children":[1,3,5,-1,-1,7,-1,-1,-1],"loss_changes":[4.501347E-1,7.989715E-1,3.1363717E-1,0E0,0E0,4.4621667E-1,0E0,0E0,0E0],"parents":[2147483647,0,0,1,1,2,2,5,5],"right_children":[2,4,6,-1,-1,8,-1,-1,-1],"split_conditions":[6.5E-1,4.7E-1,4.65758E1,8.333712E-3,-3.17521E-2,7.2E-1,2.392432E-2,1.4750503E-2,-1.5285226E-2],"split_indices":[5,5,2,0,0,5,0,0,0],"split_type":[0,0,0,0,0,0,0,0,0],"sum_hessian":[7.4807024E0,3.3159182E0,4.1647844E0,1.8991082E0,1.4168099E0,2.950318E0,1.2144663E0,1.4225874E0,1.5277306E0],"tree_param":{"num_deleted":"0","num_feature":"6","num_nodes":"9","size_leaf_vector":"1"}},{"base_weights":[-5.730321E-3,1.7944178E-1,-2.5783715E-1,4.3889266E-1,-1.4925808E-2,-3.1124387E-2,4.713736E-3,3.6608953E-2,-2.3001223E-3],"categories":[],"categories_nodes":[],"categories_segments":[],"categories_sizes":[],"default_left":[0,0,0,0,0,0,0,0,0],"id":67,"left_children":[1,3,5,7,-1,-1,-1,-1,-1],"loss_changes":[4.4004995E-1,8.072059E-1,5.7001376E-1,5.9387815E-1,0E0,0E0,0E0,0E0,0E0],"parents":[2147483647,0,0,1,1,2,2,3,3],"right_children":[2,4,6,8,-1,-1,-1,-1,-1],"split_conditions":[4.0447773E1,1E0,4.65758E1,9.4613254E-1,-1.4925808E-2,-3.1124387E-2,4.713736E-3,3.6608953E-2,-2.3001223E-3],"split_indices":[2,3,2,0,0,0,0,0,0],"split_type":[0,0,0,0,0,0,0,0,0],"sum_hessian":[7.4352307E0,4.45285E0,2.9823806E0,2.9391298E0,1.5137202E0,1.087886E0,1.8944947E0,1.5136387E0,1.4254911E0],"tree_param":{"num_deleted":"0","num_feature":"6","num_nodes":"9","size_leaf_vector":"1"}},{"base_weights":[-6.3703274E-3,-1.3587849E-1,1.811204E-2,8.9160666E-2,-2.5565265E-2,2.673013E-2,-1.0787079E-2],"categories":[],"categories_nodes":[],"categories_segments":[],"categories_sizes":[],"default_left":[0,0,0,0,0,0,0],"id":68,"left_children":[1,3,-1,5,-1,-1,-1],"loss_changes":[4.5019013E-1,6.321544E-1,0E0,8.205375E-1,0E0,0E0,0E0],"parents":[2147483647,0,0,1,1,3,3],"right_children":[2,4,-1,6,-1,-1,-1],"split_conditions":[9.769241E-1,8.9546496E-1,1.811204E-2,4.0447773E1,-2.5565265E-2,2.673013E-2,-1.0787079E-2],"split_indices":[0,0,0,2,0,0,0],"split_type":[0,0,0,0,0,0,0],"sum_hessian":[7.3993497E0,5.9427834E0,1.456566E0,4.1923213E0,1.750462E0,1.3974224E0,2.794899E0],"tree_param":{"num_deleted":"0","num_feature":"6","num_nodes":"7","size_leaf_vector":"1"}},{"base_weights":[-5.123847E-3,-2.4382657E-1,1.9434085E-1,-3.2176647E-2,7.828481E-3,-1.0866462E-2,2.3444375E-2,1.3440005E-2,-1.580364E-2],"categories":[],"categories_nodes":[],"categories_segments":[],"categories_sizes":[],"default_left":[0,0,0,0,0,0,0,0,0],"id":69,"left_children":[1,3,5,-1,-1,7,-1,-1,-1],"loss_changes":[4.4642326E-1,7.823277E-1,2.9367322E-1,0E0,0E0,4.1858232E-1,0E0,0E0,0E0],"parents":[2147483647,0,0,1,1,2,2,5,5],"right_children":[2,4,6,-1,-1,8,-1,-1,-1],"split_conditions":[6.5E-1,8.8544047E-1,4.65758E1,-3.2176647E-2,7.828481E-3,3.309667E1,2.3444375E-2,1.3440005E-2,-1.580364E-2],"split_indices":[5,0,2,0,0,2,0,0,0],"split_type":[0,0,0,0,0,0,0,0,0],"sum_hessian":[7.380898E0,3.2587242E0,4.122174E0,1.326885E0,1.9318392E0,2.9085934E0,1.2135805E0,1.5800482E0,1.3285451E0],"tree_param":{"num_deleted":"0","num_feature":"6","num_nodes":"9","size_leaf_vector":"1"}},{"base_weights":[-5.3613354E-3,-2.3908381E-1,1.8882841E-1,8.051113E-3,-3.1161487E-2,-1.0974892E-2,2.2815537E-2,1.4165878E-2,-1.4586407E-2],"categories":[],"categories_nodes":[],"categories_segments":[],"categories_sizes":[],"default_left":[0,0,0,0,0,0,0,0,0],"id":70,"left_children":[1,3,5,-1,-1,7,-1,-1,-1],"loss_changes":[4.240854E-1,7.505308E-1,2.7858567E-1,0E0,0E0,4.0543744E-1,0E0,0E0,0E0],"parents":[2147483647,0,0,1,1,2,2,5,5],"right_children":[2,4,6,-1,-1,8,-1,-1,-1],"split_conditions":[6.5E-1,4.7E-1,4.65758E1,8.051113E-3,-3.1161487E-2,7.2E-1,2.2815537E-2,1.4165878E-2,-1.4586407E-2],"split_indices":[5,5,2,0,0,5,0,0,0],"split_type":[0,0,0,0,0,0,0,0,0],"sum_hessian":[7.3491683E0,3.230193E0,4.118975E0,1.8667331E0,1.3634598E0,2.906703E0,1.2122724E0,1.4146736E0,1.4920294E0],"tree_param":{"num_deleted":"0","num_feature":"6","num_nodes":"9","size_leaf_vector":"1"}},{"base_weights":[-5.292514E-3,-1.3256378E-1,1.7543944E-2,8.7625064E-2,-2.498783E-2,2.6143461E-2,-1.0668423E-2],"categories":[],"categories_nodes":[],"categories_segments":[],"categories_sizes":[],"default_left":[0,0,0,0,0,0,0],"id":71,"left_children":[1,3,-1,5,-1,-1,-1],"loss_changes":[4.2300522E-1,5.972038E-1,0E0,7.8358793E-1,0E0,0E0,0E0],"parents":[2147483647,0,0,1,1,3,3],"right_children":[2,4,-1,6,-1,-1,-1],"split_conditions":[9.769241E-1,8.9546496E-1,1.7543944E-2,4.0447773E1,-2.498783E-2,2.6143461E-2,-1.0668423E-2],"split_indices":[0,0,0,2,0,0,0],"split_type":[0,0,0,0,0,0,0],"sum_hessian":[7.3054976E0,5.844782E0,1.4607158E0,4.129733E0,1.7150486E0,1.3869804E0,2.7427526E0],"tree_param":{"num_deleted":"0","num_feature":"6","num_nodes":"7","size_leaf_vector":"1"}},{"base_weights":[-4.137092E-3,-1.9098324E-1,2.3822457E-1,-2.5206417E-2,9.615797E-2,2.5096161E-2,-3.8148246E-3,3.0538425E-2,-1.9454207E-2],"categories":[],"categories_nodes":[],"categories_segments":[],"categories_sizes":[],"default_left":[0,0,0,0,0,0,0,0,0],"id":72,"left_children":[1,3,5,-1,7,-1,-1,-1,-1],"loss_changes":[4.2078736E-1,5.191645E-1,3.7442195E-1,0E0,1.1292446E0,0E0,0E0,0E0,0E0],"parents":[2147483647,0,0,1,1,2,2,4,4],"right_children":[2,4,6,-1,8,-1,-1,-1,-1],"split_conditions":[6.9E-1,8.780692E-1,7.3E-1,-2.5206417E-2,4.7E-1,2.5096161E-2,-3.8148246E-3,3.0538425E-2,-1.9454207E-2],"split_indices":[5,0,5,0,5,0,0,0,0],"split_type":[0,0,0,0,0,0,0,0,0],"sum_hessian":[7.2874217E0,4.234709E0,3.052713E0,1.6641597E0,2.570549E0,1.3364131E0,1.7162999E0,1.1219777E0,1.4485714E0],"tree_param":{"num_deleted":"0","num_feature":"6","num_nodes":"9","size_leaf_vector":"1"}},{"base_weights":[-3.142515E-3,-2.3521632E-1,1.866206E-1,-3.1259563E-2,7.539446E-3,-1.1729276E-2,2.2558441E-2,1.3020051E-2,-1.5529588E-2],"categories":[],"categories_nodes":[],"categories_segments":[],"categories_sizes":[],"default_left":[0,0,0,0,0,0,0,0,0],"id":73,"left_children":[1,3,5,-1,-1,7,-1,-1,-1],"loss_changes":[4.067426E-1,7.1880037E-1,2.7240095E-1,0E0,0E0,3.9674976E-1,0E0,0E0,0E0],"parents":[2147483647,0,0,1,1,2,2,5,5],"right_children":[2,4,6,-1,-1,8,-1,-1,-1],"split_conditions":[6.5E-1,8.8544047E-1,4.65758E1,-3.1259563E-2,7.539446E-3,3.309667E1,2.2558441E-2,1.3020051E-2,-1.5529588E-2],"split_indices":[5,0,2,0,0,2,0,0,0],"split_type":[0,0,0,0,0,0,0,0,0],"sum_hessian":[7.239197E0,3.1487982E0,4.090399E0,1.2581077E0,1.8906904E0,2.8838458E0,1.206553E0,1.5767885E0,1.3070574E0],"tree_param":{"num_deleted":"0","num_feature":"6","num_nodes":"9","size_leaf_vector":"1"}},{"base_weights":[-3.5209444E-3,-2.307835E-1,1.8132442E-1,7.82618E-3,-3.0359283E-2,-1.1834133E-2,2.1957017E-2,1.3547005E-2,-1.4165111E-2],"categories":[],"categories_nodes":[],"categories_segments":[],"categories_sizes":[],"default_left":[0,0,0,0,0,0,0,0,0],"id":74,"left_children":[1,3,5,-1,-1,7,-1,-1,-1],"loss_changes":[3.8669196E-1,6.9595826E-1,2.5852352E-1,0E0,0E0,3.7474853E-1,0E0,0E0,0E0],"parents":[2147483647,0,0,1,1,2,2,5,5],"right_children":[2,4,6,-1,-1,8,-1,-1,-1],"split_conditions":[6.5E-1,4.7E-1,4.65758E1,7.82618E-3,-3.0359283E-2,7.2E-1,2.1957017E-2,1.3547005E-2,-1.4165111E-2],"split_indices":[5,5,2,0,0,5,0,0,0],"split_type":[0,0,0,0,0,0,0,0,0],"sum_hessian":[7.2089534E0,3.1220062E0,4.086947E0,1.8266224E0,1.2953837E0,2.8818967E0,1.2050505E0,1.4125066E0,1.4693902E0],"tree_param":{"num_deleted":"0","num_feature":"6","num_nodes":"9","size_leaf_vector":"1"}},{"base_weights":[-3.5877891E-3,-1.2807642E-1,1.6887588E-2,5.2499447E-2,-2.884548E-2,1.7941162E-2,-1.061163E-2],"categories":[],"categories_nodes":[],"categories_segments":[],"categories_sizes":[],"default_left":[0,0,0,0,0,0,0],"id":75,"left_children":[1,3,-1,5,-1,-1,-1],"loss_changes":[3.9030838E-1,5.740968E-1,0E0,5.3849214E-1,0E0,0E0,0E0],"parents":[2147483647,0,0,1,1,3,3],"right_children":[2,4,-1,6,-1,-1,-1],"split_conditions":[9.769241E-1,1E0,1.6887588E-2,4.0447773E1,-2.884548E-2,1.7941162E-2,-1.061163E-2],"split_indices":[0,3,0,2,0,0,0],"split_type":[0,0,0,0,0,0,0],"sum_hessian":[7.1672564E0,5.709683E0,1.4575734E0,4.701281E0,1.0084018E0,2.014669E0,2.6866121E0],"tree_param":{"num_deleted":"0","num_feature":"6","num_nodes":"7","size_leaf_vector":"1"}},{"base_weights":[-4.0474576E-3,-1.8453573E-1,2.2567786E-1,-2.4237406E-2,8.852439E-2,2.379977E-2,-3.7023188E-3,2.9246151E-2,-1.9069908E-2],"categories":[],"categories_nodes":[],"categories_segments":[],"categories_sizes":[],"default_left":[0,0,0,0,0,0,0,0,0],"id":76,"left_children":[1,3,5,-1,7,-1,-1,-1,-1],"loss_changes":[3.7972084E-1,4.6232927E-1,3.3815464E-1,0E0,1.0453417E0,0E0,0E0,0E0,0E0],"parents":[2147483647,0,0,1,1,2,2,4,4],"right_children":[2,4,6,-1,8,-1,-1,-1,-1],"split_conditions":[6.9E-1,8.780692E-1,7.3E-1,-2.4237406E-2,4.7E-1,2.379977E-2,-3.7023188E-3,2.9246151E-2,-1.9069908E-2],"split_indices":[5,0,5,0,5,0,0,0,0],"split_type":[0,0,0,0,0,0,0,0,0],"sum_hessian":[7.153713E0,4.11634E0,3.0373733E0,1.5914252E0,2.524915E0,1.3346317E0,1.7027415E0,1.1088591E0,1.4160559E0],"tree_param":{"num_deleted":"0","num_feature":"6","num_nodes":"9","size_leaf_vector":"1"}},{"base_weights":[-3.1738437E-3,-2.2810212E-1,1.7677872E-1,-3.0261612E-2,7.0406212E-3,-1.5509717E-2,2.17287E-2,1.25590535E-2,-1.5421298E-2],"categories":[],"categories_nodes":[],"categories_segments":[],"categories_sizes":[],"default_left":[0,0,0,0,0,0,0,0,0],"id":77,"left_children":[1,3,5,-1,-1,7,-1,-1,-1],"loss_changes":[3.6848322E-1,6.4730877E-1,2.579363E-1,0E0,0E0,3.7963164E-1,0E0,0E0,0E0],"parents":[2147483647,0,0,1,1,2,2,5,5],"right_children":[2,4,6,-1,-1,8,-1,-1,-1],"split_conditions":[6.5E-1,8.8544047E-1,4.65758E1,-3.0261612E-2,7.0406212E-3,3.309667E1,2.17287E-2,1.25590535E-2,-1.5421298E-2],"split_indices":[5,0,2,0,0,2,0,0,0],"split_type":[0,0,0,0,0,0,0,0,0],"sum_hessian":[7.107427E0,3.0400307E0,4.0673966E0,1.186516E0,1.8535148E0,2.8680024E0,1.1993941E0,1.5757838E0,1.2922186E0],"tree_param":{"num_deleted":"0","num_feature":"6","num_nodes":"9","size_leaf_vector":"1"}},{"base_weights":[-3.6356798E-3,-2.239421E-1,1.7176725E-1,7.651242E-3,-2.9628078E-2,-1.55200455E-2,2.1152532E-2,1.2130957E-2,-1.50624635E-2],"categories":[],"categories_nodes":[],"categories_segments":[],"categories_sizes":[],"default_left":[0,0,0,0,0,0,0,0,0],"id":78,"left_children":[1,3,5,-1,-1,7,-1,-1,-1],"loss_changes":[3.5064197E-1,6.485913E-1,2.4486908E-1,0E0,0E0,3.5822526E-1,0E0,0E0,0E0],"parents":[2147483647,0,0,1,1,2,2,5,5],"right_children":[2,4,6,-1,-1,8,-1,-1,-1],"split_conditions":[6.5E-1,4.7E-1,4.65758E1,7.651242E-3,-2.9628078E-2,3.309667E1,2.1152532E-2,1.2130957E-2,-1.50624635E-2],"split_indices":[5,5,2,0,0,2,0,0,0],"split_type":[0,0,0,0,0,0,0,0,0],"sum_hessian":[7.07859E0,3.0150065E0,4.0635834E0,1.7797867E0,1.23522E0,2.8658423E0,1.1977413E0,1.5848777E0,1.2809646E0],"tree_param":{"num_deleted":"0","num_feature":"6","num_nodes":"9","size_leaf_vector":"1"}},{"base_weights":[-4.008629E-3,-1.2400066E-1,1.5917888E-2,9.811817E-2,-2.4544839E-2,2.5809918E-2,-9.998805E-3],"categories":[],"categories_nodes":[],"categories_segments":[],"categories_sizes":[],"default_left":[0,0,0,0,0,0,0],"id":79,"left_children":[1,3,-1,5,-1,-1,-1],"loss_changes":[3.5070923E-1,5.8466095E-1,0E0,7.1814877E-1,0E0,0E0,0E0],"parents":[2147483647,0,0,1,1,3,3],"right_children":[2,4,-1,6,-1,-1,-1],"split_conditions":[9.769241E-1,8.9546496E-1,1.5917888E-2,4.0447773E1,-2.4544839E-2,2.5809918E-2,-9.998805E-3],"split_indices":[0,0,0,2,0,0,0],"split_type":[0,0,0,0,0,0,0],"sum_hessian":[7.046055E0,5.5832033E0,1.4628516E0,3.9340827E0,1.6491206E0,1.3329482E0,2.6011345E0],"tree_param":{"num_deleted":"0","num_feature":"6","num_nodes":"7","size_leaf_vector":"1"}},{"base_weights":[-2.9811456E-3,-1.7682941E-1,2.139077E-1,-2.3461869E-2,8.7641284E-2,2.2781719E-2,-3.7242256E-3,2.8136773E-2,-1.8450186E-2],"categories":[],"categories_nodes":[],"categories_segments":[],"categories_sizes":[],"default_left":[0,0,0,0,0,0,0,0,0],"id":80,"left_children":[1,3,5,-1,7,-1,-1,-1,-1],"loss_changes":[3.4052494E-1,4.280672E-1,3.1448555E-1,0E0,9.6044695E-1,0E0,0E0,0E0,0E0],"parents":[2147483647,0,0,1,1,2,2,4,4],"right_children":[2,4,6,-1,8,-1,-1,-1,-1],"split_conditions":[6.9E-1,8.780692E-1,7.3E-1,-2.3461869E-2,4.7E-1,2.2781719E-2,-3.7242256E-3,2.8136773E-2,-1.8450186E-2],"split_indices":[5,0,5,0,5,0,0,0,0],"split_type":[0,0,0,0,0,0,0,0,0],"sum_hessian":[7.027947E0,4.0035686E0,3.0243788E0,1.5336553E0,2.4699132E0,1.3298246E0,1.6945541E0,1.0966407E0,1.3732725E0],"tree_param":{"num_deleted":"0","num_feature":"6","num_nodes":"9","size_leaf_vector":"1"}},{"base_weights":[-2.2318154E-3,-2.2107364E-1,1.6929403E-1,7.151548E-3,-2.8983478E-2,-1.6710974E-2,2.0936662E-2,1.2857224E-2,-1.3905026E-2],"categories":[],"categories_nodes":[],"categories_segments":[],"categories_sizes":[],"default_left":[0,0,0,0,0,0,0,0,0],"id":81,"left_children":[1,3,5,-1,-1,7,-1,-1,-1],"loss_changes":[3.371058E-1,5.97554E-1,2.409282E-1,0E0,0E0,3.470951E-1,0E0,0E0,0E0],"parents":[2147483647,0,0,1,1,2,2,5,5],"right_children":[2,4,6,-1,-1,8,-1,-1,-1],"split_conditions":[6.5E-1,4.7E-1,4.65758E1,7.151548E-3,-2.8983478E-2,7.2E-1,2.0936662E-2,1.2857224E-2,-1.3905026E-2],"split_indices":[5,5,2,0,0,5,0,0,0],"split_type":[0,0,0,0,0,0,0,0,0],"sum_hessian":[6.9835653E0,2.9416218E0,4.041943E0,1.7578769E0,1.183745E0,2.8498423E0,1.1921009E0,1.3996657E0,1.4501767E0],"tree_param":{"num_deleted":"0","num_feature":"6","num_nodes":"9","size_leaf_vector":"1"}},{"base_weights":[-2.4448351E-3,-1.2133146E-1,1.5677035E-2,9.416376E-2,-2.3960516E-2,2.4963705E-2,-9.80516E-3],"categories":[],"categories_nodes":[],"categories_segments":[],"categories_sizes":[],"default_left":[0,0,0,0,0,0,0],"id":82,"left_children":[1,3,-1,5,-1,-1,-1],"loss_changes":[3.364977E-1,5.459316E-1,0E0,6.728008E-1,0E0,0E0,0E0],"parents":[2147483647,0,0,1,1,3,3],"right_children":[2,4,-1,6,-1,-1,-1],"split_conditions":[9.769241E-1,8.9546496E-1,1.5677035E-2,4.0447773E1,-2.3960516E-2,2.4963705E-2,-9.80516E-3],"split_indices":[0,0,0,2,0,0,0],"split_type":[0,0,0,0,0,0,0],"sum_hessian":[6.9447293E0,5.493771E0,1.4509583E0,3.888944E0,1.6048272E0,1.3227707E0,2.566173E0],"tree_param":{"num_deleted":"0","num_feature":"6","num_nodes":"7","size_leaf_vector":"1"}},{"base_weights":[-1.5156294E-3,-2.1846431E-1,1.6769159E-1,-2.9333448E-2,6.9990987E-3,-1.644105E-2,2.0642826E-2,1.16790105E-2,-1.4737303E-2],"categories":[],"categories_nodes":[],"categories_segments":[],"categories_sizes":[],"default_left":[0,0,0,0,0,0,0,0,0],"id":83,"left_children":[1,3,5,-1,-1,7,-1,-1,-1],"loss_changes":[3.276346E-1,5.9788156E-1,2.3337533E-1,0E0,0E0,3.352191E-1,0E0,0E0,0E0],"parents":[2147483647,0,0,1,1,2,2,5,5],"right_children":[2,4,6,-1,-1,8,-1,-1,-1],"split_conditions":[6.5E-1,8.8544047E-1,4.65758E1,-2.9333448E-2,6.9990987E-3,3.309667E1,2.0642826E-2,1.16790105E-2,-1.4737303E-2],"split_indices":[5,0,2,0,0,2,0,0,0],"split_type":[0,0,0,0,0,0,0,0,0],"sum_hessian":[6.9271493E0,2.9078064E0,4.019343E0,1.1203036E0,1.7875028E0,2.8281684E0,1.1911746E0,1.5744405E0,1.2537279E0],"tree_param":{"num_deleted":"0","num_feature":"6","num_nodes":"9","size_leaf_vector":"1"}},{"base_weights":[-2.1099183E-3,-1.6969781E-2,1.0360828E-1,2.5935817E-1,-1.39235845E-2,2.0405296E-2,-4.4256574E-3],"categories":[],"categories_nodes":[],"categories_segments":[],"categories_sizes":[],"default_left":[0,0,0,0,0,0,0],"id":84,"left_children":[1,-1,3,5,-1,-1,-1],"loss_changes":[3.1685072E-1,0E0,4.7573903E-1,3.1217676E-1,0E0,0E0,0E0],"parents":[2147483647,0,0,2,2,3,3],"right_children":[2,-1,4,6,-1,-1,-1],"split_conditions":[1.7317788E-3,-1.6969781E-2,1E0,9.4613254E-1,-1.39235845E-2,2.0405296E-2,-4.4256574E-3],"split_indices":[0,0,3,0,0,0,0],"split_type":[0,0,0,0,0,0,0],"sum_hessian":[6.899841E0,1.1190902E0,5.7807508E0,4.334885E0,1.4458654E0,2.9152076E0,1.4196776E0],"tree_param":{"num_deleted":"0","num_feature":"6","num_nodes":"7","size_leaf_vector":"1"}},{"base_weights":[-3.9367354E-3,-1.20652445E-1,1.5100712E-2,9.060201E-2,-2.3511901E-2,2.4119426E-2,-9.602751E-3],"categories":[],"categories_nodes":[],"categories_segments":[],"categories_sizes":[],"default_left":[0,0,0,0,0,0,0],"id":85,"left_children":[1,3,-1,5,-1,-1,-1],"loss_changes":[3.1777778E-1,5.1654917E-1,0E0,6.284844E-1,0E0,0E0,0E0],"parents":[2147483647,0,0,1,1,3,3],"right_children":[2,4,-1,6,-1,-1,-1],"split_conditions":[9.769241E-1,8.9546496E-1,1.5100712E-2,4.0447773E1,-2.3511901E-2,2.4119426E-2,-9.602751E-3],"split_indices":[0,0,0,2,0,0,0],"split_type":[0,0,0,0,0,0,0],"sum_hessian":[6.8785954E0,5.417535E0,1.4610605E0,3.8386626E0,1.5788723E0,1.312628E0,2.5260346E0],"tree_param":{"num_deleted":"0","num_feature":"6","num_nodes":"7","size_leaf_vector":"1"}},{"base_weights":[-3.0233462E-3,-2.1935052E-1,1.6550152E-1,6.9840434E-3,-2.8586943E-2,-1.6308036E-2,2.0320488E-2,1.1402088E-2,-1.447752E-2],"categories":[],"categories_nodes":[],"categories_segments":[],"categories_sizes":[],"default_left":[0,0,0,0,0,0,0,0,0],"id":86,"left_children":[1,3,5,-1,-1,7,-1,-1,-1],"loss_changes":[3.2289764E-1,5.697981E-1,2.2513528E-1,0E0,0E0,3.2004806E-1,0E0,0E0,0E0],"parents":[2147483647,0,0,1,1,2,2,5,5],"right_children":[2,4,6,-1,-1,8,-1,-1,-1],"split_conditions":[6.5E-1,4.7E-1,4.65758E1,6.9840434E-3,-2.8586943E-2,3.309667E1,2.0320488E-2,1.1402088E-2,-1.447752E-2],"split_indices":[5,5,2,0,0,2,0,0,0],"split_type":[0,0,0,0,0,0,0,0,0],"sum_hessian":[6.8612795E0,2.8724558E0,3.9888234E0,1.7218069E0,1.1506491E0,2.8045676E0,1.184256E0,1.5678893E0,1.2366781E0],"tree_param":{"num_deleted":"0","num_feature":"6","num_nodes":"9","size_leaf_vector":"1"}},{"base_weights":[-3.5054793E-3,-2.1552877E-1,1.6079485E-1,-2.8931353E-2,6.8949484E-3,-1.6341392E-2,1.9787148E-2,1.2226478E-2,-1.3335076E-2],"categories":[],"categories_nodes":[],"categories_segments":[],"categories_sizes":[],"default_left":[0,0,0,0,0,0,0,0,0],"id":87,"left_children":[1,3,5,-1,-1,7,-1,-1,-1],"loss_changes":[3.0745164E-1,5.733744E-1,2.1392116E-1,0E0,0E0,3.1355587E-1,0E0,0E0,0E0],"parents":[2147483647,0,0,1,1,2,2,5,5],"right_children":[2,4,6,-1,-1,8,-1,-1,-1],"split_conditions":[6.5E-1,8.8544047E-1,4.65758E1,-2.8931353E-2,6.8949484E-3,7.2E-1,1.9787148E-2,1.2226478E-2,-1.3335076E-2],"split_indices":[5,0,2,0,0,5,0,0,0],"split_type":[0,0,0,0,0,0,0,0,0],"sum_hessian":[6.830969E0,2.846226E0,3.984743E0,1.0896128E0,1.7566131E0,2.8023741E0,1.182369E0,1.3837838E0,1.4185903E0],"tree_param":{"num_deleted":"0","num_feature":"6","num_nodes":"9","size_leaf_vector":"1"}},{"base_weights":[-3.8363792E-3,1.5314977E-1,-2.2643948E-1,-1.17422126E-1,2.7914515E-2,-2.0007648E-2,2.039288E-3,-1.7013362E-2,1.2050557E-2],"categories":[],"categories_nodes":[],"categories_segments":[],"categories_sizes":[],"default_left":[0,0,0,0,0,0,0,0,0],"id":88,"left_children":[1,3,5,7,-1,-1,-1,-1,-1],"loss_changes":[3.0715138E-1,6.3217604E-1,1.8473792E-1,3.955507E-1,0E0,0E0,0E0,0E0,0E0],"parents":[2147483647,0,0,1,1,2,2,3,3],"right_children":[2,4,6,8,-1,-1,-1,-1,-1],"split_conditions":[4.0447773E1,3.6476845E1,6.9E-1,9.8142725E-1,2.7914515E-2,-2.0007648E-2,2.039288E-3,-1.7013362E-2,1.2050557E-2],"split_indices":[2,2,5,0,0,0,0,0,0],"split_type":[0,0,0,0,0,0,0,0,0],"sum_hessian":[6.7970395E0,4.1689677E0,2.6280718E0,2.9254105E0,1.2435572E0,1.2912437E0,1.3368281E0,1.8351457E0,1.0902648E0],"tree_param":{"num_deleted":"0","num_feature":"6","num_nodes":"9","size_leaf_vector":"1"}},{"base_weights":[-3.058291E-3,-2.1313567E-1,1.5863356E-1,6.9439257E-3,-2.8075209E-2,-1.5412281E-2,1.9414095E-2,1.121504E-2,-1.4267283E-2],"categories":[],"categories_nodes":[],"categories_segments":[],"categories_sizes":[],"default_left":[0,0,0,0,0,0,0,0,0],"id":89,"left_children":[1,3,5,-1,-1,7,-1,-1,-1],"loss_changes":[2.9796842E-1,5.4507977E-1,2.0454103E-1,0E0,0E0,3.0909857E-1,0E0,0E0,0E0],"parents":[2147483647,0,0,1,1,2,2,5,5],"right_children":[2,4,6,-1,-1,8,-1,-1,-1],"split_conditions":[6.5E-1,4.7E-1,4.65758E1,6.9439257E-3,-2.8075209E-2,3.309667E1,1.9414095E-2,1.121504E-2,-1.4267283E-2],"split_indices":[5,5,2,0,0,2,0,0,0],"split_type":[0,0,0,0,0,0,0,0,0],"sum_hessian":[6.7767153E0,2.8089895E0,3.967726E0,1.6962919E0,1.1126976E0,2.7877977E0,1.1799284E0,1.5660899E0,1.2217077E0],"tree_param":{"num_deleted":"0","num_feature":"6","num_nodes":"9","size_leaf_vector":"1"}},{"base_weights":[-3.5942295E-3,1.513995E-1,-2.2419846E-1,3.8502374E-1,-1.3515976E-2,-1.9648409E-2,1.8233684E-3,3.2675423E-2,-2.9280921E-3],"categories":[],"categories_nodes":[],"categories_segments":[],"categories_sizes":[],"default_left":[0,0,0,0,0,0,0,0,0],"id":90,"left_children":[1,3,5,7,-1,-1,-1,-1,-1],"loss_changes":[2.9885045E-1,6.112185E-1,1.7271186E-1,4.8188722E-1,0E0,0E0,0E0,0E0,0E0],"parents":[2147483647,0,0,1,1,2,2,3,3],"right_children":[2,4,6,8,-1,-1,-1,-1,-1],"split_conditions":[4.0447773E1,1E0,6.9E-1,9.4613254E-1,-1.3515976E-2,-1.9648409E-2,1.8233684E-3,3.2675423E-2,-2.9280921E-3],"split_indices":[2,3,5,0,0,0,0,0,0],"split_type":[0,0,0,0,0,0,0,0,0],"sum_hessian":[6.747567E0,4.1473775E0,2.6001894E0,2.724867E0,1.4225106E0,1.2702212E0,1.3299682E0,1.4026549E0,1.3222121E0],"tree_param":{"num_deleted":"0","num_feature":"6","num_nodes":"9","size_leaf_vector":"1"}},{"base_weights":[-3.6621268E-3,-1.18872024E-1,1.46093E-2,8.678521E-2,-2.2928894E-2,2.292992E-2,-9.261987E-3],"categories":[],"categories_nodes":[],"categories_segments":[],"categories_sizes":[],"default_left":[0,0,0,0,0,0,0],"id":91,"left_children":[1,3,-1,5,-1,-1,-1],"loss_changes":[2.977245E-1,4.7742563E-1,0E0,5.6464505E-1,0E0,0E0,0E0],"parents":[2147483647,0,0,1,1,3,3],"right_children":[2,4,-1,6,-1,-1,-1],"split_conditions":[9.769241E-1,8.9546496E-1,1.46093E-2,4.0447773E1,-2.2928894E-2,2.292992E-2,-9.261987E-3],"split_indices":[0,0,0,2,0,0,0],"split_type":[0,0,0,0,0,0,0],"sum_hessian":[6.715846E0,5.2640905E0,1.4517558E0,3.7427595E0,1.5213308E0,1.2915521E0,2.4512074E0],"tree_param":{"num_deleted":"0","num_feature":"6","num_nodes":"7","size_leaf_vector":"1"}},{"base_weights":[-2.838956E-3,-2.1231414E-1,1.5678966E-1,-2.8175835E-2,6.4817006E-3,-1.735208E-2,1.9294543E-2,1.0879002E-2,-1.4090018E-2],"categories":[],"categories_nodes":[],"categories_segments":[],"categories_sizes":[],"default_left":[0,0,0,0,0,0,0,0,0],"id":92,"left_children":[1,3,5,-1,-1,7,-1,-1,-1],"loss_changes":[2.907367E-1,5.2394164E-1,2.0397016E-1,0E0,0E0,2.953036E-1,0E0,0E0,0E0],"parents":[2147483647,0,0,1,1,2,2,5,5],"right_children":[2,4,6,-1,-1,8,-1,-1,-1],"split_conditions":[6.5E-1,8.8544047E-1,4.65758E1,-2.8175835E-2,6.4817006E-3,3.309667E1,1.9294543E-2,1.0879002E-2,-1.4090018E-2],"split_indices":[5,0,2,0,0,2,0,0,0],"split_type":[0,0,0,0,0,0,0,0,0],"sum_hessian":[6.6992116E0,2.7545104E0,3.944701E0,1.0392131E0,1.7152973E0,2.766285E0,1.1784161E0,1.5587466E0,1.2075382E0],"tree_param":{"num_deleted":"0","num_feature":"6","num_nodes":"9","size_leaf_vector":"1"}},{"base_weights":[-3.4931453E-3,-1.6726434E-1,1.9348957E-1,6.8773404E-3,-3.7678584E-1,2.0134185E-2,-3.1573938E-3,7.219735E-5,-2.8322492E-2],"categories":[],"categories_nodes":[],"categories_segments":[],"categories_sizes":[],"default_left":[0,0,0,0,0,0,0,0,0],"id":93,"left_children":[1,3,5,-1,7,-1,-1,-1,-1],"loss_changes":[2.7992257E-1,3.5368112E-1,2.3734954E-1,0E0,2.2094253E-1,0E0,0E0,0E0,0E0],"parents":[2147483647,0,0,1,1,2,2,4,4],"right_children":[2,4,6,-1,8,-1,-1,-1,-1],"split_conditions":[6.9E-1,4.7E-1,7.3E-1,6.8773404E-3,8.835161E-1,2.0134185E-2,-3.1573938E-3,7.219735E-5,-2.8322492E-2],"split_indices":[5,5,5,0,0,0,0,0,0],"split_type":[0,0,0,0,0,0,0,0,0],"sum_hessian":[6.6738367E0,3.7264981E0,2.9473383E0,1.6579857E0,2.0685124E0,1.31024E0,1.6370983E0,1.022273E0,1.0462396E0],"tree_param":{"num_deleted":"0","num_feature":"6","num_nodes":"9","size_leaf_vector":"1"}},{"base_weights":[-3.9506704E-3,-1.6172051E-2,9.7161055E-2,2.462567E-1,-1.3197239E-2,1.9393539E-2,-4.2504696E-3],"categories":[],"categories_nodes":[],"categories_segments":[],"categories_sizes":[],"default_left":[0,0,0,0,0,0,0],"id":94,"left_children":[1,-1,3,5,-1,-1,-1],"loss_changes":[2.7853778E-1,0E0,4.1923884E-1,2.7570346E-1,0E0,0E0,0E0],"parents":[2147483647,0,0,2,2,3,3],"right_children":[2,-1,4,6,-1,-1,-1],"split_conditions":[1.7317788E-3,-1.6172051E-2,1E0,9.4613254E-1,-1.3197239E-2,1.9393539E-2,-4.2504696E-3],"split_indices":[0,0,3,0,0,0,0],"split_type":[0,0,0,0,0,0,0],"sum_hessian":[6.6495237E0,1.0699316E0,5.5795918E0,4.174179E0,1.4054128E0,2.80443E0,1.3697493E0],"tree_param":{"num_deleted":"0","num_feature":"6","num_nodes":"7","size_leaf_vector":"1"}},{"base_weights":[-5.6563425E-3,-1.1956988E-1,1.4186749E-2,7.898969E-2,-2.232997E-2,2.2074386E-2,-9.291947E-3],"categories":[],"categories_nodes":[],"categories_segments":[],"categories_sizes":[],"default_left":[0,0,0,0,0,0,0],"id":95,"left_children":[1,3,-1,5,-1,-1,-1],"loss_changes":[2.8541318E-1,4.36415E-1,0E0,5.326187E-1,0E0,0E0,0E0],"parents":[2147483647,0,0,1,1,3,3],"right_children":[2,4,-1,6,-1,-1,-1],"split_conditions":[9.769241E-1,8.9546496E-1,1.4186749E-2,4.0447773E1,-2.232997E-2,2.2074386E-2,-9.291947E-3],"split_indices":[0,0,0,2,0,0,0],"split_type":[0,0,0,0,0,0,0],"sum_hessian":[6.628773E0,5.17755E0,1.4512237E0,3.6934772E0,1.4840724E0,1.277611E0,2.4158661E0],"tree_param":{"num_deleted":"0","num_feature":"6","num_nodes":"7","size_leaf_vector":"1"}},{"base_weights":[-4.819559E-3,-2.1154626E-1,1.5225409E-1,-2.7907837E-2,6.3986266E-3,-1.9334096E-2,1.8903585E-2,1.0582573E-2,-1.3965942E-2],"categories":[],"categories_nodes":[],"categories_segments":[],"categories_sizes":[],"default_left":[0,0,0,0,0,0,0,0,0],"id":96,"left_children":[1,3,5,-1,-1,7,-1,-1,-1],"loss_changes":[2.7939418E-1,5.0746334E-1,1.9745164E-1,0E0,0E0,2.8370088E-1,0E0,0E0,0E0],"parents":[2147483647,0,0,1,1,2,2,5,5],"right_children":[2,4,6,-1,-1,8,-1,-1,-1],"split_conditions":[6.5E-1,8.8544047E-1,4.65758E1,-2.7907837E-2,6.3986266E-3,3.309667E1,1.8903585E-2,1.0582573E-2,-1.3965942E-2],"split_indices":[5,0,2,0,0,2,0,0,0],"split_type":[0,0,0,0,0,0,0,0,0],"sum_hessian":[6.612422E0,2.7052329E0,3.9071891E0,1.019982E0,1.6852509E0,2.7397578E0,1.1674316E0,1.5492353E0,1.1905223E0],"tree_param":{"num_deleted":"0","num_feature":"6","num_nodes":"9","size_leaf_vector":"1"}},{"base_weights":[-5.4372735E-3,-2.0802623E-1,1.4791659E-1,6.734188E-3,-2.7293265E-2,-1.931072E-2,1.8412227E-2,1.1398143E-2,-1.2762542E-2],"categories":[],"categories_nodes":[],"categories_segments":[],"categories_sizes":[],"default_left":[0,0,0,0,0,0,0,0,0],"id":97,"left_children":[1,3,5,-1,-1,7,-1,-1,-1],"loss_changes":[2.6649496E-1,5.0011545E-1,1.8775785E-1,0E0,0E0,2.762406E-1,0E0,0E0,0E0],"parents":[2147483647,0,0,1,1,2,2,5,5],"right_children":[2,4,6,-1,-1,8,-1,-1,-1],"split_conditions":[6.5E-1,4.7E-1,4.65758E1,6.734188E-3,-2.7293265E-2,7.2E-1,1.8412227E-2,1.1398143E-2,-1.2762542E-2],"split_indices":[5,5,2,0,0,5,0,0,0],"split_type":[0,0,0,0,0,0,0,0,0],"sum_hessian":[6.5874195E0,2.684515E0,3.9029047E0,1.6311673E0,1.0533478E0,2.7375095E0,1.1653951E0,1.3531603E0,1.3843492E0],"tree_param":{"num_deleted":"0","num_feature":"6","num_nodes":"9","size_leaf_vector":"1"}},{"base_weights":[-5.711301E-3,-1.1782219E-1,1.37860505E-2,7.635767E-2,-2.1839185E-2,2.1657813E-2,-9.268619E-3],"categories":[],"categories_nodes":[],"categories_segments":[],"categories_sizes":[],"default_left":[0,0,0,0,0,0,0],"id":98,"left_children":[1,3,-1,5,-1,-1,-1],"loss_changes":[2.7078384E-1,4.1126496E-1,0E0,5.1396686E-1,0E0,0E0,0E0],"parents":[2147483647,0,0,1,1,3,3],"right_children":[2,4,-1,6,-1,-1,-1],"split_conditions":[9.769241E-1,8.9546496E-1,1.37860505E-2,4.0447773E1,-2.1839185E-2,2.1657813E-2,-9.268619E-3],"split_indices":[0,0,0,2,0,0,0],"split_type":[0,0,0,0,0,0,0],"sum_hessian":[6.5526304E0,5.101681E0,1.450949E0,3.6439154E0,1.4577658E0,1.2647693E0,2.379146E0],"tree_param":{"num_deleted":"0","num_feature":"6","num_nodes":"7","size_leaf_vector":"1"}},{"base_weights":[-4.903353E-3,-1.6533558E-1,1.8662018E-1,-2.135846E-2,7.7534094E-2,1.8750982E-2,-2.58972E-3,2.5069982E-2,-1.7187458E-2],"categories":[],"categories_nodes":[],"categories_segments":[],"categories_sizes":[],"default_left":[0,0,0,0,0,0,0,0,0],"id":99,"left_children":[1,3,5,-1,7,-1,-1,-1,-1],"loss_changes":[2.6243111E-1,3.276419E-1,1.9483498E-1,0E0,7.5254333E-1,0E0,0E0,0E0,0E0],"parents":[2147483647,0,0,1,1,2,2,4,4],"right_children":[2,4,6,-1,8,-1,-1,-1,-1],"split_conditions":[6.9E-1,8.780692E-1,7.3E-1,-2.135846E-2,4.7E-1,1.8750982E-2,-2.58972E-3,2.5069982E-2,-1.7187458E-2],"split_indices":[5,0,5,0,5,0,0,0,0],"split_type":[0,0,0,0,0,0,0,0,0],"sum_hessian":[6.5366793E0,3.6314673E0,2.905212E0,1.3823445E0,2.2491229E0,1.3027685E0,1.6024436E0,1.0263299E0,1.2227931E0],"tree_param":{"num_deleted":"0","num_feature":"6","num_nodes":"9","size_leaf_vector":"1"}}]},"name":"gbtree"},"learner_model_param":{"base_score":"[1.6666667E-1]","boost_from_average":"1","num_class":"0","num_feature":"6","num_target":"1"},"objective":{"name":"binary:logistic","reg_loss_param":{"scale_pos_weight":"1"}}},"version":[3,2,0]}