{"learner":{"attributes":{"scikit_learn":"{\"_estimator_type\": \"classifier\"}"},"feature_names":["ema_20","ema_50","ema_100","ema_200","ema_trend","ema_slope","rsi","macd","macd_signal","macd_hist","momentum","roc","rsi_slope","atr","atr_change","bollinger_width","volatility_breakout","range_expansion","vol_ratio","volume_ma","volume_spike","volume_slope","volume_change_rate","volume_imbalance","volume","support_distance","resistance_distance","sr_breakout","pullback_depth","swing_high","swing_low","candle_body","upper_wick","lower_wick","doji","engulfing","hour","session_asian","session_london","session_newyork","rsi_divergence","price_change","ema_trend_15m","rsi_15m","ema_50_15m","ema_200_15m","ema_trend_1h","rsi_1h","ema_50_1h","ema_200_1h"],"feature_types":["float","float","float","float","int","float","float","float","float","float","float","float","float","float","float","float","int","float","float","float","int","float","float","float","float","float","float","int","float","int","int","float","float","float","int","int","int","int","int","int","int","float","int","float","float","float","int","float","float","float"],"gradient_booster":{"model":{"cats":{"enc":[],"feature_segments":[],"sorted_idx":[]},"gbtree_model_param":{"num_parallel_tree":"1","num_trees":"600"},"iteration_indptr":[0,3,6,9,12,15,18,21,24,27,30,33,36,39,42,45,48,51,54,57,60,63,66,69,72,75,78,81,84,87,90,93,96,99,102,105,108,111,114,117,120,123,126,129,132,135,138,141,144,147,150,153,156,159,162,165,168,171,174,177,180,183,186,189,192,195,198,201,204,207,210,213,216,219,222,225,228,231,234,237,240,243,246,249,252,255,258,261,264,267,270,273,276,279,282,285,288,291,294,297,300,303,306,309,312,315,318,321,324,327,330,333,336,339,342,345,348,351,354,357,360,363,366,369,372,375,378,381,384,387,390,393,396,399,402,405,408,411,414,417,420,423,426,429,432,435,438,441,444,447,450,453,456,459,462,465,468,471,474,477,480,483,486,489,492,495,498,501,504,507,510,513,516,519,522,525,528,531,534,537,540,543,546,549,552,555,558,561,564,567,570,573,576,579,582,585,588,591,594,597,600],"tree_info":[0,1,2,0,1,2,0,1,2,0,1,2,0,1,2,0,1,2,0,1,2,0,1,2,0,1,2,0,1,2,0,1,2,0,1,2,0,1,2,0,1,2,0,1,2,0,1,2,0,1,2,0,1,2,0,1,2,0,1,2,0,1,2,0,1,2,0,1,2,0,1,2,0,1,2,0,1,2,0,1,2,0,1,2,0,1,2,0,1,2,0,1,2,0,1,2,0,1,2,0,1,2,0,1,2,0,1,2,0,1,2,0,1,2,0,1,2,0,1,2,0,1,2,0,1,2,0,1,2,0,1,2,0,1,2,0,1,2,0,1,2,0,1,2,0,1,2,0,1,2,0,1,2,0,1,2,0,1,2,0,1,2,0,1,2,0,1,2,0,1,2,0,1,2,0,1,2,0,1,2,0,1,2,0,1,2,0,1,2,0,1,2,0,1,2,0,1,2,0,1,2,0,1,2,0,1,2,0,1,2,0,1,2,0,1,2,0,1,2,0,1,2,0,1,2,0,1,2,0,1,2,0,1,2,0,1,2,0,1,2,0,1,2,0,1,2,0,1,2,0,1,2,0,1,2,0,1,2,0,1,2,0,1,2,0,1,2,0,1,2,0,1,2,0,1,2,0,1,2,0,1,2,0,1,2,0,1,2,0,1,2,0,1,2,0,1,2,0,1,2,0,1,2,0,1,2,0,1,2,0,1,2,0,1,2,0,1,2,0,1,2,0,1,2,0,1,2,0,1,2,0,1,2,0,1,2,0,1,2,0,1,2,0,1,2,0,1,2,0,1,2,0,1,2,0,1,2,0,1,2,0,1,2,0,1,2,0,1,2,0,1,2,0,1,2,0,1,2,0,1,2,0,1,2,0,1,2,0,1,2,0,1,2,0,1,2,0,1,2,0,1,2,0,1,2,0,1,2,0,1,2,0,1,2,0,1,2,0,1,2,0,1,2,0,1,2,0,1,2,0,1,2,0,1,2,0,1,2,0,1,2,0,1,2,0,1,2,0,1,2,0,1,2,0,1,2,0,1,2,0,1,2,0,1,2,0,1,2,0,1,2,0,1,2,0,1,2,0,1,2,0,1,2,0,1,2,0,1,2,0,1,2,0,1,2,0,1,2,0,1,2,0,1,2,0,1,2,0,1,2,0,1,2,0,1,2,0,1,2,0,1,2,0,1,2,0,1,2,0,1,2,0,1,2,0,1,2,0,1,2,0,1,2,0,1,2,0,1,2,0,1,2,0,1,2,0,1,2,0,1,2,0,1,2,0,1,2,0,1,2,0,1,2,0,1,2,0,1,2,0,1,2,0,1,2,0,1,2,0,1,2,0,1,2,0,1,2,0,1,2],"trees":[{"base_weights":[-1.45660145E-2,1.8349657E0,-2.735804E-1,-4.703344E-2,3.0702715E0,2.6791793E-1,-4.510528E-1,3.6887012E0,-5.7814512E-2,-1.04311846E-1,3.239789E0,-4.9427763E-1,3.3887962E-1,-3.0351141E-2,4.23964E0,-2.895088E-2,2.1700028E-2,-4.7813004E-1,1.0268592E0,6.331994E-2,4.0579054E-1,-2.5550577E-1,-5.210306E-1,1.872996E-1,-4.304404E-2,4.877418E-1,1.6379736E-1,-5.1586337E-2,2.1700028E-2,-2.3900742E-2,2.2470228E-1,2.962164E-2,-4.796974E-2,-1.7513197E-2,-5.3151984E-2],"categories":[],"categories_nodes":[],"categories_segments":[],"categories_sizes":[],"default_left":[0,0,0,0,0,0,0,0,0,0,0,0,0,0,0,0,0,0,0,0,0,0,0,0,0,0,0,0,0,0,0,0,0,0,0],"id":0,"left_children":[1,3,5,-1,7,9,11,13,15,17,19,21,23,-1,25,-1,-1,27,29,-1,-1,31,33,-1,-1,-1,-1,-1,-1,-1,-1,-1,-1,-1,-1],"loss_changes":[7.978201E1,5.9705826E1,1.4154811E1,0E0,2.623941E1,4.090809E1,3.9356709E0,2.6027145E1,2.6691714E-1,1.4682397E1,6.202381E0,5.3785515E-1,8.26378E0,0E0,8.522583E0,0E0,0E0,7.91482E-1,1.3903447E1,0E0,0E0,1.6938782E0,2.461319E-1,0E0,0E0,0E0,0E0,0E0,0E0,0E0,0E0,0E0,0E0,0E0,0E0],"parents":[2147483647,0,0,1,1,2,2,4,4,5,5,6,6,7,7,8,8,9,9,10,10,11,11,12,12,14,14,17,17,18,18,21,21,22,22],"right_children":[2,4,6,-1,8,10,12,14,16,18,20,22,24,-1,26,-1,-1,28,30,-1,-1,32,34,-1,-1,-1,-1,-1,-1,-1,-1,-1,-1,-1,-1],"split_conditions":[3.5802074E1,2.7167503E-4,4.5504475E1,-4.703344E-2,1.3439626E0,2.1855764E-4,6.1245024E-4,1.3319144E0,1.3437592E0,4.5604067E-4,1.8433897E-3,1.3329188E0,3.1607389E-3,-3.0351141E-2,1.4E1,-2.895088E-2,2.1700028E-2,1.3458865E0,-4.79965E-4,6.331994E-2,4.0579054E-1,5.232514E1,6.834813E-4,1.872996E-1,-4.304404E-2,4.877418E-1,1.6379736E-1,-5.1586337E-2,2.1700028E-2,-2.3900742E-2,2.2470228E-1,2.962164E-2,-4.796974E-2,-1.7513197E-2,-5.3151984E-2],"split_indices":[6,18,6,0,3,8,18,0,0,18,15,2,25,0,36,0,0,0,8,0,0,6,25,0,0,0,0,0,0,0,0,0,0,0,0],"split_type":[0,0,0,0,0,0,0,0,0,0,0,0,0,0,0,0,0,0,0,0,0,0,0,0,0,0,0,0,0,0,0,0,0,0,0],"sum_hessian":[1.6449237E2,1.9458876E1,1.450335E2,7.0051956E0,1.2453681E1,3.5674606E1,1.0935889E2,1.0248342E1,2.2053394E0,3.2561188E1,3.1134202E0,1.0404012E2,5.3187594E0,1.2972584E0,8.951083E0,1.1675326E0,1.0378067E0,2.4907362E1,7.653825E0,1.1675326E0,1.9458877E0,1.15456E1,9.249453E1,1.2972584E0,4.021501E0,6.4862924E0,2.464791E0,2.3869555E1,1.0378067E0,4.151227E0,3.5025978E0,3.2431462E0,8.302454E0,3.2431462E0,8.925138E1],"tree_param":{"num_deleted":"0","num_feature":"50","num_nodes":"35","size_leaf_vector":"1"}},{"base_weights":[6.897285E-3,1.7897505E-1,-2.5341048E0,-2.375889E0,3.0504158E-1,-1.0070901E0,-2.8247612E0,-2.8491688E-1,-1.045271E0,5.420884E-1,3.9684612E-2,-2.0434909E-1,9.9137746E-2,-4.4641506E-2,-3.0364972E-1,-2.0434909E-1,-1.0194484E-1,-6.424746E-2,5.614145E-1,1.2501372E-1,-9.524826E-1,3.2608382E-2,-2.0571316E-2,-5.6130063E-2,3.5212286E-2,-7.049514E-2,2.3451244E-2,-2.0571316E-2,5.6818962E-2,2.9294793E-2,-2.5772816E-2,4.301159E-3,-1.4921434E-1],"categories":[],"categories_nodes":[],"categories_segments":[],"categories_sizes":[],"default_left":[0,0,0,0,0,0,0,0,0,0,0,0,0,0,0,0,0,0,0,0,0,0,0,0,0,0,0,0,0,0,0,0,0],"id":1,"left_children":[1,3,5,7,9,11,13,-1,15,17,19,-1,21,-1,-1,-1,23,25,27,29,31,-1,-1,-1,-1,-1,-1,-1,-1,-1,-1,-1,-1],"loss_changes":[1.3827733E2,9.610893E1,6.057678E0,5.863388E0,1.778657E1,5.6615596E0,6.8510895E0,0E0,4.747535E0,1.7873573E0,1.1519203E1,0E0,2.9240507E-1,0E0,0E0,0E0,9.8156697E-1,1.2207401E0,8.7018967E-1,8.102018E0,5.855379E0,0E0,0E0,0E0,0E0,0E0,0E0,0E0,0E0,0E0,0E0,0E0,0E0],"parents":[2147483647,0,0,1,1,2,2,3,3,4,4,5,5,6,6,8,8,9,9,10,10,12,12,16,16,17,17,18,18,19,19,20,20],"right_children":[2,4,6,8,10,12,14,-1,16,18,20,-1,22,-1,-1,-1,24,26,28,30,32,-1,-1,-1,-1,-1,-1,-1,-1,-1,-1,-1,-1],"split_conditions":[1.5781078E-3,-1.7768318E-3,2.0773262E-4,-2.667667E-4,1.7596533E-3,2.3806744E-4,7.811548E-6,-2.8491688E-1,1.3398158E-4,-1.0738563E-3,1.2830883E-3,-2.0434909E-1,1.3359573E0,-4.4641506E-2,-3.0364972E-1,-2.0434909E-1,-1.1520677E-2,1.3347534E0,1.3335602E0,3.2782566E-2,-1.3327499E-5,3.2608382E-2,-2.0571316E-2,-5.6130063E-2,3.5212286E-2,-7.049514E-2,2.3451244E-2,-2.0571316E-2,5.6818962E-2,2.9294793E-2,-2.5772816E-2,4.301159E-3,-1.4921434E-1],"split_indices":[11,11,9,9,15,5,5,0,25,11,11,0,1,0,0,0,14,1,44,14,10,0,0,0,0,0,0,0,0,0,0,0,0],"split_type":[0,0,0,0,0,0,0,0,0,0,0,0,0,0,0,0,0,0,0,0,0,0,0,0,0,0,0,0,0,0,0,0,0],"sum_hessian":[3.1420593E2,2.9514795E2,1.9057981E1,1.3039671E1,2.8210828E2,3.7614436E0,1.5296537E1,8.776702E0,4.2629695E0,1.4845164E2,1.3365663E2,1.5045774E0,2.2568662E0,1.5045774E0,1.379196E1,1.5045774E0,2.758392E0,4.5137324E0,1.4393791E2,1.2387688E2,9.779754E0,1.2538146E0,1.0030516E0,1.2538146E0,1.5045774E0,1.0030516E0,3.5106807E0,1.0030516E0,1.4293486E2,8.626244E1,3.7614437E1,3.7614436E0,6.0183096E0],"tree_param":{"num_deleted":"0","num_feature":"50","num_nodes":"33","size_leaf_vector":"1"}},{"base_weights":[-6.673086E-3,-3.5784656E-1,4.2960634E0,-4.3781862E-1,1.2788994E0,9.373172E-3,4.782645E0,-4.797305E-1,6.3320184E-1,-2.4971054E-1,3.1090987E0,1.1126844E-1,5.0625453E0,-4.9238667E-1,6.4554356E-2,-4.062056E-2,1.6608144E0,-4.108814E-2,1.7840272E-2,6.4554356E-2,3.951864E-1,1.5798251E-1,5.305714E-1,-1.0559365E-2,-5.171E-2,1.7840272E-2,2.3232678E-1],"categories":[],"categories_nodes":[],"categories_segments":[],"categories_sizes":[],"default_left":[0,0,0,0,0,0,0,0,0,0,0,0,0,0,0,0,0,0,0,0,0,0,0,0,0,0,0],"id":2,"left_children":[1,3,5,7,9,-1,11,13,15,17,19,-1,21,23,-1,-1,25,-1,-1,-1,-1,-1,-1,-1,-1,-1,-1],"loss_changes":[2.712803E2,2.2284552E1,2.7253342E1,7.4403343E0,2.312039E1,0E0,6.818634E0,2.5048943E0,7.5300074E0,4.3745053E-1,5.149769E0,0E0,9.175415E-1,1.40242E0,0E0,0E0,2.947938E0,0E0,0E0,0E0,0E0,0E0,0E0,0E0,0E0,0E0,0E0],"parents":[2147483647,0,0,1,1,2,2,3,3,4,4,6,6,7,7,8,8,9,9,10,10,12,12,13,13,16,16],"right_children":[2,4,6,8,10,-1,12,14,16,18,20,-1,22,24,-1,-1,26,-1,-1,-1,-1,-1,-1,-1,-1,-1,-1],"split_conditions":[1.5781078E-3,2.0236193E-4,5.214158E-4,1.2224416E-3,5.545959E1,9.373172E-3,-7.866187E0,9.522654E-4,1.2988885E-4,5.221139E1,4.3985677E0,1.1126844E-1,-8.028488E-2,1.3324693E0,6.4554356E-2,-4.062056E-2,4.8034918E-4,-4.108814E-2,1.7840272E-2,6.4554356E-2,3.951864E-1,1.5798251E-1,5.305714E-1,-1.0559365E-2,-5.171E-2,1.7840272E-2,2.3232678E-1],"split_indices":[11,9,13,11,6,0,12,10,9,6,12,0,14,2,0,0,13,0,0,0,0,0,0,0,0,0,0],"split_type":[0,0,0,0,0,0,0,0,0,0,0,0,0,0,0,0,0,0,0,0,0,0,0,0,0,0,0],"sum_hessian":[1.7751868E2,1.6497116E2,1.2547504E1,1.5798448E2,6.9866786E0,1.4258528E0,1.1121652E1,1.5256625E2,5.4182405E0,4.2775583E0,2.7091203E0,1.1406822E0,9.980969E0,1.5142557E2,1.1406822E0,2.9942908E0,2.4239497E0,3.136876E0,1.1406822E0,1.1406822E0,1.568438E0,1.1406822E0,8.840287E0,9.410628E0,1.4201494E2,1.1406822E0,1.2832675E0],"tree_param":{"num_deleted":"0","num_feature":"50","num_nodes":"27","size_leaf_vector":"1"}},{"base_weights":[4.196358E-3,2.5061717E0,-2.8072298E-1,3.012794E0,4.5268187E-1,1.4407333E0,-3.4749052E-1,3.265773E0,1.1743517E0,1.0726719E-1,-3.420913E-2,2.1182065E0,-1.0502532E-4,3.127092E-1,-4.385449E-1,9.619083E-2,3.4745765E-1,1.6436492E-1,1.7298166E-2,5.14292E-2,2.7995306E-1,-1.5229973E-1,1.631829E0,-4.82201E-1,3.080735E-1,7.31106E-2,-3.3510424E-2,2.2134379E-1,3.8200814E-2,-7.126171E-3,-5.049788E-2,1.5958981E-1,-2.8630048E-2],"categories":[],"categories_nodes":[],"categories_segments":[],"categories_sizes":[],"default_left":[0,0,0,0,0,0,0,0,0,0,0,0,0,0,0,0,0,0,0,0,0,0,0,0,0,0,0,0,0,0,0,0,0],"id":3,"left_children":[1,3,5,7,9,11,13,15,17,-1,-1,19,-1,21,23,-1,-1,-1,-1,-1,-1,25,27,29,31,-1,-1,-1,-1,-1,-1,-1,-1],"loss_changes":[1.19472664E2,1.6461502E1,1.7795849E1,2.4744797E0,2.6175916E0,5.6798553E0,8.893497E0,2.1245117E0,1.220676E0,0E0,0E0,2.882183E0,0E0,1.1436061E1,4.3344536E0,0E0,0E0,0E0,0E0,0E0,0E0,2.5703812E0,2.671935E0,1.1033401E0,6.3543262E0,0E0,0E0,0E0,0E0,0E0,0E0,0E0,0E0],"parents":[2147483647,0,0,1,1,2,2,3,3,4,4,5,5,6,6,7,7,8,8,11,11,13,13,14,14,21,21,22,22,23,23,24,24],"right_children":[2,4,6,8,10,12,14,16,18,-1,-1,20,-1,22,24,-1,-1,-1,-1,-1,-1,26,28,30,32,-1,-1,-1,-1,-1,-1,-1,-1],"split_conditions":[-2.1862838E-4,4.3383575E1,-1.349639E1,1.4574835E0,1.3352809E0,1.3394511E0,-1.17953205E-4,1E0,2.8187828E-4,1.0726719E-1,-3.420913E-2,1.7518577E-3,-1.0502532E-4,3.126331E-3,1.3431411E0,9.619083E-2,3.4745765E-1,1.6436492E-1,1.7298166E-2,5.14292E-2,2.7995306E-1,-3.338025E-4,1.3398854E0,-4.5308433E-4,-3.1807413E0,7.31106E-2,-3.3510424E-2,2.2134379E-1,3.8200814E-2,-7.126171E-3,-5.049788E-2,1.5958981E-1,-2.8630048E-2],"split_indices":[9,6,12,17,45,0,9,36,25,0,0,26,0,26,49,0,0,0,0,0,0,10,45,10,12,0,0,0,0,0,0,0,0],"split_type":[0,0,0,0,0,0,0,0,0,0,0,0,0,0,0,0,0,0,0,0,0,0,0,0,0,0,0,0,0,0,0,0,0],"sum_hessian":[1.6560907E2,1.6134077E1,1.4947499E2,1.2566581E1,3.5674953E0,4.81266E0,1.4466234E2,1.0364055E1,2.2025266E0,1.8076881E0,1.7598071E0,2.9549942E0,1.857666E0,1.7238487E1,1.2742384E2,1.3271797E0,9.036875E0,1.0629628E0,1.1395637E0,1.4041966E0,1.5507975E0,1.3399509E1,3.8389783E0,1.2071933E2,6.7045193E0,1.7831275E0,1.1616382E1,2.0936747E0,1.7453035E0,6.5567074E0,1.1416262E2,1.5850971E0,5.119422E0],"tree_param":{"num_deleted":"0","num_feature":"50","num_nodes":"33","size_leaf_vector":"1"}},{"base_weights":[1.5789304E-2,4.1865888E-1,-6.8428266E-1,5.323127E-1,1.3903509E-1,-3.8235182E-1,-1.5975949E0,-4.0972095E-2,5.457544E-1,2.4111736E-1,-7.656536E-1,-1.7108265E0,-1.1457402E-1,-4.6447465E-1,-1.8890525E0,-1.1651463E-2,5.52504E-1,3.9651203E-1,-2.0976858E-1,-1.3539732E0,1.2887649E-1,-8.703346E-4,-1.9121256E0,-5.963572E-1,2.1724482E-1,4.2522535E-2,-1.0551404E0,-1.9667927E0,-1.761365E-2,5.593593E-2,6.9578215E-3,1.455504E-3,5.6025293E-2,-1.8993649E-1,9.09141E-3,-1.7784159E-1,-1.55631825E-2,3.3948835E-2,-1.692087E-2,-4.4754222E-2,-2.0567794E-1,-3.639517E-2,-1.4838088E-1,3.0860871E-2,-7.611468E-2,-2.873112E-2,-1.503541E-1,-5.2718956E-2,-2.032439E-1],"categories":[],"categories_nodes":[],"categories_segments":[],"categories_sizes":[],"default_left":[0,0,0,0,0,0,0,0,0,0,0,0,0,0,0,0,0,0,0,0,0,0,0,0,0,0,0,0,0,0,0,0,0,0,0,0,0,0,0,0,0,0,0,0,0,0,0,0,0],"id":4,"left_children":[1,3,5,7,9,11,13,-1,15,17,19,21,23,25,27,-1,29,31,33,35,37,-1,39,41,43,-1,45,47,-1,-1,-1,-1,-1,-1,-1,-1,-1,-1,-1,-1,-1,-1,-1,-1,-1,-1,-1,-1,-1],"loss_changes":[8.956097E1,6.3308105E0,3.1376812E1,2.033577E0,5.6883907E0,3.1284348E1,8.536797E0,0E0,6.9625854E-1,3.8886333E0,3.4806237E0,5.045246E0,1.2074684E1,4.2103653E0,2.6294556E0,0E0,4.2490768E-1,2.5396895E0,7.5771904E0,1.6949921E0,2.7124548E-1,0E0,1.8773842E0,5.8002253E0,4.2555857E0,0E0,1.1480775E0,9.394913E-1,0E0,0E0,0E0,0E0,0E0,0E0,0E0,0E0,0E0,0E0,0E0,0E0,0E0,0E0,0E0,0E0,0E0,0E0,0E0,0E0,0E0],"parents":[2147483647,0,0,1,1,2,2,3,3,4,4,5,5,6,6,8,8,9,9,10,10,11,11,12,12,13,13,14,14,16,16,17,17,18,18,19,19,20,20,22,22,23,23,24,24,26,26,27,27],"right_children":[2,4,6,8,10,12,14,-1,16,18,20,22,24,26,28,-1,30,32,34,36,38,-1,40,42,44,-1,46,48,-1,-1,-1,-1,-1,-1,-1,-1,-1,-1,-1,-1,-1,-1,-1,-1,-1,-1,-1,-1,-1],"split_conditions":[2.2769575E-3,1.7596533E-3,2.1153239E-4,-1.6645794E1,1E0,-2.4338414E-4,7.811548E-6,-4.0972095E-2,-3.8797932E-4,5.7306698E1,1.3406887E0,-2.4609428E-3,1.3348764E0,4.234582E0,1.3436687E0,-1.1651463E-2,1.3442775E0,4.3804348E1,1.3350735E0,2.470862E-4,1E0,-8.703346E-4,6.930559E-1,1.3344754E0,7.1860844E-4,4.2522535E-2,2.3299452E-2,-9.837281E0,-1.761365E-2,5.593593E-2,6.9578215E-3,1.455504E-3,5.6025293E-2,-1.8993649E-1,9.09141E-3,-1.7784159E-1,-1.55631825E-2,3.3948835E-2,-1.692087E-2,-4.4754222E-2,-2.0567794E-1,-3.639517E-2,-1.4838088E-1,3.0860871E-2,-7.611468E-2,-2.873112E-2,-1.503541E-1,-5.2718956E-2,-2.032439E-1],"split_indices":[15,15,9,12,16,9,5,0,5,6,3,7,2,12,3,0,3,6,0,7,46,0,28,2,13,0,33,12,0,0,0,0,0,0,0,0,0,0,0,0,0,0,0,0,0,0,0,0,0],"split_type":[0,0,0,0,0,0,0,0,0,0,0,0,0,0,0,0,0,0,0,0,0,0,0,0,0,0,0,0,0,0,0,0,0,0,0,0,0,0,0,0,0,0,0,0,0,0,0,0,0],"sum_hessian":[3.1553384E2,2.0053447E2,1.1499936E2,1.4193925E2,5.859523E1,8.749359E1,2.7505766E1,1.5820642E0,1.4035718E2,5.3313034E1,5.282196E0,1.377338E1,7.3720215E1,6.158104E0,2.1347662E1,1.251984E0,1.391052E2,3.973815E1,1.3574883E1,2.8766508E0,2.4055455E0,1.566952E0,1.2206429E1,2.974085E1,4.3979362E1,2.568839E0,3.5892649E0,2.0279087E1,1.0685747E0,1.3700214E2,2.1030674E0,1.2250467E1,2.7487682E1,1.2475889E0,1.2327294E1,1.7668002E0,1.1098506E0,1.3282056E0,1.0773399E0,1.4652289E0,1.07411995E1,2.4686155E1,5.0546947E0,4.0849358E1,3.1300075E0,1.9282051E0,1.6610599E0,1.2782462E0,1.9000841E1],"tree_param":{"num_deleted":"0","num_feature":"50","num_nodes":"49","size_leaf_vector":"1"}},{"base_weights":[2.0238307E-4,-4.0216023E-1,2.2131076E0,-4.9889624E-1,2.7273107E-1,5.5107117E-1,2.537412E0,-5.1264185E-1,-9.196842E-3,-5.6709267E-2,1.7953067E0,1.7814831E-1,-2.0834467E-1,-2.8901685E-2,2.6856005E0,-2.5649774E-1,-5.2674443E-2,-3.974342E-2,7.270637E-2,-3.561629E-1,8.205997E-1,1.786029E-2,2.4572603E-1,2.1150319E-2,-3.926345E-2,8.2359606E-1,2.8554869E0,-4.7182795E-2,6.662409E-2,-4.948235E-2,4.1745532E-2,-6.910777E-3,1.6397423E-1,1.18239604E-1,1.2956222E-2,6.701394E-2,2.9450122E-1],"categories":[],"categories_nodes":[],"categories_segments":[],"categories_sizes":[],"default_left":[0,0,0,0,0,0,0,0,0,0,0,0,0,0,0,0,0,0,0,0,0,0,0,0,0,0,0,0,0,0,0,0,0,0,0,0,0],"id":5,"left_children":[1,3,5,7,9,11,13,15,17,19,21,-1,23,-1,25,27,-1,-1,-1,29,31,-1,-1,-1,-1,33,35,-1,-1,-1,-1,-1,-1,-1,-1,-1,-1],"loss_changes":[1.6521043E2,1.0386137E1,1.3988617E1,9.2198944E-1,1.0298935E1,5.9197783E0,1.06645355E1,3.4856033E-1,1.6544812E0,4.937683E0,3.4639082E0,0E0,4.3642324E-1,0E0,4.7750244E0,2.089943E0,0E0,0E0,0E0,1.695489E0,3.6132646E0,0E0,0E0,0E0,0E0,6.658416E-1,1.9864044E0,0E0,0E0,0E0,0E0,0E0,0E0,0E0,0E0,0E0,0E0],"parents":[2147483647,0,0,1,1,2,2,3,3,4,4,5,5,6,6,7,7,8,8,9,9,10,10,12,12,14,14,15,15,19,19,20,20,25,25,26,26],"right_children":[2,4,6,8,10,12,14,16,18,20,22,-1,24,-1,26,28,-1,-1,-1,30,32,-1,-1,-1,-1,34,36,-1,-1,-1,-1,-1,-1,-1,-1,-1,-1],"split_conditions":[1.2830883E-3,7.9243784E0,1.50182E-4,2.0236193E-4,1.4478365E-4,1.3344225E0,-8.073873E0,1.3324041E0,1.3336895E0,5.197198E-4,7.565102E-1,1.7814831E-1,3.2566097E-1,-2.8901685E-2,-1.4448841E-4,1.3342791E0,-5.2674443E-2,-3.974342E-2,7.270637E-2,4.9972177E-1,5.2087917E1,1.786029E-2,2.4572603E-1,2.1150319E-2,-3.926345E-2,4.3992046E1,4.7062908E-4,-4.7182795E-2,6.662409E-2,-4.948235E-2,4.1745532E-2,-6.910777E-3,1.6397423E-1,1.18239604E-1,1.2956222E-2,6.701394E-2,2.9450122E-1],"split_indices":[11,12,9,9,9,0,12,2,1,10,17,0,31,0,8,1,0,0,0,33,43,0,0,0,0,43,13,0,0,0,0,0,0,0,0,0,0],"split_type":[0,0,0,0,0,0,0,0,0,0,0,0,0,0,0,0,0,0,0,0,0,0,0,0,0,0,0,0,0,0,0,0,0,0,0,0,0],"sum_hessian":[1.8354872E2,1.5600186E2,2.754685E1,1.3667258E2,1.9329285E1,4.938195E0,2.2608656E1,1.3289542E2,3.7771583E0,1.6682451E1,2.6468349E0,1.3710114E0,3.567184E0,1.0789666E0,2.1529688E1,7.936335E0,1.2495909E2,2.774393E0,1.0027653E0,1.2880091E1,3.8023596E0,1.1377922E0,1.5090426E0,1.0431104E0,2.5240736E0,2.2890427E0,1.9240646E1,6.8309345E0,1.1054007E0,1.1228002E1,1.6520895E0,2.2615848E0,1.5407747E0,1.0450945E0,1.2439482E0,1.0911326E0,1.8149513E1],"tree_param":{"num_deleted":"0","num_feature":"50","num_nodes":"37","size_leaf_vector":"1"}},{"base_weights":[-3.5589752E-3,1.6182877E0,-3.5951015E-1,1.8991735E0,-5.3356264E-2,-4.323179E-1,4.340986E-1,1.1148193E-2,1.9952278E0,7.05858E-2,-4.0865228E-2,2.8416038E-1,-4.695859E-1,-3.586925E-1,1.8522761E0,6.00035E-1,2.1012478E0,1.162076E-1,-2.3358974E-1,5.717266E-1,-4.9412194E-1,1.9811254E-2,-4.6876427E-2,1.7409882E-2,2.397311E-1,-2.721431E-2,1.1533504E-1,8.028763E-2,2.2710672E-1,-4.0460005E-2,2.2547951E-2,-2.834454E-2,1.1793566E-1,-1.2238199E-2,-5.189987E-2],"categories":[],"categories_nodes":[],"categories_segments":[],"categories_sizes":[],"default_left":[0,0,0,0,0,0,0,0,0,0,0,0,0,0,0,0,0,0,0,0,0,0,0,0,0,0,0,0,0,0,0,0,0,0,0],"id":6,"left_children":[1,3,5,7,9,11,13,-1,15,-1,-1,17,19,21,23,25,27,-1,29,31,33,-1,-1,-1,-1,-1,-1,-1,-1,-1,-1,-1,-1,-1,-1],"loss_changes":[9.432793E1,1.3909248E1,7.9291763E0,4.1055145E0,1.6919714E0,3.4236908E0,1.3883886E1,0E0,2.2684708E0,0E0,0E0,3.323956E0,3.284771E0,6.0643744E-1,3.5872583E0,1.8025422E0,2.9777527E0,0E0,4.8822665E-1,1.9807926E0,1.0030975E0,0E0,0E0,0E0,0E0,0E0,0E0,0E0,0E0,0E0,0E0,0E0,0E0,0E0,0E0],"parents":[2147483647,0,0,1,1,2,2,3,3,4,4,5,5,6,6,8,8,11,11,12,12,13,13,14,14,15,15,16,16,18,18,19,19,20,20],"right_children":[2,4,6,8,10,12,14,-1,16,-1,-1,18,20,22,24,26,28,-1,30,32,34,-1,-1,-1,-1,-1,-1,-1,-1,-1,-1,-1,-1,-1,-1],"split_conditions":[-1.0738563E-3,4.2727077E1,5.615099E-4,2.9034918E-4,-2.6093144E-4,-9.124003E-4,1.7518577E-3,1.1148193E-2,3.6881012E1,7.05858E-2,-4.0865228E-2,-1.9180983E-4,-1.5472326E1,1.679995E-4,4.275648E-3,-1.4188294E-3,-5.054861E-2,1.162076E-1,1.7372262E-1,1E0,1.332429E0,1.9811254E-2,-4.6876427E-2,1.7409882E-2,2.397311E-1,-2.721431E-2,1.1533504E-1,8.028763E-2,2.2710672E-1,-4.0460005E-2,2.2547951E-2,-2.834454E-2,1.1793566E-1,-1.2238199E-2,-5.189987E-2],"split_indices":[11,6,18,18,9,11,26,0,47,0,0,9,12,5,15,11,14,0,33,38,2,0,0,0,0,0,0,0,0,0,0,0,0,0,0],"split_type":[0,0,0,0,0,0,0,0,0,0,0,0,0,0,0,0,0,0,0,0,0,0,0,0,0,0,0,0,0,0,0,0,0,0,0],"sum_hessian":[1.613877E2,2.8407255E1,1.3298044E2,2.420413E1,4.2031245E0,1.22222664E2,1.0757779E1,1.344368E0,2.2859762E1,1.0253752E0,3.1777492E0,5.715583E0,1.1650708E2,7.3795376E0,3.378242E0,2.0847454E0,2.0775017E1,1.6586479E0,4.0569353E0,2.1686306E0,1.14338455E2,1.0860144E0,6.293523E0,1.1516641E0,2.2265778E0,1.0064541E0,1.0782912E0,3.0654702E0,1.7709547E1,3.0422878E0,1.0146474E0,1.1224414E0,1.0461892E0,7.5428653E0,1.06795586E2],"tree_param":{"num_deleted":"0","num_feature":"50","num_nodes":"35","size_leaf_vector":"1"}},{"base_weights":[-2.683722E-4,3.9967775E-1,-6.283023E-1,-1.6853166E-1,4.5597583E-1,-3.327459E-1,-1.2646482E0,-5.8791167E-1,3.878195E-1,4.922367E-1,-4.4964787E-1,-1.2281585E0,9.5183425E-2,-2.358504E-1,-1.39219E0,-1.1194198E0,2.5769275E-1,-1.9710993E-2,4.962471E-2,7.7922076E-2,5.2363497E-1,4.4875618E-2,-1.397181E-1,-1.4225489E0,-3.1679413E-1,2.5216606E-1,-7.855431E-1,-6.1624473E-1,3.7965607E-2,-1.5523098E0,-7.226446E-1,3.106621E-2,-1.4730626E-1,4.2698152E-2,-1.9734709E-2,4.2477664E-2,-9.701131E-2,5.413015E-2,2.923209E-3,-4.9311444E-2,-1.5981525E-1,3.9551068E-2,-7.697619E-2,-2.6996052E-2,3.7161388E-2,3.6422793E-2,-1.09655395E-1,-2.9010628E-3,-9.978265E-2,-1.6290137E-1,-5.829735E-3,4.1096967E-2,-1.145034E-1],"categories":[],"categories_nodes":[],"categories_segments":[],"categories_sizes":[],"default_left":[0,0,0,0,0,0,0,0,0,0,0,0,0,0,0,0,0,0,0,0,0,0,0,0,0,0,0,0,0,0,0,0,0,0,0,0,0,0,0,0,0,0,0,0,0,0,0,0,0,0,0,0,0],"id":7,"left_children":[1,3,5,7,9,11,13,15,17,19,21,23,25,27,29,31,33,-1,-1,35,37,-1,-1,39,41,43,45,47,-1,49,51,-1,-1,-1,-1,-1,-1,-1,-1,-1,-1,-1,-1,-1,-1,-1,-1,-1,-1,-1,-1,-1,-1],"loss_changes":[7.880329E1,6.208267E0,2.25359E1,4.429907E0,5.9570465E0,3.2573887E1,4.704384E0,5.0822515E0,6.269491E-1,2.1500816E0,6.7959833E0,4.414749E0,8.250627E0,1.5063531E0,2.5147705E0,3.8645248E0,4.6399865E-1,0E0,0E0,5.151936E0,1.3500366E0,0E0,0E0,2.8595123E0,2.2772994E0,3.2304327E0,3.6369615E0,8.0908453E-1,0E0,2.9421997E0,4.50107E0,0E0,0E0,0E0,0E0,0E0,0E0,0E0,0E0,0E0,0E0,0E0,0E0,0E0,0E0,0E0,0E0,0E0,0E0,0E0,0E0,0E0,0E0],"parents":[2147483647,0,0,1,1,2,2,3,3,4,4,5,5,6,6,7,7,8,8,9,9,10,10,11,11,12,12,13,13,14,14,15,15,16,16,19,19,20,20,23,23,24,24,25,25,26,26,27,27,29,29,30,30],"right_children":[2,4,6,8,10,12,14,16,18,20,22,24,26,28,30,32,34,-1,-1,36,38,-1,-1,40,42,44,46,48,-1,50,52,-1,-1,-1,-1,-1,-1,-1,-1,-1,-1,-1,-1,-1,-1,-1,-1,-1,-1,-1,-1,-1,-1],"split_conditions":[2.2962189E-3,-9.124003E-4,1.2830883E-3,1.3398789E0,1.933835E-4,-1.7742872E-4,4.6328705E1,4.3804348E1,-4.4289927E-4,1.333177E0,5.1670994E1,-1.304751E-3,1.2175637E-1,3.5032496E-2,6.0295744E-4,1.5328055E-3,1.788124E-3,-1.9710993E-2,4.962471E-2,5.7306698E1,1.3445138E0,4.4875618E-2,-1.397181E-1,-1.2331931E-2,-1.1030049E-3,-1.2028163E-4,4.2457836E1,-2.5184833E-2,3.7965607E-2,1.3422189E0,8.826118E-4,3.106621E-2,-1.4730626E-1,4.2698152E-2,-1.9734709E-2,4.2477664E-2,-9.701131E-2,5.413015E-2,2.923209E-3,-4.9311444E-2,-1.5981525E-1,3.9551068E-2,-7.697619E-2,-2.6996052E-2,3.7161388E-2,3.6422793E-2,-1.09655395E-1,-2.9010628E-3,-9.978265E-2,-1.6290137E-1,-5.829735E-3,4.1096967E-2,-1.145034E-1],"split_indices":[15,11,11,44,9,9,47,6,10,2,6,11,14,14,8,15,26,0,0,6,44,0,0,14,11,9,47,14,0,45,7,0,0,0,0,0,0,0,0,0,0,0,0,0,0,0,0,0,0,0,0,0,0],"split_type":[0,0,0,0,0,0,0,0,0,0,0,0,0,0,0,0,0,0,0,0,0,0,0,0,0,0,0,0,0,0,0,0,0,0,0,0,0,0,0,0,0,0,0,0,0,0,0,0,0,0,0,0,0],"sum_hessian":[3.117329E2,1.9067218E2,1.2106073E2,1.7008991E1,1.736632E2,8.370576E1,3.735497E1,9.665994E0,7.3429976E0,1.6741637E2,6.2468286E0,2.6463243E1,5.7242516E1,4.4344335E0,3.2920536E1,5.7364893E0,3.9295042E0,1.0203999E0,6.3225975E0,1.2038923E1,1.5537744E2,3.4767454E0,2.7700832E0,2.1348742E1,5.114501E0,4.9188698E1,8.053819E0,2.7399156E0,1.6945177E0,2.550309E1,7.417444E0,1.1614176E0,4.575072E0,2.9089477E0,1.0205564E0,9.492129E0,2.5467944E0,1.499253E2,5.4521403E0,3.9977207E0,1.735102E1,2.0374298E0,3.0770714E0,8.923311E0,4.0265385E1,1.6782848E0,6.375534E0,1.502963E0,1.2369528E0,2.4171732E1,1.3313582E0,2.020862E0,5.396582E0],"tree_param":{"num_deleted":"0","num_feature":"50","num_nodes":"53","size_leaf_vector":"1"}},{"base_weights":[2.2041653E-3,-3.8981724E-1,1.6330895E0,-4.9291062E-1,2.5302956E-1,4.335942E-2,1.7935209E0,-5.078955E-1,7.1614586E-2,-3.6144865E-1,1.3962061E0,-3.7400674E-2,6.554552E-2,2.8255812E-3,1.8904179E0,-2.4086733E-1,-5.2309897E-2,-3.666578E-2,7.200557E-2,-4.9744878E-2,6.586816E-2,-3.864963E-2,2.4050112E0,1.6835542E-2,1.9541019E0,-4.6770353E-2,7.074047E-2,6.948658E-2,2.6908448E-1,1.1916174E-1,2.2563735E-1],"categories":[],"categories_nodes":[],"categories_segments":[],"categories_sizes":[],"default_left":[0,0,0,0,0,0,0,0,0,0,0,0,0,0,0,0,0,0,0,0,0,0,0,0,0,0,0,0,0,0,0],"id":8,"left_children":[1,3,5,7,9,11,13,15,17,19,21,-1,-1,-1,23,25,-1,-1,-1,-1,-1,-1,27,-1,29,-1,-1,-1,-1,-1,-1],"loss_changes":[1.1556159E2,9.782553E0,8.855774E0,1.1016273E0,1.5116603E1,1.3272152E0,5.3845825E0,3.7251282E-1,1.4384754E0,2.314862E0,1.4377533E1,0E0,0E0,0E0,2.9744797E0,2.1523798E0,0E0,0E0,0E0,0E0,0E0,0E0,5.322113E-1,0E0,3.9845123E0,0E0,0E0,0E0,0E0,0E0,0E0],"parents":[2147483647,0,0,1,1,2,2,3,3,4,4,5,5,6,6,7,7,8,8,9,9,10,10,14,14,15,15,22,22,24,24],"right_children":[2,4,6,8,10,12,14,16,18,20,22,-1,-1,-1,24,26,-1,-1,-1,-1,-1,-1,28,-1,30,-1,-1,-1,-1,-1,-1],"split_conditions":[1.2830883E-3,7.8266716E0,1.11841175E-4,2.0236193E-4,1.7115019E-3,5.0261605E-4,1.660562E-3,1.3324041E0,5.0247714E-2,1.8378403E1,4.0798646E-4,-3.7400674E-2,6.554552E-2,2.8255812E-3,3.489913E-4,3.6319613E-1,-5.2309897E-2,-3.666578E-2,7.200557E-2,-4.9744878E-2,6.586816E-2,-3.864963E-2,1.9706066E-3,1.6835542E-2,8.635693E-1,-4.6770353E-2,7.074047E-2,6.948658E-2,2.6908448E-1,1.1916174E-1,2.2563735E-1],"split_indices":[11,12,9,9,25,18,25,2,14,12,18,0,0,0,18,33,0,0,0,0,0,0,15,0,12,0,0,0,0,0,0],"split_type":[0,0,0,0,0,0,0,0,0,0,0,0,0,0,0,0,0,0,0,0,0,0,0,0,0,0,0,0,0,0,0],"sum_hessian":[1.787551E2,1.4472746E2,3.4027645E1,1.2492626E2,1.9801193E1,3.2356398E0,3.0792007E1,1.21793655E2,3.1326067E0,1.3323429E1,6.4777646E0,2.1551166E0,1.0805231E0,1.6694618E0,2.9122545E1,7.4681726E0,1.14325485E2,2.1285226E0,1.0040839E0,1.2208238E1,1.1151912E0,2.5638871E0,3.9138775E0,1.168519E0,2.7954027E1,6.435516E0,1.0326566E0,1.0518234E0,2.862054E0,9.338845E0,1.8615181E1],"tree_param":{"num_deleted":"0","num_feature":"50","num_nodes":"31","size_leaf_vector":"1"}},{"base_weights":[3.2612584E-3,1.278624E0,-3.5474852E-1,1.7148944E0,7.301426E-1,-4.0898862E-1,3.9199305E-1,1.7943611E0,4.5836776E-2,5.9148118E-2,1.1246624E0,3.163681E-1,-4.5488402E-1,1.4364572E0,-4.5071878E-2,4.840407E-2,1.878222E-1,-2.9693887E-1,1.0196691E-1,4.438836E-3,1.3046614E0,8.549503E-1,-3.9893534E-2,-4.7203445E-1,5.372205E-2,1.4711976E-2,1.9152598E-1,2.2825282E-2,-4.4152427E-2,5.357748E-2,2.05826E-1,-2.8366882E-2,1.2751396E-1,3.0142492E-2,-4.892683E-2],"categories":[],"categories_nodes":[],"categories_segments":[],"categories_sizes":[],"default_left":[0,0,0,0,0,0,0,0,0,0,0,0,0,0,0,0,0,0,0,0,0,0,0,0,0,0,0,0,0,0,0,0,0,0,0],"id":9,"left_children":[1,3,5,7,9,11,13,15,-1,17,19,21,23,25,-1,-1,-1,27,-1,-1,29,31,-1,33,-1,-1,-1,-1,-1,-1,-1,-1,-1,-1,-1],"loss_changes":[7.351002E1,7.1916885E0,5.252244E0,1.0660019E0,4.5329227E0,4.0619545E0,8.589969E0,1.0077667E0,0E0,2.8641357E0,2.0588512E0,3.2664237E0,2.14394E0,2.353242E0,0E0,0E0,0E0,5.7444656E-1,0E0,0E0,4.28362E0,2.5864234E0,0E0,1.610321E0,0E0,0E0,0E0,0E0,0E0,0E0,0E0,0E0,0E0,0E0,0E0],"parents":[2147483647,0,0,1,1,2,2,3,3,4,4,5,5,6,6,7,7,9,9,10,10,11,11,12,12,13,13,17,17,20,20,21,21,23,23],"right_children":[2,4,6,8,10,12,14,16,-1,18,20,22,24,26,-1,-1,-1,28,-1,-1,30,32,-1,34,-1,-1,-1,-1,-1,-1,-1,-1,-1,-1,-1],"split_conditions":[-1.0738563E-3,-1.7768318E-3,5.88917E-4,5.988838E0,-1.0059807E-2,-9.124003E-4,5.3983112E1,-8.1419456E-4,4.5836776E-2,9.7737855E-1,1.6498439E-3,1.3398789E0,9.957322E-1,4.275648E-3,-4.5071878E-2,4.840407E-2,1.878222E-1,-9.574578E-2,1.0196691E-1,4.438836E-3,-1.9558099E-4,1.3347769E0,-3.9893534E-2,1.3331728E0,5.372205E-2,1.4711976E-2,1.9152598E-1,2.2825282E-2,-4.4152427E-2,5.357748E-2,2.05826E-1,-2.8366882E-2,1.2751396E-1,3.0142492E-2,-4.892683E-2],"split_indices":[11,11,18,12,14,11,6,8,0,28,26,44,28,15,0,0,0,14,0,0,8,44,0,44,0,0,0,0,0,0,0,0,0,0,0],"split_type":[0,0,0,0,0,0,0,0,0,0,0,0,0,0,0,0,0,0,0,0,0,0,0,0,0,0,0,0,0,0,0,0,0,0,0],"sum_hessian":[1.590036E2,3.428748E1,1.24716125E2,1.7912771E1,1.6374708E1,1.1669239E2,8.023734E0,1.6444723E1,1.4680479E0,6.4887114E0,9.885996E0,6.593396E0,1.10099E2,3.2683494E0,4.7553844E0,1.3964958E0,1.5048228E1,5.2377973E0,1.2509143E0,1.590018E0,8.295978E0,3.6499596E0,2.9434366E0,1.0874336E2,1.3556318E0,1.2390516E0,2.0292978E0,1.0057697E0,4.2320275E0,4.9532237E0,3.3427541E0,1.0714558E0,2.5785038E0,2.010735E0,1.0673263E2],"tree_param":{"num_deleted":"0","num_feature":"50","num_nodes":"35","size_leaf_vector":"1"}},{"base_weights":[-1.257279E-2,3.785571E-1,-5.5107415E-1,4.1224298E-1,-9.5328814E-1,-3.0605224E-1,-1.07921E0,-9.744005E-2,4.682794E-1,-1.23480774E-1,-9.623351E-3,-9.685541E-1,5.263313E-2,-1.0531616E-1,-1.1415476E0,-4.2028278E-1,4.9236618E-2,-6.174721E-2,5.015178E-1,-2.5837198E-1,-1.2209764E0,3.1149587E-1,-3.3740354E-1,3.7475724E-2,-6.505735E-2,-6.679474E-3,-1.1806476E0,-8.819827E-2,4.5413174E-2,3.6890566E-2,-1.02050364E-1,5.190599E-2,2.7407527E-3,-7.945918E-2,1.9024853E-2,-1.3602506E-1,-7.136848E-2,3.8664546E-2,-8.750984E-2,1.3716224E-3,-9.731562E-2,-3.7350483E-2,-1.2545018E-1],"categories":[],"categories_nodes":[],"categories_segments":[],"categories_sizes":[],"default_left":[0,0,0,0,0,0,0,0,0,0,0,0,0,0,0,0,0,0,0,0,0,0,0,0,0,0,0,0,0,0,0,0,0,0,0,0,0,0,0,0,0,0,0],"id":10,"left_children":[1,3,5,7,9,11,13,15,17,-1,-1,19,21,23,25,27,-1,29,31,33,35,37,39,-1,-1,-1,41,-1,-1,-1,-1,-1,-1,-1,-1,-1,-1,-1,-1,-1,-1,-1,-1],"loss_changes":[6.479724E1,8.388996E0,1.6418266E1,5.0302734E0,1.014813E0,2.139167E1,2.3458977E0,3.6563513E0,2.8041382E0,0E0,0E0,5.3485184E0,6.083396E0,1.1718428E0,1.5211945E0,5.344714E0,0E0,4.57942E0,1.2186127E0,2.4493876E0,6.57177E-1,3.558371E0,5.3932643E0,0E0,0E0,0E0,1.7179146E0,0E0,0E0,0E0,0E0,0E0,0E0,0E0,0E0,0E0,0E0,0E0,0E0,0E0,0E0,0E0,0E0],"parents":[2147483647,0,0,1,1,2,2,3,3,4,4,5,5,6,6,7,7,8,8,11,11,12,12,13,13,14,14,15,15,17,17,18,18,19,19,20,20,21,21,22,22,26,26],"right_children":[2,4,6,8,10,12,14,16,18,-1,-1,20,22,24,26,28,-1,30,32,34,36,38,40,-1,-1,-1,42,-1,-1,-1,-1,-1,-1,-1,-1,-1,-1,-1,-1,-1,-1,-1,-1],"split_conditions":[2.2962189E-3,1.5631473E-3,1.2830883E-3,-9.124003E-4,2.317766E-1,-1.2944957E-3,-8.073873E0,1.3391049E0,1.332429E0,-1.23480774E-1,-9.623351E-3,-4.891002E-3,4.8664122E-4,5.675921E-1,3.4354517E-4,4.3804348E1,4.9236618E-2,5.7183514E1,1.9548704E-4,-3.026952E0,1.4E1,1.3456601E0,4.1518704E-4,3.7475724E-2,-6.505735E-2,-6.679474E-3,-8.1021525E-2,-8.819827E-2,4.5413174E-2,3.6890566E-2,-1.02050364E-1,5.190599E-2,2.7407527E-3,-7.945918E-2,1.9024853E-2,-1.3602506E-1,-7.136848E-2,3.8664546E-2,-8.750984E-2,1.3716224E-3,-9.731562E-2,-3.7350483E-2,-1.2545018E-1],"split_indices":[15,11,11,11,33,11,12,3,2,0,0,14,18,31,18,6,0,6,9,12,36,1,11,0,0,0,14,0,0,0,0,0,0,0,0,0,0,0,0,0,0,0,0],"split_type":[0,0,0,0,0,0,0,0,0,0,0,0,0,0,0,0,0,0,0,0,0,0,0,0,0,0,0,0,0,0,0,0,0,0,0,0,0,0,0,0,0,0,0],"sum_hessian":[3.0565372E2,1.7722607E2,1.2842764E2,1.7352757E2,3.6985006E0,8.8806496E1,3.9621155E1,1.71153E1,1.5641228E2,2.452246E0,1.2462547E0,3.0595486E1,5.8211006E1,2.5453207E0,3.7075832E1,1.124664E1,5.8686604E0,9.179317E0,1.4723296E2,8.553646E0,2.2041842E1,3.511017E1,2.3100836E1,1.5198559E0,1.0254649E0,1.3965596E0,3.5679276E1,7.354652E0,3.8919878E0,6.7586856E0,2.4206321E0,1.4188828E2,5.344679E0,3.5451121E0,5.0085335E0,1.5974682E1,6.0671587E0,3.3653008E1,1.4571627E0,1.5512091E1,7.588746E0,3.498783E0,3.2180492E1],"tree_param":{"num_deleted":"0","num_feature":"50","num_nodes":"43","size_leaf_vector":"1"}},{"base_weights":[-1.9946069E-2,-4.1212836E-1,1.2286141E0,-4.5316377E-1,6.1317724E-1,3.259691E-1,1.4513742E0,5.5370595E-2,-4.6779063E-1,-4.0307328E-2,1.9025856E-1,1.1917198E0,-1.7971127E-1,4.0236247E-1,1.5623219E0,-4.962078E-1,-3.799454E-2,1.2840551E-2,1.663018E-1,-4.4495557E-2,4.7010362E-2,-3.7703823E-2,1.05548695E-1,4.2625773E-1,1.6535659E0,-5.1159363E-2,-1.7133344E-2,-4.6843156E-2,1.4313823E-1,-3.3883832E-2,1.1795854E-1,1.599633E-2,1.7124599E-1],"categories":[],"categories_nodes":[],"categories_segments":[],"categories_sizes":[],"default_left":[0,0,0,0,0,0,0,0,0,0,0,0,0,0,0,0,0,0,0,0,0,0,0,0,0,0,0,0,0,0,0,0,0],"id":11,"left_children":[1,3,5,7,9,11,13,-1,15,-1,-1,17,19,21,23,25,27,-1,-1,-1,-1,-1,-1,29,31,-1,-1,-1,-1,-1,-1,-1,-1],"loss_changes":[8.618259E1,5.9113865E0,7.986805E0,2.163536E0,8.075575E0,4.424697E0,3.2651901E0,0E0,1.5445919E0,0E0,0E0,1.629292E0,1.405409E0,2.7125297E0,2.3955154E0,5.120983E-1,6.376482E0,0E0,0E0,0E0,0E0,0E0,0E0,2.4578457E0,2.1308594E0,0E0,0E0,0E0,0E0,0E0,0E0,0E0,0E0],"parents":[2147483647,0,0,1,1,2,2,3,3,4,4,5,5,6,6,8,8,11,11,12,12,13,13,14,14,15,15,16,16,23,23,24,24],"right_children":[2,4,6,8,10,12,14,-1,16,-1,-1,18,20,22,24,26,28,-1,-1,-1,-1,-1,-1,30,32,-1,-1,-1,-1,-1,-1,-1,-1],"split_conditions":[1.0799959E-3,2.0236193E-4,1.6098713E-4,1.3330994E0,5.8349617E1,1.3344225E0,-5.9555806E-2,5.5370595E-2,1.3429888E0,-4.0307328E-2,1.9025856E-1,5.6722782E1,6.83514E1,1.4513242E0,4.932325E1,1.3445138E0,5.6711067E1,1.2840551E-2,1.663018E-1,-4.4495557E-2,4.7010362E-2,-3.7703823E-2,1.05548695E-1,1.3334026E0,-8.073873E0,-5.1159363E-2,-1.7133344E-2,-4.6843156E-2,1.4313823E-1,-3.3883832E-2,1.1795854E-1,1.599633E-2,1.7124599E-1],"split_indices":[11,9,9,44,6,0,14,0,49,0,0,43,6,12,43,44,6,0,0,0,0,0,0,3,12,0,0,0,0,0,0,0,0],"split_type":[0,0,0,0,0,0,0,0,0,0,0,0,0,0,0,0,0,0,0,0,0,0,0,0,0,0,0,0,0,0,0,0,0],"sum_hessian":[1.7396976E2,1.3289601E2,4.1073742E1,1.283184E2,4.577615E0,8.617628E0,3.2456112E1,1.3096646E0,1.27008736E2,2.944386E0,1.6332288E0,2.6772954E0,5.940333E0,3.5468822E0,2.890923E1,1.1898706E2,8.021676E0,1.2130151E0,1.4642804E0,4.4423094E0,1.4980234E0,1.8098402E0,1.7370418E0,2.5709083E0,2.6338322E1,1.1305797E2,5.929093E0,6.731086E0,1.2905902E0,1.5484647E0,1.0224435E0,1.1401165E0,2.5198206E1],"tree_param":{"num_deleted":"0","num_feature":"50","num_nodes":"33","size_leaf_vector":"1"}},{"base_weights":[7.313923E-3,1.1437688E0,-3.4423274E-1,1.2319846E0,-3.4708146E-2,9.145231E-1,-3.817882E-1,1.4117881E0,2.5267956E-1,1.5443766E-1,-2.8573886E-2,-7.1730696E-2,-4.6032313E-1,1.4961764E0,2.477081E-3,-3.791615E-2,6.3167024E-1,-2.3068158E-1,7.8345597E-1,-4.8856935E-1,-5.4972157E-2,1.5848508E-1,2.5256112E-2,1.05856776E-1,-3.0971019E-2,-3.888719E-2,3.67431E-2,-2.7646607E-2,1.24633685E-1,-1.7565828E-2,-5.0990272E-2,8.2979016E-2,-4.4824015E-2],"categories":[],"categories_nodes":[],"categories_segments":[],"categories_sizes":[],"default_left":[0,0,0,0,0,0,0,0,0,0,0,0,0,0,0,0,0,0,0,0,0,0,0,0,0,0,0,0,0,0,0,0,0],"id":12,"left_children":[1,3,5,7,-1,9,11,13,15,-1,-1,17,19,21,-1,-1,23,25,27,29,31,-1,-1,-1,-1,-1,-1,-1,-1,-1,-1,-1,-1],"loss_changes":[6.2413837E1,5.281479E0,5.9903E0,5.8175774E0,0E0,3.2774992E0,2.805725E0,3.4050407E0,1.8336829E0,0E0,0E0,3.544433E0,1.0360546E0,2.6548424E0,0E0,0E0,2.1509066E0,2.1903129E0,2.3590124E0,4.8892212E-1,2.86825E0,0E0,0E0,0E0,0E0,0E0,0E0,0E0,0E0,0E0,0E0,0E0,0E0],"parents":[2147483647,0,0,1,1,2,2,3,3,5,5,6,6,7,7,8,8,11,11,12,12,13,13,16,16,17,17,18,18,19,19,20,20],"right_children":[2,4,6,8,-1,10,12,14,16,-1,-1,18,20,22,-1,-1,24,26,28,30,32,-1,-1,-1,-1,-1,-1,-1,-1,-1,-1,-1,-1],"split_conditions":[-1.0738563E-3,1.9E1,-1.5472326E1,2.8378315E0,-3.4708146E-2,1.336604E0,-4.1635332E-4,4.515517E1,2.6345574E-3,1.5443766E-1,-2.8573886E-2,7.091902E-4,5.983966E-4,1.7362527E-4,2.477081E-3,-3.791615E-2,4.61492E1,-5.0859636E-4,2.0918022E-3,1.332429E0,5.3983112E1,1.5848508E-1,2.5256112E-2,1.05856776E-1,-3.0971019E-2,-3.888719E-2,3.67431E-2,-2.7646607E-2,1.24633685E-1,-1.7565828E-2,-5.0990272E-2,8.2979016E-2,-4.4824015E-2],"split_indices":[11,36,12,12,0,0,11,6,26,0,0,13,18,10,0,0,47,11,26,2,6,0,0,0,0,0,0,0,0,0,0,0,0],"split_type":[0,0,0,0,0,0,0,0,0,0,0,0,0,0,0,0,0,0,0,0,0,0,0,0,0,0,0,0,0,0,0,0,0],"sum_hessian":[1.542378E2,3.5906925E1,1.18330864E2,3.4064888E1,1.8420357E0,2.7516556E0,1.1557921E2,2.8407553E1,5.6573353E0,1.6166155E0,1.13504E0,2.3745369E1,9.183384E1,2.670413E1,1.7034228E0,2.1209333E0,3.5364022E0,2.0639437E1,3.105932E0,8.565949E1,6.1743464E0,2.4670633E1,2.0334969E0,2.347412E0,1.1889899E0,1.65991E1,4.0403376E0,1.0665144E0,2.0394177E0,6.0566287E0,7.960287E1,1.5583752E0,4.6159716E0],"tree_param":{"num_deleted":"0","num_feature":"50","num_nodes":"33","size_leaf_vector":"1"}},{"base_weights":[-3.512904E-3,3.7753215E-1,-5.0145686E-1,-1.1754725E-1,3.9840767E-1,-6.0749065E-2,-6.651988E-1,4.2720434E-1,-4.9470514E-1,1.5878756E-1,-7.1911776E-1,-5.4638386E-1,-1.1801575E0,1.6845557E-3,4.7592515E-1,-8.5467035E-1,3.4563385E-2,2.8404164E-1,-6.198876E-1,-1.007487E0,3.8171265E-2,-4.2558518E-1,-1.1918422E-1,-3.9710935E-2,-1.272188E-1,-3.9208256E-2,4.0505443E-2,5.1737197E-2,1.2065139E-2,-1.33250905E-2,-1.0737141E-1,-2.1427494E-2,4.0848907E-2,-2.375184E-3,-9.090843E-2,-1.2082626E-1,-5.920747E-3,-1.08340524E-1,-3.2907404E-2],"categories":[],"categories_nodes":[],"categories_segments":[],"categories_sizes":[],"default_left":[0,0,0,0,0,0,0,0,0,0,0,0,0,0,0,0,0,0,0,0,0,0,0,0,0,0,0,0,0,0,0,0,0,0,0,0,0,0,0],"id":13,"left_children":[1,3,5,-1,7,9,11,13,15,17,19,21,23,25,27,29,-1,31,33,35,-1,37,-1,-1,-1,-1,-1,-1,-1,-1,-1,-1,-1,-1,-1,-1,-1,-1,-1],"loss_changes":[5.7142838E1,5.9995956E0,9.380627E0,0E0,4.5603237E0,5.384932E0,5.1730385E0,3.4065094E0,2.0333228E0,2.9232266E0,3.3368273E0,5.6620045E0,7.172966E-1,3.0000703E0,2.108986E0,5.38049E-1,0E0,1.6347485E0,7.0545006E-1,1.383873E0,0E0,3.9735804E0,0E0,0E0,0E0,0E0,0E0,0E0,0E0,0E0,0E0,0E0,0E0,0E0,0E0,0E0,0E0,0E0,0E0],"parents":[2147483647,0,0,1,1,2,2,4,4,5,5,6,6,7,7,8,8,9,9,10,10,11,11,12,12,13,13,14,14,15,15,17,17,18,18,19,19,21,21],"right_children":[2,4,6,-1,8,10,12,14,16,18,20,22,24,26,28,30,-1,32,34,36,-1,38,-1,-1,-1,-1,-1,-1,-1,-1,-1,-1,-1,-1,-1,-1,-1,-1,-1],"split_conditions":[2.2639863E-3,-1.8410356E-3,-2.9595904E-2,-1.1754725E-1,1.3692022E-3,5.5779435E-4,5.983966E-4,-9.124003E-4,1.3405882E0,2.6586806E-4,2.7971092E-1,1E0,-6.0955714E-3,1.3388834E0,4.7458446E-4,6.500168E-1,3.4563385E-2,1.9439808E-1,1.1E1,8.2585907E-1,3.8171265E-2,-2.0068013E-3,-1.1918422E-1,-3.9710935E-2,-1.272188E-1,-3.9208256E-2,4.0505443E-2,5.1737197E-2,1.2065139E-2,-1.33250905E-2,-1.0737141E-1,-2.1427494E-2,4.0848907E-2,-2.375184E-3,-9.090843E-2,-1.2082626E-1,-5.920747E-3,-1.08340524E-1,-3.2907404E-2],"split_indices":[15,11,14,0,11,18,18,11,49,9,33,16,14,44,18,31,0,31,36,31,0,11,0,0,0,0,0,0,0,0,0,0,0,0,0,0,0,0,0],"split_type":[0,0,0,0,0,0,0,0,0,0,0,0,0,0,0,0,0,0,0,0,0,0,0,0,0,0,0,0,0,0,0,0,0,0,0,0,0,0,0],"sum_hessian":[2.991676E2,1.696143E2,1.295533E2,1.5161192E0,1.6809818E2,3.546665E1,9.408665E1,1.6335286E2,4.7453265E0,2.716661E1,8.300037E0,7.812266E1,1.5963995E1,1.6888233E1,1.4646461E2,3.3102872E0,1.4350394E0,2.3949438E1,3.2171717E0,6.644313E0,1.655725E0,6.720456E1,1.0918097E1,2.2378688E0,1.3726127E1,8.5599985E0,8.328234E0,1.3075435E2,1.5710266E1,1.1455975E0,2.1646895E0,4.6415944E0,1.9307844E1,1.4043806E0,1.812791E0,5.257087E0,1.3872253E0,7.290027E0,5.991453E1],"tree_param":{"num_deleted":"0","num_feature":"50","num_nodes":"39","size_leaf_vector":"1"}},{"base_weights":[1.6320538E-2,-4.2760012E-1,9.91218E-1,-5.0764954E-1,9.445069E-2,-3.1626937E-1,1.1598092E0,-5.2616764E-2,-2.2000962E-1,-3.8219085E-1,7.2356176E-1,2.2553435E-2,-4.4642903E-2,-8.2486875E-2,1.28304E0,-4.5861475E-2,6.709375E-2,-4.7424998E-2,2.2796575E-2,1.6082504E-1,2.1181913E-1,-4.1309755E-2,5.4481145E-2,-3.0107057E-2,1.3382549E0,6.1332613E-2,-3.8844865E-2,2.413155E-2,1.3878858E-1],"categories":[],"categories_nodes":[],"categories_segments":[],"categories_sizes":[],"default_left":[0,0,0,0,0,0,0,0,0,0,0,0,0,0,0,0,0,0,0,0,0,0,0,0,0,0,0,0,0],"id":14,"left_children":[1,3,5,7,9,11,13,-1,15,17,19,-1,-1,21,23,-1,-1,-1,-1,25,-1,-1,-1,-1,27,-1,-1,-1,-1],"loss_changes":[7.471239E1,5.0061626E0,1.2272072E1,4.3302917E-1,5.2593813E0,5.9111696E-1,7.462471E0,0E0,1.9978325E0,6.7591834E-1,5.5521502E0,0E0,0E0,1.3193074E0,4.232048E0,0E0,0E0,0E0,0E0,1.8369137E0,0E0,0E0,0E0,0E0,1.9781952E0,0E0,0E0,0E0,0E0],"parents":[2147483647,0,0,1,1,2,2,3,3,4,4,5,5,6,6,8,8,9,9,10,10,13,13,14,14,19,19,24,24],"right_children":[2,4,6,8,10,12,14,-1,16,18,20,-1,-1,22,24,-1,-1,-1,-1,26,-1,-1,-1,-1,28,-1,-1,-1,-1],"split_conditions":[9.0317015E-4,7.8266716E0,4.6972613E-4,1.3429888E0,1.5673137E-3,3.159694E-4,5.545959E1,-5.2616764E-2,1.334931E0,5.735045E-4,2.4381808E-3,2.2553435E-2,-4.4642903E-2,1.499302E-3,5.0912397E-5,-4.5861475E-2,6.709375E-2,-4.7424998E-2,2.2796575E-2,2.0881153E-4,2.1181913E-1,-4.1309755E-2,5.4481145E-2,-3.0107057E-2,4.5746395E1,6.1332613E-2,-3.8844865E-2,2.413155E-2,1.3878858E-1],"split_indices":[11,12,13,49,25,13,6,0,0,10,15,0,0,11,9,0,0,0,0,8,0,0,0,0,47,0,0,0,0],"split_type":[0,0,0,0,0,0,0,0,0,0,0,0,0,0,0,0,0,0,0,0,0,0,0,0,0,0,0,0,0],"sum_hessian":[1.7065543E2,1.176464E2,5.3009033E1,1.020292E2,1.5617203E1,5.9544125E0,4.705462E1,9.5078804E1,6.950393E0,9.108616E0,6.5085874E0,1.0114383E0,4.9429746E0,4.2762394E0,4.277838E1,5.8649483E0,1.085445E0,8.108034E0,1.0005819E0,5.4320555E0,1.0765316E0,3.02396E0,1.2522794E0,1.2908654E0,4.1487514E1,2.9144602E0,2.5175955E0,2.0495996E0,3.9437916E1],"tree_param":{"num_deleted":"0","num_feature":"50","num_nodes":"29","size_leaf_vector":"1"}},{"base_weights":[1.9761166E-2,9.6559596E-1,-2.8649256E-1,1.0464951E0,-1.1993657E-1,8.1330764E-1,-3.4355575E-1,-3.2534357E-2,1.1165382E0,-3.3242516E-2,2.0792132E-2,1.4152905E-1,-3.5035398E-2,-4.223124E-1,1.5979558E-1,1.197689E0,3.5446164E-1,1.17066376E-1,-4.4775063E-1,8.198974E-1,-4.791047E-2,6.869065E-2,1.31178E-1,-3.40298E-2,7.554063E-2,1.1256349E-1,-4.2174213E-2,-1.8144293E-3,-4.6613064E-2,1.2398153E-1,-1.1518623E-2],"categories":[],"categories_nodes":[],"categories_segments":[],"categories_sizes":[],"default_left":[0,0,0,0,0,0,0,0,0,0,0,0,0,0,0,0,0,0,0,0,0,0,0,0,0,0,0,0,0,0,0],"id":15,"left_children":[1,3,5,7,9,11,13,-1,15,-1,-1,-1,-1,17,19,21,23,25,27,29,-1,-1,-1,-1,-1,-1,-1,-1,-1,-1,-1],"loss_changes":[4.5594036E1,3.5060844E0,7.744644E0,3.8154945E0,3.176196E-1,4.814037E0,4.5782986E0,0E0,1.7033806E0,0E0,0E0,0E0,0E0,1.4062195E0,7.1914697E0,8.866234E-1,1.5751431E0,3.3203886E0,7.371826E-1,3.4009018E0,0E0,0E0,0E0,0E0,0E0,0E0,0E0,0E0,0E0,0E0,0E0],"parents":[2147483647,0,0,1,1,2,2,3,3,4,4,5,5,6,6,8,8,13,13,14,14,15,15,16,16,17,17,18,18,19,19],"right_children":[2,4,6,8,10,12,14,-1,16,-1,-1,-1,-1,18,20,22,24,26,28,30,-1,-1,-1,-1,-1,-1,-1,-1,-1,-1,-1],"split_conditions":[-1.2257097E-3,4.326787E1,-1.349639E1,3.6077065E-4,5.615099E-4,4.9797203E1,5.3065905E-4,-3.2534357E-2,1.3431089E0,-3.3242516E-2,2.0792132E-2,1.4152905E-1,-3.5035398E-2,-1.0481251E-3,5.3983112E1,1.3408083E0,9.102241E-1,1.3406985E0,1.3398137E0,1.0386004E0,-4.791047E-2,6.869065E-2,1.31178E-1,-3.40298E-2,7.554063E-2,1.1256349E-1,-4.2174213E-2,-1.8144293E-3,-4.6613064E-2,1.2398153E-1,-1.1518623E-2],"split_indices":[11,6,12,13,18,43,18,0,0,0,0,0,0,11,6,49,28,49,49,17,0,0,0,0,0,0,0,0,0,0,0],"split_type":[0,0,0,0,0,0,0,0,0,0,0,0,0,0,0,0,0,0,0,0,0,0,0,0,0,0,0,0,0,0,0],"sum_hessian":[1.5544739E2,3.749495E1,1.1795243E2,3.4927914E1,2.5670354E0,5.164392E0,1.1278804E2,1.5196522E0,3.3408264E1,1.549109E0,1.0179266E0,3.2611184E0,1.9032735E0,9.766753E1,1.5120511E1,2.9676504E1,3.731759E0,4.236527E0,9.3431E1,7.297526E0,7.822985E0,6.700262E0,2.2976242E1,1.4208905E0,2.3108687E0,1.0959514E0,3.1405754E0,3.914813E0,8.951619E1,4.811113E0,2.4864128E0],"tree_param":{"num_deleted":"0","num_feature":"50","num_nodes":"31","size_leaf_vector":"1"}},{"base_weights":[-3.273024E-3,1.4609776E-1,-6.794011E-1,-5.487256E-1,3.4101292E-1,1.8455037E-1,-7.344356E-1,-9.795056E-1,-2.4877386E-1,4.441136E-1,-3.7630208E-2,-2.021146E-2,3.8607966E-2,-3.7383385E-2,-7.997706E-1,-6.6989423E-3,-1.0320543E0,-9.126014E-1,4.3323144E-2,9.817853E-3,4.7197962E-1,3.4448665E-1,-2.496388E-1,4.6261426E-2,-6.895418E-2,-3.3469507E-1,-9.012155E-1,-1.0961429E-1,-8.369913E-3,-7.947565E-3,-1.2006934E-1,3.1222835E-2,-4.798075E-2,-1.0290734E-1,3.7559662E-2,4.976889E-2,-4.4723935E-4,-3.037844E-2,4.5618795E-2,4.634465E-2,-4.1832842E-2,-1.11927204E-1,3.382343E-2,-1.0134744E-1,-2.340169E-2],"categories":[],"categories_nodes":[],"categories_segments":[],"categories_sizes":[],"default_left":[0,0,0,0,0,0,0,0,0,0,0,0,0,0,0,0,0,0,0,0,0,0,0,0,0,0,0,0,0,0,0,0,0,0,0,0,0,0,0,0,0,0,0,0,0],"id":16,"left_children":[1,3,5,7,9,11,13,15,17,19,21,-1,-1,23,25,-1,27,29,31,33,35,37,39,-1,-1,41,43,-1,-1,-1,-1,-1,-1,-1,-1,-1,-1,-1,-1,-1,-1,-1,-1,-1,-1],"loss_changes":[2.9207588E1,3.22695E1,2.6236382E0,6.5114326E0,7.2626686E0,3.8450605E-1,2.219696E0,9.4355583E-1,6.27538E0,1.7618542E0,3.378778E0,0E0,0E0,2.0413923E0,1.8268223E0,0E0,1.1177292E0,2.2740717E0,3.4257283E0,4.1190042E0,1.6821289E0,1.2192849E0,3.4081874E0,0E0,0E0,5.4835687E0,2.4925041E0,0E0,0E0,0E0,0E0,0E0,0E0,0E0,0E0,0E0,0E0,0E0,0E0,0E0,0E0,0E0,0E0,0E0,0E0],"parents":[2147483647,0,0,1,1,2,2,3,3,4,4,5,5,6,6,7,7,8,8,9,9,10,10,13,13,14,14,16,16,17,17,18,18,19,19,20,20,21,21,22,22,25,25,26,26],"right_children":[2,4,6,8,10,12,14,16,18,20,22,-1,-1,24,26,-1,28,30,32,34,36,38,40,-1,-1,42,44,-1,-1,-1,-1,-1,-1,-1,-1,-1,-1,-1,-1,-1,-1,-1,-1,-1,-1],"split_conditions":[1.2830883E-3,-1.0738563E-3,4.5885358E-4,-2.4743009E-4,6.333103E-4,1.6025869E-4,4.5746395E1,-2.4609428E-3,-4.273079E-4,1.332429E0,1E0,-2.021146E-2,3.8607966E-2,1.3336135E0,1.6098713E-4,-6.6989423E-3,-1.4934451E-3,1E0,1.3411804E0,-2.0449683E-5,1.3445138E0,-4.273079E-4,-4.7064185E-4,4.6261426E-2,-6.895418E-2,1.3345352E0,2.2637473E-1,-1.0961429E-1,-8.369913E-3,-7.947565E-3,-1.2006934E-1,3.1222835E-2,-4.798075E-2,-1.0290734E-1,3.7559662E-2,4.976889E-2,-4.4723935E-4,-3.037844E-2,4.5618795E-2,4.634465E-2,-4.1832842E-2,-1.11927204E-1,3.382343E-2,-1.0134744E-1,-2.340169E-2],"split_indices":[11,11,13,9,13,41,47,7,41,2,38,0,0,2,9,0,11,35,49,9,44,41,8,0,0,0,28,0,0,0,0,0,0,0,0,0,0,0,0,0,0,0,0,0,0],"split_type":[0,0,0,0,0,0,0,0,0,0,0,0,0,0,0,0,0,0,0,0,0,0,0,0,0,0,0,0,0,0,0,0,0,0,0,0,0,0,0,0,0,0,0,0,0],"sum_hessian":[2.8721902E2,2.3588992E2,5.1329086E1,5.1278786E1,1.8461115E2,2.9329672E0,4.839612E1,2.0119022E1,3.1159761E1,1.4496558E2,3.9645565E1,1.0039088E0,1.9290586E0,4.2821784E0,4.411394E1,1.2193663E0,1.8899656E1,8.872215E0,2.2287546E1,8.822226E0,1.3614336E2,1.3924202E1,2.5721365E1,2.588367E0,1.6938114E0,8.66919E0,3.5444748E1,1.755732E1,1.3423359E0,2.6075053E0,6.26471E0,1.4986949E1,7.3005977E0,1.8251178E0,6.997108E0,1.2913089E2,7.0124674E0,1.793839E0,1.21303625E1,4.586397E0,2.1134968E1,3.6963205E0,4.97287E0,2.989568E1,5.5490704E0],"tree_param":{"num_deleted":"0","num_feature":"50","num_nodes":"45","size_leaf_vector":"1"}},{"base_weights":[-9.823464E-3,-4.404964E-1,9.078586E-1,-5.0483614E-1,-2.581736E-2,-2.811814E-1,1.0298775E0,-5.24194E-2,-3.448956E-1,-3.8338596E-1,4.8615095E-1,-4.226731E-2,1.9928236E-2,6.065859E-1,1.273678E0,-4.8210315E-2,2.2338071E-1,-4.7471356E-2,2.2974616E-2,-8.4212154E-2,1.4701371E-1,-3.9474115E-2,7.545507E-1,-2.9730404E-2,1.3465009E0,-3.0092523E-2,7.205675E-2,-4.164622E-2,6.683668E-2,-3.7082955E-2,9.264072E-2,1.3791253E-1,4.11301E-2],"categories":[],"categories_nodes":[],"categories_segments":[],"categories_sizes":[],"default_left":[0,0,0,0,0,0,0,0,0,0,0,0,0,0,0,0,0,0,0,0,0,0,0,0,0,0,0,0,0,0,0,0,0],"id":17,"left_children":[1,3,5,7,9,11,13,-1,15,17,19,-1,-1,21,23,-1,25,-1,-1,27,-1,-1,29,-1,31,-1,-1,-1,-1,-1,-1,-1,-1],"loss_changes":[6.694874E1,3.062523E0,8.140095E0,1.2800598E-1,3.213717E0,4.7998336E-1,4.3138657E0,0E0,1.1752588E0,6.8558705E-1,4.1877923E0,0E0,0E0,3.2495914E0,3.8742523E0,0E0,1.0891237E0,0E0,0E0,1.6610707E0,0E0,0E0,3.7669897E0,0E0,3.2369995E-1,0E0,0E0,0E0,0E0,0E0,0E0,0E0,0E0],"parents":[2147483647,0,0,1,1,2,2,3,3,4,4,5,5,6,6,8,8,9,9,10,10,13,13,14,14,16,16,19,19,22,22,24,24],"right_children":[2,4,6,8,10,12,14,-1,16,18,20,-1,-1,22,24,-1,26,-1,-1,28,-1,-1,30,-1,32,-1,-1,-1,-1,-1,-1,-1,-1],"split_conditions":[9.808376E-4,7.8266716E0,2.0006006E-3,4.705151E0,1.6082327E-3,1.933835E-4,2.2146022E0,-5.24194E-2,2.2621523E-4,1.343575E0,1.3615274E-3,-4.226731E-2,1.9928236E-2,2.2211035E-3,3.4354517E-4,-4.8210315E-2,3.4958043E-4,-4.7471356E-2,2.2974616E-2,4.991877E-4,1.4701371E-1,-3.9474115E-2,1.2861048E-4,-2.9730404E-2,1.3450005E0,-3.0092523E-2,7.205675E-2,-4.164622E-2,6.683668E-2,-3.7082955E-2,9.264072E-2,1.3791253E-1,4.11301E-2],"split_indices":[11,12,15,12,25,9,12,0,7,1,26,0,0,25,18,0,26,0,0,18,0,0,9,0,1,0,0,0,0,0,0,0,0],"split_type":[0,0,0,0,0,0,0,0,0,0,0,0,0,0,0,0,0,0,0,0,0,0,0,0,0,0,0,0,0,0,0,0,0],"sum_hessian":[1.673839E2,1.14274345E2,5.3109554E1,9.8737305E1,1.5537042E1,4.8214555E0,4.8288097E1,8.604561E1,1.2691698E1,9.295816E0,6.2412252E0,3.8175163E0,1.003939E0,1.8922491E1,2.9365608E1,1.0345473E1,2.3462243E0,8.287176E0,1.0086399E0,4.5299044E0,1.7113211E0,2.2214425E0,1.6701048E1,1.1643773E0,2.8201231E1,1.3340999E0,1.0121245E0,3.4523666E0,1.0775377E0,2.0591538E0,1.4641894E1,2.6791914E1,1.4093168E0],"tree_param":{"num_deleted":"0","num_feature":"50","num_nodes":"33","size_leaf_vector":"1"}},{"base_weights":[1.4833744E-2,7.627598E-1,-3.4457868E-1,1.0970291E0,5.011846E-1,1.0019815E-1,-3.7845153E-1,1.5122928E-2,1.14388E0,7.3526305E-1,-9.268467E-2,-5.050714E-1,-1.07812814E-1,3.6190618E-2,1.1929958E-1,1.0151019E0,1.180469E-1,-3.5502052E-1,6.475849E-2,-5.186943E-2,-1.9583419E-1,-3.4070727E-1,1.0585111E0,1.1451906E-1,9.159042E-4,-3.897334E-2,4.4317532E-2,1.6172802E-2,-4.726049E-2,-3.817293E-2,2.2836836E-2,-4.6160705E-2,2.033109E-2,4.0189113E-2,1.999037E-1],"categories":[],"categories_nodes":[],"categories_segments":[],"categories_sizes":[],"default_left":[0,0,0,0,0,0,0,0,0,0,0,0,0,0,0,0,0,0,0,0,0,0,0,0,0,0,0,0,0,0,0,0,0,0,0],"id":18,"left_children":[1,3,5,7,9,-1,11,-1,13,15,17,19,21,-1,-1,23,25,27,-1,-1,29,31,33,-1,-1,-1,-1,-1,-1,-1,-1,-1,-1,-1,-1],"loss_changes":[4.1356117E1,3.8157463E0,5.12012E0,7.609863E-1,4.2177906E0,0E0,3.4448795E0,0E0,3.3371162E-1,3.5977173E0,2.0413113E0,1.9034958E-1,9.546972E0,0E0,0E0,1.9102373E0,1.468027E0,5.341422E-1,0E0,0E0,4.4443646E-1,1.9977193E0,2.8233209E0,0E0,0E0,0E0,0E0,0E0,0E0,0E0,0E0,0E0,0E0,0E0,0E0],"parents":[2147483647,0,0,1,1,2,2,3,3,4,4,6,6,8,8,9,9,10,10,11,11,12,12,15,15,16,16,17,17,20,20,21,21,22,22],"right_children":[2,4,6,8,10,-1,12,-1,14,16,18,20,22,-1,-1,24,26,28,-1,-1,30,32,34,-1,-1,-1,-1,-1,-1,-1,-1,-1,-1,-1,-1],"split_conditions":[-9.124003E-4,-1.8736596E-3,-1.7925886E1,6.702234E-1,-1.8062093E0,1.0019815E-1,1.6368759E-3,1.5122928E-2,-2.190086E-3,1.3402468E0,9.884441E-2,1.3432187E0,9.202954E-5,3.6190618E-2,1.1929958E-1,3.8457635E-1,1.343536E0,3.6100817E-1,6.475849E-2,-5.186943E-2,2.2222222E-1,9.330538E-1,5.478093E-1,1.1451906E-1,9.159042E-4,-3.897334E-2,4.4317532E-2,1.6172802E-2,-4.726049E-2,-3.817293E-2,2.2836836E-2,-4.6160705E-2,2.033109E-2,4.0189113E-2,1.999037E-1],"split_indices":[11,11,12,28,12,0,26,0,7,44,14,49,8,0,0,33,3,31,0,0,33,28,28,0,0,0,0,0,0,0,0,0,0,0,0],"split_type":[0,0,0,0,0,0,0,0,0,0,0,0,0,0,0,0,0,0,0,0,0,0,0,0,0,0,0,0,0,0,0,0,0,0,0],"sum_hessian":[1.518689E2,4.8928333E1,1.02940575E2,2.0077358E1,2.8850973E1,1.8246309E0,1.01115944E2,1.1471535E0,1.8930204E1,2.0523413E1,8.327561E0,6.8296715E1,3.281923E1,1.6132946E0,1.731691E1,1.3677529E1,6.845883E0,6.5328684E0,1.7946931E0,6.476622E1,3.5304894E0,2.7946651E1,4.872577E0,1.1988722E1,1.6888078E0,2.5947456E0,4.2511373E0,1.141387E0,5.3914814E0,2.524376E0,1.0061135E0,2.298915E1,4.9575024E0,3.709869E0,1.1627084E0],"tree_param":{"num_deleted":"0","num_feature":"50","num_nodes":"35","size_leaf_vector":"1"}},{"base_weights":[1.6203033E-2,1.500425E-1,-6.7196405E-1,-7.605868E-1,2.6428476E-1,3.6856752E-2,-7.200394E-1,-8.318252E-1,9.040351E-3,4.5196584E-1,6.894402E-2,5.182083E-2,-7.825342E-1,-9.4233316E-1,-3.2958263E-1,-2.6344648E-1,4.9020272E-1,-9.6896833E-1,1.1744518E-1,4.4557042E-2,-5.407852E-2,-8.3342636E-1,1.4217726E-2,-1.005965E-1,-3.26328E-2,-7.372462E-2,4.1577198E-2,-5.6439906E-2,3.508708E-2,5.061991E-2,-8.648777E-3,-1.22277796E-1,-1.2837492E-2,1.7691275E-2,-4.6232183E-2,-8.837739E-2,9.891159E-3],"categories":[],"categories_nodes":[],"categories_segments":[],"categories_sizes":[],"default_left":[0,0,0,0,0,0,0,0,0,0,0,0,0,0,0,0,0,0,0,0,0,0,0,0,0,0,0,0,0,0,0,0,0,0,0,0,0],"id":19,"left_children":[1,3,5,7,9,-1,11,13,-1,15,17,19,21,23,25,27,29,31,33,-1,-1,35,-1,-1,-1,-1,-1,-1,-1,-1,-1,-1,-1,-1,-1,-1,-1],"loss_changes":[2.6080523E1,2.4852537E1,2.571947E0,1.6921282E0,7.715045E0,0E0,2.1828365E0,1.0608463E0,0E0,3.0719204E0,5.384975E0,1.2360047E0,2.0549011E0,4.4451904E-1,2.1278787E0,1.3273582E0,9.890499E-1,8.6343575E-1,3.5615456E0,0E0,0E0,1.9249821E0,0E0,0E0,0E0,0E0,0E0,0E0,0E0,0E0,0E0,0E0,0E0,0E0,0E0,0E0,0E0],"parents":[2147483647,0,0,1,1,2,2,3,3,4,4,6,6,7,7,9,9,10,10,11,11,12,12,13,13,14,14,15,15,16,16,17,17,18,18,21,21],"right_children":[2,4,6,8,10,-1,12,14,-1,16,18,20,22,24,26,28,30,32,34,-1,-1,36,-1,-1,-1,-1,-1,-1,-1,-1,-1,-1,-1,-1,-1,-1,-1],"split_conditions":[1.4258473E-3,-1.7768318E-3,4.5885358E-4,4.326787E1,5.169549E-4,3.6856752E-2,4.5746395E1,1.3414183E0,9.040351E-3,-1.7742872E-4,8.0233454E-5,1.3336135E0,1.3422189E0,8.276304E-3,3.4723255E1,1.3E1,1.9548704E-4,6.1535587E1,1.3421943E0,4.4557042E-2,-5.407852E-2,1.3451974E0,1.4217726E-2,-1.005965E-1,-3.26328E-2,-7.372462E-2,4.1577198E-2,-5.6439906E-2,3.508708E-2,5.061991E-2,-8.648777E-3,-1.22277796E-1,-1.2837492E-2,1.7691275E-2,-4.6232183E-2,-8.837739E-2,9.891159E-3],"split_indices":[11,11,13,6,13,0,47,0,0,9,26,2,45,26,6,36,9,43,48,0,0,0,0,0,0,0,0,0,0,0,0,0,0,0,0,0,0],"split_type":[0,0,0,0,0,0,0,0,0,0,0,0,0,0,0,0,0,0,0,0,0,0,0,0,0,0,0,0,0,0,0,0,0,0,0,0,0],"sum_hessian":[2.8106943E2,2.3596022E2,4.51092E1,2.5671783E1,2.1028844E2,1.69772E0,4.341148E1,2.3709524E1,1.9622595E0,1.0657688E2,1.03711555E2,3.2643945E0,4.0147087E1,1.8715353E1,4.994172E0,5.108421E0,1.0146846E2,3.7827795E0,9.992878E1,2.1103296E0,1.1540648E0,3.814639E1,2.0006986E0,1.6389328E1,2.326024E0,3.2354546E0,1.7587175E0,3.4832454E0,1.6251756E0,9.884879E1,2.6196673E0,2.556275E0,1.2265047E0,9.126268E1,8.666095E0,3.6241394E1,1.904995E0],"tree_param":{"num_deleted":"0","num_feature":"50","num_nodes":"37","size_leaf_vector":"1"}},{"base_weights":[-3.219491E-2,-4.4235045E-1,7.714345E-1,6.348525E-2,-4.5957187E-1,-2.853841E-1,8.8451755E-1,-4.8551938E-1,3.2891098E-1,2.3027359E-2,-4.3099876E-2,2.1674073E-1,9.9134696E-1,-5.2246608E-2,-2.914864E-1,-2.8888175E-2,6.773452E-2,8.502559E-1,-1.3573407E-1,6.2082525E-2,1.0522105E0,-3.8653564E-2,6.496723E-2,1.0911103E-1,1.798543E-2,-4.3181423E-2,5.7237852E-2,-3.8015217E-2,6.1246343E-2,3.5939522E-3,1.09184615E-1],"categories":[],"categories_nodes":[],"categories_segments":[],"categories_sizes":[],"default_left":[0,0,0,0,0,0,0,0,0,0,0,0,0,0,0,0,0,0,0,0,0,0,0,0,0,0,0,0,0,0,0],"id":20,"left_children":[1,3,5,-1,7,9,11,13,15,-1,-1,17,19,-1,21,-1,-1,23,25,27,29,-1,-1,-1,-1,-1,-1,-1,-1,-1,-1],"loss_changes":[5.4256153E1,2.3125744E0,6.901535E0,0E0,2.3651714E0,5.598311E-1,3.387947E0,5.987816E-1,1.0632982E0,0E0,0E0,1.9564874E0,2.3812904E0,0E0,1.9526137E0,0E0,0E0,3.0190563E-1,1.538623E0,1.1387078E0,1.5935936E0,0E0,0E0,0E0,0E0,0E0,0E0,0E0,0E0,0E0,0E0],"parents":[2147483647,0,0,1,1,2,2,4,4,5,5,6,6,7,7,8,8,11,11,12,12,14,14,17,17,18,18,19,19,20,20],"right_children":[2,4,6,-1,8,10,12,14,16,-1,-1,18,20,-1,22,-1,-1,24,26,28,30,-1,-1,-1,-1,-1,-1,-1,-1,-1,-1],"split_conditions":[8.863702E-4,1.3330401E0,4.5885358E-4,6.348525E-2,6.9459144E-4,-9.2972375E-2,1.50182E-4,4.1518704E-4,-2.8109865E-4,2.3027359E-2,-4.3099876E-2,1.3342191E0,-8.1021525E-2,-5.2246608E-2,1.3429888E0,-2.8888175E-2,6.773452E-2,1.9190792E-4,4.168502E-1,6.660819E-5,5.2538277E1,-3.8653564E-2,6.496723E-2,1.0911103E-1,1.798543E-2,-4.3181423E-2,5.7237852E-2,-3.8015217E-2,6.1246343E-2,3.5939522E-3,1.09184615E-1],"split_indices":[11,44,13,0,10,14,9,11,11,0,0,0,14,0,49,0,0,5,33,10,6,0,0,0,0,0,0,0,0,0,0],"split_type":[0,0,0,0,0,0,0,0,0,0,0,0,0,0,0,0,0,0,0,0,0,0,0,0,0,0,0,0,0,0,0],"sum_hessian":[1.6257031E2,1.079331E2,5.463722E1,1.13405E0,1.0679905E2,5.133972E0,4.950325E1,1.03768456E2,3.030592E0,1.0024955E0,4.1314764E0,7.2449355E0,4.2258312E1,8.574811E1,1.8020344E1,1.1545055E0,1.8760865E0,2.0850883E0,5.1598473E0,2.7218063E0,3.9536507E1,1.6902617E1,1.1177267E0,1.0722978E0,1.0127906E0,3.9136422E0,1.2462051E0,1.6806698E0,1.0411366E0,1.5556586E0,3.7980846E1],"tree_param":{"num_deleted":"0","num_feature":"50","num_nodes":"31","size_leaf_vector":"1"}},{"base_weights":[1.9745685E-2,6.994993E-1,-3.3275935E-1,8.8562083E-1,-2.5275594E-1,7.1432996E-1,-3.9323428E-1,-1.3238354E-1,9.594044E-1,-4.6193738E-2,6.1331183E-2,1.146878E-1,-3.159308E-2,-9.801151E-2,-4.8831353E-1,-3.4608793E-2,2.236314E-2,7.0374477E-1,1.1313878E0,6.139986E-1,-3.4183863E-1,-5.0092614E-1,-1.4481358E-1,9.068003E-2,-4.197497E-2,1.2718086E-1,4.2850934E-2,1.20188884E-1,-3.6362626E-2,6.394074E-2,-4.43938E-2,-1.8295588E-2,-5.1517405E-2,2.0303173E-2,-3.466487E-2],"categories":[],"categories_nodes":[],"categories_segments":[],"categories_sizes":[],"default_left":[0,0,0,0,0,0,0,0,0,0,0,0,0,0,0,0,0,0,0,0,0,0,0,0,0,0,0,0,0,0,0,0,0,0,0],"id":21,"left_children":[1,3,5,7,9,11,13,15,17,-1,-1,-1,-1,19,21,-1,-1,23,25,27,29,31,33,-1,-1,-1,-1,-1,-1,-1,-1,-1,-1,-1,-1],"loss_changes":[3.516788E1,9.105112E0,6.403304E0,3.2921677E0,1.9085143E0,2.8731701E0,2.535986E0,3.6091834E-1,9.3673706E-1,0E0,0E0,0E0,0E0,4.32009E0,2.2802925E-1,0E0,0E0,4.600171E0,1.6181622E0,4.1136384E0,2.115057E0,2.0707321E-1,3.416473E-1,0E0,0E0,0E0,0E0,0E0,0E0,0E0,0E0,0E0,0E0,0E0,0E0],"parents":[2147483647,0,0,1,1,2,2,3,3,4,4,5,5,6,6,7,7,8,8,13,13,14,14,17,17,18,18,19,19,20,20,21,21,22,22],"right_children":[2,4,6,8,10,12,14,16,18,-1,-1,-1,-1,20,22,-1,-1,24,26,28,30,32,34,-1,-1,-1,-1,-1,-1,-1,-1,-1,-1,-1,-1],"split_conditions":[-1.1509785E-4,4.504806E1,-1.4737049E1,1.666153E-3,4.7159035E-4,1.3348798E0,1.3345352E0,-8.7374257E-4,4.1746338E1,-4.6193738E-2,6.1331183E-2,1.146878E-1,-3.159308E-2,-3.1807413E0,9.701932E-4,-3.4608793E-2,2.236314E-2,3.4723255E1,8.0516904E-5,7.7854085E-5,-8.698331E-5,1.3398137E0,3.7819652E-3,9.068003E-2,-4.197497E-2,1.2718086E-1,4.2850934E-2,1.20188884E-1,-3.6362626E-2,6.394074E-2,-4.43938E-2,-1.8295588E-2,-5.1517405E-2,2.0303173E-2,-3.466487E-2],"split_indices":[9,6,12,15,10,0,0,11,47,0,0,0,0,12,13,0,0,6,10,9,9,49,25,0,0,0,0,0,0,0,0,0,0,0,0],"split_type":[0,0,0,0,0,0,0,0,0,0,0,0,0,0,0,0,0,0,0,0,0,0,0,0,0,0,0,0,0,0,0,0,0,0,0],"sum_hessian":[1.447959E2,4.9110065E1,9.568584E1,4.1139236E1,7.970828E0,4.6342597E0,9.1051575E1,2.7265365E0,3.84127E1,6.7960134E0,1.1748149E0,3.1842017E0,1.4500577E0,2.2675274E1,6.8376305E1,1.7212242E0,1.0053122E0,1.7496077E1,2.0916624E1,5.3970227E0,1.7278252E1,6.551251E1,2.8637896E0,1.49812975E1,2.51478E0,1.6759073E1,4.1575513E0,3.2270525E0,2.16997E0,1.1324096E0,1.6145842E1,3.4032412E0,6.2109272E1,1.0493673E0,1.8144221E0],"tree_param":{"num_deleted":"0","num_feature":"50","num_nodes":"35","size_leaf_vector":"1"}},{"base_weights":[-7.150602E-3,4.581392E-1,-2.9045415E-1,4.9132353E-1,-2.0917337E-2,-2.127904E-1,-8.733268E-1,-1.3718326E-1,5.198383E-1,3.0680975E-1,-8.877372E-2,-8.592821E-2,-6.23485E-1,-9.388455E-1,-2.507253E-4,-9.039622E-2,4.0670756E-2,-1.2769884E-2,5.2938998E-2,4.4314105E-2,-1.7719287E-2,-5.5237955E-1,6.351469E-2,2.2239809E-1,-7.920808E-1,-1.0252178E-1,-4.9072366E-2,-6.4783E-2,4.0862784E-2,-2.2366159E-2,2.6059074E-2,-5.0747782E-2,4.8185647E-2,3.6021005E-3,-8.324977E-2],"categories":[],"categories_nodes":[],"categories_segments":[],"categories_sizes":[],"default_left":[0,0,0,0,0,0,0,0,0,0,0,0,0,0,0,0,0,0,0,0,0,0,0,0,0,0,0,0,0,0,0,0,0,0,0],"id":22,"left_children":[1,3,5,7,9,11,13,15,17,19,-1,21,23,25,-1,-1,-1,-1,-1,-1,-1,27,29,31,33,-1,-1,-1,-1,-1,-1,-1,-1,-1,-1],"loss_changes":[3.5695053E1,1.6395092E0,7.432537E0,1.7897816E0,2.430942E0,7.752771E0,1.108243E0,2.4331489E0,6.3622665E-1,4.9138558E-1,0E0,8.095382E0,5.196041E0,1.9749546E-1,0E0,0E0,0E0,0E0,0E0,0E0,0E0,2.8477945E0,5.0652804E0,1.5001779E0,1.0196362E0,0E0,0E0,0E0,0E0,0E0,0E0,0E0,0E0,0E0,0E0],"parents":[2147483647,0,0,1,1,2,2,3,3,4,4,5,5,6,6,7,7,8,8,9,9,11,11,12,12,13,13,21,21,22,22,23,23,24,24],"right_children":[2,4,6,8,10,12,14,16,18,20,-1,22,24,26,-1,-1,-1,-1,-1,-1,-1,28,30,32,34,-1,-1,-1,-1,-1,-1,-1,-1,-1,-1],"split_conditions":[1.8799006E-3,1.1139734E1,1E0,-1.9736936E-4,6.246034E-4,2.1153239E-4,1.3431857E0,3.360409E-4,2.5277628E1,1.1561138E-1,-8.877372E-2,-1.7742872E-4,4.932325E1,2.3095491E-3,-2.507253E-4,-9.039622E-2,4.0670756E-2,-1.2769884E-2,5.2938998E-2,4.4314105E-2,-1.7719287E-2,1.8E1,1.3349288E0,1.3354242E0,-9.837281E0,-1.0252178E-1,-4.9072366E-2,-6.4783E-2,4.0862784E-2,-2.2366159E-2,2.6059074E-2,-5.0747782E-2,4.8185647E-2,3.6021005E-3,-8.324977E-2],"split_indices":[15,12,16,9,13,9,0,8,43,32,0,9,43,11,0,0,0,0,0,0,0,36,44,45,12,0,0,0,0,0,0,0,0,0,0],"split_type":[0,0,0,0,0,0,0,0,0,0,0,0,0,0,0,0,0,0,0,0,0,0,0,0,0,0,0,0,0,0,0,0,0,0,0],"sum_hessian":[2.6878046E2,1.01485825E2,1.6729462E2,9.488736E1,6.598468E0,1.4882922E2,1.8465391E1,3.9527164E0,9.093464E1,5.2569666E0,1.3415016E0,1.1462972E2,3.419951E1,1.7100655E1,1.3647366E0,1.3655422E0,2.5871742E0,1.1420605E0,8.979258E1,4.1675086E0,1.0894578E0,2.7159956E1,8.7469765E1,5.6305666E0,2.8568941E1,1.3257545E1,3.843109E0,2.5002508E1,2.157447E0,3.554265E1,5.1927116E1,1.2259538E0,4.404613E0,1.3345275E0,2.7234415E1],"tree_param":{"num_deleted":"0","num_feature":"50","num_nodes":"35","size_leaf_vector":"1"}},{"base_weights":[7.1203723E-3,-4.4142735E-1,3.7664792E-1,-4.66888E-1,5.1494297E-2,1.5510038E-2,8.655674E-1,-5.040674E-1,-9.565628E-3,-3.563646E-1,4.5156556E-1,-1.2223345E-1,1.077912E0,-5.186863E-2,-1.9702405E-1,-4.280771E-2,7.718164E-2,2.959695E-1,-4.3964717E-1,7.948409E-2,8.024506E-1,-3.1165278E-1,5.2269425E-2,1.7623382E-3,1.1370896E0,2.3343017E-2,-3.800581E-2,-3.1940617E-2,8.299997E-2,-5.096692E-2,8.08638E-3,4.3278284E-2,-3.5552353E-2,1.0305214E-1,1.4230865E-2,1.614967E-2,-4.3447208E-2,1.7355959E-1,9.777968E-2],"categories":[],"categories_nodes":[],"categories_segments":[],"categories_sizes":[],"default_left":[0,0,0,0,0,0,0,0,0,0,0,0,0,0,0,0,0,0,0,0,0,0,0,0,0,0,0,0,0,0,0,0,0,0,0,0,0,0,0],"id":23,"left_children":[1,3,5,7,-1,9,11,13,15,17,19,21,23,-1,25,-1,-1,27,29,31,33,35,-1,-1,37,-1,-1,-1,-1,-1,-1,-1,-1,-1,-1,-1,-1,-1,-1],"loss_changes":[2.6851091E1,2.0223866E0,1.566785E1,1.2161369E0,0E0,8.609244E0,8.042118E0,1.9580841E-1,2.4292958E0,1.688139E0,3.1246219E0,1.0877515E0,1.9339676E0,0E0,4.5348984E-1,0E0,0E0,1.5284954E0,9.827728E-1,2.146062E0,1.7291279E0,4.4663972E-1,0E0,0E0,1.1134834E0,0E0,0E0,0E0,0E0,0E0,0E0,0E0,0E0,0E0,0E0,0E0,0E0,0E0,0E0],"parents":[2147483647,0,0,1,1,2,2,3,3,5,5,6,6,7,7,8,8,9,9,10,10,11,11,12,12,14,14,17,17,18,18,19,19,20,20,21,21,24,24],"right_children":[2,4,6,8,-1,10,12,14,16,18,20,22,24,-1,26,-1,-1,28,30,32,34,36,-1,-1,38,-1,-1,-1,-1,-1,-1,-1,-1,-1,-1,-1,-1,-1,-1],"split_conditions":[1.6737985E-3,1.8378403E1,4.084192E0,1.3433236E0,5.1494297E-2,3.0337796E-3,3.9881974E-4,7.0602036E-1,4.932325E1,1.332564E0,3.6726969E-3,2.5446739E-3,1.694551E-3,-5.186863E-2,-3.5799984E-4,-4.280771E-2,7.718164E-2,1.8543302E-4,1E0,5.0536013E-4,1.3365092E0,2.033035E-5,5.2269425E-2,1.7623382E-3,2.3940054E-3,2.3343017E-2,-3.800581E-2,-3.1940617E-2,8.299997E-2,-5.096692E-2,8.08638E-3,4.3278284E-2,-3.5552353E-2,1.0305214E-1,1.4230865E-2,1.614967E-2,-4.3447208E-2,1.7355959E-1,9.777968E-2],"split_indices":[25,12,12,49,0,15,18,32,43,2,25,15,15,0,8,0,0,5,29,8,1,8,0,0,25,0,0,0,0,0,0,0,0,0,0,0,0,0,0],"split_type":[0,0,0,0,0,0,0,0,0,0,0,0,0,0,0,0,0,0,0,0,0,0,0,0,0,0,0,0,0,0,0,0,0,0,0,0,0,0,0],"sum_hessian":[1.5999371E2,7.2181854E1,8.781187E1,7.0808586E1,1.3732666E0,5.109933E1,3.671254E1,6.5390274E1,5.4183116E0,2.767793E1,2.3421398E1,6.5707197E0,3.0141819E1,6.1760456E1,3.629815E0,3.822903E0,1.5954088E0,2.8444195E0,2.4833511E1,1.1962639E1,1.1458759E1,5.4784327E0,1.0922871E0,1.6619743E0,2.8479845E1,1.0008075E0,2.6290078E0,1.5082836E0,1.3361359E0,2.1907257E1,2.9262552E0,6.6041126E0,5.358526E0,8.0994425E0,3.3593166E0,1.0641159E0,4.4143167E0,3.9064891E0,2.4573355E1],"tree_param":{"num_deleted":"0","num_feature":"50","num_nodes":"39","size_leaf_vector":"1"}},{"base_weights":[2.0137988E-2,6.8021864E-1,-3.0180526E-1,9.5342404E-1,4.277417E-1,2.1371317E-1,-3.8128263E-1,1.0540789E-1,4.569881E-1,1.0057665E0,1.1368455E-1,9.8103803E-1,-2.5986683E-1,-4.510101E-1,2.0504072E-1,6.677506E-2,-5.5931774E-3,-1.387819E-3,1.2140666E0,5.4098517E-1,-3.1021497E-1,1.6195808E-1,3.1781727E-1,-4.3999903E-2,8.51221E-2,-4.8006875E-3,-4.7424358E-1,1.3579258E-1,-4.5781244E-2,1.4155141E-2,1.3727883E-1,-3.6707915E-2,7.9799436E-2,-3.9573226E-2,2.1598937E-2,8.265918E-2,-3.3929534E-2,-3.492413E-2,5.7868388E-2,6.901516E-2,-3.8692977E-2,1.843873E-2,-4.8742447E-2],"categories":[],"categories_nodes":[],"categories_segments":[],"categories_sizes":[],"default_left":[0,0,0,0,0,0,0,0,0,0,0,0,0,0,0,0,0,0,0,0,0,0,0,0,0,0,0,0,0,0,0,0,0,0,0,0,0,0,0,0,0,0,0],"id":24,"left_children":[1,3,5,7,9,11,13,-1,15,17,19,21,23,25,27,-1,-1,-1,29,31,33,-1,35,-1,37,39,41,-1,-1,-1,-1,-1,-1,-1,-1,-1,-1,-1,-1,-1,-1,-1,-1],"loss_changes":[3.0781828E1,2.8671017E0,4.0724144E0,6.170654E-1,4.6942096E0,5.2159257E0,3.5574675E0,0E0,6.2891483E-1,1.9704027E0,3.4808676E0,1.7804275E0,6.111885E-1,7.8622437E-1,8.030872E0,0E0,0E0,0E0,1.1077623E0,2.503807E0,5.2725565E-1,0E0,1.58517E0,0E0,1.0606893E0,1.5349618E0,7.173958E-1,0E0,0E0,0E0,0E0,0E0,0E0,0E0,0E0,0E0,0E0,0E0,0E0,0E0,0E0,0E0,0E0],"parents":[2147483647,0,0,1,1,2,2,3,3,4,4,5,5,6,6,8,8,9,9,10,10,11,11,12,12,13,13,14,14,18,18,19,19,20,20,22,22,24,24,25,25,26,26],"right_children":[2,4,6,8,10,12,14,-1,16,18,20,22,24,26,28,-1,-1,-1,30,32,34,-1,36,-1,38,40,42,-1,-1,-1,-1,-1,-1,-1,-1,-1,-1,-1,-1,-1,-1,-1,-1],"split_conditions":[-1.0738563E-3,-2.4743009E-4,-1.1509785E-4,2.690549E-1,-4.273079E-4,4.2616783E1,4.192854E-3,1.0540789E-1,-3.2957206E0,-2.2505775E-4,1.6111814E-4,-3.9261067E0,1.6368759E-3,1.3309151E0,5.3844936E1,6.677506E-2,-5.5931774E-3,-1.387819E-3,1E0,1.3408083E0,5.8123047E1,1.6195808E-1,1.3334678E0,-4.3999903E-2,5.7452896E1,1.3361539E0,1.3378143E-5,1.3579258E-1,-4.5781244E-2,1.4155141E-2,1.3727883E-1,-3.6707915E-2,7.9799436E-2,-3.9573226E-2,2.1598937E-2,8.265918E-2,-3.3929534E-2,-3.492413E-2,5.7868388E-2,6.901516E-2,-3.8692977E-2,1.843873E-2,-4.8742447E-2],"split_indices":[11,9,9,33,10,47,15,0,12,9,25,12,26,1,6,0,0,0,35,49,47,0,0,0,47,45,25,0,0,0,0,0,0,0,0,0,0,0,0,0,0,0,0],"split_type":[0,0,0,0,0,0,0,0,0,0,0,0,0,0,0,0,0,0,0,0,0,0,0,0,0,0,0,0,0,0,0,0,0,0,0,0,0,0,0,0,0,0,0],"sum_hessian":[1.4288382E2,4.647769E1,9.640613E1,2.0989098E1,2.5488594E1,1.2651972E1,8.375416E1,1.6516914E1,4.472183E0,8.197863E0,1.7290731E1,4.419567E0,8.232405E0,7.505871E1,8.695446E0,2.955773E0,1.5164101E0,1.5489594E0,6.648903E0,8.4732685E0,8.817463E0,1.5170107E0,2.9025567E0,5.2275147E0,3.00489E0,3.774494E0,7.128422E1,2.7915537E0,5.903892E0,1.1010047E0,5.547898E0,1.7746843E0,6.6985836E0,7.7980886E0,1.0193746E0,1.4905622E0,1.4119945E0,1.7538258E0,1.2510641E0,1.0531436E0,2.7213504E0,1.1437441E0,7.014047E1],"tree_param":{"num_deleted":"0","num_feature":"50","num_nodes":"43","size_leaf_vector":"1"}},{"base_weights":[1.9947845E-2,4.313534E-1,-2.1649854E-1,-6.2234957E-2,4.491002E-1,-1.1493838E-1,-6.511895E-1,9.2359155E-2,4.8064262E-1,-5.055011E-1,4.770666E-2,1.149668E-2,-6.880652E-1,-5.9333753E-2,3.5949183E-1,-8.826432E-2,5.010915E-1,-7.263064E-1,-2.1173431E-1,-8.175483E-2,2.9866374E-1,-2.7271813E-1,-7.46348E-1,-2.0907525E-2,4.8622303E-2,-6.906625E-2,3.5790328E-2,5.1074784E-2,-1.4925252E-2,-8.30133E-2,-1.4881015E-2,4.846554E-2,-4.313503E-2,-7.782106E-4,-7.897604E-2,4.1283462E-2,-2.9085694E-2,2.4944596E-2,-7.931747E-2,-7.861363E-2,4.841759E-3],"categories":[],"categories_nodes":[],"categories_segments":[],"categories_sizes":[],"default_left":[0,0,0,0,0,0,0,0,0,0,0,0,0,0,0,0,0,0,0,0,0,0,0,0,0,0,0,0,0,0,0,0,0,0,0,0,0,0,0,0,0],"id":25,"left_children":[1,3,5,-1,7,9,11,13,15,17,19,-1,21,-1,23,25,27,29,31,33,35,37,39,-1,-1,-1,-1,-1,-1,-1,-1,-1,-1,-1,-1,-1,-1,-1,-1,-1,-1],"loss_changes":[2.6226013E1,2.1192226E0,7.485999E0,0E0,1.0508461E0,8.920071E0,9.8943424E-1,1.8883674E0,1.0818043E0,2.5225134E0,3.266312E0,0E0,5.441046E-1,0E0,6.2072015E-1,1.3074374E0,6.178341E-1,1.2641277E0,3.1326323E0,3.4824767E0,2.4200983E0,1.6589518E0,8.7632084E-1,0E0,0E0,0E0,0E0,0E0,0E0,0E0,0E0,0E0,0E0,0E0,0E0,0E0,0E0,0E0,0E0,0E0,0E0],"parents":[2147483647,0,0,1,1,2,2,4,4,5,5,6,6,7,7,8,8,9,9,10,10,12,12,14,14,15,15,16,16,17,17,18,18,19,19,20,20,21,21,22,22],"right_children":[2,4,6,-1,8,10,12,14,16,18,20,-1,22,-1,24,26,28,30,32,34,36,38,40,-1,-1,-1,-1,-1,-1,-1,-1,-1,-1,-1,-1,-1,-1,-1,-1,-1,-1],"split_conditions":[1.8799006E-3,-1.7925886E1,1.708063E-3,-6.2234957E-2,-9.124003E-4,-1.304751E-3,1.5137577E-4,-6.1675474E-2,1.332429E0,-3.9261067E0,8.542443E-1,1.149668E-2,-4.3644574E-2,-5.9333753E-2,6.0311806E-1,1.335829E0,1.3907875E-3,1.3414712E0,2.6345574E-3,4.7159035E-4,1.3514465E-3,3.056325E-1,9.003593E-4,-2.0907525E-2,4.8622303E-2,-6.906625E-2,3.5790328E-2,5.1074784E-2,-1.4925252E-2,-8.30133E-2,-1.4881015E-2,4.846554E-2,-4.313503E-2,-7.782106E-4,-7.897604E-2,4.1283462E-2,-2.9085694E-2,2.4944596E-2,-7.931747E-2,-7.861363E-2,4.841759E-3],"split_indices":[15,12,11,0,11,11,7,14,2,12,31,0,14,0,17,44,11,45,26,10,11,32,8,0,0,0,0,0,0,0,0,0,0,0,0,0,0,0,0,0,0],"split_type":[0,0,0,0,0,0,0,0,0,0,0,0,0,0,0,0,0,0,0,0,0,0,0,0,0,0,0,0,0,0,0,0,0,0,0,0,0,0,0,0,0],"sum_hessian":[2.676459E2,9.738182E1,1.7026408E2,1.0486842E0,9.633314E1,1.3904286E2,3.1221226E1,8.14478E0,8.8188354E1,4.0259335E1,9.878353E1,1.3364502E0,2.9884777E1,1.9410948E0,6.2036853E0,2.944804E0,8.524355E1,2.2143284E1,1.8116049E1,6.561096E1,3.317257E1,4.3763514E0,2.5508425E1,1.0123084E0,5.1913767E0,1.0198513E0,1.9249526E0,8.420788E1,1.0356729E0,1.8398071E1,3.7452137E0,4.054052E0,1.4061997E1,6.031972E1,5.291239E0,2.8041548E1,5.1310196E0,2.4445243E0,1.9318272E0,2.4302624E1,1.205802E0],"tree_param":{"num_deleted":"0","num_feature":"50","num_nodes":"41","size_leaf_vector":"1"}},{"base_weights":[-1.5509233E-2,-4.0418655E-1,6.0061127E-1,-4.93777E-1,1.469709E-1,-4.406527E-2,7.045338E-1,-1.8551584E-1,-5.1713146E-2,-3.3398932E-1,6.7391443E-1,4.1546103E-1,9.485401E-1,-4.459016E-2,6.945492E-2,-4.503815E-2,2.2584938E-2,-1.6958301E-1,1.3864443E-1,-4.3579675E-2,5.6658584E-1,-4.3647685E-3,1.0233461E0,-3.615119E-2,2.0510307E-2,-1.7164808E-2,6.9316946E-2,1.2678853E-1,7.668483E-2],"categories":[],"categories_nodes":[],"categories_segments":[],"categories_sizes":[],"default_left":[0,0,0,0,0,0,0,0,0,0,0,0,0,0,0,0,0,0,0,0,0,0,0,0,0,0,0,0,0],"id":26,"left_children":[1,3,5,7,9,-1,11,13,-1,15,17,19,21,-1,-1,-1,-1,23,-1,-1,25,-1,27,-1,-1,-1,-1,-1,-1],"loss_changes":[3.621291E1,4.649996E0,6.64135E0,4.797783E-1,3.7053583E0,0E0,3.3852692E0,1.9576379E0,0E0,6.130999E-1,4.3726563E0,3.630939E0,2.1433487E0,0E0,0E0,0E0,0E0,3.649215E-1,0E0,0E0,2.2471523E0,0E0,6.7951584E-1,0E0,0E0,0E0,0E0,0E0,0E0],"parents":[2147483647,0,0,1,1,2,2,3,3,4,4,6,6,7,7,9,9,10,10,11,11,12,12,17,17,20,20,22,22],"right_children":[2,4,6,8,10,-1,12,14,-1,16,18,20,22,-1,-1,-1,-1,24,-1,-1,26,-1,28,-1,-1,-1,-1,-1,-1],"split_conditions":[8.863702E-4,7.8266716E0,4.5885358E-4,1.3324041E0,1.5211119E-3,-4.406527E-2,4.084192E0,3.9973173E-1,-5.1713146E-2,1.7080938E1,9.816088E-4,5.6379543E1,1.9873125E-3,-4.459016E-2,6.945492E-2,-4.503815E-2,2.2584938E-2,5.4946676E-4,1.3864443E-1,-4.3579675E-2,1.50182E-4,-4.3647685E-3,1.7523061E-3,-3.615119E-2,2.0510307E-2,-1.7164808E-2,6.9316946E-2,1.2678853E-1,7.668483E-2],"split_indices":[11,12,13,2,25,0,12,33,0,12,26,6,15,0,0,0,0,11,0,0,9,0,11,0,0,0,0,0,0],"split_type":[0,0,0,0,0,0,0,0,0,0,0,0,0,0,0,0,0,0,0,0,0,0,0,0,0,0,0,0,0],"sum_hessian":[1.4920604E2,9.1700874E1,5.7505173E1,7.896865E1,1.2732219E1,4.924399E0,5.2580772E1,6.191321E0,7.2777336E1,6.8479896E0,5.8842287E0,2.5304886E1,2.7275887E1,5.1584234E0,1.0328971E0,5.8311844E0,1.0168054E0,3.0434139E0,2.8408148E0,3.5311115E0,2.1773775E1,1.9414915E0,2.5334394E1,2.035772E0,1.0076417E0,3.1349258E0,1.863885E1,1.0950948E1,1.4383448E1],"tree_param":{"num_deleted":"0","num_feature":"50","num_nodes":"29","size_leaf_vector":"1"}},{"base_weights":[-1.2325985E-2,4.228886E-1,-4.0124536E-1,-3.068612E-1,5.574767E-1,-4.6977153E-1,1.9176546E-1,1.8263562E-1,-4.6564177E-2,8.2030004E-1,3.3418676E-1,-1.2225593E-1,-4.9697688E-1,8.308828E-1,-4.2763013E-2,5.7203945E-2,-2.9129943E-2,9.369909E-1,-3.5303693E-2,7.4383616E-1,-9.205644E-3,-4.172727E-2,4.665841E-2,-1.7661682E-1,-5.1247712E-2,1.1852037E-1,3.6541966E-3,2.7732302E-2,1.062225E-1,8.140321E-2,1.3011127E-3,-1.4912064E-2,1.2061264E-1,2.3455234E-2,-3.7112873E-2],"categories":[],"categories_nodes":[],"categories_segments":[],"categories_sizes":[],"default_left":[0,0,0,0,0,0,0,0,0,0,0,0,0,0,0,0,0,0,0,0,0,0,0,0,0,0,0,0,0,0,0,0,0,0,0],"id":27,"left_children":[1,3,5,7,9,11,13,15,-1,17,19,21,23,25,-1,-1,-1,27,-1,29,31,-1,-1,33,-1,-1,-1,-1,-1,-1,-1,-1,-1,-1,-1],"loss_changes":[2.380115E1,6.689864E0,3.1070108E0,9.3843365E-1,3.0352993E0,5.711727E-1,3.6807876E0,7.955078E-1,0E0,3.7832565E0,4.533161E0,1.268095E0,2.1568012E-1,1.2159662E0,0E0,0E0,0E0,1.6227341E0,0E0,7.427635E-1,3.3242419E0,0E0,0E0,4.3667796E-1,0E0,0E0,0E0,0E0,0E0,0E0,0E0,0E0,0E0,0E0,0E0],"parents":[2147483647,0,0,1,1,2,2,3,3,4,4,5,5,6,6,7,7,9,9,10,10,11,11,12,12,13,13,17,17,19,19,20,20,23,23],"right_children":[2,4,6,8,10,12,14,16,-1,18,20,22,24,26,-1,-1,-1,28,-1,30,32,-1,-1,34,-1,-1,-1,-1,-1,-1,-1,-1,-1,-1,-1],"split_conditions":[-4.6961952E-4,1.7852102E-3,7.991941E-4,-4.273079E-4,2.4176287E-4,1.332429E0,5.3983112E1,1.335752E0,-4.6564177E-2,1.9E1,-2.4743009E-4,5.32587E1,1.3398137E0,1E0,-4.2763013E-2,5.7203945E-2,-2.9129943E-2,1.3407806E0,-3.5303693E-2,1.4535736E-2,-4.978555E-4,-4.172727E-2,4.665841E-2,1.8274551E-3,-5.1247712E-2,1.1852037E-1,3.6541966E-3,2.7732302E-2,1.062225E-1,8.140321E-2,1.3011127E-3,-1.4912064E-2,1.2061264E-1,2.3455234E-2,-3.7112873E-2],"split_indices":[11,15,13,10,25,2,6,45,0,36,9,43,49,35,0,0,0,49,0,15,11,0,0,15,0,0,0,0,0,0,0,0,0,0,0],"split_type":[0,0,0,0,0,0,0,0,0,0,0,0,0,0,0,0,0,0,0,0,0,0,0,0,0,0,0,0,0,0,0,0,0,0,0],"sum_hessian":[1.3861357E2,6.537231E1,7.324127E1,9.979961E0,5.539234E1,6.5840775E1,7.4005017E0,2.4075634E0,7.572398E0,2.4215633E1,3.1176708E1,5.1790032E0,6.066177E1,3.4742203E0,3.9262815E0,1.2080128E0,1.1995506E0,2.2208393E1,2.0072415E0,1.3685032E1,1.7491676E1,3.6444497E0,1.5345533E0,3.3716018E0,5.7290165E1,2.0622714E0,1.411949E0,4.0563073E0,1.8152084E1,1.2381895E1,1.3031374E0,1.6472572E1,1.0191029E0,1.0166675E0,2.3549342E0],"tree_param":{"num_deleted":"0","num_feature":"50","num_nodes":"35","size_leaf_vector":"1"}},{"base_weights":[1.853681E-3,4.4916332E-1,-2.3046122E-1,-3.318991E-1,4.8945683E-1,-5.5438206E-2,-4.475982E-1,3.7346035E-2,-1.04422025E-1,5.1065135E-1,-3.8763467E-2,9.714338E-2,-3.5577044E-1,-1.5235351E-1,-6.22696E-1,-9.395443E-3,5.2170825E-1,-4.445092E-1,2.8614804E-1,9.231216E-2,-6.766259E-1,-3.2064837E-1,3.5771355E-1,-6.5413725E-1,3.3987634E-2,-9.602381E-3,5.3285297E-2,-1.111107E-1,-1.2357219E-2,3.4216303E-2,-9.938573E-2,5.0443716E-2,-2.6261672E-2,1.4988911E-2,-8.0463625E-2,2.7558517E-3,-6.785646E-2,5.0515603E-2,-1.752483E-2,1.9622017E-2,-6.9329284E-2],"categories":[],"categories_nodes":[],"categories_segments":[],"categories_sizes":[],"default_left":[0,0,0,0,0,0,0,0,0,0,0,0,0,0,0,0,0,0,0,0,0,0,0,0,0,0,0,0,0,0,0,0,0,0,0,0,0,0,0,0,0],"id":28,"left_children":[1,3,5,7,9,11,13,-1,-1,15,-1,17,19,21,23,-1,25,27,29,31,33,35,37,39,-1,-1,-1,-1,-1,-1,-1,-1,-1,-1,-1,-1,-1,-1,-1,-1,-1],"loss_changes":[2.6579498E1,2.9140396E0,6.373172E0,2.8444138E0,1.7510128E0,4.358447E0,3.7820864E0,0E0,0E0,5.972309E-1,0E0,6.613066E0,4.6633825E0,2.6249328E0,1.6372414E0,0E0,6.0664177E-1,3.4525273E0,3.7511075E0,2.2144732E0,2.1063652E0,2.8247342E0,6.957624E-1,1.6548386E0,0E0,0E0,0E0,0E0,0E0,0E0,0E0,0E0,0E0,0E0,0E0,0E0,0E0,0E0,0E0,0E0,0E0],"parents":[2147483647,0,0,1,1,2,2,3,3,4,4,5,5,6,6,9,9,11,11,12,12,13,13,14,14,16,16,17,17,18,18,19,19,20,20,21,21,22,22,23,23],"right_children":[2,4,6,8,10,12,14,-1,-1,16,-1,18,20,22,24,-1,26,28,30,32,34,36,38,40,-1,-1,-1,-1,-1,-1,-1,-1,-1,-1,-1,-1,-1,-1,-1,-1,-1],"split_conditions":[1.8799006E-3,1.332429E0,3.0337796E-3,3.6077065E-4,2.263034E-4,9.0317015E-4,-8.641735E-3,3.7346035E-2,-1.04422025E-1,-1.6645794E1,-3.8763467E-2,2.4176287E-4,5.1190734E0,2.7971092E-1,9.003593E-4,-9.395443E-3,-2.6093144E-4,1.3358237E0,1.3456789E0,2.537615E-3,4.7582167E-4,7.3150464E-4,1.675021E-4,1.3320329E0,3.3987634E-2,-9.602381E-3,5.3285297E-2,-1.111107E-1,-1.2357219E-2,3.4216303E-2,-9.938573E-2,5.0443716E-2,-2.6261672E-2,1.4988911E-2,-8.0463625E-2,2.7558517E-3,-6.785646E-2,5.0515603E-2,-1.752483E-2,1.9622017E-2,-6.9329284E-2],"split_indices":[15,2,15,13,9,11,14,0,0,12,0,25,12,33,8,0,9,45,2,25,13,13,9,0,0,0,0,0,0,0,0,0,0,0,0,0,0,0,0,0,0],"split_type":[0,0,0,0,0,0,0,0,0,0,0,0,0,0,0,0,0,0,0,0,0,0,0,0,0,0,0,0,0,0,0,0,0,0,0,0,0,0,0,0,0],"sum_hessian":[2.5378087E2,8.643041E1,1.6735045E2,3.8850152E0,8.2545395E1,9.335615E1,7.39943E1,2.191071E0,1.6939441E0,8.100572E1,1.5396752E0,6.2354134E1,3.1002012E1,2.8242592E1,4.5751713E1,1.3201613E0,7.968556E1,1.5779926E1,4.6574207E1,1.3233457E1,1.7768557E1,2.1515116E1,6.727477E0,4.461485E1,1.1368616E0,1.2771878E0,7.840837E1,4.328143E0,1.1451782E1,4.532347E1,1.2507384E0,5.9284334E0,7.3050227E0,2.3600006E0,1.5408556E1,1.1373323E1,1.0141791E1,5.3105106E0,1.4169664E0,1.7873327E0,4.282752E1],"tree_param":{"num_deleted":"0","num_feature":"50","num_nodes":"41","size_leaf_vector":"1"}},{"base_weights":[-7.0067598E-3,-3.9546397E-1,5.5973184E-1,-4.7727364E-1,1.07851245E-1,-2.7567747E-1,6.363386E-1,-5.1522315E-2,-1.9565055E-1,-4.423819E-2,5.4382855E-1,-4.1479245E-2,1.8718546E-2,-1.8093425E-1,7.2439367E-1,6.4856805E-2,-3.625804E-1,-3.5418864E-2,9.249831E-1,2.1356265E-1,-4.2674664E-2,-3.5275202E-2,7.5867176E-1,2.3527551E-2,-4.6118878E-2,1.5192007E-1,3.118371E-2,-2.8999716E-2,6.205621E-2,-7.7238255E-3,7.9582244E-2],"categories":[],"categories_nodes":[],"categories_segments":[],"categories_sizes":[],"default_left":[0,0,0,0,0,0,0,0,0,0,0,0,0,0,0,0,0,0,0,0,0,0,0,0,0,0,0,0,0,0,0],"id":29,"left_children":[1,3,5,7,9,11,13,-1,15,-1,17,-1,-1,19,21,-1,23,-1,25,27,-1,-1,29,-1,-1,-1,-1,-1,-1,-1,-1],"loss_changes":[3.2566998E1,3.6650276E0,4.0258255E0,7.079487E-1,3.3797016E0,4.4798017E-1,4.118868E0,0E0,1.7287464E0,0E0,2.980122E0,0E0,0E0,6.913752E-1,2.1219883E0,0E0,6.679859E-1,0E0,1.6092844E0,8.035599E-1,0E0,0E0,1.5828857E0,0E0,0E0,0E0,0E0,0E0,0E0,0E0,0E0],"parents":[2147483647,0,0,1,1,2,2,3,3,4,4,5,5,6,6,8,8,10,10,13,13,14,14,16,16,18,18,19,19,22,22],"right_children":[2,4,6,8,10,12,14,-1,16,-1,18,-1,-1,20,22,-1,24,-1,26,28,-1,-1,30,-1,-1,-1,-1,-1,-1,-1,-1],"split_conditions":[8.863702E-4,7.8266716E0,1.9136091E-3,5.203069E-4,1E0,4.6761436E-4,5.6379543E1,-5.1522315E-2,5.4946676E-4,-4.423819E-2,-2.4069715E-4,-4.1479245E-2,1.8718546E-2,6.056976E-1,4.5746395E1,6.4856805E-2,-1.1538961E-1,-3.5418864E-2,5.0023913E-1,2.0236193E-4,-4.2674664E-2,-3.5275202E-2,-7.9517384E0,2.3527551E-2,-4.6118878E-2,1.5192007E-1,3.118371E-2,-2.8999716E-2,6.205621E-2,-7.7238255E-3,7.9582244E-2],"split_indices":[11,12,15,11,38,10,6,0,11,0,11,0,0,17,47,0,14,0,31,9,0,0,12,0,0,0,0,0,0,0,0],"split_type":[0,0,0,0,0,0,0,0,0,0,0,0,0,0,0,0,0,0,0,0,0,0,0,0,0,0,0,0,0,0,0],"sum_hessian":[1.4592303E2,8.675864E1,5.9164394E1,7.467292E1,1.2085718E1,4.751365E0,5.441303E1,6.507448E1,9.598441E0,5.336279E0,6.7494392E0,3.7331958E0,1.0181695E0,5.189793E0,4.9223232E1,1.1082727E0,8.490169E0,2.0322096E0,4.7172294E0,2.0427086E0,3.1470847E0,1.2315781E0,4.7991657E1,1.0058441E0,7.4843245E0,1.645151E0,3.0720785E0,1.0415395E0,1.001169E0,1.9962351E0,4.5995422E1],"tree_param":{"num_deleted":"0","num_feature":"50","num_nodes":"31","size_leaf_vector":"1"}},{"base_weights":[2.800967E-2,6.0081935E-1,-2.724213E-1,6.419929E-1,-3.2905787E-2,-3.8142997E-1,2.5901464E-1,7.035038E-1,1.8485309E-1,3.9326888E-2,-4.042059E-1,7.41926E-1,-4.544956E-2,3.4239746E-3,7.251385E-1,5.4606634E-1,-3.7512455E-2,-3.1563625E-2,-4.4963017E-1,1.036533E0,-1.3557717E-1,8.030403E-2,4.164575E-2,3.4027137E-3,8.158264E-2,-3.1509742E-2,6.5875374E-2,-4.640021E-2,1.8692978E-2,1.14391916E-1,1.9185228E-2,-3.2298673E-2,1.4762822E-2],"categories":[],"categories_nodes":[],"categories_segments":[],"categories_sizes":[],"default_left":[0,0,0,0,0,0,0,0,0,0,0,0,0,0,0,0,0,0,0,0,0,0,0,0,0,0,0,0,0,0,0,0,0],"id":30,"left_children":[1,3,5,7,-1,9,11,13,15,-1,17,19,-1,-1,21,23,-1,25,27,29,31,-1,-1,-1,-1,-1,-1,-1,-1,-1,-1,-1,-1],"loss_changes":[2.320369E1,1.9867287E0,5.2262893E0,1.1281719E0,0E0,1.461997E0,5.733285E0,5.410633E-1,1.5526178E0,0E0,1.2085047E0,2.6531892E0,0E0,0E0,5.7476807E-1,5.879681E-1,0E0,1.9542319E0,6.750784E-1,4.5105743E-1,2.2427927E-1,0E0,0E0,0E0,0E0,0E0,0E0,0E0,0E0,0E0,0E0,0E0,0E0],"parents":[2147483647,0,0,1,1,2,2,3,3,5,5,6,6,7,7,8,8,10,10,11,11,14,14,15,15,17,17,18,18,19,19,20,20],"right_children":[2,4,6,8,-1,10,12,14,16,-1,18,20,-1,-1,22,24,-1,26,28,30,32,-1,-1,-1,-1,-1,-1,-1,-1,-1,-1,-1,-1],"split_conditions":[-1.0738563E-3,1.9E1,5.3065905E-4,4.2188564E1,-3.2905787E-2,-6.992172E-4,5.3983112E1,-2.4609428E-3,1.3352809E0,3.9326888E-2,-1.2516562E-4,1.0386004E0,-4.544956E-2,3.4239746E-3,-1.6092694E-4,1.3345377E0,-3.7512455E-2,2.2639863E-3,9.957322E-1,5.4832405E1,1.270689E-4,8.030403E-2,4.164575E-2,3.4027137E-3,8.158264E-2,-3.1509742E-2,6.5875374E-2,-4.640021E-2,1.8692978E-2,1.14391916E-1,1.9185228E-2,-3.2298673E-2,1.4762822E-2],"split_indices":[11,36,18,6,0,41,6,7,45,0,9,17,0,0,9,44,0,15,28,43,5,0,0,0,0,0,0,0,0,0,0,0,0],"split_type":[0,0,0,0,0,0,0,0,0,0,0,0,0,0,0,0,0,0,0,0,0,0,0,0,0,0,0,0,0,0,0,0,0],"sum_hessian":[1.328837E2,4.5373505E1,8.7510185E1,4.3746086E1,1.6274197E0,7.2849495E1,1.4660695E1,3.8082886E1,5.663202E0,1.6160011E0,7.123349E1,8.719452E0,5.9412436E0,1.2733917E0,3.6809494E1,3.4576738E0,2.205528E0,7.9239025E0,6.3309586E1,6.3921604E0,2.3272913E0,2.8113075E1,8.696418E0,1.5816456E0,1.8760281E0,6.0021772E0,1.9217254E0,6.217687E1,1.1327208E0,5.3568683E0,1.0352921E0,1.3159806E0,1.0113108E0],"tree_param":{"num_deleted":"0","num_feature":"50","num_nodes":"33","size_leaf_vector":"1"}},{"base_weights":[-4.0992714E-2,3.9341745E-1,-2.5090483E-1,4.3119133E-1,-2.5897706E-1,-1.8126497E-1,-7.063925E-1,7.716471E-2,4.8402503E-1,3.8028326E-2,-9.3552224E-2,3.865526E-2,-3.2295957E-1,-2.7173993E-1,-8.23042E-2,-3.3610705E-1,3.403709E-1,4.9723804E-1,-1.6135609E-2,-6.9047123E-1,1.2930182E-1,1.4553131E-1,-4.0023604E-1,2.0325734E-1,-5.8481958E-2,-6.901533E-2,3.25191E-2,4.601539E-2,-2.0266622E-2,5.1139113E-2,-1.4182719E-2,-8.006448E-2,-1.4784815E-2,2.6705522E-2,-3.0595377E-2,3.522071E-2,-4.880449E-2,8.266495E-3,-4.646014E-2,-4.3689893E-3,3.5227574E-2],"categories":[],"categories_nodes":[],"categories_segments":[],"categories_sizes":[],"default_left":[0,0,0,0,0,0,0,0,0,0,0,0,0,0,0,0,0,0,0,0,0,0,0,0,0,0,0,0,0,0,0,0,0,0,0,0,0,0,0,0,0],"id":31,"left_children":[1,3,5,7,9,11,13,15,17,-1,-1,19,21,23,-1,25,27,29,-1,31,33,35,37,39,-1,-1,-1,-1,-1,-1,-1,-1,-1,-1,-1,-1,-1,-1,-1,-1,-1],"loss_changes":[2.314729E1,2.15055E0,5.296851E0,1.4324913E0,2.5843642E0,4.67701E0,9.087839E-1,1.353803E0,6.617012E-1,0E0,0E0,4.0249004E0,3.3578815E0,1.0436764E0,0E0,1.3801932E0,5.783557E-1,6.791153E-1,0E0,2.8468943E-1,3.3077292E0,1.957761E0,2.4784584E0,1.3361442E-1,0E0,0E0,0E0,0E0,0E0,0E0,0E0,0E0,0E0,0E0,0E0,0E0,0E0,0E0,0E0,0E0,0E0],"parents":[2147483647,0,0,1,1,2,2,3,3,4,4,5,5,6,6,7,7,8,8,11,11,12,12,13,13,15,15,16,16,17,17,19,19,20,20,21,21,22,22,23,23],"right_children":[2,4,6,8,10,12,14,16,18,-1,-1,20,22,24,-1,26,28,30,-1,32,34,36,38,40,-1,-1,-1,-1,-1,-1,-1,-1,-1,-1,-1,-1,-1,-1,-1,-1,-1],"split_conditions":[1.8799006E-3,1.3429888E0,1E0,-2.9610272E-4,3.6077065E-4,6.014701E-4,-8.719152E0,1.3356438E0,2.263034E-4,3.8028326E-2,-9.3552224E-2,-2.4338414E-4,2.3371538E-3,9.066515E-2,-8.23042E-2,1.1035796E-4,1.7704787E-3,1.3442775E0,-1.6135609E-2,2.6720207E-5,1.3437251E0,5.784154E1,1.339991E0,-2.137386E-4,-5.8481958E-2,-6.901533E-2,3.25191E-2,4.601539E-2,-2.0266622E-2,5.1139113E-2,-1.4182719E-2,-8.006448E-2,-1.4784815E-2,2.6705522E-2,-3.0595377E-2,3.522071E-2,-4.880449E-2,8.266495E-3,-4.646014E-2,-4.3689893E-3,3.5227574E-2],"split_indices":[15,49,16,10,13,13,12,48,9,0,0,9,15,14,0,7,15,3,0,10,44,6,49,5,0,0,0,0,0,0,0,0,0,0,0,0,0,0,0,0,0],"split_type":[0,0,0,0,0,0,0,0,0,0,0,0,0,0,0,0,0,0,0,0,0,0,0,0,0,0,0,0,0,0,0,0,0,0,0,0,0,0,0,0,0],"sum_hessian":[2.5175899E2,8.173512E1,1.7002386E2,7.7582146E1,4.1529703E0,1.4868869E2,2.1335173E1,1.0394109E1,6.718804E1,2.3604813E0,1.7924892E0,5.8546894E1,9.01418E1,5.218784E0,1.611639E1,3.9364078E0,6.457701E0,6.606502E1,1.1230193E0,5.742138E0,5.2804756E1,1.2638325E1,7.750348E1,2.2126231E0,3.006161E0,2.53538E0,1.401028E0,5.41573E0,1.0419711E0,6.482906E1,1.2359563E0,4.377772E0,1.364366E0,4.0403843E1,1.2400912E1,9.864554E0,2.7737706E0,9.081939E0,6.842154E1,1.0987067E0,1.1139164E0],"tree_param":{"num_deleted":"0","num_feature":"50","num_nodes":"41","size_leaf_vector":"1"}},{"base_weights":[-2.337933E-2,-3.730871E-1,5.948728E-1,-4.7331446E-1,-3.5687048E-2,-1.7177324E-1,6.9034684E-1,-2.2761859E-1,-5.1485904E-2,-3.9859354E-1,3.850409E-1,-4.3860093E-2,5.667162E-2,-3.0196104E-2,7.263877E-1,-4.6253752E-2,4.2426655E-1,-4.772332E-2,2.305612E-2,9.163147E-1,-1.5885662E-1,2.999997E-1,8.1782687E-1,-3.2871354E-2,1.1892253E-1,-2.8673014E-2,1.3293485E-1,-4.348826E-2,5.3206015E-2,5.233062E-2,-4.2082258E-2,4.1687344E-3,8.488533E-2],"categories":[],"categories_nodes":[],"categories_segments":[],"categories_sizes":[],"default_left":[0,0,0,0,0,0,0,0,0,0,0,0,0,0,0,0,0,0,0,0,0,0,0,0,0,0,0,0,0,0,0,0,0],"id":32,"left_children":[1,3,5,7,9,11,13,15,-1,17,19,-1,-1,-1,21,-1,23,-1,-1,25,27,29,31,-1,-1,-1,-1,-1,-1,-1,-1,-1,-1],"loss_changes":[3.031965E1,3.0106745E0,3.8280048E0,5.8653164E-1,3.4493015E0,1.5122583E0,1.8382053E0,1.9977622E0,0E0,7.0773816E-1,3.181124E0,0E0,0E0,0E0,1.4690914E0,0E0,2.486335E0,0E0,0E0,3.0952282E0,1.3838824E0,1.7242987E0,8.2258034E-1,0E0,0E0,0E0,0E0,0E0,0E0,0E0,0E0,0E0,0E0],"parents":[2147483647,0,0,1,1,2,2,3,3,4,4,5,5,6,6,7,7,9,9,10,10,14,14,16,16,19,19,20,20,21,21,22,22],"right_children":[2,4,6,8,10,12,14,16,-1,18,20,-1,-1,-1,22,-1,24,-1,-1,26,28,30,32,-1,-1,-1,-1,-1,-1,-1,-1,-1,-1],"split_conditions":[1.5186727E-4,5.5224223E0,1.5549021E-3,4.896308E-1,1.7346529E-3,6.422922E1,3.489913E-4,5.203069E-4,-5.1485904E-2,1.3438891E0,2.0881153E-4,-4.3860093E-2,5.667162E-2,-3.0196104E-2,1.332896E0,-4.6253752E-2,4.4510385E-1,-4.772332E-2,2.305612E-2,3.9881974E-4,3.8151208E-3,1.3327814E0,-9.837281E0,-3.2871354E-2,1.1892253E-1,-2.8673014E-2,1.3293485E-1,-4.348826E-2,5.3206015E-2,5.233062E-2,-4.2082258E-2,4.1687344E-3,8.488533E-2],"split_indices":[9,12,25,17,25,6,18,11,0,3,8,0,0,0,1,0,33,0,0,18,25,1,12,0,0,0,0,0,0,0,0,0,0],"split_type":[0,0,0,0,0,0,0,0,0,0,0,0,0,0,0,0,0,0,0,0,0,0,0,0,0,0,0,0,0,0,0,0,0],"sum_hessian":[1.3820747E2,8.85287E1,4.9678776E1,6.79429E1,2.0585804E1,5.4130917E0,4.4265686E1,1.07638855E1,5.7179012E1,1.1080623E1,9.505181E0,4.2746706E0,1.138421E0,1.2928025E0,4.297288E1,8.125994E0,2.6378913E0,1.0064149E1,1.0164737E0,4.4620123E0,5.043169E0,8.344183E0,3.46287E1,1.6167471E0,1.0211442E0,1.2185454E0,3.2434666E0,3.8683202E0,1.1748489E0,6.579811E0,1.7643716E0,1.4211667E0,3.3207535E1],"tree_param":{"num_deleted":"0","num_feature":"50","num_nodes":"33","size_leaf_vector":"1"}},{"base_weights":[2.9741202E-2,4.3838483E-1,-4.0028036E-1,5.998145E-1,5.7102636E-2,-4.772984E-1,2.1313196E-1,-3.8208477E-2,6.671421E-1,-4.0204605E-1,4.7951987E-1,-4.9382794E-1,2.0604E-2,7.178478E-1,-4.054036E-2,7.8298795E-1,1.4721642E-1,-4.884998E-2,2.0200564E-2,6.0766536E-1,-3.206163E-2,-1.3376863E-1,-5.10589E-2,3.5059308E-3,9.798932E-2,8.47288E-2,6.1692274E-3,4.9629055E-2,-4.070015E-2,-1.49197625E-2,7.810241E-2,2.2786234E-2,-3.4156945E-2],"categories":[],"categories_nodes":[],"categories_segments":[],"categories_sizes":[],"default_left":[0,0,0,0,0,0,0,0,0,0,0,0,0,0,0,0,0,0,0,0,0,0,0,0,0,0,0,0,0,0,0,0,0],"id":33,"left_children":[1,3,5,7,9,11,13,-1,15,17,19,21,-1,23,-1,25,27,-1,-1,29,-1,31,-1,-1,-1,-1,-1,-1,-1,-1,-1,-1,-1],"loss_changes":[2.3289467E1,4.146304E0,3.1543207E0,3.4025307E0,4.3255873E0,7.5364876E-1,2.756965E0,0E0,2.590414E0,6.6029096E-1,1.3795178E0,2.7355576E-1,0E0,8.084781E-1,0E0,1.6407948E0,2.0238056E0,0E0,0E0,1.4685707E0,0E0,3.689976E-1,0E0,0E0,0E0,0E0,0E0,0E0,0E0,0E0,0E0,0E0,0E0],"parents":[2147483647,0,0,1,1,2,2,3,3,4,4,5,5,6,6,8,8,9,9,10,10,11,11,13,13,15,15,16,16,19,19,21,21],"right_children":[2,4,6,8,10,12,14,-1,16,18,20,22,-1,24,-1,26,28,-1,-1,30,-1,32,-1,-1,-1,-1,-1,-1,-1,-1,-1,-1,-1],"split_conditions":[-4.6961952E-4,-4.702598E-1,8.147752E-4,1.4441941E-3,3.3207827E-3,1.3457556E0,5.3983112E1,-3.8208477E-2,1.3411595E0,4.4129445E-4,4.7528923E1,1.3309151E0,2.0604E-2,2.411087E-4,-4.054036E-2,4.5504475E1,-1.872578E-4,-4.884998E-2,2.0200564E-2,5.6606677E-4,-3.206163E-2,-6.667926E-5,-5.10589E-2,3.5059308E-3,9.798932E-2,8.47288E-2,6.1692274E-3,4.9629055E-2,-4.070015E-2,-1.49197625E-2,7.810241E-2,2.2786234E-2,-3.4156945E-2],"split_indices":[11,12,13,15,15,1,6,0,45,10,47,1,0,11,0,6,9,0,0,13,0,10,0,0,0,0,0,0,0,0,0,0,0],"split_type":[0,0,0,0,0,0,0,0,0,0,0,0,0,0,0,0,0,0,0,0,0,0,0,0,0,0,0,0,0,0,0,0,0],"sum_hessian":[1.3053458E2,6.6921005E1,6.361357E1,4.6612686E1,2.0308321E1,5.671457E1,6.899E0,2.691089E0,4.3921597E1,9.754185E0,1.0554137E1,5.5645863E1,1.0687069E0,3.710625E0,3.1883752E0,3.5504738E1,8.416858E0,8.700269E0,1.0539153E0,9.3045225E0,1.2496148E0,2.874619E0,5.2771244E1,1.3435769E0,2.367048E0,3.243834E1,3.0663981E0,5.228321E0,3.188537E0,1.7599901E0,7.544533E0,1.0137942E0,1.860825E0],"tree_param":{"num_deleted":"0","num_feature":"50","num_nodes":"33","size_leaf_vector":"1"}},{"base_weights":[-2.6007982E-2,4.238746E-1,-1.5160014E-1,-2.7195206E-1,5.018715E-1,-3.234018E-2,-4.6189263E-1,3.3883188E-2,-5.4951966E-1,5.2123338E-2,-1.9069118E-2,-5.864731E-1,6.809566E-2,2.6673785E-1,-5.0580084E-1,-6.910058E-2,-4.157848E-3,2.108452E-2,-6.888287E-1,-3.168942E-1,1.5270343E-1,-3.7836463E-3,4.0713303E-2,1.4457457E-1,-5.5525804E-1,-7.292818E-2,-3.7332275E-3,-5.6191344E-2,2.6779363E-2,2.4482626E-2,-2.6909947E-2,4.8878204E-2,-3.53689E-2,3.1299088E-3,-6.142344E-2],"categories":[],"categories_nodes":[],"categories_segments":[],"categories_sizes":[],"default_left":[0,0,0,0,0,0,0,0,0,0,0,0,0,0,0,0,0,0,0,0,0,0,0,0,0,0,0,0,0,0,0,0,0,0,0],"id":34,"left_children":[1,3,5,7,9,11,13,-1,15,-1,-1,17,19,21,23,-1,-1,-1,25,27,29,-1,-1,31,33,-1,-1,-1,-1,-1,-1,-1,-1,-1,-1],"loss_changes":[1.3779724E1,3.0259533E0,7.0347533E0,1.2059171E0,7.460613E-1,7.7586036E0,1.824645E0,0E0,2.958846E-1,0E0,0E0,1.8903918E0,3.9019272E0,1.7176262E-1,1.6936836E0,0E0,0E0,0E0,4.7841167E-1,3.250636E0,3.8608785E0,0E0,0E0,9.168989E-1,1.6389084E0,0E0,0E0,0E0,0E0,0E0,0E0,0E0,0E0,0E0,0E0],"parents":[2147483647,0,0,1,1,2,2,3,3,4,4,5,5,6,6,8,8,11,11,12,12,13,13,14,14,18,18,19,19,20,20,23,23,24,24],"right_children":[2,4,6,8,10,12,14,-1,16,-1,-1,18,20,22,24,-1,-1,-1,26,28,30,-1,-1,32,34,-1,-1,-1,-1,-1,-1,-1,-1,-1,-1],"split_conditions":[4.2859445E-4,-1.304751E-3,1.2830883E-3,3.6077065E-4,1.8378403E1,-2.667667E-4,-8.073873E0,3.3883188E-2,2.948467E1,5.2123338E-2,-1.9069118E-2,-1.6977882E-3,-4.273079E-4,-4.4289927E-4,-9.8772496E-2,-6.910058E-2,-4.157848E-3,2.108452E-2,5.988838E0,-4.8317923E-4,7.8266716E0,-3.7836463E-3,4.0713303E-2,1.4513242E0,1.3305264E-4,-7.292818E-2,-3.7332275E-3,-5.6191344E-2,2.6779363E-2,2.4482626E-2,-2.6909947E-2,4.8878204E-2,-3.53689E-2,3.1299088E-3,-6.142344E-2],"split_indices":[13,11,11,13,12,9,12,0,6,0,0,8,10,10,14,0,0,0,12,11,12,0,0,12,9,0,0,0,0,0,0,0,0,0,0],"split_type":[0,0,0,0,0,0,0,0,0,0,0,0,0,0,0,0,0,0,0,0,0,0,0,0,0,0,0,0,0,0,0,0,0,0,0],"sum_hessian":[2.417442E2,5.2240158E1,1.8950404E2,5.0148606E0,4.72253E1,1.3768823E2,5.1815815E1,1.4979414E0,3.5169191E0,4.6181595E1,1.043706E0,2.03841E1,1.1730412E2,2.65658E0,4.9159237E1,2.468827E0,1.0480922E0,2.198504E0,1.8185596E1,2.0640127E1,9.6664E1,1.0686795E0,1.5879004E0,3.3381684E0,4.5821068E1,1.7010006E1,1.1755903E0,1.4572379E1,6.0677485E0,7.968103E1,1.6982967E1,1.985551E0,1.3526173E0,4.2291183E0,4.159195E1],"tree_param":{"num_deleted":"0","num_feature":"50","num_nodes":"35","size_leaf_vector":"1"}},{"base_weights":[-1.8369371E-2,-4.0059674E-1,5.0973344E-1,-4.5218566E-1,1.9698906E-1,2.4450466E-1,7.1129704E-1,-2.1422748E-2,-4.9842757E-1,-3.869344E-2,6.422016E-1,-2.3353338E-2,6.7565423E-1,-3.6011633E-2,7.902256E-1,-4.4002116E-2,6.7963517E-1,-5.12163E-2,1.2676691E-2,9.427951E-2,3.6379092E-3,-3.3202183E-1,2.4730355E-1,3.3254623E-3,7.618301E-2,4.3130475E-3,8.255406E-2,9.995391E-2,9.0462705E-3,-5.0555803E-2,8.865627E-3,6.639668E-2,-2.5341857E-2],"categories":[],"categories_nodes":[],"categories_segments":[],"categories_sizes":[],"default_left":[0,0,0,0,0,0,0,0,0,0,0,0,0,0,0,0,0,0,0,0,0,0,0,0,0,0,0,0,0,0,0,0,0],"id":35,"left_children":[1,3,5,7,9,11,13,15,17,-1,19,21,23,-1,25,-1,27,-1,-1,-1,-1,29,31,-1,-1,-1,-1,-1,-1,-1,-1,-1,-1],"loss_changes":[2.8753138E1,2.635788E0,3.0243282E0,1.5100975E0,2.1362104E0,3.1750774E0,3.1148129E0,2.7776752E0,6.5659904E-1,0E0,7.844486E-1,1.5725262E0,5.568404E-1,0E0,7.950764E-1,0E0,5.7881E-1,0E0,0E0,0E0,0E0,6.8444526E-1,2.2709475E0,0E0,0E0,0E0,0E0,0E0,0E0,0E0,0E0,0E0,0E0],"parents":[2147483647,0,0,1,1,2,2,3,3,4,4,5,5,6,6,7,7,8,8,10,10,11,11,12,12,14,14,16,16,21,21,22,22],"right_children":[2,4,6,8,10,12,14,16,18,-1,20,22,24,-1,26,-1,28,-1,-1,-1,-1,30,32,-1,-1,-1,-1,-1,-1,-1,-1,-1,-1],"split_conditions":[9.808376E-4,5.197198E-4,4.021623E0,1.3324693E0,7.773008E0,2.7733576E-4,4.6972613E-4,4.1518704E-4,1.3458736E0,-3.869344E-2,1.3411345E0,3.3154492E-3,2.3742632E-3,-3.6011633E-2,1.9136091E-3,-4.4002116E-2,1.884523E-3,-5.12163E-2,1.2676691E-2,9.427951E-2,3.6379092E-3,6.2668583E1,6.0295744E-4,3.3254623E-3,7.618301E-2,4.3130475E-3,8.255406E-2,9.995391E-2,9.0462705E-3,-5.0555803E-2,8.865627E-3,6.639668E-2,-2.5341857E-2],"split_indices":[11,10,12,2,12,9,13,11,1,0,49,25,25,0,15,0,15,0,0,0,0,6,8,0,0,0,0,0,0,0,0,0,0],"split_type":[0,0,0,0,0,0,0,0,0,0,0,0,0,0,0,0,0,0,0,0,0,0,0,0,0,0,0,0,0,0,0,0,0],"sum_hessian":[1.4043266E2,8.160818E1,5.8824482E1,7.534688E1,6.2613006E0,2.635635E1,3.2468136E1,7.446147E0,6.7900734E1,2.7653177E0,3.4959831E0,1.6840054E1,9.516295E0,1.9833033E0,3.048483E1,4.895446E0,2.550701E0,6.661794E1,1.2827914E0,1.9648515E0,1.5311316E0,7.761634E0,9.07842E0,1.2895105E0,8.226786E0,1.476226E0,2.9008606E1,1.201699E0,1.349002E0,5.3520584E0,2.4095755E0,4.777186E0,4.3012333E0],"tree_param":{"num_deleted":"0","num_feature":"50","num_nodes":"33","size_leaf_vector":"1"}},{"base_weights":[2.6682016E-2,4.8876688E-1,-3.172881E-1,5.913219E-1,-2.1621998E-1,-4.5019442E-1,1.2105194E-1,8.422005E-1,4.3930835E-1,-4.424646E-2,4.231249E-2,3.6320288E-2,-4.75495E-1,7.292852E-1,-4.7245346E-2,9.091121E-1,-1.372987E-3,-4.2372305E-2,4.976227E-1,1.6562002E-2,-4.9318218E-1,-3.324415E-2,1.0141412E0,6.362479E-2,1.1433505E-1,7.8840226E-2,2.4095759E-2,1.8414868E-3,-5.09032E-2,1.3881765E-1,2.953204E-2],"categories":[],"categories_nodes":[],"categories_segments":[],"categories_sizes":[],"default_left":[0,0,0,0,0,0,0,0,0,0,0,0,0,0,0,0,0,0,0,0,0,0,0,0,0,0,0,0,0,0,0],"id":36,"left_children":[1,3,5,7,9,11,13,15,17,-1,-1,-1,19,21,-1,23,-1,-1,25,-1,27,-1,29,-1,-1,-1,-1,-1,-1,-1,-1],"loss_changes":[2.0198301E1,4.046936E0,4.3013444E0,1.4449406E0,1.2888896E0,1.328208E0,6.7515182E0,9.7839546E-1,1.8074417E0,0E0,0E0,0E0,7.0408344E-1,3.1070485E0,0E0,2.7329922E-1,0E0,0E0,2.0621672E0,0E0,4.445362E-1,0E0,1.5979304E0,0E0,0E0,0E0,0E0,0E0,0E0,0E0,0E0],"parents":[2147483647,0,0,1,1,2,2,3,3,4,4,5,5,6,6,7,7,8,8,12,12,13,13,15,15,18,18,20,20,22,22],"right_children":[2,4,6,8,10,12,14,16,18,-1,-1,-1,20,22,-1,24,-1,-1,26,-1,28,-1,30,-1,-1,-1,-1,-1,-1,-1,-1],"split_conditions":[-1.223583E-4,4.515517E1,3.145771E-3,1.3358039E0,4.7159035E-4,2.5277628E1,5.3983112E1,1.573571E0,-2.4609428E-3,-4.424646E-2,4.231249E-2,3.6320288E-2,1.3398137E0,-2.3920581E-4,-4.7245346E-2,-1.4713461E-3,-1.372987E-3,-4.2372305E-2,-2.4338414E-4,1.6562002E-2,-1.1509785E-4,-3.324415E-2,1E0,6.362479E-2,1.1433505E-1,7.8840226E-2,2.4095759E-2,1.8414868E-3,-5.09032E-2,1.3881765E-1,2.953204E-2],"split_indices":[9,6,15,48,41,43,6,17,7,0,0,0,49,7,0,11,0,0,9,0,9,0,35,0,0,0,0,0,0,0,0],"split_type":[0,0,0,0,0,0,0,0,0,0,0,0,0,0,0,0,0,0,0,0,0,0,0,0,0,0,0,0,0,0,0],"sum_hessian":[1.25102905E2,5.320588E1,7.1897026E1,4.6589672E1,6.6162076E0,5.5148693E1,1.6748333E1,1.5865471E1,3.07242E1,5.11434E0,1.501868E0,1.2607553E0,5.388794E1,8.158551E0,8.589782E0,1.4657501E1,1.2079698E0,1.5480113E0,2.917619E1,1.2222061E0,5.2665733E1,1.6905215E0,6.4680295E0,8.487113E0,6.1703887E0,1.2707719E1,1.646847E1,1.5777489E0,5.1087982E1,3.6418324E0,2.8261971E0],"tree_param":{"num_deleted":"0","num_feature":"50","num_nodes":"31","size_leaf_vector":"1"}},{"base_weights":[-1.632315E-2,3.879005E-1,-2.2180115E-1,4.750379E-2,4.443066E-1,3.0396795E-1,-2.8120178E-1,4.292473E-2,-1.8108547E-1,4.6572575E-1,-2.6352346E-2,-4.461885E-2,4.013995E-1,-1.8816318E-1,-5.450994E-1,-7.112401E-1,1.549765E-1,6.836898E-2,4.912308E-1,-1.9994333E-2,4.624365E-1,-3.0096877E-1,1.5391147E-1,3.6880188E-2,-5.855915E-1,-9.4883114E-2,-1.2902357E-2,4.21081E-2,-4.1456915E-2,4.1401356E-2,-6.4254686E-2,5.0708618E-2,-1.30779585E-2,-4.1866763E-3,5.109463E-2,-6.140993E-2,-2.0612022E-2,3.137305E-2,-4.929748E-2,1.620917E-2,-6.2249955E-2],"categories":[],"categories_nodes":[],"categories_segments":[],"categories_sizes":[],"default_left":[0,0,0,0,0,0,0,0,0,0,0,0,0,0,0,0,0,0,0,0,0,0,0,0,0,0,0,0,0,0,0,0,0,0,0,0,0,0,0,0,0],"id":37,"left_children":[1,3,5,7,9,11,13,-1,15,17,-1,-1,19,21,23,25,27,29,31,-1,33,35,37,-1,39,-1,-1,-1,-1,-1,-1,-1,-1,-1,-1,-1,-1,-1,-1,-1,-1],"loss_changes":[1.9282784E1,1.4814262E0,4.8908863E0,1.1461526E0,1.1386938E0,1.3557988E0,3.304532E0,0E0,1.5999309E0,6.29261E-1,0E0,0E0,6.347766E-1,4.064227E0,1.5349922E0,3.5105824E-1,1.0746057E0,1.52083E0,6.708479E-1,0E0,3.5692668E-1,2.2090335E0,2.8926146E0,0E0,1.0534401E0,0E0,0E0,0E0,0E0,0E0,0E0,0E0,0E0,0E0,0E0,0E0,0E0,0E0,0E0,0E0,0E0],"parents":[2147483647,0,0,1,1,2,2,3,3,4,4,5,5,6,6,8,8,9,9,12,12,13,13,14,14,15,15,16,16,17,17,18,18,20,20,21,21,22,22,24,24],"right_children":[2,4,6,8,10,12,14,-1,16,18,-1,-1,20,22,24,26,28,30,32,-1,34,36,38,-1,40,-1,-1,-1,-1,-1,-1,-1,-1,-1,-1,-1,-1,-1,-1,-1,-1],"split_conditions":[1.9237295E-3,-2.9610272E-4,4.5885358E-4,1.4348204E-3,1.3692022E-3,-1.8410356E-3,1.5781078E-3,4.292473E-2,1.335752E0,-1.7742872E-4,-2.6352346E-2,-4.461885E-2,-1.4976418E-1,1.270689E-4,4.5746395E1,1.3607326E-3,1.5631652E-1,3.2782566E-2,6.6617195E1,-1.9994333E-2,-8.605803E0,-2.0068013E-3,6.8398414E-4,3.6880188E-2,1.3346741E0,-9.4883114E-2,-1.2902357E-2,4.21081E-2,-4.1456915E-2,4.1401356E-2,-6.4254686E-2,5.0708618E-2,-1.30779585E-2,-4.1866763E-3,5.109463E-2,-6.140993E-2,-2.0612022E-2,3.137305E-2,-4.929748E-2,1.620917E-2,-6.2249955E-2],"split_indices":[15,10,13,15,11,11,11,0,45,9,0,0,14,5,47,25,14,14,47,0,12,11,18,0,45,0,0,0,0,0,0,0,0,0,0,0,0,0,0,0,0],"split_type":[0,0,0,0,0,0,0,0,0,0,0,0,0,0,0,0,0,0,0,0,0,0,0,0,0,0,0,0,0,0,0,0,0,0,0,0,0,0,0,0,0],"sum_hessian":[2.3012161E2,7.7255005E1,1.5286661E2,1.1243779E1,6.601122E1,1.509956E1,1.3776704E2,3.882389E0,7.36139E0,6.4404366E1,1.6068573E0,1.324248E0,1.3775312E1,1.03123344E2,3.4643703E1,2.422841E0,4.938549E0,4.1065664E0,6.0297802E1,1.0596601E0,1.2715652E1,7.764019E1,2.5483152E1,1.1258339E0,3.3517868E1,1.2734739E0,1.1493672E0,3.5435808E0,1.3949682E0,3.0441473E0,1.0624194E0,5.8979156E1,1.3186463E0,1.1278255E0,1.1587827E1,1.6777348E1,6.0862846E1,2.0847586E1,4.6355667E0,1.4171638E0,3.2100704E1],"tree_param":{"num_deleted":"0","num_feature":"50","num_nodes":"41","size_leaf_vector":"1"}},{"base_weights":[-2.8885277E-2,-3.75374E-1,4.38774E-1,-4.8083806E-1,1.4523727E-1,1.9650641E-1,6.336272E-1,-1.7769277E-1,-5.0955474E-2,-3.1923532E-1,6.160498E-1,-1.7830354E-1,4.4670016E-1,-3.3677883E-2,7.031023E-1,-4.3648895E-2,6.257921E-2,-4.42342E-2,2.3319593E-2,-2.835818E-2,8.5021156E-1,-4.7472265E-2,1.9659114E-1,-3.8260773E-2,6.090614E-1,1.4937106E-1,7.70385E-1,4.009355E-3,1.12917624E-1,-4.38152E-2,5.169232E-2,7.7319585E-2,-2.1514352E-2,-3.458364E-2,6.0166206E-2,9.346725E-2,5.5394102E-2],"categories":[],"categories_nodes":[],"categories_segments":[],"categories_sizes":[],"default_left":[0,0,0,0,0,0,0,0,0,0,0,0,0,0,0,0,0,0,0,0,0,0,0,0,0,0,0,0,0,0,0,0,0,0,0,0,0],"id":38,"left_children":[1,3,5,7,9,11,13,15,-1,17,19,21,23,-1,25,-1,-1,-1,-1,-1,27,-1,29,-1,31,33,35,-1,-1,-1,-1,-1,-1,-1,-1,-1,-1],"loss_changes":[2.1160923E1,4.1860676E0,2.500474E0,4.5416927E-1,3.1262612E0,2.5400167E0,2.2842665E0,1.7183152E0,0E0,6.065785E-1,1.7145181E0,1.3398869E0,2.3899975E0,0E0,9.528599E-1,0E0,0E0,0E0,0E0,0E0,