{"learner":{"attributes":{"scikit_learn":"{\"_estimator_type\": \"classifier\"}"},"feature_names":["ema_20","ema_50","ema_100","ema_200","ema_trend","ema_slope","rsi","macd","macd_signal","macd_hist","momentum","roc","rsi_slope","atr","atr_change","bollinger_width","volatility_breakout","range_expansion","vol_ratio","volume_ma","volume_spike","volume_slope","volume_change_rate","volume_imbalance","volume","support_distance","resistance_distance","sr_breakout","pullback_depth","swing_high","swing_low","candle_body","upper_wick","lower_wick","doji","engulfing","hour","session_asian","session_london","session_newyork","rsi_divergence","price_change","ema_trend_1d","rsi_1d","ema_50_1d","ema_200_1d","ema_trend_1mo","rsi_1mo","ema_50_1mo","ema_200_1mo"],"feature_types":["float","float","float","float","int","float","float","float","float","float","float","float","float","float","float","float","int","float","float","float","int","float","float","float","float","float","float","int","float","int","int","float","float","float","int","int","int","int","int","int","int","float","int","float","float","float","int","float","float","float"],"gradient_booster":{"model":{"cats":{"enc":[],"feature_segments":[],"sorted_idx":[]},"gbtree_model_param":{"num_parallel_tree":"1","num_trees":"600"},"iteration_indptr":[0,3,6,9,12,15,18,21,24,27,30,33,36,39,42,45,48,51,54,57,60,63,66,69,72,75,78,81,84,87,90,93,96,99,102,105,108,111,114,117,120,123,126,129,132,135,138,141,144,147,150,153,156,159,162,165,168,171,174,177,180,183,186,189,192,195,198,201,204,207,210,213,216,219,222,225,228,231,234,237,240,243,246,249,252,255,258,261,264,267,270,273,276,279,282,285,288,291,294,297,300,303,306,309,312,315,318,321,324,327,330,333,336,339,342,345,348,351,354,357,360,363,366,369,372,375,378,381,384,387,390,393,396,399,402,405,408,411,414,417,420,423,426,429,432,435,438,441,444,447,450,453,456,459,462,465,468,471,474,477,480,483,486,489,492,495,498,501,504,507,510,513,516,519,522,525,528,531,534,537,540,543,546,549,552,555,558,561,564,567,570,573,576,579,582,585,588,591,594,597,600],"tree_info":[0,1,2,0,1,2,0,1,2,0,1,2,0,1,2,0,1,2,0,1,2,0,1,2,0,1,2,0,1,2,0,1,2,0,1,2,0,1,2,0,1,2,0,1,2,0,1,2,0,1,2,0,1,2,0,1,2,0,1,2,0,1,2,0,1,2,0,1,2,0,1,2,0,1,2,0,1,2,0,1,2,0,1,2,0,1,2,0,1,2,0,1,2,0,1,2,0,1,2,0,1,2,0,1,2,0,1,2,0,1,2,0,1,2,0,1,2,0,1,2,0,1,2,0,1,2,0,1,2,0,1,2,0,1,2,0,1,2,0,1,2,0,1,2,0,1,2,0,1,2,0,1,2,0,1,2,0,1,2,0,1,2,0,1,2,0,1,2,0,1,2,0,1,2,0,1,2,0,1,2,0,1,2,0,1,2,0,1,2,0,1,2,0,1,2,0,1,2,0,1,2,0,1,2,0,1,2,0,1,2,0,1,2,0,1,2,0,1,2,0,1,2,0,1,2,0,1,2,0,1,2,0,1,2,0,1,2,0,1,2,0,1,2,0,1,2,0,1,2,0,1,2,0,1,2,0,1,2,0,1,2,0,1,2,0,1,2,0,1,2,0,1,2,0,1,2,0,1,2,0,1,2,0,1,2,0,1,2,0,1,2,0,1,2,0,1,2,0,1,2,0,1,2,0,1,2,0,1,2,0,1,2,0,1,2,0,1,2,0,1,2,0,1,2,0,1,2,0,1,2,0,1,2,0,1,2,0,1,2,0,1,2,0,1,2,0,1,2,0,1,2,0,1,2,0,1,2,0,1,2,0,1,2,0,1,2,0,1,2,0,1,2,0,1,2,0,1,2,0,1,2,0,1,2,0,1,2,0,1,2,0,1,2,0,1,2,0,1,2,0,1,2,0,1,2,0,1,2,0,1,2,0,1,2,0,1,2,0,1,2,0,1,2,0,1,2,0,1,2,0,1,2,0,1,2,0,1,2,0,1,2,0,1,2,0,1,2,0,1,2,0,1,2,0,1,2,0,1,2,0,1,2,0,1,2,0,1,2,0,1,2,0,1,2,0,1,2,0,1,2,0,1,2,0,1,2,0,1,2,0,1,2,0,1,2,0,1,2,0,1,2,0,1,2,0,1,2,0,1,2,0,1,2,0,1,2,0,1,2,0,1,2,0,1,2,0,1,2,0,1,2,0,1,2,0,1,2,0,1,2,0,1,2,0,1,2,0,1,2,0,1,2,0,1,2,0,1,2,0,1,2,0,1,2,0,1,2,0,1,2,0,1,2,0,1,2,0,1,2,0,1,2,0,1,2,0,1,2,0,1,2,0,1,2,0,1,2,0,1,2],"trees":[{"base_weights":[-2.2056587E-2,3.0745482E0,-3.3109492E-1,-3.945042E-2,3.652837E0,-4.3779778E-1,5.9240806E-1,4.4533977E-1,1.5526725E0,-4.8233727E-1,4.165692E-1,1.3711582E0,-4.8743736E-2,2.324095E0,-3.3769496E-2,-9.36613E-2,-5.303056E-1,1.4770489E0,-2.9578057E-1,2.3369895E-1,2.5565686E0,5.6780558E-2,2.8705624E-1,-3.297148E-2,1.0073829E-1,1.8108133E-2,-5.3724535E-2,-3.0811554E-2,2.5406042E-1,-4.3879427E-2,1.8108133E-2,8.7900124E-2,-4.179404E-2,3.1055394E-1,1.8108133E-2],"categories":[],"categories_nodes":[],"categories_segments":[],"categories_sizes":[],"default_left":[0,0,0,0,0,0,0,0,0,0,0,0,0,0,0,0,0,0,0,0,0,0,0,0,0,0,0,0,0,0,0,0,0,0,0],"id":0,"left_children":[1,3,5,-1,7,9,11,-1,13,15,17,19,-1,21,-1,23,25,27,29,31,33,-1,-1,-1,-1,-1,-1,-1,-1,-1,-1,-1,-1,-1,-1],"loss_changes":[1.9662708E2,3.8846085E1,1.866268E1,0E0,2.0118958E1,6.5934906E0,1.7292204E1,0E0,9.494844E0,2.9358292E0,7.1302223E0,1.5242647E1,0E0,2.5629482E0,0E0,5.219911E0,7.999115E-1,7.859025E0,4.977309E-1,3.3511534E0,6.8082695E0,0E0,0E0,0E0,0E0,0E0,0E0,0E0,0E0,0E0,0E0,0E0,0E0,0E0,0E0],"parents":[2147483647,0,0,1,1,2,2,4,4,5,5,6,6,8,8,9,9,10,10,11,11,13,13,15,15,16,16,17,17,18,18,19,19,20,20],"right_children":[2,4,6,-1,8,10,12,-1,14,16,18,20,-1,22,-1,24,26,28,30,32,34,-1,-1,-1,-1,-1,-1,-1,-1,-1,-1,-1,-1,-1,-1],"split_conditions":[3.2401382E1,1.2040744E-3,1.8906544E-3,-3.945042E-2,2.8865633E1,1.877989E-1,4.831929E1,4.4533977E-1,5.835845E1,4.0431255E1,4.3812393E1,-1.4533593E-1,-4.8743736E-2,-2.801153E-1,-3.3769496E-2,-1.1966551E-4,2.1948849E-1,1E0,3.449155E-1,1.558709E2,1.7960498E-4,5.6780558E-2,2.8705624E-1,-3.297148E-2,1.0073829E-1,1.8108133E-2,-5.3724535E-2,-3.0811554E-2,2.5406042E-1,-4.3879427E-2,1.8108133E-2,8.7900124E-2,-4.179404E-2,3.1055394E-1,1.8108133E-2],"split_indices":[6,18,18,0,6,14,6,0,43,6,6,7,0,8,0,5,17,38,14,3,10,0,0,0,0,0,0,0,0,0,0,0,0,0,0],"split_type":[0,0,0,0,0,0,0,0,0,0,0,0,0,0,0,0,0,0,0,0,0,0,0,0,0,0,0,0,0,0,0,0,0,0,0],"sum_hessian":[2.0340472E2,1.764552E1,1.857592E2,2.566621E0,1.5078898E1,1.6699078E2,1.8768417E1,1.01060705E1,4.9728284E0,1.5913051E2,7.860277E0,1.07477255E1,8.020691E0,3.3686903E0,1.6041381E0,1.7805933E1,1.4132457E2,2.7270348E0,5.133242E0,6.095725E0,4.652001E0,1.2833105E0,2.0853796E0,1.5239312E1,2.566621E0,1.1228967E0,1.4020168E2,1.2833105E0,1.4437244E0,4.0103455E0,1.1228967E0,2.8874488E0,3.2082763E0,3.529104E0,1.1228967E0],"tree_param":{"num_deleted":"0","num_feature":"50","num_nodes":"35","size_leaf_vector":"1"}},{"base_weights":[4.929449E-3,-1.9987382E0,1.8285973E-1,-2.6014507E0,-4.1023603E-1,3.4303302E-1,-2.186739E0,-8.943362E-1,-2.7569213E0,1.5692003E-1,-1.2330043E0,4.455957E-1,-6.350011E-1,-8.959089E-1,-2.8167757E-1,-1.6536035E-1,3.0222243E-2,-2.9008102E-1,-8.072626E-2,4.4838194E-2,-3.246073E-2,-1.5861522E-1,-1.8673403E-2,4.940727E-1,-2.9745293E-1,-1.2614325E-1,-1.8408457E0,3.823436E-2,-1.351991E0,-2.7053345E-2,5.129209E-2,3.2920238E-2,-1.0802635E-1,3.423683E-2,-5.6071054E-2,-1.8673403E-2,-2.0608392E-1,-2.4715902E-2,-1.8843094E-1],"categories":[],"categories_nodes":[],"categories_segments":[],"categories_sizes":[],"default_left":[0,0,0,0,0,0,0,0,0,0,0,0,0,0,0,0,0,0,0,0,0,0,0,0,0,0,0,0,0,0,0,0,0,0,0,0,0,0,0],"id":1,"left_children":[1,3,5,7,9,11,13,15,17,19,21,23,25,27,-1,-1,-1,-1,-1,-1,-1,-1,-1,29,31,33,35,-1,37,-1,-1,-1,-1,-1,-1,-1,-1,-1,-1],"loss_changes":[1.1744444E2,2.4656487E1,1.1557507E2,2.6542206E0,4.1960692E0,2.8795177E1,1.3164833E1,3.3073578E0,2.4835052E0,9.8265624E-1,1.0387464E0,9.434952E0,1.6574753E1,5.0605116E0,0E0,0E0,0E0,0E0,0E0,0E0,0E0,0E0,0E0,3.6326103E0,8.408672E0,4.33231E0,2.5463028E0,0E0,3.0421705E0,0E0,0E0,0E0,0E0,0E0,0E0,0E0,0E0,0E0,0E0],"parents":[2147483647,0,0,1,1,2,2,3,3,4,4,5,5,6,6,7,7,8,8,9,9,10,10,11,11,12,12,13,13,23,23,24,24,25,25,26,26,28,28],"right_children":[2,4,6,8,10,12,14,16,18,20,22,24,26,28,-1,-1,-1,-1,-1,-1,-1,-1,-1,30,32,34,36,-1,38,-1,-1,-1,-1,-1,-1,-1,-1,-1,-1],"split_conditions":[-3.9099585E-3,3.2122635E1,4.6018665E-3,1.5317273E2,-4.1392865E-3,1.8279324E-3,-1.976982E-2,2.8063562E1,-3.5878595E-2,2.7850887E-1,-6.754478E-2,1E0,4.325554E-2,8.742445E-3,-2.8167757E-1,-1.6536035E-1,3.0222243E-2,-2.9008102E-1,-8.072626E-2,4.4838194E-2,-3.246073E-2,-1.5861522E-1,-1.8673403E-2,1.5146243E2,3.959413E-3,7.119664E-3,3.54255E1,3.823436E-2,1.6337765E-3,-2.7053345E-2,5.129209E-2,3.2920238E-2,-1.0802635E-1,3.423683E-2,-5.6071054E-2,-1.8673403E-2,-2.0608392E-1,-2.4715902E-2,-1.8843094E-1],"split_indices":[11,6,11,44,11,18,14,6,9,33,9,16,14,25,0,0,0,0,0,0,0,0,0,44,15,15,43,0,18,0,0,0,0,0,0,0,0,0,0],"split_type":[0,0,0,0,0,0,0,0,0,0,0,0,0,0,0,0,0,0,0,0,0,0,0,0,0,0,0,0,0,0,0,0,0,0,0,0,0,0,0],"sum_hessian":[3.274001E2,2.5868004E1,3.0153207E2,1.8290508E1,7.577496E0,2.8324158E2,1.8290508E1,2.0903437E0,1.6200163E1,4.964566E0,2.6129296E0,2.5685098E2,2.6390589E1,6.7936172E0,1.149689E1,1.0451719E0,1.0451719E0,1.4632406E1,1.5677578E0,3.1355157E0,1.8290508E0,1.5677578E0,1.0451719E0,2.414347E2,1.5416285E1,1.933568E1,7.05491E0,1.8290508E0,4.964566E0,5.487152E0,2.3594754E2,8.883961E0,6.5323243E0,9.406547E0,9.929132E0,1.0451719E0,6.009738E0,2.0903437E0,2.8742225E0],"tree_param":{"num_deleted":"0","num_feature":"50","num_nodes":"39","size_leaf_vector":"1"}},{"base_weights":[7.0834393E-3,-2.95032E-1,4.9200783E0,-4.495807E-1,1.1364895E0,1.4864706E-1,5.275022E-1,4.746032E-1,-4.925984E-1,4.407608E-1,2.971969E0,1.1579874E0,-3.8729545E-2,-5.154099E-1,2.7598882E-1,1.4171275E0,-2.9184885E-2,8.8336356E-2,3.9148194E-1,1.8027146E-1,8.066897E-3,-5.311965E-2,-1.3602987E-2,1.1331194E-1,-3.702053E-2,-3.0938989E-2,2.4887526E-1,8.8336356E-2,-3.2991346E-2],"categories":[],"categories_nodes":[],"categories_segments":[],"categories_sizes":[],"default_left":[0,0,0,0,0,0,0,0,0,0,0,0,0,0,0,0,0,0,0,0,0,0,0,0,0,0,0,0,0],"id":2,"left_children":[1,3,5,7,9,-1,-1,11,13,15,17,19,-1,21,23,25,27,-1,-1,-1,-1,-1,-1,-1,-1,-1,-1,-1,-1],"loss_changes":[2.3263641E2,3.3182472E1,3.2243805E0,5.561201E0,1.742752E1,0E0,0E0,4.258909E0,2.3957596E0,5.462158E0,4.1409264E0,2.5348887E0,0E0,6.774368E-1,2.8322215E0,7.90968E0,2.7490149E0,0E0,0E0,0E0,0E0,0E0,0E0,0E0,0E0,0E0,0E0,0E0,0E0],"parents":[2147483647,0,0,1,1,2,2,3,3,4,4,7,7,8,8,9,9,10,10,11,11,13,13,14,14,15,15,16,16],"right_children":[2,4,6,8,10,-1,-1,12,14,16,18,20,-1,22,24,26,28,-1,-1,-1,-1,-1,-1,-1,-1,-1,-1,-1,-1],"split_conditions":[4.6018665E-3,5.027562E-2,6.400219E1,7.6796813E-3,2.065921E-2,1.4864706E-1,5.275022E-1,1.5202598E-1,1.4661542E-2,1.5568958E2,2.5899534E-3,9.8279595E-1,-3.8729545E-2,1.5240831E2,1.5554498E2,2.4816017E-1,1.5317273E2,8.8336356E-2,3.9148194E-1,1.8027146E-1,8.066897E-3,-5.311965E-2,-1.3602987E-2,1.1331194E-1,-3.702053E-2,-3.0938989E-2,2.4887526E-1,8.8336356E-2,-3.2991346E-2],"split_indices":[11,9,6,28,14,0,0,32,15,3,11,17,0,45,2,33,44,0,0,0,0,0,0,0,0,0,0,0,0],"split_type":[0,0,0,0,0,0,0,0,0,0,0,0,0,0,0,0,0,0,0,0,0,0,0,0,0,0,0,0,0],"sum_hessian":[1.5475432E2,1.4667477E2,8.079542E0,1.330017E2,1.3673072E1,1.2430065E0,6.836536E0,5.4692287E0,1.2753247E2,1.0814157E1,2.858915E0,2.858915E0,2.6103137E0,1.2417635E2,3.3561175E0,2.858915E0,7.9552417E0,1.4916078E0,1.3673072E0,1.3673072E0,1.4916078E0,1.1883142E2,5.344928E0,1.1187059E0,2.2374117E0,1.3673072E0,1.4916078E0,1.4916078E0,6.463634E0],"tree_param":{"num_deleted":"0","num_feature":"50","num_nodes":"29","size_leaf_vector":"1"}},{"base_weights":[-3.3966847E-2,1.9975762E0,-3.3605123E-1,-4.0472575E-2,2.3015385E0,-4.0728226E-1,9.759236E-1,2.3888674E0,2.0372255E-2,4.2653152E-1,-4.841758E-1,2.4202857E0,-1.4702307E-1,2.4815521E0,2.0912489E-2,-4.6834502E-2,1.107632E0,8.02732E-2,-5.027899E-1,2.791073E-1,6.82119E-2,6.682163E-2,-4.45739E-2,7.062417E-2,2.605457E-1,-1.1754747E-2,1.6396807E-1,1.5531085E-2,-5.0897192E-2],"categories":[],"categories_nodes":[],"categories_segments":[],"categories_sizes":[],"default_left":[0,0,0,0,0,0,0,0,0,0,0,0,0,0,0,0,0,0,0,0,0,0,0,0,0,0,0,0,0],"id":3,"left_children":[1,3,5,-1,7,9,11,13,-1,15,17,19,21,23,-1,-1,25,-1,27,-1,-1,-1,-1,-1,-1,-1,-1,-1,-1],"loss_changes":[1.2611511E2,2.0358055E1,1.7107157E1,0E0,3.8671875E0,1.1125296E1,1.5767928E1,4.0716553E0,0E0,9.60676E0,4.149872E0,8.1175995E-1,1.8292996E0,2.9340515E0,0E0,0E0,5.9054327E0,0E0,7.087364E-1,0E0,0E0,0E0,0E0,0E0,0E0,0E0,0E0,0E0,0E0],"parents":[2147483647,0,0,1,1,2,2,4,4,5,5,6,6,7,7,9,9,10,10,11,11,12,12,13,13,16,16,18,18],"right_children":[2,4,6,-1,8,10,12,14,-1,16,18,20,22,24,-1,-1,26,-1,28,-1,-1,-1,-1,-1,-1,-1,-1,-1,-1],"split_conditions":[3.2401382E1,1.8656433E-1,3.4595087E-1,-4.0472575E-2,6.476012E1,-5.359016E-2,3.7436884E-2,2.996289E-2,2.0372255E-2,4.3071854E-1,-2.0586764E-3,4.7193915E-3,-3.0661438E0,2E0,2.0912489E-2,-4.6834502E-2,1.5449017E2,8.02732E-2,-1.1860888E-3,2.791073E-1,6.82119E-2,6.682163E-2,-4.45739E-2,7.062417E-2,2.605457E-1,-1.1754747E-2,1.6396807E-1,1.5531085E-2,-5.0897192E-2],"split_indices":[6,13,13,0,43,9,9,9,0,28,10,25,12,36,0,0,3,0,5,0,0,0,0,0,0,0,0,0,0],"split_type":[0,0,0,0,0,0,0,0,0,0,0,0,0,0,0,0,0,0,0,0,0,0,0,0,0,0,0,0,0],"sum_hessian":[2.034066E2,2.5604116E1,1.7780249E2,2.8385704E0,2.2765545E1,1.6930025E2,8.502248E0,2.1722528E1,1.0430163E0,1.3910569E1,1.5538968E2,3.213572E0,5.288676E0,2.0703726E1,1.0188024E0,6.1468225E0,7.7637467E0,1.6149315E0,1.5377475E2,2.1493206E0,1.0642514E0,1.0864989E0,4.2021766E0,1.7878093E0,1.8915918E1,2.5865693E0,5.1771774E0,1.206579E0,1.5256816E2],"tree_param":{"num_deleted":"0","num_feature":"50","num_nodes":"29","size_leaf_vector":"1"}},{"base_weights":[-9.042758E-3,3.2703856E-1,-8.4175164E-1,4.225332E-1,-7.759722E-1,-1.620701E0,-5.142145E-1,-7.518239E-1,5.027295E-1,-1.4452692E0,9.242117E-2,-3.5000232E-1,-1.8717312E0,-1.8554065E-1,-1.4553435E0,2.4134961E-1,-1.5718884E0,-8.040056E-2,5.168155E-1,-3.2682796E-3,-1.6673572E0,-6.761379E-1,4.9625512E-2,-1.10258125E-1,2.1811974E-1,-5.235428E-3,-1.9955332E0,-1.5709709E-1,-8.375466E-2,-1.8451855E0,4.3530952E-2,-6.1121386E-2,4.9619284E-2,-1.8409349E-1,-6.984555E-2,-5.0831158E-2,5.2620567E-2,-6.542568E-3,-1.9224207E-1,-2.4826096E-3,-1.1659484E-1,4.126911E-2,-1.7683083E-2,-2.0483755E-1,-5.8761556E-2,1.209353E-3,-1.5199801E-1,-6.1504073E-2,-1.9804667E-1],"categories":[],"categories_nodes":[],"categories_segments":[],"categories_sizes":[],"default_left":[0,0,0,0,0,0,0,0,0,0,0,0,0,0,0,0,0,0,0,0,0,0,0,0,0,0,0,0,0,0,0,0,0,0,0,0,0,0,0,0,0,0,0,0,0,0,0,0,0],"id":4,"left_children":[1,3,5,7,9,11,13,15,17,19,21,23,25,27,29,31,33,-1,35,-1,37,39,-1,-1,41,-1,43,-1,45,47,-1,-1,-1,-1,-1,-1,-1,-1,-1,-1,-1,-1,-1,-1,-1,-1,-1,-1,-1],"loss_changes":[9.26822E1,2.5182657E1,2.3461922E1,2.0891384E1,1.1266101E1,8.188225E0,2.0919298E1,1.2045981E1,4.1794777E0,3.3578472E0,3.2148008E0,2.7217648E0,5.0581055E0,7.18964E0,1.3764221E1,1.899182E0,5.89201E-1,0E0,2.2207756E0,0E0,3.706562E0,1.1254979E0,0E0,0E0,3.9125738E-1,0E0,3.9089966E-1,0E0,6.8215446E0,1.2398338E0,0E0,0E0,0E0,0E0,0E0,0E0,0E0,0E0,0E0,0E0,0E0,0E0,0E0,0E0,0E0,0E0,0E0,0E0,0E0],"parents":[2147483647,0,0,1,1,2,2,3,3,4,4,5,5,6,6,7,7,8,8,9,9,10,10,11,11,12,12,13,13,14,14,15,15,16,16,18,18,20,20,21,21,24,24,26,26,28,28,29,29],"right_children":[2,4,6,8,10,12,14,16,18,20,22,24,26,28,30,32,34,-1,36,-1,38,40,-1,-1,42,-1,44,-1,46,48,-1,-1,-1,-1,-1,-1,-1,-1,-1,-1,-1,-1,-1,-1,-1,-1,-1,-1,-1],"split_conditions":[2.3728642E-1,5.2718036E-2,3.5032864E1,3.1276997E1,1.2539762E-1,-3.775707E-2,7.892906E-2,1.500384E2,-2.0428684E1,-2.8299983E0,1.5541956E2,-3.5878595E-2,1.5394884E2,1.534752E2,7.703887E-1,-6.0970295E-2,-2.4315473E-4,-8.040056E-2,1.4919106E2,-3.2682796E-3,1.9270523E-1,2.0181082E-1,4.9625512E-2,-1.10258125E-1,3.2122635E1,-5.235428E-3,7.176164E0,-1.5709709E-1,3.8564104E-1,4.3543765E-1,4.3530952E-2,-6.1121386E-2,4.9619284E-2,-1.8409349E-1,-6.984555E-2,-5.0831158E-2,5.2620567E-2,-6.542568E-3,-1.9224207E-1,-2.4826096E-3,-1.1659484E-1,4.126911E-2,-1.7683083E-2,-2.0483755E-1,-5.8761556E-2,1.209353E-3,-1.5199801E-1,-6.1504073E-2,-1.9804667E-1],"split_indices":[13,9,6,6,28,14,9,45,12,12,0,9,3,2,28,9,41,0,45,0,13,33,0,0,6,0,12,0,13,17,0,0,0,0,0,0,0,0,0,0,0,0,0,0,0,0,0,0,0],"split_type":[0,0,0,0,0,0,0,0,0,0,0,0,0,0,0,0,0,0,0,0,0,0,0,0,0,0,0,0,0,0,0,0,0,0,0,0,0,0,0,0,0,0,0,0,0,0,0,0,0],"sum_hessian":[3.291923E2,2.349669E2,9.422539E1,2.1681294E2,1.815395E1,2.672346E1,6.750193E1,1.3324232E1,2.0348871E2,9.877082E0,8.276868E0,4.8033714E0,2.1920088E1,5.0917107E1,1.6584818E1,6.3452477E0,6.9789844E0,1.572072E0,2.0191664E2,1.4977609E0,8.37932E0,2.6187263E0,5.658142E0,1.6615739E0,3.1417978E0,1.487206E0,2.0432882E1,2.4969225E0,4.8420185E1,1.3769644E1,2.8151753E0,1.1384008E0,5.206847E0,4.4886346E0,2.4903498E0,1.3504921E0,2.0056615E2,1.3235085E0,7.055812E0,1.5750425E0,1.0436838E0,2.0747561E0,1.0670415E0,1.9255293E1,1.1775889E0,4.632051E1,2.099674E0,1.9137582E0,1.18558855E1],"tree_param":{"num_deleted":"0","num_feature":"50","num_nodes":"49","size_leaf_vector":"1"}},{"base_weights":[5.1967353E-3,-3.856931E-1,2.2768776E0,-4.325906E-1,7.262836E-1,5.329725E-1,2.9609175E0,6.755286E-1,-4.6098927E-1,1.5210512E-1,-1.2953335E-1,-3.7280947E-2,9.322775E-1,6.0348925E-3,3.2468602E-1,-3.1439256E-2,1.4101723E-1,-5.0450397E-1,9.1808446E-2,-3.3962596E-2,2.1668907E-2,1.3350453E0,-2.9819012E-2,-5.124834E-2,1.354483E-2,-3.1080006E-2,6.690312E-2,2.8552322E-2,2.0953165E-1],"categories":[],"categories_nodes":[],"categories_segments":[],"categories_sizes":[],"default_left":[0,0,0,0,0,0,0,0,0,0,0,0,0,0,0,0,0,0,0,0,0,0,0,0,0,0,0,0,0],"id":5,"left_children":[1,3,5,7,9,11,13,15,17,-1,19,-1,21,-1,-1,-1,-1,23,25,-1,-1,27,-1,-1,-1,-1,-1,-1,-1],"loss_changes":[1.4402217E2,7.5311565E0,2.6825897E1,4.509947E0,4.2602167E0,3.2149475E0,1.3806717E1,3.1627731E0,3.189762E0,0E0,3.498491E-1,0E0,3.2665539E0,0E0,0E0,0E0,0E0,6.8881416E-1,2.6206648E0,0E0,0E0,3.0268211E0,0E0,0E0,0E0,0E0,0E0,0E0,0E0],"parents":[2147483647,0,0,1,1,2,2,3,3,4,4,5,5,6,6,7,7,8,8,10,10,12,12,17,17,18,18,21,21],"right_children":[2,4,6,8,10,12,14,16,18,-1,20,-1,22,-1,-1,-1,-1,24,26,-1,-1,28,-1,-1,-1,-1,-1,-1,-1],"split_conditions":[3.4051498E-3,1.3086014E1,5.604069E-2,1.5146243E2,1.5575583E2,7.753286E-1,1.9594422E-1,1.3298044E-1,5.027562E-2,1.5210512E-1,5.99506E1,-3.7280947E-2,1.5572723E2,6.0348925E-3,3.2468602E-1,-3.1439256E-2,1.4101723E-1,1.5813573E2,3.9594144E-1,-3.3962596E-2,2.1668907E-2,2.1580842E-1,-2.9819012E-2,-5.124834E-2,1.354483E-2,-3.1080006E-2,6.690312E-2,2.8552322E-2,2.0953165E-1],"split_indices":[11,12,9,44,1,17,13,13,9,0,43,0,2,0,0,0,0,3,33,0,0,13,0,0,0,0,0,0,0],"split_type":[0,0,0,0,0,0,0,0,0,0,0,0,0,0,0,0,0,0,0,0,0,0,0,0,0,0,0,0,0],"sum_hessian":[1.6020238E2,1.3739153E2,2.2810846E1,1.3241779E2,4.9737372E0,6.9278917E0,1.5882954E1,2.7393818E0,1.296784E2,2.1758199E0,2.7979174E0,2.1399624E0,4.787929E0,1.5339369E0,1.4349017E1,1.4106287E0,1.3287531E0,1.2029638E2,9.382031E0,1.7531401E0,1.0447774E0,3.5431595E0,1.2447696E0,1.1901162E2,1.2847543E0,5.798901E0,3.58313E0,2.066289E0,1.4768707E0],"tree_param":{"num_deleted":"0","num_feature":"50","num_nodes":"29","size_leaf_vector":"1"}},{"base_weights":[-2.1294994E-2,1.4731406E0,-4.2701194E-1,1.8831921E0,8.228987E-1,-4.9154788E-1,4.2736754E-1,5.8949452E-2,1.9701901E-1,3.2672498E-1,1.7227119E0,-5.046145E-1,6.511596E-2,1.0967014E0,-4.5586277E-2,1.1089176E0,-2.4516208E-1,3.15546E-2,2.2632591E-1,9.2217594E-2,-5.1753974E-1,2.1205516E-1,4.4429326E-1,-3.265368E-2,1.6719264E-1,-4.722797E-2,6.266751E-2,-3.5181828E-2,6.478298E-2,-5.304506E-2,-2.9844373E-2,-1.907539E-2,1.4020337E-1],"categories":[],"categories_nodes":[],"categories_segments":[],"categories_sizes":[],"default_left":[0,0,0,0,0,0,0,0,0,0,0,0,0,0,0,0,0,0,0,0,0,0,0,0,0,0,0,0,0,0,0,0,0],"id":6,"left_children":[1,3,5,7,9,11,13,-1,-1,15,17,19,-1,21,-1,23,25,-1,-1,27,29,-1,31,-1,-1,-1,-1,-1,-1,-1,-1,-1,-1],"loss_changes":[1.22387024E2,9.942833E0,8.961212E0,1.7262726E0,7.6722956E0,2.538887E0,7.4057217E0,0E0,0E0,6.1422763E0,4.094555E0,1.1811066E0,0E0,3.6928864E0,0E0,5.1716213E0,1.959193E0,0E0,0E0,1.2056651E0,2.4891281E-1,0E0,3.6146436E0,0E0,0E0,0E0,0E0,0E0,0E0,0E0,0E0,0E0,0E0],"parents":[2147483647,0,0,1,1,2,2,3,3,4,4,5,5,6,6,9,9,10,10,11,11,13,13,15,15,16,16,19,19,20,20,22,22],"right_children":[2,4,6,8,10,12,14,-1,-1,16,18,20,-1,22,-1,24,26,-1,-1,28,30,-1,32,-1,-1,-1,-1,-1,-1,-1,-1,-1,-1],"split_conditions":[-2.6822665E-3,3.1276997E1,1.1205547E-2,1.5334784E2,1.8279324E-3,1.5813573E2,1.5601472E2,5.8949452E-2,1.9701901E-1,-5.87527E0,1.1096774E-2,-1.4247757E1,6.511596E-2,-7.044962E0,-4.5586277E-2,1.5644008E2,8.393576E0,3.15546E-2,2.2632591E-1,1.0154659E-1,1.4361969E-1,2.1205516E-1,1.4E1,-3.265368E-2,1.6719264E-1,-4.722797E-2,6.266751E-2,-3.5181828E-2,6.478298E-2,-5.304506E-2,-2.9844373E-2,-1.907539E-2,1.4020337E-1],"split_indices":[11,6,26,44,18,3,3,0,0,12,14,12,0,12,0,1,12,0,0,14,14,0,36,0,0,0,0,0,0,0,0,0,0],"split_type":[0,0,0,0,0,0,0,0,0,0,0,0,0,0,0,0,0,0,0,0,0,0,0,0,0,0,0,0,0,0,0,0,0],"sum_hessian":[1.998154E2,4.2102444E1,1.5771295E2,2.4657162E1,1.7445284E1,1.4703154E2,1.0681422E1,2.0436192E0,2.2613543E1,1.2123348E1,5.321936E0,1.4592136E2,1.1101705E0,5.9390035E0,4.7424183E0,4.7236185E0,7.3997297E0,1.9165301E0,3.405406E0,2.9631143E0,1.4295825E2,1.4356444E0,4.5033593E0,1.449069E0,3.2745492E0,6.23403E0,1.1657001E0,1.8507876E0,1.1123266E0,1.3366081E2,9.297431E0,3.1893992E0,1.3139598E0],"tree_param":{"num_deleted":"0","num_feature":"50","num_nodes":"33","size_leaf_vector":"1"}},{"base_weights":[-2.733769E-3,3.329424E-1,-6.792047E-1,4.2803276E-1,-4.9022898E-1,-1.2850044E0,-3.9403972E-1,-7.083067E-1,4.6477628E-1,4.936305E-2,-8.4004116E-1,-1.1133607E-1,-1.3779476E0,-1.5508159E-2,-1.1707276E0,4.024523E-2,-1.3682975E0,4.7950608E-1,-9.816404E-2,-2.9948485E-1,-1.3065768E0,3.6121245E-2,-5.9117075E-2,-1.0023746E-2,-1.4223251E0,3.5822564E-1,-9.47316E-1,3.0559046E-2,-1.2496289E0,-1.6555546E-1,-4.6412684E-2,-3.79902E-3,5.118512E-2,-8.593332E-2,-2.422325E-3,-1.073744E-2,-1.4763533E-1,-1.4981613E-1,-5.2778017E-2,4.2435758E-2,-3.393908E-2,6.771908E-3,-1.3049267E-1,1.141285E-3,-1.3433382E-1],"categories":[],"categories_nodes":[],"categories_segments":[],"categories_sizes":[],"default_left":[0,0,0,0,0,0,0,0,0,0,0,0,0,0,0,0,0,0,0,0,0,0,0,0,0,0,0,0,0,0,0,0,0,0,0,0,0,0,0,0,0,0,0,0,0],"id":7,"left_children":[1,3,5,7,9,11,13,15,17,-1,19,21,23,25,27,-1,29,31,-1,33,35,-1,-1,-1,37,39,41,-1,43,-1,-1,-1,-1,-1,-1,-1,-1,-1,-1,-1,-1,-1,-1,-1,-1],"loss_changes":[7.432335E1,1.7333582E1,1.8245872E1,8.539619E0,8.371785E0,3.5882187E0,2.2105108E1,5.3564196E0,4.541889E0,0E0,4.0033216E0,1.0309185E0,1.6546249E0,1.8310873E1,3.2524261E0,0E0,3.5868168E-1,3.1969376E0,0E0,1.4231359E0,1.6852398E0,0E0,0E0,0E0,1.2821693E0,1.8767576E0,5.5503674E0,0E0,2.8029594E0,0E0,0E0,0E0,0E0,0E0,0E0,0E0,0E0,0E0,0E0,0E0,0E0,0E0,0E0,0E0,0E0],"parents":[2147483647,0,0,1,1,2,2,3,3,4,4,5,5,6,6,7,7,8,8,10,10,11,11,12,12,13,13,14,14,16,16,17,17,19,19,20,20,24,24,25,25,26,26,28,28],"right_children":[2,4,6,8,10,12,14,16,18,-1,20,22,24,26,28,-1,30,32,-1,34,36,-1,-1,-1,38,40,42,-1,44,-1,-1,-1,-1,-1,-1,-1,-1,-1,-1,-1,-1,-1,-1,-1,-1],"split_conditions":[7.000161E-3,1E0,-3.9099585E-3,1.5146243E2,3.684899E-3,1.5556273E2,4.373784E-3,1.5060578E1,3.8076046E-1,4.936305E-2,2.1289878E-1,5.6086737E-3,3.0057909E-2,3.091748E-1,1.8622665E-1,4.024523E-2,1.5202598E-1,1.5328082E2,-9.816404E-2,-6.657885E-2,1.5342157E2,3.6121245E-2,-5.9117075E-2,-1.0023746E-2,7.53334E-4,5.604069E-2,-6.571468E-2,3.0559046E-2,5.7168568E1,-1.6555546E-1,-4.6412684E-2,-3.79902E-3,5.118512E-2,-8.593332E-2,-2.422325E-3,-1.073744E-2,-1.4763533E-1,-1.4981613E-1,-5.2778017E-2,4.2435758E-2,-3.393908E-2,6.771908E-3,-1.3049267E-1,1.141285E-3,-1.3433382E-1],"split_indices":[15,16,11,44,15,3,11,6,14,0,13,14,31,13,13,0,32,0,0,9,1,0,0,0,10,9,14,0,6,0,0,0,0,0,0,0,0,0,0,0,0,0,0,0,0],"split_type":[0,0,0,0,0,0,0,0,0,0,0,0,0,0,0,0,0,0,0,0,0,0,0,0,0,0,0,0,0,0,0,0,0,0,0,0,0,0,0,0,0,0,0,0,0],"sum_hessian":[3.253114E2,2.1776207E2,1.0754935E2,1.9564207E2,2.2119987E1,3.3300385E1,7.424896E1,5.5554576E0,1.9008662E2,5.6940722E0,1.6425915E1,2.6048405E0,3.0695545E1,5.0605507E1,2.3643454E1,2.2160606E0,3.3393972E0,1.888321E2,1.2545129E0,8.369936E0,8.055979E0,1.4369373E0,1.1679032E0,1.1397203E0,2.9555824E1,3.6558155E1,1.4047356E1,1.0537466E0,2.2589706E1,1.9035988E0,1.4357984E0,1.1098015E1,1.777341E2,2.0594301E0,6.310506E0,1.2015285E0,6.8544507E0,2.6623972E1,2.9318528E0,3.375042E1,2.8077338E0,3.8709009E0,1.0176455E1,1.6232966E0,2.0966412E1],"tree_param":{"num_deleted":"0","num_feature":"50","num_nodes":"45","size_leaf_vector":"1"}},{"base_weights":[-1.9978022E-2,-3.7290394E-1,1.5738691E0,1.2420089E0,-4.1690347E-1,-4.0288012E-2,1.8114729E0,7.3064542E-3,2.0266381E-1,-4.6194872E-1,7.335785E-1,9.967767E-1,2.2347324E0,-4.8455718E-1,8.175761E-2,1.5000176E0,-3.5249233E-2,1.3808026E0,-1.2390129E-1,4.786956E-2,2.3791628E-1,1.0741734E-2,-5.0083753E-2,-4.0789608E-2,8.735239E-2,2.1694245E-2,2.0150225E-1,1.6637501E-1,7.6285372E-3,-3.411984E-2,2.1722605E-2],"categories":[],"categories_nodes":[],"categories_segments":[],"categories_sizes":[],"default_left":[0,0,0,0,0,0,0,0,0,0,0,0,0,0,0,0,0,0,0,0,0,0,0,0,0,0,0,0,0,0,0],"id":8,"left_children":[1,3,5,7,9,-1,11,-1,-1,13,15,17,19,21,23,25,-1,27,29,-1,-1,-1,-1,-1,-1,-1,-1,-1,-1,-1,-1],"loss_changes":[8.83843E1,9.655119E0,1.4109749E1,3.2106977E0,6.865156E0,0E0,6.604347E0,0E0,0E0,1.5368366E0,4.8000684E0,4.716694E0,2.9318619E0,1.18219E0,2.5731957E0,1.6764588E0,0E0,2.8070688E0,3.4195566E-1,0E0,0E0,0E0,0E0,0E0,0E0,0E0,0E0,0E0,0E0,0E0,0E0],"parents":[2147483647,0,0,1,1,2,2,3,3,4,4,6,6,9,9,10,10,11,11,12,12,13,13,14,14,15,15,17,17,18,18],"right_children":[2,4,6,8,10,-1,12,-1,-1,14,16,18,20,22,24,26,-1,28,30,-1,-1,-1,-1,-1,-1,-1,-1,-1,-1,-1,-1],"split_conditions":[3.4051498E-3,1.4919106E2,1.2360963E-3,1.5285849E2,6.6290244E-2,-4.0288012E-2,-1.2896638E-2,7.3064542E-3,2.0266381E-1,1.3086014E1,7.285969E-1,1.5569579E2,4.9275465E-2,1.5321486E2,4.8872675E-3,1.5056439E2,-3.5249233E-2,1.5240459E2,1.6337765E-3,4.786956E-2,2.3791628E-1,1.0741734E-2,-5.0083753E-2,-4.0789608E-2,8.735239E-2,2.1694245E-2,2.0150225E-1,1.6637501E-1,7.6285372E-3,-3.411984E-2,2.1722605E-2],"split_indices":[11,45,18,0,9,0,14,0,0,12,28,3,9,1,25,45,0,45,18,0,0,0,0,0,0,0,0,0,0,0,0],"split_type":[0,0,0,0,0,0,0,0,0,0,0,0,0,0,0,0,0,0,0,0,0,0,0,0,0,0,0,0,0,0,0],"sum_hessian":[1.5508148E2,1.2759429E2,2.7487194E1,2.6620338E0,1.2493226E2,2.874783E0,2.4612411E1,1.5082121E0,1.1538218E0,1.20800964E2,4.1312914E0,9.562113E0,1.5050299E1,1.1608279E2,4.718181E0,2.1986E0,1.9326915E0,6.9488254E0,2.6132877E0,1.4716636E0,1.3578635E1,2.9571981E0,1.1312559E2,3.2148452E0,1.5033361E0,1.0367934E0,1.1618068E0,5.4839835E0,1.4648422E0,1.596264E0,1.0170236E0],"tree_param":{"num_deleted":"0","num_feature":"50","num_nodes":"31","size_leaf_vector":"1"}},{"base_weights":[-8.096054E-3,1.0581416E0,-4.1242436E-1,1.3951963E0,4.3553174E-1,-4.8324147E-1,5.269545E-1,4.1362583E-3,1.4575614E0,-1.497624E-1,1.0225033E0,-5.2673537E-1,3.4157977E-1,-2.5934672E-1,1.0876635E0,4.6691906E-1,1.5531932E-1,9.5215164E-2,-3.93919E-1,1.5856783E0,3.6056367E-1,5.038926E-3,-5.345268E-2,1.2899226E-1,-2.575609E-1,2.1250851E-2,-4.2424526E-2,1.6011482E0,-3.3311274E-2,-8.771873E-3,1.1410421E-1,1.8865457E-2,-4.8723385E-2,5.2610047E-2,1.8137787E-1,-3.825949E-2,9.645146E-2,1.9490626E-2,-4.2151477E-2,1.47053E-2,2.0218538E-1],"categories":[],"categories_nodes":[],"categories_segments":[],"categories_sizes":[],"default_left":[0,0,0,0,0,0,0,0,0,0,0,0,0,0,0,0,0,0,0,0,0,0,0,0,0,0,0,0,0,0,0,0,0,0,0,0,0,0,0,0,0],"id":9,"left_children":[1,3,5,7,9,11,13,-1,15,17,19,21,23,25,27,29,-1,-1,31,33,35,-1,-1,-1,37,-1,-1,39,-1,-1,-1,-1,-1,-1,-1,-1,-1,-1,-1,-1,-1],"loss_changes":[8.510552E1,1.0783112E1,9.775467E0,2.8747025E0,7.2021046E0,4.9730377E0,4.916369E0,0E0,2.4201965E0,3.3737628E0,3.2948437E0,5.993881E-1,4.4794555E0,4.9342942E-1,5.1502132E0,1.727571E0,0E0,0E0,6.2639046E-1,3.290968E-1,3.0899522E0,0E0,0E0,0E0,4.7581914E-1,0E0,0E0,2.6516705E0,0E0,0E0,0E0,0E0,0E0,0E0,0E0,0E0,0E0,0E0,0E0,0E0,0E0],"parents":[2147483647,0,0,1,1,2,2,3,3,4,4,5,5,6,6,8,8,9,9,10,10,11,11,12,12,13,13,14,14,15,15,18,18,19,19,20,20,24,24,27,27],"right_children":[2,4,6,8,10,12,14,-1,16,18,20,22,24,26,28,30,-1,-1,32,34,36,-1,-1,-1,38,-1,-1,40,-1,-1,-1,-1,-1,-1,-1,-1,-1,-1,-1,-1,-1],"split_conditions":[-2.3587602E-3,-3.9099585E-3,2.2202916E-3,-6.7247234E-2,1.54712E2,1.9202426E-1,1.4E1,4.1362583E-3,6.8781604E-3,4.242257E-4,-4.999867E0,6.4560305E-3,4.3812393E1,-2.675183E0,1.7897309E-3,1.7938176E0,1.5531932E-1,9.5215164E-2,5.0384194E-2,4.5757177E-3,1.7650237E-3,5.038926E-3,-5.345268E-2,1.2899226E-1,2.1379906E-1,2.1250851E-2,-4.2424526E-2,-1.6743583E-3,-3.3311274E-2,-8.771873E-3,1.1410421E-1,1.8865457E-2,-4.8723385E-2,5.2610047E-2,1.8137787E-1,-3.825949E-2,9.645146E-2,1.9490626E-2,-4.2151477E-2,1.47053E-2,2.0218538E-1],"split_indices":[11,11,18,14,44,14,36,0,26,25,12,31,6,12,11,17,0,0,32,15,18,0,0,0,31,0,0,5,0,0,0,0,0,0,0,0,0,0,0,0,0],"split_type":[0,0,0,0,0,0,0,0,0,0,0,0,0,0,0,0,0,0,0,0,0,0,0,0,0,0,0,0,0,0,0,0,0,0,0,0,0,0,0,0,0],"sum_hessian":[1.9539792E2,5.3279556E1,1.4211836E2,3.3761574E1,1.9517982E1,1.3260707E2,9.511299E0,1.5600004E0,3.2201572E1,1.0145915E1,9.3720665E0,1.2630807E2,6.298995E0,4.1829185E0,5.328381E0,3.3527837E0,2.884879E1,1.314342E0,8.8315735E0,4.309803E0,5.0622635E0,1.6096779E0,1.24698395E2,1.9923974E0,4.3065977E0,1.00847E0,3.1744485E0,3.8206143E0,1.5077666E0,2.3166373E0,1.0361464E0,1.078251E0,7.7533226E0,1.3491482E0,2.9606547E0,2.433889E0,2.6283746E0,1.0952432E0,3.2113545E0,1.160183E0,2.6604314E0],"tree_param":{"num_deleted":"0","num_feature":"50","num_nodes":"41","size_leaf_vector":"1"}},{"base_weights":[-6.932965E-3,2.8431803E-1,-6.0190725E-1,3.91401E-1,-5.1772803E-1,-3.1648716E-1,-9.680467E-1,5.328791E-1,9.633117E-2,9.287565E-2,-1.075146E0,-1.04623005E-1,-9.104365E-1,-1.2345235E0,-5.573206E-1,1.368773E-1,5.475009E-1,-1.0101699E0,1.9458959E-1,-6.454009E-1,3.402489E-1,-2.7074356E-4,-1.2166073E0,-1.1429865E0,1.5467453E-1,-6.22671E-2,-1.0748519E0,-1.2712103E-1,-1.726715E-2,4.6474133E-2,-8.3688605E-1,-6.895077E-2,4.527588E-2,3.637254E-2,5.624769E-2,2.9661749E-2,-1.3908282E-1,-1.3661347E-1,2.5512073E-2,-2.2702224E-3,-1.1068088E-1,5.167013E-2,-5.70282E-2,-9.597601E-3,-1.3345E-1,-1.2302915E-1,-3.7691742E-2,5.1101424E-2,-3.5390947E-2,-5.5536855E-2,3.9520334E-2,-2.2359809E-2,-1.2032272E-1,-1.1320223E-1,8.460599E-3],"categories":[],"categories_nodes":[],"categories_segments":[],"categories_sizes":[],"default_left":[0,0,0,0,0,0,0,0,0,0,0,0,0,0,0,0,0,0,0,0,0,0,0,0,0,0,0,0,0,0,0,0,0,0,0,0,0,0,0,0,0,0,0,0,0,0,0,0,0,0,0,0,0,0,0],"id":10,"left_children":[1,3,5,7,9,11,13,15,17,19,21,23,25,27,29,31,33,35,37,39,41,-1,43,45,47,49,51,-1,-1,-1,53,-1,-1,-1,-1,-1,-1,-1,-1,-1,-1,-1,-1,-1,-1,-1,-1,-1,-1,-1,-1,-1,-1,-1,-1],"loss_changes":[5.52641E1,1.8592737E1,1.0646202E1,7.8583584E0,8.830583E0,7.50284E0,4.2837143E0,6.6532135E-1,7.005404E0,2.6233966E0,2.0431347E0,1.246385E1,2.1288023E0,8.216934E-1,6.017195E0,1.8486099E0,1.338234E-1,3.0336337E0,5.861597E0,1.0231726E0,1.9838319E0,0E0,1.4460621E0,1.541338E-1,6.9583044E0,1.0356535E0,1.1655111E0,0E0,0E0,0E0,4.399352E0,0E0,0E0,0E0,0E0,0E0,0E0,0E0,0E0,0E0,0E0,0E0,0E0,0E0,0E0,0E0,0E0,0E0,0E0,0E0,0E0,0E0,0E0,0E0,0E0],"parents":[2147483647,0,0,1,1,2,2,3,3,4,4,5,5,6,6,7,7,8,8,9,9,10,10,11,11,12,12,13,13,14,14,15,15,16,16,17,17,18,18,19,19,20,20,22,22,23,23,24,24,25,25,26,26,30,30],"right_children":[2,4,6,8,10,12,14,16,18,20,22,24,26,28,30,32,34,36,38,40,42,-1,44,46,48,50,52,-1,-1,-1,54,-1,-1,-1,-1,-1,-1,-1,-1,-1,-1,-1,-1,-1,-1,-1,-1,-1,-1,-1,-1,-1,-1,-1,-1],"split_conditions":[7.119664E-3,1E0,4.175276E-2,1.3503304E-3,4.650979E-3,4.6018665E-3,1.5600145E2,-5.652528E-2,1.5318105E2,1.1356659E0,1.2569984E-3,-5.569612E-3,6.621593E1,2.7791756E-1,1.4992897E2,1.7457907E-3,1.5501144E2,-1.3131242E-1,1.352814E-3,1.3479211E-3,1.2900974E1,-2.7074356E-4,1E0,1.0482671E0,1.7921351E-3,-1.794834E-2,4.0271702E-1,-1.2712103E-1,-1.726715E-2,4.6474133E-2,-2.4593446E-2,-6.895077E-2,4.527588E-2,3.637254E-2,5.624769E-2,2.9661749E-2,-1.3908282E-1,-1.3661347E-1,2.5512073E-2,-2.2702224E-3,-1.1068088E-1,5.167013E-2,-5.70282E-2,-9.597601E-3,-1.3345E-1,-1.2302915E-1,-3.7691742E-2,5.1101424E-2,-3.5390947E-2,-5.5536855E-2,3.9520334E-2,-2.2359809E-2,-1.2032272E-1,-1.1320223E-1,8.460599E-3],"split_indices":[15,16,14,18,15,11,1,9,1,17,18,11,6,8,45,25,0,14,18,18,12,0,42,17,18,8,17,0,0,0,12,0,0,0,0,0,0,0,0,0,0,0,0,0,0,0,0,0,0,0,0,0,0,0,0],"split_type":[0,0,0,0,0,0,0,0,0,0,0,0,0,0,0,0,0,0,0,0,0,0,0,0,0,0,0,0,0,0,0,0,0,0,0,0,0,0,0,0,0,0,0,0,0,0,0,0,0,0,0,0,0,0,0],"sum_hessian":[3.1692926E2,2.1312349E2,1.03805786E2,1.8847215E2,2.465134E1,5.9380634E1,4.442515E1,1.26846634E2,6.1625515E1,1.2162139E1,1.2489202E1,4.463522E1,1.4745415E1,2.5727547E1,1.8697603E1,4.885807E0,1.2196082E2,4.2691627E0,5.7356354E1,2.648568E0,9.513571E0,1.5741894E0,1.0915012E1,8.237985E0,3.6397232E1,2.6181064E0,1.2127309E1,2.4677773E1,1.0497754E0,3.873634E0,1.4823969E1,1.0240252E0,3.8617818E0,1.1095176E1,1.10865654E2,1.0128523E0,3.2563102E0,1.3361514E0,5.60202E1,1.5738124E0,1.0747554E0,8.331527E0,1.1820443E0,1.211659E0,9.703354E0,6.851208E0,1.3867766E0,2.1399136E1,1.4998097E1,1.1569964E0,1.4611101E0,1.9485128E0,1.0178796E1,1.1054847E1,3.769122E0],"tree_param":{"num_deleted":"0","num_feature":"50","num_nodes":"55","size_leaf_vector":"1"}},{"base_weights":[1.2364522E-2,-3.4590468E-1,1.321188E0,-3.9733455E-1,6.922272E-1,-2.1747474E-1,1.5229878E0,5.6372255E-1,-4.2853275E-1,1.7539462E-1,-8.9703774E-4,2.2789625E-2,-3.989554E-2,2.0216428E-1,1.63029E0,-3.550392E-2,1.5473157E-1,-4.8591936E-1,1.8498944E-1,-3.8769558E-2,6.72326E-2,-3.0078152E-2,6.2091418E-2,1.7391805E-2,1.6867439E0,-5.041794E-2,-3.1407443E-3,-4.3433066E-2,6.7842E-2,8.519662E-2,1.8381584E-1],"categories":[],"categories_nodes":[],"categories_segments":[],"categories_sizes":[],"default_left":[0,0,0,0,0,0,0,0,0,0,0,0,0,0,0,0,0,0,0,0,0,0,0,0,0,0,0,0,0,0,0],"id":11,"left_children":[1,3,5,7,9,11,13,15,17,-1,19,-1,-1,21,23,-1,-1,25,27,-1,-1,-1,-1,-1,29,-1,-1,-1,-1,-1,-1],"loss_changes":[7.254524E1,6.7614727E0,1.065424E1,3.7313213E0,4.4900284E0,4.7321394E-1,3.8536987E0,4.2466826E0,4.0789013E0,0E0,1.4818556E0,0E0,0E0,8.942512E-1,1.9394379E0,0E0,0E0,8.4633446E-1,3.477496E0,0E0,0E0,0E0,0E0,0E0,1.7239227E0,0E0,0E0,0E0,0E0,0E0,0E0],"parents":[2147483647,0,0,1,1,2,2,3,3,4,4,5,5,6,6,7,7,8,8,10,10,13,13,14,14,17,17,18,18,24,24],"right_children":[2,4,6,8,10,12,14,16,18,-1,20,-1,-1,22,24,-1,-1,26,28,-1,-1,-1,-1,-1,30,-1,-1,-1,-1,-1,-1],"split_conditions":[3.4051498E-3,1.3086014E1,4.2089824E-2,1.5146243E2,8.82705E-2,-1.5591331E-4,5.7168568E1,4.6134182E1,5.027562E-2,1.7539462E-1,3.5474148E-2,2.2789625E-2,-3.989554E-2,1.0129186E-1,1.9270523E-1,-3.550392E-2,1.5473157E-1,1.5240831E2,4.8789722E1,-3.8769558E-2,6.72326E-2,-3.0078152E-2,6.2091418E-2,1.7391805E-2,-2.0471965E-4,-5.041794E-2,-3.1407443E-3,-4.3433066E-2,6.7842E-2,8.519662E-2,1.8381584E-1],"split_indices":[11,12,9,44,32,10,6,6,9,0,9,0,0,9,13,0,0,45,6,0,0,0,0,0,10,0,0,0,0,0,0],"split_type":[0,0,0,0,0,0,0,0,0,0,0,0,0,0,0,0,0,0,0,0,0,0,0,0,0,0,0,0,0,0,0],"sum_hessian":[1.5273541E2,1.2048917E2,3.2246243E1,1.15389915E2,5.099248E0,3.7298205E0,2.851642E1,3.0913746E0,1.12298546E2,1.4095792E0,3.689669E0,1.0057796E0,2.724041E0,2.3592741E0,2.6157146E1,1.928772E0,1.1626027E0,1.0288321E2,9.415335E0,2.6126804E0,1.0769886E0,1.1998692E0,1.1594051E0,1.128381E0,2.5028767E1,9.880446E1,4.0787516E0,4.228183E0,5.1871514E0,4.8602066E0,2.016856E1],"tree_param":{"num_deleted":"0","num_feature":"50","num_nodes":"31","size_leaf_vector":"1"}},{"base_weights":[-8.9210365E-3,1.0152886E0,-3.927267E-1,1.0820588E0,-3.7669927E-2,-4.7650543E-1,3.4911337E-1,7.091098E-1,1.3261833E0,-4.9144593E-1,6.703218E-2,7.0654845E-1,-4.4445377E-2,1.0506269E0,-5.192526E-3,-2.8991763E-2,1.398731E0,2.15189E-2,-4.9909657E-1,9.5691097E-1,-3.6292627E-2,2.6245981E-2,1.4353819E-1,8.4155664E-2,-3.227925E-2,1.50525E-1,1.5041749E-2,1.2373164E-2,-5.0687224E-2,1.16945386E-1,-2.91486E-2],"categories":[],"categories_nodes":[],"categories_segments":[],"categories_sizes":[],"default_left":[0,0,0,0,0,0,0,0,0,0,0,0,0,0,0,0,0,0,0,0,0,0,0,0,0,0,0,0,0,0,0],"id":12,"left_children":[1,3,5,7,-1,9,11,13,15,17,-1,19,-1,21,23,-1,25,-1,27,29,-1,-1,-1,-1,-1,-1,-1,-1,-1,-1,-1],"loss_changes":[7.503136E1,5.243599E0,8.794464E0,3.6035347E0,0E0,2.4739685E0,4.473563E0,5.3463364E0,3.807312E0,7.78471E-1,0E0,3.157825E0,0E0,4.1164894E0,2.4437337E0,0E0,3.4887009E0,0E0,6.5888214E-1,2.6706696E0,0E0,0E0,0E0,0E0,0E0,0E0,0E0,0E0,0E0,0E0,0E0],"parents":[2147483647,0,0,1,1,2,2,3,3,5,5,6,6,7,7,8,8,9,9,11,11,13,13,14,14,16,16,18,18,19,19],"right_children":[2,4,6,8,-1,10,12,14,16,18,-1,20,-1,22,24,-1,26,-1,28,30,-1,-1,-1,-1,-1,-1,-1,-1,-1,-1,-1],"split_conditions":[-2.6046853E-3,4.2595478E1,3.2096937E-1,1.5547845E2,-3.7669927E-2,9.614521E-1,1.7897309E-3,-3.9099585E-3,-1.0640488E-1,-1.9191504E1,6.703218E-2,1.2049433E-2,-4.4445377E-2,3.9846173E-1,-1.3448127E1,-2.8991763E-2,9.4858196E-4,2.15189E-2,6.4560305E-3,6.7069507E-3,-3.6292627E-2,2.6245981E-2,1.4353819E-1,8.4155664E-2,-3.227925E-2,1.50525E-1,1.5041749E-2,1.2373164E-2,-5.0687224E-2,1.16945386E-1,-2.91486E-2],"split_indices":[11,6,13,44,0,28,11,11,14,12,0,15,0,31,12,0,10,0,31,25,0,0,0,0,0,0,0,0,0,0,0],"split_type":[0,0,0,0,0,0,0,0,0,0,0,0,0,0,0,0,0,0,0,0,0,0,0,0,0,0,0,0,0,0,0],"sum_hessian":[1.8885782E2,5.1031563E1,1.3782625E2,4.8908207E1,2.123355E0,1.24161865E2,1.3664388E1,2.0893663E1,2.8014544E1,1.2312926E2,1.0326135E0,9.496617E0,4.167771E0,1.381682E1,7.0768433E0,1.0748367E0,2.6939707E1,1.0282744E0,1.2210098E2,7.7804713E0,1.7161456E0,5.0841446E0,8.732676E0,1.4803538E0,5.5964894E0,2.463202E1,2.307685E0,1.3216827E0,1.207793E2,6.7025757E0,1.0778958E0],"tree_param":{"num_deleted":"0","num_feature":"50","num_nodes":"31","size_leaf_vector":"1"}},{"base_weights":[-2.2697512E-2,2.5672027E-1,-5.6875575E-1,3.5977826E-1,-6.21016E-1,-1.0379505E0,-3.4536427E-1,-4.6431053E-1,4.6790576E-1,-1.0083028E0,6.70892E-2,3.738889E-2,-1.1210508E0,-9.019214E-1,-1.254103E-1,1.149951E-1,-6.6130555E-1,4.8400018E-1,-8.024872E-2,-1.3004063E-1,-1.16141655E-1,-9.0081686E-1,4.8680916E-2,-1.1572119E0,-1.07273115E-2,-9.640485E-1,-2.6135298E-3,2.88977E-1,-4.8443407E-1,-6.8284355E-2,5.0851543E-2,-9.5098756E-2,1.3865858E-2,5.0047655E-2,-6.492594E-2,3.716136E-2,-5.930209E-2,-1.9611208E-2,-1.156474E-1,-1.21026866E-1,-3.594586E-2,-1.0456959E-1,-1.5237681E-2,3.9020855E-2,-6.9028616E-2,-1.8500118E-2,-1.0566955E-1],"categories":[],"categories_nodes":[],"categories_segments":[],"categories_sizes":[],"default_left":[0,0,0,0,0,0,0,0,0,0,0,0,0,0,0,0,0,0,0,0,0,0,0,0,0,0,0,0,0,0,0,0,0,0,0,0,0,0,0,0,0,0,0,0,0,0,0],"id":13,"left_children":[1,3,5,7,9,11,13,15,17,19,21,-1,23,25,27,29,31,33,-1,35,-1,37,-1,39,-1,41,-1,43,45,-1,-1,-1,-1,-1,-1,-1,-1,-1,-1,-1,-1,-1,-1,-1,-1,-1,-1],"loss_changes":[4.8320175E1,1.9178772E1,1.0875992E1,1.6983896E1,6.033228E0,4.4167824E0,8.959363E0,2.6240106E0,3.7995872E0,1.783515E0,4.094527E0,0E0,1.0647049E0,1.1082306E0,8.215501E0,2.393537E0,4.0271916E0,3.4127922E0,0E0,9.779412E-1,0E0,3.268237E-1,0E0,8.859749E-1,0E0,1.1278706E0,0E0,2.82931E0,4.851987E0,0E0,0E0,0E0,0E0,0E0,0E0,0E0,0E0,0E0,0E0,0E0,0E0,0E0,0E0,0E0,0E0,0E0,0E0],"parents":[2147483647,0,0,1,1,2,2,3,3,4,4,5,5,6,6,7,7,8,8,9,9,10,10,12,12,13,13,14,14,15,15,16,16,17,17,19,19,21,21,23,23,25,25,27,27,28,28],"right_children":[2,4,6,8,10,12,14,16,18,20,22,-1,24,26,28,30,32,34,-1,36,-1,38,-1,40,-1,42,-1,44,46,-1,-1,-1,-1,-1,-1,-1,-1,-1,-1,-1,-1,-1,-1,-1,-1,-1,-1],"split_conditions":[1.5291537E-3,5.2718036E-2,-3.7893944E-3,-3.051052E-3,1.4210583E-3,-1.0640488E-1,2.2157845E-3,-1.2212192E-1,9.581452E-1,-2.8299983E0,1.5541956E2,3.738889E-2,3.7632743E-3,1.5657259E2,2.020308E-3,6.4047896E-3,1.4E1,1.966524E-3,-8.024872E-2,-4.2501139E-4,-1.16141655E-1,1.5501654E2,4.8680916E-2,9.4858196E-4,-1.07273115E-2,8.3010566E-1,-2.6135298E-3,5.980872E-1,4.997564E-2,-6.8284355E-2,5.0851543E-2,-9.5098756E-2,1.3865858E-2,5.0047655E-2,-6.492594E-2,3.716136E-2,-5.930209E-2,-1.9611208E-2,-1.156474E-1,-1.21026866E-1,-3.594586E-2,-1.0456959E-1,-1.5237681E-2,3.9020855E-2,-6.9028616E-2,-1.8500118E-2,-1.0566955E-1],"split_indices":[18,9,11,11,26,14,26,8,28,12,0,0,25,0,18,14,36,10,0,10,0,0,0,10,0,31,0,32,14,0,0,0,0,0,0,0,0,0,0,0,0,0,0,0,0,0,0],"split_type":[0,0,0,0,0,0,0,0,0,0,0,0,0,0,0,0,0,0,0,0,0,0,0,0,0,0,0,0,0,0,0,0,0,0,0,0,0,0,0,0,0,0,0,0,0,0,0],"sum_hessian":[3.1473386E2,2.0854918E2,1.0618467E2,1.8716376E2,2.138542E1,3.3073414E1,7.311126E1,2.132699E1,1.6583676E2,1.33860235E1,7.999397E0,1.64396E0,3.1429453E1,1.9831196E1,5.328006E1,5.5175924E0,1.5809398E1,1.6437337E2,1.4634057E0,2.261774E0,1.1124249E1,2.0728998E0,5.926497E0,3.0210373E1,1.2190797E0,1.842348E1,1.4077175E0,2.482361E1,2.845645E1,1.5796762E0,3.937916E0,1.1467876E1,4.341521E0,1.6256818E2,1.8051894E0,1.180264E0,1.08151E0,1.0222405E0,1.0506593E0,2.7841599E1,2.3687742E0,1.6477642E1,1.9458362E0,2.3043056E1,1.7805524E0,1.9550192E1,8.906259E0],"tree_param":{"num_deleted":"0","num_feature":"50","num_nodes":"47","size_leaf_vector":"1"}},{"base_weights":[2.9789826E-3,-3.540721E-1,1.1526452E0,-4.077529E-1,6.606007E-1,-3.011628E-2,1.21405E0,3.1346184E-1,-4.5670372E-1,-1.7343557E-1,1.5904711E-1,1.3455042E0,3.4244436E-1,-2.2404605E-1,9.3452E-1,-4.9306306E-1,3.892687E-1,-3.6557887E-2,2.1300068E-2,4.2923647E-3,1.409689E0,-3.9738066E-2,9.809535E-2,2.1179857E-2,-3.9705496E-2,1.6737162E-1,-2.9610131E-2,-5.0264247E-2,1.553744E-2,-3.6715083E-2,1.1375632E-1,1.5800407E-2,1.4569496E-1],"categories":[],"categories_nodes":[],"categories_segments":[],"categories_sizes":[],"default_left":[0,0,0,0,0,0,0,0,0,0,0,0,0,0,0,0,0,0,0,0,0,0,0,0,0,0,0,0,0,0,0,0,0],"id":14,"left_children":[1,3,5,7,9,-1,11,13,15,17,-1,19,21,23,25,27,29,-1,-1,-1,31,-1,-1,-1,-1,-1,-1,-1,-1,-1,-1,-1,-1],"loss_changes":[6.2466194E1,6.5942383E0,3.584797E0,4.05851E0,5.096839E0,0E0,3.526268E0,2.7604237E0,3.39892E0,3.8813972E-1,0E0,2.4389954E0,3.1777327E0,4.5381528E-1,3.8966532E0,7.0178795E-1,3.1658545E0,0E0,0E0,0E0,1.4534111E0,0E0,0E0,0E0,0E0,0E0,0E0,0E0,0E0,0E0,0E0,0E0,0E0],"parents":[2147483647,0,0,1,1,2,2,3,3,4,4,6,6,7,7,8,8,9,9,11,11,12,12,13,13,14,14,15,15,16,16,20,20],"right_children":[2,4,6,8,10,-1,12,14,16,18,-1,20,22,24,26,28,30,-1,-1,-1,32,-1,-1,-1,-1,-1,-1,-1,-1,-1,-1,-1,-1],"split_conditions":[3.6126738E-3,1.3086014E1,2.4722207E-2,1.5321486E2,4.8872675E-3,-3.011628E-2,1.558114E2,2.1277055E-1,6.81621E-2,9.923773E-4,1.5904711E-1,4.0271702E-1,1E0,9.998474E-2,3.5038313E-1,1.5811192E2,5.1044765E1,-3.6557887E-2,2.1300068E-2,4.2923647E-3,1.9594422E-1,-3.9738066E-2,9.809535E-2,2.1179857E-2,-3.9705496E-2,1.6737162E-1,-2.9610131E-2,-5.0264247E-2,1.553744E-2,-3.6715083E-2,1.1375632E-1,1.5800407E-2,1.4569496E-1],"split_indices":[11,12,9,1,25,0,2,13,9,10,0,17,37,32,28,3,6,0,0,0,13,0,0,0,0,0,0,0,0,0,0,0,0],"split_type":[0,0,0,0,0,0,0,0,0,0,0,0,0,0,0,0,0,0,0,0,0,0,0,0,0,0,0,0,0,0,0,0,0],"sum_hessian":[1.5018065E2,1.1511994E2,3.50607E1,1.0990368E2,5.216262E0,1.2626189E0,3.379808E1,6.641904E0,1.0326178E2,3.1786726E0,2.037589E0,2.8896284E1,4.901797E0,3.9031186E0,2.7387853E0,9.940652E1,3.855261E0,2.159101E0,1.0195715E0,1.4353685E0,2.7460917E1,2.4456847E0,2.456112E0,1.045382E0,2.8577366E0,1.4860831E0,1.252702E0,9.818092E1,1.2255919E0,2.1705217E0,1.6847394E0,1.1571546E0,2.630376E1],"tree_param":{"num_deleted":"0","num_feature":"50","num_nodes":"33","size_leaf_vector":"1"}},{"base_weights":[3.1611253E-2,9.3617815E-1,-3.7144345E-1,2.2432077E-1,1.0450946E0,-4.561307E-1,4.1481188E-1,-2.6096997E-1,6.7400444E-1,-3.3105407E-2,1.0923035E0,-4.7860828E-1,3.8687804E-1,-4.4200573E-2,7.846972E-1,-4.1173443E-2,1.6893098E-2,9.342306E-2,2.5681674E-3,1.5206599E-1,1.1407146E0,-4.9479967E-1,6.558917E-2,-3.0475954E-2,9.0166144E-2,-2.0394837E-2,1.266774E0,-3.2916956E-2,6.795504E-2,2.5408003E-2,1.17557645E-1,3.0512572E-3,-5.0286014E-2,6.75146E-2,-4.084296E-2,1.539052E-1,1.1845584E-2],"categories":[],"categories_nodes":[],"categories_segments":[],"categories_sizes":[],"default_left":[0,0,0,0,0,0,0,0,0,0,0,0,0,0,0,0,0,0,0,0,0,0,0,0,0,0,0,0,0,0,0,0,0,0,0,0,0],"id":15,"left_children":[1,3,5,7,9,11,13,15,17,-1,19,21,23,-1,25,-1,-1,-1,-1,27,29,31,-1,-1,-1,33,35,-1,-1,-1,-1,-1,-1,-1,-1,-1,-1],"loss_changes":[6.9823166E1,4.341606E0,9.014296E0,2.1629248E0,3.669403E0,2.4614048E0,4.597156E0,4.001154E-1,8.2043123E-1,0E0,2.0778122E0,2.4820461E0,1.582462E0,0E0,3.8012853E0,0E0,0E0,0E0,0E0,1.1313518E0,1.1504669E0,5.0808525E-1,0E0,0E0,0E0,1.5246558E0,1.7249994E0,0E0,0E0,0E0,0E0,0E0,0E0,0E0,0E0,0E0,0E0],"parents":[2147483647,0,0,1,1,2,2,3,3,4,4,5,5,6,6,7,7,8,8,10,10,11,11,12,12,14,14,19,19,20,20,21,21,25,25,26,26],"right_children":[2,4,6,8,10,12,14,16,18,-1,20,22,24,-1,26,-1,-1,-1,-1,28,30,32,-1,-1,-1,34,36,-1,-1,-1,-1,-1,-1,-1,-1,-1,-1],"split_conditions":[-2.6822665E-3,1.5349356E2,2.2202916E-3,4.751473E-1,-1.0640488E-1,8.9768887E-1,-4.3049884E-1,9.0287906E-1,7.820155E-3,-3.3105407E-2,4.594351E-3,3.8076046E-1,3.3795923E-2,-4.4200573E-2,1.4E1,-4.1173443E-2,1.6893098E-2,9.342306E-2,2.5681674E-3,4.3837526E-1,1.5342157E2,6.4560305E-3,6.558917E-2,-3.0475954E-2,9.0166144E-2,-4.082712E0,4.698228E1,-3.2916956E-2,6.795504E-2,2.5408003E-2,1.17557645E-1,3.0512572E-3,-5.0286014E-2,6.75146E-2,-4.084296E-2,1.539052E-1,1.1845584E-2],"split_indices":[11,44,18,31,14,28,8,28,15,0,15,14,14,0,36,0,0,0,0,33,1,31,0,0,0,12,6,0,0,0,0,0,0,0,0,0,0],"split_type":[0,0,0,0,0,0,0,0,0,0,0,0,0,0,0,0,0,0,0,0,0,0,0,0,0,0,0,0,0,0,0,0,0,0,0,0,0],"sum_hessian":[1.8955771E2,5.802061E1,1.315371E2,8.105322E0,4.991529E1,1.1912596E2,1.2411142E1,4.1001596E0,4.0051622E0,1.4561363E0,4.8459152E1,1.1645317E2,2.6727877E0,3.6835148E0,8.727628E0,3.0668764E0,1.0332834E0,2.543319E0,1.461843E0,2.5756752E0,4.588348E1,1.1537048E2,1.0826846E0,1.3145746E0,1.358213E0,3.6273944E0,5.100233E0,1.5434842E0,1.032191E0,2.0494087E0,4.383407E1,1.7014139E0,1.13669075E2,1.0340247E0,2.5933697E0,3.8476503E0,1.2525827E0],"tree_param":{"num_deleted":"0","num_feature":"50","num_nodes":"37","size_leaf_vector":"1"}},{"base_weights":[-1.8832244E-2,2.720327E-1,-5.0633633E-1,-5.138805E-1,3.7122318E-1,-5.922929E-1,2.9374585E-1,1.9834405E-1,-7.301666E-1,4.948858E-1,-4.8288813E-1,-9.850885E-1,-4.1508225E-1,-6.588789E-2,5.1259946E-2,-5.1754594E-2,4.7980946E-2,1.3024466E-1,-8.70706E-1,2.4054285E-2,5.314794E-1,4.9084973E-2,-8.460024E-1,-2.8302634E-2,-1.0147274E0,-1.6186137E-1,-8.1091464E-1,3.187297E-2,-1.4032507E-2,-9.773057E-2,2.1781083E-3,-5.6382187E-2,3.707384E-2,-1.6185803E-3,5.4532077E-2,3.9082617E-2,-1.063352E-1,-1.0468896E-1,-3.946903E-2,1.3439938E-2,-5.515464E-2,3.870524E-2,-9.2422746E-2],"categories":[],"categories_nodes":[],"categories_segments":[],"categories_sizes":[],"default_left":[0,0,0,0,0,0,0,0,0,0,0,0,0,0,0,0,0,0,0,0,0,0,0,0,0,0,0,0,0,0,0,0,0,0,0,0,0,0,0,0,0,0,0],"id":16,"left_children":[1,3,5,7,9,11,13,15,17,19,21,23,25,-1,-1,-1,-1,27,29,31,33,-1,35,-1,37,39,41,-1,-1,-1,-1,-1,-1,-1,-1,-1,-1,-1,-1,-1,-1,-1,-1],"loss_changes":[4.2630596E1,1.48728E1,7.899355E0,3.4607768E0,1.7963728E1,6.67482E0,2.7491033E0,1.4171379E0,2.1358633E0,2.5213776E0,8.098558E0,3.5599327E-1,7.071107E0,0E0,0E0,0E0,0E0,2.088496E-1,1.4014788E0,2.584308E0,1.0430183E0,0E0,4.7691917E0,0E0,1.705246E-1,5.2775803E0,4.1293373E0,0E0,0E0,0E0,0E0,0E0,0E0,0E0,0E0,0E0,0E0,0E0,0E0,0E0,0E0,0E0,0E0],"parents":[2147483647,0,0,1,1,2,2,3,3,4,4,5,5,6,6,7,7,8,8,9,9,10,10,11,11,12,12,17,17,18,18,19,19,20,20,22,22,24,24,25,25,26,26],"right_children":[2,4,6,8,10,12,14,16,18,20,22,24,26,-1,-1,-1,-1,28,30,32,34,-1,36,-1,38,40,42,-1,-1,-1,-1,-1,-1,-1,-1,-1,-1,-1,-1,-1,-1,-1,-1],"split_conditions":[2.3132229E-1,-3.051052E-3,6.3244984E1,8.672461E-1,5.2718036E-2,2.3011803E-3,-1.0342629E-1,-4.6156894E-4,1.5567831E2,7.412986E-4,1.9594422E-1,2E0,5.7362232E1,-6.588789E-2,5.1259946E-2,-5.1754594E-2,4.7980946E-2,1.5144368E0,1E0,-8.302068E-4,1.2963456E-2,4.9084973E-2,4.985139E-3,-2.8302634E-2,2.1E1,3.5394755E-1,2.4722207E-2,3.187297E-2,-1.4032507E-2,-9.773057E-2,2.1781083E-3,-5.6382187E-2,3.707384E-2,-1.6185803E-3,5.4532077E-2,3.9082617E-2,-1.063352E-1,-1.0468896E-1,-3.946903E-2,1.3439938E-2,-5.515464E-2,3.870524E-2,-9.2422746E-2],"split_indices":[13,11,43,17,9,25,9,41,3,25,13,36,6,0,0,0,0,17,39,11,28,0,25,0,36,13,9,0,0,0,0,0,0,0,0,0,0,0,0,0,0,0,0],"split_type":[0,0,0,0,0,0,0,0,0,0,0,0,0,0,0,0,0,0,0,0,0,0,0,0,0,0,0,0,0,0,0,0,0,0,0,0,0,0,0,0,0,0,0],"sum_hessian":[2.986721E2,1.873396E2,1.11332504E2,2.0525972E1,1.6681361E2,1.007664E2,1.0566099E1,4.8006177E0,1.5725355E1,1.4608348E2,2.0730131E1,2.9910204E1,7.08562E1,1.5983254E0,8.967774E0,1.118084E0,3.6825335E0,2.2182186E0,1.3507137E1,1.0654525E1,1.3542897E2,5.5351453E0,1.5194986E1,1.6388772E0,2.8271326E1,4.407169E1,2.6784513E1,1.2025206E0,1.015698E0,1.1981069E1,1.5260687E0,3.7200563E0,6.9344687E0,3.3341858E0,1.3209477E2,2.151833E0,1.3043153E1,2.6222689E1,2.0486379E0,2.5409243E1,1.8662447E1,2.1057978E0,2.4678715E1],"tree_param":{"num_deleted":"0","num_feature":"50","num_nodes":"43","size_leaf_vector":"1"}},{"base_weights":[8.09365E-3,-3.6931187E-1,9.984971E-1,-4.2613018E-1,5.40784E-1,-1.4675313E-1,1.086155E0,1.78906E-1,-4.6043214E-1,-1.7872688E-1,1.228415E0,2.0595012E-2,-3.540845E-2,6.700824E-1,1.274866E0,-2.336948E-1,1.0143223E-1,-4.8873556E-1,1.1870813E-1,-3.6784213E-2,2.1334995E-2,2.1229295E-2,1.5476201E-1,8.735549E-1,-1.7414539E-1,3.0211026E-2,1.3400279E-1,2.2362387E-2,-4.057954E-2,-4.9892016E-2,1.5617746E-2,-4.0604528E-2,1.00011624E-1,-3.1741794E-2,1.0367041E-1,-3.712976E-2,1.5052623E-2],"categories":[],"categories_nodes":[],"categories_segments":[],"categories_sizes":[],"default_left":[0,0,0,0,0,0,0,0,0,0,0,0,0,0,0,0,0,0,0,0,0,0,0,0,0,0,0,0,0,0,0,0,0,0,0,0,0],"id":17,"left_children":[1,3,5,7,9,11,13,15,17,19,21,-1,-1,23,25,27,-1,29,31,-1,-1,-1,-1,33,35,-1,-1,-1,-1,-1,-1,-1,-1,-1,-1,-1,-1],"loss_changes":[5.630865E1,5.871745E0,4.3319855E0,2.2250786E0,3.6093318E0,3.5344312E-1,2.186531E0,2.394621E0,1.664135E0,3.9146185E-1,8.4895134E-1,0E0,0E0,2.5900168E0,1.213768E0,4.8448735E-1,0E0,6.92791E-1,2.889867E0,0E0,0E0,0E0,0E0,2.583438E0,2.8568664E-1,0E0,0E0,0E0,0E0,0E0,0E0,0E0,0E0,0E0,0E0,0E0,0E0],"parents":[2147483647,0,0,1,1,2,2,3,3,4,4,5,5,6,6,7,7,8,8,9,9,10,10,13,13,14,14,15,15,17,17,18,18,23,23,24,24],"right_children":[2,4,6,8,10,12,14,16,18,20,22,-1,-1,24,26,28,-1,30,32,-1,-1,-1,-1,34,36,-1,-1,-1,-1,-1,-1,-1,-1,-1,-1,-1,-1],"split_conditions":[3.4051498E-3,1.3086014E1,1.2360963E-3,1.5318105E2,4.8872675E-3,3.4806721E0,-1.9446928E-2,3.2518773E0,6.538796E-2,2.3652473E-1,1.1678161E-1,2.0595012E-2,-3.540845E-2,-4.044658E-2,4.9275465E-2,-3.2288363E-4,1.0143223E-1,1.5813573E2,5.332099E1,-3.6784213E-2,2.1334995E-2,2.1229295E-2,1.5476201E-1,3.453287E-1,1.8376774E-1,3.0211026E-2,1.3400279E-1,2.2362387E-2,-4.057954E-2,-4.9892016E-2,1.5617746E-2,-4.0604528E-2,1.00011624E-1,-3.1741794E-2,1.0367041E-1,-3.712976E-2,1.5052623E-2],"split_indices":[11,12,18,1,25,12,14,12,9,33,33,0,0,14,9,10,0,3,43,0,0,0,0,17,32,0,0,0,0,0,0,0,0,0,0,0,0],"split_type":[0,0,0,0,0,0,0,0,0,0,0,0,0,0,0,0,0,0,0,0,0,0,0,0,0,0,0,0,0,0,0,0,0,0,0,0,0],"sum_hessian":[1.4865845E2,1.0809472E2,4.056372E1,1.0224333E2,5.851392E0,2.836087E0,3.7727634E1,5.259415E0,9.698392E1,3.22107E0,2.6303217E0,1.0524188E0,1.7836683E0,1.3192174E1,2.453546E1,4.0027676E0,1.2566473E0,9.2613846E1,4.37007E0,2.2146578E0,1.0064123E0,1.026797E0,1.6035247E0,1.0602147E1,2.5900269E0,1.8942249E0,2.2641235E1,1.0126086E0,2.990159E0,9.1396866E1,1.2169778E0,3.0772977E0,1.2927722E0,1.1634574E0,9.43869E0,1.5221272E0,1.0678996E0],"tree_param":{"num_deleted":"0","num_feature":"50","num_nodes":"37","size_leaf_vector":"1"}},{"base_weights":[5.8350423E-3,7.6328796E-1,-3.5696638E-1,-3.599637E-2,8.0468917E-1,-4.424153E-1,3.9587742E-1,4.603198E-1,9.9854106E-1,3.7843838E-1,-4.8156488E-1,7.8325945E-1,-2.8256756E-1,1.0046437E0,8.862979E-2,1.0555024E0,-6.9270977E-3,8.7050855E-1,-3.5989307E-2,-4.9873376E-1,4.6754967E-2,9.955901E-1,-4.820021E-3,2.0893944E-2,-4.375605E-2,1.09948E-1,3.2415017E-2,5.451392E-2,-2.9394759E-2,5.195848E-3,1.09896064E-1,1.2500635E-2,1.18394546E-1,6.4722546E-3,-5.075232E-2,3.7929963E-2,1.2799789E-1],"categories":[],"categories_nodes":[],"categories_segments":[],"categories_sizes":[],"default_left":[0,0,0,0,0,0,0,0,0,0,0,0,0,0,0,0,0,0,0,0,0,0,0,0,0,0,0,0,0,0,0,0,0,0,0,0,0],"id":18,"left_children":[1,3,5,-1,7,9,11,13,15,17,19,21,23,25,27,29,-1,31,-1,33,-1,35,-1,-1,-1,-1,-1,-1,-1,-1,-1,-1,-1,-1,-1,-1,-1],"loss_changes":[5.154439E1,3.1144257E0,8.334291E0,0E0,3.4717903E0,3.8578758E0,3.7578318E0,4.577772E0,2.3129997E0,2.408396E0,2.0193138E0,1.6069679E0,5.199832E-1,2.4139214E-1,2.745694E0,1.470295E0,0E0,7.289419E-1,0E0,5.684395E-1,0E0,7.55455E-1,0E0,0E0,0E0,0E0,0E0,0E0,0E0,0E0,0E0,0E0,0E0,0E0,0E0,0E0,0E0],"parents":[2147483647,0,0,1,1,2,2,4,4,5,5,6,6,7,7,8,8,9,9,10,10,11,11,12,12,13,13,14,14,15,15,17,17,19,19,21,21],"right_children":[2,4,6,-1,8,10,12,14,16,18,20,22,24,26,28,30,-1,32,-1,34,-1,36,-1,-1,-1,-1,-1,-1,-1,-1,-1,-1,-1,-1,-1,-1,-1],"split_conditions":[-2.736795E-3,-1.0640488E-1,2.2202916E-3,-3.599637E-2,1.5547845E2,-1.4177098E1,1.556693E2,-4.6684225E-3,7.176164E0,1.6503704E-1,3.8076046E-1,7.832746E-2,2.3347756E-3,1.4946867E0,-5.4136276E0,5.029972E-3,-6.9270977E-3,1.3517648E-3,-3.5989307E-2,6.4560305E-3,4.6754967E-2,1.4E1,-4.820021E-3,2.0893944E-2,-4.375605E-2,1.09948E-1,3.2415017E-2,5.451392E-2,-2.9394759E-2,5.195848E-3,1.09896064E-1,1.2500635E-2,1.18394546E-1,6.4722546E-3,-5.075232E-2,3.7929963E-2,1.2799789E-1],"split_indices":[11,14,18,0,44,12,3,11,12,33,14,14,18,17,12,26,0,18,0,31,0,36,0,0,0,0,0,0,0,0,0,0,0,0,0,0,0],"split_type":[0,0,0,0,0,0,0,0,0,0,0,0,0,0,0,0,0,0,0,0,0,0,0,0,0,0,0,0,0,0,0,0,0,0,0,0,0],"sum_hessian":[1.8557567E2,5.9742355E1,1.2583332E2,1.850205E0,5.789215E1,1.13377174E2,1.2456142E1,2.2066526E1,3.5825623E1,4.7667027E0,1.0861047E2,7.830532E0,4.6256104E0,8.262925E0,1.3803601E1,3.4022266E1,1.803356E0,2.7529461E0,2.0137565E0,1.0714678E2,1.463692E0,6.0803795E0,1.7501523E0,1.025507E0,3.6001031E0,6.711827E0,1.5510983E0,6.099945E0,7.703656E0,1.503303E0,3.2518967E1,1.2288885E0,1.5240577E0,1.5479777E0,1.0559881E2,2.656751E0,3.4236288E0],"tree_param":{"num_deleted":"0","num_feature":"50","num_nodes":"37","size_leaf_vector":"1"}},{"base_weights":[1.7297972E-2,2.7525935E-1,-4.13487E-1,3.515483E-1,-6.9995314E-1,-8.1744784E-1,-2.4199873E-1,-4.1216886E-1,4.355696E-1,3.5028078E-2,-8.150263E-1,3.2941834E-3,-8.674496E-1,-4.5641458E-1,2.5116566E-1,4.2424634E-2,-6.204527E-1,4.7192186E-1,-1.800668E-1,-1.0573758E-1,-1.8224645E-1,-9.1698605E-1,5.8297506E-3,2.827228E-1,-5.6947124E-1,3.8468498E-1,-8.0791645E-2,4.3539237E-2,-7.566395E-2,-4.0667396E-2,4.8400488E-2,4.8153754E-2,-1.034673E-1,-5.5427767E-2,3.977525E-2,-9.856641E-2,-3.1053498E-2,-2.6551992E-2,4.8543777E-2,-3.189131E-2,-8.431613E-2,-5.39879E-2,4.594964E-2],"categories":[],"categories_nodes":[],"categories_segments":[],"categories_sizes":[],"default_left":[0,0,0,0,0,0,0,0,0,0,0,0,0,0,0,0,0,0,0,0,0,0,0,0,0,0,0,0,0,0,0,0,0,0,0,0,0,0,0,0,0,0,0],"id":19,"left_children":[1,3,5,7,9,11,13,15,17,-1,19,-1,21,23,25,-1,27,29,31,-1,33,35,-1,37,39,41,-1,-1,-1,-1,-1,-1,-1,-1,-1,-1,-1,-1,-1,-1,-1,-1,-1],"loss_changes":[3.2867634E1,1.4006141E1,7.477297E0,1.1229296E1,1.9475975E0,1.4146118E0,8.489022E0,3.3260183E0,3.567686E0,0E0,1.7542095E0,0E0,1.4669456E0,4.8032217E0,3.7955968E0,0E0,2.4118085E0,1.7597046E0,5.813367E0,0E0,1.2398057E0,9.149723E-1,0E0,1.0222287E0,3.057994E0,1.8086433E0,0E0,0E0,0E0,0E0,0E0,0E0,0E0,0E0,0E0,0E0,0E0,0E0,0E0,0E0,0E0,0E0,0E0],"parents":[2147483647,0,0,1,1,2,2,3,3,4,4,5,5,6,6,7,7,8,8,10,10,12,12,13,13,14,14,16,16,17,17,18,18,20,20,21,21,23,23,24,24,25,25],"right_children":[2,4,6,8,10,12,14,16,18,-1,20,-1,22,24,26,-1,28,30,32,-1,34,36,-1,38,40,42,-1,-1,-1,-1,-1,-1,-1,-1,-1,-1,-1,-1,-1,-1,-1,-1,-1],"split_conditions":[1.5291537E-3,4.6018665E-3,-3.9099585E-3,3.1637535E1,6.454376E1,1.5449017E2,1.5577415E2,1.828265E-1,5.7192426E-2,3.5028078E-2,2.727222E-1,3.2941834E-3,9.4858196E-4,-4.784685E-4,1.5837326E2,4.2424634E-2,-2.986643E-1,1.5146243E2,5.7860374E1,-1.0573758E-1,1.9787031E-1,-2.9877761E-2,5.8297506E-3,4.1254204E1,1.4E1,1.5521597E2,-8.0791645E-2,4.3539237E-2,-7.566395E-2,-4.0667396E-2,4.8400488E-2,4.8153754E-2,-1.034673E-1,-5.5427767E-2,3.977525E-2,-9.856641E-2,-3.1053498E-2,-2.6551992E-2,4.8543777E-2,-3.189131E-2,-8.431613E-2,-5.39879E-2,4.594964E-2],"split_indices":[18,11,11,6,6,3,2,13,9,0,33,0,10,9,0,0,7,44,43,0,31,9,0,6,36,1,0,0,0,0,0,0,0,0,0,0,0,0,0,0,0,0,0],"split_type":[0,0,0,0,0,0,0,0,0,0,0,0,0,0,0,0,0,0,0,0,0,0,0,0,0,0,0,0,0,0,0,0,0,0,0,0,0,0,0,0,0,0,0],"sum_hessian":[2.9374512E2,1.8395235E2,1.0979277E2,1.7119928E2,1.2753066E1,3.1596561E1,7.819621E1,1.6580868E1,1.5461842E2,1.0575135E0,1.1695553E1,1.7736095E0,2.9822952E1,5.4552593E1,2.364362E1,3.0990403E0,1.3481828E1,1.4621794E2,8.400475E0,7.971523E0,3.7240298E0,2.8317171E1,1.5057802E0,7.038146E0,4.7514446E1,2.1562048E1,2.0815701E0,1.289262E0,1.2192565E1,1.5405793E0,1.4467737E2,4.9809484E0,3.4195263E0,2.2957828E0,1.4282469E0,2.4874895E1,3.4422774E0,1.8162574E0,5.221889E0,2.5935873E1,2.1578575E1,1.1487377E0,2.0413311E1],"tree_param":{"num_deleted":"0","num_feature":"50","num_nodes":"43","size_leaf_vector":"1"}},{"base_weights":[3.0006727E-2,-3.2566768E-1,8.736489E-1,8.055061E-2,-4.6716267E-1,-1.378215E-1,9.444001E-1,-1.2967376E-1,9.294997E-1,2.2327948E-2,-4.7923908E-1,2.1058617E-2,-3.4460537E-2,-3.0016532E-2,9.895709E-1,6.189421E-1,-3.0134445E-1,-1.8413704E-3,1.399643E-1,-5.034224E-1,-4.1128974E-2,1.0446061E0,3.278725E-1,-3.5365924E-2,1.4066768E-1,-4.4254996E-2,5.8094498E-2,-5.1682528E-2,2.1106122E-2,-3.917529E-2,5.3420067E-2,5.0291188E-2,1.109751E-1,-3.725805E-2,8.663579E-2],"categories":[],"categories_nodes":[],"categories_segments":[],"categories_sizes":[],"default_left":[0,0,0,0,0,0,0,0,0,0,0,0,0,0,0,0,0,0,0,0,0,0,0,0,0,0,0,0,0,0,0,0,0,0,0],"id":20,"left_children":[1,3,5,7,9,11,13,15,17,-1,19,-1,-1,-1,21,23,25,-1,-1,27,29,31,33,-1,-1,-1,-1,-1,-1,-1,-1,-1,-1,-1,-1],"loss_changes":[4.4898003E1,6.0909653E0,3.3050385E0,5.1283965E0,7.595062E-1,3.4439898E-1,2.63525E0,3.1896937E0,2.5623398E0,0E0,7.975273E-1,0E0,0E0,0E0,1.1275673E0,4.088108E0,2.7091208E0,0E0,0E0,8.090954E-1,1.2439011E0,7.408943E-1,2.0416713E0,0E0,0E0,0E0,0E0,0E0,0E0,0E0,0E0,0E0,0E0,0E0,0E0],"parents":[2147483647,0,0,1,1,2,2,3,3,4,4,5,5,6,6,7,7,8,8,10,10,14,14,15,15,16,16,19,19,20,20,21,21,22,22],"right_children":[2,4,6,8,10,12,14,16,18,-1,20,-1,-1,-1,22,24,26,-1,-1,28,30,32,34,-1,-1,-1,-1,-1,-1,-1,-1,-1,-1,-1,-1],"split_conditions":[3.4051498E-3,1.553298E2,1.9270523E-1,8.920634E-4,1.42539E-4,2.4295074E-4,5.2949893E-3,1.5146243E2,5.6433324E-3,2.2327948E-2,5.8238775E-2,2.1058617E-2,-3.4460537E-2,-3.0016532E-2,2.1E1,4.9645485E1,1.5556834E2,-1.8413704E-3,1.399643E-1,1.5813573E2,4.369723E-1,6.8712006E-3,7.277726E1,-3.5365924E-2,1.4066768E-1,-4.4254996E-2,5.8094498E-2,-5.1682528E-2,2.1106122E-2,-3.917529E-2,5.3420067E-2,5.0291188E-2,1.109751E-1,-3.725805E-2,8.663579E-2],"split_indices":[11,2,13,10,26,26,25,44,25,0,9,0,0,0,36,6,3,0,0,3,33,25,6,0,0,0,0,0,0,0,0,0,0,0,0],"split_type":[0,0,0,0,0,0,0,0,0,0,0,0,0,0,0,0,0,0,0,0,0,0,0,0,0,0,0,0,0,0,0,0,0,0,0],"sum_hessian":[1.4768092E2,1.0431594E2,4.336499E1,2.7060015E1,7.725592E1,2.7730513E0,4.0591938E1,2.2368242E1,4.691771E0,1.0274037E0,7.622852E1,1.0259882E0,1.7470632E0,1.223953E0,3.9367985E1,3.68657E0,1.8681673E1,1.8740675E0,2.8177032E0,7.209961E1,4.128912E0,3.5810833E1,3.5571513E0,1.8962939E0,1.7902759E0,1.6533918E1,2.1477542E0,7.104356E1,1.0560493E0,2.7637048E0,1.3652073E0,4.7804294E0,3.1030405E1,1.6799694E0,1.8771819E0],"tree_param":{"num_deleted":"0","num_feature":"50","num_nodes":"35","size_leaf_vector":"1"}},{"base_weights":[-1.4180263E-2,6.5309983E-1,-3.8658643E-1,9.1907716E-1,3.6829287E-1,-4.748237E-1,2.2488804E-1,1.2681201E-1,9.794106E-1,9.13217E-2,9.8603554E-2,-5.019048E-1,3.262521E-2,8.6319476E-1,-2.1009035E-1,-3.2623436E-2,5.6811538E-2,4.833873E-3,1.01727E0,3.57666E-1,-3.141681E-1,6.7370734E-3,-5.1201314E-1,5.8649415E-1,-4.0627774E-2,1.082793E-1,6.8491036E-3,4.344688E-2,-3.7393E-1,1.0491645E-1,9.828114E-3,-1.7579349E-2,6.8706244E-2,6.6237025E-2,-5.1583868E-2,-5.2229013E-2,-2.1353113E-2,1.1498841E-1,-2.6981471E-2,1.9335335E-2,-4.8393417E-2],"categories":[],"categories_nodes":[],"categories_segments":[],"categories_sizes":[],"default_left":[0,0,0,0,0,0,0,0,0,0,0,0,0,0,0,0,0,0,0,0,0,0,0,0,0,0,0,0,0,0,0,0,0,0,0,0,0,0,0,0,0],"id":21,"left_children":[1,3,5,7,9,11,13,15,17,-1,19,21,23,25,27,-1,-1,-1,29,31,33,-1,35,37,-1,-1,-1,-1,39,-1,-1,-1,-1,-1,-1,-1,-1,-1,-1,-1,-1],"loss_changes":[4.400936E1,4.46751E0,6.2382565E0,1.4119854E0,4.657659E0,1.3855362E0,4.3486757E0,8.6968845E-1,9.982643E-1,0E0,2.543153E0,5.7912445E-1,1.693597E0,1.021565E0,1.190057E0,0E0,0E0,0E0,7.323532E-1,2.6570997E0,2.1727831E0,0E0,1.7409134E-1,1.7845381E0,0E0,0E0,0E0,0E0,6.112664E-1,0E0,0E0,0E0,0E0,0E0,0E0,0E0,0E0,0E0,0E0,0E0,0E0],"parents":[2147483647,0,0,1,1,2,2,3,3,4,4,5,5,6,6,7,7,8,8,10,10,11,11,12,12,13,13,14,14,18,18,19,19,20,20,22,22,23,23,28,28],"right_children":[2,4,6,8,10,12,14,16,18,-1,20,22,24,26,28,-1,-1,-1,30,32,34,-1,36,38,-1,-1,-1,-1,40,-1,-1,-1,-1,-1,-1,-1,-1,-1,-1,-1,-1],"split_conditions":[-2.3587602E-3,-4.754249E0,3.2096937E-1,-6.316417E-3,-5.8072023E-3,1.9202426E-1,3.2902647E-2,2.7483603E-1,5.9591544E-1,9.13217E-2,1.5620062E2,6.4560305E-3,9.613145E-5,5.8532995E-3,-5.7380886E0,-3.2623436E-2,5.6811538E-2,4.833873E-3,1.5825325E2,1.5556415E2,4.536526E-1,6.7370734E-3,1.5242026E2,2.3900005E-1,-4.0627774E-2,1.082793E-1,6.8491036E-3,4.344688E-2,1.0779349E-1,1.0491645E-1,9.828114E-3,-1.7579349E-2,6.8706244E-2,6.6237025E-2,-5.1583868E-2,-5.2229013E-2,-2.1353113E-2,1.1498841E-1,-2.6981471E-2,1.9335335E-2,-4.8393417E-2],"split_indices":[11,12,13,14,11,14,9,13,17,0,2,31,10,25,12,0,0,0,2,2,17,0,45,33,0,0,0,0,31,0,0,0,0,0,0,0,0,0,0,0,0],"split_type":[0,0,0,0,0,0,0,0,0,0,0,0,0,0,0,0,0,0,0,0,0,0,0,0,0,0,0,0,0,0,0,0,0,0,0,0,0,0,0,0,0],"sum_hessian":[1.7508458E2,6.2443726E1,1.12640854E2,3.1137667E1,3.1306057E1,9.863155E1,1.4009301E1,2.4229314E0,2.8714735E1,9.574334E0,2.1731724E1,9.364493E1,4.9866276E0,5.2786784E0,8.730623E0,1.324221E0,1.0987104E0,1.2109426E0,2.7503794E1,1.3433889E1,8.297833E0,1.5349715E0,9.2109955E1,2.0559144E0,2.930713E0,3.8518078E0,1.4268707E0,1.4346795E0,7.2959437E0,2.644436E1,1.0594329E0,5.306423E0,8.127466E0,1.0292993E0,7.2685347E0,8.831924E1,3.790716E0,1.0332632E0,1.0226513E0,1.0619345E0,6.2340093E0],"tree_param":{"num_deleted":"0","num_feature":"50","num_nodes":"41","size_leaf_vector":"1"}},{"base_weights":[-1.33961635E-2,2.9562047E-1,-4.4977203E-1,3.652845E-1,-5.426751E-1,-7.327178E-1,-2.6893467E-1,-2.8081396E-1,4.6729267E-1,3.472255E-2,-6.492729E-1,-8.600312E-2,-7.963066E-1,-4.9876386E-1,2.7993333E-1,-4.1730064E-1,4.3967012E-2,5.038842E-1,2.2288661E-2,-7.4613494E-1,7.3160925E-3,-8.1133634E-2,4.2158414E-2,-8.8059163E-1,-1.6056506E-1,-2.1216287E-1,-7.62216E-1,3.887966E-1,-4.6938336E-1,-9.931676E-2,-1.9238818E-2,1.6036056E-2,5.2509706E-2,2.7926398E-2,-6.672092E-2,-8.265003E-2,-2.1202872E-3,-9.629711E-2,-1.3725303E-2,-6.347085E-2,4.2722747E-2,1.1591083E-2,-6.0846437E-2,-9.403291E-3,-8.088096E-2,-4.411673E-2,4.8244275E-2,-1.0529225E-1,3.2255244E-2],"categories":[],"categories_nodes":[],"categories_segments":[],"categories_sizes":[],"default_left":[0,0,0,0,0,0,0,0,0,0,0,0,0,0,0,0,0,0,0,0,0,0,0,0,0,0,0,0,0,0,0,0,0,0,0,0,0,0,0,0,0,0,0,0,0,0,0,0,0],"id":22,"left_children":[1,3,5,7,9,11,13,15,17,-1,19,21,23,25,27,29,-1,31,33,35,-1,-1,-1,37,39,41,43,45,47,-1,-1,-1,-1,-1,-1,-1,-1,-1,-1,-1,-1,-1,-1,-1,-1,-1,-1,-1,-1],"loss_changes":[3.7825813E1,9.7899475E0,5.7525578E0,1.016497E1,1.4590342E0,1.7721729E0,9.287582E0,2.2862406E0,2.1358452E0,0E0,8.916092E-1,2.2300406E0,2.0357533E0,3.7249203E0,1.9807041E0,2.2038448E0,0E0,8.033104E-1,2.1468227E0,6.02159E-1,0E0,0E0,0E0,2.050991E0,1.9375509E0,3.4561386E0,7.4694157E-1,1.751343E0,1.8412675E0,0E0,0E0,0E0,0E0,0E0,0E0,0E0,0E0,0E0,0E0,0E0,0E0,0E0,0E0,0E0,0E0,0E0,0E0,0E0,0E0],"parents":[2147483647,0,0,1,1,2,2,3,3,4,4,5,5,6,6,7,7,8,8,10,10,11,11,12,12,13,13,14,14,15,15,17,17,18,18,19,19,23,23,24,24,25,25,26,26,27,27,28,28],"right_children":[2,4,6,8,10,12,14,16,18,-1,20,22,24,26,28,30,-1,32,34,36,-1,-1,-1,38,40,42,44,46,48,-1,-1,-1,-1,-1,-1,-1,-1,-1,-1,-1,-1,-1,-1,-1,-1,-1,-1,-1,-1],"split_conditions":[2.2972676E-1,4.6018665E-3,-2.6046853E-3,-3.051052E-3,6.454376E1,1.5449017E2,1.5581982E2,1E0,5.027562E-2,3.472255E-2,2.1E1,-8.698615E0,7.53334E-4,2.9882127E-3,1.5805852E2,2.0241961E-1,4.3967012E-2,7.412986E-4,6.6645816E-4,7.874089E1,7.3160925E-3,-8.1133634E-2,4.2158414E-2,2.1E1,3.1637535E1,1.3E1,2.3978329E-1,2.3287812E-1,4.311401E1,-9.931676E-2,-1.9238818E-2,1.6036056E-2,5.2509706E-2,2.7926398E-2,-6.672092E-2,-8.265003E-2,-2.1202872E-3,-9.629711E-2,-1.3725303E-2,-6.347085E-2,4.2722747E-2,1.1591083E-2,-6.0846437E-2,-9.403291E-3,-8.088096E-2,-4.411673E-2,4.8244275E-2,-1.0529225E-1,3.2255244E-2],"split_indices":[13,11,11,11,6,3,2,39,9,0,36,12,10,11,1,13,0,25,5,6,0,0,0,36,6,36,13,13,6,0,0,0,0,0,0,0,0,0,0,0,0,0,0,0,0,0,0,0,0],"split_type":[0,0,0,0,0,0,0,0,0,0,0,0,0,0,0,0,0,0,0,0,0,0,0,0,0,0,0,0,0,0,0,0,0,0,0,0,0,0,0,0,0,0,0,0,0,0,0,0,0],"sum_hessian":[2.7852228E2,1.6324442E2,1.1527787E2,1.512403E2,1.2004116E1,4.3758957E1,7.151891E1,2.0383375E1,1.3085692E2,1.0426362E0,1.096148E1,4.128051E0,3.9630905E1,5.0474754E1,2.1044163E1,1.7490772E1,2.8926027E0,1.20792175E2,1.0064747E1,9.6366205E0,1.3248596E0,1.4531326E0,2.6749184E0,3.4651722E1,4.9791822E0,2.5039936E1,2.5434816E1,1.8794733E1,2.24943E0,3.9531956E0,1.3537577E1,7.5230265E0,1.1326914E2,7.7655187E0,2.299228E0,8.5488E0,1.0878198E0,3.0928637E1,3.723086E0,2.7118492E0,2.267333E0,1.4086285E1,1.0953652E1,1.8547423E0,2.3580074E1,1.529361E0,1.7265371E1,1.1053764E0,1.1440536E0],"tree_param":{"num_deleted":"0","num_feature":"50","num_nodes":"49","size_leaf_vector":"1"}},{"base_weights":[-8.268732E-3,-4.0715587E-1,3.037017E-1,6.20221E-1,-4.9777582E-1,-1.7009266E-1,6.780149E-1,-1.13100134E-1,1.2851854E-1,1.8080035E-2,-5.1476993E-2,4.6493596E-1,-3.4789178E-1,1.3957344E-1,8.812652E-1,2.0032959E-2,-3.3430584E-2,1.3594584E-1,8.79253E-3,-4.3791974E-1,7.694052E-2,-3.637773E-1,5.48477E-1,-3.1216873E-2,9.45018E-1,4.0955614E-2,-3.9213832E-2,-5.00968E-2,-1.3875316E-3,1.3970464E-2,-4.8125174E-2,-2.8725598E-2,7.249166E-2,1.0547117E-1,3.6113854E-2],"categories":[],"categories_nodes":[],"categories_segments":[],"categories_sizes":[],"default_left":[0,0,0,0,0,0,0,0,0,0,0,0,0,0,0,0,0,0,0,0,0,0,0,0,0,0,0,0,0,0,0,0,0,0,0],"id":23,"left_children":[1,3,5,7,9,11,13,15,-1,-1,-1,17,19,21,23,-1,-1,-1,25,27,-1,29,31,-1,33,-1,-1,-1,-1,-1,-1,-1,-1,-1,-1],"loss_changes":[1.7459574E1,6.0405436E0,1.4080496E1,2.7958717E0,7.5188446E-1,4.1760044E0,4.713215E0,3.0991194E-1,0E0,0E0,0E0,3.335948E0,3.1884534E0,2.936578E0,2.7215767E0,0E0,0E0,0E0,1.1954614E0,7.114749E-1,0E0,4.5534647E-1,1.3489952E0,0E0,1.5741024E0,0E0,0E0,0E0,0E0,0E0,0E0,0E0,0E0,0E0,0E0],"parents":[2147483647,0,0,1,1,2,2,3,3,4,4,5,5,6,6,7,7,11,11,12,12,13,13,14,14,18,18,19,19,21,21,22,22,24,24],"right_children":[2,4,6,8,10,12,14,16,-1,-1,-1,18,20,22,24,-1,-1,-1,26,28,-1,30,32,-1,34,-1,-1,-1,-1,-1,-1,-1,-1,-1,-1],"split_conditions":[4.915666E-3,1.4919106E2,6.7355083E-3,5.4438794E-3,-2.738655E-3,-3.2017475E-3,-1.1960893E0,6.6611505E-1,1.2851854E-1,1.8080035E-2,-5.1476993E-2,2.6034955E-3,1.8466505E-3,2.9714882E-1,1.9393364E-1,2.0032959E-2,-3.3430584E-2,1.3594584E-1,-8.505222E-2,5.9870644E-3,7.694052E-2,6.681455E-4,7.938574E-1,-3.1216873E-2,1.5600145E2,4.0955614E-2,-3.9213832E-2,-5.00968E-2,-1.3875316E-3,1.3970464E-2,-4.8125174E-2,-2.8725598E-2,7.249166E-2,1.0547117E-1,3.6113854E-2],"split_indices":[25,45,15,15,10,8,12,17,0,0,0,26,10,32,13,0,0,0,8,15,0,26,17,0,1,0,0,0,0,0,0,0,0,0,0],"split_type":[0,0,0,0,0,0,0,0,0,0,0,0,0,0,0,0,0,0,0,0,0,0,0,0,0,0,0,0,0,0,0,0,0,0,0],"sum_hessian":[1.3831036E2,6.056566E1,7.77447E1,4.435482E0,5.6130177E1,3.45535E1,4.31912E1,2.5039964E0,1.9314859E0,1.135868E0,5.499431E1,7.2050257E0,2.7348475E1,1.229817E1,3.0893028E1,1.0750772E0,1.4289191E0,1.7644706E0,5.440555E0,2.5871864E1,1.4766119E0,5.561927E0,6.7362432E0,1.3690089E0,2.952402E1,2.7100863E0,2.7304688E0,2.236514E1,3.506723E0,1.0164226E0,4.5455046E0,1.0647626E0,5.6714807E0,2.417573E1,5.3482895E0],"tree_param":{"num_deleted":"0","num_feature":"50","num_nodes":"35","size_leaf_vector":"1"}},{"base_weights":[1.4111022E-2,6.1822706E-1,-3.60189E-1,6.99395E-1,3.5372674E-2,-4.3292135E-1,2.3700383E-1,7.5592357E-1,-1.9297443E-1,7.253558E-2,-3.2953525E-1,3.748572E-1,-4.599352E-1,5.8727086E-1,-4.3157898E-2,9.2242885E-1,5.6281894E-1,-3.8611103E-2,2.172953E-2,1.5755238E-2,-4.5290083E-2,-2.901688E-2,8.228442E-2,-1.04294874E-1,-4.7836244E-1,1.10899344E-1,1.5218431E-1,7.949232E-2,1.3920867E-1,7.66341E-2,1.7114951E-3,-4.2101722E-2,6.707025E-2,-2.8116047E-2,-5.2109282E-2,-4.1141737E-2,6.4073585E-2],"categories":[],"categories_nodes":[],"categories_segments":[],"categories_sizes":[],"default_left":[0,0,0,0,0,0,0,0,0,0,0,0,0,0,0,0,0,0,0,0,0,0,0,0,0,0,0,0,0,0,0,0,0,0,0,0,0],"id":24,"left_children":[1,3,5,7,9,11,13,15,17,-1,19,21,23,25,-1,27,29,-1,-1,-1,-1,-1,-1,31,33,-1,35,-1,-1,-1,-1,-1,-1,-1,-1,-1,-1],"loss_changes":[3.93663E1,3.1256886E0,4.7726336E0,3.091776E0,2.553725E0,2.2715664E0,3.1383772E0,1.2532215E0,4.2269295E-1,0E0,4.7400415E-1,1.3303299E0,5.6308365E-1,1.7623994E0,0E0,5.722637E-1,3.106433E0,0E0,0E0,0E0,0E0,0E0,0E0,1.727264E0,6.004772E-1,0E0,1.8600813E0,0E0,0E0,0E0,0E0,0E0,0E0,0E0,0E0,0E0,0E0],"parents":[2147483647,0,0,1,1,2,2,3,3,4,4,5,5,6,6,7,7,8,8,10,10,11,11,12,12,13,13,15,15,16,16,23,23,24,24,26,26],"right_children":[2,4,6,8,10,12,14,16,18,-1,20,22,24,26,-1,28,30,-1,-1,-1,-1,-1,-1,32,34,-1,36,-1,-1,-1,-1,-1,-1,-1,-1,-1,-1],"split_conditions":[-2.3587602E-3,6.3244984E1,1.1205547E-2,4.2595478E1,2.8865633E1,-1.5373457E1,1.558709E2,-4.259518E0,4.566849E1,7.253558E-2,-1.0342629E-1,4.5422427E-3,3.358935E-2,1.5367351E2,-4.3157898E-2,3.7328007E1,-5.0051276E-2,-3.8611103E-2,2.172953E-2,1.5755238E-2,-4.5290083E-2,-2.901688E-2,8.228442E-2,5.7719004E-5,-8.668275E-4,1.10899344E-1,8.196675E-1,7.949232E-2,1.3920867E-1,7.66341E-2,1.7114951E-3,-4.2101722E-2,6.707025E-2,-2.8116047E-2,-5.2109282E-2,-4.1141737E-2,6.4073585E-2],"split_indices":[11,43,26,6,6,12,3,12,6,0,9,26,31,1,0,6,9,0,0,0,0,0,0,10,11,0,28,0,0,0,0,0,0,0,0,0,0],"split_type":[0,0,0,0,0,0,0,0,0,0,0,0,0,0,0,0,0,0,0,0,0,0,0,0,0,0,0,0,0,0,0,0,0,0,0,0,0],"sum_hessian":[1.7210947E2,6.559239E1,1.06517075E2,5.739908E1,8.193313E0,9.519795E1,1.1319124E1,5.4123447E1,3.2756305E0,2.4925387E0,5.7007737E0,2.6639202E0,9.253403E1,7.5075674E0,3.8115568E0,2.70353E1,2.708815E1,2.267213E0,1.0084172E0,1.0960586E0,4.604715E0,1.2140199E0,1.4499004E0,4.886469E0,8.764756E1,2.7095633E0,4.798004E0,2.33804E1,3.6548986E0,1.9435356E1,7.6527934E0,3.7930806E0,1.0933884E0,1.695938E1,7.068818E1,2.301192E0,2.4968123E0],"tree_param":{"num_deleted":"0","num_feature":"50","num_nodes":"37","size_leaf_vector":"1"}},{"base_weights":[-2.7060382E-2,2.85487E-1,-3.6682212E-1,3.666617E-1,-5.2043754E-1,-3.7266497E-2,-4.8708934E-1,5.7264034E-2,4.6354416E-1,1.272292E-1,-1.0645584E0,1.5327075E-1,-5.601681E-1,-6.706009E-1,-2.6535678E-1,-1.4404228E-1,4.3186486E-1,5.0704736E-1,3.1650163E-2,-5.1227223E-2,4.6875548E-2,-1.497598E-1,-7.5130224E-2,-3.7635022E-1,2.6746085E-1,3.6266413E-2,-7.160783E-1,-7.242154E-1,1.9713554E-1,1.0736333E-1,-4.6766236E-1,2.0438494E-2,-5.9705008E-2,-1.2687939E-2,5.007061E-2,-6.3386126E-3,5.1718928E-2,2.1474257E-2,-6.2929764E-2,-4.797503E-2,3.405164E-2,-8.870097E-2,4.1463178E-2,-3.4823682E-2,4.0766146E-2,-9.0702385E-2,-5.8149067E-3,-7.241405E-3,-7.7977814E-2,-1.5318073E-2,3.7160125E-2,3.4928884E-2,-3.5100617E-2,-7.4473985E-2,-2.3491412E-2],"categories":[],"categories_nodes":[],"categories_segments":[],"categories_sizes":[],"default_left":[0,0,0,0,0,0,0,0,0,0,0,0,0,0,0,0,0,0,0,0,0,0,0,0,0,0,0,0,0,0,0,0,0,0,0,0,0,0,0,0,0,0,0,0,0,0,0,0,0,0,0,0,0,0,0],"id":25,"left_children":[1,3,5,7,9,11,13,15,17,19,21,23,25,27,29,31,33,35,37,-1,-1,-1,39,41,43,-1,45,47,49,51,53,-1,-1,-1,-1,-1,-1,-1,-1,-1,-1,-1,-1,-1,-1,-1,-1,-1,-1,-1,-1,-1,-1,-1,-1],"loss_changes":[3.0107029E1,9.854825E0,5.364599E0,4.0138187E0,5.044724E0,3.8114564E0,3.8673134E0,2.5720856E0,1.9099293E0,1.8243197E0,3.1768866E0,1.8056426E0,1.7274728E0,2.6429863E0,3.5696094E0,3.657514E0,5.206504E-1,5.7115936E-1,1.3993621E0,0E0,0E0,0E0,7.3348737E-1,2.5553215E0,2.1943607E0,0E0,1.0858612E0,1.7843075E0,2.9609582E-1,2.0337303E0,1.7881079E0,0E0,0E0,0E0,0E0,0E0,0E0,0E0,0E0,0E0,0E0,0E0,0E0,0E0,0E0,0E0,0E0,0E0,0E0,0E0,0E0,0E0,0E0,0E0,0E0],"parents":[2147483647,0,0,1,1,2,2,3,3,4,4,5,5,6,6,7,7,8,8,9,9,10,10,11,11,12,12,13,13,14,14,15,15,16,16,17,17,18,18,22,22,23,23,24,24,26,26,27,27,28,28,29,29,30,30],"right_children":[2,4,6,8,10,12,14,16,18,20,22,24,26,28,30,32,34,36,38,-1,-1,-1,40,42,44,-1,46,48,50,52,54,-1,-1,-1,-1,-1,-1,-1,-1,-1,-1,-1,-1,-1,-1,-1,-1,-1,-1,-1,-1,-1,-1,-1,-1],"split_conditions":[6.471869E-3,1.877989E-1,-3.775707E-2,1.552139E2,4.2369813E-3,4.373784E-3,1E0,4.3165157E-4,1E0,4.0180367E1,1.4E1,-7.9785596E-4,1.5464558E2,6.804214E1,4.587202E-2,5.003402E1,4.087637E1,7.412986E-4,6.5812265E-4,-5.1227223E-2,4.6875548E-2,-1.497598E-1,1.09531775E-1,1.5328082E2,4.270609E-1,3.6266413E-2,1E0,2E0,3E0,1.4E1,1.651967E-1,2.0438494E-2,-5.9705008E-2,-1.2687939E-2,5.007061E-2,-6.3386126E-3,5.1718928E-2,2.1474257E-2,-6.2929764E-2,-4.797503E-2,3.405164E-2,-8.870097E-2,4.1463178E-2,-3.4823682E-2,4.0766146E-2,-9.0702385E-2,-5.8149067E-3,-7.241405E-3,-7.7977814E-2,-1.5318073E-2,3.7160125E-2,3.4928884E-2,-3.5100617E-2,-7.4473985E-2,-2.3491412E-2],"split_indices":[15,14,14,0,15,11,38,8,16,6,36,10,3,43,14,6,6,25,5,0,0,0,32,0,17,0,39,36,36,36,32,0,0,0,0,0,0,0,0,0,0,0,0,0,0,0,0,0,0,0,0,0,0,0,0],"split_type":[0,0,0,0,0,0,0,0,0,0,0,0,0,0,0,0,0,0,0,0,0,0,0,0,0,0,0,0,0,0,0,0,0,0,0,0,0,0,0,0,0,0,0,0,0,0,0,0,0,0,0,0,0,0,0],"sum_hessian":[2.8152982E2,1.4672084E2,1.3480898E2,1.3379019E2,1.2930637E1,3.6393513E1,9.841547E1,3.228332E1,1.01506874E2,6.253397E0,6.6772404E0,2.719204E1,9.201473E0,5.2741165E1,4.5674305E1,2.139914E1,1.0884182E1,9.205999E1,9.446888E0,2.002954E0,4.250443E0,4.287254E0,2.3899868E0,4.415739E0,2.2776299E1,1.138223E0,8.063251E0,4.9827866E1,2.9132988E0,1.623425E1,2.9440056E1,1.2405996E1,8.993143E0,1.1014313E0,9.78275E0,1.516459E0,9.054353E1,7.926287E0,1.520601E0,1.1329075E0,1.2570792E0,2.6095836E0,1.8061554E0,3.9492278E0,1.8827072E1,5.956065E0,2.1071854E0,4.094847E0,4.5733017E1,1.0090965E0,1.9042025E0,1.0781692E1,5.452557E0,1.2435878E1,1.7004179E1],"tree_param":{"num_deleted":"0","num_feature":"50","num_nodes":"55","size_leaf_vector":"1"}},{"base_weights":[9.160602E-3,-3.1022874E-1,7.2144014E-1,4.3378842E-1,-3.803742E-1,-1.4607613E-2,7.871149E-1,-3.969315E-2,8.719556E-1,-4.6313453E-1,2.4909374E-1,-3.9601907E-2,5.791805E-2,-2.7941404E-2,8.2513195E-1,1.363777E-1,-3.1698972E-2,-4.8812902E-1,3.9575264E-2,-2.8622895E-1,7.9384404E-1,1.1955036E-1,6.197223E-1,2.2090813E-2,-5.0105315E-2,2.0735525E-2,-4.302704E-2,-3.3568934E-2,1.390763E-1,1.9100005E-2,9.009888E-2],"categories":[],"categories_nodes":[],"categories_segments":[],"categories_sizes":[],"default_left":[0,0,0,0,0,0,0,0,0,0,0,0,0,0,0,0,0,0,0,0,0,0,0,0,0,0,0,0,0,0,0],"id":26,"left_children":[1,3,5,7,9,11,13,-1,15,17,19,-1,-1,-1,21,-1,-1,23,-1,25,27,-1,29,-1,-1,-1,-1,-1,-1,-1,-1],"loss_changes":[3.0663546E1,5.0227823E0,2.028452E0,3.4351914E0,4.574336E0,1.225807E0,1.7844791E0,0E0,3.8641243E0,1.8246403E0,3.3172297E0,0E0,0E0,0E0,2.0936813E0,0E0,0E0,7.915096E-1,0E0,5.214357E-1,4.1865244E0,0E0,2.9683104E0,0E0,0E0,0E0,0E0,0E0,0E0,0E0,0E0],"parents":[2147483647,0,0,1,1,2,2,3,3,4,4,5,5,6,6,8,8,9,9,10,10,14,14,17,17,19,19,20,20,22,22],"right_children":[2,4,6,8,10,12,14,-1,16,18,20,-1,-1,-1,22,-1,-1,24,-1,26,28,-1,30,-1,-1,-1,-1,-1,-1,-1,-1],"split_conditions":[3.4051498E-3,1.5321486E2,5.7168568E1,4.98529E1,5.027562E-2,7.6348376E-1,2.4722207E-2,-3.969315E-2,9.536824E-4,1.611394E1,2.641792E-1,-3.9601907E-2,5.791805E-2,-2.7941404E-2,9E0,1.363777E-1,-3.1698972E-2,-2.738655E-3,3.9575264E-2,3.019689E-3,4.985139E-3,1.1955036E-1,7.892906E-2,2.2090813E-2,-5.0105315E-2,2.0735525E-2,-4.302704E-2,-3.3568934E-2,1.390763E-1,1.9100005E-2,9.009888E-2],"split_indices":[11,1,6,6,9,28,9,0,7,12,32,0,0,0,36,0,0,10,0,26,25,0,9,0,0,0,0,0,0,0,0],"split_type":[0,0,0,0,0,0,0,0,0,0,0,0,0,0,0,0,0,0,0,0,0,0,0,0,0,0,0,0,0,0,0],"sum_hessian":[1.3280428E2,9.2079765E1,4.0724518E1,7.4866314E0,8.459313E1,3.3997307E0,3.7324787E1,2.617752E0,4.8688793E0,7.499702E1,9.596111E0,2.2728565E0,1.1268742E0,1.066122E0,3.6258667E1,3.340142E0,1.5287374E0,7.329571E1,1.7013078E0,5.079292E0,4.5168195E0,1.1215692E1,2.5042974E1,1.0240142E0,7.22717E1,1.0481302E0,4.031162E0,1.7129954E0,2.803824E0,1.0586106E1,1.4456868E1],"tree_param":{"num_deleted":"0","num_feature":"50","num_nodes":"31","size_leaf_vector":"1"}},{"base_weights":[-2.760762E-4,5.825142E-1,-4.010642E-1,7.3556757E-1,2.6595107E-1,-4.6476966E-1,-1.6583689E-2,-1.583947E-2,7.9782826E-1,-1.4882739E-1,6.349778E-1,3.0954678E-2,-4.8611692E-1,5.9406507E-1,-3.423291E-1,-3.977941E-2,6.616866E-2,8.3092463E-1,-6.8144983E-4,-4.2997575E-1,8.415273E-2,9.620718E-2,7.464045E-2,-4.967703E-1,-4.2732902E-2,8.553541E-2,-2.9120788E-2,-5.003014E-2,3.976911E-2,8.433725E-2,1.6589982E-2,-5.081744E-2,1.394354E-2,5.9812397E-2,-4.5773696E-2,-4.186388E-3,-5.0650567E-2,-2.7849847E-2,2.2001348E-2],"categories":[],"categories_nodes":[],"categories_segments":[],"categories_sizes":[],"default_left":[0,0,0,0,0,0,0,0,0,0,0,0,0,0,0,0,0,0,0,0,0,0,0,0,0,0,0,0,0,0,0,0,0,0,0,0,0,0,0],"id":27,"left_children":[1,3,5,7,9,11,13,15,17,19,21,-1,23,25,27,-1,-1,29,-1,31,-1,-1,33,35,37,-1,-1,-1,-1,-1,-1,-1,-1,-1,-1,-1,-1,-1,-1],"loss_changes":[4.0464222E1,3.2245922E0,2.5064716E0,2.2123108E0,3.8557234E0,1.6054001E0,3.3118849E0,1.4480118E0,1.1625042E0,3.8087015E0,2.3463259E0,0E0,3.8521767E-1,1.5911314E0,1.4644847E0,0E0,0E0,2.0554924E-1,0E0,5.296627E-1,0E0,0E0,1.9311631E0,3.5051155E-1,2.5411925E-1,0E0,0E0,0E0,0E0,0E0,0E0,0E0,0E0,0E0,0E0,0E0,0E0,0E0,0E0],"parents":[2147483647,0,0,1,1,2,2,3,3,4,4,5,5,6,6,7,7,8,8,9,9,10,10,12,12,13,13,14,14,17,17,19,19,22,22,23,23,24,24],"right_children":[2,4,6,8,10,12,14,16,18,20,22,-1,24,26,28,-1,-1,30,-1,32,-1,-1,34,36,38,-1,-1,-1,-1,-1,-1,-1,-1,-1,-1,-1,-1,-1,-1],"split_conditions":[-2.4062328E-3,-5.359016E-2,3.2096937E-1,1.5449017E2,1.7921351E-3,5.473091E-3,2.996289E-2,1.5694756E2,5.6824195E-3,-2.4125462E-5,2.7816314E-3,3.0954678E-2,2.2165265E0,5.8532995E-3,7.406989E-1,-3.977941E-2,6.616866E-2,-1.6493126E-5,-6.8144983E-4,2.0020468E0,8.415273E-2,9.620718E-2,-1.9471061E-5,3.024583E1,2.1758284E-1,8.553541E-2,-2.9120788E-2,-5.003014E-2,3.976911E-2,8.433725E-2,1.6589982E-2,-5.081744E-2,1.394354E-2,5.9812397E-2,-4.5773696E-2,-4.186388E-3,-5.0650567E-2,-2.7849847E-2,2.2001348E-2],"split_indices":[11,9,13,3,18,32,9,1,25,5,25,0,17,25,31,0,0,5,0,17,0,0,10,6,32,0,0,0,0,0,0,0,0,0,0,0,0,0,0],"split_type":[0,0,0,0,0,0,0,0,0,0,0,0,0,0,0,0,0,0,0,0,0,0,0,0,0,0,0,0,0,0,0,0,0,0,0,0,0,0,0],"sum_hessian":[1.7123811E2,6.959127E1,1.01646835E2,4.6018463E1,2.3572811E1,8.701955E1,1.4627293E1,3.5783195E0,4.2440144E1,1.13793545E1,1.2193456E1,1.9724771E0,8.5047066E1,4.801882E0,9.825411E0,2.5523229E0,1.0259968E0,4.0732098E1,1.7080464E0,9.30393E0,2.075424E0,7.246437E0,4.947019E0,8.293397E1,2.1131E0,3.7336795E0,1.0682023E0,8.363903E0,1.4615085E0,3.9720432E1,1.0116634E0,8.275042E0,1.0288887E0,2.4320767E0,2.5149424E0,1.8487204E0,8.108525E1,1.0821351E0,1.0309649E0],"tree_param":{"num_deleted":"0","num_feature":"50","num_nodes":"39","size_leaf_vector":"1"}},{"base_weights":[-2.9916465E-3,4.2225015E-1,-1.9205602E-1,-3.8023445E-1,4.7700718E-1,3.6050466E-1,-2.6093748E-1,-7.768047E-2,1.7683503E-1,4.9715358E-1,-3.8098987E-2,-4.1918984E-1,5.1775873E-2,-7.433104E-2,-1.9009767E-1,-5.556324E-3,3.1643108E-2,5.085607E-1,-8.9976145E-3,-8.906739E-4,-6.493502E-2,-2.8724897E-1,1.8382785E-1,5.2020486E-2,-1.2394002E-2,-1.7426388E-2,-6.579164E-2,4.0997908E-2,-3.5144985E-2],"categories":[],"categories_nodes":[],"categories_segments":[],"categories_sizes":[],"default_left":[0,0,0,0,0,0,0,0,0,0,0,0,0,0,0,0,0,0,0,0,0,0,0,0,0,0,0,0,0],"id":28,"left_children":[1,3,5,7,9,11,13,-1,15,17,-1,19,-1,-1,21,-1,-1,23,-1,-1,-1,25,27,-1,-1,-1,-1,-1,-1],"loss_changes":[2.1335014E1,3.7702656E0,7.085324E0,1.4128182E0,1.5186787E0,2.7648442E0,5.4595222E0,0E0,1.2189711E-1,5.518856E-1,0E0,3.7573588E-1,0E0,0E0,5.2933955E0,0E0,0E0,6.1154366E-1,0E0,0E0,0E0,4.697318E0,3.8193855E0,0E0,0E0,0E0,0E0,0E0,0E0],"parents":[2147483647,0,0,1,1,2,2,3,3,4,4,5,5,6,6,8,8,9,9,11,11,14,14,17,17,21,21,22,22],"right_children":[2,4,6,8,10,12,14,-1,16,18,-1,20,-1,-1,22,-1,-1,24,-1,-1,-1,26,28,-1,-1,-1,-1,-1,-1],"split_conditions":[1.2923927E-3,-3.051052E-3,4.306694E-3,-8.325909E0,1.7461199E-3,-1.5373457E1,-5.8072023E-3,-7.768047E-2,1.5651984E2,9.380785E-3,-3.8098987E-2,-2.7597135E-2,5.1775873E-2,-7.433104E-2,1.56381E2,-5.556324E-3,3.1643108E-2,4.6018665E-3,-8.9976145E-3,-8.906739E-4,-6.493502E-2,7.892906E-2,1.5806764E2,5.2020486E-2,-1.2394002E-2,-1.7426388E-2,-6.579164E-2,4.0997908E-2,-3.5144985E-2],"split_indices":[18,11,15,12,10,12,11,0,0,15,0,9,0,0,2,0,0,11,0,0,0,9,0,0,0,0,0,0,0],"split_type":[0,0,0,0,0,0,0,0,0,0,0,0,0,0,0,0,0,0,0,0,0,0,0,0,0,0,0,0,0],"sum_hessian":[2.6335855E2,8.0673996E1,1.8268457E2,4.773439E0,7.590056E1,1.9779732E1,1.6290483E2,2.5579913E0,2.215448E0,7.457016E1,1.3303972E0,3.0401962E0,1.6739536E1,1.9644663E1,1.4326018E2,1.0572757E0,1.1581721E0,7.328024E1,1.2899129E0,1.4658589E0,1.5743372E0,1.1389928E2,2.9360891E1,7.21299E1,1.1503506E0,8.841819E1,2.5481085E1,2.0805E1,8.555892E0],"tree_param":{"num_deleted":"0","num_feature":"50","num_nodes":"29","size_leaf_vector":"1"}},{"base_weights":[3.9452575E-2,-3.16849E-1,6.7265123E-1,-3.825739E-1,4.5326215E-1,-3.5681307E-2,7.26535E-1,3.755545E-1,-4.3634045E-1,8.748004E-1,-3.627281E-2,-1.0719349E-1,7.767245E-1,-3.532771E-2,8.947006E-1,-4.5914185E-1,7.762442E-2,7.435617E-3,1.15585946E-1,2.184849E-2,-3.2654352E-2,3.1490445E-3,8.016408E-1,1.1197803E-1,1.7262278E-2,1.4840788E-2,-4.718569E-2,-3.579562E-2,6.8163365E-2,3.4284496E-3,8.2536034E-2],"categories":[],"categories_nodes":[],"categories_segments":[],"categories_sizes":[],"default_left":[0,0,0,0,0,0,0,0,0,0,0,0,0,0,0,0,0,0,0,0,0,0,0,0,0,0,0,0,0,0,0],"id":29,"left_children":[1,3,5,7,9,-1,11,13,15,17,-1,19,21,-1,23,25,27,-1,-1,-1,-1,-1,29,-1,-1,-1,-1,-1,-1,-1,-1],"loss_changes":[3.0207838E1,4.514018E0,2.9325752E0,3.4067078E0,2.7942762E0,0E0,2.0133457E0,2.5128489E0,9.116392E-1,1.0482035E0,0E0,3.2121614E-1,7.848549E-1,0E0,4.0378094E-1,6.2405777E-1,1.304447E0,0E0,0E0,0E0,0E0,0E0,7.3934937E-1,0E0,0E0,0E0,0E0,0E0,0E0,0E0,0E0],"parents":[2147483647,0,0,1,1,2,2,3,3,4,4,6,6,7,7,8,8,9,9,11,11,12,12,14,14,15,15,16,16,22,22],"right_children":[2,4,6,8,10,-1,12,14,16,18,-1,20,22,-1,24,26,28,-1,-1,-1,-1,-1,30,-1,-1,-1,-1,-1,-1,-1,-1],"split_conditions":[2.8967431E-3,1.3086014E1,5.33801E-3,4.1958895E-1,1.5575583E2,-3.5681307E-2,1.9171335E-1,2.1794505E-1,6.81621E-2,4.5536202E-3,-3.627281E-2,6.2497426E-3,5.136168E-3,-3.532771E-2,2.4291086E-1,-2.738655E-3,4.369723E-1,7.435617E-3,1.15585946E-1,2.184849E-2,-3.2654352E-2,3.1490445E-3,-8.768095E-4,1.1197803E-1,1.7262278E-2,1.4840788E-2,-4.718569E-2,-3.579562E-2,6.8163365E-2,3.4284496E-3,8.2536034E-2],"split_indices":[11,12,25,17,1,0,13,13,9,25,0,15,15,0,13,10,33,0,0,0,0,0,5,0,0,0,0,0,0,0,0],"split_type":[0,0,0,0,0,0,0,0,0,0,0,0,0,0,0,0,0,0,0,0,0,0,0,0,0,0,0,0,0,0,0],"sum_hessian":[1.3194958E2,8.475658E1,4.719301E1,7.85555E1,6.201075E0,2.0676732E0,4.5125336E1,4.805881E0,7.374962E1,4.041286E0,2.159789E0,2.497758E0,4.262758E1,2.1321082E0,2.6737728E0,7.071893E1,3.030686E0,1.3788729E0,2.6624134E0,1.0068251E0,1.4909327E0,1.4523509E0,4.117523E1,1.6184949E0,1.055278E0,1.2309282E0,6.948801E1,1.9975332E0,1.0331526E0,1.3079168E0,3.986731E1],"tree_param":{"num_deleted":"0","num_feature":"50","num_nodes":"31","size_leaf_vector":"1"}},{"base_weights":[-2.7264223E-2,5.006499E-1,-3.6390987E-1,2.2849628E-1,7.5266206E-1,-4.705199E-1,2.1049851E-1,6.537952E-1,2.0481028E-2,7.899836E-1,-2.9298235E-3,3.1586017E-2,-4.9372655E-1,6.479851E-1,-1.881408E-1,7.9533756E-1,-2.8755907E-2,5.2034116E-1,-2.935232E-1,8.2104E-1,8.03927E-3,-5.0408685E-1,1.3604045E-2,8.1485784E-1,1.9914983E-3,-4.5726724E-2,2.0748527E-1,8.768683E-2,2.6908666E-2,9.0843126E-2,-1.8923659E-3,4.18395E-2,-4.4811074E-2,1.4455738E-2,8.5187174E-2,-5.1664364E-2,-1.2603657E-2,9.468123E-2,1.0971416E-2,5.7886463E-2,-3.2140896E-2],"categories":[],"categories_nodes":[],"categories_segments":[],"categories_sizes":[],"default_left":[0,0,0,0,0,0,0,0,0,0,0,0,0,0,0,0,0,0,0,0,0,0,0,0,0,0,0,0,0,0,0,0,0,0,0,0,0,0,0,0,0],"id":30,"left_children":[1,3,5,7,9,11,13,15,17,19,-1,-1,21,23,25,27,-1,29,31,33,-1,35,-1,37,-1,-1,39,-1,-1,-1,-1,-1,-1,-1,-1,-1,-1,-1,-1,-1,-1],"loss_changes":[2.804287E1,4.043559E0,5.996457E0,2.727971E0,9.417629E-1,1.6439362E0,2.8716261E0,1.5804987E0,3.580914E0,5.9684753E-1,0E0,0E0,5.878658E-1,7.9520726E-1,1.0557604E0,1.5383959E-1,0E0,1.856261E0,1.734171E0,4.7563934E-1,0E0,3.0760002E-1,0E0,4.6295023E-1,0E0,0E0,1.0388153E0,0E0,0E0,0E0,0E0,0E0,0E0,0E0,0E0,0E0,0E0,0E0,0E0,0E0,0E0],"parents":[2147483647,0,0,1,1,2,2,3,3,4,4,5,5,6,6,7,7,8,8,9,9,12,12,13,13,14,14,15,15,17,17,18,18,19,19,21,21,23,23,26,26],"right_children":[2,4,6,8,10,12,14,16,18,20,-1,-1,22,24,26,28,-1,30,32,34,-1,36,-1,38,-1,-1,40,-1,-1,-1,-1,-1,-1,-1,-1,-1,-1,-1,-1,-1,-1],"split_conditions":[-2.3587602E-3,2.7483603E-1,3.2096937E-1,-7.63848E-2,8.920634E-4,5.473091E-3,3.2902647E-2,3.9316185E1,7.412986E-4,4.2595478E1,-2.9298235E-3,3.1586017E-2,9.215928E-1,5.8532995E-3,1.0903542E0,1.6E1,-2.8755907E-2,5.880215E-3,-1.0333548E-3,-2.738655E-3,8.03927E-3,2.3E1,1.3604045E-2,-9.025669E-5,1.9914983E-3,-4.5726724E-2,1.7897309E-3,8.768683E-2,2.6908666E-2,9.0843126E-2,-1.8923659E-3,4.18395E-2,-4.4811074E-2,1.4455738E-2,8.5187174E-2,-5.1664364E-2,-1.2603657E-2,9.468123E-2,1.0971416E-2,5.7886463E-2,-3.2140896E-2],"split_indices":[11,13,13,9,41,32,9,6,25,6,0,0,28,25,17,36,0,15,5,41,0,36,0,11,0,0,11,0,0,0,0,0,0,0,0,0,0,0,0,0,0],"split_type":[0,0,0,0,0,0,0,0,0,0,0,0,0,0,0,0,0,0,0,0,0,0,0,0,0,0,0,0,0,0,0,0,0,0,0,0,0,0,0,0,0],"sum_hessian":[1.5576724E2,6.046356E1,9.530369E1,2.9986803E1,3.0476755E1,8.053693E1,1.4766766E1,9.145433E0,2.084137E1,2.9078625E1,1.3981307E0,1.9470915E0,7.8589836E1,6.7421274E0,8.024638E0,8.084899E0,1.0605346E0,7.7874665E0,1.3053904E1,2.770884E1,1.3697835E0,7.751421E1,1.0756185E0,5.091864E0,1.6502635E0,4.683119E0,3.3415194E0,6.4234705E0,1.6614282E0,4.130393E0,3.6570733E0,2.0244102E0,1.1029493E1,1.4557886E0,2.6253052E1,7.4667564E1,2.8466535E0,4.000519E0,1.0913453E0,1.9075755E0,1.4339437E0],"tree_param":{"num_deleted":"0","num_feature":"50","num_nodes":"41","size_leaf_vector":"1"}},{"base_weights":[1.2107759E-3,4.101229E-1,-1.7443484E-1,4.579752E-1,-2.1279144E-1,-5.8834815E-1,-7.983705E-2,5.051286E-1,-7.962035E-2,3.9034136E-2,-7.5276166E-1,-6.748935E-1,2.2357623E-1,8.283996E-2,-3.977796E-1,-5.74978E-3,5.1480216E-1,4.046474E-2,-4.7467163E-1,-9.789504E-2,-2.452508E-2,-7.151494E-1,5.8634635E-3,4.0310245E-2,-1.4671515E-2,3.4320804E-1,-1.3689712E-1,3.7140542E-1,-5.588828E-1,1.2431488E-2,5.282401E-2,2.899812E-2,-8.354338E-2,-7.395488E-2,-1.291348E-2,-4.7745626E-2,4.2409044E-2,-4.3548774E-2,1.5637085E-3,5.266839E-2,-3.4078702E-2,-1.8596634E-2,-6.92346E-2],"categories":[],"categories_nodes":[],"categories_segments":[],"categories_sizes":[],"default_left":[0,0,0,0,0,0,0,0,0,0,0,0,0,0,0,0,0,0,0,0,0,0,0,0,0,0,0,0,0,0,0,0,0,0,0,0,0,0,0,0,0,0,0],"id":31,"left_children":[1,3,5,7,9,11,13,15,17,-1,19,21,23,25,27,-1,29,-1,31,-1,-1,33,-1,-1,-1,35,37,39,41,-1,-1,-1,-1,-1,-1,-1,-1,-1,-1,-1,-1,-1,-1],"loss_changes":[1.8641823E1,2.4221E0,7.0623093E0,1.8841715E0,2.3281171E0,2.513279E0,7.7367654E0,3.9431763E-1,1.4795192E0,0E0,1.7744231E-1,9.464016E-1,3.2435632E-1,5.7316103E0,6.476204E0,0E0,2.805481E-1,0E0,1.3915884E0,0E0,0E0,3.2075787E-1,0E0,0E0,0E0,3.239953E0,2.4935439E0,1.2147219E0,1.972846E0,0E0,0E0,0E0,0E0,0E0,0E0,0E0,0E0,0E0,0E0,0E0,0E0,0E0,0E0],"parents":[2147483647,0,0,1,1,2,2,3,3,4,4,5,5,6,6,7,7,8,8,10,10,11,11,12,12,13,13,14,14,16,16,18,18,21,21,25,25,26,26,27,27,28,28],"right_children":[2,4,6,8,10,12,14,16,18,-1,20,22,24,26,28,-1,30,-1,32,-1,-1,34,-1,-1,-1,36,38,40,42,-1,-1,-1,-1,-1,-1,-1,-1,-1,-1,-1,-1,-1,-1],"split_conditions":[1.2923927E-3,1.2902589E-1,-4.509709E-3,7.203206E1,4.4289813E-3,3.4182503E1,5.027562E-2,-5.9510866E-4,5.433082E1,3.9034136E-2,1.2010993E-3,-2.080488E-2,3.7733383E1,2.2860514E-1,4.566849E1,-5.74978E-3,1.5146243E2,4.046474E-2,-2.831968E-2,-9.789504E-2,-2.452508E-2,6.239729E-1,5.8634635E-3,4.0310245E-2,-1.4671515E-2,3.3490013E-4,1.2089202E-1,9.0287906E-1,-2.8071715E-4,1.2431488E-2,5.282401E-2,2.899812E-2,-8.354338E-2,-7.395488E-2,-1.291348E-2,-4.7745626E-2,4.2409044E-2,-4.3548774E-2,1.5637085E-3,5.266839E-2,-3.4078702E-2,-1.8596634E-2,-6.92346E-2],"split_indices":[18,14,11,6,15,6,9,5,43,0,25,9,6,13,6,0,44,0,14,0,0,33,0,0,0,25,32,28,10,0,0,0,0,0,0,0,0,0,0,0,0,0,0],"split_type":[0,0,0,0,0,0,0,0,0,0,0,0,0,0,0,0,0,0,0,0,0,0,0,0,0,0,0,0,0,0,0,0,0,0,0,0,0,0,0,0,0,0,0],"sum_hessian":[2.57554E2,7.6987686E1,1.8056628E2,7.17413E1,5.2463837E0,3.2619583E1,1.479467E2,6.60117E1,5.7296047E0,2.6091435E0,2.6372402E0,2.963001E1,2.989575E0,9.8359825E1,4.9586876E1,1.032225E0,6.497948E1,2.563224E0,3.1663806E0,1.1816669E0,1.4555732E0,2.811227E1,1.5177399E0,1.9537439E0,1.0358311E0,4.476067E1,5.3599155E1,8.361173E0,4.1225704E1,2.5027926E0,6.247668E1,1.0779057E0,2.088475E0,2.6737043E1,1.3752263E0,3.575827E0,4.1184845E1,1.7495714E1,3.6103443E1,7.0783615E0,1.2828112E0,1.1496404E1,2.97293E1],"tree_param":{"num_deleted":"0","num_feature":"50","num_nodes":"43","size_leaf_vector":"1"}},{"base_weights":[3.3884936E-3,-3.6596814E-1,4.5164922E-1,3.7726265E-1,-4.3716353E-1,-4.4288184E-2,5.5035716E-1,-3.43113E-2,6.921735E-1,-1.03919335E-1,-4.913656E-1,-3.917747E-2,6.110188E-1,-2.7621066E-2,1.04479685E-1,6.721672E-2,-3.559648E-1,2.212433E-2,-5.087943E-2,6.45971E-1,-3.2457616E-2,1.95911E-2,-4.5742806E-2,1.4087231E-1,5.5979658E-2],"categories":[],"categories_nodes":[],"categories_segments":[],"categories_sizes":[],"default_left":[0,0,0,0,0,0,0,0,0,0,0,0,0,0,0,0,0,0,0,0,0,0,0,0,0],"id":32,"left_children":[1,3,5,7,9,-1,11,-1,13,15,17,-1,19,-1,-1,-1,21,-1,-1,23,-1,-1,-1,-1,-1],"loss_changes":[2.1324697E1,3.9016714E0,5.3809195E0,1.7597044E0,1.1213484E0,0E0,3.2595024E0,0E0,1.9961119E0,2.2635505E0,8.0260944E-1,0E0,1.8459759E0,0E0,0E0,0E0,5.636381E-1,0E0,0E0,2.403944E0,0E0,0E0,0E0,0E0,0E0],"parents":[2147483647,0,0,1,1,2,2,3,3,4,4,6,6,8,8,9,9,10,10,12,12,16,16,19,19],"right_children":[2,4,6,8,10,-1,12,-1,14,16,18,-1,20,-1,-1,-1,22,-1,-1,24,-1,-1,-1,-1,-1],"split_conditions":[3.5474148E-2,6.42403E-5,4.626607E-3,4.9645485E1,1.5439493E2,-4.4288184E-2,1.219368E-3,-3.43113E-2,6.296172E1,2.0217288E-3,-2.738655E-3,-3.917747E-2,7.703887E-1,-2.7621066E-2,1.04479685E-1,6.721672E-2,-1.6743583E-3,2.212433E-2,-5.087943E-2,1.4611172E-3,-3.2457616E-2,1.95911E-2,-4.5742806E-2,1.4087231E-1,5.5979658E-2],"split_indices":[9,26,25,6,1,0,18,0,43,26,10,0,28,0,0,0,5,0,0,11,0,0,0,0,0],"split_type":[0,0,0,0,0,0,0,0,0,0,0,0,0,0,0,0,0,0,0,0,0,0,0,0,0],"sum_hessian":[1.26798836E2,6.961842E1,5.7180416E1,5.710087E0,6.3908337E1,5.336065E0,5.184435E1,1.7096388E0,4.000448E0,9.348613E0,5.4559723E1,2.8060105E0,4.9038338E1,1.1257046E0,2.8747435E0,1.8831767E0,7.4654365E0,1.0233585E0,5.3536366E1,4.757074E1,1.4676003E0,1.0148165E0,6.4506197E0,3.270994E0,4.4299744E1],"tree_param":{"num_deleted":"0","num_feature":"50","num_nodes":"25","size_leaf_vector":"1"}},{"base_weights":[2.6122147E-2,5.0980854E-1,-3.3494398E-1,-5.165007E-2,5.671064E-1,-4.5208016E-1,2.2836137E-1,-4.3820273E-2,4.0017724E-1,4.1523498E-1,7.392934E-1,-5.0032026E-1,2.111501E-1,6.746743E-1,-1.3145965E-1,6.4131856E-2,2.3521213E-3,-4.074244E-2,4.894833E-1,7.7043325E-1,1.7388565E-2,1.51991015E-2,-5.139975E-2,7.725943E-1,-3.806847E-2,7.609899E-1,9.647223E-3,4.573534E-2,-3.5769728E-1,6.563769E-2,1.1588576E-2,7.900051E-2,1.6694224E-2,8.466752E-3,1.1396768E-1,1.0850241E-2,8.882215E-2,2.0912686E-2,-4.7434766E-2],"categories":[],"categories_nodes":[],"categories_segments":[],"categories_sizes":[],"default_left":[0,0,0,0,0,0,0,0,0,0,0,0,0,0,0,0,0,0,0,0,0,0,0,0,0,0,0,0,0,0,0,0,0,0,0,0,0,0,0],"id":33,"left_children":[1,3,5,7,9,11,13,-1,15,17,19,21,23,25,27,-1,-1,-1,29,31,-1,-1,-1,33,-1,35,-1,-1,37,-1,-1,-1,-1,-1,-1,-1,-1,-1,-1],"loss_changes":[2.7668356E1,2.2070484E0,6.0916405E0,1.4302801E0,1.3015022E0,2.5201988E0,2.7043986E0,0E0,3.3328706E-1,2.3350668E0,3.5101318E-1,7.0843124E-1,2.2280738E0,2.975614E-1,1.4763438E0,0E0,0E0,0E0,1.9518313E0,1.7303658E-1,0E0,0E0,0E0,7.4110687E-1,0E0,4.2850137E-1,0E0,0E0,6.070259E-1,0E0,0E0,0E0,0E0,0E0,0E0,0E0,0E0,0E0,0E0],"parents":[2147483647,0,0,1,1,2,2,3,3,4,4,5,5,6,6,8,8,9,9,10,10,11,11,12,12,13,13,14,14,18,18,19,19,23,23,25,25,28,28],"right_children":[2,4,6,8,10,12,14,-1,16,18,20,22,24,26,28,-1,-1,-1,30,32,-1,-1,-1,34,-1,36,-1,-1,38,-1,-1,-1,-1,-1,-1,-1,-1,-1,-1],"split_conditions":[-2.3587602E-3,-3.939338E-2,3.2096937E-1,2.9292843E-1,2.7375636E-1,1.9202426E-1,3.2902647E-2,-4.3820273E-2,-5.396138E-2,5.9855044E-1,9.4858196E-4,6.4560305E-3,9.613145E-5,1.5562347E-3,-5.7380886E0,6.4131856E-2,2.3521213E-3,-4.074244E-2,-5.5953875E-2,4.197032E1,1.7388565E-2,1.51991015E-2,-5.139975E-2,1.4861785E-3,-3.806847E-2,1.5339224E2,9.647223E-3,4.573534E-2,5.5665732E-3,6.563769E-2,1.1588576E-2,7.900051E-2,1.6694224E-2,8.466752E-3,1.1396768E-1,1.0850241E-2,8.882215E-2,2.0912686E-2,-4.7434766E-2],"split_indices":[11,14,13,13,13,14,9,0,9,17,10,31,10,10,12,0,0,0,9,6,0,0,0,18,0,1,0,0,15,0,0,0,0,0,0,0,0,0,0],"split_type":[0,0,0,0,0,0,0,0,0,0,0,0,0,0,0,0,0,0,0,0,0,0,0,0,0,0,0,0,0,0,0,0,0,0,0,0,0,0,0],"sum_hessian":[1.5645055E2,6.669439E1,8.975616E1,6.1851425E0,6.0509243E1,7.446834E1,1.5287823E1,3.3496041E0,2.8355384E0,3.3964012E1,2.654523E1,6.964811E1,4.82023E0,6.4332075E0,8.854615E0,1.3003618E0,1.5351768E0,2.4401567E0,3.1523857E1,2.481588E1,1.7293512E0,1.2226613E0,6.8425446E1,2.3168898E0,2.5033405E0,5.3225155E0,1.1106919E0,2.174259E0,6.680356E0,2.126669E1,1.0257168E1,2.3737005E1,1.0788746E0,1.2343397E0,1.0825502E0,1.1708392E0,4.151676E0,1.00485E0,5.6755056E0],"tree_param":{"num_deleted":"0","num_feature":"50","num_nodes":"39","size_leaf_vector":"1"}},{"base_weights":[2.495699E-2,4.3639812E-1,-1.4291658E-1,-2.272005E-1,4.7759297E-1,-4.837059E-1,-3.8815096E-2,-5.977818E-2,1.713746E-2,5.118499E-1,-2.8825137E-1,3.8463574E-2,-5.3454965E-1,1.3770261E-1,-3.8649184E-1,5.262847E-2,-1.9647636E-2,-4.6229005E-2,3.8672877E-3,-3.1805694E-1,-6.659602E-1,2.110293E-1,-4.7727573E-1,-6.542261E-1,-1.893706E-1,-5.674963E-2,-1.970834E-3,-7.458786E-2,-5.416786E-3,-3.32082E-3,3.7129413E-2,2.0989489E-2,-7.759128E-2,3.0108416E-2,-7.361703E-2,1.3866833E-2,-4.618818E-2],"categories":[],"categories_nodes":[],"categories_segments":[],"categories_sizes":[],"default_left":[0,0,0,0,0,0,0,0,0,0,0,0,0,0,0,0,0,0,0,0,0,0,0,0,0,0,0,0,0,0,0,0,0,0,0,0,0],"id":34,"left_children":[1,3,5,7,9,11,13,-1,-1,15,17,-1,19,21,23,-1,-1,-1,-1,25,27,29,31,33,35,-1,-1,-1,-1,-1,-1,-1,-1,-1,-1,-1,-1],"loss_changes":[1.6796183E1,2.0344572E0,6.112322E0,8.107689E-1,1.8963175E0,1.9871187E0,8.244353E0,0E0,0E0,7.594433E-1,2.1666047E-1,0E0,8.84572E-1,4.1259184E0,2.2619653E0,0E0,0E0,0E0,0E0,1.2145754E0,1.0874319E0,3.1611977E0,2.1772156E0,1.6904278E0,2.5174296E0,0E0,0E0,0E0,0E0,0E0,0E0,0E0,0E0,0E0,0E0,0E0,0E0],"parents":[2147483647,0,0,1,1,2,2,3,3,4,4,5,5,6,6,9,9,10,10,12,12,13,13,14,14,19,19,20,20,21,21,22,22,23,23,24,24],"right_children":[2,4,6,8,10,12,14,-1,-1,16,18,-1,20,22,24,-1,-1,-1,-1,26,28,30,32,34,36,-1,-1,-1,-1,-1,-1,-1,-1,-1,-1,-1,-1],"split_conditions":[1.2923927E-3,-3.051052E-3,-3.988261E-3,-8.325909E0,4.703464E-3,-6.7247234E-2,3.0553518E-3,-5.977818E-2,1.713746E-2,1.5133709E-3,2.6037535E-2,3.8463574E-2,2.5320256E-1,2.0836653E-1,6.681455E-4,5.262847E-2,-1.9647636E-2,-4.6229005E-2,3.8672877E-3,2.8865633E1,-3.5878595E-2,1.5510791E2,5.416951E-3,2.6055066E-2,2.5521266E-1,-5.674963E-2,-1.970834E-3,-7.458786E-2,-5.416786E-3,-3.32082E-3,3.7129413E-2,2.0989489E-2,-7.759128E-2,3.0108416E-2,-7.361703E-2,1.3866833E-2,-4.618818E-2],"split_indices":[18,11,11,12,11,14,11,0,0,10,14,0,13,14,26,0,0,0,0,6,9,1,26,9,13,0,0,0,0,0,0,0,0,0,0,0,0],"split_type":[0,0,0,0,0,0,0,0,0,0,0,0,0,0,0,0,0,0,0,0,0,0,0,0,0,0,0,0,0,0,0,0,0,0,0,0,0],"sum_hessian":[2.4127295E2,6.945245E1,1.718205E2,3.7955506E0,6.5656906E1,3.93516E1,1.324689E2,1.707852E0,2.0876985E0,6.3163208E1,2.4936945E0,1.8135519E0,3.7538048E1,8.8261765E1,4.420713E1,6.21536E1,1.0096105E0,1.3571533E0,1.1365414E0,1.54708605E1,2.2067186E1,7.9445915E1,8.81585E0,1.7762634E1,2.6444498E1,7.934753E0,7.536108E0,1.9323755E1,2.7434316E0,3.1790771E1,4.7655144E1,2.7606618E0,6.055188E0,1.1919963E0,1.6570637E1,1.2222568E1,1.422193E1],"tree_param":{"num_deleted":"0","num_feature":"50","num_nodes":"37","size_leaf_vector":"1"}},{"base_weights":[2.3014138E-3,-3.1771368E-1,5.372442E-1,4.4266513E-1,-4.0839967E-1,-4.127991E-2,6.17206E-1,-3.3417236E-2,6.544427E-1,5.3145486E-1,-4.463883E-1,2.7435645E-1,7.1897E-1,-9.7233824E-2,1.0411545E-1,-2.8055632E-2,1.0935968E-1,-4.6887475E-1,1.7537507E-1,6.260529E-1,-8.073321E-2,-3.294979E-2,7.823075E-1,-3.051478E-2,2.0372994E-2,4.236641E-3,-4.9554307E-2,5.9970897E-2,-3.24933E-2,-3.4763727E-2,9.2211775E-2,6.488326E-2,-3.9956797E-2,-2.1821997E-4,8.29012E-2],"categories":[],"categories_nodes":[],"categories_segments":[],"categories_sizes":[],"default_left":[0,0,0,0,0,0,0,0,0,0,0,0,0,0,0,0,0,0,0,0,0,0,0,0,0,0,0,0,0,0,0,0,0,0,0],"id":35,"left_children":[1,3,5,7,9,-1,11,-1,13,15,17,19,21,23,-1,-1,-1,25,27,29,31,-1,33,-1,-1,-1,-1,-1,-1,-1,-1,-1,-1,-1,-1],"loss_changes":[2.183435E1,5.684043E0,3.881382E0,1.6967069E0,2.8016481E0,0E0,1.3530273E0,0E0,2.2515445E0,1.7888901E0,1.0550137E0,1.5225658E0,2.4921455E0,2.7664286E-1,0E0,0E0,0E0,9.402151E-1,8.6493635E-1,2.0606182E0,1.8296208E0,0E0,1.1752243E0,0E0,0E0,0E0,0E0,0E0,0E0,0E0,0E0,0E0,0E0,0E0,0E0],"parents":[2147483647,0,0,1,1,2,2,3,3,4,4,6,6,8,8,9,9,10,10,11,11,12,12,13,13,17,17,18,18,19,19,20,20,22,22],"right_children":[2,4,6,8,10,-1,12,-1,14,16,18,20,22,24,-1,-1,-1,26,28,30,32,-1,34,-1,-1,-1,-1,-1,-1,-1,-1,-1,-1,-1,-1],"split_conditions":[5.027562E-2,1.00493E-2,4.5883255E1,4.9645485E1,1.5321486E2,-4.127991E-2,-2.8071715E-4,-3.3417236E-2,6.296172E1,5.4568592E1,4.4906065E-3,1E0,4.985139E-3,8.920634E-4,1.0411545E-1,-2.8055632E-2,1.0935968E-1,3.54255E1,1.9046322E-1,1.5480867E2,1.534752E2,-3.294979E-2,1.9270523E-1,-3.051478E-2,2.0372994E-2,4.236641E-3,-4.9554307E-2,5.9970897E-2,-3.24933E-2,-3.4763727E-2,9.2211775E-2,6.488326E-2,-3.9956797E-2,-2.1821997E-4,8.29012E-2],"split_indices":[9,28,6,6,1,0,10,0,43,6,11,38,25,10,0,0,0,43,32,3,2,0,13,0,0,0,0,0,0,0,0,0,0,0,0],"split_type":[0,0,0,0,0,0,0,0,0,0,0,0,0,0,0,0,0,0,0,0,0,0,0,0,0,0,0,0,0,0,0,0,0,0,0],"sum_hessian":[1.2554763E2,7.880859E1,4.6739037E1,7.9839478E0,7.0824646E1,3.3053226E0,4.3433712E1,1.5864885E0,6.397459E0,2.2468488E0,6.85778E1,1.078714E1,3.2646572E1,2.427512E0,3.9699473E0,1.1240622E0,1.1227865E0,6.642152E1,2.1562812E0,5.03609E0,5.7510495E0,1.6204206E0,3.1026152E1,1.4274726E0,1.0000392E0,3.2638404E0,6.315768E1,1.0592251E0,1.0970562E0,1.1336331E0,3.9024568E0,1.4342197E0,4.31683E0,1.796913E0,2.922924E1],"tree_param":{"num_deleted":"0","num_feature":"50","num_nodes":"35","size_leaf_vector":"1"}},{"base_weights":[6.6896295E-3,4.823041E-1,-3.5243928E-1,2.8869998E-1,6.794715E-1,-4.49682E-1,2.4371226E-1,5.7220846E-1,-2.381562E-1,7.1280783E-1,-7.057684E-4,-4.9814138E-1,1.9404846E-1,6.629981E-1,-1.19377606E-1,-3.0749816E-2,6.381888E-1,3.5003656E-1,-4.075154E-1,7.3608124E-1,4.9563413E-3,-5.1267844E-2,-1.0325293E-1,-3.7585884E-2,6.544824E-1,9.341891E-2,1.20894015E-2,-4.151528E-2,1.8301375E-1,-8.002712E-3,7.195857E-2,3.2436978E-3,5.1554024E-2,-4.9202006E-2,1.5360474E-2,3.8209923E-2,8.065594E-2,2.34501E-2,-3.2247778E-2,9.52374E-2,8.109729E-3,7.4378595E-2,-3.650554E-2],"categories":[],"categories_nodes":[],"categories_segments":[],"categories_sizes":[],"default_left":[0,0,0,0,0,0,0,0,0,0,0,0,0,0,0,0,0,0,0,0,0,0,0,0,0,0,0,0,0,0,0,0,0,0,0,0,0,0,0,0,0,0,0],"id":36,"left_children":[1,3,5,7,9,11,13,15,17,19,-1,21,23,25,27,-1,29,31,33,35,-1,-1,37,-1,39,-1,-1,-1,41,-1,-1,-1,-1,-1,-1,-1,-1,-1,-1,-1,-1,-1,-1],"loss_changes":[2.5072123E1,2.2142515E0,4.9586525E0,5.1549616E0,7.041187E-1,2.3510027E0,1.9637264E0,1.4812322E0,1.3839558E0,4.1334248E-1,0E0,3.3447838E-1,1.7624185E0,7.540858E-1,7.4512845E-1,0E0,1.2805252E0,1.5798545E-1,5.562571E-1,3.9238262E-1,0E0,0E0,3.4576386E-1,0E0,5.3105414E-1,0E0,0E0,0E0,1.6218134E0,0E0,0E0,0E0,0E0,0E0,0E0,0E0,0E0,0E0,0E0,0E0,0E0,0E0,0E0],"parents":[2147483647,0,0,1,1,2,2,3,3,4,4,5,5,6,6,7,7,8,8,9,9,11,11,12,12,13,13,14,14,16,16,17,17,18,18,19,19,22,22,24,24,28,28],"right_children":[2,4,6,8,10,12,14,16,18,20,-1,22,24,26,28,-1,30,32,34,36,-1,-1,38,-1,40,-1,-1,-1,42,-1,-1,-1,-1,-1,-1,-1,-1,-1,-1,-1,-1,-1,-1],"split_conditions":[-2.3587602E-3,1.7811918E-3,2.2202916E-3,-5.5953875E-2,3.7436884E-2,2.0836653E-1,3.2902647E-2,4.3071854E-1,3.3490013E-4,9.4858196E-4,-7.057684E-4,2.3E1,2.0229727E-1,5.0721545E-4,1.4E1,-3.0749816E-2,5.9855044E-1,7.4307926E-2,1.5791568E2,1.5554996E2,4.9563413E-3,-5.1267844E-2,3.7632743E-3,-3.7585884E-2,9.613145E-5,9.341891E-2,1.20894015E-2,-4.151528E-2,8.651673E-2,-8.002712E-3,7.195857E-2,3.2436978E-3,5.1554024E-2,-4.9202006E-2,1.5360474E-2,3.8209923E-2,8.065594E-2,2.34501E-2,-3.2247778E-2,9.52374E-2,8.109729E-3,7.4378595E-2,-3.650554E-2],"split_indices":[11,18,18,9,9,14,9,28,25,41,0,36,32,41,36,0,17,14,3,3,0,0,25,0,41,0,0,0,9,0,0,0,0,0,0,0,0,0,0,0,0,0,0],"split_type":[0,0,0,0,0,0,0,0,0,0,0,0,0,0,0,0,0,0,0,0,0,0,0,0,0,0,0,0,0,0,0,0,0,0,0,0,0,0,0,0,0,0,0],"sum_hessian":[1.4479118E2,6.2145473E1,8.2645706E1,3.2599434E1,2.9546041E1,7.126657E1,1.1379129E1,