{"learner":{"attributes":{"scikit_learn":"{\"_estimator_type\": \"classifier\"}"},"feature_names":["prob_buy","prob_sell","rsi","vol_brk","vol_imb","regime_strength"],"feature_types":["float","float","float","int","float","float"],"gradient_booster":{"model":{"cats":{"enc":[],"feature_segments":[],"sorted_idx":[]},"gbtree_model_param":{"num_parallel_tree":"1","num_trees":"100"},"iteration_indptr":[0,1,2,3,4,5,6,7,8,9,10,11,12,13,14,15,16,17,18,19,20,21,22,23,24,25,26,27,28,29,30,31,32,33,34,35,36,37,38,39,40,41,42,43,44,45,46,47,48,49,50,51,52,53,54,55,56,57,58,59,60,61,62,63,64,65,66,67,68,69,70,71,72,73,74,75,76,77,78,79,80,81,82,83,84,85,86,87,88,89,90,91,92,93,94,95,96,97,98,99,100],"tree_info":[0,0,0,0,0,0,0,0,0,0,0,0,0,0,0,0,0,0,0,0,0,0,0,0,0,0,0,0,0,0,0,0,0,0,0,0,0,0,0,0,0,0,0,0,0,0,0,0,0,0,0,0,0,0,0,0,0,0,0,0,0,0,0,0,0,0,0,0,0,0,0,0,0,0,0,0,0,0,0,0,0,0,0,0,0,0,0,0,0,0,0,0,0,0,0,0,0,0,0,0],"trees":[{"base_weights":[-4.8351744E-8,1.3886741E0,-8.382021E-1,1.4497095E0,1.455252E-1,-1.4380865E-1,-1.1152292E0,4.436868E-2,8.049895E-2,-5.02229E-2,6.152305E-2,-2.403877E-2,2.5890768E-2,-5.9491742E-2,2.166709E-2],"categories":[],"categories_nodes":[],"categories_segments":[],"categories_sizes":[],"default_left":[0,0,0,0,0,0,0,0,0,0,0,0,0,0,0],"id":0,"left_children":[1,3,5,7,9,11,13,-1,-1,-1,-1,-1,-1,-1,-1],"loss_changes":[1.5613155E2,3.6199112E0,1.5930279E1,2.8986359E0,5.5708528E0,5.8230352E0,7.406418E0,0E0,0E0,0E0,0E0,0E0,0E0,0E0,0E0],"parents":[2147483647,0,0,1,1,2,2,3,3,4,4,5,5,6,6],"right_children":[2,4,6,8,10,12,14,-1,-1,-1,-1,-1,-1,-1,-1],"split_conditions":[2.8763926E-1,9.4E-1,1.4702338E-2,2.1961052E-3,9.499674E-1,5.7E-1,8.191097E1,4.436868E-2,8.049895E-2,-5.02229E-2,6.152305E-2,-2.403877E-2,2.5890768E-2,-5.9491742E-2,2.166709E-2],"split_indices":[1,5,4,4,0,5,2,0,0,0,0,0,0,0,0],"split_type":[0,0,0,0,0,0,0,0,0,0,0,0,0,0,0],"sum_hessian":[1.3213484E2,4.94887E1,8.264613E1,4.7014267E1,2.474435E0,2.400202E1,5.864411E1,1.1877289E1,3.513698E1,1.2372175E0,1.2372175E0,1.6083828E1,7.9181924E0,5.6169678E1,2.474435E0],"tree_param":{"num_deleted":"0","num_feature":"6","num_nodes":"15","size_leaf_vector":"1"}},{"base_weights":[5.780615E-4,1.3144872E0,-8.0071557E-1,1.3716544E0,1.4141035E-1,-1.3669379E-1,-1.0670955E0,4.2162437E-2,7.608662E-2,-4.899205E-2,5.9642404E-2,-4.0780384E-2,8.414719E-3,-5.7931464E-2,8.511763E-3],"categories":[],"categories_nodes":[],"categories_segments":[],"categories_sizes":[],"default_left":[0,0,0,0,0,0,0,0,0,0,0,0,0,0,0],"id":1,"left_children":[1,3,5,7,9,11,13,-1,-1,-1,-1,-1,-1,-1,-1],"loss_changes":[1.4108885E2,3.2104874E0,1.4578445E1,2.5464706E0,5.264336E0,5.3096633E0,6.909294E0,0E0,0E0,0E0,0E0,0E0,0E0,0E0,0E0],"parents":[2147483647,0,0,1,1,2,2,3,3,4,4,5,5,6,6],"right_children":[2,4,6,8,10,12,14,-1,-1,-1,-1,-1,-1,-1,-1],"split_conditions":[2.8763926E-1,9.4E-1,1.4702338E-2,2.1961052E-3,9.499674E-1,5.6470596E1,8.040494E1,4.2162437E-2,7.608662E-2,-4.899205E-2,5.9642404E-2,-4.0780384E-2,8.414719E-3,-5.7931464E-2,8.511763E-3],"split_indices":[1,5,4,4,0,2,2,0,0,0,0,0,0,0,0],"split_type":[0,0,0,0,0,0,0,0,0,0,0,0,0,0,0],"sum_hessian":[1.3200981E2,4.9766113E1,8.224369E1,4.729216E1,2.4739544E0,2.3980118E1,5.8263577E1,1.192488E1,3.536728E1,1.2301834E0,1.2437712E0,6.9143395E0,1.7065779E1,5.4309532E1,3.9540415E0],"tree_param":{"num_deleted":"0","num_feature":"6","num_nodes":"15","size_leaf_vector":"1"}},{"base_weights":[7.582227E-4,1.2476414E0,-7.661425E-1,1.3014071E0,1.374742E-1,-1.3128614E-1,-1.0225501E0,4.010722E-2,7.2154544E-2,-4.782292E-2,5.7879526E-2,-2.250021E-2,2.451068E-2,-5.4649662E-2,2.0549458E-2],"categories":[],"categories_nodes":[],"categories_segments":[],"categories_sizes":[],"default_left":[0,0,0,0,0,0,0,0,0,0,0,0,0,0,0],"id":2,"left_children":[1,3,5,7,9,11,13,-1,-1,-1,-1,-1,-1,-1,-1],"loss_changes":[1.27833694E2,2.8598557E0,1.3339954E1,2.268982E0,4.9792824E0,5.164891E0,6.388401E0,0E0,0E0,0E0,0E0,0E0,0E0,0E0,0E0],"parents":[2147483647,0,0,1,1,2,2,3,3,4,4,5,5,6,6],"right_children":[2,4,6,8,10,12,14,-1,-1,-1,-1,-1,-1,-1,-1],"split_conditions":[2.8763926E-1,9.4E-1,1.4702338E-2,2.1961052E-3,9.499674E-1,5.7E-1,8.191097E1,4.010722E-2,7.2154544E-2,-4.782292E-2,5.7879526E-2,-2.250021E-2,2.451068E-2,-5.4649662E-2,2.0549458E-2],"split_indices":[1,5,4,4,0,5,2,0,0,0,0,0,0,0,0],"split_type":[0,0,0,0,0,0,0,0,0,0,0,0,0,0,0],"sum_hessian":[1.3168468E2,4.9910183E1,8.177449E1,4.7440372E1,2.4698105E0,2.3960691E1,5.78138E1,1.1959438E1,3.5480934E1,1.2218978E0,1.2479126E0,1.6020819E1,7.9398723E0,5.5332363E1,2.4814382E0],"tree_param":{"num_deleted":"0","num_feature":"6","num_nodes":"15","size_leaf_vector":"1"}},{"base_weights":[1.2826611E-3,1.1869558E0,-7.331821E-1,1.2376963E0,1.3370556E-1,-1.2481332E-1,-9.807623E-1,3.8186584E-2,6.8619564E-2,-4.6710644E-2,5.6223758E-2,-3.8495447E-2,8.1415875E-3,-5.337414E-2,8.474176E-3],"categories":[],"categories_nodes":[],"categories_segments":[],"categories_sizes":[],"default_left":[0,0,0,0,0,0,0,0,0,0,0,0,0,0,0],"id":3,"left_children":[1,3,5,7,9,11,13,-1,-1,-1,-1,-1,-1,-1,-1],"loss_changes":[1.1597141E2,2.556816E0,1.2263737E1,2.0466385E0,4.7138376E0,4.751678E0,5.9965973E0,0E0,0E0,0E0,0E0,0E0,0E0,0E0,0E0],"parents":[2147483647,0,0,1,1,2,2,3,3,4,4,5,5,6,6],"right_children":[2,4,6,8,10,12,14,-1,-1,-1,-1,-1,-1,-1,-1],"split_conditions":[2.8763926E-1,9.4E-1,1.4702338E-2,2.1961052E-3,9.499674E-1,5.6470596E1,8.040494E1,3.8186584E-2,6.8619564E-2,-4.6710644E-2,5.6223758E-2,-3.8495447E-2,8.1415875E-3,-5.337414E-2,8.474176E-3],"split_indices":[1,5,4,4,0,2,2,0,0,0,0,0,0,0,0],"split_type":[0,0,0,0,0,0,0,0,0,0,0,0,0,0,0],"sum_hessian":[1.3117332E2,4.9938957E1,8.123436E1,4.7476643E1,2.462313E0,2.3931818E1,5.7302544E1,1.198255E1,3.5494095E1,1.2124915E0,1.2498215E0,6.8632207E0,1.7068598E1,5.3352116E1,3.9504287E0],"tree_param":{"num_deleted":"0","num_feature":"6","num_nodes":"15","size_leaf_vector":"1"}},{"base_weights":[1.4304322E-3,1.1314884E0,-7.0261157E-1,9.6643394E-1,7.999023E-2,-1.1994473E-1,-9.417589E-1,5.1628143E-2,-2.2193668E-2,-2.1076553E-2,2.320884E-2,-5.237464E-2,1.5394994E-4],"categories":[],"categories_nodes":[],"categories_segments":[],"categories_sizes":[],"default_left":[0,0,0,0,0,0,0,0,0,0,0,0,0],"id":4,"left_children":[1,3,5,7,-1,9,11,-1,-1,-1,-1,-1,-1],"loss_changes":[1.0543286E2,2.3858948E0,1.1264538E1,4.201687E0,0E0,4.5832357E0,5.7719955E0,0E0,0E0,0E0,0E0,0E0,0E0],"parents":[2147483647,0,0,1,1,2,2,3,3,5,5,6,6],"right_children":[2,4,6,8,-1,10,12,-1,-1,-1,-1,-1,-1],"split_conditions":[2.8763926E-1,9.9835545E-1,1.4702338E-2,9.979352E-1,7.999023E-2,5.7E-1,9.5E-1,5.1628143E-2,-2.2193668E-2,-2.1076553E-2,2.320884E-2,-5.237464E-2,1.5394994E-4],"split_indices":[1,0,4,0,0,5,5,0,0,0,0,0,0],"split_type":[0,0,0,0,0,0,0,0,0,0,0,0,0],"sum_hessian":[1.305193E2,4.9868397E1,8.065091E1,3.9138107E1,1.0730292E1,2.3906303E1,5.6744606E1,3.764098E1,1.4971274E0,1.5949703E1,7.9566007E0,5.0935883E1,5.8087254E0],"tree_param":{"num_deleted":"0","num_feature":"6","num_nodes":"13","size_leaf_vector":"1"}},{"base_weights":[1.7245988E-3,1.0794982E0,-6.73377E-1,1.1679014E0,4.328429E-1,-1.1404462E-1,-9.04971E-1,3.1137927E-2,6.6254474E-2,4.1123174E-2,-1.8367002E-2,-3.6387216E-2,7.8682415E-3,-5.3454615E-2,-1.4653029E-2],"categories":[],"categories_nodes":[],"categories_segments":[],"categories_sizes":[],"default_left":[0,0,0,0,0,0,0,0,0,0,0,0,0,0,0],"id":5,"left_children":[1,3,5,7,9,11,13,-1,-1,-1,-1,-1,-1,-1,-1],"loss_changes":[9.589077E1,2.3960533E0,1.0393726E1,2.9505882E0,2.700614E0,4.2572885E0,5.4272957E0,0E0,0E0,0E0,0E0,0E0,0E0,0E0,0E0],"parents":[2147483647,0,0,1,1,2,2,3,3,4,4,5,5,6,6],"right_children":[2,4,6,8,10,12,14,-1,-1,-1,-1,-1,-1,-1,-1],"split_conditions":[2.8763926E-1,5.6754818E1,1.4702338E-2,2.1961052E-3,8.1E-1,5.6470596E1,6.9E-1,3.1137927E-2,6.6254474E-2,4.1123174E-2,-1.8367002E-2,-3.6387216E-2,7.8682415E-3,-5.3454615E-2,-1.4653029E-2],"split_indices":[1,2,4,4,5,2,5,0,0,0,0,0,0,0,0],"split_type":[0,0,0,0,0,0,0,0,0,0,0,0,0,0,0],"sum_hessian":[1.2979025E2,4.9756657E1,8.00336E1,4.306346E1,6.6931963E0,2.3871937E1,5.6161663E1,1.0748508E1,3.2314953E1,4.482674E0,2.2105224E0,6.8045106E0,1.7067427E1,4.369503E1,1.2466636E1],"tree_param":{"num_deleted":"0","num_feature":"6","num_nodes":"15","size_leaf_vector":"1"}},{"base_weights":[1.7543159E-3,1.0323852E0,-6.4620435E-1,1.1268872E0,4.251112E-1,-1.0965569E-1,-8.704677E-1,3.1471428E-2,6.544945E-2,-3.0350244E-2,4.4735987E-2,-1.9755997E-2,2.1979742E-2,-4.686505E-2,2.0934481E-2],"categories":[],"categories_nodes":[],"categories_segments":[],"categories_sizes":[],"default_left":[0,0,0,0,0,0,0,0,0,0,0,0,0,0,0],"id":6,"left_children":[1,3,5,7,9,11,13,-1,-1,-1,-1,-1,-1,-1,-1],"loss_changes":[8.743879E1,2.4214668E0,9.578163E0,3.083149E0,4.620211E0,4.0686436E0,5.2648773E0,0E0,0E0,0E0,0E0,0E0,0E0,0E0,0E0],"parents":[2147483647,0,0,1,1,2,2,3,3,4,4,5,5,6,6],"right_children":[2,4,6,8,10,12,14,-1,-1,-1,-1,-1,-1,-1,-1],"split_conditions":[2.8763926E-1,1.3457584E-1,1.4702338E-2,2.1961052E-3,2.003605E-1,5.7E-1,8.191097E1,3.1471428E-2,6.544945E-2,-3.0350244E-2,4.4735987E-2,-1.9755997E-2,2.1979742E-2,-4.686505E-2,2.0934481E-2],"split_indices":[1,4,4,4,4,5,2,0,0,0,0,0,0,0,0],"split_type":[0,0,0,0,0,0,0,0,0,0,0,0,0,0,0],"sum_hessian":[1.2893536E2,4.9541805E1,7.939356E1,4.2130024E1,7.4117837E0,2.3841614E1,5.5551945E1,1.2483771E1,2.9646252E1,2.2262673E0,5.1855164E0,1.5872667E1,7.9689465E0,5.3073418E1,2.4785287E0],"tree_param":{"num_deleted":"0","num_feature":"6","num_nodes":"15","size_leaf_vector":"1"}},{"base_weights":[2.2949616E-3,9.8799807E-1,-6.19691E-1,8.296756E-1,7.235159E-2,-9.305316E-2,-8.3246833E-1,4.4701405E-2,-2.4617506E-2,-1.8438032E-2,2.8714115E-2,-4.65984E-2,2.0327312E-3],"categories":[],"categories_nodes":[],"categories_segments":[],"categories_sizes":[],"default_left":[0,0,0,0,0,0,0,0,0,0,0,0,0],"id":7,"left_children":[1,3,5,7,-1,9,11,-1,-1,-1,-1,-1,-1],"loss_changes":[7.96998E1,2.454441E0,8.854034E0,3.820959E0,0E0,4.6389565E0,4.958782E0,0E0,0E0,0E0,0E0,0E0,0E0],"parents":[2147483647,0,0,1,1,2,2,3,3,5,5,6,6],"right_children":[2,4,6,8,-1,10,12,-1,-1,-1,-1,-1,-1],"split_conditions":[2.8763926E-1,9.9835545E-1,1.3477123E-2,9.979352E-1,7.235159E-2,9.9709046E-1,9.5E-1,4.4701405E-2,-2.4617506E-2,-1.8438032E-2,2.8714115E-2,-4.65984E-2,2.0327312E-3],"split_indices":[1,0,4,0,0,1,5,0,0,0,0,0,0],"split_type":[0,0,0,0,0,0,0,0,0,0,0,0,0],"sum_hessian":[1.2799751E2,4.929227E1,7.8705246E1,3.8738613E1,1.0553657E1,2.3062174E1,5.564307E1,3.7249176E1,1.4894402E0,1.6636337E1,6.425835E0,4.9890263E1,5.7528057E0],"tree_param":{"num_deleted":"0","num_feature":"6","num_nodes":"13","size_leaf_vector":"1"}},{"base_weights":[2.5884868E-3,9.459958E-1,-5.943961E-1,6.274166E-2,7.276178E-1,-9.809166E-2,-8.06172E-1,4.103186E-2,-3.5089877E-2,-3.3737287E-2,7.686769E-3,-4.8250925E-2,-1.1484305E-2],"categories":[],"categories_nodes":[],"categories_segments":[],"categories_sizes":[],"default_left":[0,0,0,0,0,0,0,0,0,0,0,0,0],"id":8,"left_children":[1,3,5,-1,7,9,11,-1,-1,-1,-1,-1,-1],"loss_changes":[7.266953E1,2.4594574E0,8.227026E0,0E0,4.787199E0,3.7013597E0,4.8379593E0,0E0,0E0,0E0,0E0,0E0,0E0],"parents":[2147483647,0,0,1,1,2,2,4,4,5,5,6,6],"right_children":[2,4,6,-1,8,10,12,-1,-1,-1,-1,-1,-1],"split_conditions":[2.8763926E-1,4.8832004E-3,1.4702338E-2,6.274166E-2,9.4E-1,5.6470596E1,6.9E-1,4.103186E-2,-3.5089877E-2,-3.3737287E-2,7.686769E-3,-4.8250925E-2,-1.1484305E-2],"split_indices":[1,1,4,0,5,2,5,0,0,0,0,0,0],"split_type":[0,0,0,0,0,0,0,0,0,0,0,0,0],"sum_hessian":[1.2703139E2,4.900491E1,7.8026474E1,1.8332434E1,3.0672478E1,2.377413E1,5.4252342E1,2.9198288E1,1.4741892E0,6.715965E0,1.7058165E1,4.2004375E1,1.2247969E1],"tree_param":{"num_deleted":"0","num_feature":"6","num_nodes":"13","size_leaf_vector":"1"}},{"base_weights":[2.2857548E-3,9.065518E-1,-5.7100576E-1,7.553561E-1,1.3515892E0,-3.8157593E-2,-7.5383866E-1,4.094351E-2,-2.580589E-2,2.1844573E-2,7.079921E-2,-1.796679E-2,2.2304615E-2,-4.615109E-2,-6.850467E-3],"categories":[],"categories_nodes":[],"categories_segments":[],"categories_sizes":[],"default_left":[0,0,0,0,0,0,0,0,0,0,0,0,0,0,0],"id":9,"left_children":[1,3,5,7,9,11,13,-1,-1,-1,-1,-1,-1,-1,-1],"loss_changes":[6.634808E1,2.320366E0,7.602211E0,3.5989132E0,4.8454285E-2,3.4363563E0,5.9539185E0,0E0,0E0,0E0,0E0,0E0,0E0,0E0,0E0],"parents":[2147483647,0,0,1,1,2,2,3,3,4,4,5,5,6,6],"right_children":[2,4,6,8,10,12,14,-1,-1,-1,-1,-1,-1,-1,-1],"split_conditions":[2.8763926E-1,9.9835545E-1,1.0913131E-2,9.979352E-1,1.4669773E-4,4.9216E-3,6.9E-1,4.094351E-2,-2.580589E-2,2.1844573E-2,7.079921E-2,-1.796679E-2,2.2304615E-2,-4.615109E-2,-6.850467E-3],"split_indices":[1,0,4,0,1,4,5,0,0,0,0,0,0,0,0],"split_type":[0,0,0,0,0,0,0,0,0,0,0,0,0,0,0],"sum_hessian":[1.2598577E2,4.865686E1,7.732891E1,3.8331512E1,1.0325349E1,2.0063772E1,5.7265137E1,3.6846863E1,1.4846494E0,1.1910883E0,9.13426E0,1.221809E1,7.845681E0,4.454971E1,1.271543E1],"tree_param":{"num_deleted":"0","num_feature":"6","num_nodes":"15","size_leaf_vector":"1"}},{"base_weights":[2.6082867E-3,-5.1333725E-1,9.283954E-1,-4.6966732E-3,-6.9003624E-1,5.2776366E-1,1.0578706E0,-1.5379213E-2,2.2933118E-2,-4.1783866E-2,-8.351683E-3,6.2461633E-2,1.3251211E-2,5.6669574E-2,1.7327545E-2],"categories":[],"categories_nodes":[],"categories_segments":[],"categories_sizes":[],"default_left":[0,0,0,0,0,0,0,0,0,0,0,0,0,0,0],"id":10,"left_children":[1,3,5,7,9,11,13,-1,-1,-1,-1,-1,-1,-1,-1],"loss_changes":[6.0632843E1,7.3230095E0,1.7980156E0,3.2319906E0,4.468069E0,2.1503446E0,1.3979797E0,0E0,0E0,0E0,0E0,0E0,0E0,0E0,0E0],"parents":[2147483647,0,0,1,1,2,2,3,3,4,4,5,5,6,6],"right_children":[2,4,6,8,10,12,14,-1,-1,-1,-1,-1,-1,-1,-1],"split_conditions":[8.398855E-1,1.0913131E-2,2.1961052E-3,4.9216E-3,6.9E-1,2E-1,5.644141E1,-1.5379213E-2,2.2933118E-2,-4.1783866E-2,-8.351683E-3,6.2461633E-2,1.3251211E-2,5.6669574E-2,1.7327545E-2],"split_indices":[0,4,4,4,5,5,2,0,0,0,0,0,0,0,0],"split_type":[0,0,0,0,0,0,0,0,0,0,0,0,0,0,0],"sum_hessian":[1.24940636E2,8.051484E1,4.4425793E1,2.1023571E1,5.9491272E1,1.2090542E1,3.233525E1,1.2916515E1,8.107055E0,4.6065514E1,1.3425757E1,2.2253106E0,9.865231E0,2.8695305E1,3.6399457E0],"tree_param":{"num_deleted":"0","num_feature":"6","num_nodes":"15","size_leaf_vector":"1"}},{"base_weights":[3.3353716E-3,8.3882505E-1,-5.2760637E-1,9.315143E-1,2.642505E-1,-8.104388E-2,-7.244055E-1,2.2892633E-2,5.5704195E-2,-3.522251E-2,3.669247E-2,-1.9657535E-2,1.8275158E-2,-4.0302128E-2,1.2467811E-2],"categories":[],"categories_nodes":[],"categories_segments":[],"categories_sizes":[],"default_left":[0,0,0,0,0,0,0,0,0,0,0,0,0,0,0],"id":11,"left_children":[1,3,5,7,9,11,13,-1,-1,-1,-1,-1,-1,-1,-1],"loss_changes":[5.585321E1,2.359291E0,6.707428E0,3.0985985E0,4.2434034E0,3.5828896E0,4.43915E0,0E0,0E0,0E0,0E0,0E0,0E0,0E0,0E0],"parents":[2147483647,0,0,1,1,2,2,3,3,4,4,5,5,6,6],"right_children":[2,4,6,8,10,12,14,-1,-1,-1,-1,-1,-1,-1,-1],"split_conditions":[2.8763926E-1,1.3457584E-1,1.4702338E-2,2.1961052E-3,2.003605E-1,5.5E-1,8.040494E1,2.2892633E-2,5.5704195E-2,-3.522251E-2,3.669247E-2,-1.9657535E-2,1.8275158E-2,-4.0302128E-2,1.2467811E-2],"split_indices":[1,4,4,4,4,5,2,0,0,0,0,0,0,0,0],"split_type":[0,0,0,0,0,0,0,0,0,0,0,0,0,0,0],"sum_hessian":[1.239123E2,4.792215E1,7.599015E1,4.0730377E1,7.1917706E0,2.3676632E1,5.2313515E1,1.2307476E1,2.8422903E1,2.1847997E0,5.006971E0,1.4006554E1,9.670078E0,4.8425884E1,3.8876305E0],"tree_param":{"num_deleted":"0","num_feature":"6","num_nodes":"15","size_leaf_vector":"1"}},{"base_weights":[3.5828531E-3,-4.7391912E-1,8.6072904E-1,-5.021766E-2,-6.607182E-1,7.122366E-1,1.2528208E0,-1.2909646E-2,2.8624186E-2,-3.599626E-2,2.1745361E-2,3.9244868E-2,-2.757371E-2,1.8585904E-2,6.592619E-2],"categories":[],"categories_nodes":[],"categories_segments":[],"categories_sizes":[],"default_left":[0,0,0,0,0,0,0,0,0,0,0,0,0,0,0],"id":12,"left_children":[1,3,5,7,9,11,13,-1,-1,-1,-1,-1,-1,-1,-1],"loss_changes":[5.1062637E1,6.3087616E0,1.7064133E0,3.463146E0,3.915182E0,3.618269E0,1.4337921E-1,0E0,0E0,0E0,0E0,0E0,0E0,0E0,0E0],"parents":[2147483647,0,0,1,1,2,2,3,3,4,4,5,5,6,6],"right_children":[2,4,6,8,10,12,14,-1,-1,-1,-1,-1,-1,-1,-1],"split_conditions":[8.398855E-1,1.4702338E-2,9.9835545E-1,6.2E-1,8.191097E1,9.979352E-1,1.4669773E-4,-1.2909646E-2,2.8624186E-2,-3.599626E-2,2.1745361E-2,3.9244868E-2,-2.757371E-2,1.8585904E-2,6.592619E-2],"split_indices":[0,4,0,5,2,0,1,0,0,0,0,0,0,0,0],"split_type":[0,0,0,0,0,0,0,0,0,0,0,0,0,0,0],"sum_hessian":[1.22762726E2,7.912859E1,4.3634136E1,2.4599756E1,5.4528835E1,3.369117E1,9.9429655E0,1.887956E1,5.7201953E0,5.2058533E1,2.470304E0,3.2217617E1,1.4735507E0,1.1519804E0,8.790985E0],"tree_param":{"num_deleted":"0","num_feature":"6","num_nodes":"15","size_leaf_vector":"1"}},{"base_weights":[4.2191423E-3,7.77095E-1,-4.875395E-1,1.0792744E0,5.705954E-1,-7.415934E-2,-6.738351E-1,4.2435355E-2,6.7481525E-2,3.3195708E-2,-3.7953164E-2,-1.6035913E-2,2.309495E-2,-3.85024E-2,4.8634866E-3],"categories":[],"categories_nodes":[],"categories_segments":[],"categories_sizes":[],"default_left":[0,0,0,0,0,0,0,0,0,0,0,0,0,0,0],"id":13,"left_children":[1,3,5,7,9,11,13,-1,-1,-1,-1,-1,-1,-1,-1],"loss_changes":[4.7004417E1,2.3849163E0,5.7711163E0,1.5335083E-3,4.311882E0,3.4002898E0,3.9314613E0,0E0,0E0,0E0,0E0,0E0,0E0,0E0,0E0],"parents":[2147483647,0,0,1,1,2,2,3,3,4,4,5,5,6,6],"right_children":[2,4,6,8,10,12,14,-1,-1,-1,-1,-1,-1,-1,-1],"split_conditions":[2.8763926E-1,4.8832004E-3,1.4702338E-2,4.896984E1,9.4E-1,9.9709046E-1,9.5E-1,4.2435355E-2,6.7481525E-2,3.3195708E-2,-3.7953164E-2,-1.6035913E-2,2.309495E-2,-3.85024E-2,4.8634866E-3],"split_indices":[1,1,4,2,5,1,5,0,0,0,0,0,0,0,0],"split_type":[0,0,0,0,0,0,0,0,0,0,0,0,0,0,0],"sum_hessian":[1.21676735E2,4.7088898E1,7.458784E1,1.7400099E1,2.96888E1,2.3605822E1,5.0982014E1,1.16251E1,5.7749996E0,2.8209665E1,1.4791358E0,1.6444101E1,7.16172E0,4.5327717E1,5.6542945E0],"tree_param":{"num_deleted":"0","num_feature":"6","num_nodes":"15","size_leaf_vector":"1"}},{"base_weights":[4.6616523E-3,7.2645044E-1,-4.8288345E-1,1.0449901E0,5.2437526E-1,-5.382638E-1,6.1752176E-1,4.0902127E-2,6.5686874E-2,3.0445877E-2,-3.6863554E-2,-1.3393921E-2,-3.998693E-2,-3.7634193E-3,4.7711294E-2],"categories":[],"categories_nodes":[],"categories_segments":[],"categories_sizes":[],"default_left":[0,0,0,0,0,0,0,0,0,0,0,0,0,0,0],"id":14,"left_children":[1,3,5,7,9,11,13,-1,-1,-1,-1,-1,-1,-1,-1],"loss_changes":[4.311715E1,2.6314487E0,4.789278E0,3.3205032E-2,3.8865461E0,4.746334E0,9.9788976E-1,0E0,0E0,0E0,0E0,0E0,0E0,0E0,0E0],"parents":[2147483647,0,0,1,1,2,2,3,3,4,4,5,5,6,6],"right_children":[2,4,6,8,10,12,14,-1,-1,-1,-1,-1,-1,-1,-1],"split_conditions":[7.485447E-1,4.8832004E-3,8.191097E1,4.896984E1,9.4E-1,6.528319E1,9.6E-1,4.0902127E-2,6.5686874E-2,3.0445877E-2,-3.6863554E-2,-1.3393921E-2,-3.998693E-2,-3.7634193E-3,4.7711294E-2],"split_indices":[1,1,2,2,5,2,5,0,0,0,0,0,0,0,0],"split_type":[0,0,0,0,0,0,0,0,0,0,0,0,0,0,0],"sum_hessian":[1.2052827E2,4.8393635E1,7.2134636E1,1.7164774E1,3.1228859E1,6.916462E1,2.970016E0,1.1498559E1,5.666215E0,2.9752522E1,1.4763385E0,3.499821E1,3.4166405E1,1.2253124E0,1.7447035E0],"tree_param":{"num_deleted":"0","num_feature":"6","num_nodes":"15","size_leaf_vector":"1"}},{"base_weights":[5.21571E-3,-4.1964906E-1,7.7110744E-1,1.9553635E-2,-5.79921E-1,3.9240423E-1,9.003016E-1,-1.3599644E-2,2.3032539E-2,-3.6147553E-2,-4.339454E-3,5.6983065E-2,6.67988E-3,5.038729E-2,1.9034674E-2],"categories":[],"categories_nodes":[],"categories_segments":[],"categories_sizes":[],"default_left":[0,0,0,0,0,0,0,0,0,0,0,0,0,0,0],"id":15,"left_children":[1,3,5,7,9,11,13,-1,-1,-1,-1,-1,-1,-1,-1],"loss_changes":[3.9540226E1,5.513485E0,1.7678452E0,2.9371371E0,3.9787464E0,2.323293E0,1.3779316E0,0E0,0E0,0E0,0E0,0E0,0E0,0E0,0E0],"parents":[2147483647,0,0,1,1,2,2,3,3,4,4,5,5,6,6],"right_children":[2,4,6,8,10,12,14,-1,-1,-1,-1,-1,-1,-1,-1],"split_conditions":[8.398855E-1,1.0913131E-2,2.1961052E-3,4.9216E-3,6.9E-1,2E-1,1.3457584E-1,-1.3599644E-2,2.3032539E-2,-3.6147553E-2,-4.339454E-3,5.6983065E-2,6.67988E-3,5.038729E-2,1.9034674E-2],"split_indices":[0,4,4,4,5,5,4,0,0,0,0,0,0,0,0],"split_type":[0,0,0,0,0,0,0,0,0,0,0,0,0,0,0],"sum_hessian":[1.1951807E2,7.7164505E1,4.2353558E1,2.0864977E1,5.629953E1,1.1800477E1,3.055308E1,1.279283E1,8.072146E0,4.3280293E1,1.3019237E1,2.160089E0,9.6403885E0,2.4539404E1,6.0136757E0],"tree_param":{"num_deleted":"0","num_feature":"6","num_nodes":"15","size_leaf_vector":"1"}},{"base_weights":[5.8505354E-3,6.7631114E-1,-4.4619203E-1,5.3566587E-1,1.1431491E0,-4.998895E-1,5.997384E-1,2.99157E-2,-4.111402E-2,1.4976988E-2,6.0546048E-2,-1.178582E-2,-3.7885487E-2,-3.3746627E-3,4.6068564E-2],"categories":[],"categories_nodes":[],"categories_segments":[],"categories_sizes":[],"default_left":[0,0,0,0,0,0,0,0,0,0,0,0,0,0,0],"id":16,"left_children":[1,3,5,7,9,11,13,-1,-1,-1,-1,-1,-1,-1,-1],"loss_changes":[3.6503315E1,2.5720806E0,4.34062E0,3.8228283E0,2.2884846E-1,4.5195007E0,9.137211E-1,0E0,0E0,0E0,0E0,0E0,0E0,0E0,0E0],"parents":[2147483647,0,0,1,1,2,2,3,3,4,4,5,5,6,6],"right_children":[2,4,6,8,10,12,14,-1,-1,-1,-1,-1,-1,-1,-1],"split_conditions":[7.485447E-1,9.9835545E-1,8.191097E1,3.293342E-1,1.4669773E-4,6.528319E1,9.6E-1,2.99157E-2,-4.111402E-2,1.4976988E-2,6.0546048E-2,-1.178582E-2,-3.7885487E-2,-3.3746627E-3,4.6068564E-2],"split_indices":[1,0,2,4,1,2,5,0,0,0,0,0,0,0,0],"split_type":[0,0,0,0,0,0,0,0,0,0,0,0,0,0,0],"sum_hessian":[1.1844682E2,4.7499855E1,7.094697E1,3.8152893E1,9.346963E0,6.797903E1,2.9679422E0,3.700508E1,1.1478115E0,1.0980834E0,8.248879E0,3.452133E1,3.345769E1,1.2223386E0,1.7456037E0],"tree_param":{"num_deleted":"0","num_feature":"6","num_nodes":"15","size_leaf_vector":"1"}},{"base_weights":[6.0945977E-3,6.499099E-1,-4.2742628E-1,5.119948E-1,1.1140232E0,-7.34987E-2,-5.933018E-1,2.8658388E-2,-3.9916202E-2,1.4626332E-2,5.903634E-2,-1.705282E-2,2.4411706E-2,-3.4504645E-2,6.468548E-3],"categories":[],"categories_nodes":[],"categories_segments":[],"categories_sizes":[],"default_left":[0,0,0,0,0,0,0,0,0,0,0,0,0,0,0],"id":17,"left_children":[1,3,5,7,9,11,13,-1,-1,-1,-1,-1,-1,-1,-1],"loss_changes":[3.3337315E1,2.505869E0,4.147394E0,3.5757036E0,2.1130371E-1,3.7618883E0,3.4793472E0,0E0,0E0,0E0,0E0,0E0,0E0,0E0,0E0],"parents":[2147483647,0,0,1,1,2,2,3,3,4,4,5,5,6,6],"right_children":[2,4,6,8,10,12,14,-1,-1,-1,-1,-1,-1,-1,-1],"split_conditions":[7.485447E-1,9.9835545E-1,1.4702338E-2,3.293342E-1,1.4669773E-4,9.9709046E-1,9.5E-1,2.8658388E-2,-3.9916202E-2,1.4626332E-2,5.903634E-2,-1.705282E-2,2.4411706E-2,-3.4504645E-2,6.468548E-3],"split_indices":[1,0,4,4,1,1,5,0,0,0,0,0,0,0,0],"split_type":[0,0,0,0,0,0,0,0,0,0,0,0,0,0,0],"sum_hessian":[1.1744734E2,4.7060043E1,7.038731E1,3.79007E1,9.159343E0,2.2921957E1,4.7465347E1,3.6747684E1,1.1530138E0,1.0923114E0,8.067032E0,1.5792646E1,7.12931E0,4.1898727E1,5.56662E0],"tree_param":{"num_deleted":"0","num_feature":"6","num_nodes":"15","size_leaf_vector":"1"}},{"base_weights":[6.1805113E-3,-3.714857E-1,6.919297E-1,3.2035634E-3,-5.392914E-1,3.2082793E-1,8.2272744E-1,-2.5457177E-2,1.2249926E-2,-3.040242E-2,1.3390667E-2,5.4039907E-2,3.2640514E-3,4.5099642E-2,7.816516E-3],"categories":[],"categories_nodes":[],"categories_segments":[],"categories_sizes":[],"default_left":[0,0,0,0,0,0,0,0,0,0,0,0,0,0,0],"id":18,"left_children":[1,3,5,7,9,11,13,-1,-1,-1,-1,-1,-1,-1,-1],"loss_changes":[3.0647797E1,4.800461E0,1.7758617E0,3.1725223E0,3.0884743E0,2.3747058E0,1.4665394E0,0E0,0E0,0E0,0E0,0E0,0E0,0E0,0E0],"parents":[2147483647,0,0,1,1,2,2,3,3,4,4,5,5,6,6],"right_children":[2,4,6,8,10,12,14,-1,-1,-1,-1,-1,-1,-1,-1],"split_conditions":[8.398855E-1,1.3477123E-2,2.1961052E-3,5.6470596E1,8.040494E1,2E-1,5.644141E1,-2.5457177E-2,1.2249926E-2,-3.040242E-2,1.3390667E-2,5.4039907E-2,3.2640514E-3,4.5099642E-2,7.816516E-3],"split_indices":[0,4,4,2,2,5,2,0,0,0,0,0,0,0,0],"split_type":[0,0,0,0,0,0,0,0,0,0,0,0,0,0,0],"sum_hessian":[1.16345924E2,7.5321815E1,4.10241E1,2.360212E1,5.17197E1,1.1590939E1,2.9433165E1,7.212865E0,1.6389254E1,4.7886864E1,3.8328366E0,2.1041272E0,9.486812E0,2.5988407E1,3.4447575E0],"tree_param":{"num_deleted":"0","num_feature":"6","num_nodes":"15","size_leaf_vector":"1"}},{"base_weights":[6.620452E-3,6.054903E-1,-3.9608434E-1,4.7065553E-1,1.0694047E0,-4.4744062E-1,5.743913E-1,2.6512077E-2,-3.8880657E-2,1.3234374E-2,5.6866497E-2,-9.287336E-3,-3.530637E-2,-2.9366089E-3,4.385013E-2],"categories":[],"categories_nodes":[],"categories_segments":[],"categories_sizes":[],"default_left":[0,0,0,0,0,0,0,0,0,0,0,0,0,0,0],"id":19,"left_children":[1,3,5,7,9,11,13,-1,-1,-1,-1,-1,-1,-1,-1],"loss_changes":[2.8281849E1,2.4457932E0,3.7522497E0,3.2622156E0,2.3633766E-1,4.4158087E0,8.106868E-1,0E0,0E0,0E0,0E0,0E0,0E0,0E0,0E0],"parents":[2147483647,0,0,1,1,2,2,3,3,4,4,5,5,6,6],"right_children":[2,4,6,8,10,12,14,-1,-1,-1,-1,-1,-1,-1,-1],"split_conditions":[7.485447E-1,9.9835545E-1,8.191097E1,3.293342E-1,1.4669773E-4,6.528319E1,9.6E-1,2.6512077E-2,-3.8880657E-2,1.3234374E-2,5.6866497E-2,-9.287336E-3,-3.530637E-2,-2.9366089E-3,4.385013E-2],"split_indices":[1,0,2,4,1,2,5,0,0,0,0,0,0,0,0],"split_type":[0,0,0,0,0,0,0,0,0,0,0,0,0,0,0],"sum_hessian":[1.1527601E2,4.6146748E1,6.912926E1,3.7315643E1,8.831107E0,6.616675E1,2.9625094E0,3.6164547E1,1.1510938E0,1.0685568E0,7.7625504E0,3.3746254E1,3.2420498E1,1.2186872E0,1.7438222E0],"tree_param":{"num_deleted":"0","num_feature":"6","num_nodes":"15","size_leaf_vector":"1"}},{"base_weights":[6.8205977E-3,6.009583E-1,-3.6737898E-1,4.667334E-1,1.0441179E0,-1.1378915E-2,-5.397324E-1,2.6707968E-2,-3.5088863E-2,1.2927244E-2,5.5568237E-2,-2.7655333E-2,1.07520325E-2,-3.4490358E-2,-2.6707689E-3],"categories":[],"categories_nodes":[],"categories_segments":[],"categories_sizes":[],"default_left":[0,0,0,0,0,0,0,0,0,0,0,0,0,0,0],"id":20,"left_children":[1,3,5,7,9,11,13,-1,-1,-1,-1,-1,-1,-1,-1],"loss_changes":[2.5855494E1,2.1856213E0,4.3727236E0,3.2347274E0,2.2181225E-1,3.0997396E0,3.471077E0,0E0,0E0,0E0,0E0,0E0,0E0,0E0,0E0],"parents":[2147483647,0,0,1,1,2,2,3,3,4,4,5,5,6,6],"right_children":[2,4,6,8,10,12,14,-1,-1,-1,-1,-1,-1,-1,-1],"split_conditions":[2.8763926E-1,9.9835545E-1,1.4702338E-2,9.979352E-1,1.4669773E-4,5.6470596E1,6.9E-1,2.6707968E-2,-3.5088863E-2,1.2927244E-2,5.5568237E-2,-2.7655333E-2,1.07520325E-2,-3.4490358E-2,-2.6707689E-3],"split_indices":[1,0,4,0,1,2,5,0,0,0,0,0,0,0,0],"split_type":[0,0,0,0,0,0,0,0,0,0,0,0,0,0,0],"sum_hessian":[1.1430233E2,4.3936264E1,7.036606E1,3.5298267E1,8.638E0,2.3301758E1,4.7064304E1,3.388584E1,1.4124256E0,1.0631428E0,7.574857E0,6.443148E0,1.685861E1,3.564578E1,1.1418524E1],"tree_param":{"num_deleted":"0","num_feature":"6","num_nodes":"15","size_leaf_vector":"1"}},{"base_weights":[6.5772836E-3,-3.2943428E-1,6.221508E-1,5.0459065E-2,-4.7594467E-1,2.5824702E-1,7.545739E-1,-1.14487E-2,2.33426E-2,-3.0718977E-2,-1.0834872E-3,5.1486768E-2,3.0436146E-4,4.3328524E-2,1.23259155E-2],"categories":[],"categories_nodes":[],"categories_segments":[],"categories_sizes":[],"default_left":[0,0,0,0,0,0,0,0,0,0,0,0,0,0,0],"id":21,"left_children":[1,3,5,7,9,11,13,-1,-1,-1,-1,-1,-1,-1,-1],"loss_changes":[2.3829931E1,4.172846E0,1.7653608E0,2.626036E0,3.375719E0,2.4008253E0,1.4538021E0,0E0,0E0,0E0,0E0,0E0,0E0,0E0,0E0],"parents":[2147483647,0,0,1,1,2,2,3,3,4,4,5,5,6,6],"right_children":[2,4,6,8,10,12,14,-1,-1,-1,-1,-1,-1,-1,-1],"split_conditions":[8.398855E-1,1.0913131E-2,2.1961052E-3,4.9216E-3,6.9E-1,2E-1,1.3457584E-1,-1.14487E-2,2.33426E-2,-3.0718977E-2,-1.0834872E-3,5.1486768E-2,3.0436146E-4,4.3328524E-2,1.23259155E-2],"split_indices":[0,4,4,4,5,5,4,0,0,0,0,0,0,0,0],"split_type":[0,0,0,0,0,0,0,0,0,0,0,0,0,0,0],"sum_hessian":[1.132187E2,7.354105E1,3.9677643E1,2.0650652E1,5.2890404E1,1.1373362E1,2.830428E1,1.2627013E1,8.023639E0,4.026706E1,1.26233425E1,2.0420384E0,9.331323E0,2.2613632E1,5.6906476E0],"tree_param":{"num_deleted":"0","num_feature":"6","num_nodes":"15","size_leaf_vector":"1"}},{"base_weights":[7.0848456E-3,5.4384744E-1,-3.5203117E-1,4.141872E-1,1.0065037E0,-4.0165192E-1,5.5916935E-1,2.3851408E-2,-3.4781914E-2,1.1626597E-2,5.3779043E-2,-7.048034E-3,-3.310787E-2,-2.434232E-3,4.2317912E-2],"categories":[],"categories_nodes":[],"categories_segments":[],"categories_sizes":[],"default_left":[0,0,0,0,0,0,0,0,0,0,0,0,0,0,0],"id":22,"left_children":[1,3,5,7,9,11,13,-1,-1,-1,-1,-1,-1,-1,-1],"loss_changes":[2.2014803E1,2.329111E0,3.319047E0,2.9440045E0,2.4823761E-1,4.353979E0,7.311927E-1,0E0,0E0,0E0,0E0,0E0,0E0,0E0,0E0],"parents":[2147483647,0,0,1,1,2,2,3,3,4,4,5,5,6,6],"right_children":[2,4,6,8,10,12,14,-1,-1,-1,-1,-1,-1,-1,-1],"split_conditions":[7.485447E-1,9.9835545E-1,8.191097E1,9.979352E-1,1.4669773E-4,6.528319E1,9.6E-1,2.3851408E-2,-3.4781914E-2,1.1626597E-2,5.3779043E-2,-7.048034E-3,-3.310787E-2,-2.434232E-3,4.2317912E-2],"split_indices":[1,0,2,0,1,2,5,0,0,0,0,0,0,0,0],"split_type":[0,0,0,0,0,0,0,0,0,0,0,0,0,0,0],"sum_hessian":[1.122151E2,4.4775608E1,6.74395E1,3.645443E1,8.321181E0,6.448697E1,2.9525254E0,3.5040527E1,1.4139005E0,1.039574E0,7.281607E0,3.3002266E1,3.1484703E1,1.2138376E0,1.7386878E0],"tree_param":{"num_deleted":"0","num_feature":"6","num_nodes":"15","size_leaf_vector":"1"}},{"base_weights":[7.2799586E-3,-3.0331293E-1,5.805729E-1,6.0483806E-2,-4.4607365E-1,4.4597214E-1,9.83992E-1,-2.0430017E-2,1.4813987E-2,-2.9137427E-2,-2.2151791E-4,2.604257E-2,-3.3611078E-2,1.1358716E-2,5.263288E-2],"categories":[],"categories_nodes":[],"categories_segments":[],"categories_sizes":[],"default_left":[0,0,0,0,0,0,0,0,0,0,0,0,0,0,0],"id":23,"left_children":[1,3,5,7,9,11,13,-1,-1,-1,-1,-1,-1,-1,-1],"loss_changes":[2.0172174E1,3.8439937E0,1.7225723E0,2.5094507E0,3.190629E0,3.002277E0,2.3528767E-1,0E0,0E0,0E0,0E0,0E0,0E0,0E0,0E0],"parents":[2147483647,0,0,1,1,2,2,3,3,4,4,5,5,6,6],"right_children":[2,4,6,8,10,12,14,-1,-1,-1,-1,-1,-1,-1,-1],"split_conditions":[8.398855E-1,1.0913131E-2,9.9835545E-1,5.6470596E1,6.9E-1,9.979352E-1,1.4669773E-4,-2.0430017E-2,1.4813987E-2,-2.9137427E-2,-2.2151791E-4,2.604257E-2,-3.3611078E-2,1.1358716E-2,5.263288E-2],"split_indices":[0,4,0,2,5,0,1,0,0,0,0,0,0,0,0],"split_type":[0,0,0,0,0,0,0,0,0,0,0,0,0,0,0],"sum_hessian":[1.1129922E2,7.24947E1,3.880452E1,2.0593266E1,5.1901432E1,3.067522E1,8.129301E0,6.6436887E0,1.3949577E1,3.939149E1,1.2509942E1,2.925067E1,1.4245517E0,1.0345976E0,7.0947037E0],"tree_param":{"num_deleted":"0","num_feature":"6","num_nodes":"15","size_leaf_vector":"1"}},{"base_weights":[7.173754E-3,5.05948E-1,-3.251516E-1,8.174083E-1,3.2493937E-1,-3.7318844E-1,5.4244936E-1,2.8661976E-2,5.702526E-2,2.0739146E-2,-4.2279955E-2,-5.8524976E-3,-3.1585205E-2,-2.2128976E-3,4.093652E-2],"categories":[],"categories_nodes":[],"categories_segments":[],"categories_sizes":[],"default_left":[0,0,0,0,0,0,0,0,0,0,0,0,0,0,0],"id":24,"left_children":[1,3,5,7,9,11,13,-1,-1,-1,-1,-1,-1,-1,-1],"loss_changes":[1.8616392E1,2.2659407E0,3.0121245E0,5.962124E-1,3.511919E0,4.1951056E0,6.756079E-1,0E0,0E0,0E0,0E0,0E0,0E0,0E0,0E0],"parents":[2147483647,0,0,1,1,2,2,3,3,4,4,5,5,6,6],"right_children":[2,4,6,8,10,12,14,-1,-1,-1,-1,-1,-1,-1,-1],"split_conditions":[7.485447E-1,4.8832004E-3,8.191097E1,4.896984E1,9.4E-1,6.528319E1,9.6E-1,2.8661976E-2,5.702526E-2,2.0739146E-2,-4.2279955E-2,-5.8524976E-3,-3.1585205E-2,-2.2128976E-3,4.093652E-2],"split_indices":[1,1,2,2,5,2,5,0,0,0,0,0,0,0,0],"split_type":[0,0,0,0,0,0,0,0,0,0,0,0,0,0,0],"sum_hessian":[1.10320015E2,4.39039E1,6.6416115E1,1.4844762E1,2.905914E1,6.347171E1,2.9444044E0,1.0035213E1,4.809549E0,2.7587347E1,1.4717921E0,3.2612186E1,3.0859522E1,1.211495E0,1.7329092E0],"tree_param":{"num_deleted":"0","num_feature":"6","num_nodes":"15","size_leaf_vector":"1"}},{"base_weights":[7.4712993E-3,-2.7905536E-1,5.40647E-1,-1.10159315E-1,-5.7763505E-1,1.8225433E-1,6.7644584E-1,-1.0510701E-2,2.074283E-2,-3.5151493E-2,4.5372006E-2,4.870993E-2,-3.3782653E-3,3.8033318E-2,1.6836514E-3],"categories":[],"categories_nodes":[],"categories_segments":[],"categories_sizes":[],"default_left":[0,0,0,0,0,0,0,0,0,0,0,0,0,0,0],"id":25,"left_children":[1,3,5,7,9,11,13,-1,-1,-1,-1,-1,-1,-1,-1],"loss_changes":[1.702135E1,3.5919433E0,1.7719784E0,2.5842493E0,5.4712048E0,2.4537039E0,1.4832325E0,0E0,0E0,0E0,0E0,0E0,0E0,0E0,0E0],"parents":[2147483647,0,0,1,1,2,2,3,3,4,4,5,5,6,6],"right_children":[2,4,6,8,10,12,14,-1,-1,-1,-1,-1,-1,-1,-1],"split_conditions":[8.398855E-1,8.725065E-2,2.1961052E-3,4.8930928E-2,7.967235E1,2E-1,5.644141E1,-1.0510701E-2,2.074283E-2,-3.5151493E-2,4.5372006E-2,4.870993E-2,-3.3782653E-3,3.8033318E-2,1.6836514E-3],"split_indices":[0,4,4,4,2,5,2,0,0,0,0,0,0,0,0],"split_type":[0,0,0,0,0,0,0,0,0,0,0,0,0,0,0],"sum_hessian":[1.0943129E2,7.148964E1,3.7941654E1,4.6535233E1,2.4954405E1,1.1069567E1,2.6872086E1,3.958999E1,6.945243E0,2.3497E1,1.4574052E0,1.9591926E0,9.1103735E0,2.359685E1,3.2752357E0],"tree_param":{"num_deleted":"0","num_feature":"6","num_nodes":"15","size_leaf_vector":"1"}},{"base_weights":[8.1209745E-3,4.7147068E-1,-2.988261E-1,3.482129E-1,9.340433E-1,-1.4100447E-2,-4.4462928E-1,5.520901E-2,1.1897131E-2,9.567781E-3,5.0297398E-2,1.8982781E-2,-1.7806998E-2,7.504562E-4,-3.0179769E-2],"categories":[],"categories_nodes":[],"categories_segments":[],"categories_sizes":[],"default_left":[0,0,0,0,0,0,0,0,0,0,0,0,0,0,0],"id":26,"left_children":[1,3,5,7,9,11,13,-1,-1,-1,-1,-1,-1,-1,-1],"loss_changes":[1.5721242E1,2.1857576E0,2.7547197E0,2.7690053E0,2.7059698E-1,3.3077693E0,3.2204475E0,0E0,0E0,0E0,0E0,0E0,0E0,0E0,0E0],"parents":[2147483647,0,0,1,1,2,2,3,3,4,4,5,5,6,6],"right_children":[2,4,6,8,10,12,14,-1,-1,-1,-1,-1,-1,-1,-1],"split_conditions":[7.485447E-1,9.9835545E-1,1.4702338E-2,2.1E-1,1.4669773E-4,6.319149E-3,3.5E-1,5.520901E-2,1.1897131E-2,9.567781E-3,5.0297398E-2,1.8982781E-2,-1.7806998E-2,7.504562E-4,-3.0179769E-2],"split_indices":[1,0,4,5,1,0,5,0,0,0,0,0,0,0,0],"split_type":[0,0,0,0,0,0,0,0,0,0,0,0,0,0,0],"sum_hessian":[1.08548134E2,4.3040565E1,6.550757E1,3.5368893E1,7.671672E0,2.255625E1,4.2951317E1,3.3550007E0,3.2013893E1,1.0003643E0,6.6713076E0,1.04343E1,1.2121949E1,1.1270141E1,3.1681177E1],"tree_param":{"num_deleted":"0","num_feature":"6","num_nodes":"15","size_leaf_vector":"1"}},{"base_weights":[8.681641E-3,4.548381E-1,-2.8645954E-1,3.3449695E-1,9.1416746E-1,-3.9858815E-1,7.730487E-2,1.9660892E-2,-3.9515957E-2,4.9235635E-2,1.1896553E-2,-6.7998837E-3,-4.0543046E-2,-6.7328024E-3,3.8085677E-2],"categories":[],"categories_nodes":[],"categories_segments":[],"categories_sizes":[],"default_left":[0,0,0,0,0,0,0,0,0,0,0,0,0,0,0],"id":27,"left_children":[1,3,5,7,9,11,13,-1,-1,-1,-1,-1,-1,-1,-1],"loss_changes":[1.4443578E1,2.1077785E0,2.724256E0,2.700201E0,1.706109E-1,5.37175E0,2.4811656E0,0E0,0E0,0E0,0E0,0E0,0E0,0E0,0E0],"parents":[2147483647,0,0,1,1,2,2,3,3,4,4,5,5,6,6],"right_children":[2,4,6,8,10,12,14,-1,-1,-1,-1,-1,-1,-1,-1],"split_conditions":[7.485447E-1,9.9835545E-1,6.8E-1,3.293342E-1,9.997489E-1,6.509299E1,2.6283124E-1,1.9660892E-2,-3.9515957E-2,4.9235635E-2,1.1896553E-2,-6.7998837E-3,-4.0543046E-2,-6.7328024E-3,3.8085677E-2],"split_indices":[1,0,5,4,0,2,4,0,0,0,0,0,0,0,0],"split_type":[0,0,0,0,0,0,0,0,0,0,0,0,0,0,0],"sum_hessian":[1.0769821E2,4.2663673E1,6.503454E1,3.5176025E1,7.4876485E0,4.9638103E1,1.5396437E1,3.404892E1,1.1271039E0,6.3672485E0,1.1203997E0,3.1136246E1,1.8501858E1,1.2369013E1,3.0274234E0],"tree_param":{"num_deleted":"0","num_feature":"6","num_nodes":"15","size_leaf_vector":"1"}},{"base_weights":[8.531196E-3,-2.4560252E-1,4.8715878E-1,9.0283856E-2,-3.8260433E-1,1.3476326E-1,6.244201E-1,-1.4506531E-2,1.8850917E-2,2.4518665E-2,-2.2370448E-2,4.6134837E-2,-5.2478206E-3,3.7171677E-2,6.003919E-3],"categories":[],"categories_nodes":[],"categories_segments":[],"categories_sizes":[],"default_left":[0,0,0,0,0,0,0,0,0,0,0,0,0,0,0],"id":28,"left_children":[1,3,5,7,9,11,13,-1,-1,-1,-1,-1,-1,-1,-1],"loss_changes":[1.3241208E1,3.307632E0,1.7417517E0,2.4453661E0,3.088328E0,2.3364134E0,1.5248499E0,0E0,0E0,0E0,0E0,0E0,0E0,0E0,0E0],"parents":[2147483647,0,0,1,1,2,2,3,3,4,4,5,5,6,6],"right_children":[2,4,6,8,10,12,14,-1,-1,-1,-1,-1,-1,-1,-1],"split_conditions":[8.398855E-1,1.0913131E-2,2.1961052E-3,4.8E-1,1.7E-1,2E-1,1.3457584E-1,-1.4506531E-2,1.8850917E-2,2.4518665E-2,-2.2370448E-2,4.6134837E-2,-5.2478206E-3,3.7171677E-2,6.003919E-3],"split_indices":[0,4,4,5,5,5,4,0,0,0,0,0,0,0,0],"split_type":[0,0,0,0,0,0,0,0,0,0,0,0,0,0,0],"sum_hessian":[1.0687615E2,7.012775E1,3.6748405E1,2.0415707E1,4.971204E1,1.0856909E1,2.5891497E1,8.769393E0,1.1646315E1,2.9815032E0,4.6730537E1,1.8679821E0,8.988927E0,2.0564634E1,5.3268623E0],"tree_param":{"num_deleted":"0","num_feature":"6","num_nodes":"15","size_leaf_vector":"1"}},{"base_weights":[9.029027E-3,4.2400303E-1,-2.6399833E-1,3.0596378E-1,8.8515764E-1,-4.208042E-1,-2.3146635E-3,5.288721E-2,9.962785E-3,5.1955532E-2,1.947133E-2,-1.336474E-2,-5.249509E-2,5.629436E-2,-9.789725E-3],"categories":[],"categories_nodes":[],"categories_segments":[],"categories_sizes":[],"default_left":[0,0,0,0,0,0,0,0,0,0,0,0,0,0,0],"id":29,"left_children":[1,3,5,7,9,11,13,-1,-1,-1,-1,-1,-1,-1,-1],"loss_changes":[1.2240923E1,2.0625925E0,2.6738396E0,2.649817E0,2.2176647E-1,3.6552343E0,5.7714996E0,0E0,0E0,0E0,0E0,0E0,0E0,0E0,0E0],"parents":[2147483647,0,0,1,1,2,2,3,3,4,4,5,5,6,6],"right_children":[2,4,6,8,10,12,14,-1,-1,-1,-1,-1,-1,-1,-1],"split_conditions":[7.485447E-1,9.9835545E-1,5.7E-1,2.1E-1,9.9952054E-1,6.759044E1,6.443795E1,5.288721E-2,9.962785E-3,5.1955532E-2,1.947133E-2,-1.336474E-2,-5.249509E-2,5.629436E-2,-9.789725E-3],"split_indices":[1,0,5,5,0,2,2,0,0,0,0,0,0,0,0],"split_type":[0,0,0,0,0,0,0,0,0,0,0,0,0,0,0],"sum_hessian":[1.06052666E2,4.186664E1,6.418603E1,3.4658707E1,7.2079287E0,3.9755627E1,2.44304E1,3.200192E0,3.1458517E1,4.6635194E0,2.5444095E0,3.31029E1,6.652728E0,2.8708746E0,2.1559526E1],"tree_param":{"num_deleted":"0","num_feature":"6","num_nodes":"15","size_leaf_vector":"1"}},{"base_weights":[9.709583E-3,4.0938252E-1,-2.5272888E-1,2.9396388E-1,8.6778504E-1,-2.9939222E-1,5.47504E-1,1.788502E-2,-3.6922555E-2,5.1132817E-2,1.8910645E-2,-3.2437448E-3,-2.7254E-2,1.9228493E-4,4.3150168E-2],"categories":[],"categories_nodes":[],"categories_segments":[],"categories_sizes":[],"default_left":[0,0,0,0,0,0,0,0,0,0,0,0,0,0,0],"id":30,"left_children":[1,3,5,7,9,11,13,-1,-1,-1,-1,-1,-1,-1,-1],"loss_changes":[1.1254812E1,1.9946342E0,2.583417E0,2.5988793E0,2.2285318E-1,3.5294757E0,6.696727E-1,0E0,0E0,0E0,0E0,0E0,0E0,0E0,0E0],"parents":[2147483647,0,0,1,1,2,2,3,3,4,4,5,5,6,6],"right_children":[2,4,6,8,10,12,14,-1,-1,-1,-1,-1,-1,-1,-1],"split_conditions":[7.485447E-1,9.9835545E-1,8.191097E1,9.979352E-1,9.9952054E-1,6.528319E1,1E0,1.788502E-2,-3.6922555E-2,5.1132817E-2,1.8910645E-2,-3.2437448E-3,-2.7254E-2,1.9228493E-4,4.3150168E-2],"split_indices":[1,0,2,0,0,2,3,0,0,0,0,0,0,0,0],"split_type":[0,0,0,0,0,0,0,0,0,0,0,0,0,0,0],"sum_hessian":[1.0531516E2,4.152142E1,6.3793743E1,3.4480934E1,7.0404844E0,6.087014E1,2.9236035E0,3.3091545E1,1.3893881E0,4.5213294E0,2.519155E0,3.1789778E1,2.9080362E1,1.4452994E0,1.4783041E0],"tree_param":{"num_deleted":"0","num_feature":"6","num_nodes":"15","size_leaf_vector":"1"}},{"base_weights":[9.903509E-3,-2.1594085E-1,4.403786E-1,-5.9495002E-2,-5.034404E-1,1.6630934E-1,6.189782E-1,-7.958098E-3,2.283258E-2,-3.1509083E-2,4.4692907E-2,-5.738584E-3,4.0588237E-2,3.7692957E-2,-1.4232978E-2],"categories":[],"categories_nodes":[],"categories_segments":[],"categories_sizes":[],"default_left":[0,0,0,0,0,0,0,0,0,0,0,0,0,0,0],"id":31,"left_children":[1,3,5,7,9,11,13,-1,-1,-1,-1,-1,-1,-1,-1],"loss_changes":[1.03590355E1,3.1147451E0,1.6914086E0,2.4602327E0,4.9029045E0,2.9652488E0,2.87496E0,0E0,0E0,0E0,0E0,0E0,0E0,0E0,0E0],"parents":[2147483647,0,0,1,1,2,2,3,3,4,4,5,5,6,6],"right_children":[2,4,6,8,10,12,14,-1,-1,-1,-1,-1,-1,-1,-1],"split_conditions":[8.398855E-1,8.725065E-2,6.505089E-3,4.8930928E-2,7.967235E1,5.3108543E1,5.644141E1,-7.958098E-3,2.283258E-2,-3.1509083E-2,4.4692907E-2,-5.738584E-3,4.0588237E-2,3.7692957E-2,-1.4232978E-2],"split_indices":[0,4,4,4,2,2,2,0,0,0,0,0,0,0,0],"split_type":[0,0,0,0,0,0,0,0,0,0,0,0,0,0,0],"sum_hessian":[1.04573975E2,6.8916176E1,3.56578E1,4.5411808E1,2.3504366E1,1.4830659E1,2.0827139E1,3.864179E1,6.770023E0,2.2053053E1,1.4513118E0,1.090428E1,3.9263792E0,1.8266373E1,2.5607667E0],"tree_param":{"num_deleted":"0","num_feature":"6","num_nodes":"15","size_leaf_vector":"1"}},{"base_weights":[1.0307554E-2,3.805546E-1,-2.3152931E-1,5.1985383E-2,2.9557273E-1,-3.8644174E-1,2.4062065E-2,8.07232E-3,4.138271E-2,-1.1954485E-2,-5.052782E-2,5.407065E-2,-8.152732E-3],"categories":[],"categories_nodes":[],"categories_segments":[],"categories_sizes":[],"default_left":[0,0,0,0,0,0,0,0,0,0,0,0,0],"id":32,"left_children":[1,3,5,-1,7,9,11,-1,-1,-1,-1,-1,-1],"loss_changes":[9.474514E0,2.0339932E0,2.544636E0,0E0,2.608328E0,3.4302864E0,5.143419E0,0E0,0E0,0E0,0E0,0E0,0E0],"parents":[2147483647,0,0,1,1,2,2,4,4,5,5,6,6],"right_children":[2,4,6,-1,8,10,12,-1,-1,-1,-1,-1,-1],"split_conditions":[7.485447E-1,2.1E-1,5.7E-1,5.1985383E-2,9.9835545E-1,6.759044E1,6.443795E1,8.07232E-3,4.138271E-2,-1.1954485E-2,-5.052782E-2,5.407065E-2,-8.152732E-3],"split_indices":[1,5,5,0,0,2,2,0,0,0,0,0,0],"split_type":[0,0,0,0,0,0,0,0,0,0,0,0,0],"sum_hessian":[1.0382991E2,4.0796993E1,6.3032917E1,3.3761063E0,3.7420887E1,3.8927338E1,2.4105581E1,3.092802E1,6.4928656E0,3.261103E1,6.3163047E0,2.9058695E0,2.1199713E1],"tree_param":{"num_deleted":"0","num_feature":"6","num_nodes":"13","size_leaf_vector":"1"}},{"base_weights":[1.0665513E-2,-1.9746678E-1,4.1050348E-1,8.564492E-2,-3.4655473E-1,7.3474094E-2,5.47806E-1,-5.6848438E-3,3.2408286E-2,-4.4328947E-2,-1.1013766E-2,4.296468E-2,-7.639048E-3,3.355178E-2,2.420877E-3],"categories":[],"categories_nodes":[],"categories_segments":[],"categories_sizes":[],"default_left":[0,0,0,0,0,0,0,0,0,0,0,0,0,0,0],"id":33,"left_children":[1,3,5,7,9,11,13,-1,-1,-1,-1,-1,-1,-1,-1],"loss_changes":[8.747418E0,2.9489615E0,1.6245241E0,2.8388958E0,2.9077668E0,2.1881309E0,1.5310459E0,0E0,0E0,0E0,0E0,0E0,0E0,0E0,0E0],"parents":[2147483647,0,0,1,1,2,2,3,3,4,4,5,5,6,6],"right_children":[2,4,6,8,10,12,14,-1,-1,-1,-1,-1,-1,-1,-1],"split_conditions":[8.398855E-1,1.4702338E-2,2.1961052E-3,6.2E-1,2.668878E-2,2E-1,1.3457584E-1,-5.6848438E-3,3.2408286E-2,-4.4328947E-2,-1.1013766E-2,4.296468E-2,-7.639048E-3,3.355178E-2,2.420877E-3],"split_indices":[0,4,4,5,4,5,4,0,0,0,0,0,0,0,0],"split_type":[0,0,0,0,0,0,0,0,0,0,0,0,0,0,0],"sum_hessian":[1.0313894E2,6.816326E1,3.4975677E1,2.3659817E1,4.450344E1,1.0568605E1,2.4407072E1,1.8058325E1,5.601491E0,7.293326E0,3.7210117E1,1.7371863E0,8.831419E0,1.9300701E1,5.1063724E0],"tree_param":{"num_deleted":"0","num_feature":"6","num_nodes":"15","size_leaf_vector":"1"}},{"base_weights":[1.0632359E-2,-1.5232246E-1,4.87747E-1,-3.6954526E-2,-4.3585423E-1,8.568294E-1,2.8329214E-1,2.5936838E-3,-2.780265E-2,-4.492495E-2,-4.7131625E-4,5.1585175E-2,-8.766868E-3,-1.7768666E-2,3.8771227E-2],"categories":[],"categories_nodes":[],"categories_segments":[],"categories_sizes":[],"default_left":[0,0,0,0,0,0,0,0,0,0,0,0,0,0,0],"id":34,"left_children":[1,3,5,7,9,11,13,-1,-1,-1,-1,-1,-1,-1,-1],"loss_changes":[8.115897E0,2.5307617E0,1.7622967E0,2.6310956E0,4.415823E0,1.8014054E0,6.1193633E0,0E0,0E0,0E0,0E0,0E0,0E0,0E0,0E0],"parents":[2147483647,0,0,1,1,2,2,3,3,4,4,5,5,6,6],"right_children":[2,4,6,8,10,12,14,-1,-1,-1,-1,-1,-1,-1,-1],"split_conditions":[9.566288E-1,1.11929394E-1,3.5E-1,8.1E-1,2.5926873E-1,4.9486202E1,4.965668E1,2.5936838E-3,-2.780265E-2,-4.492495E-2,-4.7131625E-4,5.1585175E-2,-8.766868E-3,-1.7768666E-2,3.8771227E-2],"split_indices":[0,4,5,5,4,2,2,0,0,0,0,0,0,0,0],"split_type":[0,0,0,0,0,0,0,0,0,0,0,0,0,0,0],"sum_hessian":[1.02431465E2,7.686095E1,2.5570518E1,5.5435005E1,2.1425941E1,7.977934E0,1.7592585E1,4.8103584E1,7.3314223E0,9.745603E0,1.168034E1,6.8224883E0,1.1554457E0,7.7773757E0,9.815208E0],"tree_param":{"num_deleted":"0","num_feature":"6","num_nodes":"15","size_leaf_vector":"1"}},{"base_weights":[1.0119339E-2,3.457508E-1,-2.0708336E-1,2.3457241E-1,8.1081736E-1,-2.7521396E-1,3.6649722E-1,4.9245384E-2,6.682673E-3,4.8864644E-2,1.602221E-2,-8.578829E-3,-5.059973E-2,-2.8635731E-2,4.007491E-2],"categories":[],"categories_nodes":[],"categories_segments":[],"categories_sizes":[],"default_left":[0,0,0,0,0,0,0,0,0,0,0,0,0,0,0],"id":35,"left_children":[1,3,5,7,9,11,13,-1,-1,-1,-1,-1,-1,-1,-1],"loss_changes":[7.5730658E0,1.9195476E0,2.5666134E0,2.4685297E0,2.962656E-1,4.176448E0,3.37121E0,0E0,0E0,0E0,0E0,0E0,0E0,0E0,0E0],"parents":[2147483647,0,0,1,1,2,2,3,3,4,4,5,5,6,6],"right_children":[2,4,6,8,10,12,14,-1,-1,-1,-1,-1,-1,-1,-1],"split_conditions":[7.485447E-1,9.9835545E-1,9.5E-1,2.1E-1,9.9952054E-1,7.609049E1,7.695469E1,4.9245384E-2,6.682673E-3,4.8864644E-2,1.602221E-2,-8.578829E-3,-5.059973E-2,-2.8635731E-2,4.007491E-2],"split_indices":[1,0,5,5,0,2,2,0,0,0,0,0,0,0,0],"split_type":[0,0,0,0,0,0,0,0,0,0,0,0,0,0,0],"sum_hessian":[1.0190069E2,3.9803177E1,6.209751E1,3.3337845E1,6.465332E0,5.5969563E1,6.127948E0,2.913855E0,3.0423988E1,4.085425E0,2.3799071E0,5.0148434E1,5.821127E0,1.8395618E0,4.2883863E0],"tree_param":{"num_deleted":"0","num_feature":"6","num_nodes":"15","size_leaf_vector":"1"}},{"base_weights":[1.0386526E-2,-1.4093569E-1,4.5914558E-1,-2.9530395E-2,-4.17702E-1,8.247905E-1,2.6078358E-1,2.8035636E-3,-2.6667124E-2,-2.7497495E-2,4.3481227E-2,5.0100844E-2,-9.061606E-3,-1.7713955E-2,3.7341036E-2],"categories":[],"categories_nodes":[],"categories_segments":[],"categories_sizes":[],"default_left":[0,0,0,0,0,0,0,0,0,0,0,0,0,0,0],"id":36,"left_children":[1,3,5,7,9,11,13,-1,-1,-1,-1,-1,-1,-1,-1],"loss_changes":[7.010323E0,2.3696537E0,1.6726475E0,2.4518447E0,4.2399783E0,1.7312117E0,5.7458997E0,0E0,0E0,0E0,0E0,0E0,0E0,0E0,0E0],"parents":[2147483647,0,0,1,1,2,2,3,3,4,4,5,5,6,6],"right_children":[2,4,6,8,10,12,14,-1,-1,-1,-1,-1,-1,-1,-1],"split_conditions":[9.566288E-1,1.11929394E-1,3.5E-1,8.1E-1,7.967235E1,4.9486202E1,4.965668E1,2.8035636E-3,-2.6667124E-2,-2.7497495E-2,4.3481227E-2,5.0100844E-2,-9.061606E-3,-1.7713955E-2,3.7341036E-2],"split_indices":[0,4,5,5,2,2,2,0,0,0,0,0,0,0,0],"split_type":[0,0,0,0,0,0,0,0,0,0,0,0,0,0,0],"sum_hessian":[1.0128092E2,7.625393E1,2.5026995E1,5.515812E1,2.1095812E1,7.691353E0,1.7335642E1,4.790704E1,7.2510796E0,1.9649956E1,1.4458559E0,6.5427313E0,1.1486213E0,7.7717957E0,9.563846E0],"tree_param":{"num_deleted":"0","num_feature":"6","num_nodes":"15","size_leaf_vector":"1"}},{"base_weights":[1.0480436E-2,3.251246E-1,-1.9217089E-1,2.1596773E-1,7.912052E-1,-3.0610517E-1,1.649549E-1,1.4064348E-2,-3.881449E-2,4.790561E-2,1.559719E-2,-6.4753974E-3,-4.2796556E-2,-1.5936507E-2,2.1789825E-2],"categories":[],"categories_nodes":[],"categories_segments":[],"categories_sizes":[],"default_left":[0,0,0,0,0,0,0,0,0,0,0,0,0,0,0],"id":37,"left_children":[1,3,5,7,9,11,13,-1,-1,-1,-1,-1,-1,-1,-1],"loss_changes":[6.548361E0,1.8753471E0,2.5934916E0,2.4196339E0,2.8159904E-1,4.523857E0,2.204309E0,0E0,0E0,0E0,0E0,0E0,0E0,0E0,0E0],"parents":[2147483647,0,0,1,1,2,2,3,3,4,4,5,5,6,6],"right_children":[2,4,6,8,10,12,14,-1,-1,-1,-1,-1,-1,-1,-1],"split_conditions":[7.485447E-1,9.9835545E-1,6.8E-1,9.979352E-1,9.9952054E-1,6.7811325E1,9.972011E-1,1.4064348E-2,-3.881449E-2,4.790561E-2,1.559719E-2,-6.4753974E-3,-4.2796556E-2,-1.5936507E-2,2.1789825E-2],"split_indices":[1,0,5,0,0,2,1,0,0,0,0,0,0,0,0],"split_type":[0,0,0,0,0,0,0,0,0,0,0,0,0,0,0],"sum_hessian":[1.0071848E2,3.9219868E1,6.1498615E1,3.2963203E1,6.2566676E0,4.6732388E1,1.4766227E1,3.1599556E1,1.3636459E0,3.8994925E0,2.3571749E0,3.630668E1,1.0425709E1,5.236952E0,9.529275E0],"tree_param":{"num_deleted":"0","num_feature":"6","num_nodes":"15","size_leaf_vector":"1"}},{"base_weights":[9.951981E-3,-1.3062738E-1,4.3199638E-1,-2.4833843E-2,-3.972768E-1,1.2837675E-2,5.8613896E-1,2.9402855E-3,-2.5915641E-2,-4.2849418E-2,8.2446774E-4,3.2248326E-2,-1.69937E-2,3.690036E-2,-3.0659414E-3],"categories":[],"categories_nodes":[],"categories_segments":[],"categories_sizes":[],"default_left":[0,0,0,0,0,0,0,0,0,0,0,0,0,0,0],"id":38,"left_children":[1,3,5,7,9,11,13,-1,-1,-1,-1,-1,-1,-1,-1],"loss_changes":[6.0555124E0,2.151455E0,1.6398125E0,2.3385284E0,4.141056E0,1.9755927E0,1.8760214E0,0E0,0E0,0E0,0E0,0E0,0E0,0E0,0E0],"parents":[2147483647,0,0,1,1,2,2,3,3,4,4,5,5,6,6],"right_children":[2,4,6,8,10,12,14,-1,-1,-1,-1,-1,-1,-1,-1],"split_conditions":[9.566288E-1,1.11929394E-1,4.7865098E-5,8.1E-1,2.5926873E-1,2.7E-1,1.376322E-1,2.9402855E-3,-2.5915641E-2,-4.2849418E-2,8.2446774E-4,3.2248326E-2,-1.69937E-2,3.690036E-2,-3.0659414E-3],"split_indices":[0,4,4,5,4,5,4,0,0,0,0,0,0,0,0],"split_type":[0,0,0,0,0,0,0,0,0,0,0,0,0,0,0],"sum_hessian":[1.0011255E2,7.5616E1,2.449655E1,5.491967E1,2.0696327E1,6.877609E0,1.7618942E1,4.7713554E1,7.2061167E0,9.296422E0,1.1399905E1,2.1663997E0,4.711209E0,1.4158143E1,3.460799E0],"tree_param":{"num_deleted":"0","num_feature":"6","num_nodes":"15","size_leaf_vector":"1"}},{"base_weights":[9.355479E-3,3.0338708E-1,-1.7874548E-1,4.8023693E-2,2.234989E-1,-2.9149917E-1,1.7183599E-1,-1.6862916E-2,1.684941E-2,-2.9801878E-3,-3.4310058E-2,-1.4733614E-2,2.1430941E-2],"categories":[],"categories_nodes":[],"categories_segments":[],"categories_sizes":[],"default_left":[0,0,0,0,0,0,0,0,0,0,0,0,0],"id":39,"left_children":[1,3,5,-1,7,9,11,-1,-1,-1,-1,-1,-1],"loss_changes":[5.618607E0,1.8652432E0,2.5003395E0,0E0,2.4448118E0,4.285895E0,2.0086384E0,0E0,0E0,0E0,0E0,0E0,0E0],"parents":[2147483647,0,0,1,1,2,2,4,4,5,5,6,6],"right_children":[2,4,6,-1,8,10,12,-1,-1,-1,-1,-1,-1],"split_conditions":[7.485447E-1,2.1E-1,6.8E-1,4.8023693E-2,2.6E-1,6.509299E1,9.972011E-1,-1.6862916E-2,1.684941E-2,-2.9801878E-3,-3.4310058E-2,-1.4733614E-2,2.1430941E-2],"split_indices":[1,5,5,0,5,2,1,0,0,0,0,0,0],"split_type":[0,0,0,0,0,0,0,0,0,0,0,0,0],"sum_hessian":[9.96078E1,3.8622234E1,6.0985565E1,2.9917898E0,3.5630447E1,4.6272102E1,1.4713466E1,5.6654434E0,2.9965002E1,2.9872444E1,1.6399658E1,5.1711903E0,9.542275E0],"tree_param":{"num_deleted":"0","num_feature":"6","num_nodes":"13","size_leaf_vector":"1"}},{"base_weights":[9.091579E-3,-1.2154365E-1,4.0593573E-1,-2.0800315E-2,-3.783184E-1,7.7815765E-1,2.0990682E-1,3.0515573E-3,-2.5230948E-2,-4.155762E-2,1.0562375E-3,4.8093736E-2,-1.0222229E-2,-1.9088862E-2,3.479466E-2],"categories":[],"categories_nodes":[],"categories_segments":[],"categories_sizes":[],"default_left":[0,0,0,0,0,0,0,0,0,0,0,0,0,0,0],"id":40,"left_children":[1,3,5,7,9,11,13,-1,-1,-1,-1,-1,-1,-1,-1],"loss_changes":[5.2361665E0,1.9592118E0,1.6614723E0,2.234967E0,3.8828743E0,1.6873794E0,5.3699994E0,0E0,0E0,0E0,0E0,0E0,0E0,0E0,0E0],"parents":[2147483647,0,0,1,1,2,2,3,3,4,4,5,5,6,6],"right_children":[2,4,6,8,10,12,14,-1,-1,-1,-1,-1,-1,-1,-1],"split_conditions":[9.566288E-1,1.11929394E-1,3.5E-1,8.1E-1,2.5926873E-1,4.9486202E1,4.965668E1,3.0515573E-3,-2.5230948E-2,-4.155762E-2,1.0562375E-3,4.8093736E-2,-1.0222229E-2,-1.9088862E-2,3.479466E-2],"split_indices":[0,4,5,5,4,2,2,0,0,0,0,0,0,0,0],"split_type":[0,0,0,0,0,0,0,0,0,0,0,0,0,0,0],"sum_hessian":[9.9051E1,7.504201E1,2.4008995E1,5.4672672E1,2.0369339E1,7.257937E0,1.6751059E1,4.7510723E1,7.161948E0,9.040115E0,1.1329224E1,6.132448E0,1.1254888E0,7.650758E0,9.100301E0],"tree_param":{"num_deleted":"0","num_feature":"6","num_nodes":"15","size_leaf_vector":"1"}},{"base_weights":[8.615164E-3,5.863816E-1,-7.6343164E-2,3.2365367E-1,4.910689E-2,1.7703813E-2,-3.9242208E-1,4.0388826E-2,-8.899473E-3,4.938695E-3,-2.7023245E-2,-2.708729E-2,5.288142E-2],"categories":[],"categories_nodes":[],"categories_segments":[],"categories_sizes":[],"default_left":[0,0,0,0,0,0,0,0,0,0,0,0,0],"id":41,"left_children":[1,3,5,7,-1,9,11,-1,-1,-1,-1,-1,-1],"loss_changes":[4.932953E0,1.0214882E0,2.6140175E0,2.3861668E0,0E0,3.1552403E0,4.9369493E0,0E0,0E0,0E0,0E0,0E0,0E0],"parents":[2147483647,0,0,1,1,2,2,3,3,5,5,6,6],"right_children":[2,4,6,8,-1,10,12,-1,-1,-1,-1,-1,-1],"split_conditions":[4.8832004E-3,4.896984E1,1.376322E-1,3.6E-1,4.910689E-2,7.551778E1,7.967235E1,4.0388826E-2,-8.899473E-3,4.938695E-3,-2.7023245E-2,-2.708729E-2,5.288142E-2],"split_indices":[1,2,4,5,0,2,2,0,0,0,0,0,0],"split_type":[0,0,0,0,0,0,0,0,0,0,0,0,0],"sum_hessian":[9.858399E1,1.1881414E1,8.6702576E1,8.233384E0,3.64803E0,6.754812E1,1.915446E1,3.8793056E0,4.354079E0,5.9700134E1,7.847986E0,1.7934038E1,1.2204213E0],"tree_param":{"num_deleted":"0","num_feature":"6","num_nodes":"13","size_leaf_vector":"1"}},{"base_weights":[9.079707E-3,5.7176113E-1,-7.27317E-2,3.1359053E-1,4.8337195E-2,1.6491815E-2,-3.7527972E-1,3.954415E-2,-8.508365E-3,4.693457E-3,-2.6076678E-2,-6.36006E-2,-4.697859E-3],"categories":[],"categories_nodes":[],"categories_segments":[],"categories_sizes":[],"default_left":[0,0,0,0,0,0,0,0,0,0,0,0,0],"id":42,"left_children":[1,3,5,7,-1,9,11,-1,-1,-1,-1,-1,-1],"loss_changes":[4.6059756E0,9.9181986E-1,2.3669527E0,2.249518E0,0E0,2.9004555E0,4.9156027E0,0E0,0E0,0E0,0E0,0E0,0E0],"parents":[2147483647,0,0,1,1,2,2,3,3,5,5,6,6],"right_children":[2,4,6,8,-1,10,12,-1,-1,-1,-1,-1,-1],"split_conditions":[4.8832004E-3,4.896984E1,1.376322E-1,3.6E-1,4.8337195E-2,7.551778E1,1.9155571E-1,3.954415E-2,-8.508365E-3,4.693457E-3,-2.6076678E-2,-6.36006E-2,-4.697859E-3],"split_indices":[1,2,4,5,0,2,4,0,0,0,0,0,0],"split_type":[0,0,0,0,0,0,0,0,0,0,0,0,0],"sum_hessian":[9.8153114E1,1.1699268E1,8.645384E1,8.159771E0,3.5394967E0,6.749468E1,1.8959162E1,3.78776E0,4.372011E0,5.973001E1,7.764674E0,3.6865437E0,1.5272617E1],"tree_param":{"num_deleted":"0","num_feature":"6","num_nodes":"13","size_leaf_vector":"1"}},{"base_weights":[8.554141E-3,2.7070475E-1,-1.576118E-1,1.650593E-1,7.453085E-1,-3.2047802E-1,1.0729864E-1,1.1565766E-2,-3.9929204E-2,4.597604E-2,1.3884581E-2,3.3469324E-3,-2.6838323E-2,5.279069E-2,-3.677555E-3],"categories":[],"categories_nodes":[],"categories_segments":[],"categories_sizes":[],"default_left":[0,0,0,0,0,0,0,0,0,0,0,0,0,0,0],"id":43,"left_children":[1,3,5,7,9,11,13,-1,-1,-1,-1,-1,-1,-1,-1],"loss_changes":[4.3465004E0,1.8172903E0,2.6706834E0,2.2876472E0,2.954607E-1,3.2276673E0,4.1967874E0,0E0,0E0,0E0,0E0,0E0,0E0,0E0,0E0],"parents":[2147483647,0,0,1,1,2,2,3,3,4,4,5,5,6,6],"right_children":[2,4,6,8,10,12,14,-1,-1,-1,-1,-1,-1,-1,-1],"split_conditions":[7.485447E-1,9.9835545E-1,5.7E-1,9.979352E-1,9.9952054E-1,2.9E-1,6.443795E1,1.1565766E-2,-3.9929204E-2,4.597604E-2,1.3884581E-2,3.3469324E-3,-2.6838323E-2,5.279069E-2,-3.677555E-3],"split_indices":[1,0,5,0,0,5,2,0,0,0,0,0,0,0,0],"split_type":[0,0,0,0,0,0,0,0,0,0,0,0,0,0,0],"sum_hessian":[9.78013E1,3.7698067E1,6.0103233E1,3.1936808E1,5.7612596E0,3.7090397E1,2.3012836E1,3.0593298E1,1.3435081E0,3.493388E0,2.2678716E0,1.3535704E1,2.3554691E1,2.9103982E0,2.0102438E1],"tree_param":{"num_deleted":"0","num_feature":"6","num_nodes":"15","size_leaf_vector":"1"}},{"base_weights":[8.738382E-3,5.4889643E-1,-6.8325855E-2,2.932248E-1,4.741619E-2,4.3341103E-1,-1.1726321E-1,3.843159E-2,-8.759209E-3,-5.808647E-3,4.5402225E-2,-1.4192921E-2,6.531523E-3],"categories":[],"categories_nodes":[],"categories_segments":[],"categories_sizes":[],"default_left":[0,0,0,0,0,0,0,0,0,0,0,0,0],"id":44,"left_children":[1,3,5,7,-1,9,11,-1,-1,-1,-1,-1,-1],"loss_changes":[4.1280227E0,9.8619056E-1,2.1842046E0,2.137898E0,0E0,2.1751795E0,3.3389325E0,0E0,0E0,0E0,0E0,0E0,0E0],"parents":[2147483647,0,0,1,1,2,2,3,3,5,5,6,6],"right_children":[2,4,6,8,-1,10,12,-1,-1,-1,-1,-1,-1],"split_conditions":[4.8832004E-3,4.896984E1,1.7E-1,3.6E-1,4.741619E-2,5.7158142E1,5.7E-1,3.843159E-2,-8.759209E-3,-5.808647E-3,4.5402225E-2,-1.4192921E-2,6.531523E-3],"split_indices":[1,2,5,5,0,2,5,0,0,0,0,0,0],"split_type":[0,0,0,0,0,0,0,0,0,0,0,0,0],"sum_hessian":[9.726631E1,1.137989E1,8.588642E1,7.995878E0,3.3840117E0,6.9343743E0,7.895205E1,3.6502018E0,4.3456764E0,3.5634491E0,3.370925E0,4.713214E1,3.1819906E1],"tree_param":{"num_deleted":"0","num_feature":"6","num_nodes":"13","size_leaf_vector":"1"}},{"base_weights":[9.449504E-3,2.582643E-1,-1.4791682E-1,4.622776E-2,1.8002993E-1,-2.6079828E-1,1.976194E-1,-1.806037E-2,1.4601061E-2,-4.8254444E-3,-3.9889716E-2,-1.35047855E-2,2.2589615E-2],"categories":[],"categories_nodes":[],"categories_segments":[],"categories_sizes":[],"default_left":[0,0,0,0,0,0,0,0,0,0,0,0,0],"id":45,"left_children":[1,3,5,-1,7,9,11,-1,-1,-1,-1,-1,-1],"loss_changes":[3.8777766E0,1.8329155E0,2.4193144E0,0E0,2.2613418E0,3.9978373E0,1.9666958E0,0E0,0E0,0E0,0E0,0E0,0E0],"parents":[2147483647,0,0,1,1,2,2,4,4,5,5,6,6],"right_children":[2,4,6,-1,8,10,12,-1,-1,-1,-1,-1,-1],"split_conditions":[7.485447E-1,2.1E-1,6.8E-1,4.622776E-2,2.6E-1,6.7811325E1,9.972011E-1,-1.806037E-2,1.4601061E-2,-4.8254444E-3,-3.9889716E-2,-1.35047855E-2,2.2589615E-2],"split_indices":[1,5,5,0,5,2,1,0,0,0,0,0,0],"split_type":[0,0,0,0,0,0,0,0,0,0,0,0,0],"sum_hessian":[9.706073E1,3.735573E1,5.9704998E1,2.788597E0,3.4567135E1,4.5188E1,1.4516999E1,5.544769E0,2.9022364E1,3.5505203E1,9.6827965E0,5.0893E0,9.427699E0],"tree_param":{"num_deleted":"0","num_feature":"6","num_nodes":"13","size_leaf_vector":"1"}},{"base_weights":[9.07311E-3,5.27966E-1,-6.384672E-2,2.7594084E-1,4.6508502E-2,2.1021003E-2,-3.544285E-1,3.7530612E-2,-9.016034E-3,4.7942307E-3,-2.5172865E-2,-6.2414568E-2,-3.9293333E-3],"categories":[],"categories_nodes":[],"categories_segments":[],"categories_sizes":[],"default_left":[0,0,0,0,0,0,0,0,0,0,0,0,0],"id":46,"left_children":[1,3,5,7,-1,9,11,-1,-1,-1,-1,-1,-1],"loss_changes":[3.7259462E0,9.730227E-1,2.1393929E0,2.058487E0,0E0,2.7124588E0,4.733926E0,0E0,0E0,0E0,0E0,0E0,0E0],"parents":[2147483647,0,0,1,1,2,2,3,3,5,5,6,6],"right_children":[2,4,6,8,-1,10,12,-1,-1,-1,-1,-1,-1],"split_conditions":[4.8832004E-3,4.896984E1,1.376322E-1,3.6E-1,4.6508502E-2,7.551778E1,1.9155571E-1,3.7530612E-2,-9.016034E-3,4.7942307E-3,-2.5172865E-2,-6.2414568E-2,-3.9293333E-3],"split_indices":[1,2,4,5,0,2,4,0,0,0,0,0,0],"split_type":[0,0,0,0,0,0,0,0,0,0,0,0,0],"sum_hessian":[9.658121E1,1.11312895E1,8.544991E1,7.879798E0,3.2514915E0,6.685253E1,1.8597385E1,3.5457957E0,4.334002E0,5.921711E1,7.6354213E0,3.5543048E0,1.504308E1],"tree_param":{"num_deleted":"0","num_feature":"6","num_nodes":"13","size_leaf_vector":"1"}},{"base_weights":[8.527406E-3,5.149834E-1,-6.1820626E-2,2.6748163E-1,4.581557E-2,1.9668538E-2,-3.4223086E-1,3.6751006E-2,-8.619881E-3,4.556291E-3,-2.4285445E-2,-6.1258733E-2,-3.750174E-3],"categories":[],"categories_nodes":[],"categories_segments":[],"categories_sizes":[],"default_left":[0,0,0,0,0,0,0,0,0,0,0,0,0],"id":47,"left_children":[1,3,5,7,-1,9,11,-1,-1,-1,-1,-1,-1],"loss_changes":[3.496852E0,9.4373274E-1,1.9784081E0,1.9396738E0,0E0,2.4928172E0,4.5051775E0,0E0,0E0,0E0,0E0,0E0,0E0],"parents":[2147483647,0,0,1,1,2,2,3,3,5,5,6,6],"right_children":[2,4,6,8,-1,10,12,-1,-1,-1,-1,-1,-1],"split_conditions":[4.8832004E-3,4.896984E1,1.376322E-1,3.6E-1,4.581557E-2,7.551778E1,1.9155571E-1,3.6751006E-2,-8.619881E-3,4.556291E-3,-2.4285445E-2,-6.1258733E-2,-3.750174E-3],"split_indices":[1,2,4,5,0,2,4,0,0,0,0,0,0],"split_type":[0,0,0,0,0,0,0,0,0,0,0,0,0],"sum_hessian":[9.625489E1,1.0968554E1,8.528633E1,7.815296E0,3.1532578E0,6.6802826E1,1.8483507E1,3.4632847E0,4.352011E0,5.9245556E1,7.5572715E0,3.4615302E0,1.5021977E1],"tree_param":{"num_deleted":"0","num_feature":"6","num_nodes":"13","size_leaf_vector":"1"}},{"base_weights":[8.015658E-3,-4.0837526E-2,7.0836335E-1,-1.6543536E-1,1.703418E-1,4.435838E-2,2.5570115E-1,6.219128E-3,-2.1001391E-2,4.0038954E-2,1.2440359E-3,-1.3526118E-2,3.259159E-2],"categories":[],"categories_nodes":[],"categories_segments":[],"categories_sizes":[],"default_left":[0,0,0,0,0,0,0,0,0,0,0,0,0],"id":48,"left_children":[1,3,5,7,9,-1,11,-1,-1,-1,-1,-1,-1],"loss_changes":[3.3455083E0,2.4373612E0,2.8916216E-1,4.3385963E0,3.1409569E0,0E0,8.4550595E-1,0E0,0E0,0E0,0E0,0E0,0E0],"parents":[2147483647,0,0,1,1,2,2,3,3,4,4,6,6],"right_children":[2,4,6,8,10,-1,12,-1,-1,-1,-1,-1,-1],"split_conditions":[9.9835545E-1,5.7E-1,9.9952054E-1,3.4E-1,6.1E-1,4.435838E-2,1.0501158E-2,6.219128E-3,-2.1001391E-2,4.0038954E-2,1.2440359E-3,-1.3526118E-2,3.259159E-2],"split_indices":[0,5,0,5,5,0,4,0,0,0,0,0,0],"split_type":[0,0,0,0,0,0,0,0,0,0,0,0,0],"sum_hessian":[9.593576E1,9.0560356E1,5.3754034E0,5.7092087E1,3.3468266E1,3.16523E0,2.2101734E0,2.693818E1,3.0153906E1,5.4298515E0,2.8038416E1,1.0854025E0,1.1247709E0],"tree_param":{"num_deleted":"0","num_feature":"6","num_nodes":"13","size_leaf_vector":"1"}},{"base_weights":[8.570428E-3,1.5091266E-1,-2.2320837E-1,9.082837E-2,1.0916208E0,-5.2256644E-1,2.9293525E-1,8.6346624E-4,3.4796573E-2,7.420526E-2,9.350869E-3,1.6557833E-2,-3.0981628E-2,-4.03559E-2,2.4270838E-2],"categories":[],"categories_nodes":[],"categories_segments":[],"categories_sizes":[],"default_left":[0,0,0,0,0,0,0,0,0,0,0,0,0,0,0],"id":49,"left_children":[1,3,5,7,9,11,13,-1,-1,-1,-1,-1,-1,-1,-1],"loss_changes":[3.2254024E0,3.3221898E0,5.902626E0,2.5690746E0,9.804859E-1,2.1866145E0,3.4197543E0,0E0,0E0,0E0,0E0,0E0,0E0,0E0,0E0],"parents":[2147483647,0,0,1,1,2,2,3,3,4,4,5,5,6,6],"right_children":[2,4,6,8,10,12,14,-1,-1,-1,-1,-1,-1,-1,-1],"split_conditions":[6.259565E1,6.1423153E1,7.1E-1,9.9835545E-1,7.9317264E-2,2.5E-1,1.9296021E-4,8.6346624E-4,3.4796573E-2,7.420526E-2,9.350869E-3,1.6557833E-2,-3.0981628E-2,-4.03559E-2,2.4270838E-2],"split_indices":[2,2,5,0,4,5,0,0,0,0,0,0,0,0,0],"split_type":[0,0,0,0,0,0,0,0,0,0,0,0,0,0,0],"sum_hessian":[9.574243E1,5.9531357E1,3.6211075E1,5.6988007E1,2.543347E0,2.2910673E1,1.3300403E1,5.1728233E1,5.2597766E0,1.3269871E0,1.2163597E0,2.092744E0,2.0817928E1,1.5051394E0,1.1795263E1],"tree_param":{"num_deleted":"0","num_feature":"6","num_nodes":"15","size_leaf_vector":"1"}},{"base_weights":[9.0427715E-3,-8.946479E-2,3.2183936E-1,-1.16626345E-1,3.7572265E-2,1.507546E-1,7.74902E-1,-2.1564394E-4,-1.8640237E-2,3.457908E-2,-1.0341372E-2,8.76207E-3,4.3193996E-2],"categories":[],"categories_nodes":[],"categories_segments":[],"categories_sizes":[],"default_left":[0,0,0,0,0,0,0,0,0,0,0,0,0],"id":50,"left_children":[1,3,5,7,-1,9,11,-1,-1,-1,-1,-1,-1],"loss_changes":[2.9981787E0,1.7794437E0,1.6890428E0,2.0877972E0,0E0,3.6536858E0,1.7646813E-1,0E0,0E0,0E0,0E0,0E0,0E0],"parents":[2147483647,0,0,1,1,2,2,3,3,5,5,6,6],"right_children":[2,4,6,8,-1,10,12,-1,-1,-1,-1,-1,-1],"split_conditions":[9.566288E-1,8.3248146E1,5.18987E1,6.7995255E1,3.7572265E-2,3.5E-1,5.4E-1,-2.1564394E-4,-1.8640237E-2,3.457908E-2,-1.0341372E-2,8.76207E-3,4.3193996E-2],"split_indices":[0,2,2,2,0,5,5,0,0,0,0,0,0],"split_type":[0,0,0,0,0,0,0,0,0,0,0,0,0],"sum_hessian":[9.536848E1,7.307066E1,2.2297817E1,7.1618675E1,1.4519873E0,1.71532E1,5.1446176E0,5.049677E1,2.1121906E1,6.4554973E0,1.0697703E1,1.0484117E0,4.0962057E0],"tree_param":{"num_deleted":"0","num_feature":"6","num_nodes":"13","size_leaf_vector":"1"}},{"base_weights":[9.643082E-3,-3.5481364E-2,6.789582E-1,-1.5532798E-1,1.6757949E-1,4.3197915E-2,2.3050296E-1,-3.3067446E-4,-3.0203918E-2,3.3162065E-2,-3.564779E-4,-1.4045618E-2,3.1548645E-2],"categories":[],"categories_nodes":[],"categories_segments":[],"categories_sizes":[],"default_left":[0,0,0,0,0,0,0,0,0,0,0,0,0],"id":51,"left_children":[1,3,5,7,9,-1,11,-1,-1,-1,-1,-1,-1],"loss_changes":[2.923659E0,2.2379668E0,3.0804515E-1,3.845045E0,2.967638E0,0E0,8.2224166E-1,0E0,0E0,0E0,0E0,0E0,0E0],"parents":[2147483647,0,0,1,1,2,2,3,3,4,4,6,6],"right_children":[2,4,6,8,10,-1,12,-1,-1,-1,-1,-1,-1],"split_conditions":[9.9835545E-1,5.7E-1,9.9952054E-1,6.2794277E1,6.4E-1,4.3197915E-2,1.0501158E-2,-3.3067446E-4,-3.0203918E-2,3.3162065E-2,-3.564779E-4,-1.4045618E-2,3.1548645E-2],"split_indices":[0,5,0,2,5,0,4,0,0,0,0,0,0],"split_type":[0,0,0,0,0,0,0,0,0,0,0,0,0],"sum_hessian":[9.500434E1,8.989098E1,5.113357E0,5.6675903E1,3.321508E1,2.964074E0,2.1492832E0,4.333091E1,1.3344994E1,7.927616E0,2.5287462E1,1.0750048E0,1.0742785E0],"tree_param":{"num_deleted":"0","num_feature":"6","num_nodes":"13","size_leaf_vector":"1"}},{"base_weights":[9.836434E-3,-3.3796404E-2,6.6706645E-1,-1.4870876E-1,1.6007246E-1,4.2613357E-2,2.256673E-1,-7.9038116E-4,-3.0919794E-2,-3.354941E-2,1.255162E-2,-1.36289345E-2,3.1067485E-2],"categories":[],"categories_nodes":[],"categories_segments":[],"categories_sizes":[],"default_left":[0,0,0,0,0,0,0,0,0,0,0,0,0],"id":52,"left_children":[1,3,5,7,9,-1,11,-1,-1,-1,-1,-1,-1],"loss_changes":[2.766799E0,2.0441911E0,2.986343E-1,3.576886E0,2.7561274E0,0E0,7.8747493E-1,0E0,0E0,0E0,0E0,0E0,0E0],"parents":[2147483647,0,0,1,1,2,2,3,3,4,4,6,6],"right_children":[2,4,6,8,10,-1,12,-1,-1,-1,-1,-1,-1],"split_conditions":[9.9835545E-1,5.7E-1,9.9952054E-1,1.3457584E-1,1.9731844E-4,4.2613357E-2,1.0501158E-2,-7.9038116E-4,-3.0919794E-2,-3.354941E-2,1.255162E-2,-1.36289345E-2,3.1067485E-2],"split_indices":[0,5,0,4,0,0,4,0,0,0,0,0,0],"split_type":[0,0,0,0,0,0,0,0,0,0,0,0,0],"sum_hessian":[9.469594E1,8.969008E1,5.005856E0,5.6458336E1,3.3231743E1,2.8705926E0,2.1352637E0,4.4812103E1,1.1646232E1,2.6493216E0,3.0582422E1,1.0828495E0,1.0524141E0],"tree_param":{"num_deleted":"0","num_feature":"6","num_nodes":"13","size_leaf_vector":"1"}},{"base_weights":[9.4382325E-3,-3.2774717E-2,6.554648E-1,4.2602336E-1,-7.74117E-2,4.203976E-2,2.2103974E-1,-3.4388416E-3,4.3234747E-2,-1.1603683E-2,7.5740227E-3,-1.3225202E-2,3.059761E-2],"categories":[],"categories_nodes":[],"categories_segments":[],"categories_sizes":[],"default_left":[0,0,0,0,0,0,0,0,0,0,0,0,0],"id":53,"left_children":[1,3,5,7,9,-1,11,-1,-1,-1,-1,-1,-1],"loss_changes":[2.6243303E0,1.8872459E0,2.8930974E-1,1.835362E0,2.986225E0,0E0,7.543384E-1,0E0,0E0,0E0,0E0,0E0,0E0],"parents":[2147483647,0,0,1,1,2,2,3,3,4,4,6,6],"right_children":[2,4,6,8,10,-1,12,-1,-1,-1,-1,-1,-1],"split_conditions":[9.9835545E-1,1.7E-1,9.9952054E-1,5.7158142E1,5.7E-1,4.203976E-2,1.0501158E-2,-3.4388416E-3,4.3234747E-2,-1.1603683E-2,7.5740227E-3,-1.3225202E-2,3.059761E-2],"split_indices":[0,5,0,2,5,0,4,0,0,0,0,0,0],"split_type":[0,0,0,0,0,0,0,0,0,0,0,0,0],"sum_hessian":[9.4444885E1,8.954318E1,4.9017024E0,7.1817627E0,8.236142E1,2.7802134E0,2.121489E0,3.7712226E0,3.41054E0,4.9142223E1,3.32192E1,1.0904422E0,1.0310467E0],"tree_param":{"num_deleted":"0","num_feature":"6","num_nodes":"13","size_leaf_vector":"1"}},{"base_weights":[9.979744E-3,1.4012912E-1,-2.0337407E-1,8.117923E-2,1.0518897E0,-5.1292366E-1,2.3701721E-1,8.690091E-4,3.220709E-2,7.086854E-2,9.488978E-3,1.659998E-2,-3.096438E-2,3.5482965E-2,-2.5578022E-3],"categories":[],"categories_nodes":[],"categories_segments":[],"categories_sizes":[],"default_left":[0,0,0,0,0,0,0,0,0,0,0,0,0,0,0],"id":54,"left_children":[1,3,5,7,9,11,13,-1,-1,-1,-1,-1,-1,-1,-1],"loss_changes":[2.6758623E0,3.1291952E0,5.101561E0,2.0453765E0,8.4907365E-1,2.1618986E0,2.1832151E0,0E0,0E0,0E0,0E0,0E0,0E0,0E0,0E0],"parents":[2147483647,0,0,1,1,2,2,3,3,4,4,5,5,6,6],"right_children":[2,4,6,8,10,12,14,-1,-1,-1,-1,-1,-1,-1,-1],"split_conditions":[6.259565E1,6.1423153E1,6.8E-1,9.9835545E-1,7.9317264E-2,2.5E-1,1.9456495E-2,8.690091E-4,3.220709E-2,7.086854E-2,9.488978E-3,1.659998E-2,-3.096438E-2,3.5482965E-2,-2.5578022E-3],"split_indices":[2,2,5,0,4,5,4,0,0,0,0,0,0,0,0],"split_type":[0,0,0,0,0,0,0,0,0,0,0,0,0,0,0],"sum_hessian":[9.433912E1,5.880829E1,3.5530827E1,5.6259846E1,2.548445E0,2.0768215E1,1.476261E1,5.1459003E1,4.80084E0,1.3373994E0,1.2110457E0,2.0849154E0,1.86833E1,5.0376263E0,9.724983E0],"tree_param":{"num_deleted":"0","num_feature":"6","num_nodes":"15","size_leaf_vector":"1"}},{"base_weights":[1.0871866E-2,1.352522E-1,-1.9438289E-1,7.787398E-2,1.017643E0,-4.7120798E-1,2.6396242E-1,8.2642346E-4,3.1460457E-2,6.858574E-2,9.202742E-3,1.4747637E-4,-3.3071265E-2,-3.878863E-2,2.2042593E-2],"categories":[],"categories_nodes":[],"categories_segments":[],"categories_sizes":[],"default_left":[0,0,0,0,0,0,0,0,0,0,0,0,0,0,0],"id":55,"left_children":[1,3,5,7,9,11,13,-1,-1,-1,-1,-1,-1,-1,-1],"loss_changes":[2.4504495E0,2.94414E0,4.7224746E0,1.9225994E0,7.991767E-1,2.0721135E0,2.9695811E0,0E0,0E0,0E0,0E0,0E0,0E0,0E0,0E0],"parents":[2147483647,0,0,1,1,2,2,3,3,4,4,5,5,6,6],"right_children":[2,4,6,8,10,12,14,-1,-1,-1,-1,-1,-1,-1,-1],"split_conditions":[6.259565E1,6.1423153E1,7.1E-1,9.9835545E-1,7.9317264E-2,8.689231E-3,1.9296021E-4,8.2642346E-4,3.1460457E-2,6.858574E-2,9.202742E-3,1.4747637E-4,-3.3071265E-2,-3.878863E-2,2.2042593E-2],"split_indices":[2,2,5,0,4,4,0,0,0,0,0,0,0,0,0],"split_type":[0,0,0,0,0,0,0,0,0,0,0,0,0,0,0],"sum_hessian":[9.395461E1,5.8715332E1,3.523928E1,5.615224E1,2.5630941E0,2.1952593E1,1.3286688E1,5.1456768E1,4.6954713E0,1.345872E0,1.217222E0,6.567123E0,1.538547E1,1.4395493E0,1.1847138E1],"tree_param":{"num_deleted":"0","num_feature":"6","num_nodes":"15","size_leaf_vector":"1"}},{"base_weights":[1.0954301E-2,1.3055694E-1,-1.8775797E-1,7.4709065E-2,9.8524714E-1,-4.7963738E-1,2.1610567E-1,7.859207E-4,3.0726716E-2,6.6447474E-2,8.925426E-3,1.6830144E-2,-2.929219E-2,5.4113697E-2,3.162222E-3],"categories":[],"categories_nodes":[],"categories_segments":[],"categories_sizes":[],"default_left":[0,0,0,0,0,0,0,0,0,0,0,0,0,0,0],"id":56,"left_children":[1,3,5,7,9,11,13,-1,-1,-1,-1,-1,-1,-1,-1],"loss_changes":[2.271993E0,2.7723696E0,4.3404417E0,1.8070247E0,7.54025E-1,2.0327687E0,2.0192542E0,0E0,0E0,0E0,0E0,0E0,0E0,0E0,0E0],"parents":[2147483647,0,0,1,1,2,2,3,3,4,4,5,5,6,6],"right_children":[2,4,6,8,10,12,14,-1,-1,-1,-1,-1,-1,-1,-1],"split_conditions":[6.259565E1,6.1423153E1,6.8E-1,9.9835545E-1,7.9317264E-2,2.5E-1,6.7995255E1,7.859207E-4,3.0726716E-2,6.6447474E-2,8.925426E-3,1.6830144E-2,-2.929219E-2,5.4113697E-2,3.162222E-3],"split_indices":[2,2,5,0,4,5,2,0,0,0,0,0,0,0,0],"split_type":[0,0,0,0,0,0,0,0,0,0,0,0,0,0,0],"sum_hessian":[9.356499E1,5.8623287E1,3.4941704E1,5.604834E1,2.574947E0,2.0173985E1,1.4767718E1,5.145463E1,4.5937057E0,1.3517412E0,1.2232058E0,2.0729764E0,1.8101007E1,1.3031995E0,1.34645195E1],"tree_param":{"num_deleted":"0","num_feature":"6","num_nodes":"15","size_leaf_vector":"1"}},{"base_weights":[1.20277675E-2,2.0785446E-1,-1.01649754E-1,-1.585506E-1,3.5790393E-1,-4.887409E-1,1.1537926E-2,3.6074694E-2,-1.8181745E-2,2.5215706E-2,-1.6681343E-2,-4.0462755E-2,3.9688837E-2,5.019572E-2,-9.703596E-3],"categories":[],"categories_nodes":[],"categories_segments":[],"categories_sizes":[],"default_left":[0,0,0,0,0,0,0,0,0,0,0,0,0,0,0],"id":57,"left_children":[1,3,5,7,9,11,13,-1,-1,-1,-1,-1,-1,-1,-1],"loss_changes":[2.1183183E0,1.9771736E0,2.6466773E0,2.219081E0,2.7084131E0,6.2579365E0,9.910811E0,0E0,0E0,0E0,0E0,0E0,0E0,0E0,0E0],"parents":[2147483647,0,0,1,1,2,2,3,3,4,4,5,5,6,6],"right_children":[2,4,6,8,10,12,14,-1,-1,-1,-1,-1,-1,-1,-1],"split_conditions":[2.8763926E-1,2.1961052E-3,5.6754818E1,2E-1,5.6754818E1,4.3E-1,3.4E-1,3.6074694E-2,-1.8181745E-2,2.5215706E-2,-1.6681343E-2,-4.0462755E-2,3.9688837E-2,5.019572E-2,-9.703596E-3],"split_indices":[1,4,2,5,2,5,5,0,0,0,0,0,0,0,0],"split_type":[0,0,0,0,0,0,0,0,0,0,0,0,0,0,0],"sum_hessian":[9.3208755E1,3.3930275E1,5.927848E1,9.841561E0,2.4088715E1,1.2661021E1,4.6617462E1,1.3841121E0,8.457449E0,2.0103212E1,3.985503E0,1.0424774E1,2.2362463E0,7.334562E0,3.9282898E1],"tree_param":{"num_deleted":"0","num_feature":"6","num_nodes":"15","size_leaf_vector":"1"}},{"base_weights":[1.2131469E-2,4.1878274E-1,-4.0141888E-2,4.5571752E-2,1.523613E-1,-1.2011644E-2,-3.6671266E-2,-2.6682502E-2,2.976594E-2,-3.6135264E-2,7.596995E-4],"categories":[],"categories_nodes":[],"categories_segments":[],"categories_sizes":[],"default_left":[0,0,0,0,0,0,0,0,0,0,0],"id":58,"left_children":[1,3,5,-1,7,9,-1,-1,-1,-1,-1],"loss_changes":[2.010827E0,1.2750229E0,1.6300179E0,0E0,2.8070557E0,1.5920463E0,0E0,0E0,0E0,0E0,0E0],"parents":[2147483647,0,0,1,1,2,2,4,4,5,5],"right_children":[2,4,6,-1,8,10,-1,-1,-1,-1,-1],"split_conditions":[4.8832004E-3,9.969529E-1,8.272535E-1,4.5571752E-2,9.9835545E-1,7.3070857E-3,-3.6671266E-2,-2.6682502E-2,2.976594E-2,-3.6135264E-2,7.596995E-4],"split_indices":[1,0,4,0,0,1,0,0,0,0,0],"split_type":[0,0,0,0,0,0,0,0,0,0,0],"sum_hessian":[9.280505E1,9.772243E0,8.3032814E1,2.5801463E0,7.192096E0,8.077275E1,2.26006E0,2.7415285E0,4.4505677E0,2.0354736E0,7.873728E1],"tree_param":{"num_deleted":"0","num_feature":"6","num_nodes":"11","size_leaf_vector":"1"}},{"base_weights":[1.1325612E-2,9.19148E-2,-2.4261712E-1,-3.0706273E-2,3.7880588E-1,-4.871921E-1,3.9299592E-1,3.636493E-2,-5.471666E-3,5.019955E-2,7.6367455E-3,-8.572377E-3,-4.432649E-2,-2.5013814E-2,3.9317604E-2],"categories":[],"categories_nodes":[],"categories_segments":[],"categories_sizes":[],"default_left":[0,0,0,0,0,0,0,0,0,0,0,0,0,0,0],"id":59,"left_children":[1,3,5,7,9,11,13,-1,-1,-1,-1,-1,-1,-1,-1],"loss_changes":[1.9394397E0,2.5387664E0,3.742385E0,3.138048E0,2.8974242E0,1.9841418E0,2.818074E0,0E0,0E0,0E0,0E0,0E0,0E0,0E0,0E0],"parents":[2147483647,0,0,1,1,2,2,3,3,4,4,5,5,6,6],"right_children":[2,4,6,8,10,12,14,-1,-1,-1,-1,-1,-1,-1,-1],"split_conditions":[6.7995255E1,5.5E-1,9.5E-1,5.831004E-4,2.3931567E-2,6.7919336E-2,7.695469E1,3.636493E-2,-5.471666E-3,5.019955E-2,7.6367455E-3,-8.572377E-3,-4.432649E-2,-2.5013814E-2,3.9317604E-2],"split_indices":[2,5,5,0,0,4,2,0,0,0,0,0,0,0,0],"split_type":[0,0,0,0,0,0,0,0,0,0,0,0,0,0,0],"sum_hessian":[9.267877E1,7.083667E1,2.18421E1,5.0251484E1,2.0585188E1,1.594153E1,5.9005694E0,3.9529736E0,4.629851E1,4.553028E0,1.603216E1,9.700758E0,6.240773E0,1.7208583E0,4.1797113E0],"tree_param":{"num_deleted":"0","num_feature":"6","num_nodes":"15","size_leaf_vector":"1"}},{"base_weights":[1.1227911E-2,1.2221159E-1,-1.7403333E-1,6.80803E-2,9.3719935E-1,-4.6196067E-1,2.1915449E-1,6.8053096E-3,-1.6949471E-2,6.371225E-2,8.150463E-3,-5.3270378E-5,-3.2535654E-2,3.3003535E-2,-2.5292558E-3],"categories":[],"categories_nodes":[],"categories_segments":[],"categories_sizes":[],"default_left":[0,0,0,0,0,0,0,0,0,0,0,0,0,0,0],"id":60,"left_children":[1,3,5,7,9,11,13,-1,-1,-1,-1,-1,-1,-1,-1],"loss_changes":[1.9446768E0,2.5429504E0,4.1154623E0,1.610318E0,7.321446E-1,1.8080049E0,1.8967681E0,0E0,0E0,0E0,0E0,0E0,0E0,0E0,0E0],"parents":[2147483647,0,0,1,1,2,2,3,3,4,4,5,5,6,6],"right_children":[2,4,6,8,10,12,14,-1,-1,-1,-1,-1,-1,-1,-1],"split_conditions":[6.259565E1,6.1423153E1,6.8E-1,5.88387E1,7.9317264E-2,8.689231E-3,1.9456495E-2,6.8053096E-3,-1.6949471E-2,6.371225E-2,8.150463E-3,-5.3270378E-5,-3.2535654E-2,3.3003535E-2,-2.5292558E-3],"split_indices":[2,2,5,2,4,4,4,0,0,0,0,0,0,0,0],"split_type":[0,0,0,0,0,0,0,0,0,0,0,0,0,0,0],"sum_hessian":[9.254654E1,5.8088207E1,3.4458332E1,5.5486355E1,2.6018546E0,1.9790813E1,1.4667519E1,4.8111954E1,7.3743997E0,1.362695E0,1.2391596E0,6.0423226E0,1.3748491E1,5.018012E0,9.649506E0],"tree_param":{"num_deleted":"0","num_feature":"6","num_nodes":"15","size_leaf_vector":"1"}},{"base_weights":[1.1295476E-2,4.033191E-1,-3.856211E-2,4.475072E-2,1.4071146E-1,-1.2095275E-2,-3.5371542E-2,-2.577661E-2,2.8870467E-2,-3.4863748E-2,7.252272E-4],"categories":[],"categories_nodes":[],"categories_segments":[],"categories_sizes":[],"default_left":[0,0,0,0,0,0,0,0,0,0,0],"id":61,"left_children":[1,3,5,-1,7,9,-1,-1,-1,-1,-1],"loss_changes":[1.8367801E0,1.2428604E0,1.4710257E0,0E0,2.6180217E0,1.4939538E0,0E0,0E0,0E0,0E0,0E0],"parents":[2147483647,0,0,1,1,2,2,4,4,5,5],"right_children":[2,4,6,-1,8,10,-1,-1,-1,-1,-1],"split_conditions":[4.8832004E-3,9.969529E-1,8.272535E-1,4.475072E-2,9.9835545E-1,7.3070857E-3,-3.5371542E-2,-2.577661E-2,2.8870467E-2,-3.4863748E-2,7.252272E-4],"split_indices":[1,0,4,0,0,1,0,0,0,0,0],"split_type":[0,0,0,0,0,0,0,0,0,0,0],"sum_hessian":[9.217956E1,9.600745E0,8.257882E1,2.5040634E0,7.096682E0,8.041492E1,2.163899E0,2.763434E0,4.333248E0,2.0629241E0,7.835199E1],"tree_param":{"num_deleted":"0","num_feature":"6","num_nodes":"11","size_leaf_vector":"1"}},{"base_weights":[1.0545108E-2,-6.55263E-2,2.5912488E-1,-3.3506345E-2,-3.7557956E-2,6.239934E-2,6.8943626E-1,4.2861238E-2,-3.4124192E-3,1.963607E-2,-2.3045287E-2,-1.481513E-4,4.4102814E-2],"categories":[],"categories_nodes":[],"categories_segments":[],"categories_sizes":[],"default_left":[0,0,0,0,0,0,0,0,0,0,0,0,0],"id":62,"left_children":[1,3,5,7,-1,9,11,-1,-1,-1,-1,-1,-1],"loss_changes":[1.7766873E0,1.5566335E0,1.8199363E0,2.2210884E0,0E0,2.9816759E0,9.101832E-1,0E0,0E0,0E0,0E0,0E0,0E0],"parents":[2147483647,0,0,1,1,2,2,3,3,5,5,6,6],"right_children":[2,4,6,8,-1,10,12,-1,-1,-1,-1,-1,-1],"split_conditions":[9.566288E-1,9.3423676E-1,1.3290344E-2,7.495695E-2,-3.7557956E-2,4.8832004E-3,9.6260494E-1,4.2861238E-2,-3.4124192E-3,1.963607E-2,-2.3045287E-2,-1.481513E-4,4.4102814E-2],"split_indices":[0,0,1,1,0,1,0,0,0,0,0,0,0],"split_type":[0,0,0,0,0,0,0,0,0,0,0,0,0],"sum_hessian":[9.205791E1,7.105099E1,2.1006918E1,6.8882935E1,2.1680543E0,1.5202018E1,5.8049006E0,1.6971331E0,6.718581E1,9.472375E0,5.7296424E0,1.4777048E0,4.3271956E0],"tree_param":{"num_deleted":"0","num_feature":"6","num_nodes":"13","size_leaf_vector":"1"}},{"base_weights":[1.0555018E-2,1.1428628E-1,-1.6346309E-1,6.100165E-2,9.116419E-1,-4.4385183E-1,2.1353725E-1,-8.402553E-3,8.530924E-3,6.19586E-2,7.986489E-3,1.5348606E-2,-2.731798E-2,5.187714E-2,3.3752527E-3],"categories":[],"categories_nodes":[],"categories_segments":[],"categories_sizes":[],"default_left":[0,0,0,0,0,0,0,0,0,0,0,0,0,0,0],"id":63,"left_children":[1,3,5,7,9,11,13,-1,-1,-1,-1,-1,-1,-1,-1],"loss_changes":[1.6941271E0,2.4401019E0,3.8025248E0,1.4380635E0,6.9058776E-1,1.7408991E0,1.8114204E0,0E0,0E0,0E0,0E0,0E0,0E0,0E0,0E0],"parents":[2147483647,0,0,1,1,2,2,3,3,4,4,5,5,6,6],"right_children":[2,4,6,8,10,12,14,-1,-1,-1,-1,-1,-1,-1,-1],"split_conditions":[6.259565E1,6.1423153E1,6.8E-1,5.264924E-3,7.9317264E-2,2.5E-1,6.7995255E1,-8.402553E-3,8.530924E-3,6.19586E-2,7.986489E-3,1.5348606E-2,-2.731798E-2,5.187714E-2,3.3752527E-3],"split_indices":[2,2,5,4,4,5,2,0,0,0,0,0,0,0,0],"split_type":[0,0,0,0,0,0,0,0,0,0,0,0,0,0,0],"sum_hessian":[9.181673E1,5.774092E1,3.4075806E1,5.5133068E1,2.6078548E0,1.9440144E1,1.4635661E1,1.7672321E1,3.7460743E1,1.3651658E0,1.242689E0,2.0956705E0,1.7344473E1,1.2842457E0,1.3351415E1],"tree_param":{"num_deleted":"0","num_feature":"6","num_nodes":"15","size_leaf_vector":"1"}},{"base_weights":[1.1242238E-2,-2.0624015E-2,5.534451E-1,-1.23651125E-1,1.5245219E-1,3.8905855E-2,5.1117684E-3,9.2651237E-7,-2.8711436E-2,3.3619117E-2,-1.3823336E-3],"categories":[],"categories_nodes":[],"categories_segments":[],"categories_sizes":[],"default_left":[0,0,0,0,0,0,0,0,0,0,0],"id":64,"left_children":[1,3,5,7,9,-1,-1,-1,-1,-1,-1],"loss_changes":[1.6111586E0,1.5953939E0,4.4510782E-1,3.1190495E0,3.1497731E0,0E0,0E0,0E0,0E0,0E0,0E0],"parents":[2147483647,0,0,1,1,2,2,3,3,4,4],"right_children":[2,4,6,8,10,-1,-1,-1,-1,-1,-1],"split_conditions":[9.9835545E-1,5.7E-1,9.9952054E-1,1.3457584E-1,6.4E-1,3.8905855E-2,5.1117684E-3,9.2651237E-7,-2.8711436E-2,3.3619117E-2,-1.3823336E-3],"split_indices":[0,5,0,4,5,0,0,0,0,0,0],"split_type":[0,0,0,0,0,0,0,0,0,0,0],"sum_hessian":[9.1588646E1,8.741318E1,4.17547E0,5.4974228E1,3.2438953E1,2.303813E0,1.8716568E0,4.391961E1,1.105462E1,7.642448E0,2.4796505E1],"tree_param":{"num_deleted":"0","num_feature":"6","num_nodes":"11","size_leaf_vector":"1"}},{"base_weights":[1.1210672E-2,8.439079E-2,-2.2254586E-1,7.274659E-1,3.0798472E-2,-4.6025643E-1,3.75854E-1,5.0756026E-2,-8.832303E-3,-5.0743907E-3,1.980801E-2,-8.012128E-3,-4.2848498E-2,-2.4377374E-2,3.758272E-2],"categories":[],"categories_nodes":[],"categories_segments":[],"categories_sizes":[],"default_left":[0,0,0,0,0,0,0,0,0,0,0,0,0,0,0],"id":65,"left_children":[1,3,5,7,9,11,13,-1,-1,-1,-1,-1,-1,-1,-1],"loss_changes":[1.5994864E0,2.4279273E0,3.3459506E0,1.590251E0,3.2626865E0,1.8162556E0,2.6027665E0,0E0,0E0,0E0,0E0,0E0,0E0,0E0,0E0],"parents":[2147483647,0,0,1,1,2,2,3,3,4,4,5,5,6,6],"right_children":[2,4,6,8,10,12,14,-1,-1,-1,-1,-1,-1,-1,-1],"split_conditions":[6.7995255E1,5.831004E-4,9.5E-1,1.3204648E-1,5.7E-1,6.7919336E-2,7.695469E1,5.0756026E-2,-8.832303E-3,-5.0743907E-3,1.980801E-2,-8.012128E-3,-4.2848498E-2,-2.4377374E-2,3.758272E-2],"split_indices":[2,0,5,4,5,4,2,0,0,0,0,0,0,0,0],"split_type":[0,0,0,0,0,0,0,0,0,0,0,0,0,0,0],"sum_hessian":[9.140471E1,7.009855E1,2.130616E1,4.425167E0,6.5673386E1,1.5413929E1,5.892231E0,3.263926E0,1.1612412E0,4.874613E1,1.6927254E1,9.576013E0,5.8379164E0,1.6967019E0,4.195529E0],"tree_param":{"num_deleted":"0","num_feature":"6","num_nodes":"15","size_leaf_vector":"1"}},{"base_weights":[1.0822751E-2,1.086931E-1,-1.5485704E-1,5.707495E-2,8.789961E-1,-4.2799953E-1,2.0744002E-1,6.151191E-3,-1.674739E-2,5.974261E-2,7.7643576E-3,1.495859E-2,-2.646755E-2,5.0274767E-2,3.3167338E-3],"categories":[],"categories_nodes":[],"categories_segments":[],"categories_sizes":[],"default_left":[0,0,0,0,0,0,0,0,0,0,0,0,0,0,0],"id":66,"left_children":[1,3,5,7,9,11,13,-1,-1,-1,-1,-1,-1,-1,-1],"loss_changes":[1.5114422E0,2.2771688E0,3.5168624E0,1.4870809E0,6.388552E-1,1.638067E0,1.6859758E0,0E0,0E0,0E0,0E0,0E0,0E0,0E0,0E0],"parents":[2147483647,0,0,1,1,2,2,3,3,4,4,5,5,6,6],"right_children":[2,4,6,8,10,12,14,-1,-1,-1,-1,-1,-1,-1,-1],"split_conditions":[6.259565E1,6.1423153E1,6.8E-1,5.88387E1,7.9317264E-2,2.5E-1,6.7995255E1,6.151191E-3,-1.674739E-2,5.974261E-2,7.7643576E-3,1.495859E-2,-2.646755E-2,5.0274767E-2,3.3167338E-3],"split_indices":[2,2,5,2,4,5,2,0,0,0,0,0,0,0,0],"split_type":[0,0,0,0,0,0,0,0,0,0,0,0,0,0,0],"sum_hessian":[9.117376E1,5.7532265E1,3.36415E1,5.4925774E1,2.6064928E0,1.9077366E1,1.4564131E1,4.7603718E1,7.322056E0,1.3613372E0,1.2451555E0,2.0949318E0,1.6982433E1,1.2678201E0,1.329631E1],"tree_param":{"num_deleted":"0","num_feature":"6","num_nodes":"15","size_leaf_vector":"1"}},{"base_weights":[1.1359031E-2,-1.9055473E-2,5.366361E-1,2.012803E-3,-3.9579205E-2,3.822511E-2,4.606116E-3,2.9670833E-2,-1.620925E-3],"categories":[],"categories_nodes":[],"categories_segments":[],"categories_sizes":[],"default_left":[0,0,0,0,0,0,0,0,0],"id":67,"left_children":[1,3,5,7,-1,-1,-1,-1,-1],"loss_changes":[1.4780889E0,1.430872E0,4.4240952E-1,1.7802553E0,0E0,0E0,0E0,0E0,0E0],"parents":[2147483647,0,0,1,1,2,2,3,3],"right_children":[2,4,6,8,-1,-1,-1,-1,-1],"split_conditions":[9.9835545E-1,9.979352E-1,9.9952054E-1,4.8832004E-3,-3.9579205E-2,3.822511E-2,4.606116E-3,2.9670833E-2,-1.620925E-3],"split_indices":[0,0,0,1,0,0,0,0,0],"split_type":[0,0,0,0,0,0,0,0,0],"sum_hessian":[9.087901E1,8.681593E1,4.063079E0,8.548208E1,1.333859E0,2.2102182E0,1.8528606E0,3.809748E0,8.167233E1],"tree_param":{"num_deleted":"0","num_feature":"6","num_nodes":"9","size_leaf_vector":"1"}},{"base_weights":[1.1177595E-2,-1.8235667E-2,5.2608085E-1,3.7865514E-1,-5.84345E-2,4.2094593E-3,3.7904747E-2,-3.4200344E-3,3.8091473E-2,-9.739148E-3,7.1264463E-3],"categories":[],"categories_nodes":[],"categories_segments":[],"categories_sizes":[],"default_left":[0,0,0,0,0,0,0,0,0,0,0],"id":68,"left_children":[1,3,5,7,9,-1,-1,-1,-1,-1,-1],"loss_changes":[1.3988436E0,1.4219744E0,4.4780993E-1,1.457295E0,2.234552E0,0E0,0E0,0E0,0E0,0E0,0E0],"parents":[2147483647,0,0,1,1,2,2,3,3,4,4],"right_children":[2,4,6,8,10,-1,-1,-1,-1,-1,-1],"split_conditions":[9.9835545E-1,1.7E-1,1.0501158E-2,5.7158142E1,5.7E-1,4.2094593E-3,3.7904747E-2,-3.4200344E-3,3.8091473E-2,-9.739148E-3,7.1264463E-3],"split_indices":[0,5,4,2,5,0,0,0,0,0,0],"split_type":[0,0,0,0,0,0,0,0,0,0,0],"sum_hessian":[9.073006E1,8.673973E1,3.9903235E0,7.203053E0,7.9536674E1,1.843009E0,2.1473145E0,3.7035494E0,3.4995036E0,4.7404625E1,3.213205E1],"tree_param":{"num_deleted":"0","num_feature":"6","num_nodes":"11","size_leaf_vector":"1"}},{"base_weights":[1.1437405E-2,8.121944E-2,-2.1308123E-1,4.2668354E-2,4.806594E-2,-8.4510505E-1,4.461718E-3,4.641743E-3,-2.8225837E-2,-4.9299367E-2,-5.526743E-3,1.4440228E-2,-4.143631E-2],"categories":[],"categories_nodes":[],"categories_segments":[],"categories_sizes":[],"default_left":[0,0,0,0,0,0,0,0,0,0,0,0,0],"id":69,"left_children":[1,3,5,7,-1,9,11,-1,-1,-1,-1,-1,-1],"loss_changes":[1.4532893E0,2.3559194E0,3.0297391E0,2.1458828E0,0E0,4.7476482E-1,4.353894E0,0E0,0E0,0E0,0E0,0E0,0E0],"parents":[2147483647,0,0,1,1,2,2,3,3,5,5,6,6],"right_children":[2,4,6,8,-1,10,12,-1,-1,-1,-1,-1,-1],"split_conditions":[6.7995255E1,6.710297E1,6E-1,6.528319E1,4.806594E-2,9.9974054E-1,2.879187E-3,4.641743E-3,-2.8225837E-2,-4.9299367E-2,-5.526743E-3,1.4440228E-2,-4.143631E-2],"split_indices":[2,2,5,2,0,1,0,0,0,0,0,0,0],"split_type":[0,0,0,0,0,0,0,0,0,0,0,0,0],"sum_hessian":[9.065438E1,6.964611E1,2.1008272E1,6.77279E1,1.9182115E0,4.640764E0,1.6367508E1,6.334163E1,4.3862705E0,3.6067636E0,1.0340008E0,1.2690114E1,3.677393E0],"tree_param":{"num_deleted":"0","num_feature":"6","num_nodes":"13","size_leaf_vector":"1"}},{"base_weights":[1.0189636E-2,7.751413E-2,-2.0732577E-1,7.1173996E-1,2.414872E-2,-4.3306646E-1,3.4688914E-1,4.895972E-2,-8.087411E-3,-4.6962403E-2,3.6261284E-3,-8.441078E-3,-4.4223446E-2,-2.384038E-2,3.5207875E-2],"categories":[],"categories_nodes":[],"categories_segments":[],"categories_sizes":[],"default_left":[0,0,0,0,0,0,0,0,0,0,0,0,0,0,0],"id":70,"left_children":[1,3,5,7,9,11,13,-1,-1,-1,-1,-1,-1,-1,-1],"loss_changes":[1.3563129E0,2.3728945E0,2.890601E0,1.430577E0,3.1519136E0,1.7602582E0,2.3647683E0,0E0,0E0,0E0,0E0,0E0,0E0,0E0,0E0],"parents":[2147483647,0,0,1,1,2,2,3,3,4,4,5,5,6,6],"right_children":[2,4,6,8,10,12,14,-1,-1,-1,-1,-1,-1,-1,-1],"split_conditions":[6.7995255E1,5.831004E-4,9.5E-1,1.3204648E-1,1.2484003E-3,7.609049E1,7.695469E1,4.895972E-2,-8.087411E-3,-4.6962403E-2,3.6261284E-3,-8.441078E-3,-4.4223446E-2,-2.384038E-2,3.5207875E-2],"split_indices":[2,0,5,4,0,2,2,0,0,0,0,0,0,0,0],"split_type":[0,0,0,0,0,0,0,0,0,0,0,0,0,0,0],"sum_hessian":[9.052088E1,6.961696E1,2.0903923E1,4.4456105E0,6.517135E1,1.5009078E1,5.8948455E0,3.3108432E0,1.1347674E0,2.2354028E0,6.2935947E1,1.0333803E1,4.6752753E0,1.6821008E0,4.2127447E0],"tree_param":{"num_deleted":"0","num_feature":"6","num_nodes":"15","size_leaf_vector":"1"}},{"base_weights":[9.150988E-3,3.1408515E-2,-3.1755753E-2,-1.5027141E-2,3.9222667E-1,3.3677393E-3,-4.103955E-2,3.5429717E-4,3.9583962E-2],"categories":[],"categories_nodes":[],"categories_segments":[],"categories_sizes":[],"default_left":[0,0,0,0,0,0,0,0,0],"id":71,"left_children":[1,3,-1,5,7,-1,-1,-1,-1],"loss_changes":[1.3298974E0,1.5013156E0,0E0,5.3683367E0,1.5657173E0,0E0,0E0,0E0,0E0],"parents":[2147483647,0,0,1,1,3,3,4,4],"right_children":[2,4,-1,6,8,-1,-1,-1,-1],"split_conditions":[8.272535E-1,2.5926873E-1,-3.1755753E-2,1.376322E-1,5.7E-1,3.3677393E-3,-4.103955E-2,3.5429717E-4,3.9583962E-2],"split_indices":[4,4,0,4,5,0,0,0,0],"split_type":[0,0,0,0,0,0,0,0,0],"sum_hessian":[9.035082E1,8.825318E1,2.0976427E0,7.9039505E1,9.213673E0,7.253943E1,6.5000787E0,5.2090216E0,4.0046506E0],"tree_param":{"num_deleted":"0","num_feature":"6","num_nodes":"9","size_leaf_vector":"1"}},{"base_weights":[8.343479E-3,-5.694805E-2,2.2467944E-1,1.9377074E-1,-1.4257157E-1,2.168764E-2,6.683613E-1,8.103322E-2,-5.368737E-4,-1.3234263E-3,-4.436898E-2,3.0442202E-2,-1.2115085E-2,-2.5520858E-4,4.300467E-2],"categories":[],"categories_nodes":[],"categories_segments":[],"categories_sizes":[],"default_left":[0,0,0,0,0,0,0,0,0,0,0,0,0,0,0],"id":72,"left_children":[1,3,5,7,9,11,13,-1,-1,-1,-1,-1,-1,-1,-1],"loss_changes":[1.302146E0,1.5500393E0,1.9096931E0,5.4093494E0,4.5976963E0,2.5798078E0,8.6602545E-1,0E0,0E0,0E0,0E0,0E0,0E0,0E0,0E0],"parents":[2147483647,0,0,1,1,2,2,3,3,4,4,5,5,6,6],"right_children":[2,4,6,8,10,12,14,-1,-1,-1,-1,-1,-1,-1,-1],"split_conditions":[9.566288E-1,5.831004E-4,1.3290344E-2,9.990495E-1,7.8E-1,3.6E-1,9.6260494E-1,8.103322E-2,-5.368737E-4,-1.3234263E-3,-4.436898E-2,3.0442202E-2,-1.2115085E-2,-2.5520858E-4,4.300467E-2],"split_indices":[0,0,1,1,5,5,0,0,0,0,0,0,0,0,0],"split_type":[0,0,0,0,0,0,0,0,0,0,0,0,0,0,0],"sum_hessian":[9.028209E1,6.991736E1,2.036473E1,1.7477503E1,5.2439857E1,1.4691848E1,5.6728826E0,1.3228723E0,1.615463E1,4.6263668E1,6.1761904E0,4.1516232E0,1.0540225E1,1.4728441E0,4.2000384E0],"tree_param":{"num_deleted":"0","num_feature":"6","num_nodes":"15","size_leaf_vector":"1"}},{"base_weights":[9.0100635E-3,-8.3939336E-2,1.6255471E-1,-1.5537355E-2,-7.803026E-1,6.557154E-1,-6.6740345E-3,3.823546E-2,-4.9287747E-3,-4.6208497E-2,-5.930807E-3,-1.3620898E-2,4.955012E-2,-5.8965734E-3,2.765869E-2],"categories":[],"categories_nodes":[],"categories_segments":[],"categories_sizes":[],"default_left":[0,0,0,0,0,0,0,0,0,0,0,0,0,0,0],"id":73,"left_children":[1,3,5,7,9,11,13,-1,-1,-1,-1,-1,-1,-1,-1],"loss_changes":[1.3140684E0,2.7228506E0,2.9003158E0,3.528884E0,3.7732625E-1,3.031867E0,1.7360625E0,0E0,0E0,0E0,0E0,0E0,0E0,0E0,0E0],"parents":[2147483647,0,0,1,1,2,2,3,3,4,4,5,5,6,6],"right_children":[2,4,6,8,10,12,14,-1,-1,-1,-1,-1,-1,-1,-1],"split_conditions":[5.7E-1,6.759044E1,6.4E-1,5.831004E-4,9.9971265E-1,1.6262925E-3,2.6283124E-1,3.823546E-2,-4.9287747E-3,-4.6208497E-2,-5.930807E-3,-1.3620898E-2,4.955012E-2,-5.8965734E-3,2.765869E-2],"split_indices":[5,2,5,0,1,0,4,0,0,0,0,0,0,0,0],"split_type":[0,0,0,0,0,0,0,0,0,0,0,0,0,0,0],"sum_hessian":[9.011788E1,5.641809E1,3.369979E1,5.230283E1,4.115261E0,7.875256E0,2.5824533E1,4.2413106E0,4.806152E1,3.0544565E0,1.0608045E0,2.1396995E0,5.7355566E0,2.220177E1,3.6227627E0],"tree_param":{"num_deleted":"0","num_feature":"6","num_nodes":"15","size_leaf_vector":"1"}},{"base_weights":[8.967095E-3,-1.9276274E-2,5.1089185E-1,1.2215327E-3,-3.799924E-2,3.729446E-2,3.5657024E-3,2.8553639E-2,-1.5730525E-3],"categories":[],"categories_nodes":[],"categories_segments":[],"categories_sizes":[],"default_left":[0,0,0,0,0,0,0,0,0],"id":74,"left_children":[1,3,5,7,-1,-1,-1,-1,-1],"loss_changes":[1.3002036E0,1.3239394E0,4.5146906E-1,1.6157407E0,0E0,0E0,0E0,0E0,0E0],"parents":[2147483647,0,0,1,1,2,2,3,3],"right_children":[2,4,6,8,-1,-1,-1,-1,-1],"split_conditions":[9.9835545E-1,9.979352E-1,9.9952054E-1,4.8832004E-3,-3.799924E-2,3.729446E-2,3.5657024E-3,2.8553639E-2,-1.5730525E-3],"split_indices":[0,0,0,1,0,0,0,0,0],"split_type":[0,0,0,0,0,0,0,0,0],"sum_hessian":[9.002365E1,8.613824E1,3.885414E0,8.479017E1,1.3480684E0,2.0777974E0,1.8076166E0,3.7056367E0,8.108453E1],"tree_param":{"num_deleted":"0","num_feature":"6","num_nodes":"9","size_leaf_vector":"1"}},{"base_weights":[8.88551E-3,3.0449916E-2,-3.0941857E-2,-1.3598915E-2,3.6953565E-1,3.251142E-3,-3.9709296E-2,4.6349433E-4,3.6937416E-2],"categories":[],"categories_nodes":[],"categories_segments":[],"categories_sizes":[],"default_left":[0,0,0,0,0,0,0,0,0],"id":75,"left_children":[1,3,-1,5,7,-1,-1,-1,-1],"loss_changes":[1.2490877E0,1.3316451E0,0E0,4.935028E0,1.3561403E0,0E0,0E0,0E0,0E0],"parents":[2147483647,0,0,1,1,3,3,4,4],"right_children":[2,4,-1,6,8,-1,-1,-1,-1],"split_conditions":[8.272535E-1,2.5926873E-1,-3.0941857E-2,1.376322E-1,5.7E-1,3.251142E-3,-3.9709296E-2,4.6349433E-4,3.6937416E-2],"split_indices":[4,4,0,4,5,0,0,0,0],"split_type":[0,0,0,0,0,0,0,0,0],"sum_hessian":[8.98837E1,8.781834E1,2.0653667E0,7.8571434E1,9.246903E0,7.2214584E1,6.3568487E0,5.198997E0,4.047906E0],"tree_param":{"num_deleted":"0","num_feature":"6","num_nodes":"9","size_leaf_vector":"1"}},{"base_weights":[8.086681E-3,-1.9187376E-2,4.9950066E-1,3.5556886E-1,-5.7493746E-2,3.2943406E-3,3.6870915E-2,-4.0330454E-3,3.6351945E-2,-9.29366E-3,6.5626986E-3],"categories":[],"categories_nodes":[],"categories_segments":[],"categories_sizes":[],"default_left":[0,0,0,0,0,0,0,0,0,0,0],"id":76,"left_children":[1,3,5,7,9,-1,-1,-1,-1,-1,-1],"loss_changes":[1.2267725E0,1.2694234E0,4.478749E-1,1.3886633E0,1.9579513E0,0E0,0E0,0E0,0E0,0E0,0E0],"parents":[2147483647,0,0,1,1,2,2,3,3,4,4],"right_children":[2,4,6,8,10,-1,-1,-1,-1,-1,-1],"split_conditions":[9.9835545E-1,1.7E-1,1.0501158E-2,5.7158142E1,5.7E-1,3.2943406E-3,3.6870915E-2,-4.0330454E-3,3.6351945E-2,-9.29366E-3,6.5626986E-3],"split_indices":[0,5,4,2,5,0,0,0,0,0,0],"split_type":[0,0,0,0,0,0,0,0,0,0,0],"sum_hessian":[8.9815636E1,8.60033E1,3.8123305E0,7.207654E0,7.8795654E1,1.8030801E0,2.0092504E0,3.6749253E0,3.5327284E0,4.6906654E1,3.1888998E1],"tree_param":{"num_deleted":"0","num_feature":"6","num_nodes":"11","size_leaf_vector":"1"}},{"base_weights":[8.458021E-3,9.8011166E-2,-1.4409715E-1,4.812078E-2,8.338778E-1,-4.0557465E-1,1.962556E-1,-9.297097E-3,8.054449E-3,5.7214197E-2,7.0260675E-3,1.1659535E-3,-2.9705772E-2,3.0732334E-2,-2.9873482E-3],"categories":[],"categories_nodes":[],"categories_segments":[],"categories_sizes":[],"default_left":[0,0,0,0,0,0,0,0,0,0,0,0,0,0,0],"id":77,"left_children":[1,3,5,7,9,11,13,-1,-1,-1,-1,-1,-1,-1,-1],"loss_changes":[1.2538471E0,2.0809073E0,3.1027384E0,1.4886562E0,6.155138E-1,1.593703E0,1.6897229E0,0E0,0E0,0E0,0E0,0E0,0E0,0E0,0E0],"parents":[2147483647,0,0,1,1,2,2,3,3,4,4,5,5,6,6],"right_children":[2,4,6,8,10,12,14,-1,-1,-1,-1,-1,-1,-1,-1],"split_conditions":[6.259565E1,6.1423153E1,6.8E-1,5.264924E-3,7.9317264E-2,8.689231E-3,1.9456495E-2,-9.297097E-3,8.054449E-3,5.7214197E-2,7.0260675E-3,1.1659535E-3,-2.9705772E-2,3.0732334E-2,-2.9873482E-3],"split_indices":[2,2,5,4,4,4,4,0,0,0,0,0,0,0,0],"split_type":[0,0,0,0,0,0,0,0,0,0,0,0,0,0,0],"sum_hessian":[8.974386E1,5.6773903E1,3.2969955E1,5.416688E1,2.60702E0,1.853711E1,1.4432847E1,1.7422543E1,3.674434E1,1.3515813E0,1.2554386E0,5.9281163E0,1.2608994E1,4.946965E0,9.485882E0],"tree_param":{"num_deleted":"0","num_feature":"6","num_nodes":"15","size_leaf_vector":"1"}},{"base_weights":[8.707415E-3,1.5935203E-1,-7.8034766E-2,4.393607E-2,7.30002E-2,-4.6651596E-1,3.7386633E-2,-2.0456564E-2,1.32815195E-2,-3.8964957E-2,3.7521046E-2,4.5993686E-2,-7.896847E-3],"categories":[],"categories_nodes":[],"categories_segments":[],"categories_sizes":[],"default_left":[0,0,0,0,0,0,0,0,0,0,0,0,0],"id":78,"left_children":[1,3,5,-1,7,9,11,-1,-1,-1,-1,-1,-1],"loss_changes":[1.1949259E0,2.0103238E0,2.6224818E0,0E0,2.9790788E0,5.6783905E0,8.025348E0,0E0,0E0,0E0,0E0,0E0,0E0],"parents":[2147483647,0,0,1,1,2,2,4,4,5,5,6,6],"right_children":[2,4,6,-1,8,10,12,-1,-1,-1,-1,-1,-1],"split_conditions":[2.8763926E-1,2.1E-1,5.6754818E1,4.393607E-2,2.1961052E-3,4.3E-1,3.4E-1,-2.0456564E-2,1.32815195E-2,-3.8964957E-2,3.7521046E-2,4.5993686E-2,-7.896847E-3],"split_indices":[1,5,2,0,4,5,5,0,0,0,0,0,0],"split_type":[0,0,0,0,0,0,0,0,0,0,0,0,0],"sum_hessian":[8.949276E1,3.239518E1,5.7097584E1,2.4884706E0,2.9906708E1,1.2381735E1,4.4715847E1,8.216878E0,2.168983E1,1.0136121E1,2.245614E0,7.4312763E0,3.7284573E1],"tree_param":{"num_deleted":"0","num_feature":"6","num_nodes":"13","size_leaf_vector":"1"}},{"base_weights":[9.063763E-3,2.9967958E-2,-3.0201728E-2,-1.3028022E-2,3.6036283E-1,3.140786E-3,-3.8759045E-2,5.374207E-4,3.569335E-2],"categories":[],"categories_nodes":[],"categories_segments":[],"categories_sizes":[],"default_left":[0,0,0,0,0,0,0,0,0],"id":79,"left_children":[1,3,-1,5,7,-1,-1,-1,-1],"loss_changes":[1.1738839E0,1.257062E0,0E0,4.613707E0,1.2512778E0,0E0,0E0,0E0,0E0],"parents":[2147483647,0,0,1,1,3,3,4,4],"right_children":[2,4,-1,6,8,-1,-1,-1,-1],"split_conditions":[8.272535E-1,2.5926873E-1,-3.0201728E-2,1.376322E-1,5.7E-1,3.140786E-3,-3.8759045E-2,5.374207E-4,3.569335E-2],"split_indices":[4,4,0,4,5,0,0,0,0],"split_type":[0,0,0,0,0,0,0,0,0],"sum_hessian":[8.918046E1,8.715978E1,2.020679E0,7.797328E1,9.186496E0,7.175076E1,6.2225175E0,5.1367116E0,4.049784E0],"tree_param":{"num_deleted":"0","num_feature":"6","num_nodes":"9","size_leaf_vector":"1"}},{"base_weights":[8.25992E-3,-1.8004445E-2,4.8702872E-1,2.0272017E-3,-3.6652636E-2,3.6403272E-2,2.690576E-3,2.784125E-2,-1.4758197E-3],"categories":[],"categories_nodes":[],"categories_segments":[],"categories_sizes":[],"default_left":[0,0,0,0,0,0,0,0,0],"id":80,"left_children":[1,3,5,7,-1,-1,-1,-1,-1],"loss_changes":[1.1419221E0,1.2389396E0,4.5390797E-1,1.504586E0,0E0,0E0,0E0,0E0,0E0],"parents":[2147483647,0,0,1,1,2,2,3,3],"right_children":[2,4,6,8,-1,-1,-1,-1,-1],"split_conditions":[9.9835545E-1,9.979352E-1,9.9952054E-1,4.8832004E-3,-3.6652636E-2,3.6403272E-2,2.690576E-3,2.784125E-2,-1.4758197E-3],"split_indices":[0,0,0,1,0,0,0,0,0],"split_type":[0,0,0,0,0,0,0,0,0],"sum_hessian":[8.911476E1,8.539268E1,3.7220888E0,8.403563E1,1.3570428E0,1.9541966E0,1.7678924E0,3.6250296E0,8.041061E1],"tree_param":{"num_deleted":"0","num_feature":"6","num_nodes":"9","size_leaf_vector":"1"}},{"base_weights":[8.201816E-3,6.939483E-2,-1.916049E-1,3.1057669E-2,4.6906587E-2,-8.059193E-1,9.065955E-3,3.943364E-3,-2.734364E-2,-4.7553062E-2,-5.810595E-3,1.3843234E-2,-3.9640453E-2],"categories":[],"categories_nodes":[],"categories_segments":[],"categories_sizes":[],"default_left":[0,0,0,0,0,0,0,0,0,0,0,0,0],"id":81,"left_children":[1,3,5,7,-1,9,11,-1,-1,-1,-1,-1,-1],"loss_changes":[1.1135056E0,2.2895682E0,2.6408424E0,1.9140627E0,0E0,4.1715932E-1,3.889816E0,0E0,0E0,0E0,0E0,0E0,0E0],"parents":[2147483647,0,0,1,1,2,2,3,3,5,5,6,6],"right_children":[2,4,6,8,-1,10,12,-1,-1,-1,-1,-1,-1],"split_conditions":[6.7995255E1,6.710297E1,6E-1,6.528319E1,4.6906587E-2,9.9973124E-1,2.879187E-3,3.943364E-3,-2.734364E-2,-4.7553062E-2,-5.810595E-3,1.3843234E-2,-3.9640453E-2],"split_indices":[2,2,5,2,0,1,0,0,0,0,0,0,0],"split_type":[0,0,0,0,0,0,0,0,0,0,0,0,0],"sum_hessian":[8.8983604E1,6.862051E1,2.0363098E1,6.671226E1,1.9082466E0,4.2712817E0,1.6091816E1,6.2412674E1,4.2995872E0,3.2156472E0,1.0556347E0,1.2553955E1,3.5378616E0],"tree_param":{"num_deleted":"0","num_feature":"6","num_nodes":"13","size_leaf_vector":"1"}},{"base_weights":[7.1244473E-3,2.723895E-2,-2.9446173E-2,7.899258E-3,3.5784934E-2,-3.0064012E-3,1.14782015E-2],"categories":[],"categories_nodes":[],"categories_segments":[],"categories_sizes":[],"default_left":[0,0,0,0,0,0,0],"id":82,"left_children":[1,3,-1,5,-1,-1,-1],"loss_changes":[1.0933949E0,1.1644677E0,0E0,1.3180448E0,0E0,0E0,0E0],"parents":[2147483647,0,0,1,1,3,3],"right_children":[2,4,-1,6,-1,-1,-1],"split_conditions":[8.272535E-1,6.0791194E-1,-2.9446173E-2,9.566288E-1,3.5784934E-2,-3.0064012E-3,1.14782015E-2],"split_indices":[4,4,0,0,0,0,0],"split_type":[0,0,0,0,0,0,0],"sum_hessian":[8.886025E1,8.688257E1,1.977678E0,8.5492455E1,1.390116E0,6.5974205E1,1.9518251E1],"tree_param":{"num_deleted":"0","num_feature":"6","num_nodes":"7","size_leaf_vector":"1"}},{"base_weights":[6.9461334E-3,-1.7995225E-2,4.6984872E-1,1.7755909E-3,-3.5940968E-2,3.573255E-2,2.1316486E-3,2.671413E-2,-1.3985625E-3],"categories":[],"categories_nodes":[],"categories_segments":[],"categories_sizes":[],"default_left":[0,0,0,0,0,0,0,0,0],"id":83,"left_children":[1,3,5,7,-1,-1,-1,-1,-1],"loss_changes":[1.0438093E0,1.1936424E0,4.528817E-1,1.3564906E0,0E0,0E0,0E0,0E0,0E0],"parents":[2147483647,0,0,1,1,2,2,3,3],"right_children":[2,4,6,8,-1,-1,-1,-1,-1],"split_conditions":[9.9835545E-1,9.979352E-1,9.9952054E-1,4.8832004E-3,-3.5940968E-2,3.573255E-2,2.1316486E-3,2.671413E-2,-1.3985625E-3],"split_indices":[0,0,0,1,0,0,0,0,0],"split_type":[0,0,0,0,0,0,0,0,0],"sum_hessian":[8.8676636E1,8.505497E1,3.6216671E0,8.369143E1,1.3635366E0,1.8746493E0,1.7470177E0,3.5304694E0,8.0160965E1],"tree_param":{"num_deleted":"0","num_feature":"6","num_nodes":"9","size_leaf_vector":"1"}},{"base_weights":[6.9338293E-3,2.6441798E-2,-2.875401E-2,-1.4745371E-2,3.405939E-1,2.910137E-3,-3.7688557E-2,3.2412168E-4,3.3832166E-2],"categories":[],"categories_nodes":[],"categories_segments":[],"categories_sizes":[],"default_left":[0,0,0,0,0,0,0,0,0],"id":84,"left_children":[1,3,-1,5,7,-1,-1,-1,-1],"loss_changes":[1.0319768E0,1.1385362E0,0E0,4.2709193E0,1.1403608E0,0E0,0E0,0E0,0E0],"parents":[2147483647,0,0,1,1,3,3,4,4],"right_children":[2,4,-1,6,8,-1,-1,-1,-1],"split_conditions":[8.272535E-1,2.5926873E-1,-2.875401E-2,1.376322E-1,5.7E-1,2.910137E-3,-3.7688557E-2,3.2412168E-4,3.3832166E-2],"split_indices":[4,4,0,4,5,0,0,0,0],"split_type":[0,0,0,0,0,0,0,0,0],"sum_hessian":[8.855245E1,8.660422E1,1.9482349E0,7.740857E1,9.195651E0,7.1292625E1,6.1159425E0,5.1222405E0,4.0734105E0],"tree_param":{"num_deleted":"0","num_feature":"6","num_nodes":"9","size_leaf_vector":"1"}},{"base_weights":[6.2372517E-3,-1.141244E-2,3.2629706E-2,3.911711E-2,-4.170707E-1,5.788625E-3,-1.5034585E-2,-4.491989E-2,1.3784962E-2],"categories":[],"categories_nodes":[],"categories_segments":[],"categories_sizes":[],"default_left":[0,0,0,0,0,0,0,0,0],"id":85,"left_children":[1,3,-1,5,7,-1,-1,-1,-1],"loss_changes":[1.028329E0,1.8220078E0,0E0,2.099106E0,3.529919E0,0E0,0E0,0E0,0E0],"parents":[2147483647,0,0,1,1,3,3,4,4],"right_children":[2,4,-1,6,8,-1,-1,-1,-1],"split_conditions":[8.3248146E1,7.551778E1,3.2629706E-2,1.376322E-1,9.6E-1,5.788625E-3,-1.5034585E-2,-4.491989E-2,1.3784962E-2],"split_indices":[2,2,0,4,5,0,0,0,0],"split_type":[0,0,0,0,0,0,0,0,0],"sum_hessian":[8.84882E1,8.709236E1,1.3958372E0,7.8249084E1,8.843281E0,6.438432E1,1.3864764E1,5.042795E0,3.8004854E0],"tree_param":{"num_deleted":"0","num_feature":"6","num_nodes":"9","size_leaf_vector":"1"}},{"base_weights":[5.8122342E-3,-7.7050544E-2,1.4257868E-1,1.3018353E-1,-2.7096295E-1,6.2293386E-1,-2.081469E-2,-8.428074E-3,4.429786E-2,1.0250831E-3,-3.249998E-2,-1.2608128E-2,4.703707E-2,1.2717734E-2,-1.14549035E-2],"categories":[],"categories_nodes":[],"categories_segments":[],"categories_sizes":[],"default_left":[0,0,0,0,0,0,0,0,0,0,0,0,0,0,0],"id":86,